<?xml version="1.0"?>
<opencv_storage>
<my_nn type_id="opencv-ml-ann-mlp">
  <layer_sizes type_id="opencv-matrix">
    <rows>1</rows>
    <cols>3</cols>
    <dt>i</dt>
    <data>
      265 10 34</data></layer_sizes>
  <activation_function>SIGMOID_SYM</activation_function>
  <f_param1>1.</f_param1>
  <f_param2>1.</f_param2>
  <min_val>-9.4999999999999996e-001</min_val>
  <max_val>9.4999999999999996e-001</max_val>
  <min_val1>-9.7999999999999998e-001</min_val1>
  <max_val1>9.7999999999999998e-001</max_val1>
  <training_params>
    <train_method>RPROP</train_method>
    <dw0>1.0000000000000001e-001</dw0>
    <dw_plus>1.2000000000000000e+000</dw_plus>
    <dw_minus>5.0000000000000000e-001</dw_minus>
    <dw_min>1.1920928955078125e-007</dw_min>
    <dw_max>50.</dw_max>
    <term_criteria><epsilon>9.9999997764825821e-003</epsilon>
      <iterations>1000</iterations></term_criteria></training_params>
  <input_scale>
    7.8971956501923328e+000 -3.5576679258079729e+000
    7.0398695719261442e+000 -3.6012790587887706e+000
    5.6569023669900211e+000 -3.4296568655293935e+000
    5.4759155122530254e+000 -3.6291190912620608e+000
    5.2271209441431150e+000 -4.0320823804627102e+000
    7.3625005097824578e+000 -6.4579193898601330e+000
    1.1352673744720043e+001 -1.0578048747364976e+001
    1.2873603578684701e+001 -1.2138394728258556e+001
    1.1462431495167483e+001 -1.0804698052259583e+001
    1.0879180194198289e+001 -1.0066828915002956e+001
    1.1698789601837582e+001 -1.0767630209390060e+001
    1.1283955583047181e+001 -1.0339481890924391e+001
    8.6223660477622364e+000 -7.6580048256274669e+000
    7.8866462407436639e+000 -6.8697857216279692e+000
    6.5863928221380910e+000 -5.3589532221044420e+000
    5.0420980013717154e+000 -3.5101362234317621e+000
    3.2658329649488231e+000 -1.6662845133730926e+000
    3.3942132998527113e+000 -1.5157176954540348e+000
    3.7922058248362638e+000 -1.3956968565951573e+000
    3.9698441226511791e+000 -1.2556163113714998e+000
    3.8665437222217198e+000 -1.8932973508023729e+000
    3.9103956954822388e+000 -2.3128993178388630e+000
    4.4529453527977880e+000 -2.9898676768848995e+000
    5.1964566921934825e+000 -3.7716983352647522e+000
    6.1667217956579101e+000 -4.7447858629208577e+000
    7.6373268576710478e+000 -6.2657579149584324e+000
    8.2164207061253993e+000 -7.0022900817488294e+000
    8.7680449919712515e+000 -7.5051078735749286e+000
    8.7755612896840898e+000 -7.6186737720487097e+000
    1.0386762254409819e+001 -9.2351169005115494e+000
    1.0378489749256548e+001 -9.2008280508650184e+000
    9.6795797455979553e+000 -8.7401089203772848e+000
    9.3714528551166900e+000 -8.4574192097547751e+000
    9.4807785132601303e+000 -8.4473419832941357e+000
    1.0621995772421940e+001 -9.4840839828757471e+000
    9.6525728090898184e+000 -7.9329118397071685e+000
    7.5724919904543722e+000 -5.8605389662674252e+000
    6.7479803250012322e+000 -4.8588193888339495e+000
    5.8840163010124513e+000 -3.7200668301376094e+000
    5.4988699083845640e+000 -2.9836071271386246e+000
    1.3671784539457983e+000 -5.4376415781935161e-001
    6.4500893957642436e-001 -4.5077329299943292e-001
    6.1708959515890525e-002 -1.8197130675424536e-001
    2.3957918146088688e-002 -3.7080323312469082e-001
    1.5473788776928626e-002 -5.9732341449121074e-001
    1.2587871653457088e-002 -6.9197533094998476e-001
    1.2593504576545161e-002 -7.1489604672876528e-001
    1.3428773231719248e-002 -6.5160070113001356e-001
    1.4716451655338634e-002 -5.6131556796754689e-001
    1.4728429375087983e-002 -5.1976292527654233e-001
    1.8979168475020642e-002 -4.1484580183752506e-001
    2.3845574062022840e-002 -2.6257228711477421e-001
    4.5335934213709843e-002 -1.7851024096648252e-001
    9.7526758710618155e-001 -4.1559698314183874e-001
    1.0459157815086062e+000 -3.4467679163351794e-001
    8.6275546377170653e-001 -5.5392822389887975e-001
    1.1864086876281867e-001 -1.9616189096579675e-001
    3.4566765745450062e-002 -4.5133197547184228e-001
    1.5666386189957127e-002 -8.4340346107865782e-001
    1.4325042694002157e-002 -1.4028774765558023e+000
    1.2917286497247979e-002 -1.5110289454848944e+000
    1.2601488402447777e-002 -1.3803641756294927e+000
    1.2242138302800602e-002 -1.0604056728761091e+000
    1.1584882957467615e-002 -9.1211206330470873e-001
    1.1284024211324330e-002 -8.2693945612307496e-001
    1.3272142379038262e-002 -7.0719404108307282e-001
    1.7528570078582963e-002 -4.9956424723961446e-001
    3.1408484834230720e-002 -2.8160561970690956e-001
    1.4712392114758227e-001 -2.4994347967685854e-001
    6.0582057291800018e-001 -3.3388974757412510e-001
    6.9987450108756588e-001 -3.9367940686175579e-001
    5.7802969539363633e-002 -4.8508514778204598e-001
    1.5290946458133682e-002 -6.0173349527860154e-001
    1.2790451781384344e-002 -1.2095697695986420e+000
    1.4348820533543832e-002 -2.0428317960739082e+000
    1.2735131885931733e-002 -1.9804577256701790e+000
    1.3487655019237130e-002 -1.9111853893451975e+000
    1.2276030853290442e-002 -1.4609871718921683e+000
    1.0957075587795141e-002 -1.1324386644431457e+000
    1.0277744351343756e-002 -9.2949350477465098e-001
    1.1225718260499735e-002 -8.1514022368856032e-001
    1.5428910576957696e-002 -6.1899737263578569e-001
    2.9306514269784749e-002 -3.2620148553697909e-001
    5.7179081714457999e-002 -1.9362916307850550e-001
    4.1975733289136796e-001 -2.8142821182489441e-001
    1.0673358971197035e-001 -5.4397744302066708e-001
    1.8029795467154979e-002 -5.5421132657561611e-001
    1.2417709370692843e-002 -7.8379734885810681e-001
    1.2025260724656581e-002 -1.2676401262758725e+000
    1.3399185614772227e-002 -1.9130382734545257e+000
    1.3349723507158087e-002 -2.0334814630875067e+000
    1.3382304599379438e-002 -1.9665904895360784e+000
    1.3412855331744258e-002 -1.8136314271866469e+000
    1.2478977392156795e-002 -1.4253686506507275e+000
    1.1182012860868482e-002 -1.0627359609303813e+000
    1.2805094537163501e-002 -8.5983299568294458e-001
    1.6996873060526638e-002 -5.8986875371418579e-001
    3.4760762803762710e-002 -3.1205684789741522e-001
    9.4423698999303168e-002 -1.9850436721444414e-001
    7.4331111623943458e-001 -4.3922929595966592e-001
    2.1744301628193272e-002 -4.9097644699113668e-001
    1.3833319737204867e-002 -7.1555990276996084e-001
    1.1692711286506018e-002 -9.0764671361502969e-001
    1.2171266968542722e-002 -1.3929185186385653e+000
    1.5155386669416472e-002 -2.1733341144852405e+000
    1.4738876590288526e-002 -2.2792500236243343e+000
    1.3948843165160651e-002 -2.3358764466294311e+000
    1.3527237187601166e-002 -2.1759637046487308e+000
    1.3847030546063012e-002 -1.9613217300159367e+000
    1.2130443107065124e-002 -1.4779842158403667e+000
    1.3537825876360042e-002 -1.0984868826153282e+000
    1.5562130193072428e-002 -6.5741157946303119e-001
    3.0798218461209025e-002 -3.7850310529315406e-001
    1.1469500562674324e-001 -3.1541126547354392e-001
    6.2341225247072252e-001 -5.2777514555760030e-001
    1.5686728090243237e-002 -5.6400917815374541e-001
    1.3061920062607093e-002 -8.5800487411250337e-001
    1.1085511222136272e-002 -9.6469141976272232e-001
    1.2440020554614429e-002 -1.4281284960567302e+000
    1.3900312375428018e-002 -2.0990261477372183e+000
    1.2670106520072395e-002 -2.0917913929189975e+000
    1.3019577898532421e-002 -2.1838122678555432e+000
    1.3191688951858422e-002 -2.1724313214810484e+000
    1.3135695694647792e-002 -2.0994722721047863e+000
    1.2534397603329068e-002 -1.8587229718709395e+000
    1.2851667690799595e-002 -1.3733759427759022e+000
    1.4684143243233888e-002 -7.8109630138156627e-001
    2.4806950860459753e-002 -3.8507153267486394e-001
    4.6123373410372939e-002 -2.3323751326836314e-001
    1.1911746849048117e-001 -1.7867620273572177e-001
    1.7662318124546623e-002 -6.2229565164950917e-001
    1.2985156766086746e-002 -8.5178201627540606e-001
    1.1956504329576139e-002 -9.8077302844369729e-001
    1.2462176346569287e-002 -1.4109166243280660e+000
    1.3414894794715724e-002 -2.1249650680788617e+000
    1.3386975803402378e-002 -2.2627031602250796e+000
    1.2553015817242852e-002 -1.9263886602722284e+000
    1.3652827421447647e-002 -2.0798841410446269e+000
    1.4164220097301384e-002 -2.2539620015063626e+000
    1.2879469174645192e-002 -2.1307471815803640e+000
    1.4140802682168808e-002 -1.8103441251967478e+000
    1.3586541389627456e-002 -9.7537471851103930e-001
    2.2452349216652085e-002 -5.1283206733489417e-001
    4.1763790154361415e-002 -3.5807704172120103e-001
    1.3742524335282313e-001 -3.8338519594452358e-001
    2.4638916384574886e-002 -5.2189704705508622e-001
    1.7095841799489472e-002 -7.3609255202574553e-001
    1.3598112884959879e-002 -8.8843579581905474e-001
    1.2727946176105169e-002 -1.2797371337065744e+000
    1.4640893925889017e-002 -2.2315717071357883e+000
    1.4190068666185574e-002 -2.3744177398816202e+000
    1.3700829469927917e-002 -2.2089473695379236e+000
    1.4608589806752404e-002 -2.3096512497880251e+000
    1.4439804542025642e-002 -2.3265314624898927e+000
    1.4169412059428775e-002 -2.3852111993448655e+000
    1.4199038878693716e-002 -1.9714881424922632e+000
    1.3671305573673843e-002 -1.2498369697750689e+000
    1.7596218714938664e-002 -7.5793712544289771e-001
    2.3508443289343858e-002 -4.8713234475134692e-001
    4.2983391817787063e-002 -3.3751731529648704e-001
    5.3945919851308199e-002 -3.8375165712407877e-001
    2.7787919182201356e-002 -5.6823137009512892e-001
    1.6309508098318048e-002 -7.5839212657178923e-001
    1.3010641075011247e-002 -1.2303187466557510e+000
    1.4939474230427052e-002 -2.2838721229765357e+000
    1.3777852282548358e-002 -2.3068508583075853e+000
    1.3414672215877105e-002 -2.1756921500125679e+000
    1.4187264099379327e-002 -2.3232451057284749e+000
    1.2357078145478269e-002 -1.9535417177260646e+000
    1.2980518193288798e-002 -2.1515946434818982e+000
    1.3626196473251377e-002 -1.9805212044445653e+000
    1.1906970001788824e-002 -1.2723544592252409e+000
    1.2790213602917311e-002 -8.9371617550384719e-001
    1.6675775859086635e-002 -6.5850364898097802e-001
    2.8114701738035913e-002 -4.2779074576397830e-001
    2.6795696321488888e-001 -5.9224578801472605e-001
    5.3378653354183375e-002 -4.0094647576267289e-001
    2.3063662189770576e-002 -6.1289061398611921e-001
    1.4843708647972687e-002 -1.1122660775537716e+000
    1.4119116199238502e-002 -1.8914802371911670e+000
    1.3599207551325170e-002 -2.1555516651097628e+000
    1.3038895739796646e-002 -2.2016471795186177e+000
    1.2651159562554222e-002 -1.9784688397712635e+000
    1.2549714867612347e-002 -1.9988986186578235e+000
    1.2503265398896488e-002 -1.9115787804176516e+000
    1.3536826484687145e-002 -1.9171530508938168e+000
    1.0833679191390732e-002 -1.2386711725474755e+000
    1.1297161499310785e-002 -8.6795578291863884e-001
    1.4854115103686111e-002 -7.0413569494348427e-001
    1.9597071895562312e-002 -4.3659158467329445e-001
    7.5443430628740193e-001 -9.1303697295009434e-001
    7.4168997807500511e-002 -3.3502473441456193e-001
    3.0723028470952467e-002 -4.8109469582923292e-001
    1.5838353226312864e-002 -8.5959062510079820e-001
    1.4761662656653659e-002 -1.4697919113363562e+000
    1.4087526462734557e-002 -1.9287904839347421e+000
    1.3924084839731796e-002 -2.1874262598508207e+000
    1.4123944202964152e-002 -2.2165764933526866e+000
    1.3910429495856290e-002 -2.1822776636936818e+000
    1.3733044365475084e-002 -2.1040428483808844e+000
    1.3808150387556697e-002 -1.8672385183173259e+000
    1.3094571761614443e-002 -1.2621381554774285e+000
    1.2040190018201447e-002 -7.9540505307743303e-001
    1.3326926108973153e-002 -6.2106504514657834e-001
    2.0129336845706735e-002 -4.7258193094579676e-001
    8.2283427201830028e-001 -5.0024583582930748e-001
    1.1421390769506225e-001 -2.9786467972746344e-001
    3.2368942785124852e-002 -4.0056566696592005e-001
    1.5531512799197039e-002 -6.4596973687569503e-001
    1.3401148764914375e-002 -9.8445143398623824e-001
    1.2424867606815795e-002 -1.3184478830959760e+000
    1.2812133978714816e-002 -1.7295652909107120e+000
    1.3766731233431499e-002 -2.0459239894411039e+000
    1.2967276385041041e-002 -1.9545222042180039e+000
    1.2117096934538862e-002 -1.8747076677698478e+000
    1.3924992654494140e-002 -1.8137302932478618e+000
    1.1964341731209150e-002 -1.0377027075392482e+000
    1.2124317000520754e-002 -7.3462338916791670e-001
    1.5692479761168863e-002 -5.6011453329353866e-001
    5.5572837155303853e-002 -4.6258071836659176e-001
    6.3741345111318526e-001 -3.6216673358703710e-001
    7.1616141172078374e-002 -2.0223421683251677e-001
    2.7341874370795126e-002 -3.0697468043574527e-001
    1.7710534296749611e-002 -5.4751714266258311e-001
    1.3883347016709608e-002 -7.3013784083331901e-001
    1.2402467998214877e-002 -9.2701401429839048e-001
    1.2821725668530936e-002 -1.2590060397929070e+000
    1.3452895309757257e-002 -1.5430318046481237e+000
    1.3047298073762797e-002 -1.6488522940717734e+000
    1.1748889763220345e-002 -1.5158737996773159e+000
    1.2352554547292359e-002 -1.3825035197304822e+000
    1.2095601890243604e-002 -9.5795792470514551e-001
    1.3661511436878888e-002 -6.3060294837047770e-001
    3.6897251930023509e-002 -5.1656152702032909e-001
    7.7312798295439455e-001 -5.6666766932452783e-001
    6.1923098466280191e-001 -3.9053772328165348e-001
    5.7907583504531041e-002 -1.7569687267852033e-001
    2.8216469943634890e-002 -2.2316662591783959e-001
    2.0666161975003802e-002 -4.1684588074581536e-001
    1.4643453683758334e-002 -5.9081343527481778e-001
    1.2660917776056237e-002 -6.1484581949973105e-001
    1.3064102065009024e-002 -8.1487336630493790e-001
    1.2487721422939585e-002 -1.0695449586897232e+000
    1.2180837731125051e-002 -1.2067334470448658e+000
    1.0945578509637396e-002 -1.0939359430938738e+000
    1.1857261165751852e-002 -9.4898511807261698e-001
    1.4858654617644084e-002 -7.1954723469420756e-001
    3.1682532270560795e-002 -5.1124086163859461e-001
    2.2341142702567371e-001 -4.1381889324073651e-001
    9.6021587444634260e-001 -4.0372712902857588e-001
    5.8335739765713157e-001 -3.3145306685064296e-001
    6.0873760023354630e-002 -1.6705696642772888e-001
    5.1771533815591457e-002 -1.9443740825060202e-001
    3.1924811418930457e-002 -3.1416916691811114e-001
    2.2897221229854915e-002 -4.2672094110184161e-001
    1.7281637754838240e-002 -4.0847507420526746e-001
    1.6288597340652407e-002 -5.2974960896530898e-001
    1.3915681944636084e-002 -7.0274193820412223e-001
    1.2951818230421391e-002 -8.0102580362577747e-001
    1.1910734391489328e-002 -7.5836187267630351e-001
    1.5282396691362275e-002 -6.9986430302488600e-001
    1.9590962662556572e-002 -4.2443375359277391e-001
    1.6856660116844752e-001 -2.5093437219393888e-001
    1.0345247745574790e+000 -3.7031284543818854e-001
    9.1827475662306557e-001 -3.8087532519024880e-001</input_scale>
  <output_scale>
    5.2631578947368418e-001 4.9999999999999994e-001
    5.2631578947368418e-001 4.9999999999999994e-001
    5.2631578947368418e-001 4.9999999999999994e-001
    5.2631578947368418e-001 4.9999999999999994e-001
    5.2631578947368418e-001 4.9999999999999994e-001
    5.2631578947368418e-001 4.9999999999999994e-001
    5.2631578947368418e-001 4.9999999999999994e-001
    5.2631578947368418e-001 4.9999999999999994e-001
    5.2631578947368418e-001 4.9999999999999994e-001
    5.2631578947368418e-001 4.9999999999999994e-001
    5.2631578947368418e-001 4.9999999999999994e-001
    5.2631578947368418e-001 4.9999999999999994e-001
    5.2631578947368418e-001 4.9999999999999994e-001
    5.2631578947368418e-001 4.9999999999999994e-001
    5.2631578947368418e-001 4.9999999999999994e-001
    5.2631578947368418e-001 4.9999999999999994e-001
    5.2631578947368418e-001 4.9999999999999994e-001
    5.2631578947368418e-001 4.9999999999999994e-001
    5.2631578947368418e-001 4.9999999999999994e-001
    5.2631578947368418e-001 4.9999999999999994e-001
    5.2631578947368418e-001 4.9999999999999994e-001
    5.2631578947368418e-001 4.9999999999999994e-001
    5.2631578947368418e-001 4.9999999999999994e-001
    5.2631578947368418e-001 4.9999999999999994e-001
    5.2631578947368418e-001 4.9999999999999994e-001
    5.2631578947368418e-001 4.9999999999999994e-001
    5.2631578947368418e-001 4.9999999999999994e-001
    5.2631578947368418e-001 4.9999999999999994e-001
    5.2631578947368418e-001 4.9999999999999994e-001
    5.2631578947368418e-001 4.9999999999999994e-001
    5.2631578947368418e-001 4.9999999999999994e-001
    5.2631578947368418e-001 4.9999999999999994e-001
    5.2631578947368418e-001 4.9999999999999994e-001
    5.2631578947368418e-001 4.9999999999999994e-001</output_scale>
  <inv_output_scale>
    1.8999999999999999e+000 -9.4999999999999996e-001
    1.8999999999999999e+000 -9.4999999999999996e-001
    1.8999999999999999e+000 -9.4999999999999996e-001
    1.8999999999999999e+000 -9.4999999999999996e-001
    1.8999999999999999e+000 -9.4999999999999996e-001
    1.8999999999999999e+000 -9.4999999999999996e-001
    1.8999999999999999e+000 -9.4999999999999996e-001
    1.8999999999999999e+000 -9.4999999999999996e-001
    1.8999999999999999e+000 -9.4999999999999996e-001
    1.8999999999999999e+000 -9.4999999999999996e-001
    1.8999999999999999e+000 -9.4999999999999996e-001
    1.8999999999999999e+000 -9.4999999999999996e-001
    1.8999999999999999e+000 -9.4999999999999996e-001
    1.8999999999999999e+000 -9.4999999999999996e-001
    1.8999999999999999e+000 -9.4999999999999996e-001
    1.8999999999999999e+000 -9.4999999999999996e-001
    1.8999999999999999e+000 -9.4999999999999996e-001
    1.8999999999999999e+000 -9.4999999999999996e-001
    1.8999999999999999e+000 -9.4999999999999996e-001
    1.8999999999999999e+000 -9.4999999999999996e-001
    1.8999999999999999e+000 -9.4999999999999996e-001
    1.8999999999999999e+000 -9.4999999999999996e-001
    1.8999999999999999e+000 -9.4999999999999996e-001
    1.8999999999999999e+000 -9.4999999999999996e-001
    1.8999999999999999e+000 -9.4999999999999996e-001
    1.8999999999999999e+000 -9.4999999999999996e-001
    1.8999999999999999e+000 -9.4999999999999996e-001
    1.8999999999999999e+000 -9.4999999999999996e-001
    1.8999999999999999e+000 -9.4999999999999996e-001
    1.8999999999999999e+000 -9.4999999999999996e-001
    1.8999999999999999e+000 -9.4999999999999996e-001
    1.8999999999999999e+000 -9.4999999999999996e-001
    1.8999999999999999e+000 -9.4999999999999996e-001
    1.8999999999999999e+000 -9.4999999999999996e-001</inv_output_scale>
  <weights>
    <_>
      6.7693168238835144e-001 -8.8698937179414086e-002
      1.4528788453802158e-001 9.7164825080959735e-003
      1.6047115516401308e-002 1.6286870119172063e+000
      -4.0591534168714671e-001 -6.2154767649389125e-002
      7.6700871655967762e-001 2.0359747692313435e-001
      9.8910144362009941e-002 4.2345210935128763e-001
      2.1045453482592588e-001 -1.0142011701309399e-001
      -7.4208882893824421e-002 6.3431899214854148e-001
      -1.7453598317616387e-001 8.5189126904106308e-002
      4.0464891375635015e-001 3.1167030346399094e-001
      6.1541981110146227e-001 1.4754763180002856e-001
      2.3690039721103773e-001 3.7639739739284100e-003
      1.6399808901949475e-001 8.4817774455211592e-001
      2.7991946469742395e+000 -4.5538623546953184e-002
      4.1723655456705200e-001 -4.0800537789033677e-002
      3.2746742819716057e-001 1.0539995628052431e-003
      -1.4226419454636033e-003 1.4202471609933527e-003
      2.3890324777690288e-002 9.8728285763030318e-002
      -2.9013476949107569e-001 -6.2874016777191878e-003
      7.3585774480865632e-002 8.3110078385292230e-001
      3.7748209805203020e-001 -1.8870823877238732e-001
      1.3500344353444052e-001 3.2640382967408919e-002
      3.2104285407256233e-001 6.4891284843031127e-001
      -1.6467088775410271e-001 -1.1836204191654043e-001
      1.0422436364386808e-003 6.0437002386869321e-001
      1.3829174637616351e-001 -1.8729674754705522e-001
      -7.6046859433754541e-002 -7.9017855961227323e-001
      5.2037514921800387e-001 7.4278556606934598e-001
      -1.7813884167761772e-002 9.4201572207702233e-001
      3.7188139716397517e-001 -5.3545218166227737e-001
      -1.9384202087042832e-001 4.8909914582602665e-001
      -2.7105256128589728e-001 8.5794850290748056e-002
      1.4064688411176754e-001 1.0380868524250592e-001
      -4.1055936505984408e-002 7.7059153982673018e-002
      6.0798074356191105e-002 3.6446022582342219e-001
      2.1993733107075142e-001 2.9503697167624848e-001
      1.3338005841107597e-001 -1.8759987841430376e-001
      1.9252747052841485e-001 2.7131807695311905e-001
      -1.3031119924837539e-001 2.1775808532848054e-001
      4.7467348000483071e-002 -9.6837881683266569e-002
      -1.6303126381503363e-001 -3.7063540349014851e-001
      2.7011950788368494e-001 -9.9015225207288615e-002
      -1.1359191192076075e-001 -3.7563964222563639e-001
      -1.3541216164643601e+000 -1.2674311287241755e-001
      -6.2556308072694772e-002 1.1414421237684981e-001
      1.9559811704151769e-001 5.8784148006724359e-002
      1.5802021474483113e-001 -6.0272823425292832e-001
      -1.3583914234508884e-001 1.1722017502783692e-001
      -1.5612415258994453e-001 1.8753953454054031e-001
      4.2296369726110217e-001 3.4731546789624274e-001
      1.8946361532335837e-001 -3.6829372610277317e-001
      3.3831819541810115e-001 1.7615310196069583e-001
      -2.5507699019017976e-001 2.2668655941903953e-002
      8.8674429239443062e-002 1.3339097151205181e-001
      -5.1377596997941123e-002 -7.7745786495657832e-002
      1.1688336783753464e-001 6.7717473837924938e-002
      2.4935058883944761e-001 9.5998184716007240e-002
      -9.8549645239956421e-002 3.6379166061989077e-001
      -1.9000498798697019e-002 9.6218694138637414e-002
      6.5834081223495627e-002 1.2600838508965645e-001
      8.1821960567949117e-002 1.8203115119173693e-001
      1.9123274705485196e-001 4.2109901778134937e-002
      -1.2197988747384166e-001 1.7590917826700631e-001
      -1.5175917456329917e-002 -2.3430841522600743e-001
      6.7929995380241054e-002 5.7784210257010048e-002
      -1.6395583162009276e-002 -1.0760168200501767e-001
      2.0639556921398297e-001 -2.3798401299794389e-001
      -1.8365446742706357e-001 -4.1186142082696518e-002
      -3.0834584462966025e-002 -1.4310026073495311e-001
      -2.6981069562215537e-001 2.8064862313392663e-001
      1.2046865650185169e-001 -1.4394776865322945e-001
      2.3159375546438327e-001 2.1026562994893447e-001
      -4.1934313482216080e-002 1.3671269046805223e-001
      2.4639310706480749e-001 -7.7495209693581882e-002
      3.1333592664612983e-002 2.4001069818138204e-001
      4.7277646342764115e-002 -8.4739050139527405e-001
      5.3442818321681995e-001 3.1297409510419499e-001
      -2.5724327395270134e-002 2.9639803409344334e-001
      -2.9833565246100719e-002 3.3636843147111628e-002
      -6.3077914316683539e-002 3.6917417251487022e-001
      -2.8841012203416939e-002 3.9892604339059029e-002
      4.9070153152671103e-002 3.2550350254405367e-003
      4.0339807511640801e-003 6.4088739395875338e-001
      -1.8146759736951001e-001 1.3728044069296692e-002
      2.0013992400499761e-001 8.0067424402405540e-001
      5.1664885380709036e-001 1.6447273276559810e-001
      4.0848487835328162e-003 1.0386319630413650e-002
      -2.6117092454506036e-001 6.5141771163990025e-001
      -1.8529909931352334e-001 3.7105440714503259e-002
      -3.4042367373260184e-002 5.9461562085197572e-001
      2.2144452837857942e-001 1.2863725063730316e-001
      1.6181529557752511e-001 8.3850485333211641e-003
      6.3742644818295746e-003 1.9361945066565465e+000
      -7.1005287936419290e-002 2.2423371836696959e-002
      2.6621566663486801e-001 3.7668078863352039e-001
      5.1808104382659270e-001 -9.3209774289069389e-002
      1.7072251707027580e-001 1.6703144523316032e-001
      1.9264238128423493e-004 6.2609496263186781e-001
      -9.2845254997214674e-002 2.8147204495757451e-002
      7.1869852212877866e-002 3.9981125774418125e-001
      -1.2563576890939948e-001 -5.2526625016755819e-002
      2.2110976212257455e-001 5.7939354847850816e-002
      -1.5074041729788917e-001 9.8419944335362497e-002
      5.4973969246681527e-002 9.1309205734543153e-002
      -3.7096316586721710e-002 -1.1085153747245672e-003
      -9.7268431656465773e-002 -5.3248654283965580e-002
      -8.3880611885718645e-002 5.9741352480276164e-002
      1.0820027113226927e-001 1.7643833052352434e-001
      -9.8556045186854152e-002 7.4218176901407418e-002
      -3.1254257422908827e-002 8.9485722597523968e-003
      -1.5383735660028353e-001 -5.8589630893229799e-002
      1.4885148546435714e-001 5.7654553806208680e-002
      1.1140337577704738e-001 4.5480013502884685e-002
      -9.3721393815184642e-002 9.2627681364117476e-002
      2.1776298582341796e-002 -1.9196661711292713e-003
      -4.4279386779975966e-001 -1.4305683672107366e-002
      3.7722324718339667e-001 5.9204021505059705e-002
      1.0709472934071811e-001 4.5835073289448847e-001
      2.6131387684668983e-001 5.4635708488928091e-002
      1.2837467950444814e-001 1.5888858514063239e-002
      -1.6734633960091858e-001 2.4310084097106313e-001
      4.3632943006599290e-001 4.9955538435639164e-002
      -7.2098672018018103e-002 2.9189803016401900e-001
      1.0842576509652621e-001 7.1713996122536594e-002
      9.8529996911915760e-002 -3.3353782446550517e-001
      -1.0364880389999198e+000 -1.6179164007203062e-001
      8.8926446585553279e-002 -2.1788213236914150e-001
      -4.9119192801800549e-002 1.4188068774870219e-001
      -7.6437079571969324e-002 4.1382711267487454e-001
      3.8549618786398614e-002 2.2048338959561189e-001
      9.2368886048370888e-002 1.4085380907304471e-001
      1.8372673349141513e-001 7.3444161945104058e-001
      1.0012011174875622e-001 3.7730542601511145e-002
      2.4332558374169422e-002 3.9447045188689432e-002
      6.3417055726049748e-002 2.1688176087833461e-001
      4.3528294382483255e-003 1.5182032198627268e-001
      4.7062676233321060e-001 -9.7182251274425292e-003
      -4.0742355738940014e-002 3.0479995961434143e-002
      -1.8353897648741280e-001 3.2585249654796221e-002
      -1.0772734614584396e-001 7.3765613161290086e-002
      1.4266660422020083e-001 -1.2366162237807545e+000
      2.3740315607934362e-001 -2.8786824444780236e-002
      -1.9524487071326199e-001 -1.5161515537531162e-001
      -2.1734363299895670e-001 -5.9078732508831588e-001
      -1.6025697105293157e-001 -1.5051126325432340e-001
      1.2722312859212301e-001 -1.2495289790566072e-001
      -9.8771352294445055e-003 -4.4395248859511455e-001
      -1.5721341016868759e-001 8.0025275521604690e-003
      -2.1159742942937446e-001 -1.2826892897662995e-001
      4.3208173995833009e-002 -1.4377225748242081e-001
      -4.8168738905785692e-002 -4.5935970823886329e-003
      -5.2449685452070266e-002 2.8112660621436208e-001
      -1.8484083040239099e-001 -1.4146114644070323e-001
      4.5611687879427310e-003 -7.8677621930577854e-002
      1.1433018977472950e-001 3.1921501836225430e-001
      1.4252400731689877e-001 -1.2897673385224662e-001
      -5.5024266771455319e-002 6.4199541416505954e-002
      -1.2819315243198776e-001 -2.0710147821909872e-001
      -1.0180480263684695e-001 3.1078818619293830e-001
      3.6894888505516149e-001 2.8431704767550567e-002
      7.2364506313167343e-003 -5.5193240455929116e-001
      -3.4893119762652086e-001 1.5887108690409005e-001
      1.5169456895462732e-001 1.0269344205057776e-001
      -5.5313335848675871e-001 6.5914906859648847e-001
      4.0952415976224782e-001 -4.3750421239230404e-002
      1.3393105991881354e-001 5.9820415979180766e-002
      -1.2598300648790503e-001 2.0260926478357041e-001
      -2.3575981348209779e-001 -3.7362600481474217e-003
      -3.3379410170920853e-001 1.2594134529704260e-001
      1.3556081375685619e-001 -1.6910563528314815e+000
      1.6520702322044326e-001 6.3786423439503193e-001
      1.4783067773481454e-001 -2.5287890839703370e-001
      -2.9230550872627742e-001 4.9927685258133993e-002
      -1.7665605885022120e-001 4.9611148114989695e-001
      -1.1617335307845054e-001 -9.6606326481667937e-001
      1.1329250811143354e-001 -8.4140434310436635e-002
      2.1385390726478515e-001 8.0589525983749230e-002
      2.1984338112529597e-001 7.4000599024663466e-002
      -6.7991134180498314e-001 1.2269176185691255e-001
      6.8844030564817316e-001 -2.4031664910774786e-001
      9.9515886185356450e-001 -3.3198294239810119e-002
      -4.8806678309019202e-001 -1.0031640153348960e-002
      -6.7117312294910780e-001 -3.7179164904333251e-001
      1.2273186553618634e+000 3.2685336412363278e-002
      -6.1256109917959614e-003 -4.8869159780328308e-001
      2.5316135639000838e-002 -1.0058079374461272e-001
      1.5582846894468803e+000 -7.0861412102295435e-002
      4.4115760876093341e-002 6.0688445915717794e-002
      -9.1744617425947958e-002 -2.5132298081085502e-001
      1.5519937669520294e-002 -2.4089996667493260e-001
      -1.0463295497034775e+000 -5.7729125062770802e-002
      -9.7641640130710140e-004 -9.0760900211506262e-002
      -5.9371099466900690e-001 3.0906950170526356e-002
      -1.5796251858734117e-001 -1.9860035956362426e-001
      -2.7557247272804643e-002 1.2934868099963347e-003
      8.4584319057973520e-002 -7.6803184605751071e-002
      1.3952667086294768e-001 -1.7899619747496193e-001
      3.7175940471285522e-002 7.4038997799199882e-002
      -8.8237023783868190e-002 -1.7487724395560197e-001
      -2.7435219526916261e-002 1.9785997023189596e-002
      8.4093081040541598e-002 -7.8622555676978151e-002
      2.3827998282709859e-001 2.8678062979589990e-002
      -6.0054811192012461e-002 5.0739193434269469e-001
      -3.8740319328625644e-001 -3.7066509276584320e-001
      2.3513945376357381e-001 2.4094659734792345e-001
      4.3771162168050065e-001 -5.4168781393645338e-002
      2.0717682095405635e-001 -3.4111355264326536e-002
      1.5974101730421256e-002 -3.2445652777666402e-002
      -3.9651180957711674e-001 2.7944571117030942e-001
      2.7539998542128480e-001 3.5780065869280837e-003
      4.6410665157352843e-001 -1.5676829533413581e+000
      1.3053669263029452e-001 1.0377606571174185e+000
      -1.2247878109723527e+000 -6.9707983278678678e-002
      -1.1818249410992321e+000 1.2394012278640593e-001
      4.4971553058607977e-001 3.5655489393134909e-001
      1.7054217243474268e-001 -9.2569366277251638e-002
      -1.0065851075728748e-003 1.7999142225374617e-001
      5.2733224349102936e-002 4.2746020380481538e-002
      1.1507239319389635e-001 7.4241420484371407e-002
      9.1243015980109962e-002 2.0364745740598536e-001
      1.8069173720032394e-001 -3.2744834846256565e-001
      4.5952127780760743e-001 4.0142101761984111e-001
      -2.7455577378903073e-001 -1.4870141781890298e-001
      3.0378834948336125e-001 -5.0344483430579423e-001
      1.0654147641132120e-001 1.3018986325533896e-001
      2.9671418287030897e-002 -7.4858543217627893e-001
      3.0562497732562199e-001 -2.8214146102671811e-002
      -2.2423576109716861e-001 -3.2624779650638114e-001
      -1.2239823260243846e-001 3.0627348831951368e-002
      1.8780179327994859e-001 1.0463087664855342e-001
      1.5801392685427604e-001 1.6237094142900188e-001
      -6.6230986458507168e-001 2.4438925435991363e-004
      -4.3495241405309337e-001 -8.7033327830592366e-002
      3.7440493579998441e-001 2.0915076967422697e-001
      1.8837325542342873e-001 -9.3195632660500710e-002
      2.5630886885439746e-001 2.9199996136579896e-002
      -3.0528369301443356e-002 -2.9874209853638756e-001
      -3.9992651449940148e-001 3.7627263336490378e-002
      1.2504196434282433e-001 -8.1459373467057367e-002
      -1.6006960784793517e-001 -8.6469851886170013e-002
      5.9237465280954228e-002 -5.0157741753858243e-001
      1.6065838794356949e-001 7.6659909051076516e-002
      2.7268776013969712e-002 -8.3131395099001582e-001
      1.5112682515825074e-001 -9.5768351276730571e-002
      -1.9265465599930580e-002 -2.8032735229146715e-002
      2.3972459059546208e-001 -5.0749111102408673e-001
      -1.3107937681434723e-001 -2.9501441359523067e-001
      -4.1713230998178441e-001 -1.1280055007502516e+000
      6.3651494779350726e-002 -2.6067008222131544e-001
      -2.9487078214780200e-002 -3.0364258567169847e-002
      1.0449698682794423e-001 -7.6928456976237924e-001
      -8.4002669791382548e-003 6.7885706438554697e-002
      -2.1655642212842582e-001 -9.7398643618080583e-001
      7.6976470757611340e-002 -1.6555304188034189e-001
      -1.5097824755858746e-002 -3.0818284177785083e-002
      1.7341474985112601e-001 -1.6527800597372446e+000
      3.0659290537252620e-001 1.8670177271335675e+000
      -8.5860599666526358e-002 -5.0031285935669190e-001
      2.3212802388042975e-001 1.1175204092512216e-001
      4.5334092364158703e-002 2.6172678582839276e-001
      1.1595009013497179e+000 -1.6672392946369872e+000
      -9.7793978099955173e-002 2.0319388142806827e+000
      -1.3443108184816506e+000 1.7244199087259060e-001
      -1.1767212294187240e-001 -1.2710880215397974e-001
      -1.1058097354605034e-001 7.8782138650149727e-002
      4.5134448535145377e-001 -7.0338262668286161e-002
      3.1350282919939665e-001 -4.4407754792079146e-002
      2.4153575131732334e-003 1.5628382514943584e+000
      -7.6847769733573346e-001 6.7983238327245718e-002
      -8.2323032650624163e-003 7.1753849644397094e-001
      1.6389415378841646e-001 5.6028296433219091e-002
      6.7610681796839059e-002 2.2964493286559454e-001
      3.1532180983674343e-002 2.4727087167103492e+000
      -3.0500998734846335e-001 1.1249858617573148e-001
      2.4644878012170110e-001 4.2971413762244837e-001
      4.3808336923359081e-001 2.4369518553560238e-001
      1.0162364187784442e-001 3.0438910593755864e-003
      5.6343915797688007e-002 7.4108985145889650e-001
      -4.0452347828810065e-001 2.6836419753656171e-001
      1.7680774265059074e-001 2.3163093249549169e-001
      4.3753359359903127e-001 6.0088513500368979e-001
      -1.9273470677253410e-002 2.0651792740613909e-002
      5.0651755998432482e-002 3.0413625829197122e-001
      -3.5945936074172385e-001 -2.3180955780958781e-001
      2.9045159685305583e-001 -1.0338274684032303e-001
      1.1925443814539047e-001 7.5855653051546929e-002
      -8.5181897148944821e-002 2.1485984008021339e-001
      -2.5022993089704564e-002 5.2583709700558548e-002
      -1.3100691456720865e+000 -2.3763675966437539e-001
      -9.2889974783455134e-002 4.2518011326635569e-001
      2.3422376732955899e-001 -2.1276985876292318e-001
      1.0689952877860585e-001 -5.4981498533036528e-002
      -3.6458189608040459e-001 5.2271571449827456e-002
      3.7013384556066437e-001 6.9116572471660276e-001
      -1.7537437609324198e-002 5.6505641443834975e-001
      2.9831143174584807e-001 2.1267132170280528e-001
      -6.1371451661649268e-001 -2.4698256935650736e-002
      -9.7775527982046473e-002 -1.0223062079856121e-001
      -3.5194229903742463e-001 2.5817819973583500e-001
      1.5194970824325113e-001 3.3845326613144894e-001
      -2.6866593389819798e-001 -1.0177998195048124e+000
      -8.1447438270741135e-002 -1.8082346399105215e-001
      -1.8513027426038065e-001 -3.1981463639333424e-001
      7.3155714031765004e-002 2.7005457628814711e-001
      -3.6832604380828499e-001 1.9034728323616751e-001
      4.8487285364861143e-001 -3.8514046123029122e-001
      6.1930039322704985e-003 -2.5015498857153640e-001
      -1.9824249242887562e-001 -2.7886915016309360e-001
      -5.6143587205260470e-001 -4.0441727130418346e-002
      -3.2229014986712226e-002 1.7488701243091220e-002
      8.2660139820246697e-002 2.2817961339315243e-001
      -1.5371203868584812e-001 -2.0126410101960113e-001
      -2.0156218939927936e-001 -3.6952834663074474e-001
      1.5469318019345932e-001 -7.7368264320385363e-002
      -2.1139647170254086e-001 2.9957848582124863e-001
      -8.3320789482473744e-003 -2.3091736769584556e-001
      2.8778563317486298e-002 -2.9211145691213053e-001
      1.7184198696491093e-001 -1.1770016839391127e-001
      -1.3578659408575033e-001 -1.1390462911103547e-001
      -2.5358593481388253e-001 4.1470122272575682e-002
      1.9927201770425360e-001 -2.6827949199381207e-001
      -8.8081893807609640e-002 -2.8556749604181636e-001
      1.7851252222218050e-001 1.8715248861903380e-001
      -9.2181949987600847e-002 1.0843728496267202e-001
      -2.5315402201215564e-001 1.7208931451852305e-001
      1.0161512348835824e-001 1.2673451529342852e-001
      -3.9594973495998866e-002 -2.3194329799990077e-001
      -1.1604907596523983e-001 1.5351724119919424e-001
      -3.4898399186544159e-002 6.4093714624639073e-002
      3.5996151875413468e-002 1.7444117653822711e-001
      1.7989654381172387e-001 -2.0632762071822855e-001
      3.2042153867106832e-001 -1.7508548882279942e-001
      -2.6059969184477932e-002 -1.1209500419818222e-001
      -2.7026565667677437e-002 -2.1980601277526940e-001
      -3.6675982453527121e-002 1.5825733303535891e-001
      5.8945804257657097e-001 -3.3329074317455626e-001
      -7.4896819282617849e-002 2.1405677766573503e-001
      -1.6727501071630638e-001 -2.6215111155930193e-001
      -7.7491597506987087e-001 1.7795076254788947e-002
      -3.3763020101105989e-002 1.9719548036265053e-001
      5.9445959732164752e-002 -1.0075129262829767e-001
      -3.9172164428910389e-001 -5.2840378234617547e-001
      -8.5132334391700509e-002 2.5579131620011752e-001
      -9.4586320421518932e-001 -1.3097769559103242e-001
      -2.6496863358379752e-001 1.9462374632815399e-001
      3.0298071089388245e-001 9.1057743776870356e-002
      -4.0446704938301570e-001 -5.4356355288342026e-002
      2.2296844167616964e-001 2.4777803488921957e+000
      -3.5534137566942614e-001 2.7441249235764342e-001
      2.1457269094836026e-001 2.3226341363989067e-001
      -6.6775571443366113e-002 7.7501610932006115e-001
      2.7040804012097169e-002 -1.2232709608885101e-001
      6.6122994686098127e-003 1.2873639480453836e+000
      -3.1190488428657354e-001 3.0046993289083951e-001
      2.2467868083446102e-001 1.8401626600931792e-001
      2.4428874347504340e-001 6.5279190942189036e-002
      -1.8750863437894222e-001 -6.4683745912021431e-002
      -5.3749782267934321e-001 2.5510766993766310e-001
      5.3858591681464202e-002 2.1409719894302837e-001
      -1.2428715204385044e-001 -2.0761844633381408e-002
      3.1384176062292984e-001 7.9208065738370609e-002
      4.4002540976126117e-002 5.1714407197814845e-002
      -6.7456353076264786e-001 1.4350942140650046e-002
      4.8673389536313137e-002 -2.0596451977519101e-001
      -1.8437143007708712e-001 3.1693269351242198e-001
      -7.8129038573517870e-002 -1.7370815333259942e-001
      5.8589506256729061e-002 -5.6376732351469318e-002
      -3.0040671514775213e-001 3.8231567606932464e-002
      -1.9114263420217045e-001 -1.1293530369810217e-001
      1.7976985840359522e-001 7.1029657340449748e-001
      -5.0221176939229138e-002 -2.9425406732459614e-001
      -3.1166459102586247e-001 -1.4315398773965513e-001
      3.4773766797322508e-001 3.6811552518372181e-001
      -1.3597500940230106e-001 2.4494974538697403e-001
      -1.8625173841784706e-002 2.2876035930769104e-001
      -3.7830204088772953e-002 -9.9406270337909858e-002
      -5.3237618710210699e-001 -3.0489282394648698e-001
      -5.0862402410879831e-002 1.5668344800969966e-001
      6.9142425865369200e-002 3.7183470140236663e-001
      -1.3765360162958229e-001 -3.0982605110441066e-002
      3.5722430817408585e-001 3.3163472077963085e-001
      -9.8537212788300188e-002 -3.8112043205382018e-001
      -5.8743646227301249e-001 1.2856509037210775e-001
      7.3898134500971158e-002 3.0596171510534646e-003
      1.7131568454772469e-001 -2.7250231520460577e-001
      -4.8370154809073820e-002 7.0853899810100596e-001
      -1.2748788263599808e+000 -2.2769242694397546e-001
      -1.5286286861163967e-001 4.3582882423736052e-001
      1.0596719407619459e-001 -1.2073339979144208e-001
      3.3706914554164946e-001 -6.0762389677882259e-004
      -4.0275605515373453e-001 2.1510343470257140e-002
      3.0279844705572057e-001 -4.6897424887238265e-001
      8.9785226958106007e-002 1.0125465531023525e-001
      -1.5818169039171537e-001 6.3398967627436006e-002
      -1.9209212167990808e-001 1.0844313206594965e-002
      1.7932210693403497e-001 -6.6778336747888162e-002
      -6.4164510042770725e-002 -5.1141710512042282e-001
      1.2877054137749810e-001 -5.6533669935651634e-002
      -6.2889144784981033e-002 1.0738914846095778e-001
      -2.3781529439653817e-001 1.5160250124299106e-002
      1.6068056454866619e-001 -6.3513274974740644e-002
      -1.2290364460014261e-001 -3.0189841394290379e-001
      1.6350849270916237e-001 3.4502518491608049e-002
      -6.4171226956304450e-002 1.0100974200684190e-001
      -2.5627597149564046e-001 -3.4602332559909671e-001
      1.7206712601668273e-001 -1.7407716020086506e-001
      5.1232902235947464e-001 -2.4764836290783982e-002
      3.4628104686665007e-001 -9.6265764552395466e-002
      -5.4075492122592328e-002 -2.0107174798279273e-001
      -9.9497543996324808e-002 1.5709240717709741e-001
      5.9395091926365839e-001 1.1680924339231946e-001
      1.0855384360948878e-001 5.9841610114404475e-003
      -8.4052649339879850e-003 -5.4567715165814962e-002
      -7.6445908442925126e-001 1.5584865294932482e-001
      -5.6111365491312265e-002 1.9523317911544899e-001
      5.9431565829937461e-001 9.2340390502620540e-001
      2.1178780841336581e-001 5.6571046640535427e-001
      -4.0954041414638993e-002 -5.7177670353774843e-002
      -1.1877185277248390e+000 -1.2995516468000945e-001
      -2.3120777926702235e-001 1.9629641186087535e-001
      1.1505027586805314e+000 6.1215165970970387e-001
      -7.2726332005197999e-002 -4.8612258954019896e-002
      -9.8891414451567933e-002 8.5032367562324263e-001
      -1.1740073542296263e+000 2.9344575563455483e-001
      1.9034625322975895e-001 2.3639312037031204e-001
      4.9623213790792875e-002 5.3053334739883516e-002
      -2.1342349702241045e-001 -2.2528740386892476e-001
      -7.4405568791555565e-001 8.1288663448088813e-002
      1.7387812675732220e-001 3.2573835705057815e-003
      1.7341225176269806e-001 -4.4573329125795015e-002
      -8.3304437309659821e-002 4.7531126544664661e-002
      -3.7449520275081383e-001 -1.3740358007880762e-001
      -9.7692870948847110e-001 7.3081167594185301e-002
      6.7148910363549377e-002 1.3982464849813989e-001
      1.5359708202313463e-001 -8.7326771996735553e-002
      1.7042138508773957e-001 8.7075392307823810e-002
      -3.2799571132135674e-001 -1.5063680931215886e-001
      -1.2817116664480310e+000 8.6654958386887929e-002
      1.4473441233236267e-001 -1.8822956755720296e-001
      -1.0320883134443339e-001 3.2560742240790791e-001
      1.2433786486166448e-001 7.6495602014847286e-002
      -3.3535152133703516e-001 -9.1407697715817970e-002
      -5.1754902291654670e-001 5.2148217914483536e-003
      1.2705982841037852e-001 -1.9973588819543012e-001
      5.1650023860631211e-001 3.3434815373669913e-001
      4.7311535096969315e-001 7.1694992707652325e-002
      -6.9789202449647569e-001 -5.1658529914420848e-001
      3.5161771564723865e-001 1.2885157395995786e-001
      -1.0872621818181022e-002 1.5790704217700499e-001
      3.8421011632067775e-001 -3.3265095043331784e-002
      -3.3661692671726126e-002 8.8331698756754395e-002
      -1.1814341272793884e-002 -1.3037250810805430e-002
      -3.0498092217668621e-001 8.7932969650197562e-002
      -2.9589303088044576e+000 1.3439943882969702e-001
      -7.4222425198955000e-002 -6.4552634639697326e-001
      -8.7800429313205502e-002 -2.2764004640183508e-002
      1.7621711391504791e+000 6.4490390969814224e-002
      1.1677122552661850e-002 -1.7162831280408738e-002
      3.0205799479918519e-004 -1.6392390739079804e-001
      -3.2389035207126138e-001 2.9445400229756544e-004
      -3.4036550722205412e-002 2.1574470581716565e-001
      -8.8691804293857077e-002 5.2669588698014372e-002
      -1.0178175984588795e-002 -1.5563600704809291e-001
      3.6423990600783174e-001 -2.7120760105295580e-003
      2.4191297311074025e-001 -4.9886604970275339e-001
      -2.5753588077784956e-001 8.1641269180515091e-002
      8.2042004836162918e-001 2.8347004097236783e-002
      -1.5927458647917536e-001 1.1303737037058264e-002
      3.3799501544920924e-001 2.3984189335531234e-001
      2.6451990390456297e-002 4.0301121671575027e-002
      -5.8368890122177428e-002 -8.8373878166036202e-002
      3.6566967679107465e-001 -8.5029911442807371e-001
      7.8068841602693284e-002 5.3210977861197195e-001
      -4.7922780805386922e-002 1.6545873353163373e-001
      -6.2669130464914058e-001 6.5062472714289780e-004
      -1.0164470286859587e-002 1.9977303241183256e-001
      -1.2235040197637354e-001 -4.2711637563575100e-001
      1.2444342880721328e-001 4.4314478193021817e-001
      -4.9489112175487224e-002 8.7882967687577113e-002
      3.3778009600280504e-002 -3.5288484184826791e-001
      2.6916835038770703e-001 -1.3940936605034038e-001
      3.0171257224612918e-001 4.1981946069291447e-002
      1.7119251233572021e-002 1.9410516267042052e-001
      -5.5342563628301589e-002 1.3826954993486154e-001
      -1.3180894242339952e-001 -1.0068495428747595e-001
      1.8862575821563390e+000 1.4755465884696523e-001
      -2.3295832551548736e-002 1.2622210598918152e-001
      -1.3001625568321669e+000 8.5888011683741605e-001
      -4.3711090335906100e-001 -1.3193082080035815e-001
      6.0010503168001071e-002 1.0193067262858070e-001
      1.6633720075726708e+000 1.4711258373765509e-001
      -5.0071506982126146e-001 5.3052160911269693e-002
      -6.0353200600563028e-001 1.5087897050151697e-001
      -8.7220706900801442e-002 -1.7059196096877827e-001
      -3.0599468778594378e-004 -1.5553285637194628e-001
      2.9961304910801767e-001 -3.6374712476996002e-002
      5.5508937042849739e-002 -2.7004862381060468e-001
      -9.4910813116767967e-002 1.4365208300603278e+000
      -3.1096470898351258e-001 4.8611756272462017e-002
      2.3427772230493923e-001 4.2367922815061992e-001
      2.2484867314513204e-001 1.1874489756413158e-001
      8.1415145757590984e-002 -1.1579693864935513e-001
      -6.2626627921020650e-001 6.8262358381880614e-003
      -1.9211098461606176e-002 -1.3901738677254602e-001
      3.4183715169330392e-001 3.6280374777388974e-001
      -1.6324633998944352e-001 6.8602612248313301e-003
      -8.0644574478694227e-003 -2.6364346633364122e-001
      -8.7012567295444299e-001 6.3361737934904475e-002
      3.8198928595920145e-001 -1.2614922256017852e-001
      -6.7143347468429052e-002 5.0567217189498515e-001
      -2.2359445368302380e-002 2.6650665786203558e-003
      5.1149268832915089e-002 -2.8379733028929416e-001
      -1.4575171467285397e-001 5.5117832723259349e-004
      1.2005189533282704e-001 -1.6614158912399346e-001
      2.0454262422745902e-002 4.5919455127827963e-001
      2.3179886988227258e-001 -5.7610143673291245e-002
      1.2398652061500931e-002 -9.5901392935779858e-002
      -7.1307496028670769e-001 3.7491705254441932e-001
      1.7543545751305594e+000 -2.1620535132413679e-001
      2.4671780885664141e-001 1.8361165822230011e-001
      -5.6257112189225467e-001 3.7997302908675938e-003
      1.0950449551207560e-001 3.4874032118093545e-001
      -3.6919769852686696e-001 -3.1594930871129093e-002
      5.0754474827517770e-001 2.6414340918713231e-001
      1.1661889358993684e-001 -2.9711269317523481e-001
      -1.9807926529292530e-001 1.3528670758786338e-001
      2.9840254959591132e-002 3.1687725084658630e-001
      -3.7912859511264579e-001 -1.0647750020131737e-001
      -1.6511481521044938e-001 -1.1057834526182962e-001
      -2.7503594330051256e-001 -3.0520085171340150e-001
      -9.6064089967395946e-002 -1.7846019637018748e-001
      5.2339387399290394e-001 -9.7145013812031805e-002
      -1.7228766027013506e-002 -4.3390425013516665e-001
      1.3015353855768436e-002 -1.1487199363635518e-001
      -3.6444500574418448e-001 1.2536947422528083e-001
      -5.6544036564416578e-001 -2.0611294221944543e-001
      9.4157936550637394e-002 2.6047524609530714e-001
      -3.0542134825302181e-001 -2.5619085114303025e-001
      9.6279316599414425e-002 -7.8790100965931378e-002
      -8.2949538520872737e-002 1.3711111972659260e-001
      2.5580651418923872e-001 -1.3239526702253360e-001
      9.2616440266209410e-002 -2.4743343168219950e-001
      -5.6578234349557843e-001 1.3358476636712013e-001
      1.8578317949348552e-001 -6.8905661067320087e-002
      -3.4771572555789873e-002 1.2547557934622658e-001
      7.3280521651924585e-003 1.0198055891634389e-001
      -6.4348406957979598e-001 -2.2392026083018923e-001
      -3.6271828275915186e-002 5.6611604238122927e-002
      -4.1905561928844745e-002 1.9449788627462095e-001
      -3.4841075339782940e-001 -2.1975425590511419e-001
      -6.3256599225505639e-002 -5.7341758878808831e-002
      2.2472761440861430e-001 1.2657940656417585e-001
      9.9556262765858411e-002 3.0993524145163359e-001
      2.4141094584681522e-001 -1.5454900329474122e-002
      2.5364891751855616e-002 -2.2823716662350280e-001
      -2.0637620715104121e-001 -1.1232972434555835e-001
      3.5063704360834408e-001 5.7871900682334762e-002
      -1.9809888961238376e-001 1.6026705685040807e-001
      1.0576834511991588e-001 4.9065198770606594e-001
      -8.2698633555752410e-002 5.4591021429326847e-001
      1.7779570092011449e-001 2.4055663043091585e-001
      8.7733206210538914e-002 -6.0893462851245401e-003
      -4.0395223210761089e-001 -1.1797728824110226e-001
      -6.6639965659139000e-001 2.4992115532955916e-001
      -3.1097285632584926e-001 1.9634919965364264e-001
      -3.9970002188352943e-001 4.1848430796138086e-001
      5.1982414526332094e-002 -6.3096323684155671e-003
      -4.6429547545937838e-001 -1.4604830730013718e+000
      -3.2765538976342928e-001 -4.1321164090807755e-001
      -6.9536777551296114e-002 7.1840353414400215e-001
      6.3921820152773401e-001 5.3007902838063914e-001
      2.0750950005561722e-001 -1.0925459028860887e-001
      -4.0071192314399701e-001 1.1370915091703396e-001
      -1.5052501178929281e+000 9.5297910881196220e-003
      -3.1348948489835671e-001 -1.0336865263284764e-001
      2.8056351615185193e-001 8.6266756768705488e-002
      -1.6375479452901573e-001 -1.0806245128579187e-001
      -7.2671120151432211e-001 3.7142710732137860e-002
      -6.3515847415636439e-001 1.6241647921556107e-001
      2.1138813304944884e-001 2.1586835180536251e-001
      -3.7236075446538271e-003 5.1187025692971226e-003
      -7.1934398170810765e-002 -1.3964811504908306e-001
      1.7779075322009363e-001 -1.3816157622460665e-001
      4.9047982329085284e-002 1.4516514953255369e-001
      2.0878052040915487e-002 3.2819703116545368e-001
      -1.4526036853308355e-001 -5.4655528240061813e-002
      -1.0538011338242065e-001 -6.4351610040260715e-002
      -4.1513699059102439e-002 -1.3443642752165219e-001
      9.1230270252319431e-002 1.3180950819813869e-001
      -6.8663140019615779e-002 2.2399019099349787e-001
      1.6858214086576873e-001 -1.2585069210611413e-002
      2.0013653716364552e-001 1.6914383973105934e-001
      -1.3829543170707520e-001 -1.2616038142510614e-002
      -1.3354406599067460e-002 7.9950539863678755e-002
      2.9735486930559984e-001 2.2402518816755390e-001
      -1.7282103916430175e-002 5.9831775701657722e-002
      2.3518444052222687e-002 4.2582912619845692e-001
      3.9354284331420568e-002 -4.9753372650575438e-002
      -5.7124423026674025e-002 5.6519750338247898e-001
      3.7804804837847417e-001 -1.4019768773402325e-001
      -3.6186957387440477e-001 7.1415194240871227e-002
      -1.7300731115163040e-001 2.7024092218523160e-001
      -6.3361903836795597e-001 -3.4644729364443884e-002
      2.6970142784648032e-001 -6.8002351696181476e-002
      -5.8851038510251599e-002 -1.8704000603429510e-001
      7.6690053428492488e-001 -1.0752028660770720e-001
      -4.6282393120760817e-001 -2.3626346169913165e-001
      -2.2910819907860294e-001 1.3666628690771976e-001
      -5.4839595067154444e-004 4.5085738632029665e-002
      -1.2267920598502226e-001 1.0189760631762530e-001
      4.6863612240298380e-001 1.7428621517705303e-001
      -2.9606488558262745e-001 -2.9319446308302625e-002
      -5.0318632658311380e-002 1.1293559200118907e-002
      1.2809662249173462e-001 -6.2182791324750124e-002
      -8.3809992532935904e-002 -1.7263418200686434e-001
      7.1750845595064427e-001 2.8663105659479082e-001
      -2.3202962718601927e-001 -1.0450043857121522e-001
      -3.2760991382447446e-001 5.1498653830977632e-002
      8.4137632642863044e-002 -8.9072664888362338e-002
      1.0449591654192913e-001 -1.1295043370332997e-001
      4.2394630358608010e-001 -3.9128213622159691e-001
      3.7689607816168974e-001 -2.0182729134131996e-001
      -2.2067728277733978e-001 -7.5542720592458798e-002
      1.5485423772884216e-001 -6.8446213053085359e-001
      -1.6775530541771241e-001 -9.0287416811276347e-002
      6.9972543327036414e-004 -5.5970427491195469e-002
      1.9309024631497601e-001 1.0066239339340871e-001
      -4.9503787568806323e-001 -1.8257133610213769e-001
      3.7420897006665182e-001 1.3626398438028087e-002
      1.6643367509764068e-001 3.4310448273024131e-002
      -1.7583207226182898e-001 -1.8225501705137051e-002
      1.4244045372208098e+000 1.1381205660952284e-001
      -1.9431133714737134e-001 -4.5717913306327324e-002
      7.6251941948544666e-001 2.5592396346613849e-001
      -2.8943806536703193e-001 3.3598202544014903e-002
      -8.1830378592034597e-002 3.2795008557311989e-001
      1.3425796123634726e+000 5.7830471135632155e-001
      -7.7428514030646145e-001 -2.0375505152808041e-001
      -7.6613509186094964e-001 3.1661566774841665e-001
      -2.3429777052957551e-001 2.6292360642003815e-001
      2.3769604697632816e-002 9.0289541578172663e-002
      2.9555959411226547e+000 3.7950839238568795e-001
      -1.4657666455306453e+000 -8.3490591561101413e-001
      -3.9603379425293028e-001 -1.6902034833498789e-001
      -2.4602170882430716e-001 3.6405904272126927e-001
      -1.7518824597059044e+000 7.2060096126048814e-002
      -2.5243388940444117e-001 1.7854404361247445e-001
      -1.4932401897508856e+000 -1.6937945065624380e-001
      -1.1617412585783622e+000 -4.8161594924785101e-001
      -3.6853613313434747e-001 1.3747380454485145e-001
      6.1715427287528574e-002 -2.1424649397970724e-001
      -3.3064995993776693e-002 -1.2676163093320159e-001
      -9.5162044126697876e-002 7.0752756341721287e-003
      -9.2177964211998986e-001 1.4507969567069923e-001
      1.8385690141187228e-001 2.0635262297992935e-001
      -1.9108030835066209e-001 6.0711897736681779e-002
      -3.1592197501630725e-002 -3.1262115224989351e-001
      -6.5692493837927454e-002 -3.8877118985399167e-001
      -3.7774002599073553e-001 4.4825814690294098e-002
      9.9374065648093965e-003 -7.2572340404760585e-002
      -2.2101636693195693e-002 8.0219693188174110e-002
      -8.7574237117061110e-002 -1.8061637078621215e-001
      -3.7730767470204166e-002 -2.2984951706900088e-003
      -5.6649260489974033e-002 -1.1139742399855010e+000
      -7.0054325489272984e-002 -9.7123273880328612e-002
      1.5098799017182693e-001 6.5344202693898054e-002
      2.4990315195444607e-001 -9.5516069385125496e-002
      -5.1633300374199820e-001 2.5101728323507155e-001
      -1.0609380056949022e-001 -1.2677374121427232e-001
      2.0406582119512953e-001 -3.7981085248709867e-001
      6.6524286151713363e-001 -2.4604593719110521e-001
      3.4175280058320417e-001 1.0577324721451434e-001
      1.3319182229057566e-001 -1.8175164900432539e-001
      8.5953150385670030e-002 1.9041297759247000e-001
      -6.7381739035668173e-002 1.3132408810739682e-001
      1.1696134069375416e-001 -2.9610578105936819e-001
      -1.8290339622152377e-001 1.0093809348158238e-001
      -4.1712867984742713e-001 2.0192397615237301e-001
      1.8011513641707899e-001 -8.1252387441280188e-002
      -9.2849735232862673e-001 1.5934784215660372e-001
      -1.3730782881166337e-001 9.5009398966713773e-002
      -1.8661274688642895e-001 -5.2909728951251578e-001
      -3.4725938130687299e-002 -4.1395415690680816e-002
      -3.0581800706363686e-002 6.1443193925804762e-001
      -3.0839208768870296e-001 -6.1248758052472520e-002
      5.5467201980500880e-001 1.2755173227507585e-001
      1.5255354505511889e-001 -3.9527333086538863e-001
      -1.1481470835448447e-002 -4.5596532097372876e-002
      -1.5029257127034016e-002 2.1776343906097456e-001
      6.2144002922496763e-002 1.9028050653775047e-001
      6.3494701897847694e-001 1.1210492798527844e-001
      9.0218304372411351e-002 -6.3188991833144099e-003
      -2.0548584680504745e-001 1.1057576557258662e-001
      -3.0525040708484846e-001 -2.7345017862399934e-001
      3.0664511321896160e-001 1.6198608530375087e-002
      -5.4255047724211934e-002 -2.0848592967851506e-001
      -7.5809603683148929e-002 -5.4499903218298185e-001
      -5.1986735315861188e-001 -4.1234920271568271e-001
      1.0830669187202721e-001 -2.6130617896551012e-001
      -3.9329960744356490e-001 -7.4436840831539217e-002
      -4.8350341017694635e-002 -1.6839819236804426e-001
      1.8570999623453285e-001 -3.5671334755569278e-001
      -1.9371557117129390e-001 2.0851036267633610e-001
      2.6431945725952760e-001 -2.5231941934385543e-001
      -1.6714594044226591e-001 4.0644354392539835e-002
      -5.5541039041301287e-003 -2.7311807659888665e-001
      2.6936381976520679e-001 3.9286431779358123e-002
      -1.6046809681901553e-001 -4.3514209507309096e-002
      5.4104359102647569e-002 2.5587572587008567e-001
      -7.1709008716475155e-003 7.1950060295800533e-002
      1.2047432865715157e+000 -2.1828882511785616e-001
      1.6151482738648773e-001 -6.5857507327200371e-001
      -1.0113301572035667e+000 -5.2692395835691830e-001
      -9.2055886024957553e-003 -3.4162621041817537e-001
      -7.8152668027101177e-002 2.2354674780348982e-001
      -1.9936491230496386e-001 1.2955374302094791e-002
      -8.9525769472053332e-002 -2.9752546087435754e-002
      -1.0770679642798697e+000 -1.7153385906749269e-001
      -2.8318119046789575e-001 -1.6500971820240264e+000
      -5.1196712722341575e-001 -2.1443856591455571e-001
      -1.1800485917612129e+000 -1.1108176663281795e-001
      -3.2851301971573116e-001 3.4719695886401841e-001
      -8.2785314207085292e-001 1.8518415385745834e-001
      -1.7357148780582268e-001 -9.5648840029167692e-001
      -6.7200358418186767e-001 -8.4421310477399994e-002
      8.0840389836558779e-002 2.3653126053972191e-002
      2.5789623511697130e-001 -3.0412350612948336e-002
      -3.2793010322321813e-002 -1.7259774692279728e-001
      -4.2073344377623206e-001 -1.4662798397490788e-002
      -1.6912360019095216e-001 1.1020073600329292e-001
      5.0607276229822036e-002 8.4326260510298068e-002
      2.0310517810276951e-001 -1.1441074950576852e-001
      -2.1402807059433868e-001 -3.9268053835041916e-001
      -1.1703704903979401e-001 7.8758943732415945e-002
      8.0400488503370171e-002 2.8982374604610867e-001
      -5.4591199687446074e-004 8.3327784476954603e-002
      1.9555118138484837e-001 -3.7980188808335230e-001
      1.7741513842456236e-001 -1.2109174089304611e-002
      -1.4837687011512277e-001 2.0114800748822645e-001
      4.0151271889930862e-001 -1.2212798386566701e-002
      5.9741777994537737e-001 2.5843549720588353e-002
      2.2720358463738974e-001 1.8169198864730812e-001
      1.5466911078243301e-001 -2.8074363437460353e-001
      -2.3433274724036854e-001 1.6947740876096204e-001
      3.5092033184672224e-002 -1.7768088353082148e-002
      2.2254549556491207e-001 -2.2945128254507094e-001
      -4.9309456467123147e-002 -4.7429976108948856e-002
      -8.2457329133767701e-002 -1.4533212301639897e-001
      1.3540088358262120e-001 2.1347179433345351e-001
      -1.1452067777162880e-001 5.8585178012154418e-002
      1.0911511828231805e-001 -2.2341973591789335e-001
      -1.9923514753579394e-001 -8.9726785550944085e-002
      -2.3236731444510772e-001 1.5521592625042571e-001
      1.7028696716147654e-001 -3.0479421343604814e-002
      -6.5381015753592719e-001 1.6385146930285940e-001
      8.1023586219365357e-003 1.3162648339849817e-001
      1.0727492182173744e-001 -2.4192429105091032e-001
      -3.0991018625843159e-001 -2.4895219159894236e-002
      -2.3375725274197864e-001 -4.7242137789532151e-002
      5.0719707636167718e-002 -3.6893767213897338e-001
      -3.9335875144956775e-002 2.7807792620675814e-001
      1.6651080534712366e+000 3.7135205719632164e-002
      -3.6541568096548060e-001 -1.5766508134434759e-001
      -6.2557123867289927e-002 -1.6932847135196874e-001
      8.9965136532494022e-002 -3.7371485153609496e-001
      -5.8393231300411386e-001 8.8638137450916643e-002
      2.0215383327722973e+000 2.6027732050985736e-001
      -5.4068198557587821e-001 1.0707479338389114e-001
      5.7423891398655311e-003 -2.6898975409179199e-001
      -1.7075985828279485e-002 -6.3440802759064135e-002
      -4.1596083340390516e-001 1.5402939280520328e-001
      3.1072748013259005e-001 -4.4007374706367321e-002
      2.4362874620876929e-001 -9.4623238005401553e-002
      -1.9564681148838618e-003 8.5756319201609435e-002
      4.3951902327737734e-002 -1.6230098571050022e-001
      -6.1257810605017460e-001 8.9725047404410480e-002
      -9.8818350906527033e-002 4.7210632801109209e-002
      3.9808427884689308e-003 7.4006340287168959e-002
      -1.8211339575074079e-001 9.0936173407360443e-001
      -1.2251119832442084e-001 1.5523315562553078e-003
      6.2888286440709457e-002 7.7077432081685077e-002
      1.3268067583929707e-001 -1.7347311455138768e-002
      2.8382908807832657e-001 -6.4916781672446876e-003
      -2.0765598350418504e-001 2.2570214634475000e-001
      9.6004283065892065e-002 8.6885115338810881e-002
      6.7426568623767044e-002 -3.3256959972102276e-002
      1.3566352536525566e-002 -8.6899515168793767e-002
      -1.7155686033803627e-001 -2.0065379607196211e-003
      -9.3040707280254403e-002 6.9818828302907879e-002
      4.5998042117150743e-002 8.6904627974668625e-001
      -4.6025935221636564e-003 -2.3735699246387665e-001
      -2.7153937779829102e-001 1.3123515345801717e-001
      -3.8825287760408939e-001 2.9971659558359459e-001
      -1.8601636516842213e-001 3.4379563772845684e-001
      1.1430248057274359e-002 -3.3937957337282269e-002
      2.4385141198166038e-001 8.5745669571143102e-002
      -3.5541748290038744e-001 1.2472510668107578e-001
      -2.6850464519617351e-001 1.6224362750304416e-001
      -2.1552071795182898e-001 -6.0390630393858891e-001
      -1.3074228250798889e-002 1.4912324325099383e-001
      -1.8324006630290688e-002 -1.0470103175155539e-002
      -7.6095951674548634e-002 -1.5014684778987505e-001
      -4.1339536253363791e-002 1.3426344968612147e-001
      -2.5476951263440700e-001 -4.6749784244108278e-002
      1.1400560734134035e-001 1.3582312193507023e-001
      9.7906588006285045e-002 8.5492985216705050e-002
      1.9416921218176381e-001 5.0614184776302154e-002
      -1.6727992414732784e-001 -4.0625054415829498e-001
      -1.0816842123955145e-001 -3.9075253509640182e-002
      6.7683140710277798e-002 1.0682613927177030e-001
      -3.9383398228656730e-001 -3.7479921161086782e-001
      1.9841334109861178e-001 1.5786395087522823e-001
      2.2225543659935479e-001 -3.3173677867748136e-001
      -1.3209141146308845e-001 1.8492155128703136e-001
      -2.0844809531861217e-002 3.3568383161858228e-001
      4.6266759177618560e-001 -3.9857137431330919e-001
      1.8657133950139657e-001 1.0256623648954416e-001
      7.7090114066512749e-001 7.2440762181422688e-002
      -4.2615457954597875e-002 3.0935120735292898e-001
      1.0082202634429374e-001 1.7078450869258632e-001
      1.8250818687287756e-002 -2.3689447061845711e-001
      -8.4292265027965704e-002 -1.9025270981193981e-001
      1.4766610290194252e-002 -4.7724341341132966e-002
      -1.4383093596078331e+000 1.9011006964105709e-001
      -2.2366399267162257e-001 1.0681608512216183e-001
      1.6205369731186695e-001 -5.2727366541353481e-002
      -8.3440024685719941e-002 -3.7835703516087171e-001
      -1.4822334398408873e-001 -9.4388209352628177e-002
      -9.0511895535861780e-003 -7.3713306906009551e-002
      -3.1100586334907136e-002 3.8481734841100684e-001
      1.1887686899285596e-001 -2.1514776954888942e-001
      -6.3301479834361338e-002 1.1397661078824693e-001
      -4.4275640336821809e-001 -3.3569567299405224e-002
      -3.6657211484322993e-001 -5.3903483901641999e-002
      -2.2349160745935406e-001 9.3149539787753866e-002
      -3.2214321949884994e-001 -2.5564110201281282e-001
      -1.5792804484315168e-001 6.0672550440001494e-001
      -8.9358613974151624e-002 -7.1276041432672091e-002
      4.2129509495187517e-001 -1.4357614133453794e-001
      1.3276506099561003e-001 -6.6202518697016349e-002
      -5.0990117865844931e-001 -2.6391963123863210e-001
      1.4150901566178262e-001 1.3725922821103084e-001
      -4.5919985044636971e-002 2.5122280634758978e-002
      1.9749939738927164e-002 -3.4214137704459402e-001
      1.6688343611019094e-002 -1.4055321227810838e-001
      -2.3445147423739032e-001 -9.6174134127626001e-002
      5.2437623625278741e-002 9.5104450801988455e-002
      -2.6318738239612849e-003 -5.1005739887721661e-002
      -3.6800724315394988e-002 -4.1228871841052568e-002
      -1.5588159714074279e-001 1.7671420676361840e-001
      7.4705049303808724e-001 1.1530442944295351e-001
      6.3224108720993905e-002 1.5284975137643497e-001
      2.0523619010385638e-001 -3.4807367564786501e-001
      -2.7826077727846121e-002 2.4860636870630592e-001
      -3.0158757596067021e-001 -1.6894641661516482e-001
      3.9816771276945756e-001 6.0179918548185975e-002
      3.2079118149730956e-001 -4.8710476819310067e-002
      -1.0910358964618401e-001 9.8104899809355176e-002
      -9.1531921621325368e-002 -1.2817201816576154e-001
      2.8501259657880917e-002 1.1616059007057606e-002
      1.7399429583152957e-002 2.8335949980260774e-002
      1.1866156101516460e-001 1.9283081866441103e-002
      -2.5154276441288337e-001 2.8194480472410427e-001
      2.1576846974111616e-001 -1.1629729006248649e-001
      -4.8221185227117332e-002 4.2235966932266955e-001
      1.6893705894474512e-001 -3.7938992529288329e-001
      4.9217890417194897e-002 -1.1246602950677342e-001
      -9.2877648620580688e-001 3.8075014170358407e-001
      2.0550883465023845e-001 -5.7981445923306826e-002
      1.8289120687256480e-001 6.2391357039841644e-001
      6.0311795616880626e-001 -4.5875083348177437e-001
      -4.6349665960681956e-002 3.7471141550348330e-001
      -1.8102680512833162e+000 -2.2530805347540014e-001
      -1.8322574091999572e-001 7.9688887623712533e-003
      8.1388070537535717e-002 1.1851341525533356e-001
      9.6217640710931002e-002 1.7287459332317176e-001
      -2.4564130241723398e-001 6.7681093377718327e-002
      2.2784482218330906e-001 1.8160141003756802e-001
      -1.4871821377806618e-001 -1.4249364735178313e-001
      2.8543150218718311e-001 -2.5013066251391669e-001
      -4.0256722388889699e-001 3.1777566308498245e-001
      -3.2644990115391036e-002 2.7504397137110215e-001
      2.8321820682876003e-001 -1.3765886709191194e-001
      -5.3381227771956308e-002 -1.0222944873245148e+000
      2.3868469518730390e-001 -1.9512754149362099e-001
      1.7384715376796128e-001 -2.2589098461972082e-001
      1.9309575531995510e-001 2.2908308113855444e-001
      1.5346737891795828e-001 2.3842060122202643e-001
      -2.0167110370288069e-001 1.2027389603143210e-002
      3.2003541834985161e-001 2.0426265255469526e-002
      4.3697013059423484e-001 1.7313553656838834e-001
      1.0204334073830210e+000 8.7029647632819374e-001
      -1.3925411966810228e-001 1.7098023377156199e-001
      2.0445632628544097e-001 -1.4168398088867043e-002
      -5.7742293469850448e-001 1.3736691743242121e-001
      4.5877468358285579e-002 2.0899785355828807e-001
      2.0728652015413185e-001 1.1331216640904969e-001
      -2.1203995011197638e+000 -2.6967951194898576e-001
      -5.2982523781383029e-001 4.3806929093048824e-001
      1.0933766507529097e-001 2.7058826652031714e-001
      3.1206818477721032e-001 1.3463896359577018e-001
      -3.1035591205560387e-001 -2.6342621305176689e-001
      6.7162707022430032e-002 -2.2611030283471928e-001
      -3.1086812387577656e-001 1.8098624853786513e-001
      -2.8375547085200226e-001 -1.0418416047618542e-001
      -1.0343658112108314e-002 -2.8698561210873236e-001
      -1.6265332607267982e-001 8.0117301600775057e-002
      -1.9358904720263488e+000 -2.8335591160909801e-001
      5.6095076327784481e-002 -6.8779586606593279e-002
      -2.3779675895901925e-001 -1.6241544912177933e-001
      -3.1224707832565435e-001 -1.4262984591275160e-001
      -2.5525945415827067e-001 9.9977912096468322e-002
      1.1386846006587814e-001 -3.3496511031145308e-002
      2.0337857559289146e-001 -4.8590710544895964e-002
      -6.9411075058696176e-002 9.7279807931977533e-002
      -4.7425565481465065e-001 -2.9047743007554067e-001
      -4.0725889470094850e-001 -7.8751098380231227e-002
      -3.1211033515132301e-002 -4.2439967168908410e-002
      2.1051267978522895e-001 3.7300868813670901e-001
      -3.9077779788887324e-002 -3.3430099789380152e-001
      -1.5003663605622997e-001 -4.9854798915093743e-002
      -7.8108714423404196e-002 3.8258786941706469e-001
      -4.8090083441715509e-001 8.0671795150052100e-002
      -3.2467016656202269e-001 5.7377198859811851e-001
      2.8133797210597555e-002 -3.1009787744970957e-001
      -6.3458161749039885e-002 8.6760778555938001e-002
      -1.3499492546217979e-002 -1.6952368779776596e-002
      -4.1571418440078189e-001 -2.0602644675781520e-001
      -3.6733412312023588e-002 2.7648921477741611e-001
      -7.0108802290230265e-001 -2.0358132320348929e-001
      9.4653723548836710e-001 6.4668969376481311e-002
      7.4793089393293585e-002 -2.9441496678861513e-002
      -2.4563950672422927e-001 1.1848437491046175e-001
      1.7672302827345851e-001 1.6363784400308790e-001
      8.4820007960658583e-002 -2.2467276435167305e-001
      2.4770147526825445e-001 3.0481119972360003e-002
      5.9218365395890082e-001 1.0624823846491827e-001
      3.2859044174233321e-001 4.6289717166593231e-001
      1.1675291678848276e-001 -2.0250107379703089e-001
      -6.6450154675604084e-002 -5.4750321164842740e-003
      2.3142825936999387e-001 -3.2766369541813145e-001
      6.8768960706926008e-002 -3.6123536990746372e-002
      4.9396878139140332e-001 3.8905196341416565e-001
      6.7425111313062247e-001 -9.9028388297187922e-002
      -8.3689151166725928e-002 3.9695060463773996e-001
      4.0273937354272826e-001 -1.7822187396535494e-001
      7.6697984848732539e-002 5.3762079461862411e-001
      -3.8755319668508557e-002 5.1436455563465780e-002
      -4.2275872582498553e-001 -3.1142282799614973e-001
      5.5880017365229150e-002 -2.9459241969318667e-001
      1.3890307397304733e-001 2.5530401555670945e-001
      4.8462905481245197e-002 -7.1222143708827623e-002
      -6.7368175112907536e-003 4.7325147837088177e-001
      -2.1835328716764499e-001 1.0991384576182642e-001
      4.8674653548506380e-001 -1.8157796655995068e-002
      3.5805703192312427e-001 9.2768359355040930e-001
      6.3380681384667281e-001 -6.3078775610121651e-002
      3.6172762072241044e-001 1.9547349202367115e-001
      -1.9573067046741191e-001 -6.3146695936063313e-002
      2.5220854463144905e-002 -5.2043425449256331e-001
      2.2251627912006655e-001 -5.2453533409108866e-001
      1.0036930633489030e+000 -7.7108333431356024e-001
      3.9593090538799608e-001 1.7368081600758323e-001
      -3.9087178573216741e-001 3.1074977961725969e-001
      -1.3019001169008249e-001 8.6753100138072092e-001
      9.1587919685658070e-001 3.5511347003667004e-001
      3.6632318807132619e-001 1.5094910536867873e-001
      3.2894844826323683e-002 -2.2722077125252815e-002
      7.3085534460475265e-001 3.2060686574399683e-001
      -4.9941726030500716e-001 1.4119641492400575e-001
      1.7875298566489697e-001 4.0945507850798257e-001
      -9.0085233738334103e-001 4.2703718161836178e-002
      -1.1900176500385333e-001 4.5386209919945970e-002
      -1.6583659148755669e-001 5.0299115312157416e-001
      -3.0709031767379963e-001 -6.6575873593877166e-001
      9.3139151606066273e-001 3.5927918548315174e-001
      2.4924326206514250e-001 -2.0931801640797873e-001
      2.3696029474071784e-001 7.8203129305997390e-002
      1.1208638304853531e-001 2.8386482348431685e-001
      -1.6444315925944269e-001 -1.8603429342884709e-001
      1.8816675413035511e-001 2.4356427354458737e-001
      -2.2991025981932239e-001 1.0397922277933418e-002
      -3.9815575008969775e-002 -2.8023952025920851e-001
      2.7782947744050090e-001 2.5885875136076208e-001
      -4.4151455487870667e-001 -1.5693898863786865e-001
      -1.6203062047782735e-001 3.6026180776362204e-001
      -1.7909805997559655e-001 4.0682294725629384e-002
      -2.2553216734278927e-001 -3.2272502429064980e-002
      1.4230827728980236e-001 -8.0671684865185542e-002
      -4.1301764789045653e-002 -3.6578063325398635e-001
      -1.3616903405982975e-001 4.8525740629745961e-002
      -1.8737146416198253e-001 -5.4985432028573167e-003
      -1.8712474070995630e-001 -5.4882135020710224e-002
      1.3930360304150236e-001 2.3832795277752350e-001
      -2.0082541819175362e-001 -2.5017499077500982e-001
      -9.7075086744045011e-002 -5.4273512042239280e-001
      -4.9070226711479625e-001 -1.6282521714780937e-002
      -1.4315220922552321e-001 -5.8620998850364356e-002
      1.0411390657511757e-001 1.8394357042716594e-001
      -1.3346847371546100e-001 -1.8838268978619341e-001
      -5.5083615639263106e-001 1.3496576428526488e-002
      4.1310096435182869e-001 -2.1059492873895924e-001
      -7.7599046212296041e-001 -4.8119427503060357e-002
      1.5850201422959807e-002 3.0504959114507252e-001
      -1.8443231824843770e-001 7.5643946426735872e-002
      1.3064457206025312e-001 -1.8029839358247143e-001
      1.2934215198698043e-001 -8.6499852246503028e-002
      -1.0485805715782048e-001 2.2221549287282352e-001
      1.5458682236784227e-001 1.9696323447771680e-001
      -4.8822746288396224e-001 9.0958057747649895e-002
      -2.0717253571302868e-002 8.8267357156408918e-002
      6.2741254058119381e-002 -3.5852852548552361e-002
      -2.0293960554063281e-001 -4.8031387859479250e-003
      -1.1557207425377654e+000 1.6977101216545645e-001
      -1.9361656173837333e-001 -3.0597669927233728e-001
      1.4419257597476362e-001 8.2197785192555065e-002
      7.6308960414931598e-002 -5.0837727174548937e-002
      1.0345443495540336e+000 2.2257530760885463e-001
      3.1294371770503621e-001 -1.5039369736592839e-001
      -7.2482346227327299e-002 -8.4462424224915379e-003
      1.5971209181137194e-001 -3.2467380054201911e-001
      1.2837859200062074e-001 5.4735241154970959e-001
      1.0388353229596439e-001 1.0146828883272829e-001
      1.4918155526372959e-001 -3.8569329366600666e-002
      -8.2412842731121136e-002 3.7264495095284889e-001
      8.2773657337622530e-001 3.8377383756696604e-001
      1.6268918752873035e-001 1.6492054324627375e-001
      -4.4723680806225907e-001 5.9405900086323549e-001
      -2.9529482392891448e-001 -1.4249076758677826e-001
      4.9297022999358042e-001 -7.7318275933371643e-004
      2.3519811350319770e+000 5.9681642087885833e-001
      -2.8167488028667975e-001 -2.6191510445031074e-001
      2.3468708833924276e-001 2.7346624102225803e-001
      1.2563159319501607e+000 -3.0347167786204193e-001
      3.5069336568664677e-001 -6.0706847373706768e-002
      3.3281555821427278e-001 1.3635839063703142e-001
      -1.4320971281432699e+000 -1.8250220632870773e+000
      7.5602401831543278e-003 2.9739405853344575e-001
      -6.1402954909334562e-001 1.9833096658251045e-001
      1.0819409215649571e-001 7.0158435860914881e-001
      1.2917931622880482e-001 1.0233417768261277e-001
      4.2816388535173655e-001 9.7246791195319503e-003
      -1.2441702233846327e-001 4.1215355171555201e-001
      3.4496178288443341e-002 5.0265019750309992e-001
      -3.5203677873046124e-002 7.6518361211103103e-001
      -1.0990307796800859e-001 5.6470838433752661e-002
      5.7224371160635534e-001 -1.1799828090125337e-004
      1.8542408713826369e-001 -2.4582593485701162e-001
      3.5827778765297374e-001 1.3680663259188435e+000
      2.1392488249390339e-002 2.6319810003648005e-003
      2.6801783212310994e-002 1.6044645324187434e-001
      2.9533675363823375e-001 7.3664088191231297e-002
      1.2807397285846481e-001 1.7356629641489449e-001
      -1.3605749957755561e-001 3.8301133858211422e-001
      -1.4163555678706174e-001 5.9123325310305480e-002
      -4.2215284009118413e-002 8.1204847013635929e-003
      -3.2068929988996846e-002 5.3219695948045020e-001
      5.8892850515787665e-001 5.7087790320217831e-002
      1.6427464697613478e-001 4.0545024068677471e-001
      -1.1517799240089870e-001 -1.9150991893101518e-001
      -8.3290176362457391e-001 5.5553993219462217e-001
      -5.4085362104408363e-001 1.1305646762692324e-001
      2.7701858896901976e-001 2.9060888429946082e-002
      1.2981742234484361e-001 3.6608205206762601e-001
      -6.1386467381879729e-002 -4.3098171943130043e-001
      -3.3693416282274774e-001 -4.1967123083505442e-001
      -8.0434938461513739e-001 1.2955797219121520e-001
      2.2906356743259687e-001 5.0427422039381990e-002
      3.1897944482201859e-002 3.7840359926735856e-001
      -3.9239615721194654e-001 -5.2225765455345707e-001
      -5.8359016053898582e-001 -1.6371881930921711e-001
      -3.2618759051202517e-001 2.2023470695407655e-002
      4.2656567953435101e-002 -1.3133170026730154e-001
      -2.4007895717188744e-002 1.2236227198910464e-001
      -1.5235398072431072e-001 -4.0539548822279259e-001
      -7.2512398771314612e-001 -7.5115713937278084e-001
      -1.9029478636714553e-001 -8.8455585270676526e-002
      -1.8508770353381196e-001 -1.1878051436647975e-002
      6.6635657342098031e-002 -8.6711001499423554e-002
      -1.4676618009615491e-001 -2.5288062185083077e-001
      -8.9424680588052335e-002 -1.0330143715224067e+000
      9.4425680117062893e-001 -1.8312861668380201e-001
      3.3861918562272192e-002 -6.4591720987481650e-004
      -3.1521945197372492e-001 -4.1588338571634575e-002
      -1.5311127838048748e+000 3.7760291287437958e-001
      5.9546065198107260e-003 7.6229864177031842e-002
      1.2864263884082694e-001 -1.4342448814000633e-001
      -2.0643665023163432e-001 9.0513953433708952e-002
      -8.2519021914610025e-001 1.5970244469028608e-001
      -3.7678722786685098e-001 4.6791823904983684e-004
      1.5429059283427515e-001 1.7474468122057082e-001
      1.1508535291390602e-001 -5.2988271065616273e-002
      3.5174016741004488e-001 1.0755240747431748e-001
      2.5959004539760223e-002 2.7290795939946932e-001
      -1.3683822699401707e-001 -2.2081621753241590e-002
      1.1180552491994834e-002 9.1838826646966437e-002
      4.2726486444892969e-001 -4.6601185456887573e-002
      8.2047248951242546e-002 7.5467663495485837e-001
      -2.8815371350800999e-002 3.0197705193455191e-002
      -7.4139131402798458e-002 -4.7273117706998276e-002
      2.3701109274994819e-001 -1.0060766392604736e-001
      -1.3677461244539624e-001 -9.9989166526730969e-002
      -2.9136470472717321e-002 1.2798028994974504e+000
      -2.9918752124258852e-001 5.8568491396195146e-002
      3.4888449614887501e-001 2.1478319543308505e-002
      1.1211210775148372e+000 -3.2980050623681884e-001
      -4.1227540078518893e-001 6.7164140980778955e-002
      -1.3146672281411934e-002 5.7227261642596561e-001
      -9.2566667958201043e-001 1.2140841361724640e-001
      -9.2485198540508073e-002 5.6857972536367901e-002
      1.8178159593009691e-001 -2.7390672324488119e-001
      -1.4497136182108744e-001 -4.9076362735581847e-001
      4.2725970781787198e-001 2.3034644727893661e-001
      -5.5868956642251344e-001 5.5184597059846108e-001
      -2.0965155531467361e-001 1.6229259861502912e-001
      2.1796852099270073e-001 -2.5370710275143882e-001
      8.3360095256257771e-001 5.0413705998838917e-002
      9.2740717973714457e-002 2.5625595105616306e-001
      1.4244582199088712e-001 -1.5171401576558355e-001
      -1.8568162572591047e-002 1.2472635819030548e-001
      1.9529048862438342e-001 -1.7585156997572335e-001
      1.1812949206622332e+000 8.7905290937451674e-001
      1.7069792337729217e-001 -8.1840760707610191e-002
      6.4628007711012991e-001 -4.6917369965893713e-001
      -3.3714173735876218e-001 1.0629657251480787e-001
      4.8399151976222722e-002 1.9216137480875042e-002
      3.7428006502644551e-001 1.7579815836577511e-001
      -1.0566442606464704e-001 -2.4659114659574255e-001
      -3.6335413156943955e-002 -4.8754130487918973e-001
      -1.7837511219017485e-001 9.1070971156667402e-002
      1.3227783755153754e-002 -7.8101534135403217e-002
      5.2068695060386738e-001 4.0345118850611034e-001
      1.8232937270234336e-002 -8.7361983242571967e-002
      3.6557249794461955e-001 1.2613065020880865e-001
      -7.7909770971172065e-001 -5.3688622651679385e-001
      1.3216769898933511e-001 -1.9808581566001404e-001
      -3.3012805422356972e-001 1.9535219924821398e-001
      1.6527891673401438e-001 4.3191298493229259e-002
      1.8693257976909608e-001 9.1513723307540318e-001
      3.8080835128461249e-002 4.5774424553273144e-002
      -3.1498086973541145e-001 -2.4032805740665344e-001
      1.5552028674287197e+000 4.2516766447778925e-001
      2.5207920150738505e-001 1.2101344562073922e-001
      2.0815227820864901e-001 1.8465255179119305e-001
      -4.4183069513002149e-001 3.5125844790875987e-001
      -8.5179241671581057e-002 6.1848029180463830e-002
      -7.3594365533732900e-002 2.7660336410838166e-002
      1.1744036142807764e-001 1.5639241017652447e-001
      1.8973725525641799e-001 -4.4054005431905086e-001
      -3.2327615933499282e-001 -1.3518625714574500e-001
      -1.1939355798765219e-001 4.8776090658185320e-002
      -8.5017278310493272e-001 1.7968964337083226e-002
      -1.4331420595097799e-001 -7.5019184941487377e-002
      4.8189714832160419e-001 -4.9774536161696742e-001
      -3.1534645239055820e-001 3.0768266628321861e-001
      -6.9609837961128990e-002 -8.3760018720766261e-001
      2.0655817197955761e-001 1.1395764515360612e-001
      -4.3033969019022061e-001 -9.3409515120819284e-002
      4.0124472836849445e-002 -1.9462963380146409e-001
      -4.6586866243889791e-001 3.6882029756416218e-001
      -9.8625814344283802e-002 -4.6230369770288793e-003
      1.0791246869711064e-001 -1.4675963541236167e-001
      -7.3518600309361659e-001 6.2055951080616081e-002
      8.2279360380558081e-002 -8.0450533068369939e-002
      -3.9391342023799031e-001 2.9165937539839448e-001
      -1.4570943500269333e+000 -1.0301127818853530e-002
      8.4490496024455986e-001 -3.4576128487476687e-001
      -2.8588976061053734e-001 6.7028744925858655e-002
      5.8285402402075533e-002 -9.3732215424702656e-002
      7.4714774872074147e-002 -6.3124922731752145e-002
      6.8647974449525784e-001 8.6280410554461850e-001
      1.4115805975205103e-001 2.8321670209976696e-001
      -2.1689788814409128e-004 1.1834923211230115e+000
      -6.1883100802817774e-002 -3.4674519225823069e-001
      5.3653686672665879e-001 -2.2406822479059596e-001
      4.3897205160705005e-001 3.3857942808590014e-001
      3.1789248995303709e-001 -4.7276445326151259e-002
      5.8107829772712491e-002 1.0531545028347216e+000
      -1.1795417957611392e+000 2.6542006800297113e-001
      -4.3601557116440355e-003 -7.7227022265795670e-002
      1.1631877939627138e+000 -2.5909415915036799e-001
      -1.7569907249482852e-001 8.4289642536059903e-002
      1.4202469721564330e-002 5.1785258745290319e-001
      -1.0300235289114996e+000 1.2152253202422901e-002
      -8.7664365349642906e-002 -6.8484226747457577e-002
      8.3304329063050864e-001 -5.7728732269274685e-001
      -5.0901525552543792e-002 -8.8338030600739526e-001
      7.9075926113961192e-003 1.1654107257809719e-001
      -7.1246627533953433e-001 7.7490740369320882e-002
      -4.4487210097965364e-002 2.1423660834839106e-001
      3.2601632196971891e-001 -2.7964443854518306e-001
      1.0464716788536452e-001 -7.0345197055133937e-002
      1.0756778007338276e-001 -1.8081595379483109e-001
      1.3217733605730203e-001 -1.5308219866733100e-001
      1.2029770566338145e-002 -4.9406189614106560e-002
      2.1133371018357264e-001 -4.6984889481242054e-001
      4.2349263491772909e-001 8.8332625080309313e-001
      6.9860206751622064e-002 -2.0109391794901854e-001
      3.6841689733717298e-001 -1.1183834875952281e+000
      -5.2698536024650333e-001 -1.4035131290144551e-001
      -5.8271221720069002e-002 -3.3791344445271215e-001
      2.3932227022650954e-001 -1.3509269310783575e-002
      5.9445519780257638e-003 -1.2926928701076232e+000
      3.6049325560409490e-001 -1.2908870600227149e+000
      -2.7500253123244257e-002 6.2483651819897137e-002
      -4.8070260466328917e-002 -8.6773394789848690e-001
      3.5685207826850746e-001 1.1986253093342339e-001
      -2.5206589247562394e-001 -4.4159637440270094e-001
      5.0662787422543343e-001 -1.1252231346906203e+000
      -4.6036130356614813e-001 -1.4015656865782454e-002
      -2.4501701825269093e-001 -5.9975167180696054e-001
      1.9766529194936333e-001 3.0955972825632372e-001
      -2.1803758847206692e-001 -3.5356484939824123e-001
      5.8770249621799026e-002 -9.0065661092928410e-003
      -9.3286328686776110e-002 1.0613524683034850e-001
      -1.0422413208296742e-001 6.6304262433131422e-002
      6.1070920286817809e-001 2.4518635327444657e-001
      4.6196581237807857e-002 -7.0214635865099750e-001
      -3.9593637001917219e-003 -3.1843555064765654e-002
      -2.0716444320726590e-001 2.6912186254618287e-001
      -4.1079083341881761e-002 1.7113673237461949e-001
      1.3792703892023570e-001 9.9532549089394861e-003
      1.8464598898168177e-001 -5.3362129974798544e-001
      2.0228864733631575e-002 -3.9564611265357741e-001
      -6.7211841789192054e-005 -3.3122700127593524e-002
      -1.0796184585294753e-001 -3.9704474151470737e-001
      -7.0597045555993915e-002 2.0732186556476817e-001
      3.6835261319296880e-001 -1.2510488266614553e-001
      2.4105999854306193e-001 -9.0081441359912751e-002
      -3.5870341274029888e-001 6.5654103313990284e-002
      -1.2259836425407643e-001 -3.6395624148965305e-001
      4.4691909122402840e-001 3.2408442506410112e-001
      1.1946120289423976e+000 -1.2677666792339021e-001
      1.9175949791372962e-001 -7.3122621843514157e-001
      -1.2401900167540765e-001 1.8445910905812840e-001
      -1.0677787328769330e-001 -3.6248792185666884e-001
      1.0650245978053229e-001 -1.4735014606472546e-001
      -5.8186262971270142e-001 5.0559992761171249e-002
      7.2055976752317241e-003 -3.8049524360513604e-001
      5.4540894850114700e-002 -3.5880820032300348e-001
      -6.5383936197838333e-001 -2.7344921850660114e-001
      1.4573634180204717e-001 -3.0700437850155721e-001
      -3.6816125040831477e-001 -1.5713779863981200e-002
      3.7676997262409147e-002 -3.4463396596181339e-001
      -3.5390120002672054e-001 -2.3745643018722857e-002
      1.1287332331122288e+000 1.4142507544667871e-001
      2.0255110486152808e-001 -3.1138652175303588e-001
      1.3044073076603313e-001 2.4829202203280838e+000
      -7.5865725577775089e-001 1.7659869655961732e-001
      2.2829031541347442e-001 4.2113058528965991e-001
      3.0904516174874658e-001 1.0347726663221438e-001
      1.3869861133573422e-001 -2.6441371350633575e-001
      7.3557801039405596e-002 9.6191042627646317e-001
      -9.3618788271967102e-001 1.5894035366673120e-001
      7.2927021525708280e-001 5.6484755040987433e-001
      5.9931341261783844e-001 -4.3006104937079015e-001
      2.4716045533232925e-001 7.6279512206334166e-002
      2.6653371161616057e-001 5.8585626642952371e-001
      -3.6627009747185774e-001 -6.5108123156379883e-003
      -1.7170732146298037e-001 -1.5653517596396499e-001
      2.0159228843839919e-001 -4.2860799288217361e-001
      -6.2819455045817721e-002 -1.6348379838859253e-001
      -7.1993576765999975e-002 -1.5492126383352336e-001
      -6.9684176019917199e-001 3.3909059362515304e-001
      2.8019673500136022e-001 8.7368013838280745e-002
      3.1862678312272785e-001 2.7469123460260908e-001
      6.4745021734235436e-002 -5.5644268345140879e-001
      1.1343396984754150e-001 -4.8185174763330263e-001
      5.7832373955644563e-002 -6.8693390062593074e-001
      1.0220287976823135e-001 -1.4448106233216515e-001
      -1.0369276029985246e-001 -1.7723134482162310e+000
      -3.3687458679219290e-001 9.5836479967918431e-001
      1.3864032141805624e-001 -3.7436827247575105e-001
      1.6151958563090929e-001 -1.3752204234058458e+000
      -2.0972844916597716e-001 -1.6635708997461965e-001
      -3.9142304874033876e-002 -2.3589850220656290e+000
      1.0707722558340438e+000 -9.5879231651244912e-001
      -6.3101954864732676e-002 -3.7615355634223241e-001
      1.6094571975586527e-001 -1.6445316088100987e+000
      2.5838202733608460e-002 -2.9162756103430515e-001
      -1.5228091147419975e-001 -1.2401742566232998e+000
      7.5475625666004253e-001 3.4992776383794122e-001
      -1.8190537760572489e-001 -3.6727911013317027e-001
      -5.8993343767816701e-003 -5.0391946184812109e-001
      -9.6921835139054405e-002 2.6018522707095225e-003
      -1.6849371044181483e-001 -3.8913705885151573e-001
      6.9112572829312319e-003 -6.5191166603190395e-002
      -1.6073569153211867e-001 -2.0095550311146260e-001
      3.6069839469870753e-002 1.5214200428158456e-001
      1.1758616152161427e-001 1.8656275323564678e-001
      -1.2274816568546264e-001 8.8541496440274225e-001
      1.7020958476818192e-002 4.7112646054187676e-002
      1.1431404087107808e-001 -6.0940481627905907e-001
      2.2063907888678073e-002 2.3686084209325522e-003
      -1.7118967625875783e-001 -1.4580224125284733e-001
      -2.4522529108442298e-002 2.7357427246696991e-001
      1.8227143239601193e-001 4.1344679515824412e-001
      1.8993511506061470e-001 8.2325758087595347e-002
      2.0283206926548911e-001 -2.4557776844314372e-002
      3.7526445905009788e-002 1.4199580648050800e-001
      -9.3353207598816129e-002 -4.3214400355502408e-001
      2.2571383409666898e-001 4.2348198968017642e-001
      9.2744154278775148e-001 -6.5269737760808619e-002
      1.7072962432358132e-001 -6.9991957135525928e-001
      -1.1114917314922351e-001 7.4152920751553150e-002
      -4.1977499082376843e-002 -1.9524249489525047e+000
      -2.2353977753035487e-001 9.1319934651374424e-001
      4.2790355868057114e-002 -1.8560378805124000e-001
      1.5597563233367687e-001 -7.3360777361719753e-001
      9.2170014259039448e-003 -1.2420934010975096e-002
      -9.5177439629749921e-002 -2.0156723273909227e+000
      9.9587303178891411e-003 1.5603425675024482e-001
      -3.7438028834368886e-001 -2.6054967517812727e-001
      -2.6893559028756120e-001 -1.3740380822128204e+000
      -1.6561202729466423e-001 3.1265266054251893e-003
      2.3857033014367707e-001 2.9155879601023404e-001
      -9.4689908312830098e-002 -5.6593397722336458e-001
      1.1864829683687286e-001 4.1767702724646771e-001
      -7.3990283020151759e-001 9.6666368211035567e-002
      -8.7899499985284527e-002 1.6562317581180164e-001
      1.1096749586701007e+000 4.4823962294457992e-001
      -1.2709285231030859e-001 1.3629029586705271e-001
      1.4196807771714648e-001 7.2640698161219486e-001
      -7.6992589769680631e-001 8.9378421225651067e-002
      3.5311455814791470e-001 -9.5798246596314734e-003
      -1.1642821111222457e+000 2.3608870329618652e+000
      5.9827901863570621e-001 -5.6885708305524740e-001
      1.3640832263490286e+000 -2.4775944221562316e+000
      1.1811590731731179e+000 1.8933686300753840e+000
      -7.9108757531237317e-001 4.5157572907495819e-001</_>
    <_>
      8.8013071427039380e-001 -3.0208678844739825e+000
      -2.3749908029211533e-001 -1.0088461160063111e+000
      6.6856198182693261e-001 9.1280290654971452e-001
      -2.4675490417087396e+000 9.7641410692965969e-001
      -1.2982256735142367e-001 6.8338830087027902e-001
      2.6389414789375265e+000 1.9611966808373604e-001
      -3.5077605855095789e-001 -1.5163913563917866e-001
      -4.8199440906938999e-002 1.2246205791853964e+000
      -1.2415009746766854e+000 -4.0043986794669878e-001
      -2.0118490442163955e-001 -4.2805737428558849e-001
      -1.2712549518804337e+000 8.9682128859494992e-001
      -7.4274927644936333e-003 -5.0726349266531978e-001
      -7.9075675440236948e-001 1.6026729913242612e+000
      1.4887122476905248e+000 -2.4319090734191354e-001
      1.3264038578108526e+000 2.8369487369377122e+000
      -1.2987998190813705e+000 7.5401187041424833e-001
      -6.2851374484022393e-001 -6.8353120897877018e-001
      2.9328896750205419e-002 -1.9977569012104142e+000
      1.2053006126906589e-001 9.6532439534641259e-002
      -2.3195256515207916e+000 3.9330669668296936e-001
      -1.1491564860995850e-002 1.0166183831655297e-002
      -1.3047349610989416e+000 -5.3812021955433686e-001
      -1.2280529980696073e+000 8.6255343765460790e-002
      -3.0273599926738535e-002 3.3819354194375051e-001
      -9.4522550349866424e-002 -2.3690999723826578e+000
      -1.3379190494640736e-001 4.8441011164805609e-001
      2.0965995552038645e+000 2.2069266310481392e+000
      6.6223637457872589e-002 1.7660050060605053e+000
      -3.8726846694235544e+000 7.8626241527537633e-001
      2.4320725621392819e-001 1.1594318684909957e-001
      3.8259454048707543e-002 7.1130724637883458e-001
      2.6065755078504997e+000 -1.8151661678593634e+000
      2.6634562191574750e-004 1.2766874516488387e+000
      -8.0523673591021550e-001 -1.1662013875259494e-001
      -1.6305808194665889e+000 -1.8669579640806153e+000
      3.9785847747504544e-001 1.8499190372999559e+000
      1.2078385602508668e+000 -1.6038682388026708e+000
      -7.7022434865424061e-001 2.1238824312509400e-001
      1.2404523865873138e+000 1.7956598038302944e+000
      -1.1964587589334241e+000 -5.8268752701727133e-001
      1.1052438939042788e+000 1.2320491507768393e-001
      1.6716198082507114e-001 2.7787999303804559e-002
      8.7360244948621724e-001 2.1571267929654812e+000
      5.4907822281075935e-001 -7.8265140542280509e-001
      -1.0283688410647795e+000 1.4046373003037027e+000
      -9.1954457537289735e-001 1.0455621660822154e+000
      1.4022937911827971e+000 1.2425831990063532e+000
      8.2937709384829605e-001 -3.0312980206615667e+000
      -1.0052492819929615e+000 -8.6267596488869314e-001
      1.7296400402269176e+000 -9.2609665825020526e-001
      1.2348287979471531e+000 -1.3614760711396090e-002
      -5.3541371265748794e-001 1.1256535623282293e+000
      2.0978838183853596e-001 9.2133960057832964e-001
      1.0931003947450819e+000 3.6357675197706949e+000
      -2.5758351881827077e+000 2.9506491045484080e+000
      -4.6209757057266448e-001 -2.1077544606632124e+000
      -1.2570727295365103e+000 9.9072976723930772e-001
      -1.1450469429203389e+000 2.8599569531357388e-001
      8.1935442125336697e-002 -8.8205993054302467e-001
      -1.0425862964862640e+000 5.8542454525234311e-001
      2.5444831813843192e+000 -3.9886617877396664e+000
      3.3404389899819475e-001 -1.4072269322502347e+000
      -1.1412375479390835e+000 -4.6112759354280286e-001
      -1.9314069212910188e+000 -1.0579978515988935e+000
      -2.0167644196280723e-001 7.4400383219158794e-001
      -2.0908267189986098e+000 1.9605773463684200e+000
      9.6555664888168313e-001 1.5155605494822442e+000
      3.2509869097949951e+000 1.4568721184094415e+000
      1.4165870744666100e+000 -1.2011844053984133e-001
      -1.6158501580500725e-001 1.2389513798267318e+000
      -8.3033892843761548e-001 -5.5044076022961919e-001
      6.0746311090095657e-002 2.9736454399037249e+000
      1.2492917682893085e+000 -2.1689312544556305e-001
      5.8065508348115535e-001 -3.7923009968885146e-001
      3.0826558443947921e-001 3.0137024909495708e-001
      4.2224087926994136e-001 -1.4268734450906004e+000
      4.7291357612846391e-001 7.6409607491990605e-001
      -2.5515734566744306e+000 -5.4868206413479573e-003
      3.3452337562439211e-001 3.5682550268287266e-001
      -3.5623500175223946e+000 -2.5171306412787979e+000
      -8.0522375364122512e-001 1.2390312543523342e-001
      -5.5762534112148732e+000 7.8090188316159848e-001
      -8.7481284839524898e-001 4.8158261558914911e-001
      1.4417226339988558e+000 5.7710490585707230e-001
      -2.6889064340276208e+000 -9.3917235107380470e-001
      -4.3988686432838001e-002 -1.0837681756581323e-001
      3.7737260276622653e-001 1.3533052390551028e+000
      -5.4981586535660876e-001 4.5799772209349729e+000
      2.3879532309305560e+000 2.6765529542714659e+000
      -6.5259470128193720e-001 3.3160245994345833e-001
      -5.1411776029583978e-001 8.4077742706044889e-001
      -2.3119180225076910e-001 -5.0023891780859397e-001
      -5.0523148323398943e-002 9.0707649700165138e-001
      2.1427370242422937e-002 8.8184527460469275e-001
      2.0592034400519865e+000 6.3151726917949347e-001
      1.2239807239608373e+000 -1.8195788149842220e+000
      1.7490106699559047e+000 9.1254236756383589e-001
      -1.8814891334387424e-001 -1.8859485605329732e-001
      6.4149057910457175e-001 1.5877794679784274e+000
      -1.5592776009627937e-001 8.1293990802526972e-001
      1.6145715156972551e-001 9.3152360456051164e-001
      3.1250745894154179e+000 1.4473697772062846e-001
      4.4569402720408874e-001 3.3629269271076304e-002
      -1.5156692037564493e-001 1.3796345240931931e+000
      5.3156912945663715e-001 7.4115467659215106e-001
      -2.8594946389881848e-001 2.9025577339864016e-002
      1.1560828378742687e+000 9.0348129315405068e-001
      -1.5848203028107248e+000 1.8038082544730523e+000
      -7.3238038849839560e-001 3.6330635247492221e-001
      3.2660823024160507e-001 8.2742281796054040e-001
      -1.2323482596522328e+000 -1.9577314541946029e+000
      -1.1606806474181042e+000 -5.0157531193594694e-002
      -1.8753295207174332e+000 -1.2775869560190702e+000
      -1.2995130914511004e+000 7.2832363947142365e-001
      -1.2319713926471582e-001 1.7488813451778602e+000
      -1.1839538843363738e-001 -1.8395348190709684e+000
      2.3770611557942938e+000 2.3244179736285093e+000
      -1.2022507238949174e+000 7.7511131648374021e-001
      8.4906516074638638e-001 3.5173936638652542e-001
      -2.7509502108394718e-001 -3.2456028708545057e+000
      2.7901114314879955e-001 -4.2816231825151385e-001
      1.4460238343265879e+000 -2.4935807166103796e+000
      -1.0568595019913705e+000 2.3850059255823624e+000
      1.1178817410773645e+000 -2.3011651097389105e+000
      -4.0870382094573504e-001 -1.7061301818021848e+000
      8.4220615878251226e-001 1.4726063282885812e-001
      6.1592303031905893e-001 1.9835552268562757e+000
      6.9206909893839388e-002 -8.7597826756780228e-001
      -1.2445972654928097e+000 3.2364710497971441e+000
      -1.0473665017702750e-001 -3.3268502599896627e-001
      -4.0256522991523033e-002 5.4094050448056097e-001
      8.5673820216779639e-001 4.3789845143912060e-001
      3.4294119380966320e-001 1.2899128740843839e+000
      -3.3178852887253241e+000 1.9674865850768744e+000
      1.5812232838389131e-001 2.4671112940155293e-001
      1.2709516502932934e+000 1.1467392674313104e+000
      -5.9119601197380733e-001 -1.4679376762304736e-001
      3.3200544172439994e-001 1.0066299975063739e+000
      2.2350972616154019e-001 8.0981252815437077e-001
      2.4745252553063679e+000 -2.7046212207842117e+000
      3.3627363385931108e-001 1.6294815999795020e+000
      3.5895278082249571e-001 2.2494612866363997e+000
      9.4985932547971019e-001 1.7779049831238539e-001
      7.1460879712775338e-001 1.9173078615597658e+000
      7.0452252619295030e-001 -1.2096829471527758e-002
      9.6616050486273364e-002 -2.8329320576393796e-001
      7.0732561180924680e-001 -7.0320963529025471e-001
      4.8550024190285326e+000 7.3603780769239513e-001
      8.0422867531096864e-001 6.3259642574281227e-001
