<?xml version="1.0"?>
<opencv_storage>
<my_nn type_id="opencv-ml-ann-mlp">
  <layer_sizes type_id="opencv-matrix">
    <rows>1</rows>
    <cols>3</cols>
    <dt>i</dt>
    <data>
      265 10 34</data></layer_sizes>
  <activation_function>SIGMOID_SYM</activation_function>
  <f_param1>1.</f_param1>
  <f_param2>1.</f_param2>
  <min_val>-9.4999999999999996e-001</min_val>
  <max_val>9.4999999999999996e-001</max_val>
  <min_val1>-9.7999999999999998e-001</min_val1>
  <max_val1>9.7999999999999998e-001</max_val1>
  <training_params>
    <train_method>RPROP</train_method>
    <dw0>1.0000000000000001e-001</dw0>
    <dw_plus>1.2000000000000000e+000</dw_plus>
    <dw_minus>5.0000000000000000e-001</dw_minus>
    <dw_min>1.1920928955078125e-007</dw_min>
    <dw_max>50.</dw_max>
    <term_criteria><epsilon>9.9999997764825821e-003</epsilon>
      <iterations>1000</iterations></term_criteria></training_params>
  <input_scale>
    6.2285294795985360e+000 -2.9111793632872001e+000
    5.5685658571096051e+000 -2.8552436166389716e+000
    4.3339709846431189e+000 -2.5205007213971711e+000
    4.6103323395223059e+000 -2.7566558093661766e+000
    4.1314405461092036e+000 -2.9199752089111950e+000
    5.7977001383854692e+000 -4.8708623886396261e+000
    9.4086782420282571e+000 -8.5250918547091032e+000
    1.0531783200363252e+001 -9.7071377303312598e+000
    9.5502694662207368e+000 -8.8225829822720332e+000
    9.9834555201650073e+000 -9.1615452129877308e+000
    1.2011082966368134e+001 -1.1138154675639727e+001
    1.3897012232312216e+001 -1.3008254787305873e+001
    9.2260295405875716e+000 -8.4126607857137845e+000
    9.1377246074799459e+000 -8.2561401264860059e+000
    6.6543220256964331e+000 -5.6898836820562977e+000
    4.0965061872524506e+000 -2.8757027687222689e+000
    2.5731885163108310e+000 -1.0770745924101126e+000
    2.5872459836061750e+000 -1.0135916823592370e+000
    2.8349663802001031e+000 -9.8934183985769764e-001
    2.9827637015993651e+000 -1.0056438749018011e+000
    7.0706295340209540e+000 -4.9570599525837444e+000
    7.2681088454569540e+000 -5.8474290958466559e+000
    9.4743328524433039e+000 -8.1467578952060506e+000
    8.4196616987603345e+000 -7.2980699390321568e+000
    7.5490999313754461e+000 -6.4807419483396771e+000
    7.9495254757269853e+000 -6.8060306022137143e+000
    9.1176387710640370e+000 -7.8195061399243473e+000
    9.3433079576644555e+000 -7.8791067618572184e+000
    8.4801742363814068e+000 -6.9534184044325515e+000
    1.0233811573377091e+001 -8.6342483252472793e+000
    1.0539458228019454e+001 -8.8531481973953419e+000
    9.2038728868817792e+000 -7.7668601013769694e+000
    8.7568748918504866e+000 -7.4060039177885644e+000
    8.8131989049103137e+000 -7.4054526736926416e+000
    9.4873949430652758e+000 -8.1728123797629433e+000
    8.5619691185684044e+000 -7.1390549171825688e+000
    6.1615659242649228e+000 -4.9166249691261168e+000
    5.8742170378563108e+000 -4.5831566766928482e+000
    5.6945562214265903e+000 -4.1021384621033414e+000
    5.9324928240605104e+000 -3.8856994269784733e+000
    1.1383021160118578e+000 -9.1064169280948626e-001
    5.0530826562954867e-001 -7.2526598125652864e-001
    4.3696573108310335e-002 -2.5703866534300202e-001
    1.7363201703981406e-002 -4.1957666235268010e-001
    1.2867942729014877e-002 -6.3915828472824487e-001
    1.1568362120821522e-002 -7.5398501352177916e-001
    1.0444521578616485e-002 -8.3015515041332910e-001
    1.1217537823235046e-002 -9.1653882567491052e-001
    1.2037679121137073e-002 -8.5637465465312801e-001
    1.2155766475508995e-002 -8.1300626368551332e-001
    1.4565095831695766e-002 -6.1156267086261396e-001
    1.7217323640607223e-002 -3.7756577960108073e-001
    3.2330737826443134e-002 -2.4609396910245537e-001
    8.2465993356297873e-001 -6.6942982842171217e-001
    7.7704187997548424e-001 -5.2107514304238356e-001
    7.2425063789844013e-001 -9.4578612713796306e-001
    8.4168152550240141e-002 -2.8617171867081648e-001
    2.6200479237511828e-002 -4.0410386212209420e-001
    1.5769736989755433e-002 -8.4210395525294013e-001
    1.5348433203344424e-002 -1.5714989902200769e+000
    1.2545671890825895e-002 -1.5631907175969064e+000
    1.1851462577686768e-002 -1.5650902051121645e+000
    1.2128073615918472e-002 -1.6237350323429671e+000
    1.3449987368010497e-002 -1.9165440823687430e+000
    1.3225383871803617e-002 -1.8369280234178060e+000
    1.3153662956163445e-002 -1.3413641235767615e+000
    1.4780598000512348e-002 -7.9693506630997746e-001
    2.5373003196223428e-002 -4.1283368729855291e-001
    1.1066713952823894e-001 -3.5153091379558249e-001
    4.4836312694114933e-001 -5.0111173011069632e-001
    5.3025669903757144e-001 -6.0511646831346388e-001
    5.5415777941390111e-002 -2.5165282688678331e-001
    2.2337144649492907e-002 -4.4490336343048814e-001
    1.3762638738943608e-002 -1.0645805848065204e+000
    1.4563282449494581e-002 -1.9417138823543776e+000
    1.2700169486202275e-002 -1.9582167210137296e+000
    1.2949344445756647e-002 -2.0860632175970091e+000
    1.3455461465974034e-002 -2.1737693747147699e+000
    1.2857115811922672e-002 -2.0978275199477121e+000
    1.2660450511014869e-002 -2.0690155064530300e+000
    1.2664340705847038e-002 -1.7457421182401147e+000
    1.3557024713439095e-002 -1.0635087151671987e+000
    2.1516240498933307e-002 -4.6981343960023786e-001
    4.0541311121842907e-002 -2.8188135144716658e-001
    3.0492402851578210e-001 -4.2330629841014455e-001
    9.4246849550054712e-001 -1.0976986006418137e+000
    2.1687908038095291e-001 -5.5112801602689210e-001
    2.8003587789812285e-002 -4.5958829372691923e-001
    1.5213752673040240e-002 -9.8710407049196369e-001
    1.3951110050243194e-002 -1.6358907514208696e+000
    1.3406308711778616e-002 -1.9040112796304878e+000
    1.2824690863988970e-002 -1.9178193596725153e+000
    1.3196330862127624e-002 -2.0294404356439091e+000
    1.3634431036488362e-002 -1.9914289566823884e+000
    1.2254251414826552e-002 -1.8401560595158366e+000
    1.3930989020077923e-002 -1.6776188659943250e+000
    1.5133843088034482e-002 -9.7586581135902351e-001
    2.7283707880275586e-002 -4.2979864531398837e-001
    6.7015696478387218e-002 -2.5860174641071776e-001
    5.7991100955088304e-001 -7.0953817639166872e-001
    1.3063017205713578e+000 -1.2448286984268233e+000
    2.1835537255549900e-001 -7.0387496564949092e-001
    3.4262513617531305e-002 -5.0748828993496375e-001
    1.4470040744341058e-002 -1.0319692587317115e+000
    1.4714481423572621e-002 -1.8896856378790441e+000
    1.3749869757473386e-002 -2.1619648153956685e+000
    1.3387285350573210e-002 -2.3024555828238795e+000
    1.2704858743155176e-002 -2.1076613310262489e+000
    1.3490061034497021e-002 -2.1550769269110006e+000
    1.3491542400224481e-002 -2.2327709052230325e+000
    1.4231606989512584e-002 -1.8194690959415676e+000
    1.3304665182101848e-002 -9.7343191491166348e-001
    2.3994086832155218e-002 -4.9879472273433262e-001
    9.0901344777769053e-002 -3.4328625498428078e-001
    7.1405884087283167e-001 -7.5606230210064529e-001
    8.2731183085904691e-001 -6.5211638432418995e-001
    1.1328259409422395e-001 -4.4513395797024469e-001
    3.1040951778082419e-002 -5.5070300330997990e-001
    1.4220781739234368e-002 -1.0777679525193857e+000
    1.3868371290622837e-002 -2.0063454324798706e+000
    1.2843627190045811e-002 -2.1816034043515460e+000
    1.2298612165231893e-002 -2.0985773040532161e+000
    1.2715355036365358e-002 -2.0109707971042297e+000
    1.2423831757743949e-002 -2.0092990020436008e+000
    1.2046907502813679e-002 -2.0843984546338916e+000
    1.3386174688905324e-002 -1.8424100904176868e+000
    1.2855183281418721e-002 -9.7366670547969081e-001
    2.1554455488121946e-002 -4.3717507366496744e-001
    5.7747736816127694e-002 -2.7311282588333335e-001
    7.2085687727480574e-001 -6.2756951668630145e-001
    6.3918808769044999e-001 -5.7150934899381411e-001
    4.9733257104886290e-002 -2.8026153121459452e-001
    2.1411356427496277e-002 -4.5039417991015701e-001
    1.3300455683571593e-002 -1.0156853863772142e+000
    1.2733142355747370e-002 -1.8626340241336801e+000
    1.2849163645791166e-002 -2.1435428293802201e+000
    1.2265273985172872e-002 -1.8921710325596692e+000
    1.1856796886801975e-002 -1.7801934337572567e+000
    1.3377865955005045e-002 -1.9619820822952103e+000
    1.2926872329112464e-002 -2.1907246576572357e+000
    1.4046788635155549e-002 -1.8923503136607787e+000
    1.3667101596385765e-002 -9.5991290035791776e-001
    2.7380585052100805e-002 -3.6915471140832379e-001
    7.3951245179364022e-002 -2.3838401387230285e-001
    6.3313064712883493e-001 -5.6609328449166418e-001
    7.7613434764616063e-001 -1.1322430483308696e+000
    8.5406391007506327e-002 -3.5468771794882042e-001
    2.8287459981847372e-002 -4.3296453454568745e-001
    1.5211180912917599e-002 -8.4949971521905687e-001
    1.5119156493642287e-002 -2.0019541921875756e+000
    1.4272164328627334e-002 -2.3874812304559065e+000
    1.4343862752729612e-002 -2.3663998515473805e+000
    1.4233306842559317e-002 -2.2811804601904186e+000
    1.4557745587136408e-002 -2.2879638035124148e+000
    1.4606275906269638e-002 -2.5409764920706959e+000
    1.3873872025587595e-002 -1.8951709186952654e+000
    1.4086474849397717e-002 -9.7528122927888894e-001
    3.3210777901189724e-002 -4.4150798856875750e-001
    2.3961636375693274e-001 -4.9896583982325998e-001
    7.4884781621318253e-001 -6.5193809882088838e-001
    7.3910249192738142e-001 -8.8692299031285771e-001
    1.6515412413929983e-001 -5.3820814572454179e-001
    3.0230937632137540e-002 -3.7628625899766494e-001
    1.5095939361767096e-002 -8.9208121663713091e-001
    1.4577653285056153e-002 -1.9969669982493397e+000
    1.3215972786156584e-002 -2.2678609301044697e+000
    1.2438652050206285e-002 -2.0245735425247524e+000
    1.3180734989959881e-002 -2.0295230535128814e+000
    1.2399982812142586e-002 -2.0169666160080397e+000
    1.2302361130186760e-002 -2.0730202172666465e+000
    1.3310366426558093e-002 -1.7878170999060441e+000
    1.3408163664393817e-002 -8.6695608822951076e-001
    2.5960723587274141e-002 -3.7383441965674763e-001
    1.6431940548048468e-001 -3.7890121734323523e-001
    7.8839003277026976e-001 -6.1216167250397413e-001
    5.4998039897174411e-001 -6.3409504822624607e-001
    5.5338916958988481e-002 -2.3828286596458567e-001
    2.3919630094619632e-002 -3.7483467395333353e-001
    1.4397082990013464e-002 -9.4292424712241130e-001
    1.4111462806663764e-002 -1.9322743012559946e+000
    1.2301012509355882e-002 -1.9607813939913277e+000
    1.2002216174192590e-002 -1.8693804697663023e+000
    1.1839814280613641e-002 -1.7983981432588556e+000
    1.2608497147739971e-002 -2.0548883645604921e+000
    1.2353711119724763e-002 -1.8492778857338574e+000
    1.2942523323023593e-002 -1.5811195551326707e+000
    1.3025630020134651e-002 -8.5294890225964082e-001
    2.1936930980018490e-002 -3.6544346197301392e-001
    6.0442901901574579e-002 -2.5243800205951739e-001
    5.0921031790512583e-001 -4.8524747941547280e-001
    6.3068598328591630e-001 -7.3456367465065553e-001
    5.5107922324367425e-002 -2.5997972767142752e-001
    2.7185724153070013e-002 -4.7303160026341817e-001
    1.3926629349921020e-002 -9.9092063892143922e-001
    1.5299673710398032e-002 -1.9761778548995292e+000
    1.3481557134376172e-002 -1.9886089805977463e+000
    1.2408923881099683e-002 -1.8809008856951566e+000
    1.3733861591255246e-002 -2.1424824082358183e+000
    1.3825857116701926e-002 -2.1701715958945540e+000
    1.3633049051278634e-002 -2.0634020711141132e+000
    1.4555359152563511e-002 -1.7687329963156295e+000
    1.5431416682605557e-002 -9.3550694312313454e-001
    2.6545802653036906e-002 -4.4097262760103662e-001
    3.4295964432972219e-002 -2.1424890722244999e-001
    1.6774195915977541e-001 -2.6246683021470740e-001
    6.2264796757219554e-001 -5.6404580591834186e-001
    8.4658499130540993e-002 -3.4261792589301293e-001
    2.5945526517915766e-002 -5.0883756123959512e-001
    1.3148347506257294e-002 -9.6632619848928614e-001
    1.3284841868727597e-002 -1.5708934779127186e+000
    1.1742622774043938e-002 -1.6539138805982825e+000
    1.1738276595337282e-002 -1.6887927586397602e+000
    1.2701280197629993e-002 -1.8939850177054136e+000
    1.3191107450554813e-002 -2.0593646572807338e+000
    1.1739926562429885e-002 -1.9299058100803856e+000
    1.4095731018049739e-002 -1.9108836296586722e+000
    1.3313977730384932e-002 -9.3479787170514450e-001
    2.0912351167281136e-002 -4.4161965112081930e-001
    8.2179744604782196e-002 -4.3603605666772671e-001
    5.8227373541690719e-001 -5.4802233921591259e-001
    4.7653646266728195e-001 -5.4381219857325114e-001
    5.0551608160097003e-002 -2.6822088564945584e-001
    1.9778475529753075e-002 -4.2186324865226260e-001
    1.4283102999080394e-002 -8.5900261801528199e-001
    1.2606106388454262e-002 -1.2067751492100276e+000
    1.1642884823308133e-002 -1.3287955961283786e+000
    1.2022900712935377e-002 -1.4486888129633428e+000
    1.2079755348038802e-002 -1.4030991123669070e+000
    1.2380312272535873e-002 -1.5038438142815633e+000
    1.0647637316423968e-002 -1.3964689506293460e+000
    1.2702573039073232e-002 -1.5361146855133383e+000
    1.3974381126318196e-002 -9.3842079375322673e-001
    2.2176033827684228e-002 -4.2630163852277680e-001
    1.0160851280587860e-001 -3.6100906902794511e-001
    6.6753469249468744e-001 -5.1832105534881612e-001
    4.6947714091851955e-001 -6.0755865295337830e-001
    4.0883248480184153e-002 -2.5251418178937274e-001
    2.0171850744235865e-002 -3.0139118170799473e-001
    1.6361834593874809e-002 -6.0885273906383552e-001
    1.2366271424655590e-002 -9.0870272139292729e-001
    1.0639584064456314e-002 -8.7332209432602004e-001
    1.0639884304210045e-002 -9.1828460300805759e-001
    1.0684929038400038e-002 -1.0195936403583847e+000
    1.0865705219820481e-002 -1.0746821621533034e+000
    9.9505154900050678e-003 -1.0297027558833480e+000
    1.1914607169270819e-002 -9.8316534923841792e-001
    1.5295648823254968e-002 -6.4421673867356222e-001
    3.6220500545313020e-002 -3.5283028766493152e-001
    1.7700805945229928e-001 -3.4776877562981151e-001
    7.3577218439408154e-001 -6.2324232089851617e-001
    4.3157773945380895e-001 -5.0773851700448114e-001
    4.2945859265834205e-002 -2.4352828430743634e-001
    3.6733616018071853e-002 -2.7787900117200237e-001
    2.3327984815339351e-002 -4.4570173341307184e-001
    1.7421421655573602e-002 -6.0831505263226404e-001
    1.3534128650299196e-002 -5.5028174841687083e-001
    1.2784696421289465e-002 -6.2389318535892591e-001
    1.1784380879523952e-002 -7.4602062956139281e-001
    1.1223673520498492e-002 -7.7707433727216024e-001
    1.1338860586008932e-002 -6.9580584490144226e-001
    1.4725962837251817e-002 -6.9038778713468818e-001
    1.4559021252690561e-002 -4.4619118074422254e-001
    1.1969646683146024e-001 -2.9008790785036243e-001
    7.7704187997548413e-001 -5.6678348892329422e-001
    6.9296036792447502e-001 -5.8697819400661411e-001</input_scale>
  <output_scale>
    5.2631578947368418e-001 4.9999999999999994e-001
    5.2631578947368418e-001 4.9999999999999994e-001
    5.2631578947368418e-001 4.9999999999999994e-001
    5.2631578947368418e-001 4.9999999999999994e-001
    5.2631578947368418e-001 4.9999999999999994e-001
    5.2631578947368418e-001 4.9999999999999994e-001
    5.2631578947368418e-001 4.9999999999999994e-001
    5.2631578947368418e-001 4.9999999999999994e-001
    5.2631578947368418e-001 4.9999999999999994e-001
    5.2631578947368418e-001 4.9999999999999994e-001
    5.2631578947368418e-001 4.9999999999999994e-001
    5.2631578947368418e-001 4.9999999999999994e-001
    5.2631578947368418e-001 4.9999999999999994e-001
    5.2631578947368418e-001 4.9999999999999994e-001
    5.2631578947368418e-001 4.9999999999999994e-001
    5.2631578947368418e-001 4.9999999999999994e-001
    5.2631578947368418e-001 4.9999999999999994e-001
    5.2631578947368418e-001 4.9999999999999994e-001
    5.2631578947368418e-001 4.9999999999999994e-001
    5.2631578947368418e-001 4.9999999999999994e-001
    5.2631578947368418e-001 4.9999999999999994e-001
    5.2631578947368418e-001 4.9999999999999994e-001
    5.2631578947368418e-001 4.9999999999999994e-001
    5.2631578947368418e-001 4.9999999999999994e-001
    5.2631578947368418e-001 4.9999999999999994e-001
    5.2631578947368418e-001 4.9999999999999994e-001
    5.2631578947368418e-001 4.9999999999999994e-001
    5.2631578947368418e-001 4.9999999999999994e-001
    5.2631578947368418e-001 4.9999999999999994e-001
    5.2631578947368418e-001 4.9999999999999994e-001
    5.2631578947368418e-001 4.9999999999999994e-001
    5.2631578947368418e-001 4.9999999999999994e-001
    5.2631578947368418e-001 4.9999999999999994e-001
    5.2631578947368418e-001 4.9999999999999994e-001</output_scale>
  <inv_output_scale>
    1.8999999999999999e+000 -9.4999999999999996e-001
    1.8999999999999999e+000 -9.4999999999999996e-001
    1.8999999999999999e+000 -9.4999999999999996e-001
    1.8999999999999999e+000 -9.4999999999999996e-001
    1.8999999999999999e+000 -9.4999999999999996e-001
    1.8999999999999999e+000 -9.4999999999999996e-001
    1.8999999999999999e+000 -9.4999999999999996e-001
    1.8999999999999999e+000 -9.4999999999999996e-001
    1.8999999999999999e+000 -9.4999999999999996e-001
    1.8999999999999999e+000 -9.4999999999999996e-001
    1.8999999999999999e+000 -9.4999999999999996e-001
    1.8999999999999999e+000 -9.4999999999999996e-001
    1.8999999999999999e+000 -9.4999999999999996e-001
    1.8999999999999999e+000 -9.4999999999999996e-001
    1.8999999999999999e+000 -9.4999999999999996e-001
    1.8999999999999999e+000 -9.4999999999999996e-001
    1.8999999999999999e+000 -9.4999999999999996e-001
    1.8999999999999999e+000 -9.4999999999999996e-001
    1.8999999999999999e+000 -9.4999999999999996e-001
    1.8999999999999999e+000 -9.4999999999999996e-001
    1.8999999999999999e+000 -9.4999999999999996e-001
    1.8999999999999999e+000 -9.4999999999999996e-001
    1.8999999999999999e+000 -9.4999999999999996e-001
    1.8999999999999999e+000 -9.4999999999999996e-001
    1.8999999999999999e+000 -9.4999999999999996e-001
    1.8999999999999999e+000 -9.4999999999999996e-001
    1.8999999999999999e+000 -9.4999999999999996e-001
    1.8999999999999999e+000 -9.4999999999999996e-001
    1.8999999999999999e+000 -9.4999999999999996e-001
    1.8999999999999999e+000 -9.4999999999999996e-001
    1.8999999999999999e+000 -9.4999999999999996e-001
    1.8999999999999999e+000 -9.4999999999999996e-001
    1.8999999999999999e+000 -9.4999999999999996e-001
    1.8999999999999999e+000 -9.4999999999999996e-001</inv_output_scale>
  <weights>
    <_>
      -4.9226114270221853e-002 -7.9355444844570328e-002
      2.5286476897152388e-001 1.6433547719686303e-001
      7.6805281493716446e-002 1.4837233383886925e+000
      -1.4799707412719981e-001 1.3843031222720939e-002
      1.0319150927612206e-001 1.5287283216574862e-001
      -9.1567466463147673e-002 1.9235816722926113e-001
      2.4234835355714160e-001 1.1474587299203926e-001
      -6.5141240767968872e-002 5.0314941793775159e-001
      6.8884653261931739e-003 7.6854749669462305e-002
      7.7435426084167147e-002 -2.5116488215431071e-001
      8.5875177990960422e-002 -2.2396016450551609e-001
      5.8798894754502146e-002 1.6334571919134469e-001
      3.4533092421373141e-001 3.0771899047294238e-001
      1.9076365700254658e-002 8.7852567687695310e-002
      -6.6339016181447885e-002 -4.3457178645485223e-001
      -5.8570796392124591e-002 -1.5937822465657880e-001
      -6.5582812402483412e-002 1.6663947407994795e-001
      1.9324104813738047e-001 8.5259057807723512e-002
      2.0979708069513499e-002 8.5200798243497772e-002
      8.7095794349256989e-002 3.3792644046926035e-001
      1.1426455052826419e-002 -4.8235395982161720e-002
      -2.4398873900534024e-001 1.2697848189125657e-001
      2.1691967142214642e-002 3.1225756099532154e-001
      -3.5957074197166893e-002 -1.0650199006044204e-001
      9.7194568167368836e-002 3.0228302083775971e-001
      -1.4003029712144388e-001 -2.2687731984930107e-001
      1.0883825246748380e-001 8.4851293150170079e-002
      2.3639291272463240e-003 3.8866942643604581e-002
      5.0492663256086244e-003 9.5996504307940211e-002
      -1.2461941720251837e-001 -3.5774275223445437e-002
      2.4306284481632678e-001 3.4679544302836474e-001
      8.3987961923028639e-002 4.9107807330245945e-001
      4.8899395303551851e-001 1.0285848211076302e-001
      -6.4521301328038266e-002 1.8453057831668979e-001
      -3.4637750276187607e-001 2.5753724174478615e-001
      1.8835915311085463e-001 7.7655486432339249e-001
      -5.5350779954360932e-003 9.2392983335799303e-002
      5.5426399623293876e-001 -1.6455603577404701e-001
      2.3390411499098765e-001 4.6260537076041786e-001
      -4.2269353054093473e-001 2.0393653880606286e-001
      -3.1056118478228012e-001 7.4322073019767165e-001
      -1.6315619047085342e-001 -1.5476005266581470e+000
      -1.0889425490662445e-001 -6.2983748983955590e-002
      3.2101103362012695e-001 -2.6514839773656024e-001
      -5.0426148024934836e-002 -9.4492151135130847e-002
      -4.8233113114049564e-001 5.7025259999300493e-001
      -3.6935086894487734e-001 -1.6882242854293220e-001
      -2.9912431381051929e-001 2.1202313396400294e-001
      4.5876780094829256e-001 5.0414293376131313e-002
      -2.5474506114918712e-003 -4.4854315327081069e-002
      -2.2015050707160602e-001 7.6300453412519953e-001
      -8.9075088275636288e-002 -1.8568488410071801e-001
      5.6157843786654493e-001 -3.3624336276793493e-001
      2.0954675672943765e-001 1.7990275283737892e-001
      -9.6869911374743420e-002 -2.8727563381462057e-001
      -1.1417495481952382e-001 1.8077068111286676e-001
      2.7436901089005855e-001 -3.2078457543918665e-001
      1.5775311012035029e-001 -6.0042692304530090e-002
      3.1304801658580822e-002 1.0171062180430637e+000
      -1.0388106014122121e-001 -3.9122368693292864e-001
      4.2180988080886433e-001 1.6924387811867367e-001
      5.2886937281160940e-001 4.2578617043654526e-001
      4.4237403091929806e-002 2.6187086815218286e+000
      -2.4516742370324979e-001 7.8030668144369791e-002
      -3.7243945239478893e-001 -3.4011457302382347e-001
      1.2092093324539518e-001 1.8104443111025717e-001
      -3.7649986608726586e-002 -8.2989475002168855e-002
      1.3453829087860983e-001 1.7229611080739891e+000
      1.0721146032788660e-001 -5.2929836414339082e-001
      -2.3992263004432371e-001 1.1727711583922862e-001
      -7.6535284926105326e-002 -1.0944378073943446e-001
      -6.3927064831942881e-002 -1.1178276612771262e-001
      1.7410415789303596e-001 2.3223155862898517e-001
      1.4299421128256160e-001 -1.3436782718803631e-002
      -6.4739210423137061e-001 7.3189868227990368e-002
      2.7039263376785905e-002 -6.5950166212597652e-002
      3.2408121708041460e-001 1.5067112382823888e-001
      -9.3323221971684509e-002 8.8280686879740722e-002
      3.0460071417514622e-002 5.8870065072290444e-002
      -8.3248562805331827e-002 2.6489952778738690e-001
      3.5662044140554808e-002 -2.2756572064019631e-001
      1.5941588643169748e+000 1.4412324266234944e-001
      1.9162396466485121e-001 3.5085717802421496e-001
      -5.5052668796573478e-003 8.9739160928780606e-002
      -8.7658411889996318e-002 1.5981184057349213e-001
      -2.1197600357030524e-002 7.3731638917412967e-002
      7.1320430772801924e-001 1.6368895819944113e-001
      2.8205581031364491e-001 5.3186525298447440e-001
      -2.7303661034938872e-003 8.9180219209756009e-002
      -8.1285832106193376e-002 1.5977869549316034e-001
      -6.3260191747270628e-002 -1.0337320277032085e-001
      1.3756611553854070e+000 1.6583753521093528e-001
      2.8434538448040469e-001 3.9910473785801515e-001
      1.2653959774368864e-002 9.5874658538265267e-002
      -8.2344056640246174e-002 2.0756097421277983e-001
      -1.4663221877704635e-002 -9.1611250189109081e-002
      4.0670568455974798e-001 1.5223801785427729e-001
      2.7683916316620683e-001 3.4767808682139628e-001
      8.7395120105277207e-003 7.8574821497740976e-002
      -8.8753471205458748e-002 1.6600018655448803e-001
      -9.7939464537431672e-002 -1.1257968602895933e-001
      1.5151193532799720e-002 -1.0247316510529764e-001
      -2.8034754469723472e-001 1.3634060526334632e-001
      2.8524333952455055e-001 -1.7361759797840565e-001
      -2.4475048226061377e-001 5.5853558813384711e-003
      3.0686386727817655e-001 -1.6037623497249356e-001
      -1.0136404333886174e-002 6.7377318010160658e-001
      7.1288435209622258e-003 -1.2852552972786846e-001
      -1.1186858824262660e-001 9.3291177924736263e-002
      5.6736967542059813e-001 5.1432773793230702e-001
      1.4412440431970258e-001 -1.1743687932770078e-001
      1.2925822382654076e-001 2.1490397418185817e-002
      -2.4334836035167267e-002 -4.4299901893245430e-003
      6.8114594549779514e-002 6.4095419781156515e-002
      1.5250277029133458e-001 2.2138662589992458e-001
      -1.0081238986916871e-001 -5.5590932525633752e-001
      3.5065681587858544e-001 -8.2688111789452776e-002
      -3.9217649225047824e-001 7.0242229142491647e-002
      3.1507152117308257e-002 -1.6895992148340497e-001
      -2.0993182687596559e-001 2.0208979573620989e-001
      1.5938626445127702e-001 1.4173621997183614e-001
      5.5180055741641554e-001 6.0996131148016115e-002
      3.5812475926849024e-001 1.8003069987961082e-001
      -2.3869250450337923e-001 5.9803887126108589e-002
      8.7585410653913953e-002 -2.0637679673499129e-001
      -5.3815462483679344e-001 5.9035882796377015e-001
      2.5720642788163445e-001 5.8351683169025226e-002
      1.4660922396996262e-001 2.6689387252808748e-002
      -2.7910316784229638e-001 2.7868974694055620e-001
      1.4303789751233073e-001 -9.9741470214977201e-002
      1.6810143633101224e-001 -7.2744843853454217e-003
      -3.5406334881854101e-001 -5.1922699401030725e-002
      1.2419054556996573e-001 -2.7244653787272692e-002
      -2.3845032996442507e-002 1.4520489639385536e-001
      6.3944791861833175e-002 -6.1472809326672517e-001
      7.1524857495401356e-002 -1.7093526337352372e-001
      -3.5387333477644523e-001 -1.1905033669753794e-001
      -1.5404433714591700e-001 3.1815526264755228e-001
      8.7350623984241038e-002 1.4584303274821440e-002
      2.7303230640491984e-002 2.4626041548323832e-001
      -1.9903965008477079e-001 1.5000385840938490e-001
      8.9725585457540960e-002 3.0254459986975873e-001
      -3.1027121089372528e-001 2.7146395108764282e-001
      3.1316677861467640e-001 9.7593061580816279e-002
      -1.1980417882524230e+000 -1.2782389016274012e-001
      -1.0282503458882750e-002 -2.0534264428133436e-001
      9.8379710760934980e-001 6.8786728279233067e-001
      -3.0488381435229302e-002 5.3185890264671376e-001
      -2.7335025247209888e-001 1.4498739786517725e-001
      -2.0775790198104743e-001 -3.7088247833892635e-001
      -1.8873572362204476e+000 6.2114973232559101e-001
      4.1607107487080708e-001 -2.4019820222756139e-001
      -6.1891607732966092e-001 7.4905985846807099e-001
      5.3161373988223781e-001 -5.1733767978595102e-001
      -2.1130158470217597e-002 9.8352399371597246e-002
      -2.0894970238388128e-002 3.9881663438531639e-002
      3.2238075979064679e-001 3.6836450230272338e-001
      5.0742329175440648e-001 1.4325766037399323e+000
      -3.6969033543712609e-001 1.8560428012208866e-002
      1.7760384492232159e-001 2.5685342663376781e-001
      -2.5095471608009445e-001 -1.6381622213455854e-001
      2.0894633814710320e-001 3.2648974921560275e-001
      1.1377174291902886e-001 2.2289827717528485e-001
      -4.1879845299304808e-001 3.3952956484836178e-001
      4.1365927970836436e-001 -1.7946988990409399e-001
      4.4680872560407331e-001 6.6147364180243792e-002
      -1.5737585567711619e-002 -1.7163764546674545e-001
      -1.5605060764810164e-001 6.7493266449756867e-002
      -7.8947609626703760e-002 4.0604500328612592e-001
      3.9484851787044351e-001 -7.4869897455306678e-001
      8.0204651268569932e-002 1.1803024052227959e+000
      -1.2529137110669017e-001 1.7670084424458399e-001
      -1.3756969118536086e-001 -2.8142635384440134e-001
      -1.6245100314351283e-002 1.9277990418279928e-001
      -1.4776378628857043e+000 -1.6853745888427077e-001
      -2.8712798025407656e-003 2.6463914821901907e-001
      3.4100823052989160e-001 -2.8029660960694358e-001
      -2.0732979818497893e-001 -5.8133783293489311e-002
      5.8814895901429971e-002 -3.6003253115866918e-001
      -2.0584185012088385e-001 1.4669899999775121e-001
      1.2278276863988671e-001 5.4173486654058567e-001
      -2.4136879303791123e-001 -2.3263487690366250e-002
      -1.4341626128183406e-002 -3.1505900469262233e-003
      2.3150961405993517e-001 -4.9637897706869681e-002
      -1.1796123688675677e+000 4.3215471150760376e-001
      5.4085899671711235e-001 1.0097007255886568e-001
      5.7908234338324538e-002 7.2621241231461880e-002
      -5.7266425218290862e-001 -4.0671339627010576e-002
      -4.7690201871676491e-001 -2.6862712339347378e-001
      -1.4870327178304867e+000 3.0142022219586891e-002
      -1.2083775818488951e-001 -1.9981308863280109e-001
      -2.2735702076891418e-001 9.0159875048051091e-002
      5.7287953863570031e-002 -1.4062703276885627e-001
      4.7042588959457504e-001 3.3023490513456449e-001
      -3.0520741908019287e+000 5.8148531927608132e-002
      8.2987849148431903e-001 1.8748231514792260e-001
      4.6726869506351024e-003 -4.7706440254435413e-002
      -1.6971282746749655e-001 -9.7006191894145777e-002
      4.0793796224718931e-002 6.4675429711129528e-001
      2.2458917516334873e-001 1.3191741305181451e-001
      3.8404702433436751e-002 -8.1813232810925965e-002
      3.0547334154057926e-001 1.6324791856495782e-001
      -1.3191781504093039e-001 4.2596755700918343e-001
      -7.9904614355413902e-003 -2.3319570582221533e-001
      1.1980507696685846e-001 -5.0830597166471009e-002
      1.9522229477836489e-001 -2.1555606561482102e-001
      -1.1483753643133889e-001 6.1526898887154868e-001
      3.8723675747925151e-002 -1.2287250562321171e-001
      -1.6019229499603616e-001 -1.8281467077339264e-001
      1.1812615746760875e-001 1.6009709869166364e-001
      7.8911910204002872e-002 -8.3552659274310256e-002
      9.4535948890554472e-002 1.4844126354849815e-001
      -1.3163616559285476e+000 -3.6846086574276116e-001
      -4.8631462546051618e-001 2.7785574269231842e-002
      3.6121233729826603e+000 1.1520677931428705e-001
      6.8440753203256488e-001 2.1549616487907627e-001
      -2.1250314835772918e-001 1.2119037286760530e-001
      3.0147167256907551e-004 -3.2400059231442194e-005
      -7.5160907537630814e-002 -1.5828418668107119e-002
      1.5312232709849520e+000 -2.3338889121741615e-002
      2.9683796731279882e-001 -2.4488856248264737e-001
      -4.5090826698388142e-001 1.3869954048912339e-001
      7.7074715558783383e-002 6.3163419581792349e-002
      -8.8068450759522979e-002 -1.5849473977206333e-001
      4.6460683672970116e-001 3.0052542380629786e-002
      1.6708391518602039e-001 8.5977204805542481e-002
      -4.1714038333037057e-001 -1.2325844688394001e-001
      3.2137539129683979e-001 -1.5264670814595632e-001
      -6.6306414659458565e-002 4.8961083651144166e-001
      1.3816462482514499e-001 1.0490903400644271e-001
      1.4644752155056900e-001 6.3205519914279099e-002
      -1.2839249686899268e-001 -1.6061816564724266e-001
      -8.4301923860396366e-002 -1.6627648262670711e-001
      4.3895446531227289e-002 2.9118846471779009e-001
      1.6030359902238892e-001 -1.6231686782228183e+000
      7.5815301119939493e-001 5.4842630206356088e-002
      -5.7455033132599621e-002 -1.4420589448283735e-001
      -9.2191468914100946e-002 -1.0293189020818490e-002
      1.4275226262117696e-002 -5.6699067600073844e-002
      1.4934531463151124e-001 9.2509379725538299e-002
      2.9372877741686249e-001 -1.7971001890993335e-001
      -2.7970688601488880e-001 1.2410360796342666e-001
      3.0241054580491984e-002 -1.2646492360617025e-002
      -1.0002099469472364e-001 -3.8003739645626172e-002
      2.2207554584348624e-001 5.3112395469988749e-002
      1.6705414290641799e-001 -1.1210629151358649e-001
      2.3848774540863385e-001 -1.3681699548331233e-001
      -1.4211110765036078e-001 -3.0851410972219795e-001
      -8.0201241366545217e-002 -4.2028634237184920e-002
      1.3320367746852330e-001 5.4023239157723550e-002
      1.9955040954204448e-001 -5.8964289436116701e-001
      5.0871932214561155e-002 1.2826574238616231e-001
      -3.3129351975050331e-001 -4.8730979168043795e-002
      -3.2582219231221921e-001 -2.3889546539263361e-002
      1.0538516993897352e-001 -1.8847582964276372e-002
      9.2854126351460842e-002 -8.8618782924506734e-001
      4.8950370975988686e-002 2.8980909589874615e-001
      -1.4756436780566400e+000 -8.9952034850301246e-002
      -8.3619995450483681e-002 8.8968467970748963e-002
      4.2337729093085641e-001 -2.3032455769869967e-002
      6.9569294970214773e-002 -1.1901521620733697e-001
      1.0065877863886753e-001 2.5987988310872390e-001
      -2.5638141873403382e+000 -1.1145736886834599e-001
      -4.6959897196018352e-001 5.2305596161433610e-001
      6.6418470280678898e-001 -1.5411874089548228e-003
      -2.5919844947507400e-002 -8.4243532451219882e-001
      3.3244317175450788e-001 7.9620131281230389e-001
      1.8646606083714426e-001 3.3627898603701961e-001
      1.2913568072625338e-002 1.4732400635023056e-002
      -1.3292143363366948e-001 1.2204706409384017e-001
      1.4539804996628641e-001 -2.3267706929650658e-001
      4.4684718833245274e-001 7.1366377870865097e-002
      1.5870674611581781e-001 -1.3460792304914662e+000
      -2.1108281639536733e-001 1.9230421629344033e-001
      4.3950341403663507e-001 -6.8880864907061953e-002
      2.0887889276202123e-002 1.2586569198171046e-001
      8.2259724898913061e-002 5.7116530410216637e-001
      -2.9651430570737363e-002 1.3151180122910294e-001
      -2.3578609026599676e-001 3.5476196501260965e-002
      2.9823209775175546e-001 6.8119261099358508e-002
      -4.1139202174345796e-001 -1.9374056141595142e-001
      5.2794602248208672e-002 -5.6813652976855974e-003
      2.3505936855947275e-003 2.8373498943885006e-001
      -4.0248396753069615e-001 -3.4971147447775924e-001
      -1.7044281550595372e-001 2.8295563421257114e-001
      6.6595734382066812e-002 4.1529238015480652e-001
      -3.0625023756806487e-002 4.6638986919276579e-002
      -4.9771846797002911e-001 1.5120080686077733e-001
      -4.3351270695821670e-001 -2.3226049096097234e-001
      -1.1269311015455231e-002 1.3837442387320145e-001
      -1.7549348859655881e-002 2.9498502815388464e-002
      -2.6420706342129546e-002 5.8427089676480748e-001
      1.2376130563130482e-001 1.1838569090381494e-002
      -1.5216902330859497e-001 2.1021859545034011e-001
      3.4353505420297803e-001 8.1824108004641433e-002
      7.3037418138779647e-002 -5.0192196828779914e-002
      -7.8151284422741898e-002 -6.8345400425075009e-001
      9.0920024874807970e-001 1.7647304727748245e-001
      -3.9037992626806467e-001 2.4569435085786709e-001
      1.3124193075413945e-001 9.0506913635801892e-002
      -9.3030100124449219e-002 2.0319537092025733e-002
      -1.3556394768004551e-001 -1.2281705205540121e-001
      1.3394908050450346e-001 -1.2774713635475005e-001
      2.7392390205154499e-001 4.2438097071179404e-001
      -2.2530456388066633e-001 1.0377379192028210e-001
      -2.3239449942035688e-002 -7.6756996026924276e-002
      -1.3142202006593881e-001 -1.5968472567874378e-001
      -4.2190271122781786e-002 7.0807893508593664e-002
      1.2868924361782824e-001 -8.1514797035219605e-002
      3.8470148615591965e-003 5.2132621805427326e-002
      -2.4759088055242143e-002 -6.9059230144048495e-002
      -5.4831977391138938e-002 -1.4403419316919105e-001
      2.4066832971767910e-001 7.2739418296120073e-002
      3.7547160188872934e-002 -9.0056919014963918e-002
      9.1716224668428298e-002 2.5266216139305420e-001
      -6.2070463959992231e-002 -1.2247068862597907e-001
      -7.0105720448111197e-002 1.1199542076768348e-001
      4.7436250017141912e-001 1.2763136665618320e-002
      6.1582966254545464e-003 -1.6998136076860643e-002
      -1.7950651909225679e-001 1.5649875127583143e-001
      -3.0293799476226774e-001 -6.1301549611391400e-002
      -9.5796740256778701e-002 1.0675764283264115e-001
      -1.4659766384686149e-001 2.0516124588279050e-001
      -2.9861727640560948e-001 1.7370033142103855e-001
      -3.3793731621746642e-001 1.3981595748610098e-001
      -2.7629027388313160e-001 -1.8437303153493905e+000
      -3.1241539350478120e-001 -5.0889928459516828e-002
      2.9349409156573161e-003 -2.0648835544867408e-001
      1.2177268187114819e-001 1.3380638245459284e-001
      -1.9527549107084843e-001 2.4683978557039615e-001
      -5.4320100145998897e-002 -2.2984339478755661e-001
      9.3864699305185137e-002 -2.8437493483424003e-001
      -5.3771687042093030e-001 2.4961363020205688e-002
      2.0395545747398938e-001 -1.0736739350395598e-001
      5.3396991910923751e-002 1.4994125078636553e-001
      1.1775728956968523e-001 -3.1828461714923972e-001
      1.1103201744058859e-001 7.5009272455950696e-002
      -7.1760411227300402e-001 4.4345277974747695e-002
      -3.5170606956208605e-001 1.8981752023342260e-001
      6.8563362972956357e-002 8.6866336672134559e-002
      8.1012308687305512e-001 -1.6563689912852647e-001
      1.6016155198736051e-001 -2.5290004710866104e-001
      -4.3549961690695754e-001 2.5976853952198348e-001
      -2.6720819805705863e-002 1.3735817501557503e+000
      -3.1192904684998135e-001 7.0400415208749026e-002
      2.0488225698093496e-001 -6.5715482255261234e-002
      2.2136962267858337e-001 -7.1073918192779173e-001
      2.7183415736030782e-003 -9.8196422405011174e-001
      4.1778258319798180e-003 1.0191228489748631e-001
      -1.1882978878505289e-001 1.1793186684855354e-001
      -4.7999467029143644e-001 2.2260872931574194e-001
      3.1831423331276693e-001 -9.1112157127356749e-002
      -1.0698518079314394e+000 9.4596403583867528e-001
      -6.2038344135389542e-002 -1.1576768038599574e-002
      1.3233820698063903e-001 -1.1921608363435215e-001
      4.5961036506104647e-001 -2.9227201781945694e-001
      5.4665480743355220e-002 -9.1263741485670097e-002
      6.6337011431062557e-003 4.6481183984604935e-001
      -1.4617629190599644e+000 5.7655698913599285e-002
      3.4878223578284867e-001 -1.0076139481849800e-001
      2.0635026977920573e-001 2.1329950307540504e-001
      8.7568462789477608e-002 -3.3371319987006970e-001
      -2.0035329654745695e-001 2.0977914734900363e-001
      -4.0774570443196240e-001 1.2716050817154373e-001
      1.1532510511487555e-001 4.1757372553950323e-001
      -1.3970610620299256e-001 1.6367231291096890e-001
      7.9661931548848944e-002 1.0921674234153733e-001
      8.0717159523651175e-002 1.0411766719098774e-001
      -6.9226334516196864e-002 1.4073621235423189e-001
      4.1786629323777658e-001 4.2965382819741355e-001
      -1.8628211092926197e-001 1.2746317356573716e-001
      4.3793519307010598e-001 -6.4003800032775626e-001
      5.8379430757578255e-001 1.4400780622462189e-001
      1.1245613326385361e-001 4.8569469017800598e-002
      -4.5950072924867268e-002 2.1970749271246942e-001
      -1.1684987489847346e-002 3.8475820038733829e-002
      -2.4973828395449138e-001 -3.7218010433766380e-001
      1.8086041323154378e-001 1.1861111741361967e-001
      2.8610573675343365e-001 4.4389286455413846e-001
      -2.0615562172817674e-002 -2.8208617235011979e-001
      -1.2199733497460109e-001 5.0263316641264610e-001
      2.3852376872980377e-001 -1.7693459895109617e-001
      -3.2242723577916979e-002 9.9345089618632615e-002
      9.4068544740898374e-002 -7.2382659732891957e-002
      1.5747753777426998e-001 1.8270456142312491e-001
      4.2705498341903114e-001 7.0294847847490083e-001
      -1.0653117140088866e-001 -1.6447079486482510e-001
      3.5467678522365825e-001 6.5081321425313671e-002
      1.4532510218146605e-001 -1.1631524028279994e-001
      1.0602325066627200e-001 -9.0065217048975202e-002
      -2.2631452999041872e-003 1.5307464260351289e-001
      6.9052032419097048e-002 1.9366764045369012e-002
      1.2520069000668421e-001 1.5216997761293166e-001
      1.6205813184746700e-002 3.2949498487917489e-001
      -4.6747263265672981e-002 2.5800053861961053e-001
      -2.0733285031476847e-001 1.9136059137831320e-002
      5.4568736237352622e-001 -4.8206327920797397e-002
      8.5564546344021253e-001 -3.5015106230547333e-001
      1.7870834909441335e-001 4.6803930300907917e-002
      -7.0259672046058250e-002 7.5114146590538333e-001
      -6.5817292911710235e-001 -2.9678299306297812e-001
      4.2545050085031040e-003 -2.1642984335658153e+000
      3.4292808306051087e-001 3.6466923244721594e-001
      8.9490290158238991e-002 -1.8412504293859874e-002
      3.3098704050031715e-002 -1.4452087468430413e-001
      1.6969744091575274e-002 -5.0680737495898287e-001
      5.1017934911231377e-001 -2.9963335732002833e-001
      4.1519285513913362e-001 2.3398901240974844e-002
      -6.1649674136706156e-001 -3.2242566611528212e-001
      -4.7374702528351603e-002 7.9865253801420760e-002
      2.7179899160519144e-001 -5.3329732429895152e-002
      4.4933510194665427e-001 -2.5846230484677774e-001
      -3.6325727903464466e-001 -5.7442164102662991e-003
      -3.5501274638317248e-001 1.6113725678798047e-001
      3.0184601543615991e-002 6.2387870887817796e-002
      5.1165956785032929e-001 7.7459028495374949e-002
      1.5110845133816955e-001 -1.6306381712217394e-001
      -4.3139981797391780e-001 8.4479698482982746e-001
      -8.1845046396830168e-001 -7.5477454046389225e-001
      -2.6282184911423490e-001 2.0354682106996588e-002
      6.7824117932211292e-001 1.3515459187324391e-001
      5.6212118790123944e-001 -8.2012931276249895e-002
      -7.6595130373363673e-001 1.7970537555254398e-001
      -2.3889040956429911e-001 1.1223894612179379e-001
      1.2711285643371331e-001 1.0985160842160370e-001
      -1.7785242699988249e-001 -2.5485909052340194e-001
      1.0558188626128837e-001 2.7720816298604722e-001
      -9.0270084793221041e-003 5.6909618673521574e-002
      -1.8130397092212156e+000 -6.0921455413362587e-002
      4.3249532315936112e-001 2.6683711766617962e-001
      2.1748147783286150e-002 -1.6226742215011439e-001
      6.1106023718539640e-002 1.1872705328411422e-001
      3.2218899061645945e-001 -4.5486066674753488e-002
      7.9624453234965087e-002 2.7982995180167485e-002
      3.7252031605249945e-002 6.3892673748528667e-002
      2.7835965005652702e-001 2.0391172073770972e-001
      1.3156342545578306e-001 -5.7231733499971370e-003
      -3.7749434501770768e-001 1.0040365960501756e-001
      -2.0692071631963016e-001 -6.4077405689610145e-001
      2.6214355240783493e-001 6.5171445428564345e-001
      -7.5971600375486961e-002 1.8409233493127738e-001
      2.1571110410563404e-001 3.1825334585724008e-001
      3.7237493011136623e-002 -2.0570688111314298e-002
      -1.3138129028944834e-001 3.2285613894607566e-003
      -4.4108499743092312e-002 -1.4985014961805558e-002
      1.5193462712077048e+000 3.0615566852740350e-001
      6.3326972908108866e-003 -2.4429432135750315e-001
      2.5927004083100552e-001 5.1286059755382557e-002
      2.8945889896313463e-002 2.0160375154288127e-001
      6.9480998092454527e-001 -4.4451204567551966e-001
      -1.0777004078762092e-001 7.9650966329541717e-002
      1.1846657718004881e-002 -3.4629222438519247e-001
      1.0742694405939215e+000 -9.7969619221372609e-002
      -5.4923928010027333e-003 2.6117079408640165e-001
      9.5819722404269447e-001 -9.2447068945515920e-001
      -1.0630262898272173e-001 1.9662637290964546e-001
      1.6719041517209973e-001 1.1462897652869544e-001
      1.5604433826630813e-002 5.1115091104078449e-002
      -3.7414810704025947e-001 -2.5825830640855901e-001
      8.6123258779782630e-001 1.4390258709695730e-001
      -3.8495065852896145e-002 1.7768905606813201e-001
      3.9789482842889268e-001 1.0242530558664933e-001
      6.2646028723333816e-002 1.6119866826862214e-001
      1.2693843957708290e-001 4.0543409771965944e-001
      1.0541535125952270e+000 -8.7031807709977338e-001
      7.3773503796080633e-003 2.0314098566542679e-001
      1.1019521941772168e+000 -2.3468582873231564e-001
      7.9207973600956480e-002 8.8465515942436579e-001
      1.3866326565401119e-001 -1.9118779596219167e-002
      4.1093512268589294e-001 4.1089232699857148e-001
      -2.6077861517502793e-001 1.8946027802848700e-001
      1.0358122150040030e+000 -8.2957513504639466e-003
      1.5648879812451768e+000 4.6685286852437746e-001
      -1.9789593935385663e-001 3.7231485704263732e-002
      -2.4830400491334731e-001 3.4056444539457571e-003
      2.9642652677207182e-001 2.4917446233426940e-001
      -8.3969994008130808e-002 -1.2277614707198937e-001
      9.7804149881343838e-001 2.4725445517516800e-001
      3.4087550179856679e-002 2.8756212142631677e-002
      2.4843478284142531e-001 -1.8788849405112576e-001
      -7.1731536345945882e-002 -7.9017151364575933e-001
      4.3183893347471547e-001 5.5520410458330454e-003
      1.0126173327346222e-001 -5.1716460784783802e-001
      2.0575564305783728e-001 1.2301984470194059e-002
      2.0480718400214473e-001 -1.2039844390951160e-001
      3.0030241118649165e-001 7.2178498192975046e-002
      4.1209292880353920e-001 1.2239341969605455e-001
      -5.6378532248924806e-001 -2.7562167430001133e-001
      -3.5702337222146685e-001 -3.7725050737628668e-001
      6.9156134481686060e-001 -7.3912507425598239e-002
      1.4730415439447770e+000 -7.5230558517765189e-001
      1.6280138857692397e-001 -2.8270577228236621e-001
      -7.3875441844421152e-001 8.8946115688064642e-001
      -1.8266016881687308e-001 -5.2471296026128122e-001
      -4.9645615699655948e-002 -3.4986355028187040e-002
      -3.6974536703667633e-002 -4.8741135214005782e-001
      4.5443676293242979e-001 -1.0269453628250215e-001
      -2.3115361398060932e-001 5.2806607524490801e-001
      7.3395646031860107e-002 2.9459768027744526e-002
      -2.1439746256254399e-002 1.3711154941603931e-001
      9.5554354667769972e-002 -3.2880150160776916e-001
      3.9536437087056280e-002 -1.3685819352110792e-001
      2.2431022123328634e-002 1.5148120920057753e-001
      -1.0316569557656068e-001 -5.6837383444067878e-002
      1.2248140874730067e+000 -2.2988586904438130e-001
      5.5195929928923734e-002 -1.6261117625179955e-001
      6.3928805779354586e-002 6.4061729071577755e-002
      3.7069317594519352e-001 -9.4357706200526997e-002
      -4.8733348872868634e-002 -1.4286881014326497e-001
      8.7844351397896633e-002 8.0663667460214902e-002
      2.8879628808009089e-001 1.6840010135906114e-001
      -1.2864658473501298e-001 3.0357258206460940e-002
      -2.5414784093384363e-001 -1.9234874062637880e-001
      -7.1164670714601019e-001 5.2921965815060190e-001
      1.5467401170965425e-001 -3.2375659483744190e-001
      -4.4420119837125592e-002 1.4118561361333537e-001
      5.6763606521207231e-002 1.1522243786481359e-001
      1.4517393011519619e-002 5.6403877552846382e-001
      -1.3539321066939936e-001 9.4413410002005552e-002
      -1.4993565404131209e-001 -4.8908457403406580e-001
      3.3591660744548800e-002 6.6786756149483401e-002
      4.1938734178438679e-002 1.3383502765237792e-001
      7.1655873592154903e-002 -7.5364745652466286e-003
      -1.4165541148235714e-001 5.0859089719005146e-001
      -2.6045880061239989e-002 -6.7392143975048269e-001
      1.1216582562075864e-001 6.6783500887513350e-002
      -4.4070895721381523e-002 3.7574173445479359e-001
      1.1502314056488615e-001 -1.0915814653568047e-001
      -5.0092510519447764e-001 -2.6725396121615258e-001
      7.8954951097385054e-002 -1.6434832876987987e-001
      -1.3722354811791582e-001 -9.4913409278950589e-002
      -8.6971700886280895e-002 -4.3202606368054626e-002
      -1.4010421072327572e-001 -1.0514088055507427e-001
      5.0943597489641189e-002 1.2968019888516619e-002
      -7.1160939449807892e-002 1.1420085984857431e-001
      1.6470208890847594e-002 4.5326221494545405e-001
      -1.4417102495779641e-001 2.8410579462182817e-001
      -2.4913564689057752e-001 1.6133911288588981e-001
      4.7200425046344620e-002 -7.3298553602066580e-002
      -2.8402289062519014e-003 1.6771872148987113e-001
      -9.7880388476148134e-002 -1.9619960918461143e-002
      -1.5908865048795826e-001 -2.3414398638220327e-002
      -4.1293886178767759e-002 5.2894561770324221e-002
      -7.7539960846899181e-002 -8.2283515347018776e-001
      -6.5288849897905954e-002 1.0589157789310115e-001
      9.3040897250050075e-002 9.8577581897783506e-001
      -2.1012849617821289e-003 -3.8198955249883665e-001
      -2.0131389744102859e-001 4.5364794829139375e-002
      -9.1913058327143124e-002 -1.9290858023309662e-001
      -3.1099126039642472e-001 1.0526509247191146e-001
      5.8502489287379562e-002 3.6795772033792640e-001
      -4.7138461677546969e-002 3.5587702614565797e-001
      -7.9347915183700587e-002 1.5216049900284878e-001
      -4.2953563617051946e-003 7.0512113871999002e-002
      4.9060054806083647e-001 -2.8876446910085851e-001
      -1.6258408268996823e-002 -5.6766248940330666e-002
      8.5371278482488974e-002 1.9553540204942509e-002
      8.0841313803141455e-004 9.0981010716212229e-002
      6.6145511873047846e-002 1.0767377419671532e-001
      -1.9802293191166484e-002 5.6670183607032321e-001
      1.8939613036861806e-002 1.6939058014278749e-001
      8.8221293514126331e-002 1.3621124723620348e-001
      -6.0639122119919686e-001 -2.2549673067534415e-001
      -4.4743516712375925e-001 3.6461273386285192e-001
      8.1034415522088080e-002 1.5065857178089981e-001
      2.1873394670445492e-001 1.8482356158090685e-001
      1.2117618240047374e-002 -2.6527957618088377e-001
      -5.0810826724395686e-001 3.4950501351843510e-001
      -3.3312247120136257e-001 -1.6679043921835920e-001
      2.9954496843258194e-001 3.1606643837857784e-001
      7.0145506796277887e-002 -9.6102263474356672e-002
      9.6476641505642044e-002 2.0052246297304471e-001
      -1.1144698841420916e-001 2.6120532029789417e-001
      -2.7344220671178165e-001 -1.9152202964198475e-001
      2.3530729091670924e-001 1.9768841415388788e-001
      4.9468108779871772e-001 -1.9156613365087657e-001
      1.0534033520503393e-001 -4.4532156709006634e-002
      1.5473348672910425e-001 5.3462069572027893e-001
      -3.5637723804884502e-001 -4.4473674252494516e-001
      1.1337850748616148e-001 2.5733855797860791e-002
      1.4663126252301503e-001 -5.8309981533551758e-001
      5.1492817803774363e-002 -6.5896138041929272e-002
      2.2348776238084728e-001 3.1399068770457561e-001
      -5.1134644101318105e-001 4.2811779018361577e-002
      7.2855659626311034e-002 -1.9455924649097833e-001
      3.8055518368786179e-001 5.4883824391670555e-001
      -1.4683839026119996e-001 1.7916437138521921e-001
      -8.3419072125685695e-003 1.2829219463441857e-001
      -3.7062392987407272e-001 3.6308994419863405e-001
      6.2107602903418234e-002 2.5673378858897150e-001
      6.6459723556911224e-002 5.1185744578293213e-001
      -5.3452790615728878e-002 2.0250007902061024e-001
      5.9795110879545345e-002 4.9541120267696526e-001
      -2.9234385182864076e-002 5.1091497331541065e-002
      -1.8115596318596797e-001 5.7885892858560861e-001
      6.9888016124853847e-002 -2.2534950108904925e-001
      3.4930074383347852e-002 1.1077234296167450e-001
      5.6655899590723209e-002 4.1602896284779513e-002
      -3.1191828835523024e-002 2.3764708683004288e-001
      1.3875291740291526e-001 4.6986973838280705e-001
      -6.0931835767058393e-002 1.3012962323348148e-001
      -3.1022547943945189e-001 1.4779323557174850e-002
      1.8268853585460998e-001 -1.4515309150959854e-001
      3.3720257526267261e-001 2.9866099183956982e-002
      -7.5608697872329425e-003 7.6061112033402739e-002
      -7.0251737567669406e-002 2.2276620777978617e-001
      -1.3365465081753555e-001 -1.9347251449037056e-001
      -6.8462721212611780e-002 1.0681108346406244e-001
      1.6773960547353587e-002 -5.1133491997500480e-001
      2.3241359015082397e-002 1.5925092633930993e-001
      -1.1839863844144927e-001 3.8261171748682299e-001
      -4.7446610782002116e-002 1.3056280571168321e-002
      2.6053006440532367e-001 2.6717043676654978e-001
      3.8519556485122847e-001 1.2991435962132392e-001
      -2.1502141497175792e-001 -4.5109628294854354e-001
      -3.7745983359942498e-001 -2.8233475027832789e-002
      -1.3183304575075397e-001 -1.4792801192731922e-001
      8.6553814500123921e-003 3.1282070261387132e-003
      -5.8634299000570418e-003 3.5570856344571813e-002
      -3.6250053148318062e-001 -1.7656384016570906e-001
      -9.2489933861722759e-002 -1.3014111323134278e-002
      -3.9824829414797186e-001 -8.8141691940434141e-002
      6.6509716712366673e-003 -9.3495228623135224e-002
      1.5618102437155125e-002 -2.8229533647236321e-001
      7.6532561521376982e-002 -8.1672334309764241e-002
      -5.5814332048038207e-001 -1.0058649541425786e-001
      -3.3505832368111432e-001 2.3899267187177300e-001
      -1.5086298417770599e-001 9.6233398386219599e-003
      2.6579073811301247e-002 -6.1927141739671843e-001
      -8.4171775134178513e-003 3.1168900952682221e-001
      -3.5777902360950142e-001 -9.2454838998402705e-002
      2.6664079998628593e-001 1.4652844557703548e-001
      -3.7912863561240218e-001 -3.7431053250867952e-003
      1.2523665735714245e-002 2.7148495381085253e-001
      -9.7544159426976515e-002 4.4165654672101951e-001
      4.4667311936507983e-002 -8.6801578898896808e-002
      9.0001208213668762e-002 -3.8912128417404834e-001
      -1.2189591937080049e+000 -1.1955453738057353e-001
      -2.0195807180348600e-002 1.1989437084146066e+000
      8.7693217211733232e-002 1.4852297612159887e-001
      5.3049354490329825e-001 8.4303904322897985e-002
      1.2481872609766504e-002 -7.4273044050171821e-001
      -8.2734934228891355e-001 1.9425286201411915e-001
      8.1822357394134215e-001 1.5133075978576155e-001
      6.5903393775450875e-002 5.9411484156128076e-002
      3.3748084465865524e-001 -8.2527797637902994e-002
      1.2226781247644848e-002 8.0782368707160171e-002
      -5.3738464861081074e-002 3.5348417106394547e-001
      -3.8290557891024722e-002 6.3014627194947631e-002
      8.3377301699507231e-002 9.8234450196919135e-002
      2.3237994205802782e-002 -3.4067839320993276e-002
      5.2216046604261368e-001 -6.7139260849585061e-002
      -8.6634039172455463e-002 7.0920814298743884e-001
      1.2217992282728957e-002 -2.3286049926887745e-001
      2.3478072898454747e-001 -3.9230469017909997e-001
      3.5487240906885065e+000 -3.8464785852902222e-001
      5.8848023248102919e-002 -8.0613784171570835e-002
      -7.9519825900722441e-001 3.1305081233632059e-001
      -2.9110709932093370e-001 -5.0465098197937941e-001
      1.4319449752498281e-001 -2.8384469815808494e-001
      2.1084209164209389e-001 -4.4308255124085305e-001
      -1.4803373790680754e-001 -9.4442541735789448e-002
      -8.7336722385765031e-001 3.7946743784680698e-001
      -1.8329825090887614e-001 1.1568169911664766e-001
      -4.4915453489659685e-001 1.4581342880164364e-001
      -7.4162132057811914e-002 5.1679331024931337e-002
      6.6486664695892331e-002 5.0920013159032040e-001
      -1.1780790892491579e-001 2.3085114237950241e-001
      4.8615228636786550e-002 -8.9535088959631623e-002
      5.5634904968394253e-002 7.4469760710865585e-002
      -3.7466730251468444e-001 -5.2414590552679385e-001
      1.1515009777203189e-001 -1.0911002784058538e-001
      4.4068860913314262e-001 1.7273317866826099e-001
      -2.0528648761717386e-001 2.9268000641609355e-002
      -7.3597016632116496e-001 3.7528332277611022e-002
      1.7417576604200050e-001 -3.4079025900959337e-001
      1.1778450469421151e-002 3.6170516537400221e-002
      -1.9579342740817318e-001 1.7539422252563452e-001
      4.3276756110369680e-001 -3.6076298662292378e-001
      -6.2766428699587618e-001 1.4466752958613976e-001
      -1.7269216549000144e-001 3.3552041648300120e-002
      -5.9123168623297973e-001 -3.1369237919998361e-001
      -3.3327353267222179e-002 2.2374883059980100e-001
      6.0716977630862845e-001 2.9339444334920750e-001
      -1.9176037681605318e-001 -9.1254292108963089e-002
      -6.4055706301304402e-002 -1.8023469796885866e-001
      3.2625190407822724e-001 -2.0232605017734445e-001
      -1.3825274712356866e-001 1.0216823714687211e-001
      3.6096933450158818e-002 3.7669088280450364e-001
      2.4492655477791056e-001 -4.0812781400808451e-001
      1.1080211923201733e-001 1.2917911005912139e-001
      5.1198511232201628e-002 1.3310644005422443e+000
      4.2436348878591434e-001 -2.7922265199852209e-002
      1.0338166131543641e-001 2.8993411693358795e-001
      2.4259774001136289e-001 -3.4949699720367838e-001
      1.7512817019222768e-001 1.0977441388936037e-002
      -1.7814056061356329e-001 -1.8543866203234810e-001
      1.4258309334061001e-002 2.2770643776297389e-001
      3.0366054480269848e-002 -9.9166043461530393e-002
      -1.4868649070055506e-001 -1.9686528674595602e-001
      2.7663314542300810e-002 -4.0665248134567022e-001
      -3.0823165315875112e-001 -6.0097430188717563e-002
      -2.0340692075674835e-002 1.7132347625121275e-001
      6.2038902734790409e-002 -2.3957782341894079e-001
      -5.2258949856537722e-002 -5.9557625108782319e-002
      -2.3161039850820694e-001 -2.0205144716602372e-001
      2.0786618707675017e-001 2.1881505535257676e-003
      -3.2667199834369759e-001 4.4476427792631522e-003
      9.3024015048106312e-001 -4.4264479168764387e-001
      -2.1048913988826706e-001 -6.0895695561251913e-002
      8.5283500647592658e-001 -3.7467886441329601e-001
      1.1103206618123217e-001 -5.7139284873864571e-001
      -2.2037462386157234e+000 -1.9025076001386079e-001
      5.2757285051622166e-002 -1.5539070434635782e-001
      -4.9600270446697903e-001 8.3576249490695101e-002
      1.2090443112910993e+000 -1.7321747443491289e+000
      1.6997350006536907e-001 -4.3738621483731688e-001
      -8.2203584349963144e-001 7.8761071027067087e-001
      1.5660204283794436e-002 -6.8550409472176865e-001
      -2.5879819166572798e-001 -1.8404682441966921e-001
      9.7325761106437453e-002 -3.7766115505996983e-001
      9.9946885101647487e-001 1.6182637227898364e-001
      -1.2097086149971860e-001 1.0751178580729059e+000
      -2.4888888310695897e-002 -2.1126317380234205e-001
      2.2638585334395336e-001 -1.5332073274040595e-001
      5.8200594259643704e-002 2.3658150056934285e-001
      1.4465977625317900e-001 -1.3595150621360708e-001
      -5.7093868414079735e-002 -1.6648415449944496e+000
      -2.1003124107812557e-001 -1.5306401591059271e-001
      2.1296893713812887e-001 8.0118869942745841e-001
      1.1112950990801169e+000 -2.8481196584974729e-002
      5.9661874174611447e-002 -1.1729718204721889e-002
      -9.4333815974995205e-001 3.5195444749270810e-001
      2.7992826933367593e-001 -2.6236048002257906e-001
      4.7591248114165853e-002 -1.6074920988954057e-002
      2.6891382809487890e-001 -7.2466197012793310e-001
      -3.7051779047889984e-002 -2.9913715450976452e-001
      -7.8803848336903726e-001 -1.0969099818770642e+000
      2.9888635286283255e-001 2.1663785970414301e-001
      9.3167487077357142e-002 8.1965271231763032e-002
      -1.1475721750534824e-001 -8.7514770898343530e-002
      -5.8534828158187516e-002 1.6752086842579922e-001
      -2.5686499049323286e-001 -8.8358090404364015e-002
      -8.3968155002487249e-002 -2.7097615911241341e-001
      1.1767867784077994e-003 -4.8187670822921996e-001
      -3.1813566604203175e-001 -1.4070484927677487e+000
      -1.0403228613593922e+000 1.1455841395765703e-001
      1.1547701534879544e-003 -3.4021894289958937e-001
      -1.2503343404365175e-001 -7.6560861412970735e-002
      1.6779311181202603e-002 -4.0110359812205532e-001
      3.6985659283449379e-001 -6.0089784908177657e-001
      -9.2350820854320725e-002 -1.8179829574761663e-002
      -3.4513740695645001e-003 -1.5542838387690283e-001
      3.2240277501738357e-002 -1.9438966121165130e-001
      4.5753869937121640e-002 1.9105992549965262e-001
      -1.7786308390285552e-001 -5.4878197426611530e-001
      -3.0297471738478965e-001 3.3606029022975312e-002
      -3.5570279785732420e-002 2.3047679558225137e-001
      -1.6533646758583079e-001 -2.1015480247331880e-002
      6.1002212270915547e-002 -1.4812701707440745e-001
      -2.4597662168533063e-001 -1.2634146820525266e-001
      2.6669391967530043e-001 6.2579049110298113e-001
      -1.4150816850269113e-001 4.3019786710970503e-001
      -1.8609975427819686e-001 9.7397930652882825e-001
      3.0851555089597534e-002 -3.7146770004847834e-001
      2.3621386167483674e-001 1.2765765115846522e-001
      2.6102128184672296e-001 8.1076083622803297e-001
      -3.2441357945140421e-002 3.4908990073712809e-001
      -3.5647481346216969e-001 -1.4258759381847149e-002
      1.5245818497940608e-001 1.1520129334918763e-002
      -3.5956227975216686e-002 3.3467783006983026e-001
      -9.4799655922422219e-002 -1.2697767944261062e-001
      2.4231864552024251e-001 9.1891388228409490e-002
      -1.5140577573639454e-002 -4.5357096738243535e-001
      -3.3595741717242639e-002 -9.7080335825698499e-002
      -5.9981323776576878e-001 5.1196134075062974e-002
      -3.4604275241897769e-002 -8.4758802450023796e-001
      -2.8668146298165748e-001 4.9396792283949725e-001
      1.0163679282272128e-001 -2.2149428231563598e-001
      -5.4826288802693390e-001 -1.8119755138693636e-001
      3.5601760529285549e-002 -2.4702857332866757e-001
      5.6151970787244176e-001 1.5229935461970842e-001
      -2.1895137389696587e-001 6.2146314294933155e-002
      1.7393870580444470e+000 -4.2881029814437222e-001
      -3.1102948918587697e-001 -5.9928834622420185e-002
      -4.0570699121394527e-001 1.5507759661516212e+000
      4.0708507271821326e-001 -8.5398628658190548e-002
      -1.6642649500539308e-001 -1.8758496086780793e-001
      4.2842498538010129e-003 -2.5509247749249259e-001
      8.1623194900465490e-002 -7.7581888089902531e-002
      -4.6367005022948177e-001 2.4788955160739984e-001
      6.6454883581269086e-001 1.0663395667218328e-002
      -1.8923051547704250e-001 2.6596727022316941e-001
      2.9020132733391475e-003 1.4356064335299110e-001
      6.5570968833964002e-002 -3.2771080371805719e-002
      -5.7432272114565341e-001 1.2394794117381884e-001
      4.4287906730753324e-001 9.1094984340623616e-002
      -4.1711733703640619e-001 5.5607106130888184e-001
      8.2360508431678740e-003 7.3021247362121927e-002
      6.9855869612180321e-002 2.4382575367517914e-001
      9.2857167189845866e-002 -2.3080231194248350e-002
      3.1233191900330437e-001 1.7658208585476676e-001
      -1.0123335782165366e-001 1.0937798451794196e+000
      -4.2190889383063551e-001 -7.2288204816917681e-002
      7.9072199176340535e-002 1.4568735338175282e-001
      -4.1629007899038473e-001 1.4568478238493407e-001
      5.1858674869343493e-002 -9.9248894983499800e-002
      4.2709249344441702e-001 -8.1543432922356440e-002
      -6.9860560767195365e-002 1.3799859537521236e-001
      -2.7119891503516406e-003 -7.2931057042065942e-002
      -5.2784804358224191e-001 -1.7553785572642641e-001
      1.0684072633987766e-001 -2.0657702417197973e-001
      -5.6473167700834860e-002 -9.2655858219008125e-002
      -5.5199825926822554e-003 1.8128142843398423e-001
      7.7528842272536189e-002 2.5248046242961189e-002
      -2.4495427077062334e-001 1.7127810160855317e-001
      -6.8428484526061789e-002 2.0294822558564679e-001
      -2.1190232998495545e-001 3.2710544031172933e-001
      -8.0917330230120321e-002 6.2595911964397996e-002
      3.6058827302047092e-001 6.1006569733182123e-002
      -2.0133633375631710e-001 -1.0473728003481579e+000
      -3.5898586526365622e-001 -5.5992656355399995e-001
      6.1275380880501740e-001 -4.9258351014171958e-001
      -1.0683046970921531e-001 3.4530317017115658e-001
      4.0839954040669979e-001 2.2598774166067989e-001
      1.5943268863240459e-001 -3.3772029031359968e-001
      -9.7244419120551040e-002 -1.4520456982138000e-001
      -3.5516413800141527e-001 -1.6216859919790569e-001
      7.5460357792289821e-003 -3.5460031965375408e-002
      6.5966211487933024e-002 1.6243732699625307e-001
      -1.0159573766433178e-001 -1.1038024403896537e-001
      -1.5047425955308141e-001 -3.7513583562122831e-002
      -2.1812936141096742e-001 1.9312305830900597e-001
      1.5613949398045440e-001 -1.6185347214383342e-001
      8.6192299054570459e-002 3.5821579737865078e-001
      -7.1669404425726091e-001 -1.1725024906291104e-001
      -1.2226959491897323e-001 2.2170748782647148e-001
      -1.9800747616768928e-002 2.5329109614465595e-001
      7.4207213457442864e-003 -9.0813315018877927e-001
      -3.9477500910482084e-002 4.0335511138950131e-001
      -5.5143378563929514e-002 -1.2555235908833998e-001
      2.2756964348050082e-001 3.1767414985255626e-001
      -3.5065341990767901e-001 4.1075561234197130e-002
      -2.2869151760692527e-001 -2.4406790665761013e-001
      -3.7818445746754262e-002 9.9268943413486285e-002
      -1.4132902746479892e-001 -1.0619593047172260e-001
      2.7826308542095890e-001 3.5914953425290785e-001
      1.1544576085374635e-001 -1.0062556506227453e-001
      -2.0490391456776924e-001 -2.2458547344182253e-001
      -2.8261121499408587e-001 2.1705056246438784e-001
      -3.1978838775064472e-001 9.2575847400072930e-001
      4.7281854448402055e-001 -4.6768643420436090e-001
      -1.2928460553517934e-001 4.9662650439202016e-001
      8.0452406182030464e-002 -5.7810902316308152e-003
      -7.3124880413814430e-002 8.5593495411431186e-002
      -9.8021413506767015e-003 1.0644811073376018e-001
      4.8801597676643819e-002 -6.3074866234436655e-001
      -7.1322107847484592e-002 1.8477040646401738e-001
      1.7680927340296140e-001 -2.7141044400837588e-001
      -3.3301614172114824e-001 9.8656321282203585e-002
      -2.3022768399245727e-001 1.2613817629147478e-001
      9.7048156076991077e-002 -1.5892864334918810e-001
      -2.0089760781934257e-001 2.1263494472042862e-003
      -2.2687770425222112e-001 1.5223569101028647e-001
      3.2346611423579952e-001 1.2880588659575701e-001
      1.4166562680130657e-002 1.1350886262582243e+000
      1.9401469201546290e-001 9.6519431109170703e-002
      -2.3652709179943479e+000 -3.4708845086900690e-002
      -5.6828217639208300e-001 1.3001768024889371e-001
      3.4942492717846385e-001 2.0229795037778314e-001
      2.6584975080283629e-001 1.0916308026185238e-002
      5.1959247986327650e-001 3.5739649663882572e-001
      -8.0101612074908249e-002 6.1315198410592231e-001
      2.2333854243893356e-001 -3.2645923354587264e-001
      -2.8960555793083494e-002 -1.4098056443474308e-001
      -1.6812042747340480e-001 -4.7572405096793564e-002
      4.4593819190115136e-001 8.9559298666972140e-002
      -1.6757450068855589e-001 3.2588286902030189e-001
      2.5784840156141586e-001 2.2190580722192985e-001
      -1.4686783461337456e+000 8.2644002817022527e-002
      1.5863819587526511e+000 -6.7951214525392267e-001
      5.0466965412042757e-002 -1.4489043418289774e-003
      -1.4991945866515313e-001 4.5251441563480899e-001
      -5.1895300979374226e-001 -2.7759260474969427e-001
      9.2507666675969347e-001 -1.3296848003735542e-001
      -1.3198373803529448e+000 -1.0613216395544751e+000
      1.3272027947175916e-001 -2.3124940929928350e-001
      2.0880597797487552e-001 1.3801356886613556e-002
      -5.0888180888191592e-001 -2.5896253181078684e-002
      3.1592240311992487e-001 1.8394493864353118e-001
      -9.6083301833820398e-002 7.2431618390185151e-002
      -7.8253955661382088e-002 -3.0061594878224303e-002
      -3.6948003202423199e-003 8.9114645873244469e-002
      -8.1890252136742184e-002 1.3045210622773507e-001
      1.5008670584766251e-001 2.1114668468982656e-001
      2.5103007748019706e+000 1.1293996263901021e+000
      8.5217533160225886e-002 7.0141137771618045e-001
      -2.1969614044190083e-001 5.2518692859852487e-002
      4.5548839040673889e-002 6.5319328532876886e-001
      2.8948113631219452e-001 -3.3515494963055514e-001
      3.2102280646285203e-002 2.0711226592482929e-001
      -3.3866566772659140e-001 4.0979019709091478e-002
      -3.6045487587656277e-001 1.3365281122827152e-001
      -8.6216091137505807e-002 -8.6019929308764689e-003
      9.5642930699551487e-002 -1.3258297537043265e-001
      -2.2429590127758029e-002 6.9329593994192265e-002
      -1.4199456272524261e-001 4.3398399009437778e-003
      -2.0631945926101619e-001 -4.4375004204789223e-002
      -2.7362922537259655e-002 -2.3011714793460994e-002
      -1.1205293061467825e-003 1.0867668017463189e-001
      -8.4012188578581434e-002 8.8631711751352885e-002
      2.3409243116077755e-002 -1.2036982356297697e-001
      2.8425591468414163e-001 3.4032974105232913e-002
      3.6089522591984863e-002 5.0753459290779665e-002
      -4.5341893100269412e-002 5.4770935692728451e-001
      -1.6796563106899623e-001 -1.2790546489641033e-001
      -2.0776139842919528e-001 5.4253888538684972e-002
      2.5405388423518310e-001 -7.4113635525729377e-003
      1.5985391867710644e-002 1.6997057873371657e-001
      -6.1995412942429988e-002 -1.7290552366639372e-001
      -4.6114340991945356e-002 2.3303464026545317e-002
      8.3718554577601870e-002 8.7165763132860197e-001
      -3.7072259393623403e-003 -5.0581619166248604e-001
      -4.2612391159169183e-001 3.8576281418195413e-001
      -3.3041504076801731e-002 -2.2034449718061394e-001
      -8.7813178590708972e-004 6.8027274198119636e-001
      1.5019356438338338e-001 -5.2370961966481333e-002
      -8.1677979194972189e-002 1.7632959506892951e-001
      1.1157224654141247e-002 2.1679485257315134e-001
      3.0254773939046137e-001 -2.4202885947994127e-001
      -8.7648819082941365e-002 4.3126223508076983e-001
      4.2708102411087373e-001 -1.1489801796771103e-001
      -1.3800141840692429e-001 1.8112711305326087e-001
      -2.9377884601483838e-002 1.3591262678438540e-001
      -1.1638174454690675e-001 1.4603074537562624e-001
      -2.1753808557995899e-001 2.1688184835296426e-001
      1.5744132632213212e-001 1.5354278277934710e-001
      -1.0496659426697214e-001 7.3757474281040847e-002
      -9.9224640563543454e-001 5.3636513891703563e-001
      1.9492680592293288e-001 1.2002436552391776e-002
      -3.5495897608436473e-003 1.5795766525302283e-003
      -1.6738473567232244e-002 -1.6907252798693051e-001
      -1.9930722850929655e-001 1.0988709022448553e+000
      -1.9007744633282144e+000 3.6408515425669602e-001
      6.5452893125057077e-001 -9.8200425188634088e-002
      7.0097125872881461e-001 -7.8777509493085734e-002
      4.2360651577541059e-001 1.5283694616917592e-001
      1.9746064404730226e+000 3.6602727941249330e-001
      -5.0895278349417691e-002 1.9253793941110025e-002
      2.8498032803467827e-002 3.7455610999338820e-002
      -4.3245020437638851e-002 9.0389939785073467e-002
      3.8944118587415877e-001 -1.4125775657292122e-001
      -4.0638415030375857e-001 8.4792330343975708e-001
      -3.7119641441101447e-001 4.5654341568021416e-002
      -2.4572396315048359e-001 3.3859992759226562e-002
      3.7806750611902701e-001 -3.1482591018454509e-001
      5.0949818087899550e-002 -8.5437373035666314e-002
      -1.8378136383639943e-001 3.1193058810326857e-001
      1.7750222993201867e-001 -3.9291886993035779e-001
      5.7787325999745498e-001 -1.8841330553400604e-001
      -1.6202706365328490e-001 -7.3848899246419589e-002
      2.0078687558513414e-002 -1.3983473519298725e-001
      4.2268202992156438e-002 3.6527583159542354e-001
      -4.6253439671625823e-001 1.3462619352212077e-001
      1.0323047035851475e-001 1.9075014518315631e-001
      -8.5208918257788258e-002 -2.8935258652554319e-001
      -6.4845471606045424e-002 8.3340707532813724e-002
      -8.7005525210986603e-002 -1.5995819045664147e-002
      -7.5221786647274136e-002 4.2353245228591470e-002
      4.3251498464890520e-001 -4.1486123015138328e-002
      7.2456984293704688e-002 7.6230297524777793e-002
      -3.0509664162592723e-002 6.1877264432835966e-001
      -2.3211225796185236e-001 1.1722868963496878e-001
      -1.5231407188862078e-001 2.8890642490840274e-001
      2.6509713034905991e-001 -6.0653460263626424e-001
      -1.8172481926829337e-001 5.8806858699587572e-002
      1.0587059752162685e-001 7.8418040243024345e-002
      -3.8382985864480940e-002 2.2757849205340110e-002
      -3.0812079862367423e-002 -1.1861241300370585e-001
      1.0694582231745908e-001 -2.0971104734622767e-001
      -1.5369410798479882e-001 2.6275877930773917e-001
      -3.4032539778838453e-002 -1.4861561607617521e-001
      -2.5819648884762618e-002 2.4743159679072566e-001
      -5.2431763080701653e-002 1.3558059249873886e-001
      -3.6692344836436984e-002 -1.8806134319842233e-001
      1.0659953791966413e-001 -4.0747238051818951e-001
      -7.7668220678987460e-002 1.3528243433033854e-001
      2.3298316117238851e-001 -7.2389740871402685e-004
      6.6799808534280768e-003 1.8601697715531629e-001
      6.2051917879929121e-002 1.0859410507941962e-001
      2.4429585721660343e-002 -3.2881789460868471e-001
      -3.2606207252191122e-001 8.8909212703906074e-002
      -3.4780169116166916e-002 -1.2106682493928609e-002
      -6.6391887500911118e-001 1.7384353662493635e-001
      -3.5139936428102525e-001 -3.5678131237464161e-001
      4.2013112311209005e-001 6.4597734044930813e-002
      6.2007449593753997e-002 -2.0082159915268308e-001
      4.0055403020605694e-002 -1.5593140558131796e-001
      -4.3971581960546047e-001 3.5847910978568265e-001
      -4.1819426482131455e-001 -4.6346641355743579e-001
      -9.2101790245703988e-002 4.3400855423361029e-002
      2.3193734188826007e-002 -7.5743775673277169e-002
      2.8125522657899293e-001 -9.0272461945995718e-003
      3.2357026502271173e-002 1.7758326169016028e-001
      -3.9718533333792050e-001 -1.3133751760548734e-001
      -3.3361816332238003e-002 -5.2921910134053296e-001
      3.8412251819157711e-001 -1.0291693445961611e-001
      -3.3576642496606951e-001 1.3843497010139452e-001
      -1.2610162850285131e-001 -4.0307574866494866e-001
      -6.1013499957443491e-002 3.6783416918224981e-001
      -2.4697496368518290e-001 3.6010364894161162e-001
      8.7532254866285603e-002 8.3240987571265662e-002
      -5.6506176937165475e-001 5.0217732434669413e-002
      -2.7663132154253134e-001 -1.6495473714355871e-001
      5.9381484319968161e-002 2.0187887268451216e-001
      -8.8320692549736832e-002 1.3663034943030428e-001
      1.5076513703576391e-002 -2.6475687276888044e-001
      6.3486669425343270e-002 2.9481345677147575e-001
      -6.6028101220585966e-001 -5.0268608187612773e-001
      -2.0296026169604142e-001 -1.3340017040753885e-001
      1.8732640063680914e+000 -3.9796907699343664e-001
      2.8722679143291463e-001 -7.1290295659922578e-002
      -3.1201114661985346e-001 4.7827721288397840e-001
      -2.0448200004234041e-001 -1.5498043612542598e+000
      1.8472811513749421e-001 -3.6698824246160847e-002
      2.5191196251149917e-001 7.9166482113858605e-001
      1.0485116284785188e-001 -1.0633050533427069e-001
      -8.4832242075596798e-001 5.1675753872801056e-001
      -1.9541149043951991e-001 -1.4551603533545382e-001
      8.9559156766052094e-003 1.2524697231634038e-001
      3.1157787516408592e-001 -8.3006694637249662e-002
      5.9194905877631647e-002 5.2779755342521693e-003
      2.1265633426489780e-001 4.4853045806743697e-001
      8.4020773594535594e-002 -4.7920417430034717e-001
      1.2632525972411518e-001 -1.7647944475260288e-001
      -2.5292947937697086e-001 -2.4252649646886648e-001
      -1.1736262345931482e-001 4.2898376320270298e-001
      -3.5588898017016179e-001 5.2489595109131781e-001
      -7.7987143013950044e-002 2.4559247022175854e-001
      1.3705159439405970e-001 5.6218252254064814e-002
      -1.0521313696941610e-001 7.2488891604117721e-003
      -6.2937916421684531e-002 1.2027929159982265e-001
      -2.2844110687426220e-001 1.9328277011933067e-002
      -9.3288494511228282e-002 -5.9105060603068131e-002
      8.8242657461934590e-002 3.2923580378863071e-001
      -8.1006819648065373e-002 -9.0440764679973792e-002
      3.2388573817740983e-002 7.7652881735377932e-001
      1.0164821693338824e-001 -2.9977795741043426e-002
      -7.2570888856014377e-003 1.4342172180823887e-001
      3.9569579189018933e-002 2.7182575504722639e-001
      -8.5832240293185272e-002 3.0649115891850304e-001
      -5.5626665382300225e-002 -3.4951411487134640e-002
      7.8320930161336663e-002 9.8845144066786539e-001
      7.2712915147724619e-004 -7.0624843632763135e-001
      -4.5405611982314617e-002 1.8681181584514145e-001
      -5.7845418229396695e-001 1.8372266187741856e-001
      -1.1050282252588949e-001 3.9732299128996430e-002
      2.8382918944374524e-001 3.0310850328021902e-002
      -4.4996900128241061e-003 1.0174972400505350e-001
      -3.9357966342863364e-002 -2.7972314487637506e-001
      -1.0514714417561166e-001 -1.9448286622130695e-001
      -1.6830087919633482e-001 -2.3813206528145503e-001
      -5.2318900443134607e-002 -2.0840661515620959e-001
      -6.2157970340965069e-002 2.4089059618816769e-001
      1.4547678807299382e-002 1.5872773496429772e-002
      -2.1150079573994515e-001 -1.2292028598705684e-001
      -3.9012343578613506e-001 -2.7647309784951529e-002
      -2.5203949016529170e-001 2.9264807466879154e-002
      1.6732609692056141e-001 3.2262349335977630e-001
      -8.6372087828661182e-002 -4.9010370715832979e-001
      5.8119066030511035e-001 9.5046702737504762e-002
      -1.8463081004458298e-001 -6.7061513687511939e-002
      2.6046756454890096e-001 -1.7213313959659174e-001
      -1.1243726793388838e-002 1.8686741861228803e-001
      -2.5320159961759803e-001 -1.9772429000801850e-001
      -1.0314467925601320e-001 4.7825317314084054e-001
      1.6264291360438925e-002 -2.0993535023713053e-001
      -1.0673507676660811e-001 3.0076191464961693e-002
      3.3767220224342795e-002 -6.6374574312680623e-002
      -1.5997760417913576e-001 2.0504545736488342e-002
      4.8673607873547945e-003 -3.5785297406396760e-001
      2.6265109294871736e-001 2.2215651744452070e-001
      -1.1896717446499859e-001 -2.5172789468796342e-001
      3.9382237117400809e-001 -2.6902081905435049e-001
      -4.4848345141511356e-002 8.6871859455759537e-002
      -4.5016251700078190e-002 2.0159066404278184e-001
      2.8391367780638677e-001 2.2892736346069964e-001
      -2.0469389129960833e-001 -2.7139341118695891e-002
      -5.7656441492922073e-001 -4.7056458715922916e-001
      1.4373064498407878e-001 1.6006808237004669e-001
      -2.6000843715216015e-001 2.3236774812645680e-001
      2.7952347456558746e-001 2.0174564733009898e-001
      -2.7713120854361777e-002 -2.5613527773640489e-002
      -5.2533711296870178e-001 -1.5135623258150173e+000
      7.5797748020300718e-003 1.7737569477012430e-001
      -1.8580227408466424e-001 1.6768519818338676e-001
      2.3995064206635888e-001 -1.0325498957557680e-001
      -2.9042480114058467e-001 1.3128273321075543e+000
      -1.2597863030714187e-002 -3.1232890655521184e-001
      2.1509333001136213e-001 -1.7698810802581524e-002
      3.4495282494424157e-001 -4.3455758392766353e-001
      -2.4384382589761147e-001 -1.6383428745678493e-002
      -1.3334957004841808e-001 2.2779178697128697e+000
      -6.1124727244134514e-001 -8.7727711406170222e-002
      1.6324776923248829e-001 -2.2154239984901442e-001
      1.2811200931432585e+000 4.1653180196286299e-001
      -7.8648569873232155e-001 -6.8101927353667697e-004
      -6.8723258212913474e-001 1.7693952347562805e-001
      -4.4434380182990768e-001 1.1441783984323949e-001
      3.0999303663417011e-002 -6.8713404622711569e-002
      1.3128295485069999e-001 -3.0498155831985274e-001
      -1.2114895817221215e-001 1.6592260902257447e-001
      -1.6113831647778815e-001 2.3191881190148316e-003
      -2.3341285158756783e-001 7.1550436233976791e-002
      -1.8786822804861009e-001 1.3467015360192211e-001
      6.2457951541726271e-003 -3.9727620450178253e-001
      -1.3362348246979175e-001 1.1653105519699433e-001
      -2.1441964433458827e-001 1.4887979727620149e-001
      2.3422487290880561e-002 -1.9473360479602134e-001
      2.4427864470140819e-002 2.2339457918448533e-001
      5.2030909773257850e-001 8.4216509666126108e-002
      9.7466587444832317e-002 1.6169150832315244e+000
      8.5554348657697291e-003 1.0271232045727239e+000
      -6.4427316649112193e-002 7.6378975382397052e-001
      -2.2499229011469357e-001 2.3163020020087988e-001
      6.6489106538146367e-002 4.6143090218163224e-001
      -5.4776959813430851e-002 1.5779667589001004e-001
      1.3459887268383685e-002 -3.3626741105659594e-002
      5.0722375108012474e-002 -8.7103318390560236e-002
      -2.8011643753273979e-001 2.8205739445491712e-001
      6.5501137377055041e-002 7.8307931054412611e-002
      -1.7006587390367436e-002 -1.0484049259855091e-001
      5.2649247586176992e-002 1.1842389871007762e-001
      2.2506073788402850e-001 -1.9837146182165602e-001
      -2.9806336465048749e-001 -4.0923499987680481e-002
      1.5272852004963441e-002 5.3599058625755695e-002
      -2.3995032228070504e-001 1.6975047588860373e-001
      -4.3788573925291913e-001 2.4631802400023134e-001
      1.3692686293555170e-001 1.4561151579127027e-001
      -1.7443595669689124e-001 9.0190846343261868e-002
      -7.3270463932057578e-002 2.6838531051521199e-002
      -3.3369934834442844e-001 1.9762293966195399e-001
      -6.9634915987823953e-001 4.4003449814605050e-001
      1.9528414331741384e-001 3.4715905305639583e-001
      -2.6385387500322077e-001 -2.9320097276514823e-001
      3.3766133939006443e-001 4.6095257541009009e-002
      -1.0121422778461694e-001 4.4475382553365317e-001
      -2.7025623048815178e-001 4.8774918914141714e-002
      -1.1297229769056621e-001 2.9149980625466326e-001
      -3.0211057992338575e-001 -4.6156957916684382e-001
      -1.1097633028237472e-002 -1.2204242051182773e-001
      -2.3334432075837172e-001 -1.2545865981201454e-001
      -5.1835441655159509e-001 9.0731136503652332e-002
      1.2649524250996980e-001 -5.4168222064005545e-001
      -6.5916317092830065e-002 2.8172971181954143e-001
      1.1320584784483929e-002 3.1274890313145987e-001
      4.0256903542088468e-002 1.0210993056935154e-001
      -2.1546093513535750e-001 -5.2670690783036864e-002
      1.2907865960543263e-001 -2.2711670946664292e-001
      -3.8807997743372319e-001 1.4213054347858856e-001
      -3.0913235846598808e-001 -7.3420127801591267e-002
      3.5358336432547509e-002 1.6898585404358146e-001
      -5.9005317712600402e-001 -2.2365669592129067e-001
      -3.3561922672259592e-001 -1.5844162005993870e-001
      2.8701428973486087e-001 1.5173916790727660e-001
      -3.2986599866275468e-001 -6.8753760802378883e-002
      5.1227020196774289e-002 1.2257178610397242e-001
      -6.7654319906823424e-001 -6.8459739238768871e-002
      -1.0496255924271475e-001 -1.9825280712939911e-001
      -2.5886213484345763e-002 3.0248946689287411e-002
      1.6621987508696462e-001 -4.3626906401230098e-001
      3.0452290710677099e-001 -3.9209616648687540e-001
      2.7049007152769777e-001 6.3655616917742863e-001
      1.1051207571253034e-001 2.5874294563304706e-001
      1.9582168737035643e-001 -3.1167750416566564e-001
      1.6960662518261658e+000 -4.8606205839100441e-002
      4.0170680160818234e-002 -1.2504114446829040e-001
      -1.1532003232294981e+000 2.8623483118113752e-001
      -7.6385969515025876e-001 -3.6326202009863286e-002
      -1.3781580457974407e-001 1.3581318594563260e-001
      1.5850157915705836e+000 -5.0212884900303834e-001
      -1.4537788303291729e-001 2.2413960378518595e-002
      -1.0942784238289196e+000 1.9311015952807750e-001
      -1.0980965227328350e-001 -9.4035429416815128e-002
      -1.0003852241314017e-001 -3.4326312184429086e-001
      1.6401563730009955e-001 -8.3459265051960974e-001
      -1.2119960349656127e-001 -9.5172977409507475e-002
      -6.9924156895776812e-001 1.0104067709938963e-002
      -3.2076455415292204e-001 -5.3843270470868695e-003
      -1.3931718074519439e-001 3.4146642801886583e-002
      -4.2463666078754271e-002 4.6994648061283478e-001
      -7.7949398491861610e-002 2.8392477122100129e-001
      -8.2177157621805164e-002 9.8206691197790227e-002
      4.5565464620704973e-002 -3.2318384704525766e-001
      1.4036095756362527e-001 9.8896097046810599e-002
      -1.1275720687664381e-001 -7.1950639101136027e-002
      2.1720375709985493e-001 7.3675619165540829e-001
      5.0732110589087262e-002 1.7756706474826595e-001
      2.3237217571440430e-001 -2.7391156288914092e-001
      -1.7977830313464280e-001 1.3668984656382063e-001
      2.3597478285610046e-001 1.6032318761447928e-001
      -4.9238548052282866e-002 5.7979622535513704e-002
      -1.5389597206443767e-001 -7.8336904442735222e-002
      8.2284462914764739e-002 -2.2144470502501007e-001
      -1.1483740021597673e-001 7.7194758293160290e-002
      2.5266598968077103e-001 9.8016306172612644e-002
      -1.1305553167008807e-001 1.0197161564196316e-001
      5.6004139948117794e-002 -1.5822086400645755e-001
      1.6867172532026747e-001 -3.4524209450567345e-001
      5.1749160578263481e-002 7.5594669680018642e-002
      1.2280507140860723e-001 -1.7134840765710704e-001
      -2.4332617444166235e-001 5.9705990780149092e-002
      -3.1232901091107107e-001 -4.7720349057078920e-002
      1.8635358282540582e-001 -6.4619897846475260e-002
      7.7798035857059633e-002 1.2207352027397891e-001
      1.1098581645138836e-001 5.8213445258827164e-002
      8.7640018931783581e-003 -6.3080969492735062e-002
      2.3091047772176413e-002 -1.5789276356847837e-001
      7.8938659412311086e-003 5.5627300921122635e-001
      -8.3321491610227380e-002 -3.8895621999628643e-001
      1.7415700378805501e-001 1.1838165235085515e-001
      8.4899717516363149e-001 -1.5225707777089353e-001
      -2.9565363745056011e-001 -4.3427631025099049e-002
      -3.5803533937093729e-001 3.3549703397214059e-001
      -6.8415018052404214e-002 -4.7245727715127506e-001
      -6.8585518056839212e-002 -1.4800861337628723e-001
      9.2195278658485522e-002 -1.3073375459689293e-001
      -1.9989915351792473e-001 -2.5406696513735905e-001
      2.6942996628372351e-002 -1.8384941102450758e-002
      -9.8340460879701441e-002 1.4826226813292936e-001
      3.9205890689993567e-001 -3.1870127081780980e-001
      -5.7067773522276169e-002 2.4946220546245698e-001
      -2.7487986933022313e-001 -1.7644294056565019e-001
      2.1511609544435786e-001 -5.7265278640364881e-001
      -4.6857471192446883e-002 5.2300294812897075e-001
      2.1151685897402715e-002 2.0236879346073916e-001
      1.1357959262086424e-001 5.3052743302397579e-002
      1.2803409300012944e-001 -4.4303726499952033e-002
      -3.6799048503742340e-002 6.7671625286952175e-001
      2.8228872606489158e-001 1.8410231908369201e-001
      -2.4174434464031194e-001 -1.6364002062453131e-001
      5.2911526171314652e-003 6.0259927585430868e-002
      -4.3243874052652231e-001 -5.3041542343904971e-002
      -1.6318368466703589e-002 -1.5512854515166088e-001
      1.6837522667882718e-001 -8.2722639837789297e-002
      -1.1851024276615071e-001 9.5382818630933286e-002
      2.9866777798909083e-001 -1.5468017629868552e-001
      1.6762026198942107e-001 6.3934663708458950e-001
      -4.4047879126768948e-002 1.3918326357358235e-001
      7.2498026654499448e-002 5.4299851458562531e-002
      -3.8249871583008646e-002 -1.3524084919871843e-001
      -3.1751516610020825e-001 -1.2314933647223170e-001
      -1.8377191279563134e+000 5.0284282958972182e-001
      -5.4380382364963353e-001 -1.4358905479680970e-001
      7.1292309448608904e-001 2.2587413431707676e-001
      1.7589208835487780e+000 -5.2074982212143817e-001
      -1.4763357205074393e-001 -1.9296180070610078e-001
      -4.2112106280116984e-001 1.8676078484971614e-001
      -3.2851576848847808e-001 7.2867833034721882e-003
      3.4288997429394889e-002 6.3997276769500955e-002
      1.6992616405075286e-001 -9.4706976815659327e-001
      -2.1295669419021104e-001 -2.0822784978528316e-001
      -2.4818198514453793e-001 3.0427950995936226e-001
      -3.3296189211940691e-001 5.8131372054937361e-002
      2.7920851071089253e-001 -3.3492051086538223e-002
      -4.1625740818765251e-002 -2.4381434696265533e-001
      -4.3374683699674521e-001 3.7625093954950221e-002
      -1.0467724431406548e-001 -2.1288442411981183e-002
      2.6351542247968135e-001 -5.4590335110254407e-001
      3.7359582894228094e-001 5.8914505241089599e-002
      4.4040547746446980e-002 -6.4465814111390560e-002
      1.2418467200519055e-001 1.1136550322993136e-001
      9.5166109389856784e-002 -2.5345546528116580e-001
      2.4154941658531129e-001 -1.8179646273151670e-001
      1.2208847887488565e-001 1.9595403374572984e-001
      1.1808696201150627e-001 1.2385822888145223e-001
      1.2075888396029356e-001 5.6283056849612179e-001
      1.0311345191477340e-001 1.1699812178527169e-002
      -1.1915531637018947e-001 -4.6805946084275385e-001
      5.4856200503619307e-002 1.3570713829510267e-001
      1.1096974875894530e-001 4.2963748763007720e-001
      2.2521424558544861e-001 8.4411948559927796e-001
      -2.4006727456474206e-001 -1.1300228489978249e-001
      -1.4736254648398606e-001 -3.1238749713142816e-001
      1.3717877274049647e-001 1.3486344983484561e-001
      1.0833528089178286e-001 1.3875235473049899e-001
      6.8483199608451395e-002 -7.1846694782286294e-002
      -5.8345801380214724e-002 3.4676678866129219e-002
      -7.2018023997488089e-003 -1.3275064802775619e-001
      8.4360520544350059e-002 1.5166679589726806e-001
      -7.1136112896522760e-002 3.6465482290440571e-001
      2.3458543948951707e-001 -1.6555325395107442e-001
      1.2079621617613744e-001 2.9394054720952500e-001
      1.2470460066530235e-003 3.2868057014870000e-001
      -1.3397922668099452e-001 -4.1216526058153380e-001
      1.1814679993005747e-001 7.7493580859126138e-002
      2.3916473625124532e-001 -7.0407603406732397e-002
      4.9718872122033914e-001 3.3327632654393863e-001
      -3.1627455117438275e-001 5.4862858886185251e-001
      -3.3530494235943836e-001 -5.1165246524591423e-001
      -1.3665921060367192e-001 -1.3322909858446300e-001
      1.0995745903559785e-001 1.2673003402180483e-001
      9.7329825052770075e-002 -2.8123511696838943e-001
      2.9679266714396673e-002 7.6889621429822613e-002
      1.0617620881945451e-001 5.7541506573101482e-002
      3.4709397464461930e-002 -2.5554558191892052e-001
      -1.2803272752833525e-001 -7.6427512906315137e-002
      7.5549630680716309e-002 -3.4453113382494527e-001
      1.4356824439802771e-001 -6.2741114264486042e-001
      3.4201421401689042e-001 2.2318615550330778e-001
      3.9542560912470426e-001 -3.7420495459753061e-001
      1.7484044893056680e-001 -2.5674176905133467e-001
      -1.4552887191208805e+000 1.2374186981799497e-003
      -3.7340491858938180e-001 -7.1186979621174828e-001
      -2.1612699602540536e-001 1.1614857104382460e-001
      -9.8514558272049635e-002 -1.0967577027306374e-001
      3.5713316516365701e-001 -7.0979550536947600e-001
      1.8935563069617828e-001 2.6540263125221477e-002
      1.3404260794118007e-002 -3.1409783708222831e-002
      -3.0814021185951934e-001 -9.1292000934272369e-003
      1.8220421043161832e-002 -7.9531803150227759e-002
      2.9615222905812144e-001 2.0739995828671587e-002
      3.9049109649624105e-003 3.9989923182252241e-001
      9.0962412140229904e-002 -2.6657032664040703e-001
      6.8639747153316444e-002 -1.1837417803973202e-001
      -2.0928610124851699e+000 4.0498635438594127e-001
      -2.3550745934340880e-001 1.4120357352216062e-001
      1.4827319743723120e+000 -1.2533914010946507e+000
      4.9565199401968735e-001 1.1028115152152214e+000
      -6.6093186855966957e-001 7.0704086697742996e-001</_>
    <_>
      2.6720369557101491e+000 -2.6385445269210406e-001
      2.5896313036974177e+000 -2.3156944954268749e-001
      -1.1627738787591215e+000 5.0578962940364602e-001
      -9.4457145503851536e-002 5.3290986958737185e-001
      -1.4130100778201895e+000 4.4473572238920651e+000
      2.3066692927428343e+000 1.3672564466340298e-001
      1.5526488795625044e+000 1.5206175454319648e-002
      -4.1357191605613319e-001 -4.7306628676445178e-001
      2.6299340325623035e+000 3.7237647783288713e-001
      -1.7695728763458629e+000 -9.2092035663951199e-001
      -1.5928696489702421e+000 -2.2897843688732680e-001
      -1.6685503352614937e+000 -1.3662901398571299e+000
      -6.5598037932100162e-001 1.4818403050520419e+000
      -3.8796159582502138e-001 2.0137220010948145e+000
      2.1467404201988565e+000 -7.0840267495130582e-001
      -1.3221826895492850e-001 5.7701543129381794e-001
      -1.1066794848298280e+000 -2.4498236167328225e+000
      -3.1272287185510854e+000 4.2495237496742322e-001
      2.1629302254877119e+000 1.9391836899290762e+000
      -1.9895474896630558e+000 1.1582850086045116e+000
      -9.5567347574364636e-001 -6.2611213063515825e-001
      -1.9222640145618366e+000 4.0044863020012778e-001
      -1.8275874687801745e+000 -1.3779422744112781e+000
      1.8555803968878302e+000 6.8112079421419447e-001
      1.0810257937473589e+000 -2.3531936682547983e-001
      1.9769786972979786e+000 2.2168736642369575e+000
      1.2029729385193582e+000 6.5262016166827352e-001
      -1.5955890697205699e+000 9.2696004534100296e-001
      -1.4277709640159943e+000 -1.2295957019261550e+000
      1.0875010222737977e+000 1.1952911519499967e+000
      1.1757170606547680e+000 -1.7071001331980493e+000
      1.7941426740712774e+000 -3.1451855462745963e+000
      1.4142234150097379e+000 9.8669119061556509e-001
      6.1628045547836452e-001 2.1540436248786574e+000
      1.2554631885717674e-001 3.3444956263992115e-001
      1.1230645086124746e+000 5.6930902910910922e-002
      8.8226628213983041e-002 8.6843116835452694e-001
      3.2215792403464092e+000 -5.9890911999328757e-002
      -3.2839671312807356e-001 2.9373687750445604e-001
      4.2300889558022137e-001 -7.4304545319686832e-001
      1.3743117042504074e+000 -3.5279685888276513e-001
      -4.5837415324597230e-001 -4.9521033360148603e-001
      1.1200336441215676e-001 4.1299298105967081e-001
      2.0157946954868114e-001 -3.9431836463833014e-001
      -7.5411583712821884e-001 7.2704932242754172e-001
      -5.9235313955702373e-001 6.3783941450797521e-002
      4.0135197979814657e-004 2.9354383728641631e-001
      5.4004299967392078e-001 -1.4567645459480385e-002
      -1.2883587050870754e-001 -5.6732228871680779e-001
      2.6399296936212231e+000 -3.5315708428758608e-001
      8.8847499638114991e-001 -1.5625346367361331e-001
      9.0289694931257891e-001 -2.7909266407001700e+000
      7.5627043867957677e-001 6.8055324920554994e-001
      2.8312424033395951e+000 8.4991391777046510e-001
      -6.5447446901836814e-001 -1.8442357589387164e+000
      -4.3120778753576255e-001 -4.1349182294468451e-001
      6.1066928186083758e-001 9.0327978265684750e-001
      -1.8343771555124027e+000 1.5952636955259061e+000
      1.0342418653916376e+000 -8.2192222210689081e-001
      5.7583185476287324e-001 3.9362511781734566e-001
      4.2562857098389334e-001 -3.6135292924923448e+000
      5.0794672693030773e-001 -4.2045753377176336e+000
      -2.4425031034425952e+000 6.0834685387595933e-001
      9.0239819193893134e-001 -1.6945475319123831e+000
      4.7653105151539765e-001 6.9280191027814075e-001
      -2.1471846054619963e+000 2.3042819022062968e+000
      1.2640260938467183e+000 1.5398544966317544e+000
      2.6892843835131344e+000 4.8760511589592587e-001
      -9.4881056926245405e-002 5.6465760906850682e-001
      3.5778060067205414e-001 4.1292255172161152e-001
      -1.2994227232794828e+000 -6.0186385070937674e-002
      8.8411514901020269e-002 -1.9160398244218739e+000
      -5.7656945548366034e-001 -5.2008262994968002e-001
      1.2537195112976289e+000 5.1202020943210602e-001
      5.6065955032160864e-001 -5.0054162397392767e+000
      3.2776281912269098e-002 -3.5069407261413508e+000
      6.8342707843114681e-001 -5.5871136572738699e-002
      -1.4523301405854003e+000 -6.2090232357737274e-001
      2.9573375892631082e-001 2.5537019977970871e-001
      6.6215473835674987e-001 2.0362802069577166e-001
      -5.1112255936478479e-001 7.5528321755379035e-001
      -3.1049777816239024e+000 7.8181219462402207e-001
      -7.3892308880115887e-001 -1.6113489662638369e-001
      1.0797595299143237e+000 5.7048629794005357e-001
      7.5830813765610450e-001 1.0056644684103169e+000
      -3.6260838053673358e-003 -2.1981636619350389e+000
      4.0612890907714577e-001 1.9681881409050828e+000
      -1.0582808274448074e+000 5.9319611050000076e-001
      -1.5777045850082736e+000 -3.3762603901862676e-001
      4.5684288798955835e-001 1.2650857274506669e-001
      3.2851790130020658e-001 1.1750604345042761e+000
      5.8350079599013438e-001 5.1847160910851442e-001
      1.1062564238769581e+000 5.1580185383210631e-001
      7.8796800230666497e-001 2.4185319167952743e-001
      4.4850352781691377e-001 4.0619110716441231e-001
      6.6352797679272754e-002 3.9254595534034592e-001
      4.3603020631970890e-001 3.6764854758866711e-001
      8.3293562586637782e-002 1.0353098068835427e+000
      1.7546546702963635e+000 -3.6155027910305526e-001
      -5.8329516449496510e-001 7.5484680414411964e-001
      -2.0791876252903956e+000 2.5564299032645799e-001
      4.8309092145265314e-001 -1.7258007181638793e-001
      4.2776685967156443e+000 9.3132912208879637e-001
      -1.1681278644857278e+000 1.3580586214731347e+000
      -1.7048429858049612e+000 1.5122987053736747e+000
      4.5438559389165406e-001 -1.4620083927443854e+000
      2.0032328866981626e+000 -2.5788087204044307e-002
      -1.4407134060779734e+000 2.3226474290268166e+000
      -1.2304951895525837e+000 -4.5662284845322315e-001
      1.5127970600648208e+000 7.2873817644837369e-001
      -1.3419204048024054e+000 -3.5943953694663109e+000
      -1.1242841265481458e+000 7.0669482751376733e-001
      -3.5418905094278372e+000 -3.3179867647906747e+000
      -9.3403565756293838e-001 -7.6935319277625469e-001
      -7.5374282796660763e-001 2.2467731458682327e+000
      -5.2645419663008253e-001 -2.4674009664081860e+000
      6.5823840952334611e-001 1.0426706234723637e+000
      -6.5042843310122955e-001 -3.6260505921788089e-001
      1.1935316260265347e+000 -4.4190522421741485e-001
      5.3863296574872910e-001 -1.6549275256289768e+000
      3.8664375482994184e-001 -2.9347983723842312e+000
      1.1134747990396709e+000 -2.0026233893393716e-001
      3.8940139473283353e-001 1.6741490548625353e+000
      2.4189208607482620e+000 -4.5278628986416933e+000
      9.3295266316726633e-002 -8.5857777887349918e-001
      8.7981628932011124e-001 6.3925648108319855e-001
      1.6476657655988949e+000 5.5490793272319061e-001
      -2.9053259828031770e+000 3.3651958827319223e-001
      -2.5733103634848371e+000 1.3875978281308903e+000
      -2.3689747462691924e+000 -1.7548531716495710e+000
      7.2625890507524027e-001 8.6512775750894144e-001
      1.5187309678673035e+000 2.3367115024145743e-001
      2.9243178264406513e+000 1.5277107672250501e-001
      5.5579625083275970e-002 -2.2317694053506067e+000
      1.4374411151176825e-001 6.0416104948838634e-001
      7.6253089865907064e-002 1.7041912261262349e+000
      -4.4722595390436137e-001 -8.5652195841558421e-001
      -2.0575971481218671e+000 -6.2780543422338397e-001
      3.2323296068522711e+000 1.1185513809990897e+000
      1.0530200049965586e+000 -1.7180769741619561e+000
      -8.1542464179907836e-001 -4.2476405112802169e+000
      1.3817393850935569e+000 3.4960492510804784e+000
      2.2478886261451860e+000 -6.1467405298262978e-001
      -7.7550764384235915e-001 2.4229059508063897e+000
      4.3550701031269644e-002 -5.0140263241646177e-001
      1.2817859594941028e+000 -2.6238125966935666e+000
      -1.1704480358572817e+000 -3.5119181739971583e-001
      1.9430589719424387e+000 -9.4562071539194448e-001
      -1.2743462815058393e+000 -3.6784917309926984e-001
      2.4762013871357942e+000 -2.1359093168631906e+000
