<?xml version="1.0"?>
<opencv_storage>
<my_svm type_id="opencv-ml-svm">
  <svm_type>C_SVC</svm_type>
  <kernel><type>RBF</type>
    <gamma>8.9999999999999997e-002</gamma></kernel>
  <C>10.</C>
  <term_criteria><epsilon>2.2204460492503131e-016</epsilon>
    <iterations>100</iterations></term_criteria>
  <var_all>440</var_all>
  <var_count>440</var_count>
  <class_count>6</class_count>
  <class_labels type_id="opencv-matrix">
    <rows>1</rows>
    <cols>6</cols>
    <dt>i</dt>
    <data>
      2 3 4 5 6 7</data></class_labels>
  <sv_total>7</sv_total>
  <support_vectors>
    <_>
      4.21052635e-001 4.73684222e-001 2.63157904e-001 4.73684222e-001
      6.84210539e-001 1. 8.94736826e-001 1. 1. 1. 1. 1. 7.36842096e-001
      8.94736826e-001 9.47368443e-001 7.36842096e-001 1.05263159e-001
      1.05263159e-001 1.05263159e-001 1.57894731e-001 6.47058845e-001
      3.52941185e-001 8.23529422e-001 7.64705896e-001 5.29411793e-001
      7.64705896e-001 7.05882370e-001 7.64705896e-001 7.05882370e-001
      7.64705896e-001 7.64705896e-001 7.05882370e-001 6.47058845e-001
      5.88235319e-001 7.05882370e-001 7.64705896e-001 8.82352948e-001
      8.82352948e-001 1. 7.64705896e-001 2. 0. 2. 1. 0. 2. 0. 2. 1. 12.
      11. 1. 0. 1. 4. 0. 0. 0. 0. 0. 0. 0. 0. 1. 0. 0. 0. 0. 95. 155.
      156. 13. 0. 0. 0. 4. 0. 0. 0. 0. 0. 1. 0. 3. 21. 160. 161. 158.
      255. 252. 255. 169. 157. 161. 160. 155. 0. 0. 0. 0. 0. 3. 0. 0.
      224. 255. 254. 254. 255. 255. 255. 255. 255. 255. 254. 255. 0. 0.
      0. 0. 2. 0. 0. 5. 0. 2. 0. 2. 27. 226. 82. 0. 0. 81. 87. 0. 0. 0.
      0. 0. 0. 3. 2. 0. 0. 34. 101. 93. 98. 93. 98. 94. 98. 93. 35. 1.
      0. 0. 0. 0. 0. 0. 0. 3. 1. 96. 255. 254. 253. 255. 254. 255. 255.
      255. 98. 0. 0. 0. 0. 0. 1. 1. 0. 0. 1. 93. 255. 255. 255. 255.
      255. 251. 255. 253. 95. 0. 0. 0. 0. 0. 0. 1. 0. 0. 5. 113. 255.
      228. 196. 0. 2. 1. 228. 254. 92. 2. 0. 0. 0. 0. 1. 0. 4. 1. 31.
      255. 253. 115. 0. 2. 0. 1. 113. 253. 159. 11. 0. 0. 0. 0. 0. 4. 0.
      0. 39. 255. 255. 253. 159. 98. 102. 159. 255. 255. 255. 30. 0. 0.
      0. 0. 0. 0. 0. 2. 0. 115. 252. 255. 254. 244. 245. 251. 255. 255.
      110. 5. 0. 0. 0. 0. 0. 0. 2. 0. 0. 87. 226. 221. 254. 254. 254.
      254. 226. 222. 86. 0. 0. 0. 0. 0. 1. 0. 0. 1. 0. 35. 95. 10. 172.
      255. 255. 172. 0. 0. 0. 2. 0. 0. 0. 0. 0. 1. 0. 0. 2. 96. 255. 34.
      30. 255. 255. 28. 161. 161. 62. 0. 0. 0. 0. 0. 0. 1. 0. 0. 1. 94.
      255. 226. 34. 254. 255. 34. 255. 254. 234. 29. 0. 0. 0. 0. 1. 0.
      1. 0. 5. 113. 255. 31. 30. 255. 254. 31. 31. 234. 255. 255. 0. 2.
      0. 0. 2. 0. 0. 0. 33. 255. 253. 33. 36. 249. 255. 30. 0. 63. 216.
      254. 85. 0. 1. 1. 0. 5. 0. 1. 33. 255. 255. 31. 31. 255. 255. 35.
      1. 0. 161. 255. 86. 1. 1. 2. 4. 0. 0. 0. 3. 31. 34. 4. 225. 255.
      251. 30. 0. 3. 21. 227. 0. 0. 0. 1.</_>
    <_>
      3.49999994e-001 4.50000018e-001 3.49999994e-001 5.50000012e-001
      5.00000000e-001 7.50000000e-001 8.00000012e-001 1. 1.
      9.00000036e-001 9.49999988e-001 9.00000036e-001 9.00000036e-001
      9.00000036e-001 9.49999988e-001 8.00000012e-001 4.50000018e-001
      2.00000003e-001 5.00000007e-002 4.00000006e-001 6.47058845e-001
      8.82352948e-001 1. 9.41176474e-001 6.47058845e-001 8.23529422e-001
      8.23529422e-001 8.23529422e-001 5.88235319e-001 8.23529422e-001
      7.05882370e-001 7.64705896e-001 4.70588237e-001 7.05882370e-001
      7.05882370e-001 7.64705896e-001 8.23529422e-001 1. 8.82352948e-001
      6.47058845e-001 0. 1. 1. 0. 1. 1. 0. 13. 36. 39. 255. 156. 11. 0.
      2. 0. 0. 0. 0. 0. 3. 0. 0. 1. 0. 78. 115. 148. 255. 255. 254. 254.
      149. 116. 113. 116. 6. 1. 0. 0. 0. 1. 0. 1. 1. 165. 255. 255. 253.
      255. 255. 255. 255. 255. 253. 255. 12. 3. 0. 1. 0. 1. 2. 0. 0. 1.
      230. 255. 255. 255. 251. 248. 255. 255. 250. 242. 10. 2. 0. 1. 3.
      0. 0. 1. 0. 0. 0. 255. 254. 254. 229. 165. 255. 165. 111. 0. 3. 0.
      0. 0. 0. 0. 5. 1. 1. 1. 159. 253. 255. 253. 255. 255. 249. 169.
      107. 4. 0. 0. 0. 0. 1. 0. 0. 0. 0. 159. 255. 254. 254. 255. 253.
      252. 255. 254. 252. 82. 0. 0. 1. 1. 0. 2. 0. 1. 0. 166. 255. 239.
      87. 0. 1. 86. 237. 255. 252. 91. 1. 0. 0. 1. 2. 0. 0. 2. 0. 168.
      255. 225. 62. 0. 0. 0. 192. 254. 255. 90. 0. 0. 0. 0. 0. 2. 0. 2.
      2. 163. 255. 255. 235. 31. 2. 98. 245. 255. 254. 89. 0. 0. 0. 0.
      0. 1. 0. 0. 2. 0. 245. 255. 254. 255. 255. 251. 253. 255. 240. 77.
      0. 0. 0. 0. 2. 0. 2. 1. 0. 3. 131. 255. 255. 252. 251. 255. 255.
      249. 94. 0. 0. 0. 0. 0. 0. 0. 0. 0. 0. 0. 0. 62. 64. 225. 255.
      253. 111. 60. 0. 1. 0. 0. 0. 0. 0. 0. 4. 0. 0. 1. 244. 195. 6.
      218. 255. 253. 72. 13. 14. 6. 0. 0. 0. 0. 2. 0. 0. 2. 0. 0. 238.
      254. 116. 215. 253. 255. 188. 255. 255. 88. 0. 0. 0. 0. 0. 2. 2.
      0. 1. 0. 243. 255. 114. 218. 255. 180. 22. 98. 254. 90. 0. 0. 0.
      0. 0. 0. 2. 0. 85. 243. 251. 255. 250. 252. 253. 142. 0. 16. 255.
      245. 13. 0. 0. 2. 1. 1. 0. 3. 88. 255. 196. 14. 165. 255. 253.
      141. 0. 11. 255. 255. 11. 1. 0. 2. 0. 3. 0. 0. 41. 113. 6. 65.
      255. 255. 234. 62. 1. 8. 110. 116. 7. 0. 0. 1. 0. 0. 0. 5. 1. 2.
      0. 12. 156. 254. 35. 0. 1. 0. 2. 0. 2. 0. 0. 1.</_>
    <_>
      2.50000000e-001 3.00000012e-001 4.00000006e-001 4.00000006e-001
      9.00000036e-001 8.50000024e-001 1. 8.50000024e-001 9.49999988e-001
      1. 9.49999988e-001 9.49999988e-001 8.00000012e-001 8.50000024e-001
      8.50000024e-001 8.00000012e-001 8.00000012e-001 6.00000024e-001
      4.50000018e-001 5.00000000e-001 8.42105269e-001 7.36842096e-001
      6.31578922e-001 6.84210539e-001 6.84210539e-001 6.31578922e-001 1.
      7.89473712e-001 7.36842096e-001 6.84210539e-001 6.84210539e-001
      8.42105269e-001 7.89473712e-001 8.94736826e-001 6.31578922e-001
      5.26315808e-001 8.94736826e-001 8.42105269e-001 8.94736826e-001
      7.89473712e-001 0. 0. 0. 1. 255. 255. 252. 255. 255. 254. 255.
      254. 255. 253. 255. 254. 223. 1. 3. 0. 0. 0. 0. 2. 250. 255. 255.
      168. 158. 199. 194. 159. 161. 194. 255. 255. 222. 0. 0. 0. 0. 0.
      2. 0. 255. 254. 157. 12. 0. 93. 98. 0. 0. 35. 195. 255. 225. 0. 6.
      0. 0. 1. 0. 0. 255. 254. 94. 1. 28. 236. 92. 3. 0. 2. 18. 30. 28.
      0. 0. 0. 1. 0. 2. 0. 0. 1. 1. 27. 255. 255. 254. 31. 0. 0. 5. 0.
      0. 3. 1. 2. 0. 0. 0. 0. 3. 1. 58. 235. 252. 254. 255. 32. 2. 1. 0.
      0. 1. 0. 0. 2. 0. 2. 1. 2. 15. 157. 221. 255. 255. 255. 254. 172.
      159. 160. 154. 162. 160. 101. 3. 1. 0. 2. 0. 0. 36. 253. 255. 255.
      255. 254. 255. 255. 251. 255. 255. 252. 254. 161. 0. 0. 0. 0. 0.
      0. 34. 255. 254. 255. 253. 244. 223. 223. 222. 225. 224. 222. 196.
      2. 0. 0. 0. 6. 0. 1. 20. 160. 220. 251. 159. 103. 0. 1. 1. 0. 0.
      1. 0. 0. 1. 1. 1. 0. 0. 4. 15. 160. 219. 255. 160. 156. 162. 19.
      0. 0. 2. 0. 1. 0. 2. 0. 0. 3. 0. 0. 228. 254. 255. 251. 254. 255.
      250. 230. 222. 221. 224. 223. 193. 3. 0. 3. 0. 0. 1. 0. 226. 255.
      251. 255. 255. 255. 254. 254. 255. 255. 253. 255. 255. 160. 0. 0.
      2. 0. 1. 0. 19. 158. 158. 160. 171. 254. 255. 253. 251. 220. 159.
      159. 158. 99. 2. 0. 0. 0. 0. 2. 1. 0. 1. 0. 9. 158. 255. 118. 95.
      63. 0. 1. 0. 2. 0. 3. 1. 0. 0. 0. 0. 0. 1. 0. 29. 235. 254. 227.
      225. 137. 2. 0. 0. 0. 0. 1. 2. 0. 1. 0. 32. 252. 255. 255. 255.
      255. 254. 254. 254. 255. 255. 254. 229. 18. 3. 0. 0. 0. 1. 0. 34.
      255. 255. 252. 254. 255. 255. 255. 255. 250. 254. 255. 243. 100.
      0. 1. 0. 1. 1. 1. 9. 97. 96. 97. 114. 251. 255. 254. 254. 255.
      157. 94. 84. 0. 0. 2. 0. 0. 0. 1. 3. 0. 4. 0. 5. 120. 254. 253.
      224. 37. 7. 3. 1. 1. 1. 1.</_>
    <_>
      3.00000012e-001 4.00000006e-001 4.50000018e-001 9.49999988e-001
      9.49999988e-001 1. 8.50000024e-001 9.00000036e-001 9.49999988e-001
      9.49999988e-001 8.50000024e-001 9.49999988e-001 1. 1. 1.
      8.50000024e-001 0. 0. 0. 0. 6.25000000e-001 6.25000000e-001
      9.37500000e-001 8.75000000e-001 1. 9.37500000e-001 9.37500000e-001
      8.75000000e-001 8.12500000e-001 8.12500000e-001 8.12500000e-001
      8.12500000e-001 8.12500000e-001 8.12500000e-001 8.12500000e-001
      8.12500000e-001 1. 9.37500000e-001 7.50000000e-001 6.87500000e-001
      1. 1. 0. 0. 3. 1. 0. 3. 1. 0. 2. 0. 33. 34. 12. 0. 0. 0. 0. 0. 0.
      0. 1. 3. 0. 2. 0. 0. 94. 62. 0. 4. 252. 253. 96. 2. 0. 0. 0. 0. 2.
      0. 2. 135. 161. 160. 160. 158. 255. 220. 59. 140. 255. 255. 194.
      20. 0. 0. 0. 0. 0. 2. 0. 225. 255. 251. 255. 253. 255. 254. 97.
      220. 255. 252. 255. 33. 0. 0. 0. 0. 1. 2. 2. 222. 251. 253. 94.
      224. 255. 255. 93. 226. 255. 254. 255. 29. 0. 0. 0. 0. 1. 0. 2.
      221. 255. 255. 96. 224. 255. 250. 98. 223. 255. 252. 254. 34. 0.
      0. 0. 0. 0. 2. 1. 221. 255. 254. 96. 222. 253. 255. 96. 222. 254.
      255. 255. 30. 0. 0. 0. 0. 1. 0. 0. 224. 255. 254. 95. 225. 255.
      255. 96. 222. 255. 252. 255. 33. 0. 0. 0. 0. 0. 0. 0. 223. 255.
      255. 96. 223. 255. 255. 96. 223. 255. 255. 254. 33. 0. 0. 0. 0. 0.
      0. 0. 223. 255. 255. 96. 223. 255. 255. 96. 223. 255. 255. 254.
      33. 0. 0. 0. 0. 0. 0. 0. 223. 255. 255. 96. 223. 255. 255. 96.
      223. 255. 255. 254. 33. 0. 0. 0. 0. 0. 0. 0. 223. 255. 255. 96.
      223. 255. 255. 96. 223. 255. 255. 254. 33. 0. 0. 0. 0. 0. 0. 0.
      223. 255. 255. 96. 223. 255. 255. 96. 223. 255. 255. 254. 33. 0.
      0. 0. 0. 0. 0. 0. 223. 255. 255. 96. 223. 255. 255. 96. 223. 255.
      255. 254. 33. 0. 0. 0. 0. 0. 0. 0. 223. 255. 255. 96. 223. 255.
      255. 96. 223. 255. 255. 254. 33. 0. 0. 0. 0. 0. 0. 0. 223. 255.
      255. 96. 223. 255. 255. 96. 223. 255. 255. 254. 33. 0. 0. 0. 0. 1.
      94. 255. 255. 255. 255. 95. 223. 255. 252. 97. 223. 253. 255. 236.
      27. 0. 0. 0. 0. 0. 95. 254. 254. 255. 218. 62. 139. 251. 221. 60.
      222. 254. 255. 96. 2. 0. 0. 0. 0. 0. 98. 255. 254. 236. 60. 0. 1.
      99. 57. 0. 224. 255. 255. 94. 0. 0. 0. 0. 0. 0. 93. 254. 60. 28.
      1. 2. 0. 0. 3. 0. 28. 255. 254. 95. 0. 0. 0. 0. 0.</_>
    <_>
      2.50000000e-001 4.00000006e-001 4.50000018e-001 3.00000012e-001
      6.50000036e-001 1. 1. 1. 1. 1. 1. 1. 1. 1. 9.49999988e-001
      4.00000006e-001 0. 0. 0. 0. 8.00000072e-001 8.00000072e-001
      6.66666687e-001 8.00000072e-001 8.66666734e-001 8.00000072e-001
      8.66666734e-001 1. 8.66666734e-001 8.66666734e-001 8.00000072e-001
      8.00000072e-001 8.66666734e-001 9.33333397e-001 8.00000072e-001
      8.66666734e-001 8.66666734e-001 8.00000072e-001 7.33333349e-001
      7.33333349e-001 0. 0. 2. 0. 1. 11. 171. 254. 254. 255. 255. 255.
      255. 255. 96. 0. 0. 0. 0. 0. 1. 0. 0. 1. 0. 59. 219. 255. 255.
      255. 251. 255. 253. 218. 60. 0. 0. 0. 0. 0. 0. 3. 0. 0. 0. 3. 58.
      237. 254. 255. 255. 255. 236. 61. 0. 0. 0. 0. 0. 0. 0. 0. 1. 0.
      28. 220. 226. 249. 253. 255. 255. 254. 249. 221. 84. 0. 0. 0. 0.
      0. 0. 1. 0. 0. 33. 255. 254. 255. 255. 251. 255. 255. 255. 255.
      234. 29. 0. 0. 0. 0. 0. 2. 0. 0. 34. 255. 252. 255. 254. 255. 254.
      255. 252. 255. 91. 0. 0. 0. 0. 0. 0. 0. 2. 0. 172. 255. 253. 254.
      255. 252. 252. 255. 255. 250. 200. 20. 0. 0. 0. 0. 1. 0. 1. 1.
      254. 253. 255. 254. 254. 255. 255. 251. 255. 255. 253. 227. 0. 0.
      0. 0. 0. 3. 0. 0. 24. 225. 244. 254. 254. 253. 255. 253. 255. 244.
      221. 28. 0. 0. 0. 0. 0. 0. 2. 3. 3. 35. 193. 255. 254. 255. 251.
      255. 254. 156. 4. 0. 0. 0. 0. 0. 1. 2. 0. 0. 0. 96. 255. 253. 255.
      254. 255. 255. 254. 220. 61. 0. 0. 0. 0. 0. 0. 1. 0. 0. 0. 97.
      255. 255. 228. 32. 170. 255. 255. 253. 96. 1. 0. 0. 0. 0. 3. 0. 4.
      0. 33. 254. 255. 254. 224. 33. 30. 230. 251. 255. 96. 0. 0. 0. 0.
      0. 0. 2. 0. 3. 18. 194. 254. 255. 255. 255. 255. 249. 255. 254.
      95. 1. 0. 0. 0. 0. 0. 0. 2. 0. 2. 98. 252. 255. 255. 253. 253.
      255. 255. 255. 96. 0. 0. 0. 0. 0. 0. 0. 0. 2. 24. 235. 255. 252.
      31. 34. 33. 225. 254. 255. 94. 1. 0. 0. 0. 0. 2. 0. 2. 0. 27. 234.
      253. 255. 33. 28. 32. 228. 255. 255. 94. 0. 0. 0. 0. 0. 0. 4. 0.
      2. 0. 98. 255. 254. 254. 255. 255. 255. 253. 253. 99. 0. 0. 0. 0.
      0. 0. 0. 0. 0. 0. 97. 255. 255. 254. 255. 253. 253. 255. 255. 94.
      2. 0. 0. 0. 0. 0. 0. 2. 0. 0. 12. 31. 32. 33. 34. 33. 31. 34. 34.
      11. 0. 0. 0. 0. 0.</_>
    <_>
      4.00000006e-001 4.00000006e-001 4.50000018e-001 4.00000006e-001
      3.00000012e-001 8.00000012e-001 9.49999988e-001 9.49999988e-001
      9.00000036e-001 9.49999988e-001 1. 1. 1. 1. 9.49999988e-001
      4.00000006e-001 0. 0. 0. 0. 7.85714328e-001 1. 8.57142925e-001
      9.28571463e-001 8.57142925e-001 9.28571463e-001 8.57142925e-001
      7.85714328e-001 8.57142925e-001 9.28571463e-001 9.28571463e-001
      9.28571463e-001 1. 7.85714328e-001 9.28571463e-001 7.85714328e-001
      7.85714328e-001 6.42857194e-001 7.14285731e-001 6.42857194e-001 0.
      1. 0. 0. 0. 25. 245. 255. 254. 255. 223. 37. 39. 38. 27. 0. 0. 0.
      0. 0. 4. 0. 1. 2. 0. 168. 255. 252. 255. 254. 255. 254. 254. 255.
      206. 40. 0. 0. 0. 0. 0. 0. 1. 0. 0. 162. 255. 255. 255. 255. 255.
      255. 255. 255. 253. 90. 0. 0. 0. 0. 4. 0. 0. 2. 2. 167. 252. 254.
      250. 255. 252. 251. 255. 255. 167. 0. 0. 0. 0. 0. 0. 0. 1. 0. 0.
      167. 254. 254. 255. 255. 255. 255. 255. 252. 166. 1. 0. 0. 0. 0.
      1. 1. 1. 0. 0. 167. 254. 255. 255. 251. 251. 255. 253. 254. 170.
      0. 0. 0. 0. 0. 0. 1. 0. 0. 2. 166. 255. 252. 255. 255. 255. 253.
      255. 255. 167. 0. 0. 0. 0. 0. 0. 0. 0. 3. 0. 168. 253. 255. 254.
      254. 255. 254. 255. 252. 166. 0. 0. 0. 0. 0. 0. 0. 1. 0. 0. 167.
      255. 255. 255. 251. 236. 178. 255. 254. 164. 1. 0. 0. 0. 0. 2. 3.
      0. 0. 2. 167. 254. 255. 254. 255. 31. 114. 255. 252. 170. 0. 0. 0.
      0. 0. 0. 0. 1. 3. 0. 166. 255. 255. 253. 255. 255. 253. 253. 255.
      165. 1. 0. 0. 0. 0. 1. 0. 5. 0. 0. 166. 255. 254. 255. 254. 251.
      255. 255. 252. 208. 39. 0. 0. 0. 0. 2. 0. 0. 3. 2. 166. 254. 255.
      254. 255. 255. 255. 255. 255. 250. 90. 0. 0. 0. 0. 0. 0. 2. 0. 0.
      167. 252. 254. 255. 253. 255. 255. 253. 255. 170. 0. 0. 0. 0. 0.
      2. 1. 0. 0. 2. 106. 250. 255. 255. 252. 255. 255. 253. 250. 168.
      0. 0. 0. 0. 0. 0. 1. 0. 3. 0. 0. 87. 254. 255. 254. 255. 254. 254.
      255. 164. 0. 0. 0. 0. 0. 1. 0. 0. 2. 0. 0. 1. 255. 255. 253. 255.
      254. 255. 255. 166. 0. 0. 0. 0. 0. 0. 3. 1. 0. 0. 0. 1. 1. 0. 0.
      255. 255. 251. 242. 1. 0. 0. 0. 0. 0. 0. 2. 0. 0. 4. 0. 0. 0. 2.
      119. 252. 255. 255. 240. 2. 1. 0. 0. 0. 0. 0. 0. 0. 1. 0. 2. 1. 1.
      0. 35. 255. 255. 254. 40. 0. 0. 0. 0. 0. 0.</_>
    <_>
      4.73684222e-001 3.68421048e-001 4.21052635e-001 6.31578922e-001
      7.36842096e-001 8.42105269e-001 8.94736826e-001 7.36842096e-001 1.
      8.42105269e-001 7.36842096e-001 8.42105269e-001 7.89473712e-001 1.
      8.94736826e-001 6.31578922e-001 4.73684222e-001 4.73684222e-001
      3.68421048e-001 2.63157904e-001 7.64705896e-001 7.64705896e-001 1.
      1. 8.82352948e-001 7.05882370e-001 5.88235319e-001 5.29411793e-001
      8.82352948e-001 9.41176474e-001 7.64705896e-001 7.05882370e-001
      8.23529422e-001 7.05882370e-001 8.82352948e-001 7.05882370e-001
      5.88235319e-001 4.70588237e-001 7.05882370e-001 5.88235319e-001 2.
      0. 1. 1. 0. 10. 175. 254. 31. 1. 0. 3. 50. 173. 12. 0. 0. 0. 2. 0.
      0. 0. 0. 0. 0. 171. 255. 255. 152. 3. 0. 90. 255. 253. 49. 4. 3.
      1. 0. 1. 1. 0. 4. 255. 255. 255. 253. 255. 253. 253. 255. 255.
      255. 255. 255. 254. 253. 0. 5. 0. 0. 3. 0. 154. 149. 255. 255.
      255. 255. 174. 175. 254. 253. 255. 255. 153. 154. 150. 2. 0. 1. 0.
      0. 1. 2. 94. 253. 255. 172. 10. 7. 50. 255. 254. 91. 0. 0. 0. 1.
      2. 1. 0. 0. 0. 1. 0. 0. 1. 172. 53. 1. 1. 1. 120. 0. 3. 0. 1. 1.
      0. 0. 2. 0. 0. 1. 1. 0. 0. 163. 255. 119. 1. 0. 4. 0. 0. 0. 4. 0.
      1. 1. 0. 0. 1. 0. 0. 3. 0. 102. 255. 203. 1. 0. 0. 2. 1. 0. 0. 0.
      0. 1. 0. 1. 42. 224. 253. 255. 254. 255. 254. 255. 255. 252. 195.
      104. 0. 1. 0. 0. 0. 0. 2. 0. 20. 52. 92. 255. 255. 255. 253. 255.
      251. 254. 255. 92. 2. 0. 1. 0. 3. 0. 3. 3. 0. 3. 0. 1. 0. 100.
      255. 165. 1. 3. 254. 91. 40. 0. 1. 0. 0. 3. 0. 0. 0. 0. 34. 152.
      2. 103. 254. 0. 2. 0. 252. 255. 237. 64. 0. 1. 0. 0. 1. 1. 1. 205.
      206. 1. 0. 103. 254. 2. 0. 0. 255. 255. 255. 251. 2. 0. 0. 0. 0.
      0. 103. 255. 120. 0. 255. 251. 54. 0. 0. 1. 252. 255. 253. 255.
      255. 0. 0. 4. 0. 5. 101. 254. 0. 3. 253. 255. 48. 0. 3. 0. 255.
      92. 51. 174. 255. 0. 6. 0. 1. 0. 1. 0. 11. 50. 255. 152. 0. 3. 0.
      1. 255. 51. 0. 1. 0. 2. 0. 0. 2. 0. 0. 0. 51. 255. 254. 60. 0. 2.
      3. 149. 255. 51. 0. 0. 0. 0. 0. 0. 0. 0. 1. 2. 250. 255. 0. 3. 0.
      0. 0. 255. 254. 51. 0. 0. 0. 0. 0. 3. 0. 1. 0. 202. 255. 196. 0.
      0. 4. 21. 192. 255. 215. 32. 1. 0. 0. 0. 0. 0. 0. 2. 0. 42. 48.
      20. 1. 1. 0. 48. 255. 254. 29. 0. 0. 0. 0. 0. 0.</_></support_vectors>
  <decision_functions>
    <_>
      <sv_count>3</sv_count>
      <rho>-3.3333333333333331e-001</rho>
      <alpha>
        6.6666666666666663e-001 6.6666666666666663e-001
        -1.3333333333333333e+000</alpha>
      <index>
        0 1 2</index></_>
    <_>
      <sv_count>3</sv_count>
      <rho>-3.3333333333333331e-001</rho>
      <alpha>
        6.6666666666666663e-001 6.6666666666666663e-001
        -1.3333333333333333e+000</alpha>
      <index>
        0 1 3</index></_>
    <_>
      <sv_count>3</sv_count>
      <rho>-3.3333333333333331e-001</rho>
      <alpha>
        6.6666666666666663e-001 6.6666666666666663e-001
        -1.3333333333333333e+000</alpha>
      <index>
        0 1 4</index></_>
    <_>
      <sv_count>3</sv_count>
      <rho>-3.3333333333333331e-001</rho>
      <alpha>
        6.6666666666666663e-001 6.6666666666666663e-001
        -1.3333333333333333e+000</alpha>
      <index>
        0 1 5</index></_>
    <_>
      <sv_count>3</sv_count>
      <rho>-3.3333333333333331e-001</rho>
      <alpha>
        6.6666666666666663e-001 6.6666666666666663e-001
        -1.3333333333333333e+000</alpha>
      <index>
        0 1 6</index></_>
    <_>
      <sv_count>2</sv_count>
      <rho>0.</rho>
      <alpha>
        1. -1.</alpha>
      <index>
        2 3</index></_>
    <_>
      <sv_count>2</sv_count>
      <rho>0.</rho>
      <alpha>
        1. -1.</alpha>
      <index>
        2 4</index></_>
    <_>
      <sv_count>2</sv_count>
      <rho>0.</rho>
      <alpha>
        1. -1.</alpha>
      <index>
        2 5</index></_>
    <_>
      <sv_count>2</sv_count>
      <rho>0.</rho>
      <alpha>
        1. -1.</alpha>
      <index>
        2 6</index></_>
    <_>
      <sv_count>2</sv_count>
      <rho>0.</rho>
      <alpha>
        1. -1.</alpha>
      <index>
        3 4</index></_>
    <_>
      <sv_count>2</sv_count>
      <rho>0.</rho>
      <alpha>
        1. -1.</alpha>
      <index>
        3 5</index></_>
    <_>
      <sv_count>2</sv_count>
      <rho>0.</rho>
      <alpha>
        1. -1.</alpha>
      <index>
        3 6</index></_>
    <_>
      <sv_count>2</sv_count>
      <rho>0.</rho>
      <alpha>
        1. -1.</alpha>
      <index>
        4 5</index></_>
    <_>
      <sv_count>2</sv_count>
      <rho>0.</rho>
      <alpha>
        1. -1.</alpha>
      <index>
        4 6</index></_>
    <_>
      <sv_count>2</sv_count>
      <rho>0.</rho>
      <alpha>
        1. -1.</alpha>
      <index>
        5 6</index></_></decision_functions></my_svm>
</opencv_storage>
