<?xml version="1.0"?>
<opencv_storage>
<my_nn type_id="opencv-ml-ann-mlp">
  <layer_sizes type_id="opencv-matrix">
    <rows>1</rows>
    <cols>3</cols>
    <dt>i</dt>
    <data>
      265 10 24</data></layer_sizes>
  <activation_function>SIGMOID_SYM</activation_function>
  <f_param1>1.</f_param1>
  <f_param2>1.</f_param2>
  <min_val>-9.4999999999999996e-001</min_val>
  <max_val>9.4999999999999996e-001</max_val>
  <min_val1>-9.7999999999999998e-001</min_val1>
  <max_val1>9.7999999999999998e-001</max_val1>
  <training_params>
    <train_method>RPROP</train_method>
    <dw0>1.0000000000000001e-001</dw0>
    <dw_plus>1.2000000000000000e+000</dw_plus>
    <dw_minus>5.0000000000000000e-001</dw_minus>
    <dw_min>1.1920928955078125e-007</dw_min>
    <dw_max>50.</dw_max>
    <term_criteria><epsilon>9.9999997764825821e-003</epsilon>
      <iterations>1000</iterations></term_criteria></training_params>
  <input_scale>
    5.9725205760893703e+000 -2.5184330477943635e+000
    5.4316371191810653e+000 -2.4157390637089997e+000
    4.4308708344111771e+000 -2.0868534604612887e+000
    4.2216025331701905e+000 -2.1670104063845663e+000
    3.5394471155669773e+000 -2.4075251806380762e+000
    4.9079297478622985e+000 -4.1835991189425004e+000
    6.1874120897295226e+000 -5.4736344842173104e+000
    5.1750418879946833e+000 -4.2888465293424947e+000
    4.7135580375047965e+000 -3.6171726852870103e+000
    5.5610019058599898e+000 -4.0579819365200240e+000
    5.4702481468887365e+000 -4.0483355250228632e+000
    5.4257568658378199e+000 -4.4032538234635812e+000
    6.0267176390972459e+000 -5.1693994767108133e+000
    5.9525590844189997e+000 -4.8928476226361406e+000
    5.5338329624017009e+000 -4.1746908638734528e+000
    4.4284654286825917e+000 -2.6408790002215499e+000
    2.8414831702641772e+000 -6.2734136836851195e-001
    2.9395471426279620e+000 -5.8146306249351065e-001
    3.3421420015471459e+000 -5.8301258363808262e-001
    3.3978638010682300e+000 -5.7997632781593955e-001
    5.4009926396729160e+000 -3.7302713784676000e+000
    5.7750308120811429e+000 -4.2191122984643652e+000
    5.7030491757575996e+000 -4.4236166999573161e+000
    5.7199124233812793e+000 -4.4298801831674250e+000
    6.0700886752508527e+000 -4.6364341326625418e+000
    5.8571352111608483e+000 -4.3920214297169302e+000
    6.2654902925147722e+000 -4.6529836530420372e+000
    6.1760605753576847e+000 -4.6210625303578716e+000
    6.1692300814999168e+000 -4.6744109321432772e+000
    6.1982294743312361e+000 -4.7938810809228203e+000
    6.4564176622991596e+000 -5.0551914479025681e+000
    6.3113382306107697e+000 -4.7905505068216838e+000
    6.6617599200492634e+000 -4.9787008513701299e+000
    6.3246860702997463e+000 -4.8309894417708161e+000
    6.6264200232721233e+000 -5.0116151198575558e+000
    5.9261765755079612e+000 -4.6394594938318399e+000
    5.5312543594222285e+000 -4.4123416647824172e+000
    5.8199348302308644e+000 -4.7145292201002622e+000
    5.8288480803195890e+000 -4.6120644557018533e+000
    5.6606607284441326e+000 -4.2165196562670193e+000
    1.2934526100929573e+000 -7.8095251930140819e-001
    1.0882245701179658e+000 -7.8023648423552261e-001
    5.7580979910692325e-002 -2.5096615772396086e-001
    1.4255613124833505e-002 -4.9410493038338016e-001
    1.0217779739266139e-002 -7.2710106201211777e-001
    1.0416857751324169e-002 -7.4421569576205593e-001
    9.8720909804891361e-003 -7.9963936941961999e-001
    9.6253575651491612e-003 -9.7016339835899656e-001
    9.2487337344171004e-003 -8.8403934148220809e-001
    9.7571146256072282e-003 -8.9084297496817699e-001
    1.0694069401921235e-002 -8.1073152560225514e-001
    1.8654644956702070e-002 -4.6777402165013304e-001
    8.9214053758497155e-002 -1.5907034113543361e-001
    9.8093498784197075e-001 -4.3494287196766629e-001
    1.0042995540449757e+000 -3.2213381922197332e-001
    1.0906989225980215e+000 -8.3345861066452587e-001
    4.6105698942329709e-001 -6.3069116477715170e-001
    2.9891685249086534e-002 -2.7325512270155522e-001
    1.2131868491176236e-002 -6.1574955172196366e-001
    9.2001799361865217e-003 -9.6584530499890198e-001
    9.7042189050945624e-003 -1.0301119916992831e+000
    9.7778149221053740e-003 -9.9706039144374525e-001
    9.2518078233040126e-003 -1.0765263933267140e+000
    9.7686110755382406e-003 -1.1000746264971695e+000
    9.4956235901627224e-003 -1.0990736398840231e+000
    1.0892696130182488e-002 -1.0027446116822709e+000
    1.5796671185584192e-002 -5.2874140911747836e-001
    6.5620398728695142e-002 -2.7981528514500198e-001
    9.1038284884685461e-001 -5.2389956395903892e-001
    1.0373727063980889e+000 -5.1868635319904444e-001
    9.1638465562789417e-001 -7.4348189041508395e-001
    3.2686016307125676e-001 -5.0879176327129594e-001
    2.9942398964750334e-002 -3.7738721714062684e-001
    1.2353252119444668e-002 -9.0679862963583924e-001
    1.0015232133345117e-002 -1.4034552651764940e+000
    1.0813195165639227e-002 -1.3816407105982802e+000
    1.0322845288554315e-002 -1.1059078405360641e+000
    9.3263490650932739e-003 -1.0379522634047675e+000
    9.9246641567917755e-003 -1.2476988165415774e+000
    1.0369222232616193e-002 -1.3538682613151707e+000
    1.0963201258798424e-002 -1.2377040515475541e+000
    1.5117825315983062e-002 -6.9413637559329777e-001
    3.3444628539511689e-002 -3.2592737057844884e-001
    2.8537859970091062e-001 -4.0114539014561967e-001
    9.5402623608224335e-001 -4.5901262302070200e-001
    1.3747696496399198e+000 -8.9489722476560807e-001
    2.6891083838543667e-001 -5.2767409796387577e-001
    2.5568336815239887e-002 -3.7797720556114062e-001
    1.1276567604345245e-002 -9.6669971528948351e-001
    9.5128366521339946e-003 -1.5425154375177272e+000
    1.0964593855464709e-002 -1.4806339287464327e+000
    9.6832378049955415e-003 -1.0299859080313654e+000
    9.1258624385599507e-003 -9.5442746220637376e-001
    9.4861237554800752e-003 -1.1532799701591672e+000
    1.0724418444359856e-002 -1.3039274048199039e+000
    1.0001297822917657e-002 -1.1904374965259630e+000
    1.2984827015825953e-002 -7.1098052830050784e-001
    2.8714976303234309e-002 -3.4430881963595100e-001
    2.2753435569214933e-001 -3.7993944299538140e-001
    7.2881932654176584e-001 -4.3316620351067214e-001
    1.3730385643997256e+000 -1.1139746843243057e+000
    3.3441314603558953e-001 -6.5620692806983605e-001
    2.6693545006607318e-002 -3.6086650938177628e-001
    1.1223220823259385e-002 -9.8234946036038273e-001
    9.3034855619629330e-003 -1.4987388627931986e+000
    1.1072791844925324e-002 -1.3822186952080366e+000
    9.2338624132332729e-003 -9.3706281112405954e-001
    8.9058740502883701e-003 -8.6781861382479786e-001
    9.0254883180742925e-003 -9.7262408544681744e-001
    1.1513476442159939e-002 -1.2790820621025984e+000
    9.5695539409168251e-003 -9.5415675095801811e-001
    1.2331444727281555e-002 -6.2285429311193818e-001
    2.9384724447894365e-002 -3.5982426729591405e-001
    2.3881385839367758e-001 -4.1454481079657240e-001
    9.0837494422134080e-001 -4.7132662200163911e-001
    1.1210812933142891e+000 -7.8264165759676785e-001
    3.2706703808959309e-001 -5.3071255237179260e-001
    2.6901812595241339e-002 -3.7078819058158113e-001
    1.0870014364903501e-002 -9.7942931319993720e-001
    9.6197150666867993e-003 -1.5851656893379089e+000
    1.1056550660798277e-002 -1.5444749588154727e+000
    8.8229933297031271e-003 -9.9899590512355596e-001
    9.0027511787032395e-003 -9.8885879220416806e-001
    8.9652645467023385e-003 -1.0567171249669718e+000
    1.0877995995634387e-002 -1.2513800299128841e+000
    9.5412549116381494e-003 -8.6312352214809640e-001
    1.2587260681081082e-002 -5.9017627910351855e-001
    2.8972191500603355e-002 -3.6215239375754193e-001
    2.4417417473684627e-001 -3.8468950170805027e-001
    9.7980287330665983e-001 -4.6217116665408481e-001
    8.9778941014256330e-001 -6.4369806764938498e-001
    3.0298949779101852e-001 -4.9450172752685095e-001
    2.6683197828312851e-002 -3.7633378069177087e-001
    1.0798577827149864e-002 -9.6178654024643262e-001
    9.8192052690291923e-003 -1.6358240174130803e+000
    1.0741667166086082e-002 -1.7732871107484940e+000
    9.4129284174823552e-003 -1.3559056981748874e+000
    9.5379989674674974e-003 -1.3607845130661411e+000
    9.5017693817713942e-003 -1.3773980030216908e+000
    1.0330401881370733e-002 -1.3752103863020984e+000
    9.9994046455528889e-003 -9.2183190751266819e-001
    1.3362653077478819e-002 -5.5719742077789036e-001
    3.0620756059916168e-002 -3.1776256288592253e-001
    2.5387273595996368e-001 -3.4727874258674279e-001
    7.6243209912678878e-001 -4.0998707217195246e-001
    9.6683782216876479e-001 -8.9386892992961275e-001
    3.1593547252352644e-001 -6.3783199169844029e-001
    2.6901480782054569e-002 -3.7002225453052418e-001
    1.1119583387962944e-002 -9.8681057481667367e-001
    1.0285762821961275e-002 -1.7424664433392323e+000
    1.0863874573075603e-002 -1.7973563055474233e+000
    1.0192856129087461e-002 -1.3801704152904937e+000
    1.0203859422592209e-002 -1.3642367522356300e+000
    1.0243597257011716e-002 -1.5531612746669086e+000
    1.0182106361234230e-002 -1.5172299054310818e+000
    1.0250464752476398e-002 -1.0387782299160515e+000
    1.3621295273419305e-002 -5.7839103797792735e-001
    3.0101428597282359e-002 -3.3338752050197634e-001
    2.6512264759332965e-001 -3.8017587202062364e-001
    1.3625624163320111e+000 -4.3704832221970169e-001
    8.6204506443787088e-001 -7.6445505714301765e-001
    3.6651880084406846e-001 -6.3276359013645778e-001
    2.7532418309432753e-002 -3.6129805536246185e-001
    1.1448864369407494e-002 -1.0343940949605244e+000
    1.1343248941408755e-002 -2.0372903145899990e+000
    1.0864671182952318e-002 -1.7544394022508945e+000
    1.0050531211568448e-002 -9.8931361001419993e-001
    1.0020506792975361e-002 -9.0761212942789093e-001
    9.8774024864798967e-003 -1.2566665087987536e+000
    9.9721186425064477e-003 -1.4653369809026457e+000
    9.9085662101514715e-003 -1.0633948038366334e+000
    1.3118849558067596e-002 -6.1101660630358223e-001
    3.0959421453433739e-002 -3.3325188564498015e-001
    2.3082071547082572e-001 -3.6800661240159949e-001
    1.1486508515512341e+000 -3.4676252122301404e-001
    9.7231340264645294e-001 -7.2464866801009220e-001
    3.7846524148700733e-001 -5.9269084987587939e-001
    2.8075523329152842e-002 -3.3849546051563523e-001
    1.1727932555070665e-002 -1.1163664101949340e+000
    1.2089928663406416e-002 -2.2727925327896195e+000
    1.0811281336239969e-002 -1.6497403359781273e+000
    1.1285999382379057e-002 -8.0854603122440161e-001
    1.2276511585480232e-002 -6.1324649853884738e-001
    1.0285864951375059e-002 -9.7773938915146319e-001
    9.8900568756029959e-003 -1.4396563923637191e+000
    9.6916786361030786e-003 -1.2450149810171285e+000
    1.3182584344786757e-002 -7.2566395897953517e-001
    3.6057306518684329e-002 -3.0784775848499357e-001
    2.7476173326169739e-001 -3.7066913072096913e-001
    1.1629408374590460e+000 -4.1690331908909195e-001
    1.2338935225262548e+000 -9.3124039435943773e-001
    3.7576132970325810e-001 -6.3454035864984148e-001
    2.7363701314353454e-002 -3.6450515335723654e-001
    1.2006980046251031e-002 -1.1080403661549771e+000
    1.2966354356662655e-002 -2.4741272001684798e+000
    1.0713845932627910e-002 -1.6729771497816714e+000
    1.0631087377439110e-002 -9.6923423033558076e-001
    1.1373181524831858e-002 -7.6554386961957843e-001
    1.0159021313823385e-002 -1.0664097184803094e+000
    1.0596130099295969e-002 -1.6564950176927689e+000
    1.0241328110365398e-002 -1.5539766162935571e+000
    1.2629920456678446e-002 -8.5943034201907198e-001
    3.3745668258854521e-002 -3.3268135217455636e-001
    2.4229663271467861e-001 -3.8630312196962907e-001
    1.0555235174476112e+000 -4.0826853033351002e-001
    1.2079036777148497e+000 -7.6348628685749931e-001
    4.5901211175158246e-001 -5.6726968527789912e-001
    2.7420181735229109e-002 -3.4275227169036387e-001
    1.2664602942865283e-002 -1.0401701247225015e+000
    1.2327981134759749e-002 -2.1830993762318420e+000
    1.0456655164314717e-002 -1.5347607645887582e+000
    9.8900842543494707e-003 -9.1548591229883958e-001
    1.0017640865588430e-002 -8.4365547176516908e-001
    9.6840486050601988e-003 -1.0226720762739987e+000
    1.0162523915542261e-002 -1.5539074304066884e+000
    1.0201272972893765e-002 -1.4958338284687525e+000
    1.3784139319679076e-002 -8.5630714547251618e-001
    3.7194225718812979e-002 -3.0071180604738418e-001
    2.5645194647777481e-001 -3.6290369784590770e-001
    8.4486964308389834e-001 -4.2243482154194917e-001
    1.4854624148787079e+000 -6.4463463287189215e-001
    3.6661743670600966e-001 -3.2511357594683876e-001
    2.7017031469790988e-002 -2.6813129345490677e-001
    1.1636533310388974e-002 -8.3376858955098354e-001
    9.6188487934975204e-003 -1.5264931547567482e+000
    9.4597029708197757e-003 -1.2551062507698993e+000
    1.0109408120432099e-002 -7.7203451636696074e-001
    1.0609804169377450e-002 -7.1846390875274846e-001
    1.0327831220359716e-002 -9.3252521330247962e-001
    9.0432227198140661e-003 -1.3416388725641133e+000
    9.4348855624242917e-003 -1.2795841023152041e+000
    1.3987614558272963e-002 -6.7853126470414704e-001
    1.8449212816172358e-001 -2.1930196366393556e-001
    1.4947379034067116e+000 -4.9354553414372554e-001
    9.1662446170648249e-001 -4.0642782736042149e-001
    1.5190986507196287e+000 -1.0748339509808693e+000
    2.1848983372866879e-001 -3.2361230090000942e-001
    2.3983942742137665e-002 -2.9165379428882499e-001
    1.1908891614140457e-002 -7.8126822910125227e-001
    9.8256463492490901e-003 -1.4432576760170597e+000
    9.5067097491262267e-003 -1.2304014249836104e+000
    1.0135759719717774e-002 -8.3380966750885843e-001
    1.0042404687620228e-002 -7.5592780191058295e-001
    1.0038575530263830e-002 -8.8614104940262883e-001
    9.4029807044058462e-003 -1.2964581414612399e+000
    9.9635850237113979e-003 -1.3404781700297006e+000
    1.2744744697082351e-002 -7.0035979113683666e-001
    4.5784889884702980e-002 -2.6088748575811888e-001
    1.5506292600346976e+000 -5.4125738321965855e-001
    1.2362409236583012e+000 -4.8983130937404390e-001
    1.2760900427091535e+000 -8.6677814221753813e-001
    8.5469975444158586e-001 -6.5311962367706089e-001
    5.2040144270830729e-002 -2.9603968863500879e-001
    1.4193919397879663e-002 -6.2399683390678518e-001
    1.0413469583662896e-002 -1.0383015097144637e+000
    9.7686998891069084e-003 -9.1014792551716817e-001
    9.7477687366089947e-003 -6.8749357617819662e-001
    9.4867737263487750e-003 -6.5924127611589689e-001
    9.9418162823243072e-003 -6.6281901572816870e-001
    1.0948308120962655e-002 -9.3215547916686758e-001
    1.0132665228584489e-002 -1.0028470840856591e+000
    1.3680391952921646e-002 -6.2090911024062301e-001
    3.5709346593916232e-002 -2.1391919893525291e-001
    1.3716583946110756e+000 -4.1408555309013600e-001
    1.1210812933142891e+000 -3.3843963571752123e-001</input_scale>
  <output_scale>
    5.2631578947368418e-001 4.9999999999999994e-001
    5.2631578947368418e-001 4.9999999999999994e-001
    5.2631578947368418e-001 4.9999999999999994e-001
    5.2631578947368418e-001 4.9999999999999994e-001
    5.2631578947368418e-001 4.9999999999999994e-001
    5.2631578947368418e-001 4.9999999999999994e-001
    5.2631578947368418e-001 4.9999999999999994e-001
    5.2631578947368418e-001 4.9999999999999994e-001
    5.2631578947368418e-001 4.9999999999999994e-001
    5.2631578947368418e-001 4.9999999999999994e-001
    5.2631578947368418e-001 4.9999999999999994e-001
    5.2631578947368418e-001 4.9999999999999994e-001
    5.2631578947368418e-001 4.9999999999999994e-001
    5.2631578947368418e-001 4.9999999999999994e-001
    5.2631578947368418e-001 4.9999999999999994e-001
    5.2631578947368418e-001 4.9999999999999994e-001
    5.2631578947368418e-001 4.9999999999999994e-001
    5.2631578947368418e-001 4.9999999999999994e-001
    5.2631578947368418e-001 4.9999999999999994e-001
    5.2631578947368418e-001 4.9999999999999994e-001
    5.2631578947368418e-001 4.9999999999999994e-001
    5.2631578947368418e-001 4.9999999999999994e-001
    5.2631578947368418e-001 4.9999999999999994e-001
    5.2631578947368418e-001 4.9999999999999994e-001</output_scale>
  <inv_output_scale>
    1.8999999999999999e+000 -9.4999999999999996e-001
    1.8999999999999999e+000 -9.4999999999999996e-001
    1.8999999999999999e+000 -9.4999999999999996e-001
    1.8999999999999999e+000 -9.4999999999999996e-001
    1.8999999999999999e+000 -9.4999999999999996e-001
    1.8999999999999999e+000 -9.4999999999999996e-001
    1.8999999999999999e+000 -9.4999999999999996e-001
    1.8999999999999999e+000 -9.4999999999999996e-001
    1.8999999999999999e+000 -9.4999999999999996e-001
    1.8999999999999999e+000 -9.4999999999999996e-001
    1.8999999999999999e+000 -9.4999999999999996e-001
    1.8999999999999999e+000 -9.4999999999999996e-001
    1.8999999999999999e+000 -9.4999999999999996e-001
    1.8999999999999999e+000 -9.4999999999999996e-001
    1.8999999999999999e+000 -9.4999999999999996e-001
    1.8999999999999999e+000 -9.4999999999999996e-001
    1.8999999999999999e+000 -9.4999999999999996e-001
    1.8999999999999999e+000 -9.4999999999999996e-001
    1.8999999999999999e+000 -9.4999999999999996e-001
    1.8999999999999999e+000 -9.4999999999999996e-001
    1.8999999999999999e+000 -9.4999999999999996e-001
    1.8999999999999999e+000 -9.4999999999999996e-001
    1.8999999999999999e+000 -9.4999999999999996e-001
    1.8999999999999999e+000 -9.4999999999999996e-001</inv_output_scale>
  <weights>
    <_>
      2.3667113504283915e-001 1.0027112995016858e+000
      6.3097544699039521e-001 3.6351365101615608e-002
      3.7448327631955386e-001 2.2123773484165384e-003
      -2.5371682728217614e-002 -3.6455792612128224e-001
      -1.5203392407438285e-001 1.3622398331274485e-001
      -1.2946238287830936e-001 7.9328186212543850e-001
      7.4564147050576801e-001 -3.6919444747324863e-003
      -6.2302502190637943e-001 1.5204830007369776e-002
      -1.8565163748750874e-001 -1.5988101844348312e+000
      -5.5563155624063935e-002 9.7585232237301950e-002
      1.8418038775747728e-001 1.0341135250226454e+000
      5.8332408837581984e-001 -3.1846388633966931e-002
      6.5351857360736709e-001 -6.1724728297989362e-003
      -3.1179556600405309e-002 -1.5864506281138340e+000
      -9.2369778633533850e-002 8.5429333323862586e-002
      2.3402836309890498e-001 3.9256697168333982e-001
      -2.7406481747409288e-003 6.4391059087628294e-002
      1.0185419841042417e-001 -6.3714197338571770e-003
      -1.0971846274481295e-001 -7.2832393799490647e-001
      -1.3700033418531779e-001 -2.7841557845512421e-001
      8.4273416894215233e-002 4.1876350780978688e-001
      -3.4011134504039309e-002 4.1475861204346501e-002
      3.5142355710770623e-002 -8.5368545688636957e-002
      -1.1808730123730525e-001 -1.2489216209419296e-001
      3.0388703044243459e-001 6.7254268190825681e-002
      7.8052061314283744e-002 3.9513284327308668e-001
      -4.3375706363043630e-002 6.8910377383829033e-002
      1.4675647747786089e-001 -2.1638868562590047e-001
      -2.6838112121487367e-001 4.9739545525147644e-002
      1.0361054494483790e-001 -1.8031214588685143e-001
      1.1686455674761664e-001 -1.3131830380528337e-001
      -8.8678649174258800e-002 2.5847589761632102e-002
      1.0864514693031385e-001 1.4596705868395003e-002
      3.3395719266879439e-002 4.1960153473637574e-002
      2.0368538109875392e-001 1.2784682466286452e-002
      -1.7088072940791554e-001 2.7388068388771569e-001
      5.8527369217635239e-002 3.5273353445715960e-001
      2.9528640252183332e-002 -7.9851113488129233e-002
      -3.2444263379410081e-002 3.2676990010136897e-001
      1.7659048389003756e-001 8.2091141046143501e-001
      -1.9153267778685509e-001 4.1164226681743341e-002
      2.1293260682470880e-001 1.0288065101358073e+000
      -5.8385515212052840e-002 3.6850986394283070e-001
      2.0572171352733121e-001 -1.6891409263296159e-001
      -9.6443708217645724e-002 -1.4253202952216582e-001
      -1.9731531233086033e-001 6.9422229024354198e-001
      2.0578938876587158e-001 1.0075204307176864e+000
      -1.3626835542388491e-001 1.5441820319732305e-001
      7.2423343735232168e-002 -1.6904606133649736e-001
      1.7683502798604984e-002 8.7624738816361285e-003
      -1.8860616802075711e-001 -3.0088604340581523e-002
      -8.3231412444971023e-002 4.6219122651484623e-001
      1.2610634726086473e-001 4.0344685046162893e-001
      2.3443641154416953e-001 -1.0827645193277920e-001
      8.8470173220633316e-002 8.6671882042002379e-002
      1.6299927921237720e-002 1.0362821743073873e-002
      3.7001827168423401e-002 2.4325600332746233e-001
      -3.9933599885079885e-002 4.0873860258723488e-001
      2.0714525561501740e-001 -5.1004888984641887e-003
      7.4058720413881174e-002 -3.6029884276642316e-001
      1.9160831512598758e-001 -1.5876544876064930e-001
      1.8944190014646738e-002 2.9413764592565994e-001
      2.0793282253998702e-001 -1.8652081079697844e-001
      -1.7433720374706851e-001 -1.6974899367723681e-001
      -1.0930981865319223e-001 -2.3979723035472508e-002
      1.8668531814069611e-001 7.2542552344835344e-003
      1.3669917096522424e-001 3.1603700033705794e-002
      3.4916701965507752e-001 -6.7825608509083632e-002
      -2.7616456060659594e-001 2.6409671540581674e-003
      -4.1830525985416078e-001 -2.1281811549044672e-002
      1.0937001471668280e-001 -5.4326613138853189e-002
      2.2757649298185467e-001 6.6147895092519088e-002
      2.6853718973479485e-001 1.3796133731894530e-001
      -1.1985554769775482e-001 1.3260226342244942e-002
      -4.7144052225993660e-002 -1.7507014773223285e-002
      2.7959524106195760e-001 -1.7840728139906913e-002
      4.7396718003410504e-001 1.8291632218790926e-001
      1.2481172251656056e+000 -2.5812939827734574e-003
      -5.5088587939950438e-002 4.6251489459202814e-002
      -3.7587853810391682e-002 -1.9451008697744965e-001
      -5.7027722241604149e-002 7.3390598586053915e-002
      1.2144668953541149e+000 -1.5048595987058219e-001
      1.9487958312891954e-001 -2.5120820233009444e-002
      -2.2278747897523490e-001 -5.4946447500084972e-001
      1.3627863576130822e-001 8.0797701215497342e-002
      2.4222927106557343e-001 6.8367502421292844e-002
      8.8643277803684051e-001 1.1680533186941290e-001
      3.4150507111645184e-001 -1.2388119103245269e-002
      -2.3012072565616737e-001 -5.4801300288768173e-001
      -1.6218235470290909e-001 9.6147151771595982e-002
      2.3999691604514314e-001 8.7233232912187175e-001
      9.4485182210472618e-001 1.0596698189982034e-001
      3.4968954676079322e-001 -1.1864919622663256e-002
      -1.8953705217921543e-001 -5.5041384575816421e-001
      1.1548386631319406e-001 7.9860711535851669e-002
      1.1907570367310513e-001 1.4401333968251109e-001
      9.9137766115764714e-001 1.0809910097790620e-001
      3.4498758818350883e-001 -1.3401155640759624e-002
      -2.2024487432858514e-001 -5.5266393614214526e-001
      9.9221092389475546e-002 9.6522194753555488e-002
      -1.6435688915761465e-001 1.8900228886668216e-001
      -1.3922999398430838e-001 -3.9475392918007485e-001
      1.7633270976135912e-001 1.3803813921113642e-001
      2.0768656360302074e-001 -2.0988027535126580e-001
      1.8783455184790496e-001 5.2567927270923098e-001
      -1.1047145742861768e-001 3.6257235673726657e-001
      -1.9123989162549582e-002 -2.3941847549478790e-001
      6.5767702093318114e-001 1.4242570014456526e-001
      3.3542838665272107e-002 -7.2754651216331456e-002
      6.4675226970562813e-002 -3.8199995904420157e-002
      1.3385078751059504e-001 9.7384017342950313e-001
      1.0023698484503063e-001 -1.7132598267159216e-001
      2.4477301050990249e-001 7.7809698658194493e-001
      4.4208352053347784e-003 5.5864780607057428e-002
      5.9706459718836280e-001 -5.0947022194261082e-001
      7.1607335694443865e-003 6.7456163412252157e-001
      1.4637834030401140e-001 7.8463541312044568e-002
      1.4997855867107460e-001 -7.6320350989952143e-002
      -1.7989358370226394e-001 1.6573170101264056e-001
      7.9957838986079777e-002 -1.1642146416879887e-001
      1.3111744879695039e-001 1.2113224144091618e-001
      2.9639069695814757e-001 -2.1470447580423935e-001
      1.3339936419982525e+000 -9.8831485506740480e-002
      -5.3131555162187205e-001 8.8603791964547499e-002
      7.5062765465362769e-001 -4.5753359611074074e-001
      4.5104081843056941e-002 2.6037266276380294e-001
      1.1208964181987290e-001 8.8440315983318626e-002
      7.8860285354928217e-001 7.3162835427331881e-003
      2.4625694504871627e-002 1.8992354561052305e-002
      4.0163942777589118e-001 -1.7648812756176468e-001
      7.8697741478214761e-002 -6.7256331731550434e-002
      2.0117064156118497e-001 -1.0546338160181388e-002
      1.8092468040240761e+000 -1.9566068612562745e-001
      -4.0783354836656308e-002 -4.3665105345657351e-001
      2.1118119647739436e-001 -1.3535984060175008e+000
      3.5906233355387279e-001 -2.7343065272323559e-002
      2.5782510517692497e-001 8.4400353622525193e-001
      7.1729274556850547e-002 -1.7113088090319045e-001
      1.7609284245237965e-002 -7.3999066840532590e-002
      -9.2063396950575027e-002 -3.8860375153529020e-001
      2.8994587337405686e-001 1.2828942723825064e-002
      4.1824225794727554e-002 6.6823850291217701e-001
      3.4939341197360879e-001 -1.0945116349021876e-001
      -1.8700290713393267e-001 4.8861547465372773e-002
      -5.9007285537393803e-002 -7.6924564047436361e-002
      8.4227746463031150e-001 -1.4548416923160223e-001
      2.7425943052591557e-002 6.9208100973864450e-001
      1.9710117750040837e-001 -3.4332834977953508e-001
      -3.5208984244189517e-001 1.5571847861177981e-001
      -2.3198352898477831e-001 5.6133986939689733e-002
      1.2984854324327859e+000 -8.0753588867266649e-002
      1.1277797174633078e-002 -2.9397842622543080e-001
      1.4000896825772413e-001 5.4205436629411163e-001
      -1.4430522766860207e-001 5.3423904948180480e-002
      -1.4562714565219523e-001 4.9322005949141606e-001
      8.9489769304431532e-001 7.6060881855215412e-001
      2.0057833711616568e-001 1.9841643353896976e-001
      1.4054609158663153e-001 5.4441951804011873e-002
      -6.7900743142212561e-002 -1.7364656325988037e-001
      -1.5882448267915991e-001 4.1547081543887178e-002
      1.2961003621468678e-001 -1.9394809820600067e-001
      -2.6315995430354649e-002 1.0367004317194969e-001
      3.2136824396998215e-001 -4.9106040319000836e-002
      -3.3786323981593985e-001 -7.0966697853349095e-002
      -1.3216237560456928e-001 1.9824507432226726e-001
      -2.4303145546918880e-002 -4.5164152117862323e-002
      3.0765663197409165e-001 -1.2629727121256229e-001
      2.0118956488878026e+000 3.0184580933865013e-001
      9.0371114816771791e-002 1.8166227095409898e-001
      -6.6664100344707836e-002 1.1017619306108192e-001
      -2.7092131360139732e-002 -3.8073598698331421e-002
      2.7391861424957792e-001 2.6812784909666842e-001
      5.8598791080094352e-002 4.0139629159731832e-001
      1.9682898312343419e-001 -6.5260342739760127e-002
      -1.1650713690812323e-001 7.9171089402485573e-002
      -8.9703687792072315e-002 8.9328909233288245e-001
      5.8258438258585077e-001 3.4282616842354147e-001
      1.2881444984206231e-001 5.2128751772811688e-001
      4.4190861930797942e-001 9.4515225308945239e-002
      -1.0510230912108642e-001 2.8185736342208706e-001
      1.4387543557973231e-001 2.9083413599988911e-001
      2.7933153695559715e-001 -8.2020523897599074e-001
      -1.0117634305217625e-001 2.8498179187581030e-001
      8.4270818906216780e-002 -8.2919725507811320e-002
      1.1358902684860406e-003 -9.1272851365994973e-002
      -1.2780841300768228e-001 7.0732086543128431e-002
      2.3469992860037925e-001 6.4768201547692084e-002
      -1.1514882819441668e-002 -3.8586830063255773e-001
      8.6025055878786394e-002 -3.2821656082806977e-001
      -2.0465432011888576e-002 -8.8075259907409686e-001
      -1.0274787698338969e-001 5.4469963356417815e-002
      -1.2781842874765945e-001 1.7567417936218413e-001
      1.1079719450565606e+000 -1.7149827696372233e-001
      -1.2487421924735734e-001 -1.1527342924266897e+000
      1.0271417563807483e-001 -9.5766076043326165e-001
      -8.1302738289620563e-002 6.8528019976072829e-002
      5.8544102912938811e-001 -1.6331364359405179e-001
      9.4135352203890854e-002 8.9312454281875231e-001
      -1.0243745320809632e+000 -8.3312543317547882e-001
      1.9711762553328131e-002 -3.6339966492554632e-001
      2.1639868132161177e-001 8.2158397648518922e-001
      9.7745982436649870e-001 7.6079782346345451e-002
      -3.7437463123731052e-001 8.7919401736398367e-003
      -3.7850551768347515e-003 -8.8384927811337999e-001
      -5.5324724324164531e-001 1.2167620429139075e-001
      1.3369170367884181e-001 -1.8555940572526619e-001
      3.6258156193346230e-001 -9.4034354030289646e-001
      -4.1027808003947751e-002 -2.7540989279507995e-002
      1.2080037072923383e-002 -1.1522944890790945e+000
      1.1813917815908805e-001 -1.0919295569583082e-001
      4.0647028455964229e-001 -2.6604733621597898e-001
      -1.1611459067206363e-001 -1.6366935951364647e+000
      -3.6043322375928211e-001 4.5585116443218734e-002
      -1.4422692459545711e-001 3.5045583831502747e-002
      -2.0228060284809581e-002 1.4423491833701063e-001
      2.2436440401421553e-001 -1.6398132490477729e-001
      7.2070266115467990e-002 -2.8686827746483817e-001
      -9.7100488804294144e-002 -1.0765543789052436e-001
      -9.5721389850855210e-002 -7.4788362981103220e-003
      1.5818885864968368e-001 3.7916614299992442e-002
      4.0413660695841025e-001 -4.3502522399818228e-001
      8.8902605624366471e-002 2.4526320336389976e-002
      9.4278329782818637e-002 -1.5010836256407969e-001
      -2.9443502293702339e-001 -1.0533416838267648e-001
      1.7938666115881838e-001 -4.0731235412454392e-001
      -8.6129309024675346e-002 4.7341883035984356e-001
      -1.4871435864013466e-001 -2.7272387206054266e-001
      8.6882529654671081e-001 4.3432002757013935e-002
      1.5505871784425551e-001 -6.6862158149660816e-002
      -2.2613792522278270e-002 -4.0683882660684949e-002
      -3.9939268669061612e-001 3.4311964223905389e+000
      -2.5856136504187988e-001 -1.1479614997480414e+000
      -1.3961524804807715e-001 2.3462349748943015e-001
      4.6966690952420842e-001 -4.8326122580002318e-001
      2.1481733580728185e-001 7.7836495934928174e-001
      -5.0128354771342964e-001 7.1901919326418806e-001
      -1.9158361031354298e-001 -3.7331925452005837e-001
      -3.0549240919145593e-001 2.7990331392747569e-001
      4.5638586211143450e-001 -4.7231550180347881e-001
      1.2237813856769987e-001 1.2248105647750200e+000
      -5.0762657047377902e-001 4.2504147587662848e-002
      -2.7735801998650911e-001 -1.1495896299466675e+000
      1.1407513943471868e-001 2.3037456690368568e-001
      4.4790911529585486e-001 -9.4289793310700032e-002
      7.8388175826285975e-002 2.3599469550868640e-001
      6.9767879235789781e-002 -6.5284727028802461e-002
      3.5627742117750112e-002 -6.0158125762007464e-001
      -1.5269194561939445e-001 1.5570021478673257e-002
      -1.6980383779121619e-001 4.2520081951760338e-002
      7.5383988219190179e-002 2.5034033922060606e-002
      -7.1388294608703023e-002 -2.4484039362856017e-001
      -2.9085999290946714e-003 -1.3989716385517348e-001
      9.8096600281294605e-002 -3.6141408938779129e-001
      -4.9784691533822312e-002 2.2865250803470866e-001
      2.7930194989028323e-002 -3.2264912892382341e-001
      2.9896989000363261e-001 -3.7054401903936529e-001
      -4.5647461209762765e-003 9.4787739666845716e-001
      2.5775591130515668e-001 3.9449569702217580e-001
      6.6144088889615593e-002 2.5543727693119112e-001
      3.2961806142798402e-003 -2.1010786897176342e-001
      -1.6567991213218175e-001 7.1631713463675917e-002
      7.5787401971909626e-002 -1.6148439837293938e+000
      -5.4498352876376339e-002 -3.4407646863399116e-002
      4.3848549865645947e-001 -1.3103248890907901e-001
      -1.6278932181689318e-001 -3.3830999739436618e-001
      -6.1279598044718539e-002 8.6815746045008990e-001
      9.3581183024758308e-001 4.9286728877320871e-002
      3.4089550997895623e-001 1.7669940101193132e-002
      -9.6146045651817669e-002 -5.5532536255417209e-001
      1.0221955752054613e-002 -2.4541774471722505e-001
      -1.8863558905114627e-001 -3.5220593692530146e-002
      3.6732178988133629e-001 -4.0980327223283031e-001
      1.4082633827159197e-001 1.6994903370548084e-001
      -1.3498114066952099e-001 -5.4429581772360969e-001
      4.1562290582052469e-001 -2.2565778290063523e-001
      9.4635037141620731e-003 4.6985927424573019e-002
      6.2533484254994898e-001 6.1990440966155580e-002
      1.0714564366219781e+000 3.4659592408432605e-001
      -2.0111064762216330e-002 -2.4279057590725422e-001
      5.4213283424766834e-001 2.0122905771174024e-001
      -1.7919485671542074e-001 6.2744540679009919e-002
      3.7382635252359836e-001 -4.2883545266282963e-001
      2.9912804481405075e-001 -3.0712234929802529e-001
      1.0431667783531950e-001 6.1344623953296054e-002
      -3.4683862512768912e-003 -2.5624825701861453e-001
      7.0616479052422643e-001 -1.0138549843590299e+000
      -1.1332301956201037e-001 -2.7763597057244471e-001
      -9.6560486632212741e-002 2.9484068407393893e-001
      4.0014999779087707e-002 -1.7589299830742650e-001
      -1.1074702493013808e-001 3.2837932471292747e-001
      2.2589602491170502e-001 -2.5234756674933073e-001
      -3.3364794476231946e-002 -1.7068397888301198e-001
      5.2487098787345754e-002 -2.5526065304867440e-001
      1.0592480169510893e-001 3.9861485967323126e-002
      1.9217670922224381e-001 -4.2649859064878920e-002
      1.8669019306863346e-001 -3.8673418375739715e-001
      -1.4384553962469387e-002 2.2682469807080866e-001
      2.7706077316305261e-001 -1.5607079529264123e-001
      3.2661981394163098e-001 7.5516558998815791e-002
      3.0771567649185294e-001 -3.4520024276023509e-001
      -3.7710781633751528e-001 1.1277608229202375e-001
      -2.2543620030944514e-001 -4.7681577293483929e-001
      8.9127355902827310e-001 1.6535464597534823e-002
      5.7709090670388007e-002 2.5628488461921395e-001
      -9.1142664867700632e-002 -1.1247296468044560e-001
      -4.9093371625494470e-001 6.5986556380926722e-002
      -1.3298919790217878e-001 -6.2042450792263164e-002
      4.0544631197623741e-002 9.4098851397054720e-002
      -9.8580591279985252e-002 -9.2356938930421920e-003
      -9.1210952000940215e-001 1.1111622032863693e+000
      -4.0635896971819901e-001 -2.7446717777502704e-002
      -1.2096014660536422e-001 -1.7286595719694711e-001
      1.2736939504419766e-002 8.5274368221423841e-002
      3.9614801642927339e-001 -2.1542518808660271e-003
      -5.9659255767751695e-001 1.1110456239591788e+000
      -4.3496819257220454e-001 -2.3749352852682450e-002
      -2.7934265157803922e-001 -4.9867321172230383e-001
      1.8534593410779487e-001 2.4100891411337860e-001
      1.2271838815258573e-001 -4.4432475664096041e-002
      -1.5288047299282084e-002 -1.1806949104273121e-001
      8.3366644926839671e-003 -1.4504706714816681e-001
      2.1366357026080286e-002 -4.8324203032502488e-001
      1.9615117545319757e-001 2.0006204554934924e-002
      -5.6092207486389545e-001 -9.2091042364388198e-002
      8.7744284547562701e-001 -3.7843844182653391e-001
      -5.4797864869794521e-001 -4.8840058956743021e-001
      1.2396009865611060e-001 -5.4957015462332137e-001
      -5.2846076233237296e-002 -3.6333119633635746e-001
      -9.4082494718910545e-003 1.0912546651630683e+000
      -1.7506390885821521e-001 -4.0263440670313871e-001
      8.6712171688050968e-002 6.7044604735530866e-002
      1.2067101456187093e-001 -1.6079380777633605e+000
      6.3904507763373807e-004 -1.2090223461999121e-001
      4.6974777622381408e-001 1.5179981045741647e-001
      4.0641427642429187e-002 -5.1463966470529710e-001
      -1.1592335242894358e-001 -3.6446741113720328e-003
      8.0589856778297941e-002 -1.7173352647635587e-001
      2.2637274667301682e-001 -9.1512622106922958e-002
      1.6477366265321947e-001 -4.5839605878636602e-001
      2.1099841451707266e-001 -1.4889133428583451e-001
      2.2216200310980877e-001 1.5707102537903025e-001
      1.2086903151263930e+000 1.2457712681097796e-001
      3.5243620754038157e-001 -3.5197446945958526e-003
      -8.3383449020239780e-002 -5.4160449647014852e-001
      -1.3970169102048760e-001 -2.3082225110378038e-001
      1.1928266679797092e-001 1.5060756635274647e-001
      4.4905434047227105e-001 -1.0908079959684841e-001
      2.0689255446537427e-001 -5.9281141755140199e-003
      -8.0793547310092834e-002 -5.4896706386128313e-001
      1.1179164377803900e-001 -2.3899135019380466e-001
      2.1514739409164124e-001 5.3845883989259435e-001
      3.8287226135526553e-001 8.2432773928945033e-002
      7.7538761531358802e-002 -4.7081045323855286e-001
      -2.5329048273143073e-001 -1.0438194809406820e-001
      -3.9587297210892347e-001 1.3905647426071205e-001
      -2.8990012966833439e-001 -5.3116747099383230e-002
      2.0048282047181742e-001 4.3203662359325205e-002
      4.5414968075965917e-001 2.1580911698631373e-002
      -7.1116117905284895e-002 -2.5807275767311560e-001
      -2.6404875218501062e-001 -2.1204716165824353e-001
      1.3552892947026213e-001 -1.9053112760485147e-001
      -1.3697231019862621e-001 -4.2370042462054683e-002
      -4.2875911749489428e-003 2.5702145071396276e-001
      -4.2507094873184027e-002 -3.3325218374554161e-001
      -1.4453683691316019e-001 3.4214984309290392e-001
      3.2399799429073051e-001 -8.7444267193927359e-003
      2.5534059150790100e-002 1.3355509817023203e-001
      2.3140666504806461e-002 -4.4965273464474716e-002
      -4.7192166721913748e-001 -7.9216407204792921e-002
      1.0893810514875191e-001 -2.7490460096135999e-001
      2.1947275038408204e-001 -1.2138694287980770e-001
      1.2367810610324917e-001 1.2679288622460674e-001
      2.7755477637418718e-001 -1.4729179850861678e+000
      -6.2822746949488273e-001 1.3522899816461229e-001
      1.2313361863122928e-001 -2.8123553616537006e-001
      8.8028459321169858e-002 -8.5895149616787222e-002
      4.3446515362733432e-003 1.9628633896357645e-001
      3.4368986861735584e-001 1.4481762232891687e-001
      -2.2467542238906346e-001 9.0558663495941150e-001
      1.3767880204688862e-001 2.6242294846511743e-001
      -2.8001182462490920e-001 3.6980086874835574e-002
      -7.7521682670158173e-002 4.1661630911648602e-002
      1.5780616932104380e-001 -5.4882425895237574e-001
      1.4112302656760572e-001 2.8874751500530184e-002
      -5.1539008512353983e-002 7.1201674821893601e-001
      -7.6141544057232571e-002 -2.0643740341427252e-002
      7.1341173007667694e-002 1.4276778489510822e-001
      -3.0722539724848709e-002 1.6013219243451060e-002
      -1.3454238705240368e-001 3.3460007985235754e-002
      -2.6530629204398026e-001 9.2050146597150539e-001
      -2.1468723818904917e-001 3.8920646345231780e-001
      -2.8588486779476147e-001 3.4041558561746438e-001
      1.2389648622776109e-001 2.8126564611713306e-001
      1.1108872654044380e-001 1.8769107173072544e-001
      2.9470782183127511e-002 1.9691023347929676e-001
      2.0180713686612207e-002 2.6083139284852969e-001
      8.5529951237409054e-003 -1.5874500615841541e-001
      2.8095778819628214e-001 1.5527719414392460e-001
      -4.1721835583378009e-001 -4.1963040173538801e-002
      3.4940442803746152e-001 -8.5769240162810578e-001
      -2.0573033942527415e-002 6.2491641679184667e-002
      -7.5240025170282221e-002 -1.6458896226613798e-001
      -3.6543995454832244e-002 -3.4008145503474713e-001
      -2.6901993886985459e-001 6.3438522140380804e-001
      1.6039874614978628e-001 -2.7150161119860899e-001
      1.1751590651175979e-001 2.0287733564487193e-001
      1.3906191742121626e-001 -1.1564163089306728e-001
      -1.8248668193521251e-003 -7.6477486682376528e-002
      -1.6057919283810348e-001 1.9359717263839771e-001
      2.8450285436309324e-002 -1.9233366529960336e-001
      2.2259388668457036e-001 1.4723691077854303e-001
      9.4275617369903086e-001 5.1107030348818715e-002
      2.1004399135595145e-001 -1.3541709577610095e-001
      -1.3067305263177895e-001 -4.6891139557564332e-001
      6.9681835029079223e-002 1.6545846774514331e-002
      2.2610327365928623e-001 8.7219857771778719e-001
      7.3801863337434337e-001 -1.0157498112331566e-001
      3.4551882255340705e-001 2.6692397989561332e-002
      -1.0443548334341247e-001 -7.5047222795366753e-001
      -1.3930673820158634e-001 9.3352556500444661e-002
      2.2600674903779805e-001 1.5549136747414774e-001
      9.3614734023217538e-001 1.5785315327027249e-001
      3.4334280960828628e-001 -1.9274746517010284e-002
      -2.2844114982930094e-001 -5.4674942677517602e-001
      -1.5407715161800176e-001 8.4878213049118911e-002
      -4.1481043988013111e-001 4.7841424510262226e-001
      2.0848345545417976e-001 -2.3761422145556979e-001
      1.5157089841987123e-001 3.5910914381474157e-001
      -1.7385831981319910e-001 6.8884150070207525e-002
      -3.1361644278027451e-001 -1.9121067061983413e-001
      3.4049886445379257e-001 5.1378707059169348e-001
      7.4535781351727992e-001 -3.7556506895169900e-001
      6.8995935411724565e-002 1.7865738563107292e-002
      7.3944943736973578e-002 -7.4190592528308663e-001
      -1.1586294853748572e-001 5.1649508158811266e-002
      1.2165062118271441e-001 1.1416040172918479e-001
      -6.1287560645039646e-003 -6.9274330920369623e-002
      -1.6025819467068589e-002 -4.0916640260536499e-002
      -5.2332212637339892e-002 -2.2667136296177198e-001
      -1.1385539479488384e-001 -5.7206569178187297e-002
      1.0072704167168217e-001 -3.6052774576769368e-003
      3.9668019720516812e-002 8.7576828241293550e-002
      1.1122732062401079e-002 -4.1091360310283084e-002
      -1.0541420632641146e-001 1.7642086489002430e-002
      1.1035944359815869e-001 -5.7158497941015118e-001
      4.7468788919729871e-001 -2.1565542294253481e-001
      1.3748129272904774e-001 7.6407334195706680e-002
      2.7111791628157750e-001 -4.5663017651568039e-001
      -2.3321103009809460e-001 -1.2884729195256384e-001
      2.3573148339258035e-001 3.5869651159755017e-001
      1.3674121393164920e-001 -2.4182585372475848e-001
      3.3729620893910919e-003 1.3360630031527393e-001
      2.8156964937908002e-001 -2.2657341094919611e-001
      -1.8543818128658279e-001 8.6904061733292570e-002
      1.6804333917067973e-001 3.5935230879080193e-001
      -3.1251223810570339e-001 -2.7880548238855624e-001
      -8.5843522878094658e-002 1.9450393150178247e-001
      1.2175620064800823e-001 2.1528062978192128e-001
      5.2272636842958720e-001 3.2098212223473566e-001
      -5.5551816966027477e-002 2.2999433342760187e-001
      -3.1371520596306268e-001 -3.0584655800006338e-002
      -6.8375541001687482e-002 1.2627379363263694e-001
      -1.0257885981256423e-001 -1.4370115073036949e-001
      4.5786011589950720e-001 3.1754452735656705e-002
      -1.8359726991052067e-001 8.1382437858888212e-001
      -9.9597110815777989e-002 1.0626171462934247e-001
      -2.4418164805048159e-002 1.3432452051067914e-001
      -5.3188273741690950e-001 -1.8180221381227485e-001
      1.0443480549268923e-001 1.3968586157997143e-001
      8.8481420767683484e-003 -5.2150766857262866e-002
      2.2336036408807436e-001 5.4960313912262200e-002
      1.3205706438014194e-002 1.7346940042440576e-001
      3.4294184912604830e-001 3.3825586850804623e-001
      -5.1535902061060401e-001 -3.6761631040545084e-002
      -9.4541892035309522e-002 -2.9159758256695617e-001
      8.0052383605356034e-002 1.9874431603826831e-001
      2.6204838793617524e-001 1.1764217419801856e-001
      6.9257377426547262e-001 -2.1138892039948068e-001
      -4.8055364902011233e-001 6.2617210965516396e-002
      2.7145476517748862e-001 -6.6006319083799647e-001
      1.9280635781224381e-001 -8.2990166154497225e-002
      3.8628345843449097e-001 1.5817099878217053e-001
      2.5980093360763307e-001 -1.0318444277528317e-003
      -2.2308816193869480e-001 8.6349197486139829e-003
      1.6820196235218043e-001 -3.5329850081571268e-001
      2.2841043914308112e-001 1.4661051905260628e-001
      9.3984426136810462e-001 -1.1805728986479919e-001
      2.0231817226208446e-001 2.2116148714368015e-002
      -1.2571750970567042e-001 -4.5726234334886717e-001
      2.1280774839011720e-002 6.7874316516465388e-002
      2.3157845805501831e-001 8.6905052485643852e-001
      9.4558566203513883e-001 -1.0868903367600684e-001
      3.5200128308123424e-001 1.7448765188627858e-002
      -7.6353090544757266e-002 -5.5184472109258054e-001
      -2.8668172922760016e-001 7.5914082711956821e-002
      2.3132328156596688e-001 -2.4220620769271291e-002
      9.4377616883968396e-001 4.7739997214337776e-002
      3.5167936753016366e-001 -5.3798651846664824e-002
      -1.2688394054092988e-001 -5.5030161509652586e-001
      1.0650372282523744e-001 -2.2702357255296185e-001
      -1.5375378766931827e-001 3.3957910334174063e-001
      2.7681315067608242e-001 2.8160516819773157e-001
      -4.1794496095471917e-001 -5.7815977622066306e-002
      3.2596611644005974e-001 2.0796223636670358e-002
      7.6529642192002700e-001 -1.8084931115470090e-002
      2.1589128911665167e-001 2.0730560331836836e-001
      7.4398177195987170e-001 -5.6694629222537783e-002
      1.5544260463906820e-001 2.9974938811874238e-002
      1.3070834917665973e-002 -7.4981815359339077e-001
      -9.3542242416216087e-002 1.2219771634865788e-001
      1.3825102758249092e-001 9.9124433538639589e-002
      1.4815925207966720e-003 -5.7544873503138125e-002
      -1.3043812097073971e-002 -8.7497724548188840e-002
      -5.3344530595903106e-002 -2.2188766211917182e-001
      -1.4391784944698330e-001 -6.2144404184308416e-002
      3.1192650347713841e-001 3.4031167407093843e-001
      3.7137686506857878e-002 9.7730825512711339e-002
      4.0249512581636655e-003 -3.6366616468685962e-002
      -3.7516720239234809e-002 1.2812005399610893e-002
      1.2670991449036276e-001 -5.8374107640809059e-001
      4.7143962406836687e-001 -1.2760497187343539e-001
      1.3245170577921117e-001 7.6192069080752975e-002
      2.6813167439433028e-001 4.6316078481482134e-003
      -1.2592799027103249e-001 1.2635255617802268e-001
      3.0954830281393897e-001 -1.0134803428250795e-001
      -6.1876879333924842e-002 -7.6726520234430218e-001
      -2.9680930441663511e-001 6.2771434060662254e-002
      2.4055329610610121e-001 1.5803260354569892e-001
      1.8091031302745714e-001 9.8577850527179989e-002
      5.5507955744904636e-001 3.9608173570141630e-001
      -4.0314134584240019e-001 -3.3145032261812524e-001
      -1.8069978066911896e-001 2.2765358864935187e-001
      1.9667710743377231e-001 -1.9024482396301515e-001
      3.5674827218442212e-001 9.5353007825273395e-002
      -2.6372531300584418e-001 4.1867883393945299e-001
      -4.1069114855893418e-001 -6.7635766249112350e-001
      -7.1460494765224855e-002 1.5122636817744187e-001
      -9.0359005474691084e-002 -4.4985345698249474e-001
      1.6412772969186093e-001 2.5332613268576748e-001
      1.1718906873822148e+000 2.1655603111300914e-001
      -3.7847345352396083e-001 -4.2830133993788500e-001
      -4.0461464101454764e-002 1.5490900220986728e-001
      -1.6694128569948360e-001 -1.1446811942869427e-001
      9.4110758435132474e-002 -1.3417797161562428e-001
      1.3635739306692631e-003 -2.1134682896597504e-001
      -2.0666434498178024e-001 1.6407201463362765e-002
      8.9054046562474648e-003 1.3737623396897150e-001
      4.0768355275731027e-001 1.0414050821012107e-001
      -7.8516493402418799e-002 -3.4599203686840496e-002
      -2.1805634458088219e-001 -6.1051047677113413e-001
      8.0756571398522686e-002 2.4322539255226764e-003
      2.5736118586036605e-001 6.6670034172200715e-002
      2.8627832699941108e-001 -2.6330535384458431e-001
      -2.3338097359078874e-001 6.1830772278435281e-002
      -4.5962708308340400e-002 -3.0966969633598973e-001
      1.1466241500283872e-001 -2.3950081713017837e-001
      3.8837504988971749e-001 1.1724467809215675e-001
      3.7530200272633085e-001 4.0836370322859666e-003
      -2.4069897708383753e-001 3.4529500976627825e-005
      -6.2338021333127290e-003 -2.9371777432896756e-001
      -1.1568684403773755e-001 -9.8783811245450992e-002
      9.4247142981386922e-001 -3.1188056900866318e-002
      3.8023733481933564e-001 1.4257787023628952e-002
      -1.2355507315197919e-001 -4.6342116476546780e-001
      2.0759930649642100e-002 7.5658402716426876e-002
      -1.1904833315875071e-001 4.2946136922066430e-001
      7.4036988795449055e-001 -1.9255692113367656e-001
      3.5177693614760686e-001 -4.6758387737459422e-003
      1.8916569491393271e-002 -7.4469684991793372e-001
      -1.4355682908204503e-001 -2.0850331909604294e-001
      -1.9734784264158903e-001 7.2824451668821358e-002
      9.4423442532210444e-001 -8.2455419279773220e-002
      3.4085311005270591e-001 -3.4317035842881438e-003
      -1.3834483416002447e-001 -5.5246271805452096e-001
      -7.6065987709889060e-004 7.4750133089129187e-002
      7.5555826807726226e-002 1.2788557685433535e+000
      3.6943938209164573e-001 -4.7919504157589443e-001
      1.1213392282793759e+000 1.6681772060992300e-001
      -2.8893950914221567e-001 9.5024860932535135e-002
      1.5939768032480017e-001 -4.8615481249293985e-001
      7.5190139121180638e-002 1.2845736564826019e-001
      7.3922540137912696e-001 -2.5433046343590743e-001
      4.6205923473760541e-001 4.5702282602794820e-003
      1.5939119031440678e-002 -3.6018790123024025e-001
      -1.1071615660943933e-001 -4.7150956376602347e-002
      1.1867077786487543e-001 1.0356063819463585e-001
      9.9270801572166737e-004 -8.9154600137837478e-002
      1.9806423846083987e-001 6.4571773138264125e-003
      -5.1588000488408156e-002 -2.2833648737370721e-001
      -1.6748041848805675e-001 -5.5626125581699618e-002
      5.5344076928940056e-001 5.5506074182241727e-001
      -2.9335221646747883e-002 -2.3425579893736059e-001
      1.3886576576143314e-004 -1.8690430755969728e-001
      -5.0039574184306525e-002 -1.2123831220828084e-001
      3.0914807887035034e-001 -8.7830624343637781e-002
      1.9141392451105099e-001 -3.0091091540374437e-001
      -3.7176391604406139e-002 7.4856598332480914e-002
      2.6974020308335711e-001 1.1335196351994287e-001
      -1.2214462815527080e-001 1.3268488231353534e-001
      6.1482113115929181e-002 1.5453083110196866e-001
      1.8213547796713273e-001 -1.3005719170809407e-001
      -1.5128005967587016e-001 2.7799621643922641e-002
      -4.4381558359164755e-002 5.3692477346337375e-001
      1.6803308270698422e-001 6.2701729449554888e-001
      -4.2659973168537840e-002 1.3233443457542232e-001
      -5.3704454891622000e-001 -1.2401918884955193e-001
      -1.7779363079850824e-001 2.2939887876040838e-001
      5.4177277835791599e-002 -9.2624654892777145e-002
      1.1275313178025423e-001 8.9493863814121416e-002
      -1.3227403217015476e-001 4.6335662479824180e-001
      9.9653571853011533e-002 -4.0233086486768266e-001
      -1.7365247658820127e-001 1.5114386395170815e-001
      8.7713385224696835e-002 -4.4899400163307673e-001
      1.4769105614165354e-001 9.5807817861371658e-002
      -1.4936044628151343e-001 -4.2538331036982915e-002
      -3.5167557639789446e-002 -1.2271938902700030e-001
      2.1915833053545114e-001 2.4311564525773358e-001
      -1.7524492351251272e-001 9.7118125608191247e-002
      9.8723869273304496e-002 5.1555509727582828e-003
      -4.1911875272046567e-002 -1.1385177818955776e-001
      -1.9772863528462506e-001 2.6178053326379788e-002
      -1.1929961697547221e-001 5.9234950440256073e-001
      4.0298520770631774e-001 4.5499549951573376e-001
      4.9875036509175702e-001 -1.9274264534274999e-001
      -2.2428255614559939e-001 -4.5893688834082950e-002
      4.8332238088305984e-001 -1.2088537405037413e-002
      -4.0919158177136462e-002 6.2058464942605036e-002
      2.8760280058472965e-001 -2.0152078671852475e-001
      -1.4776059728369173e-002 -6.4727814543660597e-002
      -2.7674998062122390e-002 -3.2902677674536618e-001
      1.5816107188934245e-001 -2.3487539648348493e-001
      3.9744486098161103e-001 1.1434528162891835e-001
      6.5880150919585145e-001 1.0654604180235828e-003
      -2.0237179780573816e-001 6.2015065494328822e-002
      1.5012311725581262e-003 -2.9661128037413836e-001
      1.7082448794339308e-001 -9.1725380963003825e-002
      9.4167124112333767e-001 -3.4513120428522059e-002
      3.8468112345554162e-001 -3.2911061313063691e-002
      -1.1917033992384901e-001 -4.5703584865827296e-001
      8.3299514943919475e-002 7.3407979953406560e-002
      -1.2509343233704640e-001 1.5953904290412441e-001
      7.3994091111524429e-001 -1.9091182458142830e-001
      3.7857761094200548e-001 -3.9040180914638171e-002
      2.2114942667433052e-002 -7.4792396743337108e-001
      -1.5346386087087316e-001 -2.0475354054207631e-001
      1.1940688827850535e-001 -2.2449367711845070e-002
      9.4443778961042857e-001 5.9649208643495051e-002
      3.0502023682973722e-001 -2.1529384671750737e-002
      -2.2485556744553126e-001 -5.4737180661890883e-001
      9.5024766184185386e-002 -1.4457751733464747e-001
      3.1907796640641301e-001 7.9884531300642783e-002
      4.4563896886535403e-001 1.5245888513719003e-001
      -7.2006581789609725e-001 -3.5099647142109329e-002
      9.1147281871553701e-003 -5.0833466519203618e-001
      -1.5984899265812666e-001 -5.2356109379207275e-002
      1.7678429003683305e-001 3.1902166143043570e-001
      7.3651591075958567e-001 -2.5538050386191301e-002
      2.0834445875674620e-001 4.1470216035942396e-003
      -2.8818062556733397e-002 -7.5247311944046380e-001
      -1.0030007798789907e-001 -2.3151975717776430e-001
      1.3355328059454646e-001 9.5016295172244136e-002
      -3.1997842244605073e-003 -8.3504249564781044e-002
      1.9676115859711590e-001 1.3496480822347418e-002
      -4.5362585769844227e-002 -2.2267267178611289e-001
      5.0589043049376239e-002 -5.9057705860982163e-002
      3.0270994968174131e-001 5.5504529892190324e-001
      -3.0467598142120935e-002 -2.3265261087901906e-001
      1.2928380899376082e-002 -1.7646045900912610e-001
      -4.0916296656023317e-002 -1.1714887766492459e-001
      3.1079390958030406e-001 -8.4892567782594047e-002
      1.9306276917121484e-001 -2.1773056069733979e-001
      -3.5803734961831452e-002 7.4713787092308651e-002
      1.4561778758504870e-001 1.2173558349131335e-001
      -1.1229726550981946e-001 4.3749668548006271e-002
      5.5789272937326995e-002 -9.8143136326290265e-002
      3.7596452158451105e-001 -2.0371929646066314e-001
      -3.5647746557528927e-003 5.9971261760423034e-001
      -1.0176139469909123e-001 5.9901639965105691e-001
      3.4691698547653516e-001 4.9727213547677529e-001
      -4.8903893362954304e-001 5.9505453811386089e-001
      -2.3579529745404754e-001 -1.8905821140004461e-001
      -1.7688876090464734e-001 3.2115621981641014e+000
      -9.4941015502944218e-002 -1.2842671347409246e-001
      1.1601766999092875e-001 4.8626877580963818e-002
      -4.6773967213825388e-002 8.6724868320530168e-002
      -2.3989059742605259e-001 -5.4631783922642019e-001
      -1.7462789086650443e-001 1.6838364592198394e+000
      6.8959865143434362e-001 -4.8902811041308508e-001
      1.4130731057961360e-001 3.8554929117348979e-002
      -4.5513324957522507e-002 -2.5211360941644739e-001
      -2.4842297366388230e-001 -3.4081044938889754e-001
      2.0478403937948134e-001 9.3760627887760140e-001
      -1.8982841132484307e-001 4.9569601250775454e-002
      -2.0549247077974764e-001 2.7759322460438912e-001
      -7.0415257213595206e-002 -2.6334463296548272e-001
      -6.4263611127417644e-002 -9.1311137136681722e-002
      -2.6508182759929274e-003 9.3972814495249457e-001
      -8.5818411417290158e-002 3.4115828981028973e-001
      -1.5918695908564394e-002 -2.1876359136262954e-001
      -1.5037572273773574e+000 1.3856623746336152e-001
      4.8945416704236072e-001 -1.1126922727654098e-002
      -2.9353225138092815e-002 2.2648511339494148e-001
      1.6228140562680596e-001 -7.0913019295175697e-002
      -1.8432638127511326e-002 5.2764993001151020e-002
      -2.9845165572472365e-001 -5.1793160059221710e-001
      1.6928825697579647e-001 -2.2560529718368266e-001
      1.2225397885455673e-003 1.3273708097669884e-001
      2.6777475936407030e-001 -7.1797138417316497e-002
      -2.3874603412177159e-001 8.8361394245893184e-003
      6.0082479183440982e-003 6.8797056099190457e-002
      1.6507652415388036e-001 -1.0026571157249059e-001
      9.4043442709361291e-001 2.2686726142634322e-002
      2.4289166634588483e-001 -2.7241160957742394e-001
      -1.1761643540657335e-001 -4.5857945078025397e-001
      1.5321284721784069e-002 6.9425907465230308e-002
      1.7582759257806219e-001 -1.3646685686128443e-001
      7.4039899056657388e-001 -1.4393703916129322e-001
      3.5139795962216908e-001 -4.6146851602015378e-002
      2.9947878321981473e-002 -7.4523647025393813e-001
      -1.5938065976502064e-001 1.0173330410488357e-001
      -7.1859994432591640e-002 1.5342964202585427e-001
      9.3673622769229414e-001 5.8181129664628038e-002
      2.9254396320005255e-001 3.2056645354172703e-001
      -2.3395635264415715e-001 -5.4614114440205741e-001
      3.4400098429568643e-001 -1.5412200065207807e-001
      2.1859175838052769e-001 -7.8837911331425523e-002
      6.4774661985666160e-001 8.1869052440110626e-002
      1.9664536868912416e-001 -1.7220056807975111e-002
      -1.4645732877412401e-001 -7.1378203187433953e-001
      -8.7273569381786251e-002 8.1903248898532302e-002
      2.1433019149397115e-001 1.2263262904132030e-001
      7.3739915943759626e-001 -3.4686800136561551e-002
      2.9150749256219644e-001 -1.0140892270223432e-002
      -9.0559167595266207e-002 -1.7945997077852889e+000
      -1.1523352670748760e-001 1.0022850979581358e-001
      1.3102449656390380e-001 -1.5875493609890698e-001
      -1.1317309512926744e-002 -8.9283254901582940e-002
      2.0000838488263989e-001 1.3620048124141526e-001
      -4.8292274170926047e-002 -2.3021822605890635e-001
      2.7181555040567761e-002 1.0321332874469557e-002
      1.3909721731007996e-001 7.2026012311024956e-001
      -2.0345550154718350e-002 -2.3369988290537946e-001
      1.5646204233338060e-003 -1.7858305032537505e-001
      -3.6399458108207890e-002 -1.1902141114680879e-001
      7.4288029068885014e-002 -7.7069833782996450e-002
      1.9231492711989201e-001 -4.1767275951928184e-001
      1.1506474281223836e-001 -6.6001127430677542e-002
      4.3867757815811792e-001 4.1182533000380238e-002
      1.1344795798205770e-001 4.9498235269984869e-002
      7.3816953900558355e-002 -5.4889429948770704e-002
      3.8623268753133294e-001 1.1156229380926501e-001
      9.0892731367180540e-002 4.3291934382276825e-001
      -8.7410973251976595e-002 8.0899932384375384e-001
      5.5016262252869941e-001 3.2943234857581627e-001
      -4.6047044710827995e-001 9.6496514991303473e-001
      -7.7079935442090255e-002 -1.6432139293674056e-001
      -5.1728126707240293e-002 4.1746312977431471e-001
      -8.8579015699315589e-002 -1.6929468143400889e-001
      -1.1020158687485714e-001 5.0572939313770249e-001
      -1.2520167852067673e-001 1.6868013376997509e-001
      6.3687543486654807e-001 -1.5566439854983583e-001
      1.9031790748918531e-001 7.5004786177651217e-001
      7.8653734375472906e-002 -6.2893763441398998e-001
      -4.8201114977897336e-001 1.3897810338147795e-001
      -1.2243219815556768e-001 4.0213697980471191e-001
      -7.9417428291100961e-002 -1.7090296675668118e-001
      -7.5213511653249590e-002 4.8055789481803562e-001
      -1.4526677413589228e-001 -4.6397823131189070e-001
      -5.4713865080977947e-002 2.1414560454303341e-002
      -1.1633808450252657e-001 -1.7450486569326996e-002
      -2.6300476285167657e-002 7.2030490640984879e-002
      -1.0864121847095108e-003 5.5067188157799218e-001
      -3.1597055932534979e-001 3.3832220926534406e-001
      2.2192930627213371e-002 -1.3013154544419381e-001
      -4.0317741410724744e-001 4.2886995205773598e-001
      2.0988182474777076e-001 -6.8048304344873927e-003
      -7.8307422396633269e-002 1.1970749718903033e-001
      1.5354285331833828e-001 -1.7138594043468086e-001
      -6.1931472352633110e-003 1.3671168619760216e-001
      -9.1632601315202608e-002 -2.0703770558419335e-001
      2.2075309263780982e-001 -2.2623918742429749e-001
      1.6406042158638810e-002 1.2039522373404782e-001
      2.7031519535318710e-001 -1.9038583373966569e-004
      -3.8464586808106960e-001 3.6455998651533766e-001
      3.8755613466374128e-003 -1.8989737793319300e-001
      1.7466064839704329e-001 -9.3748421536868243e-002
      9.3344946728502110e-001 -2.6464324681252302e-002
      2.4682266795619501e-001 -1.2622424913298947e-002
      -1.2512488349647274e-001 -4.6339089485569829e-001
      4.2291246917895864e-001 -2.2629480251145478e-001
      1.7369916099648766e-001 -9.4946642130408543e-002
      7.4505909203263021e-001 -1.5389989761915468e-001
      3.8237228194086609e-001 -3.8897816831584844e-002
      2.5677676739205523e-002 -7.5243225670734415e-001
      9.8504628897252242e-002 -1.4305484274381733e-001
      1.2516754986292877e-001 6.9186379575237308e-002
      9.3414484929115171e-001 4.7438171207037999e-002
      3.5115197961903316e-001 2.7151915326225845e-001
      -2.2657334905660864e-001 -5.5630662570353406e-001
      8.0195640017878844e-001 8.7368880438987009e-002
      5.1589903171059019e-003 -2.8933077841894822e-001
      -4.0549830208833876e-002 -3.4260003123910865e-002
      1.2133859949660890e+000 2.2589711890050340e-001
      -7.7975796015355342e-002 -9.4276080711523114e-001
      -1.1906431895382413e-001 1.0596433706155745e-001
      1.6814559505498944e-001 3.9751873817319022e-001
      7.4770488134308521e-001 5.1286599243971095e-002
      3.5733143645902153e-002 -2.3905922249389037e-002
      5.0494337225870073e-002 -7.4232960699312001e-001
      9.3942624083312457e-002 -2.7909971001947648e-001
      1.3570515769244512e-001 2.2978574344954270e-001
      6.1770175352490676e-004 -8.5883356527336904e-002
      -5.9058118053824750e-002 1.3804940670019272e-001
      -4.1498161278027829e-002 -2.1790976258723044e-001
      5.4848397677626792e-001 1.2725081776100646e-002
      7.1959499367341667e-002 3.0519109359975199e-001
      -2.0371241273011039e-002 1.8483688218472261e-001
      6.5678151389197137e-003 -1.9027725293012795e-001
      -3.7520111044161246e-002 -1.1146564963960519e-001
      2.5384147689437340e-002 -2.3795816030642286e-001
      1.9449163711989897e-001 -1.2278552160752030e-003
      7.3369988494263821e-002 -4.6223250425258065e-002
      4.5081174843656924e-001 -7.4683741529283906e-002
      -6.6709531069993278e-002 4.6968936508598555e-002
      7.4554892197236378e-002 1.0909663147025314e-001
      -1.2372871114081131e-001 1.0686124335615052e-001
      -6.9690667728312991e-002 -1.0015578786515860e-002
      -4.9490592994586250e-003 1.9091179312191334e-001
      1.1166654195839189e-001 9.0022788431769890e-002
      -7.5469197558577034e-002 3.3440448160383673e-001
      3.2622909930724475e-001 -2.5565440559122116e-001
      6.2472184658597579e-002 -8.6886425487743724e-002
      -1.3783036799910340e+000 -2.5415891664821399e-001
      -1.3488662248247868e-001 3.2754218080955433e-001
      2.7636851050616876e-002 1.2267803171659984e-002
      1.7325185695971050e+000 -2.6241133180105225e-001
      3.6181737892494584e-002 -1.8044584883376534e-002
      1.5095381390068260e-001 -6.1755473839659003e-001
      -4.5364690766225474e-001 1.0085004923639697e-001
      9.4196873509239643e-001 6.0410473094033926e-002
      -6.7562111175812872e-002 -6.2911353176792653e-002
      -7.6790171284029443e-002 4.6666465524956668e-001
      5.4566744534516054e-001 7.8523383485444423e-002
      8.4053866707273314e-002 3.9605355421270610e-002
      1.0340552079630508e-001 1.3218534690001157e-001
      -1.7453236765243843e-001 -1.7947696291426760e-001
      -2.8498048701403236e-003 2.2873618702574708e-001
      1.9003973986100564e-001 2.3837553319536137e-001
      6.7744776546554231e-001 -5.2779686626162801e-002
      -3.7428686170522257e-001 6.8883293711890226e-001
      2.0571458139118939e-001 9.2561442438618743e-003
      -7.5807611051917412e-002 1.0169361737917937e-001
      2.8282355739149440e-001 -1.6547363489427602e-001
      -1.3670890358840178e-002 -3.2602288715216296e-002
      -3.3311006181583241e-001 3.3796611847224278e-001
      1.6228714955970405e-001 -2.4567748244042278e-001
      5.5311926440549455e-003 1.1903226179899903e-001
      4.2248960471312086e-001 -2.1177072571812353e-001
      -3.8260662682661384e-001 -1.1026929751110011e-002
      -1.8072799366795123e-002 -1.9590371168166770e-001
      1.7036112526022740e-001 -1.4710610129344562e-001
      9.4084997509383705e-001 -3.5688165364769195e-002
      3.8253874845683500e-001 -6.4631374758963699e-003
      1.4003925889353591e-001 -5.4440733717785483e-001
      3.5389169733282283e-001 -2.0562588478086022e-001
      -1.1429752199144178e-001 1.1282860678327479e-001
      7.4688391674614774e-001 5.1862932114025706e-002
      3.7899078791136148e-001 2.9643237423271507e-001
      2.3015417731973509e-002 -7.3994319679957088e-001
      1.0047257707227271e-001 -5.9383806013492871e-002
      2.3084360068091925e-001 8.6557495451633959e-001
      7.4421870965711567e-001 6.6817921693740234e-002
      1.8251925515163397e-001 -4.0887417810608331e-003
      -1.0064105107307389e-001 -7.4537492792979299e-001
      -5.5683759816166606e-002 -1.2313747316360860e-001
      2.1214401189782695e-001 3.2517665232801501e-001
      3.1133780263071287e-001 -1.9606418389941080e-001
      7.8742452693501247e-002 -3.8295063526485977e-003
      -4.4632486050745386e-002 -8.9159849669442603e-001
      -1.0062276717928392e-001 6.8076315613678717e-002
      1.0440728732114352e-001 -1.9478844382005647e-001
      7.4604976907993448e-001 5.5934759038375789e-002
      3.5638679616426161e-001 -4.0236188446781423e-002
      -5.0790175245799792e-003 -1.5206850624779997e+000
      -1.4342277531962644e-001 9.6869181187214840e-002
      1.3675525534650165e-001 9.7649627276864770e-002
      -8.9204418293586983e-004 2.4539507278680685e-002
      -1.1707570146612634e-002 7.0577187092780366e-002
      -5.2483902514542755e-002 -2.1946989826735791e-001
      1.2796962088924893e+000 2.1800057859113625e-003
      8.0150443273915711e-002 4.8328063022126949e-001
      -3.1018679303586729e-002 7.1246380117798339e-002
      -4.8285777745293842e-002 -1.8070161650440597e-001
      -4.3239899100484959e-002 -1.2424236188554798e-001
      3.2673289732306487e-002 -2.3047937388056963e-001
      2.0176608848461625e-001 -6.4857196828211228e-002
      7.2826941470498868e-002 -5.1747070874719671e-002
      5.6466433230652224e-001 -1.8888664744817640e-001
      -9.3111331274894335e-002 6.8324945668994261e-002
      8.0431531623383137e-002 6.3207524714093716e-002
      -4.8062958758440147e-002 1.7357436468187916e-002
      -7.7692635081130640e-002 -1.5701678495402333e-001
      -3.1200897261428485e-002 5.1589324804489700e-001
      1.9688535562420512e-001 1.0231967975720777e-001
      2.2724952856781175e-001 1.0622154224365696e-001
      4.6067688190962186e-001 -2.4946944717937469e-001
      6.4480105179463579e-002 -2.6127635702513063e-001
      -6.1457996302278814e-002 -1.0368541745074479e-001
      1.0650506589763566e-001 -1.6399762851097344e-001
      -7.6825243867296861e-002 -2.2285424519660540e-001
      8.6538166301970851e-002 8.8901929557636106e-001
      4.8609111720231947e-002 1.6190406416166078e-001
      3.5535504151748931e-001 -2.0371646018708842e-001
      -6.0602797867589664e-001 9.7483341077417712e-002
      7.8384421847609698e-001 4.0919314384323652e-001
      5.1270243343769839e-002 -3.1494572023386452e-001
      -7.5359222021005090e-002 3.4424162399579178e-001
      -1.9803890527425986e-002 -2.2365681125855807e-001
      5.9961247261165052e-001 9.6790517861920555e-002
      5.0534350835705656e-003 -4.3053674915273288e-002
      3.2136954939593310e-001 -4.8808755459454463e-002
      -8.4313122047025305e-002 1.7299433631171759e-001
      1.1203354935726408e+000 -2.7007028779091155e-002
      4.2537382868477891e-001 -4.3147647854829725e-002
      -4.2236142713651652e-003 2.1818798655186453e-001
      -8.3728054527621401e-002 -2.1744455962471137e-002
      -8.3660922395002946e-002 1.2963913555732939e-001
      2.7164857497223971e-001 -2.0883232540126975e-001
      3.1375922327279698e-001 -4.3923214832304720e-002
      -2.2531220978713373e-001 3.3447395788411383e-001
      5.1813609344785044e-002 1.5208438250746054e-002
      4.7566006949550360e-001 3.1934608626809802e-001
      6.1049190548949514e-002 -3.0562117666530159e-003
      -3.8186313398125604e-001 -6.8031741299114171e-003
      -3.6848849432190425e-002 -1.9445016621789896e-001
      1.7043041146088495e-001 2.3212997603290611e-001
      8.9283579446004513e-001 3.6385667955595058e-002
      3.5883651812501460e-001 -9.3409611312371965e-003
      1.1415501771558632e-001 -7.4149545381265969e-001
      -6.1614205163615784e-003 9.2835905183806897e-002
      7.5765076601787940e-002 1.0855301411373137e-001
      7.4245797695432525e-001 6.1681612369770850e-002
      3.6991580906925253e-001 -4.8412364607799104e-003
      -5.4389480357174724e-002 -7.4096377255449675e-001
      1.8362960887070576e-001 -1.2528044978775901e-001
      1.1417907637135097e-001 2.4041942730864521e-001
      7.4276353679114793e-001 2.8769114927031542e-001
      2.8958352564811946e-001 -3.3762670232664195e-002
      -1.7357713807529793e-001 -7.5163498925415062e-001
      1.7820602747945199e-001 9.9107257878161312e-002
      -6.6340591720411513e-002 1.9637220749889811e-001
      5.5203202429920650e-001 9.9403343594184380e-003
      1.4474398261797577e-001 -2.2956927600905851e-002
      -3.6949290302093629e-001 -9.6153163336371306e-001
      2.4841549150775711e-003 -6.4699106745874188e-002
      -2.1814253283728541e-001 1.1308299317622261e-002
      7.4271184371066024e-001 -4.7793914239771675e-002
      3.7967376240668688e-001 -5.6743134542987475e-002
      -1.7735940881150719e-001 -7.4176264183087137e-001
      -1.5510498825078271e-002 6.0764168164382085e-002
      8.8867938666980631e-002 8.6221956313907944e-002
      6.8177095984891037e-003 -6.5536559825082774e-002
      -1.6252560966717657e-002 1.2253986123296279e-001
      -2.3070142227728720e-002 -6.3090317841167559e-002
      1.4879138185538957e-001 4.3705374934623303e-001
      -5.2312951396585192e-002 2.9523731168538064e-001
      -4.9915300167205794e-002 7.1816461728420974e-002
      -4.8906237147580287e-002 -2.0146055297411167e-001
      -1.2866063068197175e-001 4.0706574465819136e-002
      1.0162420285928445e-001 3.1329069049502511e-001
      2.0238316865292805e-001 -6.0905667791470101e-002
      7.3734327933291044e-002 2.5050751212258051e-002
      5.6516956863296108e-001 -1.0663770721702301e-001
      1.5232662509589998e-001 2.8669908449907461e-001
      -3.3482136427552223e-001 1.0981649088347807e-001
      -5.3294895130833582e-002 1.4707412482469520e-001
      -9.4370293734631364e-002 -5.5094818050685923e-001
      -6.5484636873818832e-003 9.0119489133297870e-002
      4.4305101954055404e-001 9.1014217884889448e-002
      -3.4466496137894355e-002 4.6619420548566814e-001
      -8.1564275043929463e-002 1.0834155887992944e-003
      2.1463017259551873e-001 2.2442213842972189e-001
      -4.8872276746576009e-002 -1.6232669591626941e-001
      1.7216186391495839e-001 -1.6923447621143545e-001
      -9.8486056925624260e-002 1.0839139456254960e-002
      -7.2322908006186154e-002 -2.9026906175346506e-002
      8.3237625341943247e-002 3.1504165684352819e-001
      -7.9507425538646467e-002 -1.7948308227785129e-001
      -8.4709823204355342e-002 -6.2105626736306832e-002
      2.1979927768493498e-001 8.9062843914492346e-002
      3.8673301541316774e-001 -2.5967164391460607e-001
      8.3309293543635324e-002 1.6570709595825120e-001
      1.3875438954972978e-002 -4.5454809086169300e-002
      1.6082721100570465e+000 8.9487116440042536e-002
      2.9577316172627818e-002 2.4442507575535444e-002
      -5.6826466366250210e-002 -4.1369447853104196e-001
      -6.9319581707925168e-002 1.4762577883305128e-001
      5.0595754304827534e-001 -1.6182429208909202e-001
      1.1943346973510356e-001 -5.2363677467651179e-002
      3.1381192111580768e-002 3.1520652330549670e-001
      -7.5503351240215699e-001 -4.9905699871271532e-002
      -1.6371849433222896e-001 2.0236847724100404e-001
      4.0954215207631456e-001 -1.9290936307875459e-001
      5.3083918368213423e-001 1.7383929948527618e-001
      -8.5437132968064999e-001 -3.3218612873623730e-002
      -5.7325704121848287e-002 7.4143294557791561e-001
      4.7617447637102411e-001 2.6957721262403678e-001
      5.8756541431470605e-002 2.2507977816780261e-001
      -1.8174009389576370e-001 5.3076785467856970e-002
      -1.3053561487536935e-001 1.2064953431973939e-002
      9.8809131978707831e-002 -3.2184941331280761e-002
      5.8776366769680988e-001 6.3365532468969379e-002
      3.3431334003468249e-001 -7.7657104419790624e-002
      -1.8353436804569770e-001 -7.4834662687596876e-001
      1.7939197791780820e-001 1.0339217713049866e-001
      9.5332065175194880e-002 -1.5371147937342849e-001
      9.3912650579795565e-001 3.2939121271765855e-002
      2.3768963192292858e-001 -7.6614103115325627e-002
      -1.9464264735623960e-001 -5.5165001762972166e-001
      1.8594247479330742e-001 1.6162142026627319e-001
      1.2494952926490191e-001 2.3014695608970134e-001
      7.4803417837916519e-001 -2.3928484550484033e-002
      3.4914432180189403e-001 2.5056418809030336e-002
      -1.7886995688447604e-001 -7.4901433798466899e-001
      3.0888196744743351e-001 -1.3945663160716321e-001
      -1.9807099782763249e-001 9.3510920730474012e-002
      9.8039400167115343e-001 1.7680388120820838e-002
      -4.6094878623475172e-001 3.9507890818047264e-001
      -1.6985026295729139e-001 -6.1257646567657598e-001
      -1.2983496967563982e-001 3.3142837964792823e-002
      8.4903856382000348e-002 1.4030174850701888e-001
      3.6947649668571936e-001 8.5305232455945360e-002
      5.4223648465213969e-001 -4.9302397274690081e-003
      -1.8420060792033291e-001 -1.3221106182863188e-001
      -5.1518479776916676e-002 1.3832410046200344e-001
      -4.4894439645423839e-001 9.5432159300690100e-002
      -2.9714331884935434e-002 -4.4406877831272312e-001
      -9.5156303924951016e-002 1.5816980125836611e-001
      3.0306073182320775e-001 -7.0977117773475151e-002
      1.5576394159998305e-001 4.3699876727163950e-001
      -2.0736902059097978e-001 1.6236652609181604e-001
      -4.5385669467615845e-002 3.0114687023056284e-002
      -5.1373412265824286e-002 -6.7950744856766179e-002
      -5.7134021732976548e-002 4.4791216328054151e-001
      3.7178305308942927e-001 4.4232498370180773e-001
      -1.0899666382599515e-001 -2.9948714202829474e-001
      -1.2340140192875582e-001 -1.1628793104477034e-001
      1.0213452026812417e-001 4.4738803818260259e-002
      1.4585488329805110e-001 3.2259067430347643e-001
      -2.6338150767410201e-001 -9.4285048682651446e-003
      -1.5991708554221493e-001 -1.7648310064142964e-001
      -8.1662529106052484e-002 -4.8748297749177832e-001
      -8.0528376910389728e-003 -4.4430690807934553e-003
      6.2644635717182995e-001 3.2549225593243908e-001
      -4.6461662660249115e-001 8.4389990656532510e-001
      -1.2763847597913747e-001 -5.1294999321631685e-001
      -8.5248329431123218e-002 1.2123586753811316e-001
      -5.0398746577286768e-002 4.5876375718442020e-001
      2.6704097391830750e-001 -1.6161097845774214e-001
      -3.5743232901319943e-001 1.2034128683485557e-001
      -1.5910738578938505e-001 -3.0246268489881822e-001
      2.0690469772517697e-001 -1.5679364909720200e-001
      -4.9636628167327335e-002 2.4674062499112520e-001
      4.3993274349813682e-001 -1.6984012827168854e-001
      -5.1665018864571222e-001 3.3253930473795235e-001
      -2.9093154044317521e-001 -4.2887907606967313e-001
      -1.6420079664408832e-001 4.9985318271786799e-001
      -7.4657658428952237e-002 1.4585296995910590e-001
      5.7995040416306431e-001 -6.9369921345242322e-002
      -1.3267241592656442e-001 7.4461932958373511e-001
      -4.6599446326445215e-001 1.0559799732249038e-001
      -3.7943850614032393e-001 3.0240024218340533e-001
      6.3366838578859622e-002 -3.8392809018963352e-002
      6.1088756231599772e-001 -4.7760174744971358e-002
      -1.1152244068458771e-001 4.9584124284115977e-001
      -6.7395912120828627e-001 1.2167887016585897e-001
      -2.8901787290760139e-001 1.8394719540066734e-001
      2.3064560434491971e-001 2.3964070540896598e-001
      3.3941246931211766e-001 1.7316720946137812e-001
      -8.0170740227352355e-001 5.4016900662398212e-002
      -4.7873648811412117e+000 3.6801861568122030e-001
      4.4329036147918388e-002 1.6620780434989335e-001
      -3.3137361317647773e-002 4.9050181440546392e-001
      3.1271483950157011e-002 1.6824664188151875e-001
      -2.6528639374405479e-002 7.4032070866498715e-003
      9.9917807469226516e-002 -3.2478777397857331e-002
      8.3779000818273808e-001 6.2727409836329032e-002
      3.3343437290326472e-001 -5.1000235178793547e-002
      -1.7318725894507500e-001 -7.4106108007367333e-001
      1.7464945043616154e-001 9.5117662956495277e-002
      9.7503638648935020e-002 -2.8575999275023141e-002
      7.4893228887786278e-001 -2.4436559866706126e-001
      3.2681434407590132e-001 -4.6236127124043534e-002
      -1.7624215189078943e-001 -7.5422465651149773e-001
      -1.1216003148137409e-001 9.1675969478121969e-002
      1.2116302839885043e-001 7.3996170024010835e-002
      9.7862090798771595e-001 -9.9912759887644254e-002
      3.3636429919543476e-001 -4.7050883783860312e-002
      -1.8428301644741749e-001 -7.5244461458939726e-001
      -4.4358349270644540e-002 9.2044334556511662e-002
      9.9098645325433166e-002 6.2584495934048812e-001
      2.9108318827745200e-001 5.0442923857890801e-002
      2.1565850795742325e-001 2.4475627519911388e-002
      -1.1532322914397505e-001 -2.0954955964964195e-001
      -1.9515831350514481e-001 6.5833247567412545e-002
      -3.3561433716074646e-002 -6.2134512359872829e-002
      4.0986303184015038e-003 -7.7144667241173512e-002
      -8.7070840361552965e-002 -2.3283726227133869e-001
      5.0198630026770052e-002 -2.0430627713439248e-001
      -1.6792495765489174e-001 1.9628963541839722e-001
      -5.1742778857487494e-002 -2.3247545104883569e-002
      -2.4089400463247417e-002 -2.7007293727112935e-001
      -6.4661721777579173e-001 -1.4654974568719281e-001
      3.5729462507274440e-001 1.7968970965163042e-001
      -2.8293282156271782e-001 4.5774023045538792e-001
      2.9538971639919136e-002 -3.2258875337729498e-001
      -7.4989300110141058e-002 -5.5763392361611361e-002
      -3.2911963962731644e-001 -3.8074137857508300e-001
      1.0362807316053796e-001 1.3945635285958441e-001
      -2.1408917481481948e-001 4.8574460528930508e-001
      -4.1704955864049431e-001 -1.3008254713464740e-001
      -1.3495068142095035e-001 7.5932238599107207e-002
      1.1373982169447125e-001 -1.4174158493642309e-003
      1.4071728708027534e-001 3.3485753935657103e-001
      -4.0857460356633096e-001 -1.4939803612459157e-001
      -1.2751480351624603e-001 -1.7037068895944471e-001
      -7.4614068956892390e-002 -1.7526681573603134e-001
      1.2569221791102939e-001 -2.1795892365870451e-003
      1.2760065896270514e-001 4.4067817673472043e-001
      -3.6452889218855217e-001 5.4370792799522616e-001
      -5.4769872407595654e-001 -8.7802955627884705e-001
      -9.0917856735980102e-002 -1.8326588170254307e-001
      -1.4020084289756662e-001 5.0555077035976015e-001
      -4.0369504746713601e-002 9.5333578717164663e-002
      3.7903414075200897e-002 -5.9085494836494459e-003
      -7.7452735482294408e-002 -1.4201275318466633e+000
      -3.0528648977100564e-001 -2.3581012922436356e-001
      -1.0354727527749377e-001 5.7101403362391639e-002
      -6.0398661585369134e-002 9.4629289907897290e-002
      -3.2662405857467958e-001 1.6035439555839154e-001
      -1.7270051331175740e-001 -7.2141764386864515e-001
      -5.6361147578409487e-001 2.9855060313157611e-001
      9.9416574346973138e-002 8.1460025043692732e-003
      4.3049409991487997e-001 2.5037744460616534e-001
      -1.9593398189001651e-001 7.4318325152036013e-001
      -1.8663895532852698e-001 1.9450505633790599e-001
      -2.9433532085658587e-001 1.5277977991401379e-001
      -1.2051887164353012e-001 -6.9358580883195969e-003
      1.2200676797181161e-001 3.3769585176800160e-001
      -3.7750717888407781e-001 1.2629291986694477e-002
      -5.2431291469929420e-001 1.0310946447338705e-001
      -2.9602476764683838e-001 2.2870838123168286e-001
      -1.3030202446141462e-001 8.3582564262791620e-002
      1.0805336307644166e-001 1.3935299077457421e+000
      -3.6317563894472465e-001 7.6734008777575215e-003
      -4.1152920360351047e-001 -2.0005945948886861e-001
      -2.9165824759940806e-001 -9.9815155779139644e-002
      -1.6105331229960707e-001 1.6450314801428445e-001
      1.5131242717041080e-001 9.6098602407169176e-001
      -6.6866608284212081e-001 2.1448325409551630e+000
      -1.1100391974846709e-001 -2.1964288890014019e-002
      -1.2235161645351839e-001 -3.8917326081853204e-001
      -3.7592998759317098e-002 6.9992464432056312e-001
      2.2025361100576532e-001 -2.3008849051368546e-001
      -3.9424445877357767e-001 9.5586091737032042e-001
      -1.1931915020605199e-001 2.3106471577879759e-001
      5.5434191088530926e-001 -3.2089869125983328e-002
      2.0892438716470060e-001 5.7537858435202345e-003
      -1.7856174938294103e-001 -2.3989357301034880e-001
      -4.4522575841316352e-002 9.1518491019897605e-002
      1.6483139784413819e-001 6.3875009607140043e-002
      7.3638327509085399e-001 8.2474412523309809e-002
      3.0295880823772864e-001 -2.1237771714587786e-001
      -1.7364569391228671e-001 -7.4892882943706940e-001
      1.1364012887429113e-001 9.5769359236180449e-002
      -1.5542442737130774e-001 2.1447812040368899e-001
      6.2882420774474168e-001 -5.6297413200743884e-002
      4.6879331667613176e-002 -7.3213642183310890e-002
      9.4889066015078169e-002 3.3855419694028062e-002
      9.6150442182992013e-002 -2.0096695434860601e-001
      -5.0072334752557912e-001 7.0355791712292082e-001
      1.9641736418775824e-001 -4.8869185660421666e-001
      -8.7631773434659985e-002 -1.2119785664373031e-001
      1.5763673804745397e+000 9.9408822218380322e-002
      -4.8327799159098528e-001 -1.3240884175706616e-001
      -4.8229765933230175e-002 -2.4676290974582543e-001
      -2.0175379952638899e-002 -2.1759703846661629e-001
      -1.9100048689479376e-001 -1.2791604128365505e-001
      3.5707476833929414e-001 1.7855230902846272e-001
      -2.8206767054297588e-001 4.6711371452566441e-001
      2.6762948616841913e-002 -3.0562526237128285e-001
      -1.0150302150027229e-001 -9.6518202498890190e-002
      -3.3384278723921840e-001 -5.0572931887643802e-001
      2.3586699250937768e-001 3.9991196427691701e-002
      -9.7049659173595604e-001 5.1558698678224402e-001
      -3.2008053368960010e-001 -1.8064964712583589e-002
      -1.7481004514354564e-001 1.4237265502171845e-001
      3.0521077368869509e-001 -1.6371248838998815e-003
      1.0102878079046736e-001 3.3050632430685467e-001
      -2.9784003962440869e-001 2.3055457539375762e-001
      -1.0500458180685662e-001 1.1069275310711729e-001
      -4.5049754907173820e-002 -6.6878254554823158e-002
      -3.3556794105189636e-002 -6.9659585269018619e-003
      1.0134712885903509e-001 2.6079357483796803e-003
      6.8945213775296929e-002 -1.0617652483896896e-001
      -5.8121164566176919e-001 3.0150594670892084e-001
      2.8119050689539717e-002 -9.0196706698203552e-002
      6.1580293979373625e-002 2.2104884920753934e-001
      -1.6893637805576300e+000 -2.3441001030574241e-002
      3.4687980595893131e-001 -6.2169801442183570e-001
      -5.6622122093204685e-001 -2.7953285516336918e-001
      2.1106610691476131e-002 -3.4129590126839499e-001
      -1.4521790053143624e-001 4.4263817929547816e-001
      -8.4311596572076242e-001 -1.2131138672804770e-001
      -5.2103802503952572e-002 -2.3486377632642325e-001
      -5.6798203638704559e-001 1.4791428088055106e-001
      -2.8491727933333710e-001 -3.4024978074356865e-001
      6.1557169047792605e-002 4.1795814454762731e-001
      -2.3424658203605916e-001 -2.2675741577252065e-002
      5.2324298718418372e-002 -1.7414779689582893e-001
      -2.1584054918424958e-001 1.4998482445873160e-001
      -2.1194565710567007e-001 7.7246503984949158e-002
      1.6210973642335501e-002 -2.1656316758547726e-003
      1.3179021782240508e-001 -4.4799529448902291e-003
      7.4615179128064327e-002 -1.5224559604290014e-001
      -6.0348773626993768e-001 -5.2793591998504397e-001
      -2.8999970331427827e-001 1.7853643939914207e-001
      -1.2365368495752806e-001 -4.1797435217165141e-001
      9.3105149360483364e-002 6.7584733079602022e-001
      -1.4098723744815359e-001 1.5179967815575313e-001
      -2.9415204507419723e-001 -2.0235451490863703e+000
      -5.4063587498964373e-002 6.9768289014137494e-002
      -1.4447622881976344e-001 -1.3183536588736558e-001
      1.0989981272936199e-001 1.9906432942961660e-001
      -2.9227062798068071e-001 1.6002639294817993e+000
      -1.1697385415443072e-001 -4.2001452092940750e-001
      5.9857072679146361e-002 -1.5416264176837421e-001
      -4.6145079379364504e-002 7.7575674597862229e-002
      2.8456473748293454e-001 -2.3810818267773415e-001
      -3.9857625144162084e-001 4.7626813410750435e-001
      2.2727504666132126e-001 1.4971069608008583e-001
      5.5955454609926103e-001 7.0138280722999366e-002
      2.1308917883136855e-001 -2.2998392836836391e-002
      -9.3670285259678354e-002 -7.4072805343719272e-001
      -1.8066328028990802e-001 9.3872274021438176e-002
      2.2194279964654356e-001 3.2851161926387001e-001
      5.6059322973010883e-001 4.4214280634351802e-002
      2.0289912354344264e-001 -3.3433236749549136e-002
      -1.0214078949297833e-001 -7.4177470055254602e-001
      -1.4933345230101019e-001 1.0508701632854674e-001
      1.3943631466283440e-001 3.1910597803608798e-001
      6.7414075724603872e-001 -4.8797457616164408e-001
      -1.6047315758727154e-002 1.3777482706110565e-002
      8.7650843248349319e-002 -4.2236154157250333e-001
      1.0741927079875323e-001 3.6568062157137721e-001
      -1.8402632281559142e-001 -2.7027944933680687e-001
      6.7169819559661642e-002 -2.2695440382029253e-001
      -3.6308957563577965e-002 7.0959409527465778e-001
      6.2957473234699834e-001 -2.9180589168709536e-001
      -1.1072797858373139e-001 -4.0435610995496717e-002
      -3.1276393134904656e-001 -1.6842418734850234e-001
      -1.7786209772904328e-002 -7.5788850857238257e-002
      -2.2730622692273900e-001 4.8476555377656033e-001
      3.4835680648211204e-001 3.7950357486766606e-001
      -2.8421644026549953e-001 3.3392525966911796e-001
      4.1982909860944356e-003 -4.3049391589502095e-001
      -8.8456788506457079e-002 1.1562722285597081e-001
      -3.5397077965793072e-001 -1.3514501716328353e-001
      4.5824656878013620e-001 -3.9333420881055785e-002
      -4.9586580686385268e-001 4.2378307970565915e-001
      -3.1622401560231977e-001 7.3811308762276512e-002
      -1.2297945701667082e-001 3.0366889641948991e-001
      -1.4624610544861942e-002 -5.3945095617082030e-003
      9.2767599358766495e-002 6.8471992667119563e-002
      6.4472039436702863e-002 5.7644431457931977e-001
      1.9777022446188836e-001 7.7714211632602351e-002
      -1.2232353398805076e-001 -9.0825089647068355e-002
      1.0998930966363453e-001 2.1287565257394080e-002
      -1.0160591594560963e-002 -9.3426087271674119e-002
      -2.2150495356973668e-001 -1.0302626723543216e-001
      -2.9447555719076501e-001 2.4409904129526757e-002
      -2.7671147509532479e-001 -6.7530385428744921e-001
      1.4088741499709762e-001 1.9337760656372691e-001
      -2.9343970602323272e-001 -8.6191405188960402e-002
      2.0953748110641587e-001 -2.0993532864352002e-001
      -2.8577832901190470e-001 2.1156727508599558e-002
      -2.6702155405965544e-001 -6.7304484414872756e-001
      -1.4739200606856429e-001 5.7457921641366727e-001
      -8.6748770935529088e-002 -8.9185538199365921e-002
      -8.1490889147534922e-003 -1.9596165676485625e-001
      -1.6083232994355962e-001 -2.3277225989091968e-001
      -7.5552985076997994e-002 -1.6469078839786069e+000
      -1.4792960958227383e-001 1.2090527564577595e-001
      -1.8529224644346501e-001 -9.0248116199656225e-002
      5.5179499638780327e-002 -1.4690146775411139e-001
      -1.0023727024108439e-001 -4.6696179728220299e-001
      -9.5584385628028790e-002 -5.5367584184739149e-001
      -3.2972056339489338e-003 2.9143844602664273e-003
      2.3053882887277131e-002 -1.5370564093030964e-001
      1.0092781674723254e-001 1.5890611142823666e-001
      -7.2678815019171006e-002 -3.5789212287353123e+000
      -2.7780469234957000e-001 2.2379997543855559e-001
      -4.6723462316392628e-001 -8.3202472825496221e-001
      9.3137995876234933e-002 5.4597990279880430e-002
      1.9146541589637744e-001 2.0188122972888647e-001
      -6.7252534881929699e-002 -3.0310367385282921e+000
      -2.1359053547854993e-002 1.5162343643174220e-001
      -2.4623359074603779e-001 -1.2259972074270012e-001
      2.4762468348779981e-001 -6.4074559743330428e-002
      -1.0851519746231583e-001 2.1372238067422883e-001
      -1.3607498972029605e-001 -2.7387197823392739e-001
      6.9918587691537651e-002 -1.5379662938335500e-001
      -4.1006624112882181e-002 2.2319276864719959e-001
      -1.2669687236061714e-001 2.0464504990066620e-002
      -4.8949318108661871e-001 4.6185356490730306e-001
      -1.9207899786183927e-001 3.3505840104900747e-001
      5.5640666589169219e-001 5.3239143830844181e-002
      1.9460345291691286e-001 7.5620149947873330e-003
      -1.8509084988782651e-001 -7.4154749858370550e-001
      -5.1530496771648934e-002 -2.0640273484368468e-001
      2.1952103191382871e-001 -2.3685143202850520e-002
      7.5120814483229381e-001 9.2365473390366951e-002
      3.4812671597695216e-001 3.5199346341308468e-001
      -1.8097874016257520e-001 -7.4628616563590622e-001
      -2.4234336138324347e-001 -1.0433846029707329e-001
      5.1863498422621901e-001 4.9347617486290428e-002
      -7.4757501311830576e-001 2.5970866424422616e+000
      -3.8241064031566707e-001 1.6549406467322678e-001
      -7.2585693131365325e-001 7.4966694513509879e-001
      1.2045580635089814e+000 -1.9187471372162495e+000</_>
    <_>
      -5.5586679099095604e-001 -4.7566397909448632e-001
      -1.2903974831719547e+000 -1.4281457423440780e+000
      1.4860604645874542e+000 7.8949920550203823e-001
      8.6686252503998182e-003 1.7594666000540784e+000
      -8.1126449629273711e-001 9.4083125356100028e-001
      -1.6680318449035178e-001 -8.9196140179217254e-001
      4.6984595582792632e-001 -9.1821903648217451e-001
      -7.8920832585766398e-001 3.6002916871079926e-002
      -3.8250753674890597e-001 -1.1089965194583058e+000
      -1.4994762600964537e-001 5.0981533351526720e-001
      -5.0591251671577586e-001 -5.9270930731008797e-001
      -6.8203521430102498e-001 -1.8642822675227000e+000
      -4.7744684343311450e-001 8.9103351560757038e-001
      1.5150242184486211e+000 6.7412072268783196e-001
      -2.0160753314442985e+000 2.0555449259683738e+000
      8.3953644418193962e-001 -4.9432067005421015e-001
      -1.2814246931685920e+000 -6.8318465962137331e-001
      8.1444541614590327e-001 -7.7458907521320242e-001
      -6.2814431129824522e-001 6.0735848791690183e-001
      -2.4785522531875731e-001 -2.2951567825646652e-001
      -3.1799623758745912e-003 3.5641808114967982e-001
      3.8145462245889900e-001 -1.2946064305154110e+000
      6.5776247248371655e-001 -8.4146717231110210e-002
      7.8930923829706748e-002 -1.1128970112500756e+000
      1.9994048942732806e-001 -2.5384405660903081e-001
      1.0352033762596384e+000 -4.0310887806238083e-001
      1.5582993531166636e-001 2.0356323390990191e-002
      1.9163921657013916e-001 1.2522610985635924e-001
      2.3333835511074690e+000 6.0578115944246647e-001
      6.6531573703883418e-001 9.6684910196999740e-001
      -2.9637945741572230e-001 7.1830005275780573e-001
      3.7182683288928270e-001 1.1818822606332074e-001
      5.3034507934448571e-001 1.7949995371084797e+000
      1.2407667050019577e+000 4.2650403480835314e-001
      1.8825863290044402e+000 6.2120112308236608e-001
      7.4702952543802859e-001 1.0049044780748537e+000
      1.2432169008616318e+000 1.1737952964737466e+000
      -2.1011685593260379e+000 -1.4858165473417835e+000
      -1.4441354697261872e+000 -1.0921993632850433e+000
      -2.4757463225127829e-001 -7.5402101100435215e-002
      -3.2717764559078013e+000 9.4619328545137338e-001
      -4.5369626703039082e-002 -2.2371911377711606e-002
      6.2126061467275095e-001 1.9822527921871258e-001
      -4.1827415409660684e-001 2.7054672617618775e-001
      2.5076233776131696e-001 -7.7473693716439784e-001
      -1.9420554422890055e+000 9.4811130572307889e-001
      1.5507343820275572e+000 4.6164623298110902e-001
      3.6394389887441347e-001 -8.4419921419518074e-001
      6.0663369993163285e-001 1.0730395659955794e+000
      -2.3133710209390565e-001 8.7373780945285817e-001
      -4.5930400910916092e-001 4.6977233738046453e-001
      -1.6039588811178375e-003 -9.4899756004514568e-001
      5.6094683571721626e-001 -1.7896191816345834e+000
      -1.8524385587733245e+000 1.6646785069205396e+000
      1.7946906646593830e+000 -2.3237090396748367e-001
      4.4295442826763687e-001 1.9217616214579575e-001
      6.9527252034423204e-001 -2.3312156635934222e-001
      8.7753609662160936e-001 -7.2897558485074920e-001
      1.0547050225579992e+000 1.7940468344770527e-001
      1.3445452022577700e-001 -7.5134452205125851e-002
      1.7515319534011655e+000 1.6236025327811603e+000
      2.6165854997689313e+000 -1.3143172830907819e+000
      9.3132328142067244e-001 -2.6992971566511648e-001
      -7.1743345177451345e-001 -1.4995164968080845e+000
      1.7668363579241677e+000 -9.7525958023849413e-001
      -6.4704041565345793e-001 -4.8691647663445303e-001
      -2.5769059079464163e+000 -2.9287923179855213e-001
      3.5280654638849851e-001 3.9132423534964217e-001
      2.8367416146856161e-001 -2.0367330736274498e+000
      -1.4304477739834685e+000 1.7327747773720321e+000
      -8.6666103687859741e-001 -6.4342256677249166e-001
      -2.0546390018276187e-002 -8.8994321257946851e-001
      1.6158277004840609e+000 -3.4446899449342074e-002
      7.2192098448604902e-001 9.5815897261270966e-001
      -4.3550587943532271e-001 2.0931943528276098e+000
      3.0117430182445903e-001 -5.5517482860996170e-001
      5.3406273275941024e-002 1.5543565341004488e+000
      8.1358218443707264e-001 -7.8287423413859814e-001
      9.9759214826662412e-001 5.8926884848147199e-001
      3.7801923009652204e-002 -5.8236311050143896e-001
      9.4306014257087578e-001 2.3923808547816652e+000
      1.0497844116061898e+000 -3.8337150300447337e-001
      6.4840651682813222e-001 4.2111779289772333e-001
      1.4227740408081821e-001 -9.0843411643981931e-001
      -1.5208016538126756e+000 4.8819507506584697e-001
      7.4691120362000063e-001 -1.3844846299876765e+000
      -1.1529782530280845e+000 3.9661280523746245e-001
      2.5009170191608837e-001 1.2200877601110756e+000
      -5.1874682635632097e-001 8.9209561103153687e-002
      -1.0264903808248045e+000 1.2840077088790156e+000
      -1.3516718746284098e+000 -4.8643887686175508e-001
      -6.7408571565348707e-001 1.3558135128816584e-001
      -4.1398866909403481e-001 -6.2979648819173706e-001
      -6.8703111708928744e-001 -1.6386069849173843e-001
      -5.3907951972900092e-001 -7.7256433605434227e-001
      -4.7796908786250925e-002 -1.7837132640905451e-001
      -3.7459163987213495e-001 -6.1750449276452357e-001
      1.7617278688882649e+000 -2.2020044353736443e+000
      3.0190749684534812e-001 3.5465886963472487e-001
      1.2895335438879957e-001 -2.9342106480549717e+000
      -3.1122294843756402e+000 8.5441778807473057e-001
      4.3482776042277953e-002 2.4313121717163441e-001
      1.9243160967368719e-002 2.9250085845221663e-001
      3.2676976937639690e-001 3.9506065759889697e-001
      2.9440420299813747e-001 1.7245702677127089e-001
      4.1780243926216687e-001 5.4569020991225381e-001
      -2.5281326503234807e+000 3.6888682440940557e-001
      3.2687021228920121e-001 5.7938688027116514e-001
      2.8893632203151598e+000 -7.3724979379819144e-001
      -7.2547889976875335e-001 2.4862671390306967e-001
      8.9204381036541869e-001 2.0317479994873793e+000
      -2.6518167010343024e-001 5.5277561821803226e-002
      9.5278710201399636e-002 -4.5428464077578862e-001
      1.2097953771717945e-002 6.5597311167197470e-002
      2.0886531405260462e+000 2.6034628511130892e-002
      1.6174928105812891e-001 -4.3771257603430778e-002
      -8.4803823840910508e-002 -3.7135349010873370e-002
      6.8847524085613399e-001 -1.0459412848833578e+000
      7.6455087497448482e-001 7.3083569410323601e-001
      -7.7841259886527167e-002 7.8384676360790684e-001
      -1.6271959914259291e+000 -4.9068060379833156e+000
      -5.2343314072261986e+000 -3.4141687054205332e+000
      -4.2157872478245961e+000 -2.7797638417439456e+000
      -3.2120436953323535e+000 -5.7050909424713430e+000
      -4.0638428092566583e+000 -5.4790365460943757e+000
      -3.1501322337172311e+000 -3.7129391649531227e+000
      -2.6650519010065556e+000 -3.1276862856248102e+000
      -2.9102206111204554e+000 -3.8526059935808403e+000
      -3.3853122652382019e+000 -2.2974154558516338e+000
      -3.3955796230207054e+000 -5.0006564972965872e+000
      -4.5544978568912748e+000 -3.1395968593127912e+000
      -3.4445064176007500e+000 -3.7588486382179975e+000</_></weights></my_nn>
</opencv_storage>
