<?xml version="1.0"?>
<opencv_storage>
<my_svm type_id="opencv-ml-svm">
  <svm_type>C_SVC</svm_type>
  <kernel><type>RBF</type>
    <gamma>8.9999999999999997e-002</gamma></kernel>
  <C>10.</C>
  <term_criteria><epsilon>2.2204460492503131e-016</epsilon>
    <iterations>100</iterations></term_criteria>
  <var_all>440</var_all>
  <var_count>440</var_count>
  <class_count>6</class_count>
  <class_labels type_id="opencv-matrix">
    <rows>1</rows>
    <cols>6</cols>
    <dt>i</dt>
    <data>
      2 3 4 5 6 7</data></class_labels>
  <sv_total>9</sv_total>
  <support_vectors>
    <_>
      2.00000003e-001 3.00000012e-001 2.50000000e-001 2.50000000e-001
      2.50000000e-001 4.50000018e-001 4.50000018e-001 6.00000024e-001
      7.50000000e-001 8.50000024e-001 8.00000012e-001 1. 8.50000024e-001
      9.00000036e-001 6.50000036e-001 4.00000006e-001 0. 0. 0. 0.
      5.00000000e-001 3.57142866e-001 4.28571463e-001 2.14285731e-001
      3.57142866e-001 4.28571463e-001 4.28571463e-001 4.28571463e-001
      6.42857194e-001 7.85714328e-001 7.14285731e-001 8.57142925e-001
      7.85714328e-001 7.85714328e-001 8.57142925e-001 8.57142925e-001
      8.57142925e-001 1. 8.57142925e-001 6.42857194e-001 0. 0. 0. 0. 0.
      0. 0. 0. 0. 163. 253. 255. 255. 254. 53. 1. 0. 0. 0. 0. 0. 0. 0.
      0. 0. 0. 0. 0. 0. 0. 255. 255. 252. 192. 19. 0. 0. 0. 0. 0. 0. 0.
      0. 0. 0. 0. 0. 0. 0. 1. 252. 253. 3. 4. 0. 2. 0. 0. 0. 0. 0. 0. 0.
      0. 0. 0. 0. 0. 0. 204. 255. 254. 0. 0. 0. 0. 0. 0. 0. 0. 0. 0. 0.
      0. 0. 0. 0. 0. 0. 203. 255. 255. 0. 2. 3. 0. 0. 0. 0. 0. 0. 0. 0.
      0. 0. 0. 0. 0. 104. 255. 252. 255. 52. 0. 0. 1. 0. 0. 0. 0. 0. 0.
      0. 0. 0. 0. 0. 0. 194. 255. 255. 252. 252. 3. 0. 0. 0. 0. 0. 0. 0.
      0. 0. 0. 0. 0. 0. 0. 254. 255. 254. 255. 255. 1. 0. 0. 0. 0. 0. 0.
      0. 0. 0. 0. 1. 0. 0. 104. 254. 254. 255. 255. 253. 152. 0. 1. 0.
      0. 0. 0. 2. 1. 0. 0. 0. 2. 0. 251. 255. 254. 252. 255. 255. 151.
      3. 0. 0. 0. 0. 0. 0. 0. 1. 0. 0. 1. 0. 255. 253. 255. 49. 255.
      255. 153. 0. 2. 0. 0. 0. 0. 0. 4. 0. 1. 1. 0. 92. 255. 255. 131.
      20. 193. 252. 215. 30. 0. 0. 0. 0. 0. 0. 0. 1. 2. 0. 4. 155. 251.
      255. 47. 0. 156. 255. 255. 49. 0. 0. 0. 0. 0. 2. 0. 2. 0. 0. 0.
      150. 255. 255. 54. 0. 149. 255. 254. 50. 2. 0. 0. 0. 0. 0. 1. 0.
      3. 0. 43. 234. 255. 254. 48. 40. 235. 255. 255. 212. 0. 0. 0. 0.
      0. 0. 1. 0. 0. 1. 54. 252. 255. 255. 255. 254. 254. 254. 254. 255.
      0. 0. 0. 0. 0. 1. 0. 0. 2. 0. 173. 255. 255. 255. 252. 255. 254.
      255. 252. 255. 0. 0. 0. 0. 0. 0. 2. 1. 0. 3. 255. 255. 251. 255.
      255. 53. 252. 253. 255. 253. 1. 0. 0. 0. 0. 0. 5. 0. 1. 2. 250.
      255. 255. 91. 0. 0. 2. 153. 255. 255. 120. 0. 0. 0. 0. 2. 0. 2. 0.
      0. 93. 254. 48. 2. 0. 0. 1. 0. 254. 255. 0. 0. 0. 0. 0.</_>
    <_>
      5.78947365e-001 3.68421048e-001 4.21052635e-001 2.63157904e-001
      6.31578922e-001 8.42105269e-001 8.42105269e-001 1. 9.47368443e-001
      8.42105269e-001 8.94736826e-001 9.47368443e-001 8.94736826e-001
      8.42105269e-001 5.78947365e-001 5.26315808e-001 2.10526317e-001
      1.05263159e-001 1.05263159e-001 0. 6.66666687e-001 6.66666687e-001
      6.66666687e-001 6.00000024e-001 7.33333349e-001 6.00000024e-001
      7.33333349e-001 6.66666687e-001 8.66666734e-001 6.66666687e-001
      6.00000024e-001 7.33333349e-001 7.33333349e-001 9.33333397e-001
      9.33333397e-001 8.66666734e-001 1. 1. 6.00000024e-001
      7.33333349e-001 0. 2. 0. 0. 0. 2. 2. 63. 252. 255. 251. 139. 2. 0.
      0. 3. 0. 0. 0. 0. 2. 0. 0. 0. 2. 1. 0. 151. 255. 252. 254. 143. 0.
      1. 1. 0. 0. 0. 0. 0. 0. 0. 3. 0. 0. 2. 2. 255. 255. 255. 255. 139.
      2. 0. 3. 0. 0. 0. 0. 0. 1. 0. 0. 1. 0. 0. 0. 255. 254. 252. 255.
      255. 62. 3. 0. 0. 0. 0. 0. 0. 0. 0. 0. 2. 2. 3. 3. 252. 255. 254.
      255. 252. 63. 2. 0. 0. 0. 0. 0. 0. 1. 1. 1. 0. 0. 0. 0. 255. 253.
      255. 255. 255. 188. 0. 0. 0. 0. 0. 0. 0. 1. 0. 0. 0. 3. 2. 0. 255.
      254. 254. 254. 255. 254. 2. 2. 0. 0. 0. 0. 0. 0. 1. 2. 0. 0. 0. 3.
      254. 255. 255. 255. 255. 255. 0. 0. 1. 0. 0. 0. 0. 1. 0. 4. 0. 1.
      1. 130. 255. 255. 255. 136. 254. 254. 135. 0. 1. 0. 0. 0. 0. 0. 5.
      0. 0. 0. 0. 242. 255. 255. 70. 6. 137. 255. 238. 3. 0. 0. 0. 0. 0.
      0. 0. 3. 0. 0. 166. 255. 255. 113. 1. 0. 112. 254. 244. 0. 0. 0.
      0. 0. 0. 2. 1. 0. 2. 0. 167. 255. 252. 119. 0. 2. 114. 255. 240.
      0. 0. 0. 0. 0. 0. 0. 2. 0. 0. 70. 233. 253. 208. 26. 1. 1. 115.
      252. 242. 0. 0. 0. 0. 0. 0. 1. 0. 3. 0. 84. 255. 255. 255. 255.
      49. 48. 255. 255. 255. 165. 1. 0. 0. 0. 0. 1. 0. 0. 4. 91. 255.
      251. 255. 254. 255. 255. 254. 255. 253. 199. 30. 0. 0. 0. 0. 1. 0.
      0. 0. 89. 253. 255. 253. 253. 255. 253. 255. 255. 254. 255. 88. 0.
      0. 0. 0. 0. 0. 2. 0. 88. 255. 255. 190. 12. 12. 15. 122. 255. 255.
      254. 88. 3. 0. 1. 0. 1. 2. 0. 3. 87. 254. 255. 3. 2. 0. 0. 3. 0.
      192. 255. 255. 10. 1. 1. 0. 1. 0. 0. 0. 89. 254. 255. 0. 0. 0. 0.
      0. 0. 14. 254. 255. 14. 1. 0. 0. 0. 0. 4. 0. 93. 255. 46. 2. 0. 0.
      1. 0. 2. 10. 255. 255. 13. 0. 0. 0.</_>
    <_>
      4.73684222e-001 4.73684222e-001 4.73684222e-001 5.78947365e-001
      5.26315808e-001 6.31578922e-001 7.89473712e-001 1. 1.
      7.89473712e-001 1. 9.47368443e-001 1. 7.89473712e-001
      6.84210539e-001 5.78947365e-001 0. 0. 0. 0. 7.14285731e-001
      7.14285731e-001 6.42857194e-001 6.42857194e-001 7.14285731e-001
      7.14285731e-001 5.71428597e-001 8.57142925e-001 8.57142925e-001
      8.57142925e-001 9.28571463e-001 7.14285731e-001 7.14285731e-001
      9.28571463e-001 1. 9.28571463e-001 1. 9.28571463e-001
      8.57142925e-001 6.42857194e-001 0. 0. 1. 1. 0. 3. 0. 1. 21. 225.
      253. 154. 11. 1. 0. 0. 0. 0. 0. 0. 1. 1. 0. 1. 1. 0. 0. 0. 139.
      255. 255. 255. 61. 0. 0. 4. 0. 0. 0. 0. 0. 2. 0. 0. 0. 1. 0. 2.
      141. 255. 255. 254. 63. 2. 0. 0. 0. 0. 0. 0. 0. 2. 0. 0. 4. 0. 0.
      65. 254. 255. 254. 255. 63. 0. 2. 0. 0. 0. 0. 0. 0. 0. 4. 1. 0. 0.
      2. 62. 255. 255. 255. 248. 131. 0. 0. 2. 0. 0. 0. 0. 2. 2. 0. 0.
      0. 0. 2. 65. 255. 252. 255. 255. 255. 0. 1. 0. 0. 0. 0. 0. 0. 0.
      0. 1. 2. 0. 0. 66. 255. 254. 255. 255. 253. 0. 0. 0. 0. 0. 0. 0.
      0. 0. 3. 1. 0. 1. 64. 254. 254. 255. 253. 255. 255. 59. 2. 0. 0.
      0. 0. 0. 0. 1. 1. 0. 2. 0. 238. 255. 254. 255. 255. 252. 255. 242.
      0. 1. 0. 0. 0. 0. 1. 1. 0. 1. 0. 0. 244. 251. 255. 255. 71. 255.
      255. 241. 3. 0. 0. 0. 0. 0. 1. 1. 0. 0. 1. 2. 240. 255. 233. 219.
      36. 253. 255. 245. 0. 1. 0. 0. 0. 0. 1. 0. 0. 4. 0. 0. 242. 255.
      117. 0. 21. 194. 255. 244. 76. 0. 0. 0. 0. 0. 0. 0. 3. 0. 0. 128.
      254. 255. 116. 0. 5. 111. 255. 255. 167. 0. 0. 0. 0. 0. 2. 0. 4.
      0. 0. 163. 253. 255. 122. 4. 1. 113. 255. 253. 168. 5. 0. 0. 0. 0.
      1. 1. 0. 2. 0. 167. 255. 253. 253. 117. 86. 167. 255. 255. 253.
      90. 0. 0. 0. 0. 0. 0. 1. 0. 60. 223. 255. 255. 255. 255. 254. 255.
      252. 255. 255. 88. 0. 0. 0. 0. 0. 0. 2. 2. 87. 254. 255. 254. 254.
      255. 255. 253. 255. 254. 254. 90. 0. 0. 0. 0. 3. 1. 0. 1. 90. 255.
      254. 241. 88. 0. 0. 86. 238. 255. 255. 88. 0. 0. 0. 0. 0. 0. 4. 2.
      87. 254. 255. 188. 1. 0. 1. 0. 89. 253. 254. 87. 0. 0. 0. 0. 1. 0.
      0. 0. 89. 254. 48. 32. 0. 0. 2. 0. 0. 50. 255. 91. 0. 0. 0. 0.</_>
    <_>
      4.00000006e-001 4.00000006e-001 4.50000018e-001 3.49999994e-001
      7.50000000e-001 1. 1. 8.00000012e-001 7.50000000e-001
      7.50000000e-001 8.00000012e-001 7.50000000e-001 9.49999988e-001
      9.49999988e-001 9.49999988e-001 5.50000012e-001 0. 0. 0. 0.
      9.33333397e-001 8.66666734e-001 8.00000072e-001 1. 8.66666734e-001
      6.66666687e-001 6.00000024e-001 8.00000072e-001 7.33333349e-001
      8.66666734e-001 9.33333397e-001 8.00000072e-001 6.66666687e-001
      6.00000024e-001 6.66666687e-001 7.33333349e-001 6.66666687e-001
      7.33333349e-001 8.00000072e-001 7.33333349e-001 1. 0. 1. 0. 1. 52.
      48. 53. 50. 51. 255. 252. 255. 254. 254. 206. 0. 0. 0. 0. 0. 0. 3.
      0. 4. 255. 254. 254. 254. 255. 255. 253. 255. 255. 131. 80. 0. 0.
      0. 0. 0. 4. 0. 1. 0. 255. 255. 254. 255. 255. 252. 255. 252. 254.
      54. 0. 0. 0. 0. 0. 1. 0. 2. 1. 206. 254. 250. 255. 154. 153. 175.
      254. 255. 254. 49. 1. 0. 0. 0. 0. 1. 2. 0. 0. 204. 255. 255. 50.
      0. 1. 9. 169. 255. 255. 50. 1. 0. 0. 0. 0. 0. 0. 3. 0. 203. 251.
      254. 0. 3. 2. 0. 0. 255. 255. 92. 2. 0. 0. 0. 0. 0. 2. 0. 0. 208.
      255. 251. 4. 0. 0. 3. 0. 253. 255. 255. 0. 0. 0. 0. 0. 1. 0. 0. 1.
      1. 251. 255. 0. 1. 0. 1. 152. 255. 252. 255. 1. 0. 0. 0. 0. 0. 0.
      0. 0. 2. 255. 254. 255. 197. 221. 255. 255. 255. 253. 53. 0. 0. 0.
      0. 0. 2. 0. 2. 0. 2. 253. 255. 253. 253. 255. 255. 253. 255. 255.
      53. 0. 0. 0. 0. 0. 0. 2. 0. 3. 42. 255. 255. 255. 233. 203. 255.
      251. 254. 253. 49. 3. 0. 0. 0. 0. 5. 0. 0. 0. 204. 253. 253. 255.
      61. 1. 98. 196. 255. 255. 175. 0. 0. 0. 0. 0. 0. 2. 3. 0. 205.
      255. 253. 1. 0. 4. 0. 0. 255. 253. 254. 0. 0. 0. 0. 0. 0. 0. 2. 0.
      1. 255. 252. 0. 1. 0. 0. 0. 1. 253. 255. 203. 0. 0. 0. 0. 0. 2. 0.
      1. 0. 255. 255. 1. 0. 1. 1. 0. 0. 255. 249. 206. 0. 0. 0. 0. 1. 0.
      2. 1. 1. 254. 254. 0. 0. 0. 0. 1. 52. 255. 254. 1. 0. 0. 0. 0. 0.
      2. 0. 0. 0. 255. 253. 154. 1. 0. 2. 90. 255. 255. 130. 0. 0. 0. 0.
      0. 0. 0. 0. 0. 3. 252. 255. 253. 254. 255. 254. 255. 254. 253. 57.
      0. 0. 0. 0. 0. 1. 2. 1. 0. 0. 254. 250. 255. 255. 255. 255. 255.
      252. 91. 0. 0. 0. 0. 0. 0. 0. 0. 0. 4. 0. 255. 255. 253. 253. 255.
      255. 129. 53. 0. 1. 1. 0. 0. 0. 0.</_>
    <_>
      2.50000000e-001 3.49999994e-001 4.50000018e-001 3.49999994e-001
      5.00000000e-001 1. 1. 9.00000036e-001 6.50000036e-001
      6.00000024e-001 6.50000036e-001 7.50000000e-001 8.00000012e-001
      9.49999988e-001 9.00000036e-001 5.50000012e-001 0. 0. 0. 0.
      9.23076987e-001 9.23076987e-001 1. 9.23076987e-001 6.92307711e-001
      7.69230783e-001 6.92307711e-001 1. 1. 9.23076987e-001
      7.69230783e-001 8.46153855e-001 5.38461566e-001 7.69230783e-001
      4.61538494e-001 7.69230783e-001 8.46153855e-001 9.23076987e-001
      9.23076987e-001 6.92307711e-001 1. 0. 1. 0. 0. 52. 172. 255. 255.
      254. 54. 49. 50. 1. 0. 1. 0. 0. 0. 0. 0. 1. 1. 2. 0. 254. 255.
      253. 255. 254. 254. 255. 255. 93. 0. 0. 0. 0. 0. 0. 0. 0. 4. 0. 2.
      255. 253. 255. 254. 255. 255. 253. 255. 252. 53. 1. 0. 0. 0. 0. 2.
      0. 1. 2. 0. 255. 255. 254. 97. 0. 32. 155. 255. 255. 254. 0. 0. 0.
      0. 0. 0. 3. 0. 0. 3. 254. 255. 48. 0. 2. 0. 0. 251. 255. 255. 0.
      0. 0. 0. 0. 1. 1. 0. 0. 1. 253. 255. 3. 0. 1. 0. 0. 6. 252. 255.
      0. 0. 0. 0. 0. 0. 0. 0. 1. 0. 255. 255. 150. 2. 0. 0. 0. 150. 255.
      254. 1. 0. 0. 0. 0. 1. 0. 3. 0. 2. 253. 255. 255. 254. 255. 255.
      255. 255. 255. 49. 0. 0. 0. 0. 0. 0. 0. 1. 1. 0. 255. 255. 253.
      252. 255. 255. 254. 255. 217. 28. 1. 0. 0. 0. 0. 0. 0. 0. 2. 0.
      254. 255. 255. 255. 255. 252. 255. 250. 236. 39. 2. 0. 0. 0. 0. 0.
      0. 2. 0. 1. 254. 254. 254. 0. 0. 207. 234. 255. 255. 94. 0. 0. 0.
      0. 0. 0. 3. 0. 1. 1. 254. 255. 104. 0. 0. 0. 61. 254. 254. 254. 2.
      0. 0. 0. 0. 0. 2. 0. 0. 2. 254. 255. 0. 0. 0. 0. 0. 0. 255. 255.
      201. 0. 0. 0. 0. 0. 0. 5. 0. 2. 255. 254. 1. 1. 0. 0. 2. 0. 255.
      255. 204. 0. 0. 0. 0. 0. 0. 0. 0. 0. 254. 254. 0. 0. 0. 1. 0. 0.
      254. 255. 202. 0. 0. 0. 0. 0. 2. 0. 0. 0. 255. 255. 51. 0. 2. 0.
      1. 255. 255. 253. 164. 0. 0. 0. 0. 1. 0. 0. 0. 3. 253. 255. 255.
      1. 0. 31. 152. 255. 255. 255. 0. 0. 0. 0. 0. 0. 3. 1. 0. 0. 255.
      255. 255. 253. 255. 253. 255. 254. 252. 51. 0. 0. 0. 0. 0. 0. 0.
      0. 2. 0. 175. 255. 253. 255. 252. 255. 255. 152. 90. 1. 2. 0. 0.
      0. 0. 0. 0. 0. 0. 3. 6. 50. 255. 255. 253. 54. 51. 0. 0. 1. 0. 0.
      0. 0. 0.</_>
    <_>
      4.00000006e-001 4.50000018e-001 4.00000006e-001 6.99999988e-001
      9.49999988e-001 9.00000036e-001 9.00000036e-001 4.50000018e-001
      4.00000006e-001 5.00000000e-001 3.49999994e-001 5.50000012e-001 1.
      1. 1. 6.99999988e-001 0. 0. 0. 0. 6.00000024e-001 5.33333361e-001
      6.66666687e-001 6.00000024e-001 7.33333349e-001 6.00000024e-001
      6.66666687e-001 8.66666734e-001 8.66666734e-001 9.33333397e-001 1.
      8.00000072e-001 7.33333349e-001 6.66666687e-001 7.33333349e-001
      8.00000072e-001 6.66666687e-001 8.00000072e-001 4.66666698e-001
      4.66666698e-001 2. 0. 0. 9. 44. 45. 0. 1. 0. 2. 0. 0. 20. 196. 38.
      0. 0. 0. 0. 0. 0. 0. 0. 62. 255. 252. 3. 0. 0. 0. 0. 0. 92. 255.
      236. 2. 0. 0. 0. 0. 1. 0. 0. 57. 251. 255. 164. 0. 0. 4. 0. 1. 98.
      251. 237. 0. 0. 0. 0. 0. 0. 4. 0. 61. 255. 254. 185. 0. 3. 0. 0.
      0. 94. 255. 240. 0. 0. 0. 0. 0. 0. 0. 2. 54. 255. 255. 183. 3. 0.
      0. 3. 0. 97. 254. 235. 1. 0. 0. 0. 0. 0. 2. 0. 59. 254. 255. 184.
      0. 0. 3. 0. 0. 94. 255. 233. 0. 0. 0. 0. 0. 1. 0. 0. 59. 255. 251.
      186. 0. 1. 0. 0. 0. 94. 255. 237. 1. 0. 0. 0. 0. 0. 1. 3. 56. 253.
      255. 229. 60. 0. 1. 0. 160. 195. 255. 234. 1. 0. 0. 0. 0. 0. 0. 2.
      58. 255. 253. 255. 250. 249. 249. 249. 254. 255. 254. 235. 0. 0.
      0. 0. 0. 4. 0. 0. 59. 255. 255. 253. 255. 173. 255. 255. 254. 255.
      255. 233. 1. 0. 0. 0. 0. 0. 1. 2. 56. 255. 253. 211. 80. 3. 80.
      82. 84. 150. 251. 255. 95. 0. 0. 0. 0. 0. 2. 1. 0. 144. 255. 183.
      1. 0. 4. 1. 0. 93. 255. 254. 147. 0. 0. 0. 0. 1. 0. 0. 3. 148.
      255. 185. 0. 1. 0. 0. 2. 95. 255. 255. 149. 0. 0. 0. 0. 0. 2. 0.
      0. 145. 253. 186. 0. 0. 3. 0. 2. 95. 252. 255. 145. 0. 0. 0. 0. 1.
      0. 1. 3. 149. 255. 187. 0. 1. 0. 0. 0. 97. 255. 255. 146. 0. 0. 0.
      0. 0. 1. 0. 0. 146. 255. 211. 43. 1. 0. 1. 2. 94. 255. 254. 147.
      0. 0. 0. 0. 0. 0. 2. 0. 147. 255. 203. 21. 0. 0. 0. 1. 97. 254.
      255. 147. 0. 0. 0. 0. 3. 1. 0. 1. 129. 221. 162. 0. 0. 1. 0. 2.
      83. 247. 255. 127. 0. 0. 0. 0. 0. 0. 3. 0. 2. 0. 3. 0. 0. 0. 1. 0.
      2. 185. 235. 0. 0. 0. 0. 0. 3. 1. 0. 0. 0. 0. 0. 0. 0. 0. 0. 3.
      83. 243. 248. 124. 0. 0. 0. 0.</_>
    <_>
      4.50000018e-001 4.50000018e-001 4.00000006e-001 3.00000012e-001 1.
      1. 1. 9.49999988e-001 6.00000024e-001 6.50000036e-001
      7.50000000e-001 7.50000000e-001 1. 1. 1. 1. 0. 0. 0. 0.
      6.66666687e-001 8.66666734e-001 6.66666687e-001 8.66666734e-001
      8.66666734e-001 7.33333349e-001 8.66666734e-001 8.00000072e-001
      9.33333397e-001 8.00000072e-001 1. 8.66666734e-001 8.00000072e-001
      9.33333397e-001 8.66666734e-001 8.66666734e-001 8.66666734e-001
      7.33333349e-001 7.33333349e-001 6.66666687e-001 0. 0. 1. 0. 148.
      255. 255. 94. 0. 0. 0. 2. 16. 196. 239. 26. 0. 0. 0. 0. 2. 2. 0.
      5. 145. 254. 255. 95. 3. 0. 2. 0. 97. 254. 255. 145. 0. 0. 0. 0.
      0. 0. 2. 0. 147. 253. 252. 238. 8. 0. 0. 0. 94. 255. 255. 145. 0.
      0. 0. 0. 1. 0. 1. 0. 145. 255. 255. 253. 63. 0. 2. 1. 98. 255.
      250. 149. 0. 0. 0. 0. 1. 2. 0. 0. 149. 252. 255. 255. 253. 1. 0.
      1. 92. 254. 255. 145. 0. 0. 0. 0. 0. 0. 4. 0. 147. 255. 253. 255.
      255. 162. 0. 0. 96. 255. 255. 145. 0. 0. 0. 0. 1. 0. 0. 0. 151.
      254. 255. 254. 255. 168. 4. 2. 92. 254. 254. 147. 0. 0. 0. 0. 1.
      0. 0. 0. 146. 253. 255. 255. 253. 226. 52. 0. 100. 255. 253. 148.
      0. 0. 0. 0. 0. 1. 0. 1. 144. 255. 253. 255. 255. 253. 83. 2. 92.
      255. 252. 147. 0. 0. 0. 0. 0. 0. 0. 1. 146. 254. 255. 252. 255.
      255. 255. 0. 99. 252. 255. 142. 0. 0. 0. 0. 1. 2. 0. 1. 146. 255.
      255. 148. 82. 255. 253. 173. 200. 252. 255. 149. 0. 0. 0. 0. 0. 2.
      0. 2. 148. 252. 255. 92. 0. 252. 255. 255. 255. 255. 254. 146. 0.
      0. 0. 0. 0. 0. 2. 0. 150. 254. 254. 101. 0. 84. 255. 253. 255.
      255. 253. 147. 0. 0. 0. 0. 0. 1. 2. 0. 149. 255. 254. 92. 2. 82.
      254. 255. 253. 253. 255. 148. 0. 0. 0. 0. 1. 0. 0. 3. 147. 250.
      255. 96. 0. 3. 171. 253. 255. 255. 252. 148. 0. 0. 0. 0. 0. 1. 2.
      0. 146. 255. 254. 95. 0. 1. 97. 255. 255. 255. 255. 145. 0. 0. 0.
      0. 0. 1. 1. 0. 146. 255. 255. 94. 0. 1. 2. 252. 254. 255. 255.
      145. 0. 0. 0. 0. 2. 0. 0. 0. 150. 255. 253. 96. 1. 0. 0. 229. 255.
      253. 254. 150. 0. 0. 0. 0. 0. 3. 0. 0. 144. 255. 221. 53. 0. 0. 2.
      1. 179. 254. 255. 143. 0. 0. 0. 0. 3. 0. 0. 0. 27. 44. 33. 0. 0.
      0. 1. 2. 16. 199. 39. 28. 0. 0. 0. 0.</_>
    <_>
      3.15789461e-001 5.26315808e-001 3.15789461e-001 3.15789461e-001
      6.31578922e-001 7.89473712e-001 1. 1. 8.94736826e-001
      7.36842096e-001 7.89473712e-001 9.47368443e-001 9.47368443e-001
      8.42105269e-001 6.31578922e-001 4.21052635e-001 0. 0. 0. 0.
      9.16666687e-001 7.50000000e-001 8.33333373e-001 8.33333373e-001
      8.33333373e-001 8.33333373e-001 9.16666687e-001 1. 9.16666687e-001
      1. 1. 1. 1. 7.50000000e-001 9.16666687e-001 8.33333373e-001
      9.16666687e-001 8.33333373e-001 6.66666687e-001 8.33333373e-001 1.
      0. 0. 0. 228. 254. 179. 1. 1. 0. 0. 1. 13. 183. 254. 2. 0. 0. 0.
      0. 0. 2. 2. 0. 230. 255. 174. 0. 0. 0. 0. 2. 126. 255. 255. 0. 0.
      0. 0. 0. 0. 1. 0. 0. 231. 254. 222. 64. 1. 0. 0. 0. 127. 253. 254.
      3. 0. 0. 0. 0. 0. 1. 0. 2. 230. 254. 248. 129. 0. 4. 0. 0. 128.
      255. 254. 0. 0. 0. 0. 0. 0. 1. 2. 0. 21. 255. 255. 127. 0. 0. 0.
      70. 240. 253. 255. 0. 0. 0. 0. 0. 0. 0. 0. 0. 2. 253. 255. 252.
      77. 0. 3. 78. 251. 255. 24. 0. 0. 0. 0. 0. 0. 4. 0. 0. 0. 255.
      254. 255. 75. 0. 9. 127. 255. 254. 25. 1. 0. 0. 0. 0. 1. 0. 0. 3.
      0. 255. 254. 255. 165. 15. 24. 255. 255. 254. 25. 0. 0. 0. 0. 0.
      0. 0. 0. 0. 1. 94. 255. 253. 253. 27. 185. 255. 255. 254. 27. 0.
      0. 0. 0. 0. 0. 7. 0. 0. 0. 21. 254. 255. 255. 232. 255. 254. 255.
      255. 20. 4. 0. 0. 0. 0. 3. 0. 1. 4. 0. 27. 255. 254. 254. 253.
      255. 254. 255. 80. 0. 0. 0. 0. 0. 0. 1. 0. 0. 0. 1. 20. 255. 255.
      255. 255. 255. 251. 254. 73. 0. 1. 0. 0. 0. 0. 0. 2. 2. 0. 1. 28.
      255. 253. 254. 254. 253. 255. 191. 41. 0. 0. 0. 0. 0. 0. 0. 0. 0.
      0. 0. 8. 129. 255. 255. 253. 254. 254. 125. 1. 0. 0. 0. 0. 0. 0.
      2. 0. 3. 0. 1. 0. 74. 255. 255. 255. 254. 255. 126. 0. 0. 2. 0. 0.
      0. 0. 0. 1. 0. 2. 0. 0. 72. 240. 252. 255. 252. 255. 127. 1. 0. 0.
      0. 0. 0. 0. 2. 0. 0. 3. 1. 0. 2. 125. 254. 255. 255. 230. 91. 0.
      0. 2. 0. 0. 0. 0. 0. 1. 0. 1. 0. 0. 1. 129. 255. 253. 254. 181. 0.
      2. 3. 0. 0. 0. 0. 0. 0. 0. 1. 0. 1. 0. 0. 126. 251. 255. 255. 179.
      1. 0. 0. 0. 0. 0. 0. 0. 0. 4. 0. 0. 0. 2. 1. 14. 188. 254. 20. 21.
      0. 0. 3. 3. 0. 0. 0. 0.</_>
    <_>
      5.29411793e-001 4.70588237e-001 5.88235319e-001 4.70588237e-001
      6.47058845e-001 7.05882370e-001 9.41176474e-001 8.82352948e-001
      9.41176474e-001 7.64705896e-001 8.82352948e-001 1. 8.23529422e-001
      7.64705896e-001 7.64705896e-001 4.70588237e-001 0. 0. 0. 0.
      6.66666687e-001 6.00000024e-001 1. 7.33333349e-001 1.
      4.00000036e-001 6.00000024e-001 5.33333361e-001 4.66666698e-001
      6.00000024e-001 6.66666687e-001 5.33333361e-001 6.00000024e-001
      6.66666687e-001 4.66666698e-001 5.33333361e-001 8.66666734e-001
      8.00000072e-001 8.00000072e-001 6.66666687e-001 2. 0. 2. 0. 3. 1.
      0. 2. 0. 0. 0. 208. 255. 253. 186. 2. 0. 0. 0. 0. 0. 3. 0. 4. 0.
      0. 3. 0. 2. 0. 2. 84. 249. 255. 6. 0. 0. 0. 0. 0. 1. 0. 1. 1. 3.
      255. 253. 255. 253. 255. 252. 255. 255. 252. 255. 2. 0. 0. 0. 0.
      0. 2. 0. 0. 0. 255. 255. 255. 255. 255. 255. 251. 253. 255. 255.
      0. 0. 0. 0. 0. 1. 1. 0. 2. 2. 2. 135. 133. 131. 134. 137. 255.
      255. 252. 138. 1. 0. 0. 0. 0. 0. 2. 0. 1. 0. 0. 0. 3. 0. 0. 0.
      255. 253. 148. 0. 0. 0. 0. 0. 0. 0. 1. 1. 0. 3. 0. 2. 0. 1. 0.
      113. 255. 255. 148. 0. 0. 0. 0. 0. 0. 1. 0. 0. 3. 0. 0. 2. 0. 0.
      58. 255. 255. 227. 0. 0. 2. 0. 0. 0. 0. 0. 0. 1. 0. 0. 0. 0. 0. 1.
      188. 255. 253. 31. 0. 3. 0. 0. 0. 0. 0. 2. 2. 0. 0. 2. 0. 0. 3.
      169. 255. 251. 176. 0. 0. 1. 0. 0. 0. 0. 0. 0. 0. 0. 0. 1. 0. 2.
      22. 238. 255. 255. 35. 3. 1. 0. 1. 0. 0. 0. 0. 0. 4. 0. 0. 0. 2.
      2. 103. 254. 254. 190. 0. 0. 0. 1. 0. 0. 0. 0. 0. 1. 0. 0. 0. 1.
      0. 126. 255. 255. 205. 9. 2. 0. 0. 0. 3. 0. 0. 0. 0. 2. 0. 2. 2.
      0. 4. 197. 252. 254. 113. 0. 0. 0. 5. 1. 0. 0. 0. 0. 0. 0. 0. 1.
      0. 1. 2. 255. 255. 255. 0. 0. 0. 0. 0. 0. 2. 0. 0. 0. 0. 1. 0. 1.
      0. 2. 255. 251. 255. 83. 0. 0. 1. 0. 0. 0. 0. 0. 0. 0. 0. 0. 2. 0.
      3. 119. 251. 255. 255. 255. 253. 255. 254. 255. 254. 28. 0. 0. 0.
      0. 0. 0. 0. 1. 0. 122. 255. 255. 253. 255. 255. 255. 255. 253.
      255. 254. 0. 0. 0. 0. 0. 3. 0. 1. 0. 0. 5. 84. 3. 1. 0. 161. 225.
      255. 253. 8. 1. 0. 0. 0. 0. 0. 0. 1. 2. 0. 1. 2. 0. 0. 3. 1. 83.
      254. 254. 189. 0. 0. 0. 0. 0.</_></support_vectors>
  <decision_functions>
    <_>
      <sv_count>5</sv_count>
      <rho>-2.0000000000000009e-001</rho>
      <alpha>
        7.9999999999999993e-001 7.9999999999999993e-001
        7.9999999999999993e-001 -1.2000000000000002e+000
        -1.2000000000000002e+000</alpha>
      <index>
        0 1 2 3 4</index></_>
    <_>
      <sv_count>4</sv_count>
      <rho>-5.0000000000000000e-001</rho>
      <alpha>
        5.0000000000000000e-001 5.0000000000000000e-001
        5.0000000000000000e-001 -1.5000000000000000e+000</alpha>
      <index>
        0 1 2 5</index></_>
    <_>
      <sv_count>4</sv_count>
      <rho>-5.0000000000000000e-001</rho>
      <alpha>
        5.0000000000000000e-001 5.0000000000000000e-001
        5.0000000000000000e-001 -1.5000000000000000e+000</alpha>
      <index>
        0 1 2 6</index></_>
    <_>
      <sv_count>4</sv_count>
      <rho>-5.0000000000000000e-001</rho>
      <alpha>
        5.0000000000000000e-001 5.0000000000000000e-001
        5.0000000000000000e-001 -1.5000000000000000e+000</alpha>
      <index>
        0 1 2 7</index></_>
    <_>
      <sv_count>4</sv_count>
      <rho>-5.0000000000000000e-001</rho>
      <alpha>
        5.0000000000000000e-001 5.0000000000000000e-001
        5.0000000000000000e-001 -1.5000000000000000e+000</alpha>
      <index>
        0 1 2 8</index></_>
    <_>
      <sv_count>3</sv_count>
      <rho>-3.3333333333333331e-001</rho>
      <alpha>
        6.6666666666666663e-001 6.6666666666666663e-001
        -1.3333333333333333e+000</alpha>
      <index>
        3 4 5</index></_>
    <_>
      <sv_count>3</sv_count>
      <rho>-3.3333333333333331e-001</rho>
      <alpha>
        6.6666666666666663e-001 6.6666666666666663e-001
        -1.3333333333333333e+000</alpha>
      <index>
        3 4 6</index></_>
    <_>
      <sv_count>3</sv_count>
      <rho>-3.3333333333333331e-001</rho>
      <alpha>
        6.6666666666666663e-001 6.6666666666666663e-001
        -1.3333333333333333e+000</alpha>
      <index>
        3 4 7</index></_>
    <_>
      <sv_count>3</sv_count>
      <rho>-3.3333333333333331e-001</rho>
      <alpha>
        6.6666666666666663e-001 6.6666666666666663e-001
        -1.3333333333333333e+000</alpha>
      <index>
        3 4 8</index></_>
    <_>
      <sv_count>2</sv_count>
      <rho>0.</rho>
      <alpha>
        1. -1.</alpha>
      <index>
        5 6</index></_>
    <_>
      <sv_count>2</sv_count>
      <rho>0.</rho>
      <alpha>
        1. -1.</alpha>
      <index>
        5 7</index></_>
    <_>
      <sv_count>2</sv_count>
      <rho>0.</rho>
      <alpha>
        1. -1.</alpha>
      <index>
        5 8</index></_>
    <_>
      <sv_count>2</sv_count>
      <rho>0.</rho>
      <alpha>
        1. -1.</alpha>
      <index>
        6 7</index></_>
    <_>
      <sv_count>2</sv_count>
      <rho>0.</rho>
      <alpha>
        1. -1.</alpha>
      <index>
        6 8</index></_>
    <_>
      <sv_count>2</sv_count>
      <rho>0.</rho>
      <alpha>
        1. -1.</alpha>
      <index>
        7 8</index></_></decision_functions></my_svm>
</opencv_storage>
