<?xml version="1.0"?>
<opencv_storage>
<my_nn type_id="opencv-ml-ann-mlp">
  <layer_sizes type_id="opencv-matrix">
    <rows>1</rows>
    <cols>3</cols>
    <dt>i</dt>
    <data>
      265 10 24</data></layer_sizes>
  <activation_function>SIGMOID_SYM</activation_function>
  <f_param1>1.</f_param1>
  <f_param2>1.</f_param2>
  <min_val>-9.4999999999999996e-001</min_val>
  <max_val>9.4999999999999996e-001</max_val>
  <min_val1>-9.7999999999999998e-001</min_val1>
  <max_val1>9.7999999999999998e-001</max_val1>
  <training_params>
    <train_method>RPROP</train_method>
    <dw0>1.0000000000000001e-001</dw0>
    <dw_plus>1.2000000000000000e+000</dw_plus>
    <dw_minus>5.0000000000000000e-001</dw_minus>
    <dw_min>1.1920928955078125e-007</dw_min>
    <dw_max>50.</dw_max>
    <term_criteria><epsilon>9.9999997764825821e-003</epsilon>
      <iterations>1000</iterations></term_criteria></training_params>
  <input_scale>
    6.0595041912666838e+000 -2.4295610443053355e+000
    5.6767149894926119e+000 -2.4396778828534944e+000
    4.5826960237625372e+000 -2.0404764394215857e+000
    4.4046410398739617e+000 -2.1625558997965499e+000
    3.4176974380691987e+000 -2.1836423326389203e+000
    4.5667602969247509e+000 -3.8314349541163830e+000
    5.8906510225072832e+000 -5.2178905716664179e+000
    5.2023554221742279e+000 -4.3488379683744309e+000
    4.7542452996785896e+000 -3.6186615615031048e+000
    5.4304128478174638e+000 -3.9213721104134196e+000
    5.4331960403404285e+000 -4.0176819882020194e+000
    5.3465976958308810e+000 -4.3026586352602383e+000
    5.9842872771799911e+000 -5.0700345729876943e+000
    5.8016729607947211e+000 -4.7161259466128485e+000
    5.3043620465582704e+000 -3.9132028492697235e+000
    4.3392749083340467e+000 -2.4668631568406751e+000
    3.0137251192540981e+000 -5.5534724408689440e-001
    3.1312424138444173e+000 -5.1696428106601244e-001
    3.5595886254666147e+000 -5.1826870450973261e-001
    3.6199365194724193e+000 -5.1571219359261466e-001
    5.6554420599406834e+000 -3.9671832415775903e+000
    5.7295843973728680e+000 -4.2632489597772265e+000
    5.8045906624746504e+000 -4.5048060803329175e+000
    5.8239473483562616e+000 -4.5209392477814001e+000
    6.1782243510263166e+000 -4.6735169622364507e+000
    6.0241707346610154e+000 -4.5036022661569834e+000
    6.4386730368212621e+000 -4.7055414115445302e+000
    6.3028498417423142e+000 -4.7005304914410111e+000
    6.4879085324041297e+000 -4.9405493235186677e+000
    6.3513539907491419e+000 -4.9705550457380712e+000
    6.4770513893431270e+000 -5.1051557019948497e+000
    6.2618478418955448e+000 -4.7991361992750239e+000
    6.6522059797023010e+000 -4.8943656062388001e+000
    6.3089166027578631e+000 -4.8297818492574258e+000
    6.4618320107323646e+000 -4.8685422586134850e+000
    5.9826036251201433e+000 -4.6125124151977515e+000
    5.1118158953204293e+000 -3.9446845703898208e+000
    5.2917260054461712e+000 -4.1772949425443944e+000
    5.4849896235888300e+000 -4.2591345600985626e+000
    5.4562172379190130e+000 -3.9990891533684216e+000
    1.3385488234192964e+000 -7.7994183411833007e-001
    1.1392081903380857e+000 -7.0864131524967533e-001
    6.2792484333993551e-002 -2.3732592504186539e-001
    1.5108868193492643e-002 -4.9645123599562829e-001
    1.0295476730654018e-002 -7.9031970588303946e-001
    1.0545355904865248e-002 -8.1498163941931034e-001
    9.6632339054411511e-003 -8.3476645020940843e-001
    9.4470506354129413e-003 -9.6687215873305055e-001
    9.4429365277361229e-003 -8.8756167977626854e-001
    9.8047773600602808e-003 -9.2435117584253335e-001
    1.0830464141859397e-002 -8.2712339930625434e-001
    2.0182948972910019e-002 -4.7088250241521562e-001
    9.7448587364727363e-002 -1.4502191347979113e-001
    1.0573058962513411e+000 -3.9128643404577190e-001
    1.0899781857872408e+000 -2.9180518359658419e-001
    1.1597327220777087e+000 -8.5838484941184745e-001
    4.9931167261775600e-001 -6.5657519155248234e-001
    3.2091280276265358e-002 -2.6532160858329623e-001
    1.2597767078409991e-002 -6.4347807116256395e-001
    9.2488858774073222e-003 -1.0808816078147991e+000
    9.6492847828753836e-003 -1.1524437132807388e+000
    9.6356649551423354e-003 -1.0210769997346894e+000
    9.3210852769127026e-003 -1.0750073704798453e+000
    9.9029247754550860e-003 -1.1602017144409151e+000
    9.5302147460321288e-003 -1.1897009809731760e+000
    1.1025331535089430e-002 -1.0756209269272288e+000
    1.6232020956816161e-002 -5.4128038387493260e-001
    7.1366516696147117e-002 -2.5399736650912202e-001
    9.7461900985454142e-001 -4.6812409134745686e-001
    1.1110469053000531e+000 -4.6366524394411662e-001
    9.5621253057472422e-001 -7.0021862475156971e-001
    3.5367401424321809e-001 -5.0962476068117257e-001
    3.1164883152195514e-002 -3.6269052991295253e-001
    1.2627610474933475e-002 -8.9506889366418219e-001
    1.0114550386365903e-002 -1.4963959622789682e+000
    1.0811489440253884e-002 -1.4772580807616194e+000
    1.0329266527379196e-002 -1.0643211163565682e+000
    9.4362770793194398e-003 -9.8018399394001610e-001
    9.9506120836983514e-003 -1.2258840682011369e+000
    1.0305026134931455e-002 -1.3574234819784907e+000
    1.1037442492734468e-002 -1.2220273928373175e+000
    1.5814261386297563e-002 -6.6805915226367263e-001
    3.6290599773663897e-002 -2.9518259500940791e-001
    3.0829602005156370e-001 -3.6170162982427551e-001
    1.0265328847589059e+000 -4.1222974112365512e-001
    1.4074668409509050e+000 -9.4200536599076323e-001
    2.8973241612891071e-001 -5.0189867360913665e-001
    2.6834219018825035e-002 -3.6659346454851527e-001
    1.1471736624739291e-002 -9.2749442254191383e-001
    9.8113317694177686e-003 -1.6296081286936883e+000
    1.1233466666506257e-002 -1.5487147075894336e+000
    9.5657086710280916e-003 -9.5898112440574534e-001
    9.2507419434942461e-003 -9.2791497337144258e-001
    9.4035985990893606e-003 -1.1059964746031321e+000
    1.0777709150809570e-002 -1.2737215483818962e+000
    1.0024287402421183e-002 -1.1295872205988153e+000
    1.3662984890275400e-002 -6.6625878287776019e-001
    3.1127335045945136e-002 -3.1151844758579739e-001
    2.4613512442181601e-001 -3.4303871671386954e-001
    7.8565886654023531e-001 -3.8973628812625849e-001
    1.3878331045398948e+000 -1.0381428734747244e+000
    3.5982101966913488e-001 -6.3464494807784422e-001
    2.7945466925171594e-002 -3.5492943425434476e-001
    1.1404305780524935e-002 -9.3658983693602416e-001
    9.6470736360491170e-003 -1.5956411716444705e+000
    1.1042157789595936e-002 -1.4186129645279315e+000
    9.2778724223519706e-003 -9.1288420306858442e-001
    8.9000364941146607e-003 -8.8713040928344478e-001
    9.0390225047840504e-003 -9.7457744218903941e-001
    1.1530143247683445e-002 -1.2092124245346125e+000
    9.6431338815851000e-003 -9.0372109809941614e-001
    1.3039616559070353e-002 -5.8513995882001524e-001
    3.1825168320781382e-002 -3.2526825575097817e-001
    2.5776509156688387e-001 -3.7345493581343808e-001
    9.7651868546028964e-001 -4.2290179291587349e-001
    1.1829446197002658e+000 -7.7310553885922872e-001
    3.5296029672721330e-001 -5.1137554801423035e-001
    2.8342549279294822e-002 -3.6220438960862594e-001
    1.1065790142596666e-002 -9.2769659565532836e-001
    9.8640460425250022e-003 -1.6518005290266082e+000
    1.1101348469957790e-002 -1.6054123307027148e+000
    8.9845733473521809e-003 -1.0260099783988086e+000
    8.8069213657135693e-003 -1.0013538938653854e+000
    8.8988809299722707e-003 -1.0516094881655420e+000
    1.0614634793858406e-002 -1.1367688805611669e+000
    9.5985885048032044e-003 -8.2026363025692262e-001
    1.3316400572888324e-002 -5.5614321762676899e-001
    3.1374105590903548e-002 -3.2732826699171019e-001
    2.6405780363410902e-001 -3.4722561580233235e-001
    1.0540235755212080e+000 -4.1496991162252284e-001
    9.5670076779345370e-001 -6.2524538367603666e-001
    3.2631322384317635e-001 -4.5992178793644539e-001
    2.8899652008500608e-002 -3.4338247937659383e-001
    1.1199781828791755e-002 -9.0832876249255967e-001
    1.0042405108245857e-002 -1.6782677639166148e+000
    1.0901511172564500e-002 -1.8618407664009764e+000
    9.4347239950447505e-003 -1.4108255385031090e+000
    9.6649057472434526e-003 -1.4533126382291985e+000
    9.7498150853183238e-003 -1.4490374782313651e+000
    1.0326473167560909e-002 -1.3537437146985951e+000
    9.9856168679618770e-003 -8.9949178716129030e-001
    1.4158891286627635e-002 -5.3781489422591888e-001
    3.3240627187487118e-002 -2.8791094414358925e-001
    2.7515488111832720e-001 -3.1415321072564917e-001
    8.2318414206885338e-001 -3.6946059919625701e-001
    1.0196281743979230e+000 -8.6708537665335184e-001
    3.4110219005862241e-001 -6.2580165577684277e-001
    2.9151779291357025e-002 -3.3834427303512016e-001
    1.1497973964097651e-002 -9.1712186028589915e-001
    1.0406804102691514e-002 -1.7476875425370439e+000
    1.0745095751103649e-002 -1.8457874717013953e+000
    9.9796560256091207e-003 -1.4626875374857338e+000
    1.0005392044764116e-002 -1.4791435877200496e+000
    1.0242561740808641e-002 -1.6484878896230601e+000
    1.0133320446326276e-002 -1.5505576081374686e+000
    1.0238168842233912e-002 -1.0330070515305931e+000
    1.4395847477324456e-002 -5.6200481726436735e-001
    3.2649864747471502e-002 -3.0181843475221687e-001
    2.8679207011490088e-001 -3.4324720202728298e-001
    1.4684288959496448e+000 -3.9312269655344823e-001
    9.0700404061668416e-001 -6.9989288173570896e-001
    3.9169928804535936e-001 -5.8909105524931993e-001
    2.9526756597598756e-002 -3.4223138355642024e-001
    1.1765935477104758e-002 -9.6341703170403448e-001
    1.1110335042726327e-002 -1.9660044048440060e+000
    1.0615225294919400e-002 -1.7388909215393951e+000
    1.0010525740407417e-002 -1.0631651274536633e+000
    1.0030503815635975e-002 -9.9941728569336707e-001
    9.9471357284800100e-003 -1.3294699358678714e+000
    1.0045965183814332e-002 -1.4783389237819373e+000
    9.8904222901922863e-003 -1.0484626401012500e+000
    1.3969013105925791e-002 -5.9164820076200653e-001
    3.3580743189029254e-002 -3.0169785809986127e-001
    2.4987028826106847e-001 -3.3250455681984703e-001
    1.2449783815306072e+000 -3.1369534022818452e-001
    1.0212752341966613e+000 -6.9157220583395962e-001
    4.0584816192836748e-001 -5.7841352211838193e-001
    2.9814744965833737e-002 -3.2350172096786528e-001
    1.1925887338523847e-002 -1.0279739267308705e+000
    1.1585174378648507e-002 -2.1326755259718384e+000
    1.0470591072179661e-002 -1.6052982580032300e+000
    1.1019267966627375e-002 -8.1811557210495678e-001
    1.1678936788392959e-002 -6.2946710485472290e-001
    1.0130443871452741e-002 -9.8376979737501302e-001
    9.7564415867080704e-003 -1.3905618044173447e+000
    9.6086413731193247e-003 -1.1895044068360789e+000
    1.3887992149318688e-002 -6.9013479097913566e-001
    3.9162080336466204e-002 -2.7906836775198357e-001
    2.9739045263457814e-001 -3.3485696635232026e-001
    1.2550289463793256e+000 -3.7552047214499507e-001
    1.2813257207306279e+000 -9.2820445911195093e-001
    4.0463921558626870e-001 -6.1811029782469384e-001
    2.9665796742464758e-002 -3.3403219954113861e-001
    1.2323066964531088e-002 -1.0222323659160237e+000
    1.2270571034324579e-002 -2.2818431190365636e+000
    1.0425300360110148e-002 -1.6398094487681913e+000
    1.0455371271246038e-002 -9.3826666439678030e-001
    1.0859388086103481e-002 -7.7657450864560484e-001
    9.9334441594065119e-003 -1.0647557113543373e+000
    1.0225196580836272e-002 -1.5519755062377951e+000
    1.0013335886141696e-002 -1.4505144905303056e+000
    1.2963144354459628e-002 -7.9932585385648303e-001
    3.6604029482332510e-002 -3.0119063629163362e-001
    2.6200106548507851e-001 -3.4864708714156117e-001
    1.1397585768056593e+000 -3.6795355629159077e-001
    1.2688585407390647e+000 -7.3933489775347072e-001
    4.9325688972282566e-001 -5.5539949000286670e-001
    2.9742429540075808e-002 -3.1217841399150431e-001
    1.3059792602564655e-002 -9.6313399618598861e-001
    1.2004571136842586e-002 -2.0859596523452142e+000
    1.0523347150344625e-002 -1.5645814243528124e+000
    9.8107915701086072e-003 -9.0406058066914186e-001
    9.8588933870145876e-003 -8.3513366187010174e-001
    9.5397439241820137e-003 -1.0375034888252124e+000
    9.8930840846897690e-003 -1.4652670207323981e+000
    9.9807713948539215e-003 -1.3990369478046416e+000
    1.3988516728329990e-002 -7.9536282909662082e-001
    4.0411183661434591e-002 -2.7269594014054677e-001
    2.7770062870605083e-001 -3.2799286855045373e-001
    9.1143109103440256e-001 -3.8036100649467192e-001
    1.5613705107455682e+000 -6.0241854351600665e-001
    3.9807022756978022e-001 -3.2284435779281390e-001
    2.9413233422530261e-002 -2.4595947948604044e-001
    1.2199405432456017e-002 -7.8979142886341236e-001
    9.7245944941239289e-003 -1.5325042063417034e+000
    9.5068839491102529e-003 -1.3064853981403246e+000
    1.0101903417096263e-002 -8.0719776280860522e-001
    1.0532482383915012e-002 -7.2450209532190202e-001
    1.0389672485219782e-002 -9.5617710241928200e-001
    8.9914519192469018e-003 -1.3107696128577726e+000
    9.4126472041433304e-003 -1.2455822749041954e+000
    1.4563707272624090e-002 -6.6247666861377463e-001
    2.0114384482770453e-001 -1.9956003502591158e-001
    1.6041287667115280e+000 -4.4208273098349199e-001
    9.8989425899204975e-001 -3.6633882025690029e-001
    1.4577492713345517e+000 -9.8713730184859405e-001
    2.3816035455179418e-001 -3.2254788175518584e-001
    2.6082838430393412e-002 -2.6678430804000819e-001
    1.2521364040300458e-002 -7.4694373204186038e-001
    9.8219328705401957e-003 -1.4329194663414861e+000
    9.6451651283438414e-003 -1.2919205039232842e+000
    9.9138281211425469e-003 -8.6625000519936102e-001
    9.9316985643991690e-003 -7.9203340992310856e-001
    9.9956034343700959e-003 -9.2770218646393954e-001
    9.3968990681675985e-003 -1.3305121184550375e+000
    1.0081044123239020e-002 -1.3501455078123819e+000
    1.3435103772465345e-002 -6.8233401049135023e-001
    4.9835737693343582e-002 -2.3701405958094116e-001
    1.6576188254112436e+000 -4.8292831921429930e-001
    1.3270992427423636e+000 -4.3888321413526987e-001
    1.2474984618010811e+000 -7.8582580270934244e-001
    9.0296022902993178e-001 -6.1145338343759159e-001
    5.6606113149041778e-002 -2.7277906493868953e-001
    1.5216938953432062e-002 -6.0544246087946618e-001
    1.0500971242824043e-002 -1.0598539322088079e+000
    1.0175756454901414e-002 -9.4922981670249662e-001
    9.5312806276656153e-003 -7.1447079980611539e-001
    9.2310236010673796e-003 -6.9247214053046391e-001
    9.6693938908216422e-003 -6.8964858159891684e-001
    1.0532224068606802e-002 -9.7369167550797220e-001
    1.0312209765205894e-002 -1.0261866693911188e+000
    1.4437497911484331e-002 -5.9671201997937995e-001
    3.8939816118405232e-002 -1.9469908059202617e-001
    1.4805525587816974e+000 -3.7305261323633321e-001
    1.2156589343547646e+000 -3.0630776298702728e-001</input_scale>
  <output_scale>
    5.2631578947368418e-001 4.9999999999999994e-001
    5.2631578947368418e-001 4.9999999999999994e-001
    5.2631578947368418e-001 4.9999999999999994e-001
    5.2631578947368418e-001 4.9999999999999994e-001
    5.2631578947368418e-001 4.9999999999999994e-001
    5.2631578947368418e-001 4.9999999999999994e-001
    5.2631578947368418e-001 4.9999999999999994e-001
    5.2631578947368418e-001 4.9999999999999994e-001
    5.2631578947368418e-001 4.9999999999999994e-001
    5.2631578947368418e-001 4.9999999999999994e-001
    5.2631578947368418e-001 4.9999999999999994e-001
    5.2631578947368418e-001 4.9999999999999994e-001
    5.2631578947368418e-001 4.9999999999999994e-001
    5.2631578947368418e-001 4.9999999999999994e-001
    5.2631578947368418e-001 4.9999999999999994e-001
    5.2631578947368418e-001 4.9999999999999994e-001
    5.2631578947368418e-001 4.9999999999999994e-001
    5.2631578947368418e-001 4.9999999999999994e-001
    5.2631578947368418e-001 4.9999999999999994e-001
    5.2631578947368418e-001 4.9999999999999994e-001
    5.2631578947368418e-001 4.9999999999999994e-001
    5.2631578947368418e-001 4.9999999999999994e-001
    5.2631578947368418e-001 4.9999999999999994e-001
    5.2631578947368418e-001 4.9999999999999994e-001</output_scale>
  <inv_output_scale>
    1.8999999999999999e+000 -9.4999999999999996e-001
    1.8999999999999999e+000 -9.4999999999999996e-001
    1.8999999999999999e+000 -9.4999999999999996e-001
    1.8999999999999999e+000 -9.4999999999999996e-001
    1.8999999999999999e+000 -9.4999999999999996e-001
    1.8999999999999999e+000 -9.4999999999999996e-001
    1.8999999999999999e+000 -9.4999999999999996e-001
    1.8999999999999999e+000 -9.4999999999999996e-001
    1.8999999999999999e+000 -9.4999999999999996e-001
    1.8999999999999999e+000 -9.4999999999999996e-001
    1.8999999999999999e+000 -9.4999999999999996e-001
    1.8999999999999999e+000 -9.4999999999999996e-001
    1.8999999999999999e+000 -9.4999999999999996e-001
    1.8999999999999999e+000 -9.4999999999999996e-001
    1.8999999999999999e+000 -9.4999999999999996e-001
    1.8999999999999999e+000 -9.4999999999999996e-001
    1.8999999999999999e+000 -9.4999999999999996e-001
    1.8999999999999999e+000 -9.4999999999999996e-001
    1.8999999999999999e+000 -9.4999999999999996e-001
    1.8999999999999999e+000 -9.4999999999999996e-001
    1.8999999999999999e+000 -9.4999999999999996e-001
    1.8999999999999999e+000 -9.4999999999999996e-001
    1.8999999999999999e+000 -9.4999999999999996e-001
    1.8999999999999999e+000 -9.4999999999999996e-001</inv_output_scale>
  <weights>
    <_>
      -3.9946910402020080e-001 5.1197672405147610e-001
      3.2100360271371242e-001 1.2228925446161554e-001
      3.5432838134863182e-001 6.2237179684165381e-003
      -6.5894080534721329e-004 -1.9299672273977500e+000
      -1.9469733605646281e-001 3.7579834396001538e-001
      -1.1960758823079910e-001 2.9621676870135177e-001
      2.2108134551003933e+000 3.2122456716113312e-001
      -7.1142411960337892e-001 5.2233162822714403e-002
      -5.4394146110953556e-001 -7.3209965549273626e-001
      4.2816972387093803e-002 2.4113395763144729e-001
      1.4085824484987564e-002 4.1925336179909339e-001
      1.9007215487467560e-001 1.2690629524532596e-001
      2.1073254678376596e-001 9.3522155921210645e-003
      8.5409571746037471e-002 3.8980254636074001e+000
      -1.5670218394553381e-001 4.1490004664738245e-001
      -6.0408845675270443e-003 4.0213608347929736e-001
      -1.7122239785632376e-001 1.4298759267512828e-001
      1.4476565813027020e-001 3.6593371974708196e-003
      -4.1459131687970212e-002 -2.7455242939790048e-001
      -4.6015117815923934e-002 -2.9493709289125097e-001
      8.9310173959815220e-002 -6.0246212940613088e-002
      7.6198175859703027e-003 1.5850194412363947e-001
      -1.0128968108265100e-001 2.2544499255363011e-002
      -6.0315414075774199e-001 1.1258156871743027e-002
      -8.0153378157125560e-002 3.5783476062047452e-002
      2.1023777620042763e-001 -1.1599146150245608e-001
      -2.0806391954360341e-002 9.1489538848148991e-002
      3.8366327397860917e-002 1.0272998289060381e-001
      -2.9023665296007156e-001 1.1903485840514763e-001
      3.4392527758926636e-002 -1.7976674489604746e-001
      1.6548608810611137e-001 2.3488473931471651e-001
      5.7327775814978374e-002 3.3436271571552115e-002
      7.4219132792068737e-002 8.7391884658631971e-002
      -1.9516803690860338e-001 8.3303205833637595e-002
      7.6284750293249923e-002 -1.8802238149371353e-001
      -2.6770874056680188e-001 2.6158339241241785e-001
      2.1493572308172479e-001 1.3289273118765041e-001
      2.7810470193165088e-002 1.8649036451106563e-001
      4.1017275020750260e-001 -2.9346659885831159e-002
      2.3995175330987953e-001 2.0222794563406379e-001
      -1.9118079239767108e-001 -5.2865961087856662e-002
      -8.4609813792208156e-003 2.8012084567196621e-001
      -9.9223442353034624e-002 1.0992348084798269e-001
      1.8130843949253128e-001 -1.2144292138944154e-001
      -6.7704225930403455e-002 2.5907554646867154e-001
      -4.4209212225406025e-001 -5.3992091264359054e-002
      -5.7499368308052856e-001 6.2518396485090233e-001
      -7.5206149597836905e-002 5.4725390392957574e-001
      1.7348532779143389e-001 1.0718780365902651e-002
      -3.9327152107640137e-002 9.6346871768036108e-002
      -8.5371492409053984e-001 3.4694514415706500e-002
      -4.0978536429137091e-001 3.6807756213340609e-001
      -1.2191826945705996e-001 4.7405630582193264e-001
      2.0219859528520218e-001 -9.5539826749931209e-002
      -3.5921433913113851e-002 2.7640166848957942e-001
      -2.2546168010174603e-001 1.3249020951414595e-001
      4.3667859452860086e-002 1.8490307219955202e-001
      -2.1645866521567989e-001 2.1011691484879505e-001
      1.3543043832803955e-001 -9.3408632194464242e-002
      1.6019986435090514e-001 -2.0548604848802603e-002
      -6.1197084762908451e-002 -8.6134431290697325e-002
      1.0813155703987895e-001 8.3510988988182677e-001
      1.0516494535347620e-001 1.1803307155095109e-001
      2.5778101163779394e-002 -3.3901202114183832e-001
      -1.2728583955079417e-001 -1.2374246128827253e-001
      -3.8143421132253635e-002 -3.1084133653435864e-001
      9.9137656745917249e-002 2.0081552109953613e-001
      1.4696905097732282e-001 7.0679067285042985e-001
      -2.2154041924762632e-001 -3.2097017185434211e-003
      -2.3711399968594260e-001 -1.1886522455486866e-001
      4.3786509515530800e-002 -8.3255672908453218e-002
      4.0145236877334756e-001 9.8722566926519068e-002
      1.0171712939303498e-001 5.7738027163333117e-001
      6.5784195251887459e-002 5.0037453886001802e-002
      -2.8324150466945164e-001 -4.3298530576000881e-002
      -3.3164181018764266e-001 -2.0157443137154913e-002
      3.7010965413758329e-001 -2.3787493009268683e-002
      2.5576129247037088e-001 1.3882408106128097e-001
      -5.9015537594851085e-002 3.8864378818560280e-001
      1.5942644190280270e-002 -5.2866024030151382e-001
      -4.6755076029319614e-001 1.3500805186053930e-002
      1.8013692555287272e-001 1.5066415387131865e-001
      3.1844017874510588e-001 2.5117844672120148e-002
      -1.5748501379896016e-001 -2.5363271419447031e-001
      4.2063487695490798e-001 6.2995505262345319e-002
      -1.2044571355434104e-001 9.8183681462928798e-003
      4.9114617660300081e-001 1.6124922950141288e-001
      3.1962617552495831e-001 3.1116211066754721e-002
      -6.0162010479892607e-002 -3.9286864199731369e-001
      3.9189644009016866e-001 1.0188597262119597e-001
      -1.6947806857477135e-001 1.6631129184872161e-002
      5.6308536000625753e-001 1.4711709564172110e-001
      3.2987531913729962e-001 2.1133883773367390e-003
      -4.6976909564653356e-002 -5.8842679741410031e-001
      3.9781453328341804e-001 1.0376768118545168e-001
      -1.1871065539073485e-001 5.4642054075110854e-003
      5.7585607437275665e-001 1.5191965500990617e-001
      3.3174818379969517e-001 3.0284603093660364e-002
      -4.9991092611510364e-002 -3.9751957525177734e-001
      3.9247236160969950e-001 -2.1944814999959655e-001
      3.6869022392321732e-001 5.1356108355919516e-001
      -4.5949952378009706e-001 -4.9546651417652909e-001
      1.3795620484115464e-001 7.6480688014488013e-002
      -2.7623606381948546e-001 -6.7033966004065831e-002
      4.7783346586275192e-002 -1.0362197445543211e-001
      1.0015427509733206e+000 4.4262498181221066e-001
      -3.5307788550299986e-002 -2.6166921884325772e-001
      -7.7226799577272368e-002 -3.7240910360189540e-002
      -1.2268717153761763e-001 -3.7147498180289222e-002
      -7.2142993808894856e-002 3.5414306341469352e-002
      4.4867295986593331e-001 3.1396633535545565e-001
      -1.7692823246594704e+000 -5.1162154541598148e-001
      1.0474181184946657e-001 1.5372867125911813e-001
      -3.1876907123964426e-001 -1.7324037703057465e-001
      3.5753202543454216e-001 -2.1260078293556781e-001
      -7.2973518444123614e-002 8.1500535310691047e-001
      -1.9817020376640787e-001 1.7161789341828601e-001
      3.2860286692656254e-002 -9.7780192234275407e-002
      -4.1009256202914307e-001 -1.3207361671589699e-001
      4.8450065147538961e-002 -1.2504186032367892e-001
      2.6525692435993786e-001 4.0482828076603883e-001
      -1.4414515859562513e-001 -2.6157728265244068e-001
      2.8294282175900343e-001 -1.9667281764156966e-001
      -3.5815078593150390e-001 1.3400428272251372e-001
      2.7619305497362795e-001 4.4020174629051440e-001
      -2.6508105399694304e-001 5.8605224031612546e-001
      1.6401875441594330e-001 2.5617052366541909e-001
      1.4565824375008377e-001 -2.1456506836641270e-001
      -5.6222497640802581e-002 -1.1301890551894768e-001
      7.8486231840562537e-001 -2.2588620090231179e-001
      2.0115387917154903e-001 1.0663827827856152e-001
      -2.4740320418975462e-001 1.7065281167361827e-002
      6.6027250179884001e-001 -4.1531441311573082e-002
      -7.4632892877488310e-002 -1.7777082399319119e-002
      -5.6128658552636179e-001 -2.9398582040760313e-001
      1.5098621059067280e-001 1.5613671856566752e-001
      -9.5833668964466472e-003 4.3570128851453749e-001
      1.3432062868206016e-001 -1.9415002371133111e-001
      -3.7896516795828189e-001 -6.8147202105812557e-002
      -9.0687235984811279e-002 -2.7875686734713001e-001
      -2.8118709651764878e-001 -2.2377070772302285e-001
      1.2225670353303099e-001 7.2960412764607729e-001
      2.8737030037190792e-001 3.7377932313167544e-001
      -1.7044127106353260e-001 9.6465596277302418e-002
      -3.6739925633393809e-002 -8.9835454521068905e-002
      7.4904324486972929e-001 -3.0248691734231586e-001
      1.3273133469378201e-001 1.2241059557180691e+000
      9.9704726206916811e-002 -1.5343214377965284e-001
      -4.0051157741046911e-001 4.3475806904123601e-002
      -1.1523899852273602e-001 -8.4291781073313032e-002
      1.9500520217123099e-001 -1.0185663009649237e+000
      2.4129420984663294e-001 4.6809995822364603e-001
      9.9540517030618253e-002 -1.6501951997610568e-002
      -1.1134290241744811e-001 9.6603075699168761e-002
      -9.5240028934478929e-002 8.2231271613524087e-002
      6.7244609405553102e-002 -2.3792552315045915e-002
      -3.2996814037355138e-001 4.4127329293096962e-001
      1.2244382373881878e-001 2.0790328595330790e-001
      -1.4087273185222862e-001 -3.5955876387345609e-001
      -5.6915932449544648e-001 7.6777229433448779e-002
      2.3532512211082754e-001 1.5138739738798340e-001
      -9.3737922276818611e-002 2.4238442373994967e-001
      -1.4834946321217882e-003 -4.3960366601208398e-003
      1.8050754304959613e-001 -6.6761537201749113e-002
      -2.3394568454967146e-001 6.9467052673216387e-002
      -1.2638330098691891e-001 -3.7812469864632320e-001
      2.9241493006551779e-003 9.4010398321338534e-002
      1.2760232487699703e+000 -5.6335944845734419e-002
      -1.3446039991682601e-001 -6.1215307654796929e-002
      -2.5807908318059947e-002 -7.6711376051707872e-002
      -7.8997984641675734e-002 -2.5261112774204325e-001
      1.2375502755536069e-001 1.4215616571501037e+000
      -1.6706265238311088e-001 2.6042060469736061e-001
      1.5692459467620212e-001 -1.1059622764667788e-001
      2.2325261598417225e-002 2.8894461047768566e-001
      -9.5525092201692849e-002 9.6433655489184436e-002
      -3.4965029798108345e-002 4.8173558179954123e-001
      3.1532357260532731e-002 9.4917016897881690e-001
      1.8733955329754562e-001 -1.9373874578865474e-001
      2.1584470707017876e-002 2.8379088102784206e-001
      -1.4621334190263807e-001 -1.1591860476811100e-001
      7.5864507856802155e-002 9.1728664203883342e-002
      -1.5520318982030418e-001 1.3735284059587316e-001
      1.9874482149523437e-001 -4.7615872110573595e-002
      7.5505739581497353e-002 1.5781705651644773e-001
      -2.4019742003629674e-001 -1.0673784936802938e-001
      -1.4425450395369474e-001 2.0419021285979022e-001
      -1.5780767010640206e-001 5.5700770939564846e-003
      2.2844613769919331e-001 -6.0425018677669806e-002
      -3.3349934468913295e-002 -8.3093680299028500e-002
      5.2258032132688581e-001 -6.1819439805233989e-001
      1.7886108967435690e-001 2.1671128208422388e-001
      -1.9085843597920191e-001 5.4330633654118492e-002
      2.8378168675264892e-001 -2.9420028765759398e-001
      -1.2424412945350910e-001 -7.2718968391100858e-001
      1.3739223964018341e-001 -3.4619964859442937e-001
      3.2468881410203670e-001 1.1281149270905221e-001
      9.7283587142361239e-002 1.2630990494575339e-001
      -4.2814141110157716e-002 -7.7978280440978298e-001
      -3.8658033631144223e-001 -5.4616051193157988e-001
      -1.3244292369063406e-002 1.1461308701300132e+000
      1.1162969942025762e+000 2.2266775062179839e-001
      -4.8160976654297138e-001 -4.3230143494600151e-002
      -1.2908415463756895e+000 -4.8043789141412852e-001
      -5.0671090340768610e-001 1.0060295565116677e-001
      -3.8500212594501737e-001 -2.0516205575057442e-001
      8.0224376099717021e-001 -2.2646644566444665e-001
      3.4735322640749106e-001 -2.6368811957833477e-001
      -3.7118677603034354e-002 -4.7418041569614960e-001
      5.9268243168854422e-002 1.0496761747283137e-001
      5.6117750256732346e-001 -4.2034320754917281e-001
      -1.6646171703290580e-001 -2.1850990869238309e+000
      -5.1397303830880148e-002 3.4070112926560858e-001
      3.8900421538575987e-002 1.6781838307942801e-001
      -1.7698917528793531e-001 -3.8399625856013322e-002
      5.3925406532402165e-001 -3.3315833904079012e-001
      -2.4328066615290175e-001 -2.8585522264838299e-002
      -6.1280429102800363e-002 -1.7243876933954712e+000
      1.1645875922217511e-001 6.7166627062841988e-002
      3.2790077069960913e-002 -4.1750191360332093e-003
      3.3230733796640993e-001 -1.3807788172643057e-001
      -2.5997057522076289e-002 -1.1904090367577003e-001
      -4.6617121520368614e-002 -5.8035589366685281e-001
      1.4905091925131331e-001 8.8439950407723483e-002
      1.5999475308414712e-001 -1.2926117601061887e-001
      8.6302983412069753e-002 3.2344360295087915e-001
      -3.6558463957642695e-001 -1.1062119626944433e+000
      2.3007922818791507e-001 -1.5228909646393073e-003
      1.6513268671494466e-001 -8.6617615522460792e-002
      -4.3993628078514069e-001 2.2462830229473901e-001
      -1.7332558524963323e-001 -5.5029703910246384e-002
      -5.9547824257927373e-001 -4.9279242576020155e-001
      -7.0346605645979499e-001 5.9196234834300622e-002
      3.7191406364615037e-001 -8.5994190284887362e-002
      -1.7087711636674388e-001 1.3692723824956532e+000
      -1.7824787329970204e-001 6.9284213041546749e-002
      -5.8755610701468719e-001 -1.2421252605205840e-001
      -2.7301552866774959e-001 3.2016825460070247e-001
      6.4318737079397961e-002 -3.8740510147542984e-002
      -4.5502733656202353e-002 6.0686833228402026e-001
      -2.9830901488169359e-001 -4.4595238019225396e-003
      -3.2340848848186898e-001 -6.4063059752334162e-001
      -1.7738705676528127e-001 1.5522613041408570e-001
      2.6154401390306053e-001 -3.6827117005310012e-001
      -9.1917433252651615e-002 -5.5841370425047478e-002
      9.0079736187433118e-002 -1.1495113095164005e-002
      6.8577697169679722e-002 -3.3796870805370904e-001
      3.7426112330459815e-001 4.4471871556753285e-002
      -9.6790070937800066e-002 -6.0315136580248285e-002
      -1.0333393917934415e-001 -2.8960225789967126e-001
      1.2761065881661726e+000 -1.3181201759528011e-001
      2.5633960068315470e-001 -2.2229967759707442e-001
      4.5391969536796251e-002 -2.8824542441666112e-001
      -1.4432366545940375e-001 5.9868981527631338e-001
      1.2031596882235071e-001 -3.6804520122334350e-001
      5.3180066412528856e-002 9.0819851389720277e-002
      2.2540178300542366e-001 1.0569569228794279e-001
      6.5236261953067101e-002 1.0249158909578657e+000
      -3.7460297644831098e-001 9.6686339485354822e-001
      8.8261616020242489e-002 1.3342878773320010e-001
      -8.2280883751832745e-001 -2.4111096171789198e-001
      2.9612205193583935e-001 -1.3605536917156231e+000
      -9.4630730373422706e-002 -3.1793558217092829e-002
      2.7922093464251513e-001 1.4188856954372103e-001
      7.1601323522882745e-002 -2.7380127081133249e-001
      -3.3518360622857774e-001 2.8812887397009029e-001
      4.5130604397457957e-001 1.4119894237320896e-002
      3.2065801912346259e-001 1.7985533277669791e-002
      -6.1792577222555600e-002 -2.5711032809797374e-001
      5.0245401224188968e-002 -5.5221597195274608e-001
      -3.0652377891545995e-001 -2.0004470056753015e-001
      4.6348065302777891e-001 -4.3728070812634473e-001
      3.2556137812621666e-001 -9.9204312705608227e-002
      -1.7663524006320652e-001 -2.4608078326741140e-001
      1.4626629836360239e-001 -2.1764852277186730e-001
      3.1531027412616186e-001 -1.3562357101120977e-002
      1.5011339370887453e+000 6.8116878132875605e-002
      2.2555174186190513e-001 2.2912333745149313e-001
      -1.8479689903939112e-001 -5.1027055244028530e-001
      6.3225928636140394e-001 4.9697487418818848e-001
      -4.7378943675420775e-002 2.1322941665587769e-001
      2.5393450824691532e-001 -1.7540214343437180e-001
      9.2577321222557046e-002 -3.3731191936077087e-001
      -5.6574146065897300e-002 -5.9988119518703968e-002
      1.0717178196047422e-001 -1.3311593908230945e+000
      3.4152658358088841e+000 -7.5263140316465604e-001
      -1.2743043656477251e-001 -1.4035771722972465e-001
      -1.6783244913084239e-001 -3.3587529620644241e-001
      4.9515689362263152e-003 -2.6691798096173176e-002
      -4.0468133309105958e-001 1.2622705591292741e-001
      1.9454973596892863e-001 -1.3089709571133076e-001
      -2.0073075260375911e-001 -1.4559033363657161e-002
      5.3977558488839512e-002 -8.7965191811599930e-001
      2.6110622522462773e-001 7.8499099817279439e-001
      -5.0330934472696355e-002 -3.0926399741691118e-001
      3.9166259286332145e-001 -1.9313895036322026e-001
      -2.7020206161461557e-002 6.0435911670808667e-002
      1.1780175521195502e-001 -7.2980223998256100e-001
      6.0129222024324011e-002 1.1429901168881576e-001
      1.5450941988326383e-001 -1.4725084159543517e-001
      9.3687974116224440e-002 2.0037926999730638e-001
      -1.6049502327381344e+000 -7.3857984971138546e-001
      1.2385188510251829e-001 -2.0238739936993183e-002
      -8.1491737608126252e-002 2.7262077619213999e-002
      1.0100743920485179e-001 2.2680194332485856e-001
      -2.4340855325241703e-001 3.4522590166209288e-002
      -1.1016077181928166e-001 1.1645404748898676e-001
      -7.4151105743312951e-001 1.2202297937148032e-001
      2.8318157239494879e-001 1.1121794185805799e-002
      1.2899641240110392e-002 4.1911816503690896e-001
      -2.0080575374211343e-001 4.0815494299970237e-002
      -3.9303351717692486e-001 1.5527678877105291e-001
      -7.2645201801901149e-001 1.1121220525137587e-001
      3.5896342510648471e-001 1.5933336666333960e-002
      -3.2324313150151673e-001 7.4489038258595619e-001
      -2.3320172153691904e-001 4.9102450107749890e-001
      -2.2959707919407998e-001 -3.9294217292230371e-001
      -4.2862441509803961e-001 5.4035031463817862e-001
      1.6671283682979712e-001 -3.7136715676896019e-002
      -1.6043671849282092e-002 -4.9484373922731244e-002
      4.6593267860989507e-001 3.7908861417606265e-001
      3.6035996004025871e-002 -6.5111380476132552e-001
      1.0496946458625349e-001 5.0920532181277345e-002
      -9.5961580831511725e-002 2.5300274182811829e-002
      1.9013775610766553e-001 -7.6333530813745576e-001
      4.0180264869539445e-001 -4.7086664666910322e-001
      7.3951143798873797e-002 -3.2784864903519551e-001
      1.3254082223424465e-001 -2.3693162255587727e-001
      -1.6304666984406663e-001 2.3207268788789044e+000
      -1.6957201054156026e-001 -3.5105364139806117e-001
      -3.3077620079490491e-003 -3.7424454573742266e-001
      -2.1469161213465116e-001 -4.7181874965471871e-001
      -1.5990560155444020e-002 -1.2393271209107593e-001
      -3.6871155471049688e-002 1.4435579551950832e+000
      1.2992923876697512e-001 -2.0689309085612145e-001
      -3.8930446177678357e-001 -2.4213647481101996e-001
      -1.7767158588046483e-001 -7.5837390523240358e-002
      9.9911336611123128e-002 -1.9117264231492292e-001
      7.6404718026551410e-002 -2.4709583266143179e-001
      8.4478243389000562e-001 -8.2727830268135835e-002
      1.1657804242594956e-001 1.8941636104030220e-002
      4.4812410788515084e-001 1.5775266929289797e-001
      3.3780037579333516e-001 1.6419708231114143e-002
      -5.9545174367023779e-002 -5.7961744812608462e-001
      1.7158168282664386e-002 -5.4835901640885865e-001
      -1.6373873176586906e-001 1.7352675591146522e-002
      4.4869852962283968e-001 8.8061662875241142e-002
      1.0739856552600788e-001 2.7795461775735976e-002
      -5.6955272656876832e-002 -3.9382270297091510e-001
      3.9349635781426301e-001 -2.2998439816103672e-001
      8.6889903462805770e-002 1.1862500561076283e-001
      2.0877629319101584e-001 3.2657054497604344e-002
      -9.2787811325175981e-002 1.3417900246116921e-001
      -2.8931807967268774e-001 -3.3404532291122002e-001
      6.0139608261194164e-003 3.4372293344157340e-002
      -6.8433119708248807e-002 -2.5383776059383210e-002
      1.8993048361826020e-001 1.9713409602639725e-001
      5.7959156597069272e-001 1.6357248441159367e-002
      -2.0231577010956264e-001 -1.3978284276751574e-001
      -1.4327344233818451e-001 -2.2855110126732134e-001
      5.4655334694092630e-002 -4.3320584371528970e-001
      -3.4582547628795784e-002 1.3864061402004449e-001
      6.1059745714804645e-002 -1.3122030642846275e-001
      -3.0469904715347239e-002 -2.7570865439598424e-001
      -3.5440945074247449e-001 2.5678965268904081e-002
      1.4061294405073055e-001 -7.1105693431392711e-002
      -1.2002200707453621e-001 1.5923812599405276e-001
      4.6699154243584704e-003 -6.2410477114394736e-002
      -1.3338755260154775e-001 -8.4468815210547873e-002
      2.5741966716490555e-001 -4.8100486986971785e-001
      2.9093779985026869e-001 2.1406242502379283e-001
      2.2585862051193240e-001 2.3536298342460676e-001
      1.1291363333213923e-001 -2.3945484432210618e-001
      -4.3637648661560163e-001 1.6016023615181227e-001
      2.7573759498786732e-001 -3.4018051664482618e-001
      6.5334375630202757e-001 1.8803310072878296e-001
      -4.0997770089241620e-001 6.9418490871646824e-002
      1.5223702268161704e-001 -1.4001824446651752e-002
      -5.1389667327552169e-001 1.9360898842655777e-001
      2.6513711705284054e-001 -1.4604605095693723e-002
      -1.0073781737565635e+000 -2.0939170221891956e+000
      -2.3769314958640772e-001 2.5307309658125599e-001
      2.9947486224267739e-001 7.0856753811434955e-002
      7.4047187119383240e-001 2.8779278609739417e-001
      -2.8046581832884571e-001 1.0804771622293043e+000
      -7.4924801766239046e-001 -6.5259834121852389e-001
      -2.8787645198156969e-001 1.5890323591494818e-001
      -1.1302457120114233e-001 2.8697179027758263e-001
      7.2589424586604478e-001 2.0772054423803571e-001
      -1.2360144978198954e-001 3.6957915815915343e-001
      -1.6737493793304911e-001 2.8397229856827177e-001
      -8.8300355103248327e-003 1.8052971838674919e-001
      -1.2221658095203407e-001 8.8424217151264625e-002
      1.3229423874816690e-001 1.7028377248784538e-001
      1.1263823024733204e-001 4.8196865120138987e-002
      3.8291181071722852e-001 9.4720675006220600e-001
      4.2450675222503662e-002 -1.5727809167736576e-001
      9.7001319536004757e-002 1.1334512185924612e-002
      -2.1732586464196882e-001 -3.6023787446207639e-001
      2.7517175702369634e-001 -1.5958206564399251e+000
      6.0313412348032824e-001 -3.2240763744106821e-001
      3.2715329406074489e-001 -1.0108906437723891e-001
      1.3041039613198380e-001 -1.7610472983970976e-001
      -3.3336476117133163e-001 5.8684093968283238e-002
      1.0514014133014339e-001 -1.9221544000390192e-001
      6.3565876525765883e-002 -4.3480717643473589e-002
      2.1317211648492393e-001 -8.8393877659782183e-002
      5.8357678916705513e-002 -8.3683055560456562e-002
      -4.8915521587031441e-002 4.6979671745503787e-001
      1.1734777885146709e-001 -3.2108031422669320e-001
      4.4396784798986316e-001 -2.6285651702145701e-001
      2.5288587166853510e-001 8.5592421739922722e-002
      3.3019952935479624e-001 -1.3823922817610099e-001
      -6.8930334830968415e-002 -2.5761116945070894e-001
      3.8879244181213607e-002 5.1495212447607186e-002
      -2.7461369835421075e-002 2.8754274160578763e-001
      7.5560959770809377e-001 -7.0905188065011643e-002
      3.2877649634066458e-001 1.6755068239561334e-002
      -6.1200751757332451e-002 -5.8941957960960356e-001
      -1.6419550036070191e-001 -6.3673315452707338e-002
      2.4518814627393878e-001 -1.8805776680085223e-001
      4.5164155395917199e-001 6.6710621750272439e-002
      3.2136156241679270e-001 -6.6425988372280698e-002
      -5.8187368112226169e-002 -3.9160506588480798e-001
      2.4384786701998281e-002 -7.0463955320033120e-002
      3.6012985015869109e-002 3.1456887818526363e-001
      -8.9461424097562730e-003 -5.1652358341235183e-001
      -6.8139445914053465e-002 3.1249892712866156e-001
      -1.0952313773923845e-001 -1.1563816518220843e-001
      5.0488635875909505e-003 4.6500370569781052e-001
      3.4358024348256250e-001 2.3405534373671549e-001
      -3.3382822159673670e-001 -4.2459698478653725e-002
      3.2353155822791091e-001 1.7862220671072907e-003
      2.0097513831003642e-002 -1.0441052834374294e+000
      -1.3518898292813877e-001 -1.3083464421883415e-001
      5.4542583131122216e-002 -5.3598247998680890e-002
      -2.7160300758539192e-002 1.2943668761780727e-002
      4.9321517422684993e-002 -9.4129472601656564e-002
      -4.6618474413519094e-002 7.5194326337785208e-002
      -1.7947302225801312e-001 -2.2193654897133935e-001
      9.8800219565282163e-002 -7.4590925588236934e-002
      -7.4171841408286338e-002 2.0814189095805377e-001
      4.8033371000899452e-002 -8.0186492486283123e-002
      -3.1333241603635709e-001 -1.1631941052076392e-001
      5.1294811156013165e-001 -4.7462950640017515e-001
      6.4721472129809865e-001 1.1771942801182803e-001
      5.4520737344784687e-001 2.2900883391090668e-001
      2.3701236304970549e-001 -1.5938759925641455e-001
      -5.7088389729950184e-001 -1.7548129585656386e-001
      6.3533999277201103e-001 -5.2829833644851831e-001
      9.8734709182882935e-002 3.4750860495797775e-001
      -1.7268187019504566e-001 -9.9328794746484608e-002
      7.3224452827882247e-001 -3.5813898846714154e-001
      -2.9994876106944429e-001 7.2155475570967997e-001
      7.2556586407897250e-001 2.7458176087683855e-001
      -4.8133620808099931e-001 -3.0189925078855623e-001
      -2.7355529133633483e-001 2.6375667007265168e-003
      2.3994594243660163e-002 2.2932106738083385e-001
      5.6745542733337084e-001 1.3986556224753560e-001
      1.9475942983964925e-001 1.1797838057876469e+000
      -6.3449266898706291e-001 -3.7287449904063281e-003
      -1.3956019096561703e-001 3.6255384123314201e-002
      9.0806825017594808e-002 -1.9806668145119839e-002
      5.9370552602984195e-001 1.4592575293845672e-001
      -4.4111102207692066e-001 7.9114870435771145e-001
      -2.6669219008959172e-001 1.6883678816066280e-001
      -4.7363332520611451e-002 7.9082940128740814e-002
      -1.3058368931655728e-001 -7.1556467512785896e-003
      3.6649344195099764e-001 1.5039054869997148e-001
      -3.9707782479091229e-002 6.1719362153179372e-002
      -1.9466031513424121e-002 1.2235567584654085e-001
      -1.3381407243905805e-002 9.2458922510673891e-002
      -5.7814619534228985e-002 -3.9001693258364817e-001
      -5.0328461555012660e-001 -3.6085035085957562e-001
      1.2521837235834779e-001 -9.5384945682180411e-001
      -2.7484190675767808e-002 -4.6093646034562376e-002
      2.3975847517937782e-001 2.7420478618201860e-001
      1.3587603476709620e-001 -6.3545008833451808e-002
      -4.9035661263329777e-001 -5.4016144092671865e-002
      -4.0005562573167182e-002 -1.2079363843273015e-001
      4.7325783707846056e-003 -2.4597188643339450e-002
      1.6129230525174829e-001 9.8476892076250530e-002
      3.0066533625037656e-001 -1.0338341193575289e-001
      -6.5515590810605234e-002 8.8811308749399799e-004
      6.3058295764919309e-002 -3.1409111407627160e-001
      3.2571891029621908e-002 -3.0063615222393765e-002
      1.8173847509510146e-001 -3.2215226501124189e-001
      3.2448234051503794e-001 -1.1458466103563195e-001
      -6.5449791904859889e-002 -2.4596211722393296e-001
      3.9044280631146067e-002 5.0220486216870655e-002
      -3.4719400618440942e-002 -2.5142822730561100e-002
      4.6107987576213533e-001 -7.7300573242086820e-002
      3.3525895686849178e-001 2.5313613188627859e-002
      -5.4520938492398863e-002 -5.8985767274851664e-001
      -1.6945627535546565e-001 -6.3177498457195169e-002
      2.7580915981265417e-002 1.3230244955728740e-002
      4.5927038256668046e-001 9.8595605442177742e-002
      3.2969812033867008e-001 -6.6422608395784816e-002
      -6.3045665887713834e-002 -5.8831456675246185e-001
      4.0194741580546151e-001 1.2992423149388607e-001
      -1.9228195947667343e-001 4.3806152151610234e-001
      1.5660655252421832e-001 -3.5960788759891221e-001
      2.5636723273836648e-001 1.0590517269101139e-001
      6.4624639472210657e-002 -5.9742085457729646e-002
      1.6524919209277311e+000 -3.4236829569296030e-002
      3.0216497501279244e-001 1.4200907327113646e-001
      7.3297419694789104e-002 -2.7977108208768459e-001
      3.2280947149749450e-001 -1.0438821646812577e-001
      -4.3481463371501239e-001 -5.8771978306485340e-001
      -1.6443239866295783e-001 3.5735632367052417e-001
      2.3226971005969408e-002 -5.2377204694202650e-002
      -1.9549952173238589e-002 -9.9007374196547898e-002
      5.3875645368679594e-002 -9.5752550276214432e-002
      -3.6740355221066751e-002 7.9978027180385394e-002
      -1.9154929108806842e-001 2.7173389646613848e-002
      9.6205770030738311e-002 -4.3070364472209986e-002
      -5.2890344822752858e-002 1.9817352119312093e-001
      4.0031727696662023e-002 -8.0739676918606007e-002
      -1.4529037082434802e-002 -3.4472656271245083e-001
      1.9773762073049708e-001 -2.2405711683615440e-001
      3.5134092082836715e-001 1.1549256230794055e-001
      1.5845813076844839e-001 2.4292837023595304e-001
      2.3495578861845842e-001 2.8367811512197855e-001
      -1.3102939769719768e-001 -1.4146516052597732e-001
      2.1598608433993816e-001 -5.5608914519730490e-001
      2.0617337487095183e-001 1.0208097564881120e-001
      -2.4451575948574369e-001 -1.1199608744584248e-001
      8.6077874065791382e-001 -2.5303377439305896e-002
      -2.6033841280439139e-002 3.9722854450356726e-001
      3.7923271236492007e-001 -1.9904770626188898e-002
      -6.4806252329981828e-001 -1.9286934636812525e-001
      -2.7279415045128869e-001 1.1188085500250385e-001
      2.1235400319359238e-001 -1.3206383753982065e-001
      2.6237926911034953e-001 2.1027884783807338e-001
      -1.3841508693704480e-001 4.1343567148953286e-001
      -2.2933684939938204e-001 1.0983312180788435e-001
      -1.4292510312403442e-001 4.5936418917793848e-002
      -4.4877380418844703e-002 -4.9890437688343325e-001
      2.0176627250318205e-001 1.3824719113856734e-001
      -8.1475931681840441e-001 3.7587408127498112e-002
      -3.9379948533654036e-001 2.2378211855525793e-001
      -4.6843742397571997e-002 -2.0888885093829276e-001
      -4.2514044172597229e-002 -5.3723145348526757e-001
      3.3529214699104276e-001 1.3472683394437571e-001
      -1.0992197230293074e-001 4.1672720626329358e-003
      -3.1948002125069397e-001 1.7166779113619782e-001
      -1.7460104689672545e-002 7.1651777699187000e-002
      8.4172364372243208e-002 2.9534114289121716e-001
      -2.3816455609472983e-001 -4.3359755128944116e-003
      3.9921574589956776e-001 -4.2984157124281425e-001
      1.5869896117340311e-003 -7.5364611445490420e-002
      2.7235061795703902e-001 2.0908636095620067e-001
      1.3732719208490035e-001 -3.0778056726974790e-001
      -1.0334618781382960e+000 -6.3412278843752973e-002
      -4.0082150077437584e-001 -1.1794713810638337e-001
      8.1201136899874406e-004 -4.1339997699020657e-002
      6.5012834553181731e-001 -5.8332566811689348e-003
      3.2977530721028547e-001 4.3362626236145167e-002
      -6.6278405955747993e-002 -2.9964442253928945e-002
      2.9314103127416856e-003 -3.3350235860421890e-001
      -1.2728367860157755e-001 -2.7152663120451011e-002
      1.8436564354086596e-001 -4.4751815430786331e-002
      3.2249272475744206e-001 3.8017511297692895e-002
      -6.3287355351168667e-002 -2.5212093864053353e-001
      4.4110727847199861e-002 -3.0836782451909350e-001
      -1.3547675172259083e-001 2.9015907582066436e-001
      8.4765882241196666e-001 -2.8025142610985576e-001
      3.1891552608571327e-001 2.0354998135558213e-002
      1.0743259645930368e-001 -5.8364420157386976e-001
      4.2440134540089353e-002 -2.2024721384919499e-001
      -3.3728226570462905e-001 1.4275317393821390e-002
      4.5972863904910105e-001 1.0168005821603880e-001
      3.2061561919721226e-001 -7.1214391933888163e-002
      -5.9658140912909940e-002 -2.5424768359832273e-001
      4.8218134915978865e-002 -2.9634813476093209e-002
      -2.7881770746235368e-001 9.5489228975266682e-002
      2.8205817229585683e-001 1.6573245499824510e-001
      1.3247816387479142e-001 5.6316667434017531e-001
      -6.9312288723237214e-001 -1.6641934019346483e-001
      4.1829404416530652e-001 -5.6704982604939912e-002
      2.1027820889068061e-001 -9.4517648147260502e-003
      -2.5394734625235565e-001 -5.6271501403267490e-002
      4.6639748668922149e-001 4.8501435902794845e-003
      -2.6537774852924867e-001 -8.6597172512272003e-001
      -1.9178522138308163e-001 -7.8340492726023479e-003
      2.5206548453283233e-002 -4.3937852045229792e-002
      -2.0038836678313594e-002 5.2652211808146526e-002
      5.2483695926593452e-002 5.8624503706904176e-002
      -3.4983825113571801e-002 7.3529201925850038e-002
      -1.9678622762130477e-001 -2.2584442537485164e-001
      9.2157992662968716e-002 -2.7221681914734435e-002
      -6.7192000113666286e-002 8.5823109144684426e-002
      3.8512785454259790e-002 -2.6222474852381888e-001
      -3.6761900698748753e-002 -1.1318750199234488e-001
      1.8025151251838339e-001 -2.3367977190770176e-001
      3.9627260988685092e-001 4.4936662996276883e-001
      -1.4607077195722823e-002 2.2278175979680095e-001
      1.0534332605295718e-001 1.7218634380991599e-001
      -8.5697152231835882e-002 -9.5916863340464592e-002
      -1.8783973650662811e-002 -1.6945688970778799e-001
      1.9009069462343273e-001 9.5053790719553284e-003
      -6.8704895027186921e-002 8.8263619643922625e-002
      1.7788016812933360e-001 2.1483434572375759e-001
      8.2570845464753087e-002 3.9640021076325344e-001
      -1.3295759004542099e-001 2.0623275300148087e-002
      -5.5631846371354199e-001 -1.5193189736795193e-001
      -3.1828725931281210e-001 1.3329065752840832e-001
      8.1710451851349244e-002 -1.0175304548501060e-001
      2.0879234640178643e-001 2.0960336271972144e-001
      -3.1388393979808021e-001 2.2495042433831225e-001
      -2.7781486844268771e-001 2.1837040722546039e-001
      -2.1942254866157293e-001 2.0182936175970806e-001
      1.6482080393174323e-001 -3.5691283567161491e-001
      4.0482665942575574e-001 -3.6391123685828329e-002
      -1.0706484051904770e-001 -7.1988228437029102e-003
      -2.3260262463165515e-001 2.2497514446614267e-001
      -3.8979485537920487e-002 1.5392223872583269e-001
      -6.3598392023232767e-002 -9.0856210987776742e-002
      3.2947641524821147e-001 5.9009038092758294e-002
      -2.3047344276798259e-001 1.9016148643491826e-002
      -5.4289288191502494e-001 4.1886753423357737e-001
      -5.0032283891721756e-002 4.2481492501805629e-001
      -5.8039747986791519e-002 -2.6582024393834558e-002
      -6.6128054902565070e-002 -1.2355088839915304e-001
      -1.4197070005362844e-001 2.6468122500706909e-001
      2.8460356756464995e-003 -6.7416800499309398e-002
      3.0952172411986074e-002 1.1994131968052510e-001
      1.3865166567021892e-001 -3.1680032102717987e-001
      -1.1907631940744976e+000 -1.9725440089619817e-001
      -4.1782326003419690e-001 -1.2303587212942030e-001
      2.0297050674832587e-003 -4.0173186332327214e-002
      1.7245370779886834e-001 3.8351756034918368e-002
      3.2435262322964908e-001 3.5250779769500251e-002
      -6.6150354171669673e-002 -2.4786864082486246e-001
      2.4689157218549251e-002 -3.3639586464938970e-001
      -2.4453234662044687e-001 -2.0094232838003830e-002
      1.8356545485033440e-001 -4.8878764028522065e-002
      3.2693651339364804e-001 -3.7449590028759541e-002
      -5.8902622123038484e-002 -2.4573562253333872e-001
      4.5664825536053860e-002 1.0538175271788609e-001
      -3.3954797340088622e-001 2.8454203190412447e-001
      7.5753187544899447e-001 -7.9810371660344415e-001
      3.2976708367051188e-001 2.9508380078175772e-002
      1.0923782894030347e-001 -5.8696422284930727e-001
      4.5106290640284603e-002 -2.2112970154522832e-001
      2.2239658706506535e-001 1.7306780413154935e-002
      4.5993200333742507e-001 1.5144180147549507e-001
      3.1936295668436210e-001 3.1849866891515310e-002
      -5.4601785728456483e-002 -3.9222744572854079e-001
      3.5947561828018521e-001 -3.2049713287799500e-002
      2.1691626492735927e-001 2.8034842826658174e-001
      8.9758992725353715e-001 1.2548413905508829e-001
      -4.4631334916177245e-001 -8.9911514240488558e-002
      -2.8126875712471033e-001 -2.5391924281515965e-001
      -1.9985748536852671e-001 1.5564920354782200e-001
      9.6748089729930542e-003 -5.0135425601564344e-002
      6.5831558494503298e-002 -1.8130870949391302e-002
      3.1879167266925257e-001 -1.0701560273725576e-001
      1.2114090751197702e-001 -5.9151337485639999e-001
      1.0709937229252946e-002 -4.8855588668420121e-003
      2.0705034678024960e-002 4.0579138395599107e-001
      -2.4231328918495759e-002 3.5884216890770947e-002
      2.3209320061842226e-001 5.5930956156977810e-002
      -4.6381220612007425e-002 7.9193017513444361e-002
      -1.7933943341679973e-001 -2.5034980259005990e-001
      3.7283424875341240e-002 2.8625052284715169e-001
      -5.5342288603791354e-002 -2.2129006324497402e-001
      5.1302300587874453e-002 -1.0443027661529568e-001
      -3.1841402040471291e-002 -1.0909806744898863e-001
      1.3897701823121716e-001 -2.3074171534665802e-001
      4.1585965936851893e-001 4.4727518929297666e-001
      -4.9182055817148143e-002 2.2470280737355028e-001
      1.1303188649064874e-001 -2.2864951885422335e-001
      -1.3213384761279351e-001 7.6282121238006290e-002
      -1.1312949117072993e-002 -1.5700137760284974e-001
      9.5733447783703761e-003 -4.5215611213997392e-001
      -4.2873795186262553e-002 5.8659699972230570e-002
      -1.9170979571056856e-001 1.5398787533033800e-001
      2.7787143845089807e-001 3.6578328511902763e-001
      -8.6969086776586291e-001 3.1441538455989654e-002
      -1.4771388603286359e-001 -2.1457768934354540e-001
      -2.0106264541895139e-001 8.8152326568410211e-001
      -9.3795430704864263e-002 -2.1830050516202906e-001
      2.7129763401155033e-001 -1.7893048130498548e-002
      -4.0362619613825389e-002 -4.8126355794514519e-001
      -1.7480777767245245e-001 -8.2461667878550513e-002
      6.1198224619191569e-002 8.7657714325183889e-001
      2.4871969039242350e-001 -8.0310195598774536e-001
      -5.7377580844639495e-002 1.9991100340588661e-001
      -3.6546371257522497e-002 1.2143700403259886e-004
      -1.6132094075272446e-001 2.1067702906840530e-001
      -9.5830568979328290e-002 4.6289124153570083e-001
      -1.7103895580868295e-001 3.0952093567367493e-003
      -9.9957071151806909e-002 1.4099091733292679e-001
      -2.6854694710953120e-001 2.7142172045646490e-001
      -5.9957664670179589e-001 -2.3737740807966812e-001
      2.7822770942515861e-002 3.9734312630319030e-001
      -5.5049340781796186e-001 1.0636620996348825e-001
      -2.5758846194151153e-001 -1.1894083069049506e-001
      -3.8037304024487101e-001 1.0586643631121917e-001
      6.8721467000993890e-003 -5.6956800411878082e-002
      4.2518105451029742e-002 -3.3724464140300843e-002
      6.1671318100405992e-002 -1.6611724957024759e-001
      -1.1499625170650518e-001 3.6983759641151012e-002
      -2.5110767079467428e-001 -4.9138659642467254e-002
      4.3689930625994931e-003 -2.6780627672524843e-002
      -1.0282423255794752e-001 9.2897292661498848e-002
      3.2788906886544056e-001 -1.2069899082423872e-001
      -2.3461933922613484e-001 -1.0579287529053163e-001
      4.2320886142091022e-002 1.4641297670283750e-002
      1.2347968959004033e-001 -2.8634563447490595e-002
      1.8232864082060971e-001 -3.8810946897365674e-002
      3.2253478751471110e-001 1.6894819945776025e-002
      -5.6574434085614356e-002 -2.4727922465531968e-001
      6.1300120573360905e-003 1.0139968022970983e-001
      -5.0809241985777819e-002 1.6184008863715502e-002
      9.7115660726372599e-001 -2.7848447972449331e-001
      3.2957776108580517e-001 2.7225956440736623e-002
      1.1707076459485184e-001 -5.8427672566987432e-001
      -1.6290186497194281e-001 -2.9824302210768462e-002
      -2.6296758256343028e-001 1.4880507750854271e-002
      4.5223044141929075e-001 -3.2565027698963106e-001
      3.2137815984252227e-001 -2.6186744102469524e-003
      -1.6507435889797148e-001 -2.4792610994585917e-001
      3.6572007833216641e-001 1.1921725947668987e-001
      -2.2449119083331470e-002 -2.5510958927702559e-001
      1.4990848459007045e+000 -3.6662254649809323e-002
      -1.8680103207191091e-002 -5.6635538919975109e-002
      9.7793276575968757e-002 -7.3011921879366837e-001
      -1.1030564129263686e-001 1.8382540242378026e-001
      2.6497147128617417e-002 -2.2975580176827962e-001
      6.1810679033828120e-001 -3.6291613681009513e-002
      4.5799042865645767e-001 -1.1265345243022344e-001
      1.4451328407699154e-001 -3.4437038834760231e-001
      -1.8936791630579800e-001 1.3005248182193577e-001
      1.8138459287382301e-002 1.8746573661227350e-002
      -3.2348854206961986e-002 3.0105211553969065e-002
      2.3534042690394621e-001 7.6708980905645721e-002
      -4.9310909013089245e-002 7.1647463240650910e-002
      -2.0168072286176825e-001 -2.4824740252980818e-001
      1.4169514019007998e-001 5.1321153230321015e-001
      -4.5398111950788765e-002 -1.8268589759911377e-001
      3.3854011183216464e-004 -8.5627691855295104e-002
      -3.0109211131450118e-002 -1.1097060093087284e-001
      1.7794681014731800e-001 -2.1918171489506044e-001
      2.6818100146104751e-001 7.5602704962649048e-001
      2.3476324678124169e-001 -6.7126958716255694e-002
      9.3234955554939263e-003 -2.1869565471916641e-001
      1.1629990477666861e-001 4.1007091909984882e-002
      -2.3265047527921658e-002 5.4156782260772812e-003
      1.2146635335749366e-001 -2.1618901445712928e-002
      1.8861866918448073e-001 2.6906849742276828e-001
      -1.5383334212762845e-001 1.7921253267207823e-001
      2.6372058781490193e-001 1.3390351981933626e-001
      -7.2677988744456123e-001 4.4148297848421636e-001
      -7.1478454826142040e-002 -3.2674345848785474e-001
      -2.1418684048477483e-002 8.9449667099764008e-001
      -1.2125232938429290e-001 -2.1338739076945862e-001
      -3.4817320641350860e-002 3.6665062327402248e-001
      -3.2015842993187671e-001 7.0752845768879219e-002
      1.5474088265588016e-002 -3.4212200786273211e-001
      -4.4393806067506403e-001 1.8437989436996898e+000
      1.5163046641008415e-001 -5.9122927520448576e-001
      6.2189015609017531e-002 3.4027038545142219e-001
      1.6459816832346341e-001 8.4015775113671726e-002
      -3.0117975673639212e-002 -2.5615087666106517e-001
      6.8051838382820834e-002 4.9071967843752123e-001
      -7.0506906933662161e-001 -1.1438345158156128e-001
      -1.6937800111631044e-002 2.2054570063673208e-003
      -4.4644805124812648e-001 6.8001661410069886e-002
      -2.7540070812898772e-002 -1.2739829919418093e+000
      6.9387177033799319e-002 4.6169892157679543e-001
      -4.5740667601885365e-001 3.7068436370452762e-001
      3.9851963442770377e-001 -6.4156022151632269e-002
      -2.0234983668855297e-001 2.0296490914822746e-001
      -5.3484571005492226e-003 -3.0572437525052523e-002
      -5.6129347201148887e-003 4.6380219473830281e-002
      2.1772598637986784e-001 -1.6058730435468085e-001
      -1.0882369438636527e-001 3.0705013169621299e-003
      -1.6636900054183684e-001 5.7025625872702906e-002
      1.4222972581595064e-001 -8.5391363009859084e-002
      -1.0161826904197359e-001 -3.5136351937152158e-002
      8.5966461173454944e-001 2.5730398609338095e-002
      -2.0043193852643063e-001 -1.1684490324833250e+000
      4.2525665170384336e-002 1.9044699466330278e-002
      1.3306381383320331e-001 -2.5674543253686827e-001
      1.7534368101201786e-001 -2.5790965524445242e-001
      3.2646578912502133e-001 -7.1538648833298968e-002
      -6.4082882175513750e-002 -2.5209066873076402e-001
      4.2692098263389877e-001 -1.4932102974697534e-001
      4.7062326432647648e-002 -2.3315494005408589e-002
      7.6265005636638039e-001 -2.8961686435515471e-001
      3.3113629585337256e-001 2.0316641288863159e-002
      1.1419370370711594e-001 -5.9137960836328018e-001
      1.1696656721725224e-001 -3.2240060392969325e-002
      3.1240796716123564e-001 1.1056990300237343e-002
      4.4963906301814832e-001 -6.2689966410665529e-002
      3.3266589707029076e-001 4.4886438690736524e-001
      -1.6843535998033388e-001 -2.6047486489715466e-001
      6.9997769187901260e-001 9.3107701288587003e-002
      -1.0980372829553890e-001 1.0014577497727568e-001
      1.3677942800745857e-001 7.5929369189689094e-002
      7.1953568613148566e-001 5.1810593460523280e-001
      -7.0630028649293256e-002 -6.2125706297462424e-001
      -2.0529455802176216e-002 9.8896453908405457e-002
      2.0561735991149407e-002 -2.4565374726809749e-002
      1.3526776807970498e-001 -1.7580072125628871e-002
      4.7002485694715199e-002 3.2367935852710965e-002
      1.2105579657394050e-001 -4.2079663960905572e-001
      3.6709892256112445e-002 -4.8740412108446825e-002
      2.2856911775923618e-002 -5.5952746790322860e-002
      -2.6810030499577978e-002 -1.7675503256318709e-001
      9.5819976183039252e-002 8.0872264284423193e-002
      -4.2516796120191040e-002 8.3955926712326726e-002
      9.5170674967116328e-002 -2.2268918608949936e-001
      1.3809064252734168e-001 6.4159162669579040e-001
      -5.8518257384729447e-002 8.2577805166722626e-002
      -1.0854030005257392e-001 -9.5586877570447953e-002
      -5.4562403142209233e-002 -1.0341483942366923e-001
      1.0308886423055991e-001 -3.7631695038486734e-002
      7.8294168753764617e-002 6.5500474745524784e-002
      2.3250560304382115e-001 -2.9771794171905996e-001
      4.3154174240345233e-002 -5.4440802705074703e-002
      -2.4271055222305524e-002 8.5919134204598527e-002
      -5.1158422743011175e-002 -6.5446852336466826e-002
      -4.7511348746999728e-003 6.9266904416502489e-002
      -5.2608999823903400e-002 -1.0438190063933785e-001
      -2.3638188117493597e-001 1.3704465206723040e-001
      2.7995013427764733e-002 1.2430058844456990e-001
      -5.3112752699480892e-001 6.0363692805759595e-001
      -1.8036837605236472e-001 -1.1357175911851729e-001
      4.5961373443790532e-002 9.6554043156096267e-002
      -9.1563058934014521e-002 -2.8409807963639744e-001
      -8.0735285665543555e-002 1.4695869375361850e-001
      -1.5692834921536711e-001 3.4411010711830303e-001
      8.3168239916958181e-002 -2.3619762879778988e-001
      -4.1132969084708199e-001 1.6330667520733064e-001
      4.9406491353234788e-001 -7.2327850902880853e-001
      -6.3934865703660759e-001 2.3107318147061645e-001
      1.3945386980212848e-001 2.5411893068782145e-002
      -8.5538442918212373e-002 -1.2956249419848861e-001
      -1.4725065707003906e-001 2.2851084884902428e-001
      2.9711013832571048e-001 -1.8008057948574890e-001
      1.2467925461029047e-001 4.0638463268705960e-003
      -1.0216029083162041e-001 1.2815466575999232e-001
      -4.8135142492352886e-002 -1.0194093011391563e-001
      -1.9825429065615000e-001 4.6541259736843305e-001
      8.2225081163834979e-002 1.8511782361414746e-002
      3.8051141509454789e-001 -6.3081362281338760e-002
      -3.6480423856960764e-001 2.8906027114888622e-001
      3.2294729558869410e-002 -3.1115061440362121e-002
      -4.1161846758278314e-003 7.2955072963179435e-002
      1.0563620837747850e-001 -1.0948469752135831e-001
      1.1082875194299457e-001 -7.3237664087389743e-004
      -9.7794898361916308e-002 2.9084662755691493e-001
      4.1401507231728562e-003 -9.0254058210022692e-002
      -1.6378521628659787e-002 -4.5065720474326658e-002
      7.4063010919707550e-001 2.6650058724954226e-002
      -1.7368305024639005e-001 -3.3104667248175694e+000
      6.3214808905339231e-002 -1.5118195436646775e-001
      1.2876429069638742e-001 -2.7104272409344565e-001
      4.5634418882083366e-001 -2.6975405162286842e-001
      3.2538186962566151e-001 -1.7344466972549633e-001
      2.7144156516430679e-001 -2.4619230272165665e-001
      3.7239324057762269e-001 -1.4741283046993794e-001
      -3.6342416183528170e-001 3.9052631338327481e-001
      7.6447488107989814e-001 -1.9304580394073460e-002
      3.2775480182386796e-001 -1.5421837457420734e-001
      1.1153144469988392e-001 -5.7889054845550691e-001
      4.2108342916827257e-001 -3.0268613966644854e-002
      -1.3155037808213996e-001 2.8475344780434003e-001
      7.6180967399086608e-001 -1.0538747337738907e-001
      3.2563483860470571e-001 -8.6539394165982428e-002
      -5.7890048894993863e-002 -5.8441518334572917e-001
      3.6361778342863321e-001 -1.4652972285268631e-001
      -4.7566203060322044e-003 -1.0515178847131518e-001
      5.9863141610442400e-002 -4.1118269833806675e-001
      -1.7918163619622222e-002 -2.1816317502260063e-001
      -7.1745230985145375e-002 -4.2513536826604587e-001
      -3.4270505726483949e-002 1.3368784979876241e-001
      -2.3715384427156834e-003 -3.2848433480280430e-002
      2.9866179906877621e-001 5.1659354726055762e-002
      3.3853733230334110e-001 -1.1116834303173344e-001
      1.0677874625717491e-001 -1.6950996278472785e+000
      2.3417711880373584e-002 -4.7166706427329133e-002
      1.8001820769980144e-002 -4.3288862963000829e-002
      -2.8319776436038741e-002 -1.3075468851523928e-001
      8.8388941292907350e-002 -7.7938097357139621e-002
      -5.3502537356705952e-002 2.0676632708219927e-001
      -2.0848155225832249e-001 -2.2962113041196636e-001
      1.5294480543391573e-001 5.4867292963886938e-001
      -6.7018863248668389e-002 7.9524304999798331e-002
      2.0089484067659768e-002 -8.5235056998805972e-002
      -6.0282191198532932e-002 -1.3635811326365230e-001
      9.8378006273429047e-002 3.1014528091086204e-002
      5.9007569595590628e-002 4.0845692269894457e-002
      -2.1166633540263873e-002 -1.2771072046284537e-001
      3.9394326750298442e-002 3.7491645531728818e-002
      -2.1716654931964788e-002 8.3738756503298262e-002
      -3.8025001336830723e-003 7.0418054880107633e-002
      3.9474635857076001e-002 1.0500355833375491e-002
      -3.1253527411317561e-001 2.3865352444909058e-001
      -7.2167574201950746e-002 1.1326470878180625e-001
      1.6591435238503074e-001 1.3221086321000777e-001
      -4.2538879595762018e-002 6.5465174918217039e-001
      -1.8459568383228256e-001 8.7183088041751636e-002
      -1.6635864987246596e-001 -1.2697222870582303e-001
      -8.3616027623878791e-002 -2.9557952635734397e-001
      1.4340910823418682e-001 -6.1278267119869397e-002
      3.4072049918457963e-002 5.7690512433749719e-001
      -6.6205074439933884e-002 1.8483287007953786e-001
      -1.6534931326900523e-001 -2.2552882172595057e-001
      4.9575226043071635e-001 -2.8582924747060029e-001
      -5.8293084981451315e-001 2.8783567202352079e-002
      3.9161746941129488e-001 1.3179956639992091e-001
      -8.6875794500585551e-002 -1.1146615183962463e-001
      -2.2224903809437677e-001 1.0471028787418757e-001
      7.0981147433104430e-001 -4.2923680138334780e-001
      4.3049017914969939e-001 3.7660087615520560e-002
      1.8255598215941546e-001 1.4327944743869786e-001
      -6.3793453503020625e-002 2.2663860439814554e-001
      -6.7111461026158203e-001 6.5438678018045593e-001
      1.6695144631110375e+000 -1.6665303317998975e-001
      1.8246317436053680e-001 -7.8200739462375379e-002
      -1.0557771727749155e-002 5.4591362852777221e-002
      -1.9100848495895373e-001 -1.9253434572669523e-001
      -1.1969496018913364e-002 1.6007346000148925e-001
      1.0087831062771710e-001 -8.8857218986035422e-002
      1.1868593665161298e-001 9.9669724203766243e-004
      -2.5289080128230179e-001 2.9829931656878594e-001
      -2.3084649905496645e-004 9.7741073942980549e-003
      -9.8256157201018365e-002 -2.3702697552275965e-003
      2.1046563468240739e-001 6.9945543104498950e-002
      -1.7238243940103223e-001 -5.8638789724817009e-002
      -2.0649855548005608e-001 6.8813477180232566e-003
      1.8982319641064496e-001 1.2299268973325805e-001
      7.7763568798641791e-001 -2.7127370704511206e-001
      3.3208062419752105e-001 -7.5879161658085198e-002
      2.7927790398845675e-001 -5.8053570922859588e-001
      3.6604884688280631e-001 1.0119138724472918e-001
      -1.9711819723021198e-001 4.4552532865350747e-001
      7.6004894128807543e-001 -4.9460120177084690e-002
      3.1940057979967895e-001 2.8703863539220085e-002
      -9.2266594084304349e-002 -5.8000402797043293e-001
      4.2848328657350576e-001 -2.7410794540911006e-002
      4.6159456913814970e-002 4.0397451914064503e-001
      7.6035450112489833e-001 1.8558532164376607e-001
      3.2191288693334036e-001 -6.2809192573016204e-002
      -1.6145425180242751e-001 -5.9067524467008681e-001
      4.2581269268225197e-001 3.5487488118908361e-001
      -8.5190477728901204e-002 -8.6910515743802666e-002
      1.4966665099572857e-001 2.2765264524635946e-002
      1.1329645881511238e-001 -3.5234857170970590e-001
      -5.3581455632464814e-001 -8.1718451453447272e-001
      1.9776293219010593e-001 -4.1106339691561378e-001
      -3.3686658228810912e-001 -1.4398967280397762e-001
      -2.7034805792831346e-001 -1.4980718895388362e-001
      3.4021806451453979e-001 -4.4182715211710721e-001
      -6.3249849702796734e-002 -4.1992031767087123e-001
      -6.7272504137078276e-002 6.3269324181241426e-001
      5.8590557403494690e-002 1.0283466074042312e-002
      -2.0610022654613803e-002 -2.0802365745708273e-001
      2.0411148105458876e-001 4.0316820848981375e-002
      -4.9088777069891919e-002 7.8775371458389629e-002
      -2.0998897074544220e-001 -2.4969639812586411e-001
      1.4655014209256687e-001 2.0312351877380706e-002
      -5.1973097651568594e-002 5.0435399116521540e-001
      -1.0405760889908192e-001 -9.3399891148063671e-002
      -2.9358315504038196e-001 1.6260738468175517e-001
      1.0859458393771737e-001 1.9598801201896096e-001
      2.4912840522353416e-001 -5.2118417529031111e-002
      -2.1165335213151712e-002 5.1168607802340804e-001
      4.2239156190337274e-002 -1.9123811625772879e-002
      2.2799064849829517e-001 9.1638484553858673e-002
      -3.1536670728199887e+000 -6.9726143221763556e-002
      -1.0758097829882535e-001 -3.5564943837682883e-002
      -3.1548977952279156e-001 -1.8797871480676343e-001
      -5.9732251361113764e-002 2.5552767790548608e-001
      1.5641308385524269e-001 7.2924178976894426e-003
      -6.7697147441256947e-002 3.9321224269254423e-001
      -5.6655490189621738e-001 -1.8135317801120071e-001
      -1.6620858245641085e-001 1.0497267337972191e-001
      -1.1641480271470399e-001 -2.3214330944371991e-001
      5.3900533538126447e-002 -6.9690717389035400e-002
      -1.4695117264940027e-001 1.4554869596939690e-001
      -6.9849225845349483e-001 5.6855794727053481e-002
      -1.7500351151161392e-001 -1.1718618195647176e-001
      1.8263555555753545e-002 -2.4413604835232747e-001
      -2.8191641404723533e-001 -7.0719343627212439e-002
      -1.5180007884987110e-001 8.6959027133692357e-002
      -7.6548874212185924e-002 -5.1678800064606199e-002
      -2.2277424235248203e-001 1.8820381036425124e-001
      1.1877472090937938e-001 -1.7893576044764134e-001
      1.9101158613410166e-001 -6.0026727406357429e-002
      9.2339793982681787e-002 -3.2617225605701808e-002
      -2.5651366786432794e-001 3.6861252317381538e-001
      -1.2710329978285402e+000 2.5664962664207525e-001
      1.7468794636110656e+000 -2.2005718101260721e-001
      1.7406149985849564e-001 -7.3531517675904268e-002
      1.2768525619350082e-001 4.5097899606409343e-002
      -1.0853201590411556e-001 -1.8744255015607159e-001
      4.4384804141318443e-002 2.0159535936390555e-001
      1.4640188773179164e-001 5.1115292851267602e-001
      3.4112972267579805e-001 4.8012562357033065e-002
      -5.2347373913607620e-001 -5.5368409884823722e-002
      8.7074646514292503e-002 1.2808678730186471e-001
      2.4412756485417789e-001 5.3617004704036769e-002
      1.4228068084861378e-001 5.3999814448907990e-001
      -1.6521860509294775e-001 8.1576904059689724e-003
      1.0565910075804973e-001 -9.1225756789928114e-002
      1.5839384109301177e-001 2.4074717983919247e-002
      8.1347805446515808e-001 3.8549972535242463e-002
      3.1925826149831860e-001 -2.4832326472596458e-001
      -1.7141148177282728e-001 -5.8738688229190494e-001
      5.6182296976548807e-001 1.1192456544142088e-001
      -3.4764025710501113e-002 1.7456516726923547e-002
      4.5462071952495214e-001 -2.1550976666988042e-001
      3.1885416251902021e-001 -2.4728026342149959e-001
      -1.6678841635497754e-001 -5.8966296928565776e-001
      2.3225095584930752e-001 -1.4663132142280447e-001
      -2.7264834989390258e-001 7.9649694647012884e-003
      7.6562514271291537e-001 -1.8794370808583236e-002
      3.2933009417840042e-001 -7.3884956106504515e-002
      -1.6674707061160565e-001 -5.8805459340060517e-001
      3.6288075208743337e-001 -2.3133697636031519e-001
      -2.6754710733348058e-001 1.6063549872398308e+000
      5.8860683788206758e-001 -9.5867874016011170e-002
      3.9872937224082960e-001 4.7569327990727550e-001
      -9.6181090783295384e-002 -1.1668800276391624e+000
      -1.1036069524350557e-001 -3.5517046188476720e-001
      -3.1841436290199976e-001 -8.2897468054810956e-003
      3.9649132897015593e-001 1.3496875691016946e-001
      6.6497745083011628e-001 2.7708397606530984e-002
      -2.9625906997837015e-001 -3.1038360817871186e-001
      -8.7481848019998906e-002 -4.6792487586350834e-001
      -7.7462354165133571e-002 1.9493669060824500e-002
      -3.4224394200730673e-002 -2.0393279191656313e-001
      2.1210373357641937e-001 9.6815891931897283e-002
      2.2812706347777789e-001 7.0888571526082050e-002
      -2.0060939156916879e-001 1.0248619799542275e-002
      3.1402771680204711e-001 -5.5370794357807185e-001
      -6.0837047440298622e-002 2.2928678434896273e-002
      -6.4751825621476147e-002 1.1553877007495604e-001
      4.1030378889742347e-001 9.6653241125158315e-002
      8.5208479143258617e-002 9.3496651959722593e-002
      1.0612571765784477e-001 -5.4787037864770252e-002
      2.9698934924801433e-002 -1.2321046923979113e-001
      3.5034453451100171e-002 1.0966847904437226e-001
      4.9399674555250889e-001 5.0801676268311435e-001
      -2.5427296286855988e-001 2.1179810366664713e-002
      -4.7826986382149220e-003 -3.9743044254468229e-002
      -3.0820470352868323e-001 -3.9433499928679927e-001
      -3.1423739865842637e-001 2.5199782623619854e-001
      5.5944396024752918e-001 1.0166557914523902e-001
      -1.1096647848441372e-001 4.0517957638616919e-001
      -2.0466830309913742e-001 -4.4618300655852466e-001
      -8.1235457391608856e-001 1.2174325537657721e-001
      -1.9803675814541472e-001 3.1999501673764486e-001
      3.8236388866397009e-001 -4.4141038067345558e-004
      -5.9120023378093089e-001 9.4265293382700455e-002
      -1.7682502100707978e-001 -1.3482246389734359e-001
      -1.7341676919107257e-001 -1.4143530844120203e-001
      -1.9951227405830907e-001 2.2067555386408180e-001
      1.0282903652118698e+000 -1.1844148827168852e-001
      -5.4364397604279135e-001 2.3012657639299725e-001
      -1.0951922199993962e-001 -1.6772394001827978e-002
      -8.4616469636740577e-001 1.8398682925768473e-001
      1.8789532421885574e-001 4.5643218629754179e-001
      2.7934162410325442e-001 -6.4023171345242311e-002
      6.6649463721972682e-002 2.2271679162177188e-001
      -1.7431381291897072e-001 1.3326648902885829e-001
      -3.3508803265862780e-001 1.3800054451064817e-001
      4.8804858562525949e-001 -1.7863767711496334e-001
      6.5785839360778686e-001 -6.9764496452491359e-002
      -6.2296759324593065e-001 3.2969739443144946e-001
      -6.6698682917094368e-002 -1.4674688279414100e-001
      2.9047147084391924e-003 3.7227290935097779e-001
      1.3358333053243968e-001 4.6024587149522472e-001
      1.1979132228832992e+000 8.7526556863720503e-002
      -4.8633449742575435e-001 9.0291139700462292e-003
      -1.1410771636766315e-001 -3.3618384465048563e-002
      9.8757191871235578e-002 5.2112988392336204e-002
      1.1534207678723540e-001 6.8738330204925702e-001
      1.8705994610226703e-001 1.6445320331307064e-001
      1.4940597084326385e-001 -9.6432605750502165e-002
      1.4601393480202657e-001 2.3780881917342719e-002
      7.7909642758393394e-001 1.7222048643994632e-003
      3.1837929436690082e-001 -2.6632586962774069e-001
      -1.6106437267220458e-001 -5.8010133548960952e-001
      5.5708044228384146e-001 4.0224482033432377e-003
      -5.9275193590649904e-003 2.2286714425328855e-002
      7.6652325321161319e-001 -2.1870315312892991e-001
      3.1987251333796507e-001 -9.6442004996177902e-002
      -3.3761274842342298e-001 -5.9326491192743391e-001
      -6.5746864988574127e-002 -6.9384010275030064e-002
      -1.0927056649895565e-003 3.4255829339210848e-002
      7.5288112913316463e-001 -6.9162746486702365e-003
      3.1801851699187078e-001 -1.0472411253407467e-001
      -1.7216013017454707e-001 -5.9148487000533345e-001
      -1.9866957026584450e-001 -6.9015645196640385e-002
      -1.5082645816672105e-001 6.6009344163757178e-001
      2.4794096212136690e-001 1.1269842913149078e-001
      1.2361734449517703e-001 1.5463342864295397e-002
      -4.0551957261931687e-001 -4.6665472942689629e-001
      9.5378514417532881e-002 -4.4730745756651487e-002
      -1.2891082442257171e-001 1.8542671421190310e-001
      2.7416120417601504e-002 -3.4926178060873370e-001
      -7.8464303359906257e-004 -1.6248098908497355e-001
      1.8898077373899555e-001 -6.6606966998023198e-001
      -3.2550598700806566e-001 5.6902639475874449e-002
      3.5343907179915618e-002 -1.2865552522572574e-001
      -2.8599462779042659e-002 -2.0552840582618848e-001
      -5.4078797847389920e-002 1.0480915941545864e-001
      3.3125200255985920e-001 5.8826289483435512e-001
      -6.5502971958273404e-001 1.2378717260245989e-001
      -4.2041931706256794e-002 -2.5873110131969496e-001
      -2.7591831986040671e-001 -2.0369281349551219e-001
      -6.8389873414279378e-001 -6.4390198288107076e-002
      4.0342116124675875e-001 5.1273793004680143e-002
      -1.2023886708038643e-001 1.0663727311121927e+000
      9.9991391072964869e-002 -4.0570097751960674e-002
      -4.0046162394626064e-002 -1.6993579903289274e-001
      -2.4152615673677091e-001 3.3751705890357683e-003
      2.7516721714471248e-001 6.5354917178665106e-001
      -5.7688112849311546e-001 6.2289146883073088e-001
      -2.3173239232427412e-001 -1.5866823713257946e-001
      -5.3485400543399189e-002 -2.4926815068603139e-001
      -3.7424913679001595e-002 1.2959763222671469e-001
      2.4684920802716387e-001 1.5936161674752039e-001
      -1.6397182180148662e-001 2.2142973515941461e-001
      -1.9780672135993096e-001 -2.7480264822124673e-001
      -8.3928780664870739e-001 -1.7468928823444388e-001
      -2.0180003454377454e-001 1.7723830806840651e-001
      1.5701983975703779e-001 1.0575726084209901e-001
      -1.3508746737188337e-001 6.9220864436200444e-002
      -2.4906837990034872e-001 -8.2695395772219438e-001
      -1.6203338482580451e-001 -1.6581516200626448e-001
      -2.9903716417285658e-001 2.0365888073168475e-001
      4.0406706818064914e-001 2.0293462873669721e-001
      -3.6003298806817635e-001 1.9338375101032132e-001
      -4.7060681999091492e-001 -3.6967807780445583e-001
      -8.4838402492685827e-001 7.3211067443416114e-002
      1.0949826154985276e-001 2.4166705748799600e-001
      3.0766716856241044e-001 -2.9956099417898827e-002
      -1.1943254079810495e-001 7.2754660234734569e-001
      -2.3654881862278618e-001 2.4916850880920191e-001
      -3.8602460152003704e-001 1.4091268351401373e-001
      4.8535159429374963e-001 1.1434316422208039e-001
      1.4537565989729515e-001 -5.3693772382536024e-002
      -1.4488898921982199e-001 -8.8670955514542751e-002
      -2.3144588022326226e-001 -1.1077489364501295e-001
      -9.2330340030797819e-002 3.4225653803168310e-001
      -7.0799034612006123e-002 1.9238171766110060e-001
      3.2777275213336082e-001 2.1952299391648826e+000
      -1.5110004655496986e-001 2.4522059641533530e-002
      -5.4399993603510589e-002 -1.6633233198180573e-002
      -2.5945159116254463e-002 1.0377728060870037e-001
      -6.5990455416407037e-002 2.4734915716141456e-001
      4.6914024236614621e-001 3.9119409352300705e-001
      -5.6295686126428095e-002 2.9346376325147150e-001
      1.7497096558984842e+000 -1.2951779080801396e-001
      7.5895938212443169e-003 -5.9887509762068125e-001
      -1.1516112603081073e-001 1.5877813280445230e-001
      6.9336012355562060e-001 -1.1719969031088542e-001
      -4.3843680913183292e-001 7.2485512448124201e-001
      -8.7720509269891986e-002 8.8827291537975726e-003
      3.7036988461230591e-001 -2.4609698169183347e-002
      3.2390418862833648e-001 1.7204447868362470e-002
      -1.6643886311007061e-001 -1.8400477280754873e-001
      -1.6146438329823853e-001 2.3208611433081985e-001
      2.0801316378029824e-001 5.6011948571400650e-003
      7.5397423942460440e-001 8.3365418196909791e-002
      3.1877674947247991e-001 -1.0404187453026242e-001
      -1.6152280763941629e-001 -5.8796908485300559e-001
      1.1027126442744314e-001 -3.1961552062836340e-001
      -2.6290275878640912e-001 -2.2017987669595895e-001
      4.8574204913148861e-001 4.8952982167925613e-001
      7.1607033394333178e-002 1.8396954243734394e-002
      -3.0628812369174859e-002 -1.6967405514354755e-001
      2.7030132237423427e-001 1.0233243539870684e-001
      -3.5992504596983949e-001 1.3168682100132151e-001
      4.3017094612920970e-002 -9.7239989093074497e-001
      -2.6909192962340036e-002 -8.7508386280992709e-003
      1.1617490331054938e+000 -1.1183021316881969e-001
      -2.0195740283116703e-001 7.1313130604399377e-001
      3.8856920104172882e-002 -1.3372155947369102e-001
      6.9677685705892573e-003 -8.9374081666616312e-002
      -4.6722533948976117e-002 1.5555509841457432e-001
      3.3103214582640894e-001 5.8712549421118743e-001
      -8.5058799400950280e-001 1.3316065667273641e-001
      -3.4557954729334012e-002 -8.2812405204117079e-001
      -1.4639188090278751e-001 -3.1345809626105015e-001
      -5.8719988859487027e-001 -1.7748968722925917e-001
      4.3995343343982113e-001 1.0166678772489166e-001
      -7.4775185685239332e-001 7.7299973504542008e-001
      -6.2951684757760043e-002 -3.6816723549325547e-001
      -9.7153879845083113e-002 8.8580558621718403e-002
      -2.3343638157189922e-001 -2.7295388838998809e-003
      2.8443624433554504e-001 3.2847682540125483e-001
      -5.4083648104192339e-001 1.3133242095589432e+000
      -2.2647185884365659e-001 3.1259507555869731e-002
      -1.4815076148340431e-001 -1.8034673377357319e-001
      -3.9173222435170807e-001 -6.1881350269018635e-003
      1.1010110449911928e-001 1.2639409028353746e-001
      -5.2413587502655061e-002 -1.1027319032031603e-001
      -2.7719089021434801e-001 -2.4745044922050444e-002
      -2.0604736198246018e-001 -1.3602011323010435e-001
      -4.0328287513519706e-001 3.0177034964709132e-001
      -2.7615690043634084e-001 -1.2045731325574240e-002
      3.4515021176194018e-002 -5.6473475838212406e-001
      -2.2604796948462560e-001 -6.2808930917589989e-002
      -2.1305980198052374e-001 -4.7326731208026940e-001
      -5.1482697387100029e-001 1.6937790536877126e-001
      -3.0721098190740143e-001 -2.0836487384804772e-001
      -1.3893023791387257e-001 -2.9910789754485051e-001
      -2.0331933323307955e-001 -1.4995294567485265e-001
      -9.5931654782869669e-001 -1.4371979214356864e-001
      -4.0601050811213935e-001 1.5319764560452845e-001
      -3.0347203621871310e-001 -2.0302798159005206e-001
      -1.3978250427038164e-001 -8.5942731633748895e-002
      -2.3626512301656957e-001 1.3994474348302338e-001
      -2.3656562892785254e-001 9.9492663529491716e-003
      3.2046247957961538e-001 8.0730625414522725e-004
      7.4703775886464027e-002 -1.1932901139769024e-001
      1.0291539509184035e-001 6.0643891464756650e-001
      -2.3779473685744804e-001 -5.6225953783415894e-001
      1.9410392669191420e-001 1.2337647064914209e-001
      -8.6097633015050384e-002 -1.3205981871562408e-001
      7.9117862540833972e-003 2.2789551790248253e-001
      -1.2899334716902466e-001 2.2105988389015319e-001
      -4.2390338789397387e-002 -4.9802643267144059e-001
      -2.1949792125614645e-001 -7.9052863241862462e-002
      -7.0216806744125657e-002 1.4150951183448443e-001
      1.9991778975347485e-001 5.0099199975208764e-001
      -3.2517313564040778e-002 1.8842718283542198e-001
      7.1438482497949082e-002 -2.1732372180108764e-001
      -4.2017170460908861e-003 -6.7801585896374209e-002
      -1.2350913330685813e-001 1.8273865732939198e-001
      4.2696797638297102e-001 -1.8221938247493408e-001
      -4.3697619276420890e-001 1.0837791366172318e-001
      -2.6322365210173787e-001 -2.6596290544914164e-002
      3.7558251982625745e-001 1.1258533406490016e-001
      3.2820871120787487e-001 -3.1859344589707365e-003
      -5.1019052271998329e-002 -5.7976830885312891e-001
      -1.6101409286131024e-001 -4.7136460508310574e-001
      -3.7245117911651571e-001 -2.7698253761129919e-002
      3.7662120345710520e-001 1.7623369213233572e-001
      3.3088876950714896e-001 1.4613062197087122e-004
      -5.9389787314898308e-002 -5.8081495596848220e-001
      7.2976832521418544e-003 -1.4274102286053100e-001
      4.2694331361887145e-001 -3.3192319630129247e-001
      9.8998827648322074e-002 -3.7326883545864153e-001
      -2.6522570305773558e-002 -2.7121717383700306e-001
      -2.0143522246100173e-001 -9.9471887402874659e-001
      1.2107204605149555e-001 -1.4217061816868057e-002
      1.4724729671774089e-001 -2.7201109923589888e-003
      2.5104938630173856e-001 1.2634886719957680e-001
      -7.7917309977358740e-001 6.9395046061032162e-001
      6.0147172019408379e-001 -1.2130493061202953e-001
      -1.9820975351976255e-001 1.2884974776214556e-001
      2.2105775382443665e-001 -1.3931260991844516e-001
      5.5704328711717169e-002 -3.0047854121238261e-002
      -5.8145073976921341e-002 1.4725629780435823e+000
      3.3730820898476854e-001 5.9781626397722332e-001
      -6.7179307148482248e-001 7.6424052121801900e-001
      4.0335865392166187e-002 2.5083391725070286e-001
      -1.7754183546803989e-001 -7.9907885800029124e-002
      -1.7510969488557862e-001 -2.1063227668520348e-001
      5.7019557478665406e-001 3.4153273607786479e-002
      -6.8703159791956048e-001 7.1741292695156289e-001
      -2.6335942353674729e-002 -1.0315420031772347e-001
      1.5079889541201894e-001 6.5026936419489881e-002
      -1.3994899291402413e-001 -5.1474715554582018e-003
      3.3304442636471848e-001 3.2848913119025552e-001
      -5.6268382122712235e-001 1.1701908479209029e+000
      1.1753688578508836e-001 7.4124175142023744e-003
      -3.7548524192556754e-001 -1.1755201742906832e-001
      -1.1570967288886377e-001 -1.1364692738559214e-003
      3.1919947268217835e-001 -2.9309527284474144e-002
      -6.6584529477482357e-001 -2.3506592651575270e-001
      1.7339760388686057e-001 2.5204577188428884e-001
      -4.3698350693107535e-001 -3.2719930154760912e-001
      -1.1179812867171141e-002 7.6375466907534925e-002
      -1.4718888101666366e-001 -3.3800088641760408e-002
      -8.7642384317584088e-002 -1.5351633286124308e-001
      1.4580264806914409e-001 -1.8919364808921416e-001
      -4.2729358589540600e-001 -7.1733754728692545e-001
      -4.1499570355619875e-001 1.4618086108798609e-001
      -3.0301034428418516e-001 -2.0041777821216591e-001
      -3.8437586818753477e-002 -2.2528596621904892e-001
      7.8790509320693494e-002 -2.1394294965629582e-001
      -2.3582501691274829e-001 -1.0225353963232813e+000
      -1.7376035354525629e-001 1.6171386639752003e-001
      -3.1406135618502495e-001 -2.0148035621245622e-001
      1.1098564234780325e-002 -1.2380621036091136e-001
      3.3710397780851570e-001 -6.4611622887561115e-001
      -5.4295834656432085e-001 -2.5586026587939131e-001
      3.9678028369732865e-001 -6.6261632409733554e-002
      -2.7588697416258912e-001 -9.3156265503437352e-001
      1.1433225614940661e-001 1.6753175353331437e-001
      -1.4322019455331026e-002 -7.6949305621775599e-001
      -2.0725450169653961e-001 1.0515801543855552e-001
      -7.6886240899528613e-002 -2.7763322340458374e-001
      -1.1833330377119096e-001 -8.5598022888733985e-002
      -1.9265126801914853e-001 4.3783961953430400e-002
      4.7135322182942953e-003 -3.8699939117877857e-001
      -1.5215855722590940e-001 -7.7750670974257793e-002
      -1.0315240943547135e-001 -1.4779935829830970e-001
      1.7656841720018526e-001 2.1263605420765785e-001
      -5.7562895776919420e-002 1.8599001112107683e-001
      8.2496138198955404e-001 -8.8599229369927424e-002
      5.8597979663004033e-003 -2.3532973303557903e-001
      -1.3556835939928593e-002 -1.4644243867556336e-001
      3.6122419967148750e-001 7.6160930192866585e-002
      -5.8519789194443717e-001 1.5048781020879587e-001
      -9.5012668265679265e-002 -1.8849073322599247e-001
      3.7243463961868872e-001 1.7556455494844189e-002
      3.1816404853309921e-001 4.0335735761187333e-002
      -1.7296796361495609e-001 -5.8058775399964169e-001
      1.5655053273151077e-002 -3.2712714596836612e-002
      -5.0840603580878510e-002 -3.4854116482850535e-002
      7.6879910916604410e-001 -5.9299544116065035e-002
      3.2614546878545858e-001 4.4060961084576017e-001
      -5.7322463058056786e-002 -5.8532642105184240e-001
      -1.2393573696084348e-001 -4.1641867050225240e-002
      2.5985358120037549e-001 7.8010008271090406e-002
      -7.6516597745205595e-001 3.9874648014013618e+000
      -3.2525376148449359e-001 -2.1440837546839270e-001
      -1.1498905992153492e+000 5.8870720055103498e-001
      8.6736703145912719e-001 -1.2439989185405060e+000</_>
    <_>
      -2.4865923598283660e-001 -6.2190661360597539e-002
      4.5682692018466142e-001 4.0602460910911764e-001
      1.1045804654685827e+000 2.7375432098561978e+000
      5.6824539937147789e-001 1.5032882847175826e+000
      -1.1931625606389638e+000 6.4427409424970472e-001
      2.6461088453721798e-001 -4.6509912941444809e-001
      2.6472291257182481e+000 -1.8273100253359215e-001
      3.1121991869929677e-001 -7.0527357292734544e-002
      6.8313681480336744e-002 -1.7988152469903835e+000
      2.3713084900607170e-001 8.3543812237566406e-002
      -1.8235977036217792e+000 -2.9914985358290858e-001
      -1.7358639994550478e+000 -1.4307509063873951e+000
      1.9946409554495448e-001 1.3619286493082050e+000
      2.4542377699972815e+000 1.0152948683379888e+000
      -3.3445039436954889e+000 7.0176458463590163e-001
      -2.7367578045675783e-001 -2.0426115087086475e-002
      -3.3067210207942876e+000 1.8907346206103577e+000
      -2.2099176836432249e-001 -1.1802094172463859e-001
      -2.5440882049854538e+000 7.7294255273874080e-001
      -2.4659955732917116e-001 6.5431122226340599e-001
      -7.4280286094028325e-001 -2.1088664445877323e-001
      5.4315532362497909e-001 -6.9690679300640390e-001
      7.8153915344685165e-001 1.1308131300438369e-001
      1.5292162755349679e+000 -1.4252404146896942e+000
      2.9060296681149400e-001 3.5368856855153719e-001
      8.1028140028285467e-001 8.0526330672902005e-002
      -6.7053209971432992e-002 7.6356599982634366e-001
      -5.7515684446626325e-001 3.9850533022958214e+000
      1.2556158320444419e+000 -3.8976502855909179e-001
      2.2949191872505287e-001 -4.7874753462224762e-001
      4.7252522619104891e-002 6.1479239830401555e-001
      2.5163183057489474e-001 -1.0301135887495161e-001
      1.7067943918697076e-001 1.3873367706501378e+000
      1.3501287172338459e+000 -6.3230690183916993e-001
      -2.1033747277325657e-002 9.3165456557420467e-001
      7.3384174174738526e-001 8.0521507696661654e-001
      8.8304285186236231e-001 1.1283285903710452e+000
      -1.3060054888395647e+000 -1.8722819024314874e+000
      -2.4369176955185279e+000 -5.0696236229589309e-001
      4.2915308219489973e-001 -4.9582786366042450e-002
      -2.0993874678856916e+000 1.1145869566130466e+000
      -3.1076277366710547e-001 -1.0351259139464801e+000
      7.4842726875832299e-001 -4.5955412542653179e-001
      -1.7010496550219405e+000 6.7906375612091252e-001
      6.0669352700520629e-001 -4.3469939424283199e-001
      -2.9166353514177610e+000 8.3537036713264989e-001
      -4.5144658473605637e-001 -2.9707642053139532e-001
      -8.3788670979823676e-001 -1.4688651867183726e+000
      -5.6747207819846901e-001 -1.3806654485565341e-002
      -2.5382497861636116e-001 2.6279786752929585e-001
      -2.6589355664969994e-001 3.0826765927589234e-001
      -1.0816835080738743e+000 -2.7774604140570402e-001
      9.2595027060874424e-001 1.7693095390189142e+000
      -3.1278823820357526e-001 2.4041269685492543e+000
      2.8061802995729850e+000 -5.7452236701967599e-002
      2.4142227630803002e-002 -4.6406938986966706e-001
      -1.2156581346214390e-001 -2.2516835555272294e-001
      1.6751388426863350e+000 -3.8819271116220777e-001
      1.7279380099403492e+000 3.3614907031003244e-001
      -2.2889857190388926e-001 -2.6392498307763157e-001
      6.4803111422493453e-001 2.0168028531903479e+000
      1.8971548010909491e+000 -8.8474106824814336e-001
      -6.4351311816016155e-001 -6.4277857863997434e-001
      6.7175309064828292e-001 1.3633702521668556e+000
      1.2618547204523787e+000 -7.8980880231790818e-001
      -4.3833948267970418e-001 -1.2013807245009560e+000
      -9.3058668340583894e-001 -2.4229622457613481e-001
      2.2685639405323541e+000 -4.5863141007797870e-001
      7.9504238438688335e-001 -2.0194632294633261e+000
      -1.3957490030260100e-001 -7.5341292204290011e-001
      -1.1912166164325415e+000 -1.0260678507305934e-001
      -4.6629558558409023e-001 -3.5790801030723701e-001
      1.6946680559812686e+000 -7.7648513118948692e-001
      9.9174492523269675e-001 9.2844316264651505e-001
      -5.0341819112522679e-001 7.8246983389692770e-001
      1.0767328441952957e-001 5.6281085204754300e-001
      3.5785785751771731e-001 3.4199851507405050e+000
      9.0116826208897682e-001 -1.7065293603607462e-001
      1.0885996177266435e+000 -7.2918927205375364e-002
      5.3011999798262526e-003 -4.1419551509113389e-001
      3.5428324383303811e-001 2.5052160438082773e+000
      1.6456367659228770e+000 -3.3699382741925865e-001
      -1.8800057260602782e-001 5.0703374640758736e-001
      -2.1028158438294592e-001 -1.3232115494722179e+000
      -1.7366954075380754e+000 5.1971768369763072e-001
      1.1038165607237598e+000 -1.9264292208167826e+000
      -8.6503308346316943e-001 -4.7871732053988170e-001
      -1.5388232033389062e+000 1.1743170832044674e+000
      -8.6810968146472089e-001 2.1307736200243008e-001
      -3.7739742770627610e-001 4.3311480989042123e-001
      -1.2057086150246006e+000 4.4957171880939989e-001
      -1.9863007162755848e+000 8.7101991188083899e-002
      1.4794042455527567e-001 -6.6753479668805060e-001
      -7.7008193612808562e-001 -5.4816761019248617e-001
      -5.0258353765511043e-001 3.8305137886085694e-001
      1.2565055800114355e+000 -1.5292568015494171e-001
      -4.0740362147872305e-001 -1.7859919859414732e+000
      1.1225858266601005e+000 -1.9582767411398418e+000
      -1.9601734424596062e+000 6.1989282593821415e-001
      1.6960915436732515e+000 -1.1217433528222791e+000
      -9.9140040814031560e-001 -1.7566369715642779e-001
      7.1481412538099809e-001 8.0016914958830854e-001
      6.5898441428896171e-002 -6.9406671355157112e-001
      -9.1778886377676105e-001 -6.3792849070158975e-002
      9.6543352780030833e-001 9.1317554829021630e-001
      -4.3246136407306129e-001 8.9348965270022340e-001
      -2.9563155284635925e+000 -1.3030398729780318e-001
      -1.2243300715009012e-001 2.3554133308686584e-001
      3.0254568627887606e+000 -8.0725098971385878e-001
      -6.0470744362183182e-001 1.3207582745065885e-001
      9.6665075171977366e-001 2.6989739341453123e+000
      1.3489282133213235e-001 4.3702161942064346e-002
      -7.2097908678620326e-001 -4.2285282759759896e-001
      -3.7028742531481007e-001 -5.0653222550717736e-001
      4.9133100843470140e-001 -1.1027858910647145e-001
      1.3009827886444381e-001 5.5370971356418469e-002
      -4.8166253092086747e-001 4.5102056046531480e-001
      8.1963082456579983e-001 -2.1138448242891789e-001
      9.7732592292453979e-001 -2.7933190020735861e-002
      -1.9246155553005500e-002 1.1154417815280744e+000
      -1.5125741854980332e+000 -5.6300122771045480e+000
      -4.9950665566538675e+000 -4.6476515162528012e+000
      -5.9845674512484717e+000 -2.8447992876069388e+000
      -4.3468471846018826e+000 -2.9604372560601178e+000
      -4.0806011059309055e+000 -3.2741142315711915e+000
      -3.1294880007709258e+000 -5.0524116033531268e+000
      -4.3299888920399079e+000 -3.1550833199083983e+000
      -3.7962866942641704e+000 -3.6913472974136838e+000
      -3.4496201273641312e+000 -3.4269575920244955e+000
      -2.9252414886451259e+000 -4.1634733748897892e+000
      -4.4896059504930292e+000 -2.8434323228099032e+000
      -4.2288315140776263e+000 -4.3373616778338189e+000</_></weights></my_nn>
</opencv_storage>
