<?xml version="1.0"?>
<opencv_storage>
<my_nn type_id="opencv-ml-ann-mlp">
  <layer_sizes type_id="opencv-matrix">
    <rows>1</rows>
    <cols>3</cols>
    <dt>i</dt>
    <data>
      265 10 10</data></layer_sizes>
  <activation_function>SIGMOID_SYM</activation_function>
  <f_param1>1.</f_param1>
  <f_param2>1.</f_param2>
  <min_val>-9.4999999999999996e-001</min_val>
  <max_val>9.4999999999999996e-001</max_val>
  <min_val1>-9.7999999999999998e-001</min_val1>
  <max_val1>9.7999999999999998e-001</max_val1>
  <training_params>
    <train_method>RPROP</train_method>
    <dw0>1.0000000000000001e-001</dw0>
    <dw_plus>1.2000000000000000e+000</dw_plus>
    <dw_minus>5.0000000000000000e-001</dw_minus>
    <dw_min>1.1920928955078125e-007</dw_min>
    <dw_max>50.</dw_max>
    <term_criteria><epsilon>9.9999997764825821e-003</epsilon>
      <iterations>1000</iterations></term_criteria></training_params>
  <input_scale>
    6.1842285620316053e+000 -2.1887304348769199e+000
    5.7200307134884678e+000 -2.0863328146862039e+000
    5.1704716508528472e+000 -2.0357777484559580e+000
    4.3385962641250071e+000 -1.8627327376397906e+000
    3.6333589694162156e+000 -2.0661949825141170e+000
    3.3573754425099245e+000 -2.4175129243213722e+000
    3.1791969960269970e+000 -2.5126146805102136e+000
    3.2476388314427322e+000 -2.4724905362910548e+000
    5.0412009346868656e+000 -3.7626977915429891e+000
    5.8228868417083453e+000 -4.4269731863426962e+000
    5.7038856525191814e+000 -4.3747436943142146e+000
    4.7900713715619139e+000 -3.7260841918241443e+000
    4.7791128080709573e+000 -4.0823015998976206e+000
    4.6933990356510744e+000 -3.9955121201278341e+000
    4.7580106647590661e+000 -3.7307169480004063e+000
    4.2718373566273709e+000 -2.4812735614456995e+000
    3.6158881964528220e+000 -5.4127588839082708e-001
    4.5422679975584694e+000 -4.8986366687880273e-001
    5.6801284477537921e+000 -4.9184222579580816e-001
    5.6224970929767482e+000 -4.9477993330833669e-001
    6.6331098833044813e+000 -4.8148505651367772e+000
    7.0588145133525604e+000 -5.6040305143975484e+000
    6.6786231795409865e+000 -5.4983335240995315e+000
    6.5614876681895460e+000 -5.2689101906138527e+000
    7.1511474384273521e+000 -5.4064201725870920e+000
    6.9168720187537005e+000 -5.0733846515451964e+000
    7.0890805182289593e+000 -5.2058398261294352e+000
    7.5483186210361213e+000 -5.5197194993563103e+000
    6.1802103202601790e+000 -4.6625457742556904e+000
    6.5730326913014325e+000 -5.0570560898183778e+000
    5.9664243774131167e+000 -4.6370907899993030e+000
    6.1595179793654360e+000 -4.6730986260665217e+000
    6.3183862285726038e+000 -4.4956690716387095e+000
    6.8633297005679168e+000 -4.8906485657671652e+000
    6.7828440666416876e+000 -4.8487135998655777e+000
    6.8641162675859606e+000 -4.9591502807945549e+000
    6.2750517111370447e+000 -4.8559154590910412e+000
    5.9525273310148776e+000 -4.8379053468816675e+000
    6.4598197718338595e+000 -5.1622651672992239e+000
    6.3452760403577972e+000 -4.7562368412445553e+000
    1.3696354888846116e+000 -6.5785641592095512e-001
    1.1831884477532819e+000 -5.7296133493564438e-001
    1.1247238475672525e-001 -2.1785989488310559e-001
    1.9305381069255313e-002 -3.7820305590793085e-001
    1.2386158087308889e-002 -6.5358927891417740e-001
    1.0284727834086446e-002 -1.0295255508247323e+000
    9.6630254547201734e-003 -1.3836767669827852e+000
    1.0608060803654168e-002 -1.7562187592695331e+000
    1.0214907177146515e-002 -1.6167302497183742e+000
    1.0918721094340604e-002 -1.1490879274520420e+000
    1.4089742889812485e-002 -6.3875350148106602e-001
    2.0161477467860324e-002 -3.1448729814040399e-001
    4.4621081022084251e-002 -1.5670080421928800e-001
    4.8291678866220783e-001 -1.3498855116148328e-001
    1.9783467492399052e+000 -2.8039560225447474e-001
    1.3827852606987732e+000 -8.3293757829493031e-001
    5.2373917276487481e-001 -5.2786310325908636e-001
    4.6354813049532796e-002 -2.5057148943704144e-001
    1.6149160803770744e-002 -5.8257779702736734e-001
    1.0993641713558700e-002 -1.2025918701229468e+000
    9.3869889758456723e-003 -1.5269748445039033e+000
    1.1039011682729877e-002 -1.9280894263489301e+000
    1.3306972711970047e-002 -2.4913901075501403e+000
    1.2186967536767665e-002 -2.3254557307264507e+000
    1.0498191192378719e-002 -1.8518561274587737e+000
    1.1189879051723622e-002 -1.2315915699605731e+000
    1.6280572844905486e-002 -5.6539737427130421e-001
    3.6392555896632824e-002 -2.1649272425122912e-001
    5.6227174816796111e-001 -2.3022150318688170e-001
    1.7280910952693851e+000 -2.8574734646186684e-001
    1.4005176159570807e+000 -7.0577265686026114e-001
    5.4061033525500424e-001 -4.2354904218797579e-001
    3.9063546680265078e-002 -3.2081322194894862e-001
    1.2765793770059002e-002 -7.0704404235114182e-001
    9.5172737617997272e-003 -1.2883915681082032e+000
    9.8749284605073161e-003 -1.4511868293124277e+000
    1.2060580807386277e-002 -1.2557723646178931e+000
    1.0959851751889016e-002 -1.1258011498367573e+000
    1.1562642371305200e-002 -1.2907823796785785e+000
    9.9467785476071123e-003 -1.5947348928905687e+000
    9.8398214592699072e-003 -1.4086827863127229e+000
    1.2402862253982022e-002 -7.2024495372533393e-001
    3.4003463169454309e-002 -2.9545528824797501e-001
    2.4301380440936926e-001 -1.1098268232868833e-001
    1.0207143386504092e+000 -2.7326210641034576e-001
    1.2993729816738648e+000 -9.2081549882399860e-001
    1.8247747995462313e-001 -2.8736611016476082e-001
    2.3487929118900384e-002 -3.1690209878138431e-001
    1.0735750787325025e-002 -7.7356579098276623e-001
    9.2247886075569954e-003 -1.2873664636695779e+000
    1.0467236192581650e-002 -1.1918225902584800e+000
    1.1514863880941984e-002 -6.8653975831884018e-001
    1.0730372580686804e-002 -7.4157858378494557e-001
    1.1190172672286917e-002 -6.9489210062984863e-001
    9.7384486069159899e-003 -1.1975607962087440e+000
    9.3898739611430262e-003 -1.4128433190825362e+000
    1.1294188015330558e-002 -8.2251925160466399e-001
    2.6230929371305806e-002 -3.1446133832923689e-001
    1.0927201674198038e-001 -8.1308705371001155e-002
    1.5123334886287925e+000 -2.5007089182050901e-001
    1.2891408114858662e+000 -7.7652970140684074e-001
    1.4221695543875895e-001 -3.1074964672642214e-001
    2.1275061777316605e-002 -3.1678064425910002e-001
    1.0544587866487678e-002 -7.9030440635561383e-001
    9.3666384124268098e-003 -1.3199953620977072e+000
    1.0425239487342225e-002 -1.0956352081697376e+000
    1.2664094858393770e-002 -7.0674623865248698e-001
    1.0780164945655514e-002 -6.4307503644319819e-001
    1.2336268043938444e-002 -6.4197161812904857e-001
    9.9222722258682713e-003 -1.0999659107716488e+000
    9.2854695875405364e-003 -1.3596267122039669e+000
    1.0975427371406674e-002 -8.1982985636889294e-001
    2.6726754917953781e-002 -3.1745913223412031e-001
    1.0851565103190362e-001 -8.5872621485876488e-002
    1.4168954551743405e+000 -3.0122974243863931e-001
    1.5161815004871231e+000 -6.6258325414988450e-001
    1.5024239549471596e-001 -2.3482768114725291e-001
    2.3711552002569917e-002 -3.2412011241308170e-001
    1.0864386919405425e-002 -7.6123422836479671e-001
    9.3525835679685327e-003 -1.3766340230536991e+000
    9.4828061643737142e-003 -1.2787974785365861e+000
    1.0905093118728504e-002 -8.4269751076536636e-001
    1.0026360015956352e-002 -6.9931887418379035e-001
    1.0702992219044154e-002 -8.4098550672316230e-001
    9.4534357660311721e-003 -1.2268252092743523e+000
    9.5417873271047195e-003 -1.3290131970799637e+000
    1.1463579776747588e-002 -7.3222487518879087e-001
    2.5417277420524999e-002 -2.8199168413795056e-001
    1.0187633740242448e-001 -1.0829374448289218e-001
    1.4448619993812624e+000 -2.6166792114778770e-001
    1.6489335322145329e+000 -6.7515388720595049e-001
    1.5642301024327937e-001 -2.1862271116678808e-001
    2.5294330936355722e-002 -2.8371475920345457e-001
    1.1834227455094564e-002 -7.0805021509870902e-001
    9.5811303746131202e-003 -1.3526368271781568e+000
    9.0205890769432719e-003 -1.3964156004149977e+000
    9.5299421335758288e-003 -1.2976479473695024e+000
    1.0015850801319663e-002 -1.3807678411772022e+000
    9.8065252750658520e-003 -1.4406712229885128e+000
    9.9607959787013905e-003 -1.6510215413358553e+000
    1.0374202442659280e-002 -1.4095437027504505e+000
    1.2007140472028085e-002 -6.5542914427035193e-001
    2.8396680429582828e-002 -2.7055104976216715e-001
    1.0449801326976439e-001 -1.1272620329100569e-001
    1.3961735353581648e+000 -2.5834707150328245e-001
    1.3839547394394824e+000 -7.7370698031656104e-001
    1.5718170883995494e-001 -2.7599622890795239e-001
    2.5545713980842447e-002 -2.7255466491371272e-001
    1.2689394131872259e-002 -6.5065617784844221e-001
    1.0092605425227916e-002 -1.2998401625018929e+000
    8.9261746094230262e-003 -1.3163647579518414e+000
    9.3502050545697917e-003 -1.2976538518844083e+000
    1.0239893194788458e-002 -1.5998018962550802e+000
    9.8313620212031848e-003 -1.6318125647712798e+000
    1.0694273219565700e-002 -1.9481260703515941e+000
    1.1168360861170984e-002 -1.6499714225017370e+000
    1.2245276886386033e-002 -6.9422042190534994e-001
    2.9573310004563178e-002 -2.6196829728451637e-001
    1.0074838257422729e-001 -1.3168686226237580e-001
    1.4624776929989598e+000 -3.3395159918873885e-001
    1.2293073159677064e+000 -7.0660971705230369e-001
    1.6891356045456021e-001 -2.9726126583932444e-001
    2.4124584071881467e-002 -3.1039031790121513e-001
    1.1511033212824281e-002 -7.0321536363541093e-001
    9.0250224789798321e-003 -1.1542435245262199e+000
    9.1900358078899624e-003 -1.1247301304097141e+000
    1.1461719020437324e-002 -1.0348037030577508e+000
    1.0259377005138222e-002 -1.0048534690308215e+000
    1.0013490981890043e-002 -1.1423264357923066e+000
    1.0260320931919661e-002 -1.7073739560214500e+000
    1.0460419846132170e-002 -1.7804952426286544e+000
    1.1613290147694067e-002 -8.7127109076558318e-001
    2.5711076569080140e-002 -3.0448393039288607e-001
    1.0446806419984808e-001 -1.4806497288167444e-001
    1.4432517087416807e+000 -3.0115094709964202e-001
    1.2799584173032317e+000 -7.6595936783500485e-001
    1.4378662559772321e-001 -2.6662795534065997e-001
    2.1180337986151963e-002 -3.2837862594278122e-001
    1.0816234846401832e-002 -7.8490094759401008e-001
    8.5723379851936309e-003 -1.1448796120933997e+000
    1.0170670668661605e-002 -9.4062686880917235e-001
    1.4631893688262057e-002 -5.8009121827086185e-001
    1.0628667719742628e-002 -5.9943175230438250e-001
    1.1465161938468794e-002 -6.9553811145616395e-001
    1.0437563221742040e-002 -1.3271320543676415e+000
    9.9368454931431129e-003 -1.7197002133369488e+000
    1.0445497734922506e-002 -9.5666777089567812e-001
    2.1840971789528613e-002 -3.4653195398346581e-001
    1.8865912554115943e-001 -2.1911197651433870e-001
    1.6713420163991233e+000 -3.1584416057936188e-001
    1.5670356750604111e+000 -7.5884011036389987e-001
    1.4511992408362626e-001 -3.1080802638382948e-001
    2.0615171848746942e-002 -3.4266636041499843e-001
    1.0655971698366856e-002 -8.3620010981042592e-001
    8.9913407350327226e-003 -1.2516371090916811e+000
    1.0540894563558716e-002 -9.2809671661191784e-001
    1.3005079516146434e-002 -5.3581951628532454e-001
    1.1063906241040301e-002 -6.5660363258835230e-001
    1.1008184086261315e-002 -6.2798656460600966e-001
    1.0646304894039782e-002 -1.1689139798621317e+000
    9.6858593597697364e-003 -1.5966795954839317e+000
    1.0256938858285231e-002 -9.4985714891568984e-001
    2.0993464224632778e-002 -3.4936761132882971e-001
    1.7550948193581278e-001 -2.2249627237532171e-001
    2.2219237632449236e+000 -2.9742286594617090e-001
    1.5372497784787333e+000 -7.5652056027496717e-001
    1.6343288807868803e-001 -2.4772307838698776e-001
    2.1101269956004372e-002 -3.6802608624054867e-001
    1.0445274956648565e-002 -8.9977407894279759e-001
    9.4168584863437085e-003 -1.4931281837756161e+000
    1.0341230361140243e-002 -1.0763022276657617e+000
    1.2935248871813552e-002 -6.0724373050198732e-001
    1.0559837142895585e-002 -6.7691050535679498e-001
    1.0840109430236129e-002 -6.2317825945003136e-001
    1.0710015444462507e-002 -1.2101895798091276e+000
    9.1370303840613114e-003 -1.4617449986469739e+000
    1.0522462987741411e-002 -9.0497324396539813e-001
    2.3746356561450997e-002 -3.3291643982412206e-001
    2.6303003194201968e-001 -1.9364809438251057e-001
    2.0626561154476311e+000 -3.2482773471616239e-001
    1.6015756395693854e+000 -7.3142824484271152e-001
    2.7952149526521203e-001 -2.3990427546384341e-001
    2.8797556448836630e-002 -3.4455029152761618e-001
    1.1403959061032958e-002 -8.3329716603453430e-001
    9.4143675918221675e-003 -1.4878777883406191e+000
    9.8922686942151793e-003 -1.4917463298997007e+000
    1.2860733825806655e-002 -1.1306812876538914e+000
    1.0779804329094615e-002 -9.0584308504013966e-001
    1.1899215661338669e-002 -1.0892467060700213e+000
    9.7162528740974367e-003 -1.4368195834802118e+000
    9.2099517623902873e-003 -1.3837771224728368e+000
    1.2760912831343832e-002 -7.8409278172749286e-001
    4.6954471530666869e-002 -2.5677071242557592e-001
    9.2744594969232219e-001 -2.1543035839309846e-001
    2.1799563715744816e+000 -2.9180518359658419e-001
    1.6003036390196033e+000 -8.5685549175852782e-001
    3.9367734402867544e-001 -4.0142689804498793e-001
    5.2940026092187405e-002 -2.4385760050338293e-001
    1.7815987051341201e-002 -6.3127513174043626e-001
    1.0573467961295751e-002 -1.3029093453566760e+000
    9.9590871327647126e-003 -1.7927141019065675e+000
    1.1942557183542771e-002 -2.1652702496713059e+000
    1.2900489655922881e-002 -2.2850627169670328e+000
    1.1690500392274287e-002 -2.0287160483884490e+000
    9.4844457478380790e-003 -1.6174714033822915e+000
    1.1181282171543766e-002 -1.2894571549955118e+000
    2.3120814280957760e-002 -6.4920333642437300e-001
    2.0418817902946551e-001 -1.7605201262776751e-001
    2.2961287508187960e+000 -3.1639569401046402e-001
    3.6018405822763331e+000 -2.6942901993405644e-001
    1.3419819623660245e+000 -8.0307581999856592e-001
    3.2720957195055128e-001 -2.4347483897107949e-001
    6.0324217147551672e-002 -1.4867307060774546e-001
    3.1958530375754697e-002 -2.9328871773970161e-001
    1.6677428181982975e-002 -7.6407571556588927e-001
    1.0341701639315606e-002 -1.2991050165576497e+000
    1.0487203914351394e-002 -1.8759708545372831e+000
    1.1106856586229627e-002 -2.0374085390637675e+000
    9.7330765257319374e-003 -1.5080520735046474e+000
    1.0946658306933119e-002 -1.0772546103940956e+000
    1.7067903313206970e-002 -6.6484187157822738e-001
    5.3455003988112974e-002 -3.5019341195362202e-001
    1.9570913626495066e+000 -2.9279319598693410e-001
    2.6970959020968608e+000 -2.4422521948121181e-001
    1.4999418782620606e+000 -2.1259018747021330e-001</input_scale>
  <output_scale>
    5.2631578947368418e-001 4.9999999999999994e-001
    5.2631578947368418e-001 4.9999999999999994e-001
    5.2631578947368418e-001 4.9999999999999994e-001
    5.2631578947368418e-001 4.9999999999999994e-001
    5.2631578947368418e-001 4.9999999999999994e-001
    5.2631578947368418e-001 4.9999999999999994e-001
    5.2631578947368418e-001 4.9999999999999994e-001
    5.2631578947368418e-001 4.9999999999999994e-001
    5.2631578947368418e-001 4.9999999999999994e-001
    5.2631578947368418e-001 4.9999999999999994e-001</output_scale>
  <inv_output_scale>
    1.8999999999999999e+000 -9.4999999999999996e-001
    1.8999999999999999e+000 -9.4999999999999996e-001
    1.8999999999999999e+000 -9.4999999999999996e-001
    1.8999999999999999e+000 -9.4999999999999996e-001
    1.8999999999999999e+000 -9.4999999999999996e-001
    1.8999999999999999e+000 -9.4999999999999996e-001
    1.8999999999999999e+000 -9.4999999999999996e-001
    1.8999999999999999e+000 -9.4999999999999996e-001
    1.8999999999999999e+000 -9.4999999999999996e-001
    1.8999999999999999e+000 -9.4999999999999996e-001</inv_output_scale>
  <weights>
    <_>
      -1.4510545152249368e-001 4.0656286432943388e-003
      -4.2938987129001377e-002 8.6026985443695969e-003
      -4.9786096888670972e-001 -4.0405757027102217e-004
      -2.6354287667560899e-001 8.6126632325840946e-002
      1.6456013344740639e+000 1.0213478299974074e-001
      -2.4892608160468177e-001 1.4899603379952953e-001
      -7.6878626049130400e-002 5.5561732051831403e-002
      -4.5485481693700691e-001 2.9207838644422033e-002
      8.0110562661895590e-003 -5.3806725744274853e-001
      2.6108798246677078e-001 1.8238815321525387e-001
      -1.8607146472489738e-001 -8.4632874300231864e-002
      -7.6623253454427998e-002 -9.8983291735336834e-002
      -4.9283831840592551e-001 -7.9779729101594043e-003
      -1.9734794629154839e-001 -3.4787163742697869e-001
      1.1646987546678056e+000 4.7114918198339462e-001
      -3.8320639790620420e-001 -1.9273631618842757e-001
      -2.1674598974228593e-001 3.0490150812493860e-001
      -4.1547280487761784e-001 2.7333600151267227e-002
      -6.5937456164041730e-002 2.5078067112867153e-001
      8.7038686520135378e-001 4.6378972531451690e-001
      -3.8763041315293528e-001 -5.7588585833387995e-001
      -2.5446013640655757e-001 1.9317528175179344e-001
      -8.5852189285823555e-002 2.9252330400041736e-002
      -1.5169186394824740e-002 -2.3761173696711946e-001
      6.9138963149034061e-001 -3.9701877633856564e-001
      -5.6166215146456394e-002 -2.0625205029811283e-001
      -2.5320960206440685e-001 1.9845872751128235e-001
      -4.8724839959551636e-001 -1.4344411972283305e-001
      -3.8931417169064597e-001 5.7697871834748482e-001
      7.6802238749834228e-001 1.6722362863831511e-001
      -1.9941286436625787e-002 -1.5644635618022824e-002
      -4.7648660739131699e-001 2.2702439698043589e-001
      -4.6079148083671495e-001 -1.3247281830071211e-001
      -3.0239309474867287e-001 5.6227845772344909e-001
      2.9062147532748268e+000 1.6719689392330009e-001
      -1.3170809783839352e-001 8.2873141615715268e-002
      -3.8251286035316312e-001 1.9924412587550761e-001
      -1.6273575111653041e-001 -1.8273394100036619e-001
      -3.8592786701152648e-001 6.8333011414380718e-001
      2.6992955662050262e+000 -1.3381590917520253e-001
      -1.8278592536871305e-001 -1.8133975044348197e-001
      -1.8622487655677827e-001 -7.5445653175743616e-002
      -7.8466198512768781e-001 2.5529557727165048e-002
      -1.4445602986689527e+000 7.7911524894119427e-002
      1.4274191091699961e-001 -5.6219104014591270e-001
      -1.5727403860476694e-001 -2.4096436017265596e-001
      2.1014076916728852e-001 -4.8227255306736661e-001
      -2.7697249824021453e-001 3.9658313120307154e-001
      -1.1216007275323277e-001 -3.1259511588830713e-001
      -2.2780179699990674e-001 -1.5751404328713309e-001
      -5.5384689047477620e-002 -2.3778519322810837e-001
      2.0784756535029619e-001 -2.3375635793556884e-001
      -1.2001574693185628e-001 2.7411235260769601e-001
      -8.1629969688466947e-002 -2.6850497767326131e-001
      -2.2387497265998973e-001 -2.8331498767804703e-001
      -4.5522614772496878e-001 -2.7896362751743287e-001
      -4.7907527947195305e-001 -7.0706726299326131e-003
      -2.6627230813927111e-001 9.7547117311977649e-001
      -5.8430552270288649e-001 -1.3499736175901025e-001
      9.2491262289476184e-002 -3.4744513356087547e-001
      -4.2558155528522051e-001 1.1595042079262922e-002
      -2.2789022662467975e-001 2.3985807591911498e-001
      -1.3539778629841899e+000 -1.5963267373892315e-001
      -5.8685517809509702e-002 7.2112170796376385e-002
      6.2703642110522984e-001 1.8448936918158543e-001
      3.3462357195138549e-002 -1.5700265442302026e-002
      -5.7350138269834740e-002 2.0945088295695588e-001
      -2.1630828591220488e-001 -5.3972802100030401e-002
      -3.7070070751811302e-001 -1.3576814484301677e-001
      1.4999075566018811e+000 2.6447682795302818e-001
      -4.6335930807774831e-002 -1.3758779420917612e-002
      -8.6861963571671030e-002 1.5074002383332741e-001
      -4.7945753144642500e-001 -4.4086382420882433e-002
      -3.8406172350406342e-001 3.4985999671503826e-001
      1.6959435808688303e+000 4.0687168300498028e-001
      -1.6194913909765399e-001 -1.0721512426313679e-001
      -2.1479339415654544e-001 2.7820592772417579e-001
      -2.9481865700244150e-003 -1.5798527414980276e-002
      3.7447081553066475e-001 -3.0894377724698854e-003
      5.0573456457633337e-001 5.0165852545399521e-002
      1.6048103886650669e-001 1.7785330349390818e-001
      1.9412856257315303e-001 -1.0581236238722672e-001
      -6.8961040696436951e-002 5.4971364939409517e-002
      -4.2120068964287070e-002 -1.3938195608233180e-002
      4.2452942558546661e-002 1.2200905390923616e-002
      1.6204799272593137e-001 3.8968571299365241e-002
      -6.0732462919173329e-002 -7.4394252632203617e-002
      -6.0231405443486652e-002 4.5366327929987113e-002
      -4.5861528893872405e-002 5.0485039745670819e-002
      4.2015096603555388e-002 9.0214603581480132e-003
      1.9265375166875248e-001 3.3926185983362396e-002
      6.5648556242811421e-002 -7.1760054833697295e-002
      -7.2755426738769322e-002 5.8304810961209562e-002
      -3.5391910201395635e-002 -4.7315931344886417e-003
      3.6826214505141314e-002 1.3353855043295067e-002
      1.8630545177643812e-001 3.7478813122202366e-002
      1.9026316090615336e-001 -7.0428028738323101e-002
      -7.9359955425614664e-002 4.5347649730863485e-002
      -2.1032069265725425e-002 -3.7128805469227233e-003
      3.9074590687386890e-002 3.6581425908562880e-003
      3.4580630497575932e-001 7.7298956351605685e-001
      1.8467716864218708e-001 -4.1662424440798024e-001
      -1.5369678681790083e-001 1.9090438577643704e-001
      -3.1793901297956823e-001 -7.7199036606182014e-001
      3.2011654224736513e-001 1.9522420996224366e-001
      3.0711222749961542e-001 3.0388706493174028e-001
      4.1259621753898579e-001 1.2946499545818481e-002
      -7.4968179029687054e-002 6.2730187823194540e-003
      1.2780533511009828e-003 -2.1767207979997308e-001
      4.7248564281061017e-001 7.8454602927553685e-002
      8.7636034813367361e-002 2.1336721031043981e-001
      1.8065043060183883e-001 1.0689003027069814e-001
      1.0936348183962052e-001 2.6885191482128618e-001
      -2.9235060071381919e-001 -8.7742342482008379e-002
      1.1084699197043253e-002 1.6511383134459382e-002
      -3.8672133747822803e-003 3.1369020815478280e-002
      4.4610498401296800e-001 -7.0356463255440094e-002
      1.8299966882170937e-001 1.0292219975915565e-001
      3.5825732094180414e-003 -9.9133145592749009e-002
      8.4957757544130874e-002 -4.4448909682639731e-002
      1.0847613675684990e-001 -9.3346382656105620e-002
      7.2642294818741859e-001 -1.6939122105402868e-002
      1.0669315029356566e-001 1.4791393913051967e-001
      7.7185060737800265e-002 -4.2461146342663819e-002
      -4.8346924968817195e-001 2.1262834232441119e-001
      1.0854774950640075e-001 1.5757693061559352e-001
      3.9387121348339021e-001 -1.5700555605462957e-001
      2.0696109187166131e-001 -1.0777482063294984e-001
      -9.5299292223553933e-002 -2.3993942787734152e-001
      4.3463818463679871e-001 7.8803742528601978e-002
      7.2728298545734163e-002 2.7885804422166416e-001
      2.7902017810406737e-001 -6.5146304507856567e-001
      1.8119680295615342e-001 4.0042136411787471e-001
      -1.0048399074388284e-001 9.3921444372942007e-003
      -4.4459016118540723e-002 1.7766405518840372e-002
      -2.5572276677983558e-001 -2.6736038813039376e-001
      1.6282755794646370e-001 -3.3495301954021273e-001
      4.3672495782826823e-002 2.9512210033967745e-001
      -4.4017093778173955e-001 -7.4753775641140008e-001
      4.5529943991591465e-002 6.2063890422058177e-002
      3.8849782083818216e-002 -1.0968065413829378e+000
      1.7894725614238174e-001 -2.8564094679939400e-001
      -2.0362234555096059e-001 5.5373232328433064e-001
      -3.2303040424750079e-001 -1.0534361373710036e-001
      3.2594354902565625e-001 1.6746723843405531e-001
      -1.1025459117591883e-001 -4.7785608607040631e-001
      -5.6620694331034005e-001 -1.4784327846353881e-001
      -5.2397550620729128e-001 5.7123000113366862e-001
      -2.0238353009382004e-001 2.8213969280055998e-002
      6.0550287934245839e-001 1.6487106092686910e-001
      8.6797871687545020e-002 -3.9604506718002275e-001
      2.7489064728049170e-002 -4.2256369271703204e-001
      1.0518084121505519e-001 3.5980305039841620e-001
      -5.0429361693775189e-002 1.9716080306501596e-001
      3.8844031121856837e-001 1.3086067554298844e-001
      1.0910223343955898e-001 -1.4792555189287977e+000
      1.0962838644823988e-001 -4.7901504927502719e-001
      1.9169556863746245e-002 4.4911554170247536e-001
      7.0464272275182704e-002 5.0491189505365552e-001
      2.7516952544505568e-001 -1.3393140115665528e-001
      -4.2028494412255701e-001 -7.6101782586461808e-001
      2.7871874128682705e-001 -1.3998232192254759e-001
      2.7039623911012747e-002 -1.9497532622488108e-002
      5.9248829330984812e-002 1.2166121755308770e-001
      7.4920111372694470e-002 -1.7483651489646770e-001
      1.5569256635699036e-001 -9.5572623337463725e-001
      -2.2026809471300396e-001 -1.4624319380255321e-001
      1.9172790543895105e-002 -2.6420440492140507e-001
      4.7284479808569001e-002 2.8286556588006101e-001
      6.4094504090890320e-002 5.7856380146174093e-002
      1.0568147835719000e-001 -1.0752366415994494e-001
      1.8052751320125413e-001 -3.6911088937654224e-001
      1.9513439414038602e-002 5.5174108287385157e-002
      3.3961892552321682e-001 2.1283918919955812e-002
      -2.6547177706046671e-002 -4.8772027134857690e-002
      1.5429377839904443e-001 -4.3450978496321499e-002
      7.2386109762709233e-002 3.7249135308887793e-002
      9.0375872787598927e-002 -3.1679400541603758e-001
      7.4841345782569763e-002 1.1509718986875708e-001
      -9.5083886464379472e-002 -9.6950609994588516e-002
      7.8562226084569350e-002 7.7775870600091418e-002
      1.2071142564074533e-001 -3.2627106314437361e-002
      2.9178028311415156e-002 1.6049926874931902e-001
      1.1912076505538743e-001 6.4814442290216212e-002
      -2.6805839095459381e-002 2.7486398253870464e-001
      1.2651705611566497e-001 2.7408005078467129e-001
      3.0281023385971612e-001 -2.1364324827587763e-001
      -3.1294968293378900e-001 -4.8197465841749304e-001
      5.8032747993184947e-002 6.3761999931765193e-002
      9.4062165689044297e-002 -1.4983499250599780e-001
      2.7801181696025934e-001 2.9864092108107759e-001
      4.6511521319094057e-002 -4.8313495166336978e-001
      -2.4526751816873960e-001 -9.7552642376678100e-002
      5.1737563302325082e-002 5.4979885021219838e-002
      1.3346292063134838e-001 -3.7162333438463180e-001
      3.8257345990315897e-002 2.2033295199385136e-001
      1.9801124772615772e-001 -1.9738894157676215e-001
      -3.2687827417139770e-001 1.3404315258584887e-001
      6.8301135180731748e-002 3.0229067967081746e-001
      -4.2490042693273958e-002 1.3399585803715286e-001
      1.2062115628113399e+000 -5.3514936436807237e-001
      -3.1624067858763405e-001 2.8382289019198098e-001
      -1.6764084524474884e-001 4.8365825572708687e-002
      1.1400310796561433e-001 -1.4896185065445693e-002
      -2.4602297444326179e-001 -4.2564888023785030e-001
      1.4484445035884963e-001 -8.3206642990287821e-002
      -8.9572686087255105e-002 2.1263606292622522e-001
      -1.2734047661625336e-001 5.7626783893693315e-002
      -1.5737244648870258e-001 -8.3835458473124833e-003
      1.2481660419163676e-001 -3.4767999735356880e-001
      6.1190431045821600e-002 8.7578518810502382e-001
      3.1102237326010668e-001 2.6043400862148491e-001
      4.2125738442500732e-001 -3.4920413176680964e-001
      -1.3069880226472094e-001 -3.5018658354276824e-002
      -6.1218741113866482e-001 -5.5571569966237230e-002
      -5.9011311678094716e-002 4.9428037000180891e-001
      -4.0255059930160658e-001 6.8849653493766549e-001
      2.2250183352340558e-001 4.2337230457810054e-001
      -3.8232593152342947e-001 6.0479489852764218e-002
      -2.0575391827959125e-001 5.8860178607308133e-002
      2.1117102982113942e-001 2.8967021793644449e-001
      1.0913905527306700e-001 1.5692596945757589e-001
      1.0459259168277722e-002 4.4754094480539675e-001
      -3.5484432947486300e-001 9.5701691097768049e-002
      -2.4440088308982738e-001 -2.6081019041014031e-001
      3.3753058936492025e-001 6.4354853391653877e-001
      -1.3062800194338590e-002 5.1168806505561426e-001
      -3.9402927125928230e-002 1.7244139139040174e-001
      -2.4308668830416422e-001 6.8851207593475572e-002
      3.2303618119534977e-001 1.6273883627490951e-001
      -3.6006899195475402e-002 2.3594672038193676e-001
      1.6818435456866507e-001 -1.1606055065165237e-002
      1.8899468973184971e-001 -1.4897746104470666e-001
      -5.3745214228816873e-001 -9.1025435870128388e-002
      1.8380615304982900e-001 1.8510603550480473e-001
      -2.5696889583977794e-001 4.4802451687695721e-001
      2.6429137032695993e-001 -6.5936446204914678e-002
      -4.7235706876092387e-001 -1.2561534506763861e-001
      -4.1871978951244465e-001 -7.0613421239767396e-002
      1.2550701385343507e-001 2.6506244579314986e-001
      -2.7228147974765721e-001 1.3953079903553606e-001
      -1.7815877471224845e-001 4.5385318072320807e-001
      -2.4086339826255765e-001 -1.1494861822059738e-001
      1.4437596545715287e-001 -2.5551435088508678e-001
      -3.6191438532726192e-003 4.0310510967270841e-002
      2.3011216607023025e-001 3.0610754273262736e-001
      -2.6532376621016533e-002 1.8736264101605060e-001
      2.4231525524924719e-001 -3.5928714226869866e-003
      -3.3551562561113496e-002 1.0440995508638853e-001
      1.8065643851915780e-001 1.6229979133318237e-001
      1.3534433892274442e-001 3.0765891153666969e-001
      -3.4400679499436321e-001 1.2784776268106787e-001
      6.2338830677595380e-002 6.7506602898226610e-003
      -1.2896545273924906e-001 1.2808123734740884e-001
      -2.5984832988113927e-002 -2.6415169687495310e-001
      2.8448402697701047e-001 1.3397582480856068e-002
      -5.5608225068950285e-003 3.0930398468474357e-001
      1.3607820179078498e-001 1.1392887630540853e-001
      -4.2251569679867679e-002 9.5118226900939060e-002
      -2.5612096239435900e-001 -2.9659255669339679e-001
      1.3177356207244553e-001 3.3663066728144168e-002
      -1.8589098426795650e-001 1.3091335807441786e+000
      6.7657109836588097e-002 2.8778249835752112e-001
      -2.3974414922625073e-001 9.5883227888768338e-002
      -2.7796275262277865e-002 8.2702290339311188e-002
      8.9503559978974234e-001 2.6658690525154696e-002
      -2.0204485091734259e-001 5.4864369244619227e-001
      1.0344125119780792e+000 1.1854390733411634e-001
      2.5088963544080717e-001 4.3111459036037336e-001
      -4.1860155332213089e-001 -2.2922935391051794e-002
      4.5355574643095281e-001 -7.0603775238859662e-002
      2.2658037730225716e-001 3.5181086285672292e-001
      1.7413517919538928e-002 -8.5229437657509910e-001
      -3.2085172420405261e-002 -1.0388107282782826e-001
      -2.3016060570697222e-001 1.4881955846862586e-002
      2.4437504410451387e-002 -6.0320939106027194e-001
      -7.1191270836979270e-001 -7.0302698351186049e-002
      -1.3730830730036439e-001 -3.4990509411618076e-002
      -2.9322148956959282e-001 1.8799666795555908e-001
      2.6612004714830367e-001 -1.1549412230367295e+000
      -1.4310053961013508e-001 -3.5240834477884109e-001
      2.8043612803752359e-002 2.4246041293591961e-001
      1.9926426531828759e-001 -5.9331663534798740e-002
      -1.7206991734428884e-002 -3.4180002745139448e-001
      -2.8471201039446593e-002 -3.3932833980021015e-001
      -1.2628370160311004e-002 -1.0582692375106211e-003
      -3.7403026314798259e-004 9.0803425443610630e-001
      -2.7856340255331957e-003 -1.8859088449454262e-001
      5.5034019413785454e-002 8.4416522576016631e-002
      -6.2471171030209960e-001 -2.2223709371296166e-001
      2.2146202206360893e-001 2.0965946712886727e-001
      -1.7022828827149850e-001 8.1834890375894331e-001
      2.9554964306052289e-001 1.2547747087418051e-001
      -2.4186220232494218e-001 1.0820009335234688e-001
      6.7624388501681953e-002 -1.2198487564443877e-001
      6.0782843838797973e-001 2.1333961090745540e-001
      3.4756147005807536e-001 5.1972316408342578e-001
      1.4395918688423712e-001 1.7177559039962123e-001
      -3.1040463039469302e-001 3.9596503638560132e-001
      1.1512643600949218e-001 3.2030108690062390e-003
      8.9441951592284977e-002 -6.8430090976988142e-002
      1.6516731888679578e-001 -1.1489761158593317e-001
      -6.3312042981031147e-001 -9.6379533793783223e-002
      -2.3861214232953384e-001 -1.0050233851572729e-001
      1.6723654171993321e-001 1.0734121310250495e-002
      -2.8578020446127513e-002 2.3515008481224917e-001
      2.5590010515415779e-001 -7.0500278725092708e-002
      -6.3393393380541063e-001 -1.3793044016756620e-001
      -2.7789209349474897e-001 -1.1811992093322590e-001
      1.7247107552387966e-001 1.5603441856301487e-001
      6.2145192528204919e-002 4.6625254666687016e-001
      4.6469690553583198e-001 -3.3088827744121412e-002
      -2.4693422080244037e-001 -4.2520918759298393e-002
      -1.8365455197322261e-001 -1.5823006955237084e-001
      2.9056778290106111e-002 -3.3787212342821138e-001
      -5.0163490814936748e-002 -8.1216803131819837e-002
      -5.4768047151644472e-001 7.8870239784109689e-002
      -2.4837645953158011e-001 -2.6611984637944560e-003
      5.9730844074671019e-001 -3.2451993071240870e-001
      1.7412103923804159e-001 1.4410988441418887e-002
      -6.6397122892494928e-002 -6.7932080985192503e-002
      6.2720993560184413e-001 2.0589727602618019e-001
      -2.0563808196556577e-001 -9.6694692052897921e-002
      -1.7745240784536231e-001 -3.8074536181535368e-001
      1.2206230364049470e-001 1.7001534008387723e-001
      -6.2374490058909375e-002 -7.6729637658526917e-002
      6.0096582807058685e-001 3.0903129943434476e-001
      1.1221790936102133e-001 5.5372613660427367e-002
      -1.4659913878244385e-001 -5.6811427450346630e-001
      -4.7220277111687187e-003 3.0244816935171931e-001
      -1.4852188013354842e-001 3.3321337910846703e-002
      4.3853148896256344e-001 7.6558551288118393e-002
      1.0290132965961102e-001 -1.4294720783782888e-001
      -6.0081525831862659e-002 8.0350899963406275e-002
      -6.4590406347612139e-001 1.3720166140332782e-001
      4.2870494926355335e-002 3.4227497419691659e-002
      -1.5364970767001265e-001 1.9147427064633796e-001
      7.5117856326618826e-002 -6.1435804299481256e-002
      -1.1373690328739455e-001 5.5353703792658637e-002
      -2.6573008655087654e-001 -2.2214467052939618e-001
      5.9955570328545837e-001 2.1648952966543657e-002
      -2.1630202868887086e-001 7.2410267213970070e-001
      3.8612238557690975e-001 -1.5735990951237935e-001
      1.2364012649633879e-001 3.4324218247333965e-001
      -4.0108489432249445e-001 -2.5252399861067276e-001
      -1.3927202022855672e-002 3.1911363728500626e-002
      6.5274764963118473e-002 4.9208771914123051e-001
      2.0811587437283652e-001 2.0288052900577128e-001
      1.8289906706456777e-002 3.5388560035261007e-001
      -1.7983699925379748e-001 -4.8375786800822551e-001
      -8.0334797113879153e-001 -4.8250363032085597e-001
      -1.0290998828938480e-001 -9.4746455018816275e-002
      -2.5446427453954668e-001 -1.8644991397509639e-002
      -2.7957600558726742e-001 -4.7827011575741818e-002
      7.6891322578049803e-001 -2.5423986564262280e-001
      8.1186883870515980e-002 -7.6379507838027383e-001
      -6.3129104169137951e-001 2.8975577095664051e-001
      -4.0107753445077549e-001 3.6428529225587780e-001
      -4.5298747334338985e-001 1.1295957176539004e-001
      -9.9754515716863459e-002 -5.6502120916996668e-001
      3.0902475321044959e-001 -7.8606563439915289e-002
      3.2298354487070341e-001 5.1036718914738843e-001
      2.4825378083149738e-001 1.8123307003331986e-002
      -5.5971414926589858e-002 1.5595828371949208e-001
      -1.7062412980131514e-001 4.5310993857989493e-002
      1.7727350345836268e-001 8.8523850976102075e-002
      5.7433148635333768e-002 -4.2800050282122831e-003
      3.6017558280864337e-001 1.7667088501765491e-002
      -2.5932817035373529e-001 2.9854868310985533e-001
      1.7138072037525695e-001 -3.5720199385973123e-002
      2.1768821571198374e-002 -4.8826550890767151e-002
      1.2174161747542384e-001 -2.2962122687648598e-001
      9.4688798317620060e-002 -9.9132998121023483e-002
      -5.3334445779701334e-001 3.4548130290821938e-001
      1.6777134951379657e-001 1.9934752505253499e-002
      3.8029045709809597e-002 -6.9861860036846635e-002
      6.9475763281243406e-003 -3.1361920990135445e-001
      -3.0690249151093618e-001 -1.2806547374637928e-001
      -2.7840580018523386e-001 -2.3968457784531119e-002
      1.9394877665545593e-001 1.3427608276039329e-001
      -1.6375029006587347e-001 -2.0300522400684244e-002
      -3.3132041375721279e-003 -1.6088325362686101e-001
      -7.9173610883146270e-002 -2.5344106162838848e-001
      6.3848516687489898e-001 1.9397383251154240e-001
      -1.0510757303309977e-001 -1.2318455917199019e-001
      -2.8941183443245602e-002 1.9849691344163589e-002
      -1.6417209422413315e-001 1.9270441630421187e-001
      4.9904295922598492e-002 -1.0771256008279687e-001
      3.7925976145494150e-001 -6.6985223412918171e-001
      -1.7641463019297027e-001 -4.0417516383299448e-002
      -1.6636575133556616e-001 4.7871785531113951e-002
      4.3867482778865978e-002 2.6448848455744234e-001
      4.5298981324185833e-002 1.8750034748331409e-001
      1.6449106010152342e-001 -7.7730670530730861e-001
      1.6784089742345543e-001 2.3170682942045417e-001
      2.7388316300118482e-002 -1.6459885938481750e-001
      1.8096053023219202e-001 2.7721733494283746e-001
      -5.6482040531519317e-001 -2.4380137056215387e-001
      1.1653104812996291e+000 -2.9002362225563455e-001
      9.1415471756526992e-002 3.5908490873909016e-001
      2.9428958314124426e-002 -2.2637106509056495e-001
      4.5275776276197666e-001 -1.3389182592322554e-001
      2.1250179959997959e-001 4.7509457337973987e-002
      -2.1542722199282349e-001 -8.9412322976720457e-002
      2.7909541059325638e-002 1.4964273224606747e-001
      1.6281327590529862e-001 -3.9415937671173940e-001
      1.5625571256435436e-001 3.1124121071301314e-001
      1.9113043901190163e-001 -1.4844829379382163e-001
      7.9802782248285686e-002 -2.4970026162012085e-001
      -7.9690502168825311e-002 1.4112817086948359e-001
      3.0455374153813541e-001 2.1247235110872044e-002
      1.4654276508703534e-001 4.7583169592582131e-001
      1.0541352020244765e-001 -7.8182496006169255e-001
      1.2957892774152807e-001 -1.7315044222570394e-001
      -3.7605347451169929e-001 1.6001495253978418e-001
      9.9331735255669129e-001 2.9323515703770717e-003
      -1.0853486473314551e-001 2.1752016631384832e-001
      3.5981361815917462e-001 -7.4033734315966337e-001
      1.8544909074084881e-001 -4.9469743805550997e-002
      9.6275031102772052e-002 5.7737642212914032e-002
      3.8117298731654947e-001 3.5188497456563099e-002
      2.3976501560023275e-001 -5.8294858939481518e-002
      -1.9293633135306018e-001 -2.1915102247729360e-002
      1.6998120534110355e-002 -1.0770855673425477e-003
      7.4534981116698470e-002 -1.9303556112941975e-002
      -1.1873949295426003e-001 -2.8690923106631749e-001
      -9.8167922450455386e-002 1.5793042033635166e-001
      -4.2721032069976128e-002 -1.9661584575019178e-001
      5.1817877035262611e-002 1.6831062776908975e-001
      1.2390352583947262e-001 2.7776671226597549e-001
      2.8406648570386714e+000 -1.0773583969886853e+000
      8.7969171389479128e-002 1.1061866427148639e-001
      -2.4995761975781980e-001 -1.8542826779689026e-001
      -1.1032761478114222e-001 1.0770317921417219e-001
      -1.2677457714493584e-001 9.2962079651957435e-002
      1.1548676585374158e+000 -6.0854412849404327e-001
      2.8766435459449813e-001 -7.7507229565592726e-003
      -2.2582637512693120e-002 2.1709410441208488e-002
      -1.3817296400852153e-001 1.1542752534036983e-001
      -4.0717475300333886e-002 -3.7163709164721906e-002
      1.8962112432786477e-001 -8.5367397470601680e-002
      4.3389856022071467e-002 -4.0795926087214855e-003
      2.8860746772064388e-001 4.6707845209786630e-002
      -1.1585449886842575e-001 1.9638057685293581e-001
      8.5808450325436492e-002 -1.3322799906846216e-003
      -4.4115861599993228e-002 -1.1516386375034693e-002
      1.9906756837921383e-002 -3.2690501037097353e-001
      -3.9931476127689591e-001 -1.3465113520871561e-001
      -6.4109808910867327e-001 -1.5043488373614419e-001
      1.8847524569995786e-001 1.8317791270659852e-002
      2.6461929764867685e-003 1.0613840425453111e-001
      -2.8731471143057724e-001 -2.1588146212891998e-001
      -2.3302094589230868e-001 -2.4374878452663432e-001
      -1.9789800187574078e-001 4.8760279789794703e-001
      1.8458238016059222e-001 -6.2072756323899810e-002
      -2.6072391004586652e-003 -2.4890108957734379e-002
      -4.1482616819171814e-001 -1.3192029272203098e-002
      -2.9191755638778096e-002 -3.1607322880600952e-001
      2.8208088379529966e-001 1.5396426617797696e-001
      -2.9162007148146651e-001 -1.1498832690468017e-001
      4.3775437597337857e-003 7.9432017952732553e-002
      1.6529416634301242e-001 2.7914166829662956e-001
      -3.2367244236258419e-002 1.5120473509979557e-001
      3.0269927740897112e-001 -3.5085852357834596e-001
      -2.6983006145174276e-001 3.3637639090206967e-001
      5.7070282910849861e-002 1.9368853076310505e-001
      1.9542596987817343e-001 2.0687888005117369e-001
      3.3244062832494331e-001 -1.6139815237869110e-001
      6.5324602352334227e-001 -2.2632971979512889e-001
      -1.7322848505730573e-001 3.8437500185793905e-001
      1.5062759960539973e-001 -8.2704186331834545e-002
      2.5447372024898168e-001 2.0893620581068670e-001
      2.3346785193787918e-002 1.5404908672262108e-001
      1.0701757743025034e-001 -3.6643102160399382e-001
      2.1838695357977947e-001 4.8163948673563739e-001
      1.7170122142924866e-002 -2.4864587571458027e-001
      2.7174000830026729e-001 -1.3783986551805771e-001
      7.4899494499637814e-002 -9.1595418858890110e-002
      -2.8968472118382943e-001 -1.0109605394799290e-001
      3.4707636145829224e-002 1.1800700168020342e-001
      -1.1188032125935174e-001 -1.6184881307636009e-001
      7.8500528160059709e-003 -5.9630630231439496e-002
      2.2821983885029293e-001 4.7463869474992294e-002
      -9.3052906074157123e-003 -1.5468230208131217e-001
      -1.6220203013363749e-001 8.1332620040830902e-002
      9.4122216525458091e-001 1.8260153706785916e-002
      1.4844716751471101e-001 -1.5569099981479986e-001
      1.6427421821152016e-001 -4.2768251579583405e-001
      -6.5949098759202227e-002 -3.5324899873731530e-001
      -2.4394936350615573e-001 1.0923668334978796e-001
      2.2406423166640201e+000 1.3082253646947657e-002
      -2.9715351606112134e-001 1.9583935515422229e-001
      3.9193108172530913e+000 -3.3940082959867821e+000
      -1.9557498593135809e-003 -4.9777947941981593e-001
      -2.0029977681623154e-001 3.0855811736101596e-001
      2.2889624717740359e-001 8.4582569396333948e-002
      8.5915161669380069e-002 6.0673137739848548e-001
      1.9716657595586917e-001 -3.4446547834797847e-001
      1.3260645554628991e-001 -2.3840459691234397e-002
      1.0144168466791956e-001 -4.6333653604913275e-002
      -5.9225557509324711e-001 -1.1280987703052783e-001
      -1.5139233381403441e-001 -2.1846928994862844e-001
      -3.7656741001208033e-001 -1.7946483990589238e-001
      -2.6711212096537973e-001 3.8085288430267106e-001
      2.0187947708786398e+000 -7.8038697875359719e-002
      2.2463532955584182e+000 -2.6881044931146370e-001
      2.9492143109874169e-001 8.7952515292819500e-002
      2.2872069246944016e-002 -4.4985195138286405e-001
      -1.8549664148513401e-001 -2.6457558134328407e-001
      -1.3501207699648274e-001 1.1973240571633303e-001
      1.1586827313317019e+000 -1.2518879124014984e-001
      1.1865237495984175e-001 7.6711591257196000e-003
      -1.5921044468749687e-002 1.9995568939506454e-002
      -1.4095271999738959e-001 -1.4379816985644139e-001
      -3.6018851366069748e-002 1.2145697815669317e-002
      2.0548913079344000e-001 6.1348769941934722e-002
      -2.3667336751402432e-001 -1.7593067040884890e-002
      1.8379252279987246e-001 4.6706054087417778e-002
      -1.2167504975231533e-001 -5.5107339897676841e-002
      8.8557433180168593e-002 -1.3575259621903511e-002
      -4.8405639075970092e-002 -1.2070326810484872e-001
      -2.4836350350867523e-001 -2.9900633680977712e-001
      5.7736869523726142e-002 -1.4603230813494775e-001
      -3.7962309986289505e-001 -2.2062590354461312e-001
      1.9043876928127770e-001 2.7748808998275254e-001
      -1.0744886818531002e-003 3.9727025024811164e-003
      -3.5322077233839505e-001 4.1363925844067423e-002
      4.7988699511361810e-002 -1.3380545604525501e-001
      8.0285262702845223e-002 5.2319859607086949e-001
      3.3024044905364941e-001 -1.0335503079848452e-001
      -8.2254134036567339e-002 -1.3033652862307848e-001
      -4.5445680071595385e-001 1.4468169574861708e-001
      -1.1614734814441934e-001 -1.4414532068893549e-001
      4.5509262003307183e-001 2.9062659980825217e-001
      -1.0358893482244653e-002 2.2965614550380395e-001
      1.3570937927386975e-001 6.9201963417142368e-002
      2.7848721422311962e-001 4.7944686286773258e-001
      2.6439499264137961e-001 1.9837063883709538e-001
      2.2036142125965616e-001 -5.4015648216135725e-001
      -1.8851125476520322e-001 3.0159432892528104e-001
      4.6344097845689956e-002 1.9320309574920630e-001
      2.4547941201628004e-001 6.0147085243156873e-001
      1.3356426275593788e-001 1.1465523916106424e-001
      1.7527416715436320e-001 -2.3970987241094446e-001
      -1.8612824434873504e-001 2.6536977693777591e-001
      8.0494040721223306e-002 -3.3871174441423985e-001
      2.5696798262617954e-001 -1.4143017420645608e-002
      -1.4963021794979544e-002 1.7797202888336572e-001
      -4.8834934077585884e-001 1.3699505682426608e-001
      -1.0353896149327446e-002 3.7614006498213268e-002
      2.0866272325640468e-002 -2.2853889106012615e-001
      3.9920510322355934e-001 -1.4503984426179095e-001
      2.1756596642643716e-001 -9.7569217328213664e-002
      -2.2650256511124228e-001 -1.1463853455686060e-001
      5.2097722506890078e-002 3.2904447672970805e-001
      7.1843845783413407e-002 -1.1600348056736126e-001
      -1.7868893933981080e-002 -5.8509027562213975e-002
      1.8802154454872266e-001 4.4509846290208453e-002
      -2.6832040037812189e-002 -1.5799165711561688e-001
      1.0986095807043876e-001 9.2903923630308693e-002
      1.2478874259580568e+000 1.6001769685186484e-001
      1.1501382934070456e-001 -1.4412388698871872e-001
      3.2869383854267104e-001 -1.9744218477513117e-001
      -6.8169181113011026e-002 -3.5376421413302650e-001
      3.5287394070475556e-002 2.0295514503544668e-001
      1.3751030953935888e+000 2.4100501735115180e-003
      -3.6895421457866527e-002 1.1899382320660368e-001
      1.0892706029128927e+000 -1.8438737563633021e+000
      -2.5852508135682593e-002 -1.1812911335630727e-002
      -2.1153398326076170e-001 1.9744913891073504e-001
      5.1756320152775626e-001 1.6637397966699086e-001
      -1.7779180632530250e-001 4.8149303278094741e-001
      1.2615997715845495e-001 -4.9110725294309970e-001
      1.2747063882916493e-001 -3.6295356386759042e-002
      9.0074839862299166e-002 3.4052419273104782e-002
      2.1779931655614829e-001 2.3628394457001139e-002
      -2.8548514171312112e-001 2.1269521013376472e-001
      -1.2347284956655380e-001 5.9484435780666436e-002
      -1.2019227734774732e-001 -8.3546539902045330e-002
      1.2428412614562601e-001 -7.2516171124887591e-002
      2.8414326428585572e+000 -1.1284366985154987e-001
      -3.7743725945793433e-001 1.4239527125843768e-001
      1.5789389222360681e+000 -1.8395247931404293e+000
      1.2592253310008455e-001 1.8735015882722333e-001
      -1.0742720567076584e-001 1.2211288307881785e-001
      1.4055712534222344e+000 7.8945861765221198e-002
      1.1298508167243990e-001 5.4278442922631155e-002
      6.2687208456956500e-001 -4.5245564158657126e-001
      -1.3397964982830871e-001 -2.0095186543252198e-002
      -1.7662720555636183e-001 6.3079749040382584e-003
      2.0981029334421974e-001 7.9495365501266846e-002
      -2.3391034052165868e-001 -2.0436236357161651e-002
      1.7892598322964054e-001 4.7590595107928513e-002
      -1.7641228230990383e-001 -3.2241717084250071e-003
      8.5603822704465815e-002 -1.7991617157945429e-002
      -4.8382946263818505e-002 -2.7183929126035222e-001
      -2.4909419841617009e-001 -1.1110540035415609e-001
      -1.0235270464822838e-002 -1.4427593965280380e-001
      -1.8785197366197690e-001 6.0942365086918882e-001
      4.5626097815233974e-001 1.5880183441631202e-001
      -1.5085569421942169e-002 -2.6668094092778272e-001
      -2.4183426837156344e-001 1.1623128459294882e-001
      -3.5997009322172174e-003 1.7675232137618308e-002
      -2.6977910556947998e-001 8.2722816967770474e-001
      5.9369991475440964e-001 -9.9365975771647852e-002
      2.6801764750122892e-001 -6.8398731743868102e-001
      7.1280247138969272e-002 1.5132936115346834e-001
      -2.4500034391685341e-001 -2.6910869225165568e-001
      5.9109204552236824e-002 1.4339151747291071e-001
      5.7434708295204161e-002 -1.0198380386685278e-001
      4.4088519139992932e-001 1.1624692403743425e-002
      2.0554072815577923e-001 3.4793619977856477e-001
      3.6658910523899069e-001 1.1943221804427666e-001
      2.0424938639202761e-001 -1.1886543317172935e-001
      -1.1044969553472675e-001 -1.2529561542419587e-001
      1.4787399454658698e-001 -1.7345741109349502e-001
      2.6476289124543806e-001 1.3990331811715603e-001
      8.1995637702068497e-002 7.4724518403692985e-002
      -4.5388450563486782e-001 -5.0051995443364319e-002
      -1.4119626798012533e-001 -4.0623213097187139e-001
      3.6704841597471297e-002 -6.2390568742922869e-001
      2.6090323585139308e-001 -6.1241715720032119e-002
      -7.9366450470252842e-002 1.1753667804511998e-001
      -5.2368732517245808e-001 -1.3284473563701293e-001
      -1.9495519860692305e-002 4.3287516467500592e-002
      1.8621034435865703e-002 -2.3145402220335021e-001
      4.0883316195617853e-001 -1.4669829616219748e-001
      1.8055250546002785e-001 -9.6728261535539761e-002
      -2.4217449166259966e-001 -5.3016338685727207e-002
      5.4448594782347357e-002 3.7561240459667555e-001
      7.4159326465012831e-002 1.4339313067548765e-001
      -2.3147844555553970e-001 -5.2430162901373312e-002
      2.3265233687176670e-001 -9.3693797643171428e-002
      -1.0087725282930594e-002 -1.4689046416656032e-001
      1.5884709520038043e-001 1.6756764291444418e-001
      3.5077755388935650e+000 6.3541636316294683e-002
      -5.0507226132590433e-001 -1.8073873392380513e-001
      4.5421751679626449e-001 -8.4944280584207277e-001
      -1.7735163384434680e-001 1.0889819449332198e-001
      2.0140050413954871e-001 1.3603850555414287e-001
      2.1437282931512947e+000 1.6785359157439166e-003
      -2.1491413914110367e+000 2.2797820754789702e-001
      2.9090546004069866e+000 -3.1647455009243988e+000
      -1.0707858012228628e-001 -1.9489823793157196e-002
      -1.7577410309307295e-001 1.0877551176155968e-001
      1.4850429246784488e-001 2.4857143383413386e-002
      2.4584782560148155e-001 3.5894321841965193e-001
      4.8225363642810176e-001 -4.6114252326746524e-001
      1.4075770865352284e-002 2.5282537886517388e-003
      5.9693741758505711e-002 -2.3038502289120827e-001
      -3.4749578250917673e-001 -4.7878422700611700e-001
      2.6201605838190083e-002 -8.4454721653859199e-002
      -4.1373397569594306e-001 3.3952572000347708e-001
      8.8908641509501410e-002 1.4321146958783906e-001
      -3.6338303182363932e-004 -4.0052501428040788e-001
      5.1640883468344034e-001 -8.4253551207390809e-002
      -5.8580431669892041e-001 2.0210914551317941e-001
      1.0500193450919242e+000 -1.9774486363159476e+000
      1.1510832898448844e-001 -1.9803099935894061e-001
      6.5873261344445683e-002 2.8539370089960397e-001
      1.7548268025530738e+000 7.7922787312097341e-002
      -4.3989278516101665e-001 1.0025872604489937e-001
      2.0285383659327629e+000 -6.1418240479241859e-001
      -2.6942142143389428e-002 6.9789048611256538e-002
      -6.3756518836996387e-002 1.1143282774753249e-001
      7.7414754632167543e-002 8.2361264245654514e-002
      -5.8458737820758988e-001 3.3179803151531551e-001
      1.8587693301313818e-001 -1.4397857811257825e-001
      -2.4590144656852650e-002 2.0617060685077588e-002
      1.4446156508319735e-002 -2.4157799037044234e-001
      -3.6075556582457757e-002 -2.0284962169288251e-001
      -3.1067333556455934e-001 1.7215950066479827e-001
      -1.0394038874369932e-002 -1.0074515584341580e-001
      -1.3304311329715929e-003 1.0055740914384721e+000
      4.5685534161271985e-001 1.6340388920140519e-001
      -3.7982684532538336e-002 -8.2975979444946413e-001
      -2.0326220287062538e-001 -1.9396275317336686e-001
      -3.6824729666051725e-001 1.9117295980470286e-001
      -8.0860197797007927e-001 4.5645668372441311e-001
      6.4120526766971897e-001 -1.1540306152440441e-001
      1.4437549093250471e-001 -1.4753874709216022e+000
      2.4908939318768761e-001 -3.7384041858616746e-001
      -2.1230269737704141e-001 8.8111552263850368e-002
      -4.1308360802522884e-002 -5.3929133801984344e-002
      5.7720657466716940e-001 -1.6522682901223029e-001
      3.0151035822679045e-001 -1.0480255685474698e+000
      7.6010150290987877e-001 -1.5589540874711798e+000
      1.4821344559600685e-002 5.3984776567632720e-001
      1.5878565437605352e-002 -1.2134725209784997e-002
      -2.1736563823933000e-001 -1.6100394326261308e-001
      -1.7249296762706831e-001 -1.0548301618678184e+000
      3.8130838657745503e-001 -2.9794864418261013e-001
      -2.0480024951594350e-001 5.8662973803676499e-001
      -5.0867466982410170e-001 2.9549220612038726e-002
      -2.8512976154866192e-002 -2.6130855787630664e-001
      -4.3535209782812317e-001 -4.1576531362795732e-001
      2.9250919426757704e-001 -3.7083378174071424e-002
      -2.0605456645701734e+000 1.7079206857111495e-001
      -1.7022885555927940e+000 -1.0760640490753738e-003
      2.9979513769230359e-001 1.6032758480532211e-001
      8.3539294485090565e-002 -1.1735474653558425e-001
      -7.4779313659510488e-002 1.4644037938030725e-003
      4.1275889939589472e-001 -3.5142587156336107e-003
      -1.2568334382640019e-002 4.4563054315249984e-002
      2.7012017515945203e-001 6.9837989825955338e-001
      6.3101387109569362e-002 1.3714794637228978e-001
      -5.9262305048121378e-001 -5.5557127100572715e-002
      4.2517268171500011e-001 -3.5220590375995842e-001
      -2.4673735222011533e-002 -1.3602184989094240e-002
      1.6314185549144394e-001 1.3760505363016370e-001
      3.6864863196540956e+000 7.3221456187936837e-002
      -8.8816953769588936e-001 -1.7445862960929620e-001
      1.1863522387710266e+000 -4.2131100143476008e-001
      1.2598080513865628e-003 5.0440842251374121e-003
      7.7118934342380513e-002 1.1254438717547205e-001
      2.8902477444092343e+000 -1.4399892663029148e-001
      -1.6436810960418277e-001 1.7816526700222779e-001
      1.0801996191411616e+000 -2.9166095038446600e+000
      -1.6282276848054636e-001 -1.4235940606479119e-003
      5.2932129622227833e-002 2.2093048660442410e-001
      9.4493968723369226e-001 -8.0905846690029176e-002
      5.6160307324205377e-002 -6.2859428858838898e-002
      -6.0146800181202509e-001 3.1255308518932906e-001
      2.8711037814938917e-001 -1.2376772818145959e-001
      8.1976436185922541e-002 3.0497890540819365e-002
      7.5371855083762873e-001 -7.8081287684853729e-002
      -1.2969312067040997e-001 -1.3314472130237148e-001
      -7.7775659466914837e-002 2.4489945891062234e-001
      -2.0226241284392005e-001 -1.2962974885279815e-001
      2.8079583473063230e-001 6.9761140018814671e-001
      4.9595382475663546e-001 -1.1616849732195228e-001
      -3.3434243531826285e-001 1.8570884804902124e-001
      2.1504997727660884e+000 -2.9071772615076434e+000
      3.8933150164394872e-002 -3.1336688662491910e-002
      7.9633148366813358e-002 1.3097419641829097e-001
      1.1530682965088672e+000 9.2787528518514517e-002
      -5.1745196364864132e-001 1.5267051449982799e-001
      5.3362559165670020e-001 -4.6562178875973931e-001
      2.2610658715432949e-001 -1.4371844965404793e-001
      -1.8013547131969965e-001 1.1502790299761526e-001
      2.8352907897213264e-001 6.0435788273202819e-002
      -5.8883626720652071e-001 3.7282668926644091e-001
      3.3145524941518212e-001 -2.7482784645213278e-002
      4.4138105067513911e-001 2.5364741619615960e-001
      -1.3443882089831338e-001 -2.6464662609837618e-002
      -7.5701937848692294e-002 -2.0000193540865063e-001
      -2.5765078481257614e-001 1.3975683873233416e-001
      -9.6850728369866856e-002 -1.6388536928372721e-001
      4.1458107031347496e-001 2.5060337471203126e-001
      2.9181861587614832e-001 -6.8379075863486724e-002
      -4.1705534784124955e-002 -8.3217440798195663e-001
      -1.8940109766949864e-001 -3.0196148406653461e-001
      1.5471615769650127e-001 1.9092303539284661e-001
      -8.2201371738756790e-001 2.6675042032054824e-001
      2.3229793077518732e-001 -5.4521004198069919e-002
      -1.8498090951778237e-001 -1.4917748812882061e+000
      1.6584794054707222e-001 -5.4268295298366909e-001
      9.4940953864073141e-002 5.9213721490443572e-001
      -6.5100041142674414e-001 -3.6321826330875051e-002
      -2.9539451987677984e-001 1.8000986125520001e-002
      2.4198395776211228e-003 -4.7642338967713260e-001
      -1.1391137398810394e-002 -7.3440712327417379e-001
      -2.0654920144278430e-001 1.1387652850821672e+000
      -3.0192483417299257e-002 -1.3085980104934886e-001
      -3.8093790136306382e-001 -4.8928271068701756e-001
      -1.6259061598288674e-001 -3.3672183737979600e-001
      1.0320977571560219e-001 -3.7983152129552755e-001
      -2.8360098619988150e-001 4.5038685674890444e-001
      -6.6574267931565312e-001 -1.2841441275983698e-001
      -6.2302701400206537e-002 -3.3382585302495382e-001
      -2.3142691755288525e-001 -6.3636519597767194e-001
      -5.4210840456582796e-002 2.2515748252549841e-001
      -1.5276335929612654e+000 2.7541266913015416e-001
      -4.6124693125655397e-001 5.9125907066364454e-002
      5.9199442182387796e-001 -6.3740862257540470e-002
      1.1487539480172763e-001 1.3992837699670316e-001
      -3.0414065748184205e-001 1.2209639053478064e-001
      -2.4544006791640866e-001 -1.0025473239896530e-001
      -3.6477999078917897e-002 7.4882279901917231e-002
      1.6489430138389878e+000 6.0029654167250468e-001
      4.3095395603790200e-002 1.3776992146129619e-001
      -5.2655526269393627e-001 4.5304068966863348e-001
      2.7160227040169782e-001 -8.5361361648398970e-002
      1.1905240568292905e-001 -3.2255734271637772e-003
      1.7618183423090195e-001 7.1741086142544291e-002
      3.3954192533488574e+000 7.3583423512974214e-002
      -1.0701368370417810e+000 1.4616650259676522e-001
      1.4314538995574519e+000 -3.1447665984180129e-001
      1.5212693655915471e-001 -2.6266979389533957e-002
      6.2352603976430887e-002 6.5364943196557529e-002
      2.8906709177991377e+000 -7.9251625590568614e-002
      -4.7991309011403122e-001 2.0213781749720014e-001
      2.9022985701812041e+000 -2.9051627572915275e+000
      -6.9917673685814322e-003 -2.9449071080878401e-002
      4.7197313855677825e-002 9.5615805737136073e-002
      2.3548481645521904e-001 -1.1972942125922648e-001
      -3.3333218575424928e-001 -9.9477267134493480e-002
      -7.2144734689450624e-002 8.5876803022869128e-003
      -6.5208584678395284e-002 7.8273915364307556e-002
      6.2582442485551268e-002 5.4813156551863284e-003
      -4.2147281862030622e-002 -7.0740337751845228e-001
      9.0173804619984765e-001 -2.3319424582735646e-001
      -1.9926370319543027e-001 2.7401594448161387e-001
      -4.3578754295400823e-001 -3.5634275773574137e-001
      1.8760099664693175e-001 2.3680801544518695e-001
      3.5064581381786564e+000 -1.2038323972913134e-001
      3.1872067616566363e-001 8.6418866336601963e-001
      3.4256876634466116e-001 -2.9506892247287719e-001
      -5.3442013756695053e-004 -2.6702245977976086e-001
      4.1517317045584153e-002 2.1626649982594176e-001
      1.1905698836417131e+000 6.5943430018555294e-002
      5.2398994740978831e-002 3.2874671402598882e-001
      2.8252903450198374e-001 -1.5738811084856430e-001
      3.5365496570015126e-001 -3.6105410504620190e-002
      -1.8301365665094188e-001 3.1521069840072352e-001
      2.5533607595616981e-001 3.2790411952402621e-002
      8.0670682363900334e-002 8.5401757621940563e-002
      -5.2725289906081080e-003 -6.4310048655587104e-003
      3.4044569510686518e-001 1.6302563094691677e-001
      -1.1769383111111484e-001 4.2451212386396629e-003
      -6.2465966063131192e-002 -2.8405531682482438e-001
      5.1532395539282308e-002 8.7377299211051362e-002
      -9.7225818388385676e-002 -8.9557263373776297e-001
      2.1449634499977704e-001 8.6227113441396308e-001
      2.0363674587853076e-001 -6.6431240191630783e-002
      2.8150088975957242e-003 -2.5658838161427093e+000
      4.5191181141618464e-002 1.5380470251732922e-001
      1.4521234679936967e-001 -2.2564808370333653e-001
      -3.7386945007522160e-001 6.9355995219633226e-001
      2.2030844287064583e-001 -6.8837319146567683e-002
      -2.1394700742389050e-001 -8.7257043506091359e-001
      -1.7094293061818637e-002 -7.2069470845952532e-001
      1.5866878729345282e-001 3.9082642401410539e-001
      -9.1289761835334682e-001 -7.0131864522123472e-002
      -3.7695547867945922e-001 -2.3765949980581272e-001
      -9.7602830694632145e-002 -9.6896468424615495e-002
      -7.5230051621461819e-002 -2.8199201429468207e-001
      9.7871906814622392e-002 3.2153535174996098e-002
      -1.9051094369549024e+000 -1.9496463645708284e-001
      -3.1194520197244680e-001 -2.8944505087829664e-001
      -2.7448628378507978e-001 -2.4561525999026679e-001
      -3.9292000819162488e-002 -5.9464348271821144e-001
      -1.9077473785473295e-001 1.9335241428973232e-001
      -1.1876968590626664e+000 7.3224430195408030e-002
      -2.7814399697744058e-001 -2.9609015528619353e-001
      -3.1730496756597371e-001 -1.9823305398057407e+000
      -2.0206341492316643e-001 -5.3877793746539927e-002
      -2.5962345059185643e-001 1.4798235707244561e-001
      -1.4210173455555780e-001 -1.0826569003100625e-001
      6.3795808765084350e-001 -1.1657940648894445e-001
      3.1737138751231304e-002 -1.9325884864942688e-001
      3.8304517796608699e-002 1.3938037635705477e-001
      -2.4445812878412645e-001 1.2116712821210673e-001
      -3.1573343932229359e-001 8.4830468874862106e-002
      1.0124642065811751e+000 3.2165444308087598e-001
      1.4086779474819294e-001 6.3801707588005130e-002
      3.2281603267469962e-002 2.0092136092974780e-001
      2.1267040396071829e-002 -1.3807338449141818e-001
      3.2627589888643160e-001 3.5855496356866521e-003
      1.6482215374688092e-001 1.7859068797681332e-001
      1.0404293958224784e+000 8.1624076134360068e-002
      3.9773161652270579e-002 6.8375021835012240e-001
      1.6719046521843045e-001 1.7411944568703045e-002
      3.6572715238428305e-001 -9.7260695159513688e-003
      7.2785799998228110e-002 -8.6249654443024716e-003
      3.0850236345811126e+000 -8.3617786976821679e-002
      1.0420020669114305e-001 2.5725593226165921e-001
      2.1762836554286830e-001 -7.4157556442820205e-001
      4.5517747769942080e-001 1.1700010438278282e-004
      7.3649902861244912e-002 -5.5593222504642910e-003
      1.3003536401101431e-001 -6.9382445586512731e-001
      -2.4977305932775515e-001 -6.5939197514464087e-002
      -8.8077688443008659e-002 -1.2496518732522999e-001
      -6.8211313851456812e-003 -1.7704767130559677e-002
      -1.7186844773270876e-001 2.9896392923679318e-002
      3.6825181131779067e-001 1.4787525893954506e-001
      -8.5822295633164875e-002 -1.2983026229263789e-001
      -3.7478363822893734e-001 5.2233877116740557e-001
      -2.5025299600798045e-001 6.3629596650903633e-002
      2.2365744270122198e-001 4.0862781018259547e-001
      3.1532185442229794e+000 -1.2980187571714547e-001
      3.0028085041973895e-001 1.0187673061624192e-001
      -5.2821947970801307e-003 -2.3075709587602911e-001
      1.0195729853483408e-002 2.7262378793568548e-001
      -2.3053101696059078e-001 6.5172745341075949e-002
      6.9392052354999423e-001 -1.2506210677979290e-001
      2.0523862973663864e-001 1.5619045259159334e-001
      6.0321227107847222e-002 3.5193067075547951e-002
      -2.0931441554184485e-002 1.7654528195258329e-001
      -2.4547520957518165e-001 2.1568826813555494e-001
      2.5280795584493054e-001 -3.6829365649056889e-001
      5.4924786715764090e-002 -7.7450263061170177e-001
      -9.3224016409474073e-003 -1.3934692189857068e-002
      1.5539733497727723e-001 2.7356673139664757e-002
      -1.0624217427067301e-001 -3.5637950714529609e-001
      -5.5054280637935785e-002 -3.6886632565611732e-001
      1.0678835567800299e-001 5.6373294136804523e-002
      -4.1322658842062598e-002 -8.2949894263420165e-001
      5.6923310770735536e-001 3.3145105133568392e-001
      1.9972390046631666e-001 -4.0608359306238156e-002
      1.5308859506902053e-002 -9.8329965638232886e-001
      1.0714872297614680e-001 2.7998833303852499e-001
      9.9984890005870242e-002 -5.7570298718426871e-001
      4.0874230855973076e-001 3.5122416705291520e-001
      3.0867882709866096e-001 -3.4329828909797258e-002
      2.4906777045417071e-002 -1.1840249902039363e-001
      5.0167513012378595e-002 -2.1084963520920727e-001
      8.9057972281019592e-003 -5.6281403838349599e-002
      -1.3783143958529720e-001 -2.1817603159124052e-002
      -1.3958870946839173e+000 -4.1780708855855203e-001
      -2.8121646112144877e-002 2.0349054149935591e-001
      4.8673130205103728e-003 -1.7128272569458788e-001
      2.1032750638943737e-001 -8.5796311992018242e-003
      -1.1625890290314339e-001 -5.6119767649293710e-002
      -1.2518362870849058e+000 -3.9325550902888051e-001
      -9.8446301968998354e-002 -3.7133296685451711e-001
      -3.6163875618010134e-002 -5.2390162664290654e-003
      2.5850871099031072e-002 7.2698101515440405e-001
      -1.1283329329624442e-001 -6.5550386103240071e-002
      -5.9485200453974617e-002 2.2692857208687039e-001
      -4.8536730652776097e-002 -2.9249836235426441e-001
      -2.7935836441561218e-001 1.7855545897143037e-002
      -3.5633582262369040e-001 -7.5238366984046068e-001
      -5.1550010379201601e-002 8.8600458339025551e-002
      1.0072167300564699e-001 5.4475337762666332e-001
      3.2784879823910748e-002 -1.9891708272464093e-001
      4.1511498322366919e-002 -5.5868442246723091e-002
      -2.4531184610434312e-001 -3.3500364672267907e-001
      3.5474250163305340e-002 1.8912059902891623e-001
      5.4917463581389458e-001 2.2002112283653782e-001
      4.9884272009020514e-002 6.0326795616838132e-002
      5.0269414106081947e-002 1.9732600687111720e-001
      -1.1078317032363578e-002 1.3078733273598550e-001
      3.1334884607533336e-001 9.7958679098971036e-003
      1.7024532623330399e-001 1.4501625707038801e-001
      3.7112357797050677e-001 7.7254753269029502e-002
      5.9875558925629235e-002 3.8779888921119954e-001
      -1.7796969479960869e-003 1.1684948117147975e-001
      5.7871090633456867e-003 -1.5101664129599590e-001
      -9.8780185444566265e-002 3.6195873610876797e-002
      2.1853848523233825e+000 -9.0100417713758402e-002
      -1.3942626734676464e-001 7.9270645939486173e-001
      3.2516098562500123e-001 -4.6264241893067382e-001
      4.5986464009187761e-001 -3.2931670252930333e-002
      -1.0114816508474270e-001 -1.1225621990818926e-001
      1.3942872711786830e-001 -3.5877360950901438e-001
      4.6548490867767445e-001 3.4598930819744939e-001
      -6.7444764877871238e-002 4.2417177206536294e-001
      2.3585988884723849e-001 4.1306349312938501e-001
      -7.1583186183753573e-003 -2.5395892230065782e-002
      1.7689132622311304e-001 -1.8008312349311859e-001
      -2.8357605324319507e-001 -1.7429188498673490e-001
      -1.1789905952726563e-001 3.9886982449387115e-001
      -7.2809346943103870e-002 3.2979194401512285e-002
      -8.9149500783071850e-002 2.6726130371651824e-001
      2.8850378084638302e+000 -1.2343736028100244e-001
      9.0561097435571059e-002 1.5289530961816836e-001
      4.5534275943498542e-002 -1.9374489721750540e-001
      -3.2261098104579083e-002 -4.8796620648209693e-002
      -1.9486396322938032e-001 1.2603931603749552e-001
      5.0719413406750694e-002 -1.1190210290362756e-001
      1.3201262896029803e-001 1.9122404266373064e-001
      1.0573371825542879e-001 2.2603300826978132e-002
      6.5713134812840440e-002 1.0852686648000556e-002
      -1.9339772967864940e-001 1.3819400952337810e-001
      -5.1090302912237491e-002 -3.7166147798494031e-001
      5.6861309582727261e-002 -2.8090287679443648e-001
      4.5889664387103013e-002 -2.5837138912494184e-001
      6.3734073689365955e-002 -3.1278866091129939e-002
      -9.0369832102238035e-002 -3.2170247713839745e-001
      -6.5075670997561175e-002 -3.7032955042161231e-001
      1.0887469568506269e-001 1.5812924587772006e-001
      1.5557232943276411e-001 -8.3129535858424164e-001
      4.1151608193037686e-001 2.8530813070367328e-001
      2.1495828602132952e-001 -5.1273443887282055e-002
      1.1443207192047758e-001 -2.2972788497931876e-001
      4.9952065343416630e-001 2.0061698555226334e-001
      -3.0921588346485708e-002 -2.7116114766029537e-001
      2.8645945824952840e-001 2.4044081735483707e-002
      1.3100203193225154e-001 -7.2161564390307409e-002
      -3.1524184927903140e-002 -7.7301298329662482e-002
      3.9260616280113979e-002 2.7391740522168273e-001
      -3.6779887384197441e-001 -1.1983067680165667e-001
      3.4325524249925665e-001 -5.5487304398924658e-002
      -3.6930769823783027e-001 -2.5861187838150185e-001
      -4.1409232363455950e-002 -9.8556256095420097e-002
      -4.1934015551154176e-002 1.1068980963399098e-001
      1.2530854894118354e-001 1.6361627720811536e-001
      -1.8141906273886517e-002 1.0353998207914776e-001
      -1.1494444372415349e+000 -1.0269050818839826e-001
      -9.5342182924712544e-003 -3.6761229769134823e-001
      -6.3402337149125951e-002 2.8569666925201791e-002
      1.8721845720594282e-001 6.4937022841978585e-003
      -7.6254185183940656e-002 -1.5775281889179968e-001
      1.4223427170407973e-001 1.7144675963771386e-001
      1.5399305057412105e-002 -1.2752581064221771e-001
      -8.4047729044296360e-002 3.0669550506621859e-002
      -1.0208150758551132e-001 -7.0349911311060664e-002
      2.3706415474936005e-002 -2.2440035523585622e-001
      7.7747016116555379e-002 1.1089012945771626e+000
      2.7563204181916226e-002 1.0302738882285788e-001
      4.0350450285483862e-002 1.3492666755445701e-001
      -1.8498764401637353e-002 -6.0461515942619559e-001
      4.4190486007911242e-002 5.6075046255742979e-002
      3.7156015263792547e-001 -1.8440803915468548e-001
      -3.5687574833732194e-002 6.7254531691756742e-002
      3.2550733007491714e-002 2.8379150989601731e-001
      -2.2914345918966170e-003 9.8351950789894657e-002
      9.3770014865039691e-002 6.7420173155410698e-002
      -8.3761445671064083e-002 1.8924819747051715e-002
      6.9300869043218444e-002 8.4242216363426464e-002
      1.2999558738676443e-002 3.0336059536735016e-001
      -1.2139748633905628e-001 1.1150175912209913e-001
      9.4265262291297752e-002 7.1085519356031565e-002
      -7.0962181902941880e-003 -1.5390363861886730e-001
      3.7415915184844833e-001 -8.0389649398560775e-002
      -1.3646729313585274e-001 4.3832331332050567e-001
      3.6637410143861671e-001 -3.5884298498529768e-002
      -1.7732738428617278e-001 -3.6391760641072113e-001
      -3.9735778763355739e-002 1.1022573150789358e-001
      4.8197968692202686e-001 -2.7590590190628328e-001
      1.0868027551273471e-001 -6.0942084733422275e-002
      -1.2197939982717593e-001 3.9680596628863579e-001
      2.8290726173278913e-001 -1.9201787799190631e-001
      -3.1449675699856808e-002 5.6671944946350625e-002
      6.6542474073452734e-002 -3.0010180005612319e-001
      2.0158904319121654e-001 2.5490825938273326e-001
      -8.6508128355759321e-003 3.0630586517447855e-001
      -2.8145480187634647e-001 3.5662367424530556e-001
      -2.0573856921049524e-001 -1.4376310850718238e-001
      2.5453500734006886e+000 -1.3363384260467120e-001
      1.4161717560881587e-001 1.5544028486825665e-001
      3.5853884699762167e-002 -2.1166159689424247e-001
      -5.1322434080804197e-002 -3.9982497900143771e-002
      -1.2989758957834299e-001 1.2236142227511623e-001
      2.7659475686196905e-001 -1.2123162687855779e-001
      4.0774283715538304e-002 2.0079395813432746e-001
      -4.1023147631748635e-002 5.1569700031773469e-002
      1.5954187621645291e-001 2.2635625239998547e-001
      -1.0286244936293697e-001 1.7219454690941408e-001
      -3.7648420165333110e-002 3.7140556905882666e-002
      7.4953595517418259e-002 2.4002650162635294e-001
      -1.5482237721051714e-001 9.2245710481743071e-002
      2.0195128898478920e-001 1.7739259106604879e-001
      -8.4400145363419748e-002 -7.4610203440130682e-002
      -2.7294345553906856e-002 -2.7328408286850930e-001
      9.8194929263904607e-002 1.6792907737735999e-001
      1.8776575720154731e-001 -5.9056279991883220e-001
      8.4637356899219862e-002 6.0627833615340410e-002
      -1.5638106805989454e-003 -1.6901032375585728e-001
      7.5795767713248918e-002 1.0748310318240749e-001
      7.7916768313964058e-001 2.9717659922736678e-001
      -6.7405949309855426e-002 -2.9932804045713290e-001
      9.9804027392740025e-004 2.1941159116810122e-002
      1.2823955037553458e-001 1.0054939461700572e-001
      -5.5015806311045176e-002 2.3368058985099758e-004
      -5.9133633820867788e-002 3.9909556339719937e-001
      2.7290703893680335e-001 -1.4667628770450061e-001
      3.3403931577691859e-001 1.7264597927050013e-001
      -5.7077387686149117e-001 -2.4021431228476764e-001
      -1.7508691709563293e-002 -3.7064197894324763e-001
      -5.8012690402606780e-002 -7.4554714351890955e-002
      2.3876772586564243e-001 -1.2929582623967694e-002
      -5.4849355254738247e-002 -5.5885284657695544e-001
      -7.2077948022152294e-001 1.5799665001787930e-001
      -9.3959927283118208e-002 -3.6730495127177998e-001
      -6.9837740253895469e-002 -9.9014233916275313e-002
      7.9979476975743347e-001 -7.5233480789874789e-003
      1.7411585166243559e-001 -5.2330041672537364e-001
      -1.8639535850080428e-002 1.4806950946267741e-001
      6.3572741301927884e-003 1.2231674662692923e-001
      -2.2194067855566206e-002 3.9222429568358308e-002
      2.6875786856507128e-002 -6.5958803699941962e-002
      7.2216472930633435e-001 7.3925629486129199e-002
      1.8005782748318311e-001 3.7375016697383995e-001
      2.6321686792977979e-002 1.0085509910413384e-001
      1.1404593813460742e-001 1.9694027273372181e-001
      -2.0551415994278496e-002 -6.3638907172021464e-001
      1.0987297669944790e-001 6.1105246944980977e-002
      3.6494190365286100e-001 -1.5462224613654968e-001
      -2.3183445148732603e-002 6.3364730887751214e-002
      4.0900314682834199e-002 2.4560317572585466e-001
      1.1040460248721358e-002 9.0230966354582318e-002
      9.6534124804977361e-002 8.0217059904003171e-002
      -1.0125672877979382e-001 3.7764009960867290e-001
      -1.0967169930391903e-001 8.4658354036564354e-002
      5.3208164895945540e-004 1.5647147139475412e-001
      -1.2967679883990708e-002 1.8563023111462150e-002
      8.9519229578142262e-002 7.9369450693475327e-002
      1.5235066730115031e-004 -1.7944032702322557e-001
      9.4903518224372416e-002 -6.1166255143333526e-001
      1.9247838567721423e-001 2.2273802848100571e-002
      -3.6706383539637691e-002 -5.1492471408554549e-002
      -1.7229366210122077e-001 8.3582315796618956e-003
      6.3952890728253997e-002 1.3802637380792421e-001
      3.4671337911165567e-001 -5.0312898900985126e-001
      7.3980905172190725e-001 -5.7425238142919832e-001
      -5.5510769635245233e-002 5.1168531206295498e-001
      -2.0960518009923607e-001 1.4380739282038574e-001
      5.3659693625192472e-003 -4.3218264337915413e-001
      1.4539797765890108e-002 -5.6927768333396056e-001
      -4.3659519110758144e-001 -3.1227250790806443e-001
      -3.7272744792466622e-001 4.2297525850107898e-001
      -1.5215465021279923e-001 -1.4621471299201147e-002
      2.1490208844977463e-001 5.3133074199927699e-001
      1.8439670721358135e+000 -1.1661882475444124e-001
      2.5854534840258953e-001 1.6966863985446987e-001
      -7.7958883538462725e-002 -4.9993154140319818e-001
      1.3511536775911973e-001 5.2731563589362196e-001
      -8.0803420248609620e-002 1.6823391132267021e-001
      1.7559731413523821e-001 3.1684601911767890e-002
      7.8053200219568825e-002 2.9583398040010206e-001
      -9.5835604326654472e-002 -1.6400898112986800e-001
      1.2703060894446827e-001 -2.2960796619651791e-001
      7.5087382746164555e-002 3.7101225746671485e-001
      -2.5368083380288131e-001 4.6011099911201364e-002
      8.9659056953287852e-002 1.3214887282129123e-001
      -1.7894127318984554e-001 3.0004955882566814e-001
      1.9953154960332264e-001 1.7297209096217761e-001
      4.4121623805952175e-003 7.3216919298190450e-002
      -2.2313561393014605e-001 3.7004061346418804e-001
      4.3997775934734439e-002 5.5001824909395647e-002
      -6.7754070414498901e-001 -2.1178812138642583e-001
      7.7505409518042606e-002 2.5008405621891432e-002
      1.5470736800931562e-001 -1.5502957051114324e-001
      7.4369797484478001e-002 8.2812762179778926e-002
      6.2716811183954446e-002 1.2678949153200303e-001
      -5.3113965615269404e-002 -2.0850512908024491e-001
      2.8569246625709942e-002 4.7780214660892446e-002
      -1.4127273365552118e-001 -9.9275480842753699e-002
      1.9649569702715400e-001 1.6432833095080132e-001
      -3.3622982860739836e-001 3.4001995449669531e-002
      -2.6735016902632691e-001 -1.6516916793889580e-001
      -8.3011108404712458e-002 -4.2513004572236512e-001
      -2.1942764954671602e-002 7.1216395144752920e-002
      -1.1926565159615601e-001 3.8679743768761848e-002
      -3.6996689354981280e-002 -4.0971919615661365e-002
      8.2651692426299883e-002 2.2867691795089096e-001
      -8.6550291771527899e-002 -3.9455051010847575e-001
      -7.2654872818147198e-002 7.3887928562708524e-002
      -1.2400391716434439e-001 7.3726976356383051e-003
      -1.0122996671412755e-001 1.7316870440992652e-001
      1.8350803821626546e-001 -1.0381614853343135e-001
      9.7393114968322564e-002 -2.8795216169192422e-001
      -3.4962758815000286e-002 9.6899502537381166e-002
      -4.1896213432644680e-001 3.7140014230583984e-001
      1.0559309497603422e-001 1.9216233472165509e-001
      1.7023867113114372e-001 -8.0802838991478743e-001
      1.4204318450282222e-001 4.9214718713512823e-002
      3.6704193628682252e-001 -3.6029056457611966e-002
      2.7617186257033084e-002 1.0992679315689263e-001
      4.0315134270053780e-002 2.1126815671272445e-001
      -3.0126818117626394e-002 5.0305811219174511e-002
      -2.6770868315566687e-002 6.0401609120740538e-002
      5.1808984527648605e-001 -1.6964627627623227e-001
      4.5693746052718781e-002 7.1682060871610415e-002
      1.8585037911530183e-002 1.0402059468138374e-001
      8.8850788518258297e-003 1.1916361041253971e-001
      1.2071329023297182e-001 8.4820819850734461e-002
      -1.0220067456107146e-001 5.1014487643926565e-001
      4.2591337045793834e-002 -6.8107576483577459e-002
      -1.0185443312649322e-002 2.9263391382853088e-001
      1.3182421042882864e-001 -1.9671705483177496e-001
      8.0965196091247138e-002 9.6619826874981302e-002
      -5.6757602200957505e-002 -1.9239325789221479e-001
      3.9769116554589523e-001 -6.0530030466356644e-001
      2.6539366853159868e-001 -1.1170483896304365e-001
      -3.5377319239525279e-002 3.5894065128834851e-001
      -1.8188072743168721e-001 9.7180380205631425e-002
      -5.2156883506616770e-002 3.0442224289665823e-002
      1.9476309369283054e-001 -2.7292295731471933e-001
      -1.1261428269172714e-002 -5.9873338856616543e-001
      -1.1860479417150174e-001 3.3592945247862022e-001
      3.7016170247902291e-001 -1.8744286204245544e-001
      1.8915804016824556e-001 7.6982270259783298e-002
      9.6674018614491958e-003 2.3013677363502444e-001
      -1.2412282207194449e+000 6.6383303737033800e-002
      2.0992585200226166e-001 -3.1782549766144141e-001
      2.5526074180681996e-001 1.1766745679993551e-001
      -1.5181749817052057e-001 1.9774607096198135e-001
      2.5185351793084154e-001 1.2179730322095128e-002
      -6.9774902561415775e-002 -4.3402324449877488e-002
      -2.3466096963164382e-001 -3.0080479568770291e-001
      -4.9170828535357908e-004 -2.1693410906055388e-001
      -1.2741901415025306e-001 3.8968540214506425e-001
      -2.0220093217533572e-002 1.6697829655860191e-001
      6.8675499666025375e-001 3.1351223511808780e-002
      -1.6389738021314511e+000 -1.9530880543107920e-001
      -1.0810765066047159e-001 -2.0100493926323393e-001
      -6.7007917481929291e-001 5.0632062591841942e-002
      -2.0854780374136062e-001 1.5453233099057290e-001
      9.2764076142664229e-002 -4.1924656001818827e-002
      -2.6513006214486379e-001 -5.7585136349020283e-003
      1.1329662671263444e-001 -3.3004463643228184e-002
      -8.4591758321575533e-002 -2.6585368540084875e-001
      1.0393093420568061e-001 1.8439531729724321e-001
      4.4981959388697319e-002 1.5312501003215431e-001
      -6.0002700564006473e-001 -1.4371488110367983e-001
      7.9267755046770472e-004 1.1220796228343177e-001
      6.4612352042073745e-002 -6.1111498854771164e-002
      1.8454475589618866e-002 2.6607685549950266e-001
      5.0966013045494675e-002 1.2142449481285483e-001
      -3.8934154077803174e-001 -1.1727597758528663e-001
      -4.0097113317389144e-001 5.3873411546983607e-001
      -9.5809189574722869e-002 -1.5471725558125293e-001
      1.7064681254516021e-002 8.6374751139032369e-002
      -1.6066351395421649e-001 -2.0534034114753483e-001
      -4.5900296749263114e-001 -1.5143736027646729e-001
      -1.8721656337448495e-001 2.9761770261600118e-001
      7.4050103530924216e-001 -9.9670490604397241e-002
      -2.4500536161088396e-002 1.7953958600568862e-001
      1.6093815697428002e-001 -6.3409829676912688e-001
      -1.9399462129793685e-001 -1.8477494565473185e-001
      -1.3456953526617740e-001 -2.3522550645331371e-002
      1.1861552552343840e-001 -3.8807641513184699e-001
      -3.7943785224589616e-001 2.6897909419799154e-001
      1.3292076557220348e-001 2.1287418171371617e-002
      -1.0682821580197371e-001 -2.4275125540623585e-001
      -1.4515470638273964e-001 9.7429823283720240e-002
      2.2008807989189860e-002 -1.3991372232185742e-001
      -2.3289773309778519e-002 3.7816925764736897e-001
      1.0387279476668390e-001 1.1891938064421062e-001
      -1.0564542646469893e-001 -2.1783308038231700e-001
      1.9266203671126381e-001 -5.6915253549578243e-002
      1.5979474800505836e-001 -9.1165046036366520e-002
      -3.2902032401268960e-003 6.0982564441266679e-002
      4.5690230392380925e-002 -1.2525243221644666e-002
      -3.9662481330366017e-001 -2.0791618532815023e-001
      -1.4815255816940581e-001 2.6153649803529416e-001
      2.4812009482907859e-002 -1.5637827160289254e-002
      5.8769125676964289e-002 6.2126800470188731e-002
      5.3211264473189369e-003 3.0165579999499093e-001
      -1.0554012784062893e-001 1.6572584802395972e-003
      7.7747288507608800e-003 8.3217358969724750e-002
      4.0160374579894985e-002 -6.6017765036656198e-002
      2.8521755567670870e-001 -8.4084649659232652e-002
      -6.3951710944762685e-001 4.0843854824422476e-001
      1.6006776461826272e-001 -1.8428780334364939e-001
      1.1953715853519534e-001 2.9453660059561926e-001
      -4.7530115562030323e-002 -2.2924831773290993e-001
      2.6041402843865677e-002 -7.7786838779400597e-002
      3.1438101890681286e-001 -1.9210042531080571e-001
      2.8954296012143266e-001 4.0199304299755423e-001
      3.0365683384339731e-001 -2.9136848691869377e-001
      1.0823838370708722e-001 7.0334044134303161e-003
      3.6742351330962111e-002 -2.7503666497927148e-001
      2.1453606298481809e-001 -2.5892800986911840e-001
      -1.0653332245587603e-001 3.4427815777733045e-001
      2.7979290320898959e-001 -3.1969513175841946e-001
      3.7509048438905720e-002 -3.2967888181859273e-001
      1.5184913158930146e-002 1.9652346889768454e-002
      -1.0776112780875423e-001 3.7505212015403555e-001
      -5.4275371464221768e-002 4.2319926450657738e-003
      -2.0018601277298440e-001 -1.8161569531854313e-002
      3.5378263192759735e-001 -1.9825937584312392e-002
      2.4928869435154732e-001 -1.6326114883983328e-001
      -6.5500407095038227e-001 9.7224582214069888e-001
      2.2517614768545115e-002 -4.6353413083648015e-001
      8.8116121782659845e-002 -5.4849442652763369e-002
      -9.1118063770693980e-001 -5.1656927669183252e-003
      -7.0676202943467839e-002 -3.9301711330519196e-001
      1.2166725220000757e-001 -9.4597409970343160e-002
      2.3653763989017984e-001 -2.1733465720576381e+000
      -5.3584576463474677e-002 -1.1337481217726929e-001
      -4.2694597550388975e+000 9.0106088280372101e-002
      -1.3868309123771139e-001 3.3037885979362493e-003
      2.4421892938042944e-001 -1.4412829363947690e+000
      -6.8220011008392478e-003 -1.8204397115591925e-001
      -1.1742179217185100e-001 -1.1517472552523783e-001
      -8.7294057497473043e-001 9.4414192634761043e-002
      -2.3065318160529122e-001 -2.5125183914249766e-001
      -5.7176012837177229e-002 -8.7170558516068775e-001
      -1.6473618748969393e-001 -2.6445605733266708e-002
      -6.3118686532484744e-002 -1.4237765188291243e-001
      -2.8883207680596806e-001 -2.8553857516259806e-001
      -6.4115797537222435e-002 1.0125487066612240e-001
      -2.8029300173384786e-001 -1.7207267686573663e-001
      -3.4658405385924562e-001 -5.6947484772151544e-002
      -7.5214219355447115e-002 -2.3085212027907304e-001
      3.6424186518582863e-001 -1.1342937526514461e-002
      5.5489932600706338e-003 2.6372326761965892e-001
      -2.3796441808967395e-001 -2.1444334713957558e-001
      -1.8374893820658555e-001 -1.1421565604678380e-001
      -4.0250862613561045e-001 5.0840353970328961e-002
      2.7176351227094925e-001 9.7988593938370727e-002
      -2.3740880159532816e-002 2.6652508856893914e-001
      6.4636493695037489e-002 1.0180260337782546e-001
      -1.4425538583867395e-001 -2.7449420102778860e-001
      -4.6044883877285545e-002 1.8515943225805157e-001
      1.1711536254781042e-001 -1.5843720035934158e-001
      5.1063041642028517e-004 1.8362657304052540e-001
      1.0574069844021913e-001 -5.0757184986899995e-001
      -5.1982085425382718e-001 -1.9267280631792780e-001
      4.5130305575846116e-002 5.0773953123927240e-002
      -1.5289896024191171e-001 -9.7622123685272122e-002
      -6.8096251256580930e-003 8.2369606919042687e-002
      7.3991725668942410e-002 -5.8808042117291688e-003
      -9.1287320430387869e-002 -7.5491003655228234e-002
      2.4075990051951043e-002 3.1846802888048899e-002
      4.4731627370796917e-003 -1.0015002449836229e-001
      1.5252494152199056e-001 -1.1317870018073271e-002
      2.5699934174135164e-001 1.9326677912154283e-002
      -4.1651086989780019e-002 -8.8909586143153460e-002
      -9.4488856481972472e-002 -9.9074190409611157e-002
      2.1604454221559512e-002 -3.1264629388247638e-002
      3.3889379176085456e-002 -6.2614419267621305e-002
      -8.7325543121383936e-002 -4.3264417267478497e-002
      -1.4737207003350111e-001 -4.2057111850044016e-002
      -7.4830159873543828e-002 2.6676017787364609e-001
      -2.6014342354725206e-001 -2.5324178519651373e-002
      3.9121196318378243e-001 -6.9883889816208661e-002
      7.7062780199765590e-002 4.5525878682159787e-001
      1.6338847907559334e-001 9.1719927294863474e-002
      4.9190421087899378e-001 1.2747576331454621e-001
      2.6462865992440732e-001 3.2058509762664937e-002
      4.2551374081235055e-001 -1.1486345239700066e+000
      3.1317564910597062e-001 1.0065142558892284e-001
      -7.0923983043529273e-002 7.7394658032265556e-002
      3.0710963069086644e-001 -3.0761865689737568e-003
      5.6995534618836996e-002 -5.2337837001496440e-002
      1.5030582816014224e+000 -2.7802337772121499e-001
      4.7900717841100261e-002 2.2929663372307760e-001
      2.0868535298219548e-001 1.0606912075765004e-001
      3.1224727004786568e-001 3.2889216114279127e-002
      9.2373217604793556e-002 5.0843269792905620e-002
      -3.6965940082701287e+000 2.7995469113739879e-001
      6.9174212575025118e-001 3.2345017825321787e-002
      -1.3695108795724347e+000 2.9116467687423997e+000
      1.2731210799952122e-001 2.4240243871223249e-001
      3.3803740850995090e+000 1.5630455929386650e-001</_>
    <_>
      -6.1459544486793499e-002 5.8747620516916321e-001
      9.4823572516110533e-001 8.2543757015156194e-001
      -3.7046159199534445e-001 7.0708773886732168e-001
      2.7941897602841975e-001 -3.7261588821895303e-001
      5.7588651445583361e-001 7.4402057639794528e-001
      1.3279898818577578e+000 3.2000272550738174e-001
      8.6646984486220058e-001 1.1505920256899587e+000
      -1.0857763380482754e+000 8.0222509201459336e-001
      -9.7171349505015991e-001 -5.0146959614996156e-001
      -1.3845329648978104e+000 -7.3288441285807882e-001
      -3.7797542784417182e-001 3.6593430598847448e-001
      2.1300552165507844e-001 1.1875236505402600e+000
      1.9477353170139536e-001 -1.8941577841763093e+000
      -1.3829892927925242e+000 -1.6222437817298005e-001
      2.2611149467081813e+000 -1.8676799354319793e+000
      3.9561035093734787e-001 -1.1142649195333436e+000
      -6.9136917234251427e-001 5.4049659626870095e-001
      9.6024529875120113e-001 2.3093026169990552e-001
      1.1636838979632916e-001 1.1462063674862919e+000
      -4.4745167611452674e-001 -9.4703517931129411e-001
      2.7725259178536787e-001 1.6149086071027936e+000
      -1.8767663277224840e+000 -1.0143507983101809e+000
      1.0289065001944149e+000 -5.2033926580610024e-001
      -1.0625404754423236e+000 1.0688305033497238e+000
      -6.5838144668938514e-001 -3.6565802468117770e-001
      -2.7515761595079860e+000 -7.8168693544438961e-001
      -9.2194810802038563e-001 5.9900822781771323e-001
      5.2823941314467515e-001 3.2375463376598934e-001
      -5.5030448344814720e-001 -6.5767433875708148e-001
      -2.4180712594025086e-001 4.1001794872783870e-001
      1.0866924969043310e+000 7.3152501717264851e-001
      -9.5388295555720826e-001 7.5795351131195199e-001
      4.9845073996565659e-001 -1.5652791097563454e+000
      1.1984337213878737e+000 -1.6654623951214726e+000
      -1.1791532657024226e+000 -1.0019905324538991e+000
      3.6021985756243502e-001 -3.2812929590732365e-001
      -8.3683509556333424e-001 -1.4503802535810069e+000
      -1.9531423763343045e-001 1.2312692247728110e+000
      4.4452880112051130e-001 -3.4516471102213919e-001
      1.3444444404411904e+000 -1.0724948539870276e+000
      6.2560981502022750e-001 -1.1850904234856172e+000
      -1.1294325919481878e+000 8.4488594142760876e-001
      -6.6227159199891095e-001 -8.4788752011272484e-001
      -8.6441030956534393e-001 -7.9947923007381272e-001
      8.1265895202564153e-001 -5.7298314533328698e-001
      4.5367559232070481e-001 -9.7504007308950480e-001
      -4.2206045775682138e-001 5.0975551253067397e-001
      1.1320134703843312e+000 -5.0104010574811220e-001
      -2.0469449967743927e+000 -1.1388726345922078e+000
      -1.4721032712995982e-001 1.1176012423771822e+000
      -3.5129456020708005e+000 -3.1904395487656796e+000
      -2.6591361810235643e+000 -4.4520087325773696e+000
      -4.0378079174393724e+000 -2.8926677144709587e+000
      -3.0537170812756549e+000 -3.1921812980372706e+000
      -3.5488862957046816e+000 -3.0902567296336825e+000</_></weights></my_nn>
</opencv_storage>
