<?xml version="1.0"?>
<opencv_storage>
<my_nn type_id="opencv-ml-ann-mlp">
  <layer_sizes type_id="opencv-matrix">
    <rows>1</rows>
    <cols>3</cols>
    <dt>i</dt>
    <data>
      265 10 10</data></layer_sizes>
  <activation_function>SIGMOID_SYM</activation_function>
  <f_param1>1.</f_param1>
  <f_param2>1.</f_param2>
  <min_val>-9.4999999999999996e-001</min_val>
  <max_val>9.4999999999999996e-001</max_val>
  <min_val1>-9.7999999999999998e-001</min_val1>
  <max_val1>9.7999999999999998e-001</max_val1>
  <training_params>
    <train_method>RPROP</train_method>
    <dw0>1.0000000000000001e-001</dw0>
    <dw_plus>1.2000000000000000e+000</dw_plus>
    <dw_minus>5.0000000000000000e-001</dw_minus>
    <dw_min>1.1920928955078125e-007</dw_min>
    <dw_max>50.</dw_max>
    <term_criteria><epsilon>9.9999997764825821e-003</epsilon>
      <iterations>1000</iterations></term_criteria></training_params>
  <input_scale>
    6.1484237475608232e+000 -2.1691523554176229e+000
    5.6279822728448750e+000 -2.0608724916283823e+000
    5.1023088354394215e+000 -1.9989925980896230e+000
    4.2511153754542113e+000 -1.8333171361331748e+000
    3.5585163646896687e+000 -2.0562300925681396e+000
    3.3516998275984795e+000 -2.4639512539896558e+000
    3.1577824936341981e+000 -2.5256102599627712e+000
    3.2311658031554074e+000 -2.4682571684040417e+000
    4.8839387247316655e+000 -3.6179012291086909e+000
    5.7206577887670598e+000 -4.2937832941794163e+000
    5.6021939209601808e+000 -4.2381140774922024e+000
    4.7245657706360511e+000 -3.6059661624389396e+000
    4.7005173092305332e+000 -3.9900328355498544e+000
    4.6098328040946432e+000 -3.9349896900861006e+000
    4.6718305908847819e+000 -3.7003732313069366e+000
    4.1644545393643488e+000 -2.4489547268014809e+000
    3.4982014634606982e+000 -5.6745476256711525e-001
    4.3736366937640190e+000 -5.1509121802770608e-001
    5.4868561047847821e+000 -5.1357131109518239e-001
    5.4172378296072345e+000 -5.1927157871495566e-001
    6.6353679250615363e+000 -4.7619160548630610e+000
    6.9738509385253105e+000 -5.4741268653807378e+000
    6.6184666189939749e+000 -5.3905620137924020e+000
    6.6028996299532521e+000 -5.2957999173144765e+000
    7.2100949740919864e+000 -5.4501103973874736e+000
    6.8171718661715515e+000 -4.9873715037770836e+000
    6.9948813725253656e+000 -5.1644107937557111e+000
    7.5094644629574576e+000 -5.4779555624804388e+000
    6.1787636258480685e+000 -4.6638207531849103e+000
    6.7362235259400327e+000 -5.1839917813547425e+000
    6.0099168756351293e+000 -4.7123935523295186e+000
    6.1469696414226478e+000 -4.6925282909801753e+000
    6.4622797676461179e+000 -4.6572040989192311e+000
    6.8343581425130626e+000 -4.8808561543163123e+000
    6.9479482158840611e+000 -4.9699770337589628e+000
    6.7665881601427484e+000 -4.9133391078164541e+000
    6.5678676129893523e+000 -5.1220895761402998e+000
    6.1535966373101356e+000 -5.0123775846351615e+000
    6.6979278022210256e+000 -5.3651999436266218e+000
    6.5668287226564308e+000 -4.9129281735401529e+000
    1.3330477708244153e+000 -6.4334044591960915e-001
    1.1514257721360632e+000 -5.6570048804945716e-001
    1.0717370978981479e-001 -2.2133700934853054e-001
    1.9309271955806902e-002 -3.7695056991988252e-001
    1.2522322898941540e-002 -6.3597066861972229e-001
    1.0287590698240399e-002 -1.0038899375274239e+000
    9.5878460011906454e-003 -1.3345031045048525e+000
    1.0580721571748648e-002 -1.7141689008978178e+000
    1.0196069427011973e-002 -1.5805237533967733e+000
    1.0995995835213873e-002 -1.1184362024738841e+000
    1.4209230629252910e-002 -6.1952245543542694e-001
    2.0364312285776027e-002 -3.1086565406678096e-001
    4.2514074566276087e-002 -1.6469582799370433e-001
    4.5997332232093563e-001 -1.4199176471646274e-001
    1.9421907637821543e+000 -2.8710646073301410e-001
    1.3663393125000527e+000 -8.1980358750003157e-001
    5.0062024483262835e-001 -5.1803312291376324e-001
    4.4226127693624301e-002 -2.6112644090409481e-001
    1.5561385046213457e-002 -5.8010137124449646e-001
    1.0775040667405054e-002 -1.1593943758127838e+000
    9.1922600736853623e-003 -1.4604103276197253e+000
    1.0762214633498598e-002 -1.8321500607592938e+000
    1.2966051197372685e-002 -2.3903760994391159e+000
    1.1975654725724144e-002 -2.2538182193812837e+000
    1.0360219464940364e-002 -1.7821829701320240e+000
    1.0953855214470192e-002 -1.1793492029388060e+000
    1.5927498906945559e-002 -5.6577246117280522e-001
    3.4714460130746215e-002 -2.2790797738011645e-001
    5.3656803664084096e-001 -2.4028916423481139e-001
    1.6577679908279024e+000 -2.9551516358236518e-001
    1.4113882775517672e+000 -6.8728472645999106e-001
    5.1888734875883102e-001 -4.0157368730031268e-001
    3.7359886135170758e-002 -3.3770088380443480e-001
    1.2378083551217944e-002 -7.2105027573573055e-001
    9.4589010853036969e-003 -1.2839018825308526e+000
    9.9283286003594290e-003 -1.4505288085125125e+000
    1.2233626234855544e-002 -1.2505957392779286e+000
    1.1017388257806680e-002 -1.1193666469931587e+000
    1.1796663519156921e-002 -1.2846566572361888e+000
    9.9142372131634064e-003 -1.5556731348829016e+000
    9.7365238918415420e-003 -1.3827133907792186e+000
    1.1972604383403633e-002 -7.2876722333761246e-001
    3.2502964446633864e-002 -3.1160450697751163e-001
    2.3139664417941053e-001 -1.1569832208970526e-001
    9.7593521392556892e-001 -2.8429417101310051e-001
    1.2921960087077733e+000 -9.3824666719216587e-001
    1.7407142391740540e-001 -2.9138042699217864e-001
    2.2454462337940084e-002 -3.3252129879575620e-001
    1.0473952320875722e-002 -7.9529175361640703e-001
    9.2284515052452228e-003 -1.3046221769262976e+000
    1.0518712329100007e-002 -1.1991332055174009e+000
    1.1139454144324717e-002 -6.9311620982361322e-001
    1.0785672131550638e-002 -7.5462189539527336e-001
    1.1339084712037033e-002 -6.7132311532090561e-001
    9.6964141439247701e-003 -1.1652138718432032e+000
    9.4395496924188083e-003 -1.4285732421465822e+000
    1.1097380236332954e-002 -8.3548798335800623e-001
    2.5080204739477231e-002 -3.2931399266617928e-001
    1.0401737028265461e-001 -8.5475143406181397e-002
    1.4438306377364978e+000 -2.6365602949970829e-001
    1.2594659425342194e+000 -7.6115550440111512e-001
    1.3563280120113874e-001 -3.1549368975047493e-001
    2.0340995465750873e-002 -3.3279637364182840e-001
    1.0348694731595781e-002 -8.2699569202926293e-001
    9.5127165460769676e-003 -1.4029602519977253e+000
    1.0460891088328985e-002 -1.1422383425751919e+000
    1.2661639655949171e-002 -7.1455688145313145e-001
    1.1066836252454880e-002 -6.4476350340389299e-001
    1.2575762258564325e-002 -6.1364252099072791e-001
    9.9842763312075460e-003 -1.0881993003074382e+000
    9.3279951118627781e-003 -1.3725942024603646e+000
    1.0803760047211255e-002 -8.3348660120746310e-001
    2.5600021905652918e-002 -3.2923854259531016e-001
    1.0329971009572625e-001 -8.9825834865848914e-002
    1.3547236466366828e+000 -3.1806555181904728e-001
    1.5289565888131207e+000 -6.5811609692390849e-001
    1.4322494641201389e-001 -2.4036882310885810e-001
    2.2678668964560115e-002 -3.4106746064527582e-001
    1.0665776460914570e-002 -7.9654800986578078e-001
    9.6109583542560231e-003 -1.4887792358497114e+000
    9.5854717894172017e-003 -1.3355062760516272e+000
    1.1027198682471958e-002 -8.4247797934085766e-001
    1.0176876971050332e-002 -6.8685070096354039e-001
    1.0734619745861542e-002 -8.0392967444550034e-001
    9.4351601718830769e-003 -1.1952707040354662e+000
    9.6136166809543764e-003 -1.3520506903427443e+000
    1.1219472683425739e-002 -7.4731444134818392e-001
    2.4282308408327281e-002 -2.9624416258159281e-001
    9.7000582664446527e-002 -1.1344850755102658e-001
    1.3833100713439637e+000 -2.7064762265425379e-001
    1.6360267991425599e+000 -6.8286335964211187e-001
    1.4910364718486971e-001 -2.2430374750419529e-001
    2.4162791246672456e-002 -2.9804277724699896e-001
    1.1504057966871865e-002 -7.4816390899334506e-001
    9.7912831609487730e-003 -1.4639245449508973e+000
    9.1843771498375804e-003 -1.4726549778646094e+000
    9.5615556293051369e-003 -1.3136745995045318e+000
    9.9791586345806486e-003 -1.3602460971858170e+000
    9.7113632227156452e-003 -1.3660932422075738e+000
    9.8273745526229021e-003 -1.5780199868585609e+000
    1.0324475432095172e-002 -1.4237900511095420e+000
    1.1722319837243957e-002 -6.7816168588855696e-001
    2.7120844648564069e-002 -2.8406136851474278e-001
    9.9504612963029815e-002 -1.1854027805160944e-001
    1.3363062095621221e+000 -2.6726124191242445e-001
    1.3708702462878999e+000 -7.8080000984223874e-001
    1.4980855710958071e-001 -2.7616881832374879e-001
    2.4393252615387891e-002 -2.8582528608030594e-001
    1.2322171851456537e-002 -6.9384542455745046e-001
    1.0241896608496885e-002 -1.4207291795395351e+000
    9.0656782454919538e-003 -1.4036429043487564e+000
    9.2796360975524999e-003 -1.3134316239988004e+000
    9.9787991343371230e-003 -1.5417244662550855e+000
    9.6228357887882376e-003 -1.5474775100865676e+000
    1.0501279454352492e-002 -1.8848883465827562e+000
    1.1191804188568858e-002 -1.6968721550598835e+000
    1.1979279606614948e-002 -7.2391307501017899e-001
    2.8238152287429062e-002 -2.7513782293968925e-001
    9.5957391810772050e-002 -1.3851240904859272e-001
    1.4028302607933179e+000 -3.4765793419660490e-001
    1.2765176415957111e+000 -6.8820951112116602e-001
    1.6118651689702790e-001 -3.0275032738920021e-001
    2.3058006086777983e-002 -3.2551889462507877e-001
    1.1235848535963875e-002 -7.5646571556261133e-001
    9.1926045534038731e-003 -1.2881237050071888e+000
    9.1962476959063042e-003 -1.2114257073503008e+000
    1.1325014583807021e-002 -1.0400794915380682e+000
    1.0462853578291320e-002 -9.7723052421240941e-001
    1.0110388489484130e-002 -1.1091535755072330e+000
    1.0267795302168439e-002 -1.7260610328827848e+000
    1.0829238310353343e-002 -1.9051455206601189e+000
    1.1398184793918435e-002 -9.1002116248140963e-001
    2.4583212907115893e-002 -3.2118502080818806e-001
    9.9524024895143323e-002 -1.5577673461848521e-001
    1.3799199669628071e+000 -3.1798155760447294e-001
    1.2537085466877986e+000 -7.7402875491159739e-001
    1.3714735564566613e-001 -2.7190953988879896e-001
    2.0263254202641672e-002 -3.4606114133902821e-001
    1.0620980563506568e-002 -8.4838545614235950e-001
    8.7427718567451591e-003 -1.2777371008375293e+000
    1.0113031570351091e-002 -1.0013660042746770e+000
    1.5879818171191509e-002 -5.7768016799286681e-001
    1.1048602299565540e-002 -5.5886712675280648e-001
    1.1858106438701251e-002 -6.5343322175695506e-001
    1.0634800795235318e-002 -1.3783626595911513e+000
    1.0347598329387012e-002 -1.8646822085134933e+000
    1.0327429743826584e-002 -1.0055773439695492e+000
    2.0914966938871144e-002 -3.6646659462456826e-001
    1.7997635966747849e-001 -2.3083924392133109e-001
    1.5987649852808359e+000 -3.3365530127600052e-001
    1.6049810467724024e+000 -7.5364327413660637e-001
    1.3836982820755897e-001 -3.1343774128755747e-001
    1.9724980833518913e-002 -3.6010954139106921e-001
    1.0460185306615763e-002 -8.9607404824456693e-001
    9.1312350000371748e-003 -1.3673825907446973e+000
    1.0569934543585591e-002 -9.6273721197206319e-001
    1.4002055552583914e-002 -5.1460598080866005e-001
    1.1314046955313732e-002 -6.1656636755609706e-001
    1.1296731845186953e-002 -6.0059320436063501e-001
    1.0770514705424002e-002 -1.1960422438749323e+000
    1.0043081384909698e-002 -1.7283706407717203e+000
    1.0102058057554238e-002 -1.0039688829546729e+000
    2.0105488030246494e-002 -3.6950390392979099e-001
    1.6742670888813591e-001 -2.3366945023083313e-001
    2.1241732290938300e+000 -3.1400821647474009e-001
    1.5053593997945114e+000 -7.4613465902858389e-001
    1.5586788142124205e-001 -2.5548778824264462e-001
    2.0213466461315468e-002 -3.8572567086397208e-001
    1.0337361550290450e-002 -9.3683462675762674e-001
    9.5533941983187622e-003 -1.5746485828620187e+000
    1.0391485876163693e-002 -1.0741181966083289e+000
    1.3516186846506951e-002 -5.8278271720351926e-001
    1.0652347950060927e-002 -6.4377233263411682e-001
    1.1086825699658423e-002 -6.0490685089136320e-001
    1.0832711297862839e-002 -1.2504245749867848e+000
    9.4071582544771430e-003 -1.5779894461564461e+000
    1.0337058857169722e-002 -9.6233523586833947e-001
    2.2728461285299314e-002 -3.5189587233456893e-001
    2.5078627301624629e-001 -2.0390014371320894e-001
    1.9736855024154105e+000 -3.4324965259398443e-001
    1.5878692708515152e+000 -7.3870439991787873e-001
    2.6660400165187415e-001 -2.4110274931995576e-001
    2.8126676769526952e-002 -3.4754789295215477e-001
    1.1406214140837333e-002 -8.5214338079133867e-001
    9.4903508201950489e-003 -1.5329392318307229e+000
    1.0037192010903822e-002 -1.5152232339590939e+000
    1.3238248992816847e-002 -1.1094803808066849e+000
    1.1044698026160387e-002 -8.7003408190423426e-001
    1.2038534368939664e-002 -1.0724240464574120e+000
    9.8564988857212255e-003 -1.5071443883127382e+000
    9.3571705900149550e-003 -1.4733068510730505e+000
    1.2430096247860416e-002 -8.2595287372195980e-001
    4.4835612179257744e-002 -2.7076811007386525e-001
    8.8468736654547875e-001 -2.2694154185297066e-001
    2.0836889606734896e+000 -3.0802358549086367e-001
    1.6232643189613303e+000 -8.6103585614470568e-001
    3.7533378707518256e-001 -3.9002076135203750e-001
    5.9544421636399184e-002 -2.2963435648472208e-001
    1.8730043876680480e-002 -6.5766884499161549e-001
    1.0570897139244171e-002 -1.3153872875007313e+000
    1.0027895983317195e-002 -1.8097736277022325e+000
    1.1857819110077777e-002 -2.1301798695225806e+000
    1.2718131357974992e-002 -2.2132866336274217e+000
    1.1542615675157509e-002 -2.0003352965047965e+000
    9.5345311129042855e-003 -1.6523342418663127e+000
    1.1125883505517577e-002 -1.3143054558474461e+000
    2.2341756001924819e-002 -6.6597860499650674e-001
    1.9461714135969888e-001 -1.8530936503380024e-001
    2.1964611092547859e+000 -3.3424408184311960e-001
    3.4405086865718517e+000 -2.8421593497767467e-001
    1.3468960404420873e+000 -8.1984976374735752e-001
    3.1252163569053787e-001 -2.3507062162810022e-001
    5.7858522784914025e-002 -1.3961513106794471e-001
    3.3457000370443954e-002 -2.8060240745472342e-001
    1.7402517569469603e-002 -7.7895181903343291e-001
    1.0294016979509050e-002 -1.3020141215256424e+000
    1.0464545560129657e-002 -1.8734266434082554e+000
    1.0944333200215131e-002 -1.9953898626861797e+000
    9.7157411994632341e-003 -1.5026449823795920e+000
    1.1035858993964818e-002 -1.0895271746780830e+000
    1.7815734384865625e-002 -6.8110327150488459e-001
    5.6859737569960225e-002 -3.4684439917675736e-001
    1.8707226062661271e+000 -3.0907590886136010e-001
    2.5745372545232192e+000 -2.5745372545232192e-001
    1.4306979993019577e+000 -2.2393533902117602e-001</input_scale>
  <output_scale>
    5.2631578947368418e-001 4.9999999999999994e-001
    5.2631578947368418e-001 4.9999999999999994e-001
    5.2631578947368418e-001 4.9999999999999994e-001
    5.2631578947368418e-001 4.9999999999999994e-001
    5.2631578947368418e-001 4.9999999999999994e-001
    5.2631578947368418e-001 4.9999999999999994e-001
    5.2631578947368418e-001 4.9999999999999994e-001
    5.2631578947368418e-001 4.9999999999999994e-001
    5.2631578947368418e-001 4.9999999999999994e-001
    5.2631578947368418e-001 4.9999999999999994e-001</output_scale>
  <inv_output_scale>
    1.8999999999999999e+000 -9.4999999999999996e-001
    1.8999999999999999e+000 -9.4999999999999996e-001
    1.8999999999999999e+000 -9.4999999999999996e-001
    1.8999999999999999e+000 -9.4999999999999996e-001
    1.8999999999999999e+000 -9.4999999999999996e-001
    1.8999999999999999e+000 -9.4999999999999996e-001
    1.8999999999999999e+000 -9.4999999999999996e-001
    1.8999999999999999e+000 -9.4999999999999996e-001
    1.8999999999999999e+000 -9.4999999999999996e-001
    1.8999999999999999e+000 -9.4999999999999996e-001</inv_output_scale>
  <weights>
    <_>
      3.4971705292550614e-001 -3.0468256135670574e-001
      -1.9504317462900134e-001 3.2998381854436948e-001
      -2.4745072888670952e-001 6.5392792429728980e-002
      -2.2223129267560895e-001 5.7849256325841002e-002
      3.7012004958180627e+000 -1.4081021700025928e-001
      -1.6175923667668177e-001 -1.9747100620047045e-001
      -3.0139862604913031e-001 1.1836877205183144e-001
      -2.9081001693700681e-001 -7.9661355577971820e-005
      -1.8786043733810411e-002 -5.8277689442748568e-002
      7.5862498025170921e-002 -6.2541664678474596e-001
      -1.6655308264489738e-001 -1.3145337430023185e-001
      -6.0303781345442797e-001 1.8042775034466316e-001
      -3.7282871840592524e-001 5.2820270898405984e-003
      -1.1769208837154840e-001 -1.3150644830697850e-001
      2.2890607580828446e+000 2.8080278198339453e-001
      -2.9959884590620439e-001 -5.3386260338842750e-001
      -2.0108598974228595e-001 1.9820245020493873e-001
      1.3109628312238200e-001 -2.9558998487327721e-003
      -1.8768956164041731e-002 1.2353996712867173e-001
      2.2227808568135399e-001 -6.7977174685483047e-002
      -1.7422200396253534e-001 -4.6848038249387997e-001
      -3.1247917640655748e-001 -1.6552101305780653e-001
      -4.9344989285823551e-002 -2.0226695999582649e-003
      3.1730813605175268e-002 -5.4865461127119472e-002
      2.4479495885034053e-001 -5.5539717633856556e-001
      -3.2073683914645629e-001 -1.8332719029811287e-001
      -2.6658864206440686e-001 -1.1002993040871761e-001
      -1.0216743959551619e-001 -1.4574286972283301e-001
      -2.8809945169064588e-001 1.3403471834748495e-001
      1.2563303042983422e+000 1.7152682863831512e-001
      -3.7005286436625782e-002 -1.4761727561802282e-001
      -2.7163756419131702e-001 -2.2444552982916402e-001
      -1.2079188083671488e-001 -1.4991481830071213e-001
      -2.7026220194867290e-001 2.9121285772344929e-001
      1.2355592533145081e+000 1.4270009392330008e-001
      -7.9453991839353757e-004 4.5503416157152733e-003
      -1.9647390355316313e-001 1.5578684587550762e-001
      -1.2700253511653034e-001 -1.4969194100036617e-001
      -2.8631742221152640e-001 2.6350229734380731e-001
      5.5499080053974714e-001 -6.1815909175202514e-002
      -1.5810432536871305e-001 -2.7157285764348199e-001
      -1.1110148455677829e-001 6.2714656145465630e-001
      -7.2770434032768783e-001 3.1487557727165050e-002
      -8.1719444343695258e-001 1.8032481489411945e-001
      5.4500246916999603e-002 -5.8171744014591276e-001
      -7.4613702604766990e-002 -3.4098340017265588e-001
      -5.8942482672711433e-002 -3.6609798625776668e-001
      -2.1876501024021458e-001 2.3980603193907149e-001
      -3.1988072753232774e-002 -9.6792057968307157e-002
      -3.1153779699990669e-001 -2.3627844328713302e-001
      -8.0771489047477635e-002 -4.1798688922810834e-001
      -4.4975686489703751e-002 -4.2582893393556881e-001
      -2.5770038693185637e-001 1.6561123260769606e-001
      -7.5941969688466948e-002 -3.2372310247326136e-001
      -3.0359654065998970e-001 -1.9315426567804705e-001
      -2.1363386868496875e-001 -8.3847377517432847e-002
      -9.8408239471953041e-002 -4.1143736053932629e-002
      -9.4078633094887110e-001 1.0120494771197766e+000
      -2.7305942990288656e-001 -1.7278119433501027e-001
      -3.4076237710523830e-002 -1.4107003356087539e-001
      -1.8331125512522062e-001 -1.6045057920737068e-002
      -2.5919552454467976e-001 2.3705493591911503e-001
      -3.7510531115059004e-001 -1.0737567373892316e-001
      2.6155435419049017e-001 1.1230097079637640e-001
      2.9410698110522970e-001 -4.6661414818414522e-002
      -2.3909588344486132e-001 -1.9334970544230198e-001
      -1.9639042226983469e-001 3.3393916711695587e-001
      -2.7483789231220485e-001 -1.5329680210003038e-001
      -6.8181955518113069e-002 4.2130391569832372e-003
      2.2271226995958018e+000 5.2385889003302821e-001
      -1.6824633080777479e-001 -1.7053973942091757e-001
      -3.6664778757167094e-001 -6.3200200166672549e-002
      -3.5329970744642497e-001 -1.2925518242088244e-001
      -2.5184247150406347e-001 -8.9660751444961648e-002
      3.5102656798640290e+000 1.1224729900498030e-001
      -6.0938017909765385e-001 -2.3252152426313683e-001
      -1.0170539415654548e-001 2.8331159172417569e-001
      -6.2534586570024392e-002 -5.1257087414980272e-002
      9.0155852330664754e-002 -1.1051666977246988e-001
      4.4646416457633353e-001 3.4097686504539942e-001
      1.6505142636650677e-001 -1.1737661650609175e-001
      2.9071656257315309e-001 -5.6792202387226723e-002
      -6.7151040696436945e-002 7.2164964939409521e-002
      -3.9508068964287060e-002 -3.4562859560823311e-001
      -8.2911926414533637e-003 9.0871217890923617e-002
      1.6661838022593145e-001 -1.3277928700634756e-002
      -1.6276996291917337e-001 -5.3810092632203640e-002
      -6.9918905443486654e-002 5.4978327929987109e-002
      -4.7749528893872392e-002 -2.8298593625432911e-001
      -9.2915385964446387e-003 6.3729460358147999e-002
      1.4673125166875248e-001 -5.0757274016637606e-002
      -1.6467944375718860e-001 -3.9519094833697303e-002
      -7.2857926738769299e-002 1.0976637896120955e-001
      -4.3044102013956361e-003 -8.9731593134488655e-002
      -1.3917920694858713e-002 8.8016355043295053e-002
      1.6625183927643822e-001 -1.6051329327779759e-001
      1.1676316090615338e-001 -2.8377068738323113e-002
      -7.8899955425614635e-002 5.2367649730863483e-002
      -4.1945692657254282e-003 -3.3540328054692270e-001
      -1.1669544512613136e-002 8.2328455090856290e-002
      2.1641270497575929e-001 2.4220556351605685e-001
      1.2318763264218700e-001 -1.5335043448798014e-001
      -6.2773881779902063e-001 1.3939438577643698e-001
      -3.0353613297956811e-001 -5.6631608428262026e-001
      2.4702358224736501e-001 3.6893299622436510e-003
      1.1502064349961537e-001 -6.5728147482596519e-003
      2.8769909011498573e-001 -1.8518710045418155e-001
      -6.2224179029687077e-002 1.9826618782319460e-002
      -2.8844346648899004e-002 -1.2249191979997311e-001
      4.5603508281061017e-001 3.4453943848595359e-001
      -2.3889181186632601e-002 6.8858786630439789e-002
      1.6448883060183880e-001 -1.6347318764930183e-001
      2.3088975703962047e-001 2.4683028282128608e-001
      -1.0031969289819143e-002 -1.0609984248200841e-001
      4.8954939197043253e-002 -1.9249690086554058e-001
      -8.4748819774782269e-002 1.6272662081547826e-001
      6.0738498401296814e-001 -4.8641263255440076e-002
      2.3230086741709326e-002 2.0583639759155659e-002
      2.3401732094180533e-003 -1.0741236159274904e-001
      7.3280189544130875e-002 -1.8849969368263975e-001
      5.3456136756849917e-002 -9.1784124736105671e-002
      4.4642704418741869e-001 -1.0209726610540283e-001
      2.3344617429356573e-001 2.6483214713051967e-001
      -1.7241493926219970e-001 1.1163495365733614e-001
      -2.6116820888172014e-002 3.3976183352441119e-001
      2.0171574950640078e-001 1.0787884861559352e-001
      5.8020721348339022e-001 3.3821687453704074e-003
      1.2155949187166129e-001 1.6186959536705015e-001
      -1.8875292223553945e-002 -1.7692835587734157e-001
      -1.2709815363201284e-002 2.8928095852860197e-001
      5.7135298545734181e-002 1.2213004422166418e-001
      3.2837761810406740e-001 -2.2919670165456577e-001
      2.0432945036153477e-002 3.7783957211787461e-001
      -8.1370390743882887e-002 -7.9474287562705775e-002
      6.7784343881459264e-002 1.4257744551884036e-001
      1.0568683322016439e-001 9.0039419869606230e-002
      2.4892755794646368e-001 -2.1335412034021264e-001
      4.4829009578282675e-001 2.3097720433967750e-001
      -3.5345557778173964e-001 -1.9750517088820016e-001
      -3.5322024008408531e-002 1.4756509042205812e-001
      6.1400182083818228e-002 -3.3811666746293795e-001
      1.8543865614238181e-001 -7.9955201751939387e-001
      7.9516704490394368e-003 3.9756432328433061e-001
      -1.3773353322475006e+000 3.0372250210289964e-001
      3.8394329302565616e-001 3.1949523843405536e-001
      -5.7420369095918820e-002 -3.8361079327040642e-001
      -7.8428236110340124e-002 -2.4232033446353876e-001
      -1.5869492252729145e-001 1.2863835371336689e+000
      4.8262258856729978e-001 1.1599178728005601e-001
      -1.1857156497541538e-002 -8.5781439073130919e-002
      2.4172271687545013e-002 -4.4862810718002283e-001
      2.6365584872804909e-001 -2.0629009271703203e-001
      -1.1129111878494476e-001 3.6205305039841618e-001
      -9.9717105693775177e-002 3.1757690306501585e-001
      7.5960431538568476e-002 -3.4722572445701150e-001
      2.1142283743955897e-001 -9.6859253524879796e-001
      -1.3596978155176009e-001 -2.0487936927502717e-001
      -1.7391946713625378e-001 4.6875944570247546e-001
      9.5801872275182665e-002 2.4022549505365559e-001
      1.3480276448505579e-001 -2.8731570115665522e-001
      -4.3164488358367703e-001 -2.4700262586461824e-001
      3.2013717328682700e-001 5.4762638077452429e-002
      -2.9985576088987258e-002 3.5657286737751193e-001
      1.4755132933098480e-001 5.2334825755308767e-001
      2.0578963617269444e-001 -3.0085014896467761e-002
      7.1237366356990350e-002 -7.5069530089463710e-001
      -1.8428879471300397e-001 -2.3896749380255311e-001
      -1.1957800945610488e-001 2.4574194259859486e-001
      8.1836937580856894e-001 4.5182470572006089e-001
      -2.0740053590910962e-001 -1.9047035777382590e-001
      2.7914675355718999e-001 -2.9535390415994495e-001
      9.2133945201254105e-002 5.6298238047457781e-002
      -6.0084060585961392e-002 1.0945929740738512e-001
      2.5020788552321693e-001 1.4748391891995583e-001
      1.5354210229395329e-001 -1.3976427134857703e-002
      -8.3498056009555371e-003 -2.3788937849632152e-001
      5.9805009762709221e-002 6.7892335308887802e-002
      8.3315413267598892e-002 9.1390007383962357e-002
      1.5627110370256975e-001 1.6410518986875708e-001
      9.2354193535620493e-002 2.6958930005411452e-002
      7.5094276084569367e-002 2.5432871810009139e-001
      2.1134625640745319e-002 9.6282653685562658e-002
      -1.0678027168858482e-001 2.2544690906931902e-001
      8.1820630745538725e-001 2.1455664229021623e-001
      8.9304596532054048e-001 3.6995006253870477e-001
      4.7081431115664978e-002 1.6644965718467125e-001
      7.8616921859716166e-002 -3.5670724827587758e-001
      -1.9192497893378899e-001 -1.2718510339694926e+000
      6.3318507993184947e-002 -7.3502059268234832e-002
      8.0773814648904418e-001 -1.6731899250599777e-001
      4.5040861696025919e-001 3.2938941388107740e-001
      6.2037458819094067e-002 4.3292773136630144e-002
      -1.7124671816873960e-001 -4.7591966957667808e-001
      5.0099530232508615e-004 5.7554827101219862e-002
      8.0357671263134833e-001 -1.1961733438463186e-001
      6.3385958490315919e-002 9.5737613765785123e-001
      4.5038815726157651e-002 -1.7331161677676216e-001
      -5.5542355417139755e-001 1.8382501858490025e-003
      5.1105295180731744e-002 -1.8415362676118244e-001
      4.0870995730672605e-001 1.2786385803715286e-001
      9.8871983278893982e-001 -1.4579064436807235e-001
      -2.6534051858763402e-001 7.5957964964158087e-001
      -4.2371316524474884e-001 -7.1423558107291257e-002
      3.6483497996561437e-001 -5.0986820106544573e-001
      -6.9372703844326167e-001 -2.8280121815785036e-001
      1.1541085035884968e-001 -2.2026150190287856e-002
      -8.3472686087255110e-002 -3.3221923307377471e-001
      -6.9757260616253342e-002 -5.0692801802630660e-001
      -1.5277644648870251e-001 -7.3412895223312485e-002
      5.1621128991636733e-002 -5.7310389735356870e-001
      -1.3634838495417834e-001 4.5026975002502373e-001
      2.2854267534010647e-001 1.7594304542148489e-001
      3.3118632425007406e-002 -2.0195779576680969e-001
      -1.2220506018472094e-001 3.8048438836123195e-002
      -1.2269923193866500e-001 -1.2530916996623717e-001
      -4.4488111678094702e-002 -8.8640960276590880e-002
      -1.2794768346160662e-001 8.6609001318465551e-002
      2.8696992312340563e-001 2.7486510457810048e-001
      -5.4185489152342947e-001 2.3611969852764217e-002
      -5.2098750279591238e-002 -4.1897821392691853e-002
      2.4684702982113943e-001 -5.5053110063555566e-002
      4.8111855273067036e-002 1.6010740945757587e-001
      8.1115259168277706e-002 3.7232571280539678e-001
      -4.9267392947486299e-001 1.2309529109776804e-001
      3.0688171275017240e-001 -2.3092779041014030e-001
      9.4404289364920291e-002 1.9879013391653877e-001
      2.2366359980566136e-001 9.2303540255614172e-002
      -2.3298937935528244e-002 3.4868659139040181e-001
      1.3692577505583561e-001 1.0216260759347559e-001
      1.0885538119534974e-001 -2.4682068372509050e-001
      2.4818905604524613e-002 2.4844256038193671e-001
      2.8344435456866496e-001 -9.1922861874765213e-002
      1.7887105731849741e-002 -1.1919884304470664e-001
      -2.4639214228816886e-001 1.3926206412987152e-001
      1.0573042824982894e-001 8.6824535504804776e-002
      -4.4417350383977799e-001 8.6258424076957357e-002
      3.0995137032695980e-001 -8.7750014204914670e-002
      -1.6007212668092380e-001 -1.1095297706763864e-001
      -1.9091076951244465e-001 -9.7128108739767363e-002
      1.4884701385343507e-001 2.1370244579314976e-001
      -6.8293786947657253e-002 -3.6331200964463933e-002
      -3.1488197471224849e-001 3.0336076472320805e-001
      -2.4827939826255765e-001 -2.5071796222059739e-001
      3.8280960385715296e-001 1.1666649114913210e-002
      1.6097621614672733e-001 -3.0537921532729200e-002
      2.0288122607023024e-001 -3.1252488606737266e-001
      -2.9172376621016502e-002 2.0000104101605054e-001
      3.6139431956924700e-001 -4.4474687142268693e-001
      -8.7114662561113554e-002 1.6065517108638849e-001
      -4.0398761480842163e-002 -7.4249309466817626e-002
      2.4614098922744437e-002 3.8850482736669641e-002
      -2.1243975499436324e-001 1.8635614668106784e-001
      5.5157870677595359e-002 8.9728160289822695e-002
      -3.6966736873924905e-001 7.1379507427408881e-002
      -7.0559332988113926e-002 1.7761922792504684e-001
      8.8339714657010543e-002 -1.2322021031914390e-001
      -2.6461643850689504e-001 8.4541091884743597e-002
      1.3261785790784939e-002 1.2529527630540852e-001
      -1.2964516967986764e-001 -6.8683757099060910e-002
      -6.5216579439435896e-001 -2.2853815669339689e-001
      -3.0979973927554465e-002 3.3195273928144177e-002
      -2.2991380026795646e-001 2.9494466208305897e-001
      5.8554051916588107e-002 1.2297609835752099e-001
      -1.3239867722625079e-001 1.0931872996876832e-001
      -3.9262362762277861e-002 -3.9378404207668871e-001
      5.2614446378974244e-001 4.4087448125154735e-002
      -2.6785189091734252e-001 3.0862161244619235e-001
      1.9676681597807924e-001 1.2179000733411635e-001
      3.6708960744080721e-001 2.9785069036037337e-001
      -3.7524027332213100e-001 -2.5200984739105187e-001
      8.2769309043095274e-001 -5.6053862365050744e-001
      -1.5887262269774283e-001 5.5030967885672288e-001
      -1.1847666080461075e-002 -2.7177927385509920e-001
      -5.9437172420405283e-002 3.3253985092171687e-002
      -4.3409250570697205e-001 7.4451171846862604e-002
      1.5694776233045138e-001 -7.7242768340272022e-002
      4.9180419054207267e-002 -3.7671933835118609e-001
      -2.0192334730036446e-001 -1.8332950941161807e-001
      -2.4620458956959287e-001 6.3769714795555887e-001
      6.5979784657230378e-001 -2.5003946303672980e-001
      -7.9575539610135124e-002 -8.8345424138044104e-001
      -4.7740687196247647e-002 1.7783597773591955e-001
      2.2082106531828755e-001 -3.3531136145479873e-001
      3.1381461855711085e-003 5.4694589337190092e-001
      -8.2186676239446574e-002 -2.0907865230021011e-001
      1.5788705039688999e-002 -2.4700285237510625e-002
      -3.2174814263147972e-002 4.0629728701210643e-001
      2.6975127989446679e-001 -3.0328088449454244e-001
      -2.4936622122621452e-001 -5.8789244423358322e-001
      -5.3688801110209983e-001 -1.3917789371296177e-001
      2.3711770206360899e-001 -1.9735105671132736e-002
      -6.0621142427149843e-001 2.7555022574294336e-001
      5.5516597667972278e-001 3.8539103887418052e-001
      -3.1443820232494218e-001 -4.1599906647653125e-002
      2.1997438850168194e-001 -1.8142586380443887e-001
      2.0435311038797982e-001 1.2269545090745532e-001
      2.8660627005807526e-001 -5.8568813232822192e-001
      2.2917014608423708e-001 -1.1441440960037874e-001
      -4.3995586623469302e-001 3.9381799638560144e-001
      1.6712243600949217e-001 1.0572612638900619e-001
      2.9185151592284977e-002 2.0544215644701183e-001
      1.6776231888679582e-001 -3.6498497839553312e-001
      -1.4729874930311602e-002 -1.0753593379378326e-001
      -7.9540945816953379e-001 9.4447661484272749e-002
      1.2197590171993315e-001 -7.2608758689749503e-002
      1.8896763553872473e-002 2.8312384481224928e-001
      3.8436010515415769e-001 -1.7109464672509267e-001
      -1.6920753380541087e-001 -1.4434294016756624e-001
      -2.5300169349474882e-001 -2.3069920933225900e-002
      2.4010211552387967e-001 1.1128536256301481e-001
      -2.2505074717950966e-003 1.2013366666687025e-001
      1.0363370553583198e-001 -6.8974037441214189e-003
      -1.8537662080244044e-001 -1.4103091875929841e-001
      -2.8097522397322267e-001 5.3616330447629215e-002
      1.4547741829010610e-001 -2.1394917942821148e-001
      -6.0511068149367592e-003 -2.5730209593181985e-001
      -2.1022847151644494e-001 6.2776129898410959e-001
      -3.8085675531580140e-002 -1.3460169846379447e-001
      -1.5001893461328955e-001 -2.8572633071240860e-001
      3.5742831238041596e-002 8.7320988441418904e-002
      -1.3817928289249487e-001 -4.0163668185192486e-002
      4.6006735601844165e-002 3.8349425522618014e-001
      -1.0125246613255656e+000 -1.3314109205289795e-001
      -1.9896930784536238e-001 -1.5328176181535369e-001
      3.6297854044049477e-001 3.1073934008387716e-001
      -2.6415665005890931e-001 -1.2181963765852691e-001
      4.7949618327058685e-001 6.9863769943434428e-001
      -4.4924590638978690e-002 -1.8139386339572620e-002
      -1.0642413878244385e-001 -5.0548533370346638e-001
      -3.5095277111687169e-003 8.2835900491011927e-001
      -4.2073784133548411e-002 -2.5080709088915326e-001
      -5.9370155837436593e-002 9.5093351288118425e-002
      -1.6311963034038893e-001 -1.4290400783782886e-001
      -1.1959112583186263e-001 -2.0065898419659370e-001
      -3.5708470347612176e-001 7.8533977403327779e-002
      -3.0290209073644641e-002 -4.0705174584430814e-001
      -2.6976650767001270e-001 3.9625062648633785e-001
      -2.6703436733811667e-003 -1.6623900429948130e-001
      1.3273771912605484e-002 -2.5740229620734129e-001
      -3.5426758655087642e-001 -1.9227427052939616e-001
      5.0841009688545835e-001 -5.2666327033456327e-002
      -1.5773152868887086e-001 3.8956360013970071e-001
      1.7472462557690979e-001 -2.1447240951237945e-001
      -8.2621589003661233e-002 4.5183978247333956e-001
      -2.2827337432249439e-001 -8.3815986106727681e-003
      -9.5708002022855648e-002 8.2363583728500597e-002
      -1.5311323503688154e-001 3.2012545354123062e-001
      2.2405712437283648e-001 2.3237403300577122e-001
      4.0460894670645664e-001 -3.3547996473899111e-003
      -4.9615399253797529e-002 -3.0809745200822525e-001
      -2.9869013305879161e-001 -7.1974113432085574e-001
      -1.7960054828938485e-001 5.8576828981183701e-002
      -3.8385547453954660e-001 1.8421408602490360e-002
      -3.2269872558726748e-001 3.3318562842425803e-001
      7.5399045940498066e-002 -1.3098758835626223e+000
      1.3147045507051605e-001 -2.2591629438027383e-001
      -2.7125716891379659e-002 -2.8524264883359435e-002
      -9.7491134450775521e-002 5.3226860255877820e-002
      -6.3015429433898925e-003 4.5711973857498983e-001
      -1.3639963571686342e-001 -6.3877656916996661e-001
      1.5539373711880153e-001 -2.1907440343991527e-001
      9.9337320070703269e-002 1.4342413122738859e-001
      4.6167214883149726e-001 9.1986907003331952e-002
      -4.6399370126589831e-002 -1.7892331628050789e-001
      -7.2188129801315115e-002 1.2173649385798949e-001
      5.4112703458362721e-002 1.0269681097610206e-001
      4.5578648635333757e-002 -2.7530177183781224e-001
      1.9810358280864346e-001 6.1587088501765488e-002
      -5.7295844235373528e-001 2.8470625110985526e-001
      -1.7629511304743009e-002 -8.3505605346597311e-001
      7.1460021571198365e-002 -1.7715359089076721e-001
      -9.6964782524576104e-002 -1.9319130047648592e-001
      7.1166610273361997e-001 -1.3974549812102352e-001
      -5.2442936019701336e-001 3.5889058290821946e-001
      1.8558510951379667e-001 -2.6748794947464840e-003
      2.7346457098095982e-003 2.8475957596315338e-001
      5.7527544328124319e-002 -1.7638329310135448e-001
      -7.8025435510936200e-002 -1.2167727374637927e-001
      -5.5609764274523388e-001 2.7408354861546885e-001
      2.3835213665545588e-001 2.4495358276039317e-001
      -5.7035922065873490e-002 3.2486977599315750e-002
      2.8900287906242778e-001 2.9112118029313883e-001
      -2.2169334249274625e-001 -4.1240626162838845e-001
      3.3119684687489898e-001 2.0857633251154242e-001
      7.5818634966900195e-002 8.2933728280098606e-003
      -9.2741834432455914e-003 1.0149913134416358e-001
      -9.5772574224133128e-002 1.6333302430421190e-001
      2.6700231922598482e-002 -2.8856900008279673e-001
      2.8011144145494155e-001 1.0423270795081832e-001
      -1.0772759019297021e-001 -1.5895729638329939e-001
      -2.4840819133556621e-001 -5.8333714468886064e-002
      -2.0365411722113400e-001 1.1200357536774419e+000
      -1.2032802667581413e-001 3.6653147483314122e-002
      -1.5717590949847665e-001 -4.8346177065130852e-001
      1.0015689742345546e-001 3.6308645130845407e-001
      -4.1221178712388146e-001 -1.1114807538481748e-001
      3.0171050808192053e-002 4.1328207518837493e-002
      -1.8669578922559329e-001 -1.8213787056215394e-001
      -6.8138539300690679e-002 -6.0795866481563443e-001
      3.3871326375652694e-001 5.1004879481909016e-001
      -6.4580111451787547e-001 -5.0552652290564964e-002
      4.6807936276197670e-001 -4.6685425923225540e-002
      -6.1667672400020405e-002 -1.1369054266202604e-001
      -2.3403922199282354e-001 -2.0972857897672048e-001
      -3.6415098940674337e-002 2.9272021832606737e-001
      6.7640759052986967e-003 -2.6854376071173941e-001
      8.9485792564354433e-002 8.7879981551301289e-001
      3.5442439011901569e-002 -1.7068592579382166e-001
      -2.2469217751714281e-002 -2.3923974281052096e-001
      -2.9827142168825309e-002 2.8660586869483654e-002
      3.2423143753813544e-001 -5.3541467070672777e-001
      -1.7269194912964626e-002 5.5407243934982120e-001
      2.7803020202447667e-002 -1.2795563618329245e-001
      5.2979069821528099e-002 -3.7432612222570394e-001
      -3.2046227451169929e-001 3.7433384539784148e-002
      6.2458416036469133e-001 1.8516479570377057e-002
      -5.8863139933145500e-002 4.1104032631384829e-001
      -1.3132041576082537e-001 -5.0492236459966344e-001
      1.3144845714084885e-001 -5.6778543805551002e-002
      3.9112531102772088e-002 7.2995142212914005e-002
      3.4020988331654950e-001 1.2688807745656311e-001
      1.2314794040023261e-001 1.7851410605184779e-003
      -5.4436859477706012e-001 -4.7295102247729350e-002
      -5.7516379465889660e-002 1.5516754432657452e-002
      3.1834235654709853e-001 5.7899643887058011e-002
      -4.5715963503425999e-001 -1.4279556706631755e-001
      -3.7233192245045527e-001 1.5149981233635168e-001
      -4.5374678149976110e-002 -1.1527730367019176e-001
      -3.1579868616473727e-001 7.5322485689089697e-002
      4.3337762375947259e-001 1.0162677626597549e-001
      3.7242256445151520e+000 -3.0782930898868516e-001
      -1.2120428610520862e-002 -1.0797735364851359e-001
      -3.2026387757819810e-002 -2.0305896779689014e-001
      -2.7316611478114222e-001 5.7706270663817205e-001
      -1.1000977144935857e-002 6.6862079651957465e-002
      6.9110932253741575e-001 -4.1911212849404311e-001
      -8.5306205405502017e-002 -1.6258828087655924e-001
      -5.6949037512693104e-002 1.2314910441208478e-002
      -2.1278243600852154e-001 6.3385925340369798e-002
      -8.1829475300333882e-002 2.9550429083527807e-001
      1.5350112432786475e-001 1.6166690252939830e-001
      3.3936731022071467e-002 -3.5254592608721491e-002
      4.0675543572064388e-001 6.3447845209786635e-002
      -7.9544988684257679e-003 1.5318509269293579e-001
      -4.5843389674563473e-002 -1.5140415199068452e-001
      -2.0505815999932384e-003 -1.6152560237503472e-001
      -4.9985243162078613e-002 -3.6338258349097347e-001
      8.6638518723104074e-002 -8.3620727087156278e-003
      -2.7877884584467333e-001 1.2085395804014807e+000
      2.2911540569995784e-001 1.2212129335065980e-001
      -4.7935823023513235e-002 -8.1990957454688446e-003
      -1.7839311143057726e-001 -6.0258658238492002e-001
      -7.5561745892308657e-002 9.7656154733656575e-003
      -2.6413475861174085e-001 4.7798709997794708e-001
      3.5469545536059222e-001 -8.9319556323899846e-002
      -6.9114239100458649e-002 -1.9100210895773440e-001
      -1.0916216819171816e-001 -5.8830429272203083e-002
      -1.2536148363877811e-001 -4.0509359680600948e-001
      4.3516008379529947e-001 3.6892388217797689e-001
      -1.4873019244146657e-001 -2.3948832690468019e-001
      -1.7874562402662125e-003 3.8556044675273254e-001
      1.5018066343012403e-002 1.9247670829662963e-001
      1.1302555576374157e-001 1.5697229509979557e-001
      1.8936935740897112e-001 -2.9172359877834603e-001
      -1.9202321345174275e-001 -8.6460569097930318e-002
      -4.0461621089150121e-002 3.8283419876310504e-001
      4.2127646987817352e-001 3.6223030405117385e-001
      5.3469684324943333e-002 4.2451908421308832e-002
      1.9637308400334222e-001 -2.0302331979512886e-001
      -1.9495984505730576e-001 8.9414220185793902e-001
      -1.3296952781860016e-001 -2.5129218633183448e-001
      1.0003276024898172e-001 9.0412767589068654e-001
      -2.0942275080621200e-001 1.0206705472262116e-001
      1.9486927830250390e-002 -3.0835780160399373e-001
      9.3329673579779532e-002 1.9597685633563752e-001
      -4.8521477385707501e-001 -1.0770789171458023e-001
      5.1705211607626733e-001 -4.9846649518057763e-002
      -4.4068385997076198e-001 -1.5194797885889014e-001
      -1.8508012118382938e-001 -9.8170453947992897e-002
      1.6310900145829234e-002 7.0822617680203412e-002
      -1.3273888217393512e+000 -2.6568049307636016e-001
      1.5377541089600597e-001 2.8984369768560496e-002
      3.9051838850292939e-002 -3.9773762525007708e-002
      2.1647093925842870e-003 5.8777337586877875e-003
      -1.7285153333637546e-002 3.8795036040830871e-002
      5.7717099597458066e-001 1.6183765370678582e-001
      -2.8272979248528907e-001 -1.9587799814799849e-002
      2.2962717821152009e-001 1.4413913412416590e-001
      1.1365012407977965e-003 -1.2205826511811539e-001
      -3.7406686350615576e-001 2.5655115349787996e-002
      1.0380888334000204e+000 1.2028289364694764e-001
      -5.5804388637121366e-002 1.3743775515422230e-001
      4.0204701165949164e-001 -1.2068705674747822e+000
      1.5287501406864225e-003 -8.2462275798159124e-003
      5.1464223183768455e-002 7.5722457361015960e-002
      3.1069544717740355e-001 -3.7883990603666068e-002
      -1.1490202233061995e-001 6.8940580939848539e-001
      1.9039149883586923e-001 -3.0589651834797849e-001
      2.5540005554628986e-001 -1.4834685969123440e-001
      3.3561058466791943e-001 1.1473181839508673e-001
      -1.0548544005324727e-001 -3.2978331703052782e-001
      1.9867355034596562e-001 2.0367126051371563e-002
      -3.5023269001208018e-001 -5.8882880225892387e-002
      -1.2576306496537976e-001 9.9002209102671088e-002
      9.1350709292664001e-001 -7.5146978753597195e-003
      1.5319150335936182e+000 -4.8883569311463676e-002
      -2.7771647412582409e-003 -3.6034268707180489e-002
      -5.8189654913055944e-002 -2.8453995138286403e-001
      -1.4409664148513399e-001 8.5724527456715910e-002
      -4.9042156996482761e-002 1.0297560571633302e-001
      4.8976241133170195e-001 -2.5901991240149854e-002
      -8.6317225040158235e-002 -1.6259311479428037e-001
      -1.3715304446874962e-001 -1.7939893106049354e-001
      -2.1956719199738955e-001 -1.0747816985644143e-001
      -3.0488351366069758e-002 3.3587369781566923e-001
      1.4986913079343997e-001 1.4635626994193471e-001
      -4.0604075140243641e-003 -8.3712367040884875e-002
      3.0857485879987245e-001 6.3446054087417769e-002
      -9.5630497523153408e-003 -1.1902977189767683e-001
      -3.8428806819831393e-002 -3.4320596219035108e-003
      -6.3403590759701020e-003 -1.6887576810484875e-001
      -3.2546686350867526e-001 -3.0029657680977706e-001
      -1.6926012247627384e-001 -1.2532930813494772e-001
      -2.7079780706289508e-001 4.9303187427298667e-001
      2.3010692928127766e-001 1.8268770598275255e-001
      -2.8333688681853098e-002 -1.0055392341751884e-001
      -2.1099784753839509e-001 -7.4486749355932580e-002
      -4.8888900488638178e-002 -4.5991193604525499e-001
      8.8734322702845259e-002 3.6482221207086962e-001
      7.9215558505364947e-001 -1.0924331479848449e-001
      9.5170659634326756e-003 -5.1816208623078522e-002
      -3.2390865863595392e-001 1.4397579574861713e-001
      -1.5756795214441935e-001 -5.7926760688935514e-002
      2.2027549260907175e-001 -8.9775012991747782e-002
      -4.9848685482244665e-002 -2.1934571049619603e-001
      -8.7872472613023265e-004 4.6656422684114235e-001
      1.9949111822311966e-001 1.8930672334773263e-001
      2.3393899264137957e-001 1.5855982283709538e-001
      1.9997486125965616e-001 -1.1368164685933571e+000
      -5.0361013476520311e-001 8.1922172765281034e-002
      2.4324193845689960e-002 3.4156379749206364e-002
      4.9030194859228010e-001 1.0168190011156890e-001
      2.0105504675593788e-001 2.9204481196106413e-001
      1.9388760715436318e-001 -3.1708997881094442e-001
      -8.7382004348734998e-002 1.0767456093777591e-001
      1.1352126072122330e-001 -2.7108368041423980e-001
      2.9897076662617955e-001 -4.3306857420645620e-002
      2.8649961250204565e-003 9.9514996883365778e-002
      3.4544227224141154e-002 3.0903473682426619e-001
      -9.5565032149327434e-002 1.4952290930781326e-001
      -4.8151862367435938e-001 -1.4035329106012617e-001
      3.3810302322355928e-001 -1.1380864426179095e-001
      -3.7846718373562765e-002 -1.2115684932821370e-001
      -1.8104506511124227e-001 -3.1355309455686053e-001
      -1.0961797493109911e-002 5.9271192729707996e-002
      -1.3185728146965860e+000 -2.0007548056736127e-001
      5.8597567566601894e-001 -9.1290627562213955e-002
      -8.0445545127735829e-004 -2.9599856970979149e-001
      -1.1207040037812187e-002 -7.8241541275616888e-002
      -3.7310241929561200e-002 3.1666865710308717e-002
      5.6564980163805678e-001 1.7777696851864866e-002
      -1.9335417065929539e-001 -3.1267886988718761e-002
      5.0792679733071069e-002 -1.2895117677513118e-001
      -5.0821181113010996e-002 -7.5773480513826638e-002
      -4.0708374592952440e-001 2.5889303115446696e-002
      1.0462365865935888e+000 -4.7767146264884701e-003
      -2.7524718957866501e-002 1.1348132320660367e-001
      2.5272978963366055e-001 -2.6994513350641016e+000
      2.6760987986431728e-001 7.4009088664369255e-002
      5.9039296739238301e-002 4.9016754910735039e-002
      5.1894328600775608e-001 -2.2830420333009110e-002
      -1.6695430632530256e-001 1.9389392878094749e-001
      5.6916179878454945e-002 -2.3677445294309984e-001
      1.5263278829164935e-002 -5.3611756386759052e-002
      2.1917493986229913e-001 8.1300231773104761e-002
      1.8801253255614822e-001 -1.6153768554299883e-001
      -1.6470514171312114e-001 4.6718975093376458e-001
      -1.0734784956655384e-001 -6.2306764219333559e-002
      -3.2767717334774726e-001 -1.1853533990204532e-001
      9.2627626145626016e-002 7.1117044875112403e-002
      2.9076842225782378e+000 5.9533830148450109e-002
      -2.3584678265793432e-001 1.0441551125843769e-001
      3.0251429974646871e-001 -2.1061134446604290e+000
      -1.5062114689991543e-001 2.7917792202722330e-001
      -1.9114285670765847e-002 2.0453218307881785e-001
      4.8761986782223465e-001 5.9625549265221185e-002
      -7.1926918327560069e-002 -1.7369757499736882e-001
      1.1449485576956511e-001 -1.9474000408657138e-001
      -4.0719049828308665e-002 -1.2204291134325219e-001
      -3.7151205556361810e-002 1.2564957490403822e-001
      1.1999029334421975e-001 1.5086255300126677e-001
      -2.2534090052165864e-001 -8.6555536357161636e-002
      1.8850831922964054e-001 6.4330595107928518e-002
      -6.6825722309903815e-002 -7.3261671708425014e-002
      -1.6965777295534158e-002 1.6152894842054632e-002
      1.1279133736181481e-002 -1.6401179126035229e-001
      -6.9161011521616989e-001 -2.9468620035415616e-001
      -9.3221322304822829e-002 -1.1585273965280379e-001
      -2.7471997366197687e-001 4.2227057182918892e-001
      2.2866417815233978e-001 1.3858423441631207e-001
      6.3281534578057838e-002 -2.0231774092778279e-001
      -4.1152386837156341e-001 6.1631284592948823e-002
      -1.6264084932217197e-002 1.3236259213761828e-001
      -1.4772700956948001e-001 1.7334102410965846e+000
      4.0183661875440968e-001 -2.9238317369164779e-001
      2.0089470350122896e-001 7.4309954881318890e-002
      5.8897687138969305e-002 1.0932225475346838e-001
      -1.0864368343685339e-001 4.7373867748344317e-002
      -8.0044395447763150e-002 1.0221001715529106e+000
      -5.9472766904795832e-002 -7.9317241366852753e-002
      2.6423437795992932e-001 1.7581001720374337e-001
      1.2514180335577937e-001 1.3709127977856472e-001
      4.1804065083899061e-001 1.8843899804427666e-001
      2.4909578639202762e-001 1.1503321601867075e-001
      -2.8921970734726812e-002 -7.5815615424195820e-002
      3.9154317106586997e-002 -3.4190717109349494e-001
      5.6311338084543805e-001 1.4249531811715604e-001
      4.6239735418206840e-001 6.2498918403692982e-002
      -4.0342690563486783e-001 2.2371741255663558e-001
      -4.8481603539900520e-001 -5.2290131497187142e-001
      1.3175561597471316e-002 -4.3841986342922873e-001
      3.2779011985139306e-001 -1.6658769972003210e-001
      -7.9817650470252854e-002 -3.4316703954880040e-002
      -8.7700572517245790e-001 4.5090407716298708e-001
      -2.3715992946069220e-001 1.5837471646750059e-001
      -2.5253672556413426e-001 -2.7886435180335017e-001
      5.5051492876577834e-001 -1.2047829616219750e-001
      -1.5273611661997208e-001 -1.2804466153553978e-001
      -1.9369449166259969e-001 -9.5826738685727234e-002
      -1.5522605217652629e-002 1.1903200459667562e-001
      -1.3162573340149866e+000 1.5672063067548755e-001
      2.8470282087646026e-001 -5.3531762901373306e-002
      -1.3612974312823325e-001 -2.0410166964317142e-001
      2.3806024717069406e-002 -1.4609046416656032e-001
      -4.1677544799619493e-002 3.5942100099444402e-001
      1.5429311808519655e+000 -1.6508636837053354e-003
      -2.0581722132590430e-001 -2.4026341872380508e-001
      2.1682146687626458e-001 -3.0215986184207277e-001
      3.4176366155653143e-002 -7.9368890306677972e-002
      -1.6547495860451344e-002 1.3260170555414288e-001
      1.0417905267512948e+000 4.0629078551574382e-001
      -1.2681254380685725e+000 1.4500444754789704e-001
      4.0276671816698728e-001 -2.9650620013019986e+000
      -1.1486000122286295e-002 1.3283809620684278e-001
      1.5405896906927065e-002 3.7695511761559698e-002
      2.8193373246784492e-001 6.8966415959413385e-002
      2.0437041601481559e-002 4.3173809841965188e-001
      2.2298835642810189e-001 -4.0743628326746523e-001
      1.1514127086535225e-001 3.2886807378865163e-001
      -1.9176258241494281e-002 9.4042896468791673e-002
      2.9221071451482311e-001 -5.9983209406117177e-002
      2.4509600583819008e-001 -3.6183379573859198e-002
      -3.5336197569594296e-001 1.6788117600347716e-001
      3.1546691350950135e-001 1.3350078542783900e-001
      9.5340616968176375e-002 -4.9277717428040779e-001
      1.2219323566290403e+000 9.3878083992609149e-002
      -1.8321837877892069e-001 8.5170685513179412e-002
      7.3836765482324346e-002 -1.9821784349719478e+000
      1.5207015938448853e-001 -3.8659959358940579e-002
      1.2401261344445687e-002 1.7092287081960394e-001
      4.8515038962507384e-001 2.1126469731209732e-001
      -1.2397649080410167e+000 7.4248726044899391e-002
      3.6034707249276338e-001 -1.2812180527924186e+000
      1.0730374585661055e-001 -1.1570007881274337e-001
      -3.3828518836996377e-002 -2.9352136704286746e-001
      9.9352254632167528e-002 3.7914095174565443e-001
      -7.4294234883158961e-001 1.9723723151531550e-001
      5.8035457269313817e-001 7.0861421887421755e-002
      3.1768415343147359e-002 -1.0760539314922435e-002
      2.6941565083197314e-003 7.3306827549557585e-002
      9.3496449817542210e-002 -1.9706412169288254e-001
      -5.4487032756455933e-001 -4.5787160333520155e-001
      -8.4943130714369874e-002 -1.0692515584341578e-001
      -1.5918431132971596e-002 1.9037416008072315e-002
      8.2396865591671986e-001 1.7294819121405246e-002
      -1.9718845325383413e-003 -1.9435499444946427e-001
      -4.1983820287062540e-001 -3.6579843317336680e-001
      -1.1393350466051726e-001 2.7238550380470283e-001
      -7.4850904997007939e-001 8.8983631892441317e-001
      1.4858950446971897e-001 -2.4467154152440437e-001
      3.0425005093250473e-001 -9.6824048340160240e-001
      2.3216393270768762e-001 -9.2178074601016724e-001
      -1.7750538537704139e-001 3.1597475226385036e-001
      1.5910039197477105e-002 2.5312899099801567e-001
      3.5316014266716916e-001 -5.7340429012230312e-002
      1.3179870875707902e+000 4.4543694433650194e-002
      4.6641062290987878e-001 -1.8376768224522997e+000
      -3.9641272221199279e-002 1.7421706615632729e-001
      -1.6712383456239469e-001 2.0065877479021496e-001
      1.8921998838466986e-001 -2.8631514326261315e-001
      1.3300516928529311e+000 -4.7738509306781857e-001
      2.1309017857745510e-001 -2.7789521800661010e-001
      -5.4786993835943543e-002 2.7685693803676503e-001
      -7.0394558182410172e-001 1.9333294541203869e-001
      1.9078899573121363e-001 -5.8370190187630666e-001
      -8.9790418281232368e-003 -5.9945010082795724e-001
      8.3664433426757689e-001 -1.4699905817407141e-001
      -1.1948778487365741e+000 1.5963566857111497e-001
      -6.9339944383599372e-001 1.0847766075092462e-001
      6.0005569692303751e-002 2.2292078480532210e-001
      -1.7717990551490939e-001 -1.4306421853558426e-001
      1.2448686340489554e-002 5.3228037938030728e-003
      -2.5726162668410507e-001 -1.4263675871563361e-001
      5.0264625617359976e-002 -1.1523534568475001e-001
      2.9104882359452043e-002 4.7994565083555346e-001
      -1.3215591133704301e+000 3.6597287437228981e-001
      -4.4606791448121347e-001 -3.3244327100572714e-002
      2.2731908171500023e-001 -3.4567406375995846e-001
      5.2552824777988463e-002 -9.5325584989094256e-002
      4.3138554914439915e-003 4.4347641363016366e-001
      1.4179372900937768e+000 4.1783210578793673e-001
      -3.2169934249588927e-001 -2.6837051440929610e-001
      1.1535013660142665e-001 -3.0712264175476001e-001
      2.0368900805138651e-001 -3.5691268377486257e-001
      -1.4901065657619506e-002 1.1006197117547202e-001
      7.6320082864091543e-001 3.1006978274570834e-001
      -1.2952010960418281e-001 4.3473267002227811e-002
      3.7351040266192970e-001 -3.0265128253422597e+000
      1.5912923151945363e-001 4.5245945939352099e-002
      9.3179269622227834e-002 3.2183865341402396e-001
      2.0525945171369248e-001 1.6365753309970803e-002
      2.0168947212420532e-001 -6.1306928858838906e-002
      -2.4928782389202520e-001 2.4233508518932900e-001
      1.1659865334938925e-001 -1.7361761234145962e-001
      1.2760593618592256e-001 -4.9589609459180645e-002
      1.1586581128625892e+000 -1.8738673408485362e-001
      -3.7320432067040987e-001 -3.5354961302371535e-002
      -4.7112094954691497e-001 1.0986722572022234e-001
      -4.5158412843920019e-002 -4.5041216485279822e-001
      5.1946839281063240e-001 1.1610622904281471e+000
      1.3323354081166352e+000 3.7959002678047686e-002
      -2.2884803531826287e-001 1.2945284804902127e-001
      1.6570504852007761e+000 -2.9551632187812431e+000
      1.1525730164394878e-002 -2.5768868662491937e-002
      -4.4852211633186645e-002 7.8315160418290994e-002
      1.9638731602886716e-001 3.1547968851851443e-001
      -5.5718213964864127e-001 1.0014101449982801e-001
      5.2126043284710044e-001 -1.2641927967597391e+000
      4.9757339035432957e-001 -1.9702174454047892e-002
      -6.8739471319699624e-002 -8.2290390823847454e-003
      -2.2314692102786729e-001 2.5006271547320280e-001
      -3.9151162720652066e-001 1.9146588926644090e-001
      3.6073678541518217e-001 -7.0017942464521310e-001
      7.6988721387513903e-001 -2.2139311227840353e-002
      -2.1752256898313407e-002 -6.7964356689837635e-002
      -3.2038833848692307e-002 -1.9421643540865066e-001
      -2.6603878481257615e-001 6.3309338732334214e-002
      -7.8271328369866847e-002 -1.9005841928372719e-001
      2.6968107031347510e-001 -6.5783825287968681e-002
      1.1969090520950283e+000 -1.3346630786348673e-001
      -3.9318734784124967e-002 -1.9676960798195689e-001
      -1.6144109766949866e-001 -1.9163318406653462e-001
      -1.4674131430349865e-001 2.7213557939284655e-001
      -6.7431118938756784e-001 1.6872177289654830e-001
      1.9815420597518749e-001 -1.1406100419806992e-001
      -3.0436958151778232e-001 -1.2106146278482062e+000
      -2.1764287545292768e-001 -3.0042443778366923e-001
      -3.6683651813592683e-001 7.8249369490443577e-001
      -9.4462217142674387e-001 4.7611898469124954e-002
      -2.0939747987677973e-001 -1.0514461387447999e-001
      1.6770623577621123e-002 -7.6693474967713238e-001
      2.2226467060118946e-001 -1.4593043274981736e+000
      -3.6653120464278438e-001 2.4726461416581662e+000
      -4.6376012501729924e-001 8.0073923750651144e-002
      -6.1438990878706368e-001 -2.8151951068701753e-001
      -1.6834255198288672e-001 -7.3600196537979579e-001
      -4.8201424284397804e-002 -1.7236517479952751e-001
      -4.0856195899988162e-001 4.5095709674890438e-001
      -6.1624203189165305e-001 8.2519312040163023e-002
      -6.2815470882420643e-001 -1.0907350229449535e+000
      2.1637253204711471e-001 -4.1185259181767181e-001
      3.8363659543417236e-002 -3.0931376073850148e-001
      -6.2684848192126508e-001 1.5236511121015414e-001
      -2.6159381125655401e-001 1.0313886706636446e-001
      2.1840206598387804e-001 -3.8282462257540464e-002
      4.3818594801727617e-002 1.2735717699670315e-001
      -1.4339057748184200e-001 -7.3021369465219296e-002
      -1.3624006791640869e-001 -4.0630092398965340e-002
      1.4410432921082116e-002 -1.1857615209808274e-001
      2.8122755783898828e-001 4.0415932567250479e-001
      1.8479139560379032e-001 3.2172444946129625e-001
      -5.4934412669393617e-001 1.3782814566863358e-001
      1.6292259040169779e-001 -4.3205576164839893e-001
      1.9659705682929074e-002 -7.7666805427163782e-002
      1.4501834230902007e-002 4.5396947014254424e-001
      7.5042050723685860e-001 4.1819407311297407e-001
      -3.4425951736178145e-001 7.5081542596765194e-002
      2.4482889219745221e-001 -3.7080945984180125e-001
      6.2501336559154741e-002 -1.3014497938953398e-001
      -2.1483396023569114e-002 2.3298874319655749e-001
      1.0474791060308191e+000 4.1944062400943127e-001
      -4.1129778114031304e-002 1.0463685749720014e-001
      3.7325748986120477e-001 -2.9763677261491273e+000
      -5.7363767368581425e-002 7.5872928919121591e-002
      1.7572313855677823e-002 9.8764182371360344e-003
      2.3204231645521903e-001 3.1342178740773503e-002
      -1.6596968575424934e-001 -7.4288774334493463e-002
      -6.9862234689450617e-002 4.2537928030228689e-001
      -9.1758584678395289e-002 1.2322683364307568e-002
      -2.8040057514448710e-002 1.1086412815518633e-001
      -3.6708937978203054e-001 -2.6151025751845230e-001
      4.7366795258064764e-001 -9.4743045827356404e-002
      -8.9366903195430253e-002 7.9408104481613812e-002
      -7.9679899895400841e-001 7.7227938104258473e-002
      8.9128196646931737e-002 4.5318081544518685e-001
      2.3175677532867525e+000 -1.6944139729131336e-002
      1.7536387616566357e-001 3.8007757638489958e-001
      4.3380839760226120e-001 -7.6977932247287706e-001
      -1.5602420137566955e-002 5.0719040220239167e-002
      3.2377317045584164e-002 2.1897595774594167e-001
      3.0555325644171333e-001 5.2868430018555276e-002
      6.0164052660978823e-002 1.8444442922598889e-001
      8.0184381701983748e-002 -1.1282971084856430e-001
      7.8649781700151231e-002 7.0707176995379789e-002
      -2.6077656650941871e-002 2.3507527440072354e-001
      -3.0135185364383021e-001 -1.4567488084759733e-001
      -9.2248933636099581e-002 1.9453947282194053e-001
      -6.8291928990608125e-002 -9.6546704865558705e-002
      4.8896729510686510e-001 3.1894501552291687e-001
      -2.2512231111114844e-002 8.0502541238639647e-002
      -9.8105966063131211e-002 -2.2662781682482444e-001
      1.1494161703928225e-001 5.8947859211051355e-002
      -8.4108698388385666e-002 -2.8419821581776317e-001
      1.7198466499977705e-001 2.1765323143284324e-001
      4.5099418587853074e-001 -9.2232040191630782e-002
      -1.0200892710240428e-001 -2.3091530670270971e-001
      2.4581539114161849e-001 1.0713670251732922e-001
      -9.6908037200630306e-002 -2.9433683703336568e-002
      -1.9169985007522150e-001 4.0498275411633217e-001
      3.0083093887064583e-001 -1.6189877706656769e-001
      -1.3974020742389054e-001 -1.0378073246609136e+000
      6.9287370938181353e-002 3.4244936762367439e-001
      -1.1073255670654715e-001 6.0559954401410532e-001
      -6.2764029995334669e-001 5.5428919477876509e-002
      -2.5013763547945922e-001 -3.5142369861541267e-001
      7.1500919305367880e-002 -4.5723396842461550e-001
      -8.3666051621461790e-002 -5.8025318549468230e-001
      -1.1696489318537757e-001 3.7285695174996109e-002
      -1.6128657859853026e+000 -5.6721676457082849e-002
      -9.0499987998844666e-001 -4.2695545087829667e-001
      -3.7680483785079794e-002 -6.7182885999026654e-001
      -1.1502361681916244e-001 -1.0095302554542112e+000
      -9.3147537854732981e-002 5.1025214289732328e-002
      -4.2238879122266643e-001 8.2467390195408052e-002
      -7.5027323499344045e-001 -2.8955831528619352e-001
      -5.4974108045973726e-002 -3.0546771781534110e-001
      -4.5193014923166464e-002 -1.6699075374653993e-001
      -1.7968314591856487e-002 3.6887934587244553e-001
      -2.3564480872357532e-002 1.0037726996899377e-001
      -5.3550552349156622e-002 -1.6624932648894444e-001
      -2.7828461248768682e-002 -1.6418134864942693e-001
      3.8437017796608700e-002 1.4879876893305480e-001
      -5.7337628784126488e-002 1.3339512821210672e-001
      -1.4419487932229361e-001 2.7079246887486202e-001
      1.5420782353811751e+000 1.7725124308087606e-001
      1.1210619474819296e-001 3.1830373558800512e-001
      -7.1615396732530021e-002 1.9501160092974781e-001
      -4.8623359603928162e-002 -8.5608844914181748e-003
      -9.2797701113568207e-002 -8.6444450364313363e-002
      6.9494613746880970e-002 3.8455850047681339e-001
      3.4071869630247853e-001 5.4931576134360040e-002
      9.3742536652270586e-002 3.1840515492612254e-001
      2.0716378818430463e-002 -2.6023925543129695e-001
      2.3929745638428310e-001 -4.9151069515951350e-002
      -3.0043887501771879e-002 1.7337289055569752e-001
      7.5241106958911363e-001 4.1507446262317815e-001
      2.9831700669114314e-001 3.2858500746165920e-001
      4.8388545418708157e-002 -2.8556816459460199e-001
      3.7971877699420800e-002 7.9060687604382784e-002
      4.5967015361244909e-002 8.7499677749535695e-002
      1.6397944751101434e-001 2.5104100435887272e-001
      -1.0880809932775519e-001 -3.4128197514464088e-002
      -9.7452688443008667e-002 -1.0280358732523001e-001
      -1.0397683138514570e-001 -1.2229629207305592e+000
      -4.1916444773270883e-001 1.1643389292367934e-001
      7.9618525131779072e-001 -4.1282848506045494e-001
      6.2917704366835109e-002 -3.8592998292637848e-002
      -4.5601507502893718e-001 6.5584515708740565e-001
      -1.1889763600798051e-001 3.5362556650903626e-002
      2.5952916750122201e-001 1.9112997978259544e-001
      1.0363519825845797e+000 5.6637224282854504e-002
      1.5591035041973900e-001 -5.4435013383758085e-002
      5.8373905202919851e-002 -3.5017951187602897e-001
      -2.1426190146516595e-002 1.7916528793568551e-001
      -1.9813677696059079e-001 7.2628245341075939e-002
      1.3965962754999428e-001 -3.3832106779792932e-002
      3.4415402173663878e-001 7.9057498715934954e-003
      -5.3374772892152755e-002 6.2010670755479414e-003
      2.9615844581551420e-004 2.0965836995258325e-001
      -2.6504124775181642e-002 2.9032268135554887e-002
      -1.3006196415506951e-001 -1.4311574929056897e-001
      2.5548842671576405e-001 -4.4837468693170185e-001
      -1.6799824164094743e-001 -1.2822844218985707e-001
      3.4379541497727717e-001 4.8552867313966463e-001
      4.1127425729326983e-002 -4.3802606714529613e-001
      -1.2992420063793578e-001 -2.3668392565611746e-001
      8.6028355678002960e-002 6.3799854136804515e-002
      -1.0037065884206262e-001 -4.4281401463420172e-001
      4.5486162610735531e-001 3.4872828653568388e-001
      5.6918366366631667e-001 -2.2789664330623813e-001
      -1.3040906049309792e-001 -5.3413669958232901e-001
      3.4633442297614681e-001 1.8407089303852497e-001
      -1.2354029399412976e-001 -3.4506558302426876e-001
      3.6542480455973086e-001 1.3060789313291524e-001
      4.1413935829866083e-001 -2.4914088682979721e-001
      -1.6140422954582925e-002 -7.2448941100393641e-002
      8.2233913012378562e-002 1.0351008959079265e-001
      7.8324581228101958e-002 -3.7732187838349598e-002
      -1.0548343958529720e-001 -6.3441859159124050e-002
      8.6712441751282551e-002 -1.5670345655855206e-001
      -1.1894346112144875e-002 2.2962552149935594e-001
      9.1994673020510384e-002 -2.4670272569458790e-001
      7.8024406389437376e-002 -4.6190415199201820e-002
      -1.9082090290314335e-001 -1.8479726764929372e-001
      -1.7938521027649057e+000 -4.7930990902888049e-001
      -7.5358301968998315e-002 -3.5874016685451715e-001
      -1.4191011161801012e-001 -2.0039941306642903e-001
      1.2508915509903104e-001 -1.0508619165519571e-001
      -1.1033169329624441e-001 -3.0509007010324002e-001
      -1.8095061504699739e+000 9.1100572086870377e-002
      2.8345846934722391e-001 -2.0806012916386427e-001
      -1.7917132441561212e-001 3.2330545897143036e-002
      -2.6292318390369052e-001 1.3128043255953928e-001
      -8.4848954379201508e-002 1.1239920833902554e-001
      -1.3908826994352991e-002 5.8208619554666352e-001
      -6.2031201760892460e-003 -1.9517908272464093e-001
      4.3036498322366903e-002 1.4429023295327689e-001
      -5.8191346104343150e-002 -5.5102656026790736e-003
      9.0197450163305340e-002 2.8484859902891624e-001
      9.3206072861389455e-001 1.6312762283653789e-001
      -6.4551311990979465e-002 1.3033429561683813e-001
      4.1746914106081945e-002 1.9141624687111722e-001
      -5.1031117032363543e-002 -1.5932516726401449e-001
      2.2964164607533344e-001 1.0289743590989711e-001
      1.0646692623330403e-001 2.9274021227038799e-001
      3.3253157797050670e-001 -8.3404962730970492e-002
      1.0326235892562922e-001 1.5417974041119961e-001
      -5.0129250334799591e-001 8.8422293671479732e-002
      1.1922301306334561e-001 -9.6508741295995876e-002
      -3.4338985444566268e-002 1.5612819361087679e-001
      2.0902514020833824e+000 1.0190518228624160e-001
      1.2935073265323532e-001 3.1579640755486182e-001
      1.2572592770500121e-001 -2.1074036893067383e-001
      2.8303255945187777e-001 5.1762517247069650e-002
      -6.1081650847426942e-003 8.6415149691810633e-002
      1.8362562311786831e-001 6.7276694490985500e-002
      2.9592250867767450e-001 3.1843081974495353e-003
      -1.3791906487787128e-001 4.4174553206536277e-001
      2.4426632084723862e-001 -1.4617556479061500e-001
      1.5050500480562459e-001 -1.2905339223006579e-001
      5.3628652622311290e-001 -6.9129850269311854e-001
      -3.5993291724319504e-001 -2.2126918586734913e-002
      -1.7819013152726573e-001 1.5280982449387126e-001
      -6.4221505228198428e-001 2.7717836240151228e-001
      1.8486150721692807e-001 1.5808592579651834e-001
      1.2149566275051116e+000 4.7792639718997526e-002
      9.6666390235571026e-002 -7.7488516301831623e-002
      -1.6414124405650141e-001 -2.2235865721750528e-001
      -5.4674858104579088e-002 7.2527379351790294e-002
      -2.2630636322938030e-001 5.9094516037495472e-002
      1.7312741340675067e-001 -1.8849602903627569e-002
      2.2110142896029805e-001 7.9532573863730763e-002
      -4.0440041744571192e-002 -2.6207959173021853e-002
      -4.3498865187159563e-002 2.3774286648000530e-002
      -7.8230369678649408e-002 1.7227372723378081e-002
      -6.4387736512237531e-002 -9.2858616063454003e-001
      2.8775641358272724e-001 -2.5850799679443648e-001
      -9.1139103612896968e-002 -1.2297660512494188e-001
      3.2067615368936592e-001 9.5103018068870004e-002
      -2.4830632102238012e-002 -5.3688455713839756e-001
      -1.3236399099756116e-001 -2.3814715042161244e-001
      5.0202695685062707e-002 8.9249245877720054e-002
      -1.1730207056723585e-001 -3.2045321586424175e-001
      4.3028216193037683e-001 3.8824267150367325e-001
      2.2048788602132949e-001 -1.4414022788728206e-001
      8.5436071920477558e-002 -6.1039084979318786e-002
      8.3939797823416629e-001 3.8550308756826329e-001
      -3.7328635634648571e-001 -6.8382413646029527e-001
      1.6702009824952843e-001 2.1212228173548375e-001
      6.7626741535625146e-001 -1.5572984839030737e-001
      1.9803115072096849e-002 -6.9503417829662462e-002
      8.6486162801139820e-003 2.5935824490168274e-001
      5.0657106151802578e-001 -1.3555547680165664e-001
      2.7669268249925660e-001 -1.7847182919892465e-001
      -2.6244397343783027e-001 -1.5841744638150182e-001
      1.7294767636544035e-002 7.2367079045798973e-003
      -4.6914015551154174e-002 -2.4798127436600895e-001
      2.3126824894118350e-001 -8.1880780711884621e-002
      5.3476617261134759e-003 -3.1239608873045210e-001
      -1.0397283966604149e+000 -1.5663530818839824e-001
      -2.1255278292471251e-002 -5.8114903369134829e-001
      -6.5832337149125952e-002 -3.4134338194798206e-002
      9.3616057205942835e-002 3.6465316570819778e-001
      -5.0844617183940663e-002 -7.0081550891799724e-002
      -1.4606609897359195e+000 1.2848045963771390e-001
      3.2585562505741211e-001 6.7526455778227010e-004
      -2.5906676904429632e-001 2.1680155050662187e-001
      -1.3323350758551133e-001 -1.4825263131106056e-001
      -5.9223845250639881e-003 -1.8418355523585622e-001
      -1.7024983883444620e-002 8.1776785457716272e-001
      -1.1424795818083769e-002 1.0346058882285789e-001
      5.9425450285483863e-002 1.4846410755445702e-001
      -4.9565564401637341e-002 -1.8881688742619568e-001
      2.4580847000791120e-001 -4.2070827664256995e-002
      8.0154876063792535e-001 -1.2538963915468554e-001
      -3.8538774833732192e-002 1.3564203169175673e-001
      2.3217823300749169e-001 8.1151945096017281e-002
      -5.4439034591896612e-002 5.5948750789894669e-002
      1.2010014865039663e-002 1.8872817315541071e-001
      5.8108554328935920e-002 7.1076649251051657e-002
      -2.6633530956781559e-002 -8.5935323636573524e-002
      -1.1671614126132354e-001 1.6638209447350213e-002
      1.0211412966094366e-001 8.3387071622099074e-002
      -4.2707537708702226e-002 -1.7731768064396844e-001
      -1.8871819029418063e-004 9.5063124581132641e-002
      1.4670315184844834e-001 6.1881950601439202e-002
      4.7423114288147175e-002 2.0857217732050573e-001
      2.0711394143861667e-001 9.8338201501470240e-002
      -1.1974770428617276e-001 -2.0799839601121174e-002
      -6.1460278763355747e-002 8.7296044007893536e-002
      3.8784976692202677e-001 1.8171432209371663e-001
      1.1997227551273469e-001 -9.8341175933422273e-002
      -1.0081091232717593e-001 3.9957076628863575e-001
      2.9305926173278934e-001 -2.7095150999190637e-001
      2.3935560430014313e-001 -8.4455550536493632e-003
      2.1212397407345271e-001 -3.5161300005612317e-001
      2.2953503191216574e-002 2.1496995538273325e-001
      -5.9682812835575916e-002 -9.1493558825521321e-002
      -1.0576730187634655e-001 5.7452170944530556e-001
      1.0934330982950473e-001 -6.2426950850718232e-001
      3.1057022196278892e+000 5.5437757395328809e-002
      1.1546542560881588e-001 -2.4479267131743337e-002
      5.7319006997621795e-003 -6.0592882569424233e-001
      -1.1456454048080413e-001 1.3445502099856232e-002
      -2.2139230957834294e-001 -6.3634481724883785e-002
      1.6765875686196910e-001 -2.5249626878557807e-002
      2.1864228371553834e-001 2.6648168933432753e-001
      -4.3665927631748612e-002 3.2910600031773471e-002
      1.3758187621645288e-001 -2.2803414760001456e-001
      -1.5117684936293702e-001 5.7154414909414059e-002
      -2.1295056416533306e-001 2.9793356905882664e-002
      4.9576595517418276e-002 -2.6436748237364704e-001
      -2.8055677210517164e-002 2.9793771048174300e-001
      3.0404088984789270e-002 1.9824959714604881e-001
      -2.9177105363419754e-002 4.5860596559869335e-002
      2.4387254446093135e-002 -2.1987688286850932e-001
      4.9876929263904621e-002 2.5778157529736001e-001
      -8.7241486798452700e-002 -4.4275659191883238e-001
      7.2561856899219873e-002 7.5531733615340449e-002
      8.7921652851940080e-001 -1.0844782375585733e-001
      -1.4211335971075101e-001 -5.7999696817592553e-002
      5.0993639891564058e-001 4.6690099227366659e-002
      -1.5431154930985538e-001 -1.2647817682011326e+000
      4.3226040273927388e-002 4.3887875495681006e-001
      6.0349707357553461e-001 -9.6452973382994273e-002
      -1.0122330631104519e-001 -8.5260923570149028e-002
      -6.9318273820867790e-002 2.6216797939719949e-001
      3.6720745493680335e-001 -1.3840108770450063e-001
      1.5857157769185422e-003 -6.7223591539099820e-002
      -2.5920856486149130e-001 1.2883688771523244e-001
      -4.2851251709563290e-002 -7.5108029062324755e-001
      -6.4192690402606778e-002 -3.7725919471890981e-002
      6.0734425865642483e-002 -7.4277866623967695e-002
      -6.2627755254738252e-002 -1.8138624269855541e-001
      -1.1175263448615227e+000 2.0011815001787928e-001
      -3.7735927283118184e-002 -3.3776968727177992e-001
      -8.7927740253895464e-002 -1.3679522591627530e-001
      1.0438136431743351e-001 3.0163555112101242e-001
      3.6955932302435643e-002 -2.3663944991577374e-001
      -1.1894654215460800e+000 8.3425654626774429e-003
      1.4237170613019279e-001 5.2851626626929216e-002
      -2.7825478555661689e-003 2.1225492956835831e-001
      -1.9106645143492855e-002 -1.2840203699941960e-002
      3.9258361306334547e-002 9.4967229486129179e-002
      -1.4310983869281690e-001 2.0534293497383999e-001
      -8.0007132070220172e-003 3.7869701510413384e-001
      5.8389938134607411e-002 2.2461497993372181e-001
      -3.8858915994278487e-002 -1.9989793060021477e-001
      1.1387297669944792e-001 -2.0216501097501896e-001
      7.3292987165286105e-001 -9.4946246136549686e-002
      -2.2729845148732601e-002 1.3175223088775120e-001
      1.9507231468283420e-001 8.2154650925854694e-002
      -7.1607139751278637e-002 8.3715266354582332e-002
      1.4774124804977331e-002 1.9578485990400316e-001
      3.8891271220206164e-002 2.8986221544867297e-001
      5.0526680216080935e-002 -9.9204945963435626e-002
      -1.1555911835104052e-001 4.3660258594754267e-002
      9.4607008116009250e-002 -1.3579164388537852e-002
      1.6165362957814219e-001 1.1668945069347532e-001
      7.0598506673011582e-003 5.7929788816774373e-002
      1.1290351822437245e-001 -2.0192034343333526e-001
      2.9386240359721422e-001 -4.1365697151899430e-002
      -5.0816079539637724e-002 8.1848328591445446e-002
      4.9730062698779220e-002 -9.1842010340338148e-002
      -1.4677109271746029e-002 3.7361573807924230e-002
      2.4392387511165572e-001 -1.0382735700985139e-001
      9.2643305172190726e-001 -2.2378439294919847e-001
      -9.4420769635245247e-002 6.1683411206295480e-001
      -5.3529973699236066e-002 5.9143859282038558e-001
      2.2888849362519247e-002 -6.0333960337915404e-001
      1.4176821376589013e-001 -4.5206868749396079e-001
      -5.6368198790758117e-001 -1.9760507908064436e-002
      -4.4596767038866625e-001 9.2266620250107867e-001
      -3.9968182712799206e-002 1.7875164189119883e-001
      1.0214728449774646e-002 4.6436498199927712e-001
      2.9843450337634612e+000 1.3325175245558759e-002
      -8.8434651597410457e-002 1.0567016305446990e-001
      -9.8180995384627174e-003 -5.8372640860319835e-001
      1.5870602375911971e-001 4.9411877973621988e-002
      -1.0993956232860960e-001 4.1222405532267009e-001
      1.8025331413523810e-001 1.0547424941176789e-001
      1.2763027541956889e-001 3.0515711640010201e-001
      -5.5996616432665425e-001 -1.9622581129867978e-002
      4.5094608944468317e-002 -4.8351566196517926e-002
      9.5149382746164579e-002 1.6084265746671489e-001
      -2.0111507380288132e-001 6.8650299911201335e-002
      7.0567056953287882e-002 5.7107102885329097e-001
      -1.5379167318984555e-001 2.8425851882566811e-001
      2.6081821603322702e-002 3.6610258696217751e-001
      -3.1349757619404776e-002 8.3586963481819043e-001
      -2.1087804593014600e-001 1.9061661346418796e-001
      7.4335275934734449e-002 1.8672006490939566e-001
      -6.4560265104989231e-002 -1.0789467394984253e+000
      6.1721409518042600e-002 6.8825137621891477e-002
      3.8771303840931570e-001 -1.0360357051114323e-001
      -4.1200202515521950e-002 3.0258762179778929e-002
      8.1616811183954460e-002 3.6070693153200306e-001
      4.8565234384730593e-002 -6.5287926796024476e-001
      -2.6509219337429002e-001 -7.7345853391075359e-003
      5.2335830634447877e-001 -9.0012980842753693e-002
      6.1355369603153999e-002 -2.8368014162519872e-001
      -1.3106502860739844e-001 -8.7441844550330439e-002
      -2.4682522694632683e-001 -1.1112239673889579e-001
      1.8291273159528756e-001 -2.1230380572236501e-001
      -5.1911724954671598e-002 3.7423639514475288e-001
      -4.5139059596156078e-002 -2.8165545623123817e-001
      -8.9351689354981265e-002 7.0053783043386199e-003
      1.1467919242629988e-001 4.0864466195089089e-001
      2.0082596422847204e-001 -2.6424362370847576e-001
      -9.8392535883414689e-001 4.3426333648270848e-001
      -6.6058701164344383e-002 -2.2147362364361697e-002
      -3.0820969151412758e-001 -2.8312399575007341e-001
      4.9742671406665509e-002 1.6679325946656862e-001
      2.1150543496832253e-001 -1.9412338169192425e-001
      -1.9300739881500031e-001 1.1801307053738117e-001
      -9.3075743264468130e-003 3.9366110230583984e-001
      6.1601094976034235e-002 2.1279541921655078e-002
      1.8962683113114367e-001 9.1473536894812343e-002
      1.5440084502822249e-002 -9.5231847686487167e-002
      2.3504030428682252e-001 -8.1548476457611901e-002
      -1.3833213742966911e-002 1.1240749315689263e-001
      5.6612634270053766e-002 1.3412389351272444e-001
      -4.6484318117626378e-002 8.9229011219174495e-002
      7.3386631684433282e-002 2.4281200912074055e-001
      1.1964211389724857e+000 -6.9598776276232274e-002
      -3.4911053947281209e-002 1.0211956087161042e-001
      3.5673037911530182e-002 6.8098469881383655e-002
      -5.6212521148174155e-002 -9.8911520874602667e-003
      2.2900609023297180e-001 2.1687361985073447e-001
      4.3455325438928549e-002 3.4106007643926572e-001
      2.7009103855393748e-002 -9.7068376483577468e-002
      -4.9397443312649329e-002 8.7854393828530955e-002
      -3.7950711757117128e-001 -1.8507705483177486e-001
      2.2072919609124708e-001 2.1085982687498131e-001
      2.7855597799042502e-002 -4.1704376413221478e-001
      3.9901826954589514e-001 -2.0313969666356643e-001
      1.3340866853159863e-001 -4.6786598963043657e-002
      -1.2167042323952526e-001 8.9110955288348420e-002
      5.1226677368312795e-002 2.0297190020563141e-001
      -3.6436883506616780e-002 5.4391696289665802e-002
      3.0404028092830646e-002 7.7847781885280604e-002
      2.0433988773082726e-001 -1.6577270158504565e-001
      -8.3765594171501728e-002 1.4280978527862026e-001
      2.9807656247902292e-001 -1.5328629346645539e-001
      6.3863140168245569e-002 3.0521310259783243e-002
      1.2195060186144913e-001 8.5416773635024479e-002
      1.0219712235895481e-001 3.7418187054663377e-001
      -9.2858787997738376e-002 -4.0517589766144135e-001
      1.9226218180681995e-001 -8.8654002698118428e-001
      -1.5823749817052057e-001 1.0873572120819812e+000
      1.0685410797612414e+000 2.0204730322095129e-002
      -5.6942160161415789e-002 2.2403166750122515e-002
      -2.4638064963164377e-001 -4.1758418768770295e-001
      -9.6476008285353576e-002 -4.2931573648455390e-001
      -2.3243034215025310e-001 5.0116674614506407e-001
      8.2097704086246626e-001 -1.4619924344139806e-001
      -4.4333643339746237e-002 3.3270986711808767e-002
      -1.8122985781247600e-001 -1.9340805431079210e-002
      -1.1003075066047162e-001 -5.4922139263233909e-002
      -2.7160429481929288e-001 4.2765334940144184e-001
      8.2290762658639327e-002 -1.0982644420942712e-001
      3.0699607614266422e-001 7.8016399998181080e-002
      4.1135972729513620e-001 -8.9927793634902026e-002
      -1.3800497328736552e-001 -8.3482829483228119e-002
      -5.6828258321575523e-002 3.1568909859915112e-001
      -1.9986960979431931e-001 1.9217131729724318e-001
      7.5319459388697330e-002 -2.9988968996784560e-001
      -1.0859363796006476e-001 -3.8337336110367987e-001
      -8.1903872849532294e-002 7.0282362283431793e-002
      3.7584245124207372e-001 -2.1864052735477116e-001
      -3.0771024410381119e-002 -3.5895444500497288e-002
      5.9216013045494689e-002 2.0166369481285484e-001
      -3.3894154077803190e-001 -1.3047897758528665e-001
      -4.3798057317389133e-001 2.0412630362983616e-001
      6.4023749842527689e-001 -1.3407725558125291e-001
      7.2524060545160161e-003 -5.7262288860967646e-002
      -4.2312601395421656e-001 -4.5722032027534873e-002
      -8.6092153430223117e-001 -1.9324734027646726e-001
      -4.4804969018408491e-001 2.5251930261600114e-001
      5.3374698730924208e-001 -1.3680899060439725e-001
      7.9442989829311722e-002 -1.6146333994311361e-002
      3.7816119697427997e-001 -8.7902810049126992e-002
      -5.4316838810753676e-001 -2.5877518245473186e-001
      -3.3808646326617731e-001 2.4738544935466858e-001
      2.8199552552343832e-001 -1.3523401513184705e-001
      -2.6300935944589621e-001 5.0205305899799135e-001
      4.6093805572203495e-002 2.3318635817137168e-001
      7.4037992198026259e-002 -1.6150597486235901e-002
      2.3580423217260307e-002 -1.7546857671627974e-001
      4.9109936798918979e-001 -9.8705909821857424e-002
      -2.1985673309778523e-002 8.0214321604736871e-001
      5.0370794766683921e-002 2.0869239056421057e-001
      1.2762417353530103e-001 -8.1949193580631685e-001
      8.3065936711263791e-002 -8.7811353549578211e-002
      9.7907416944505843e-001 -8.0755046036366504e-002
      5.3016054679873088e-002 1.0654302444126668e-001
      5.2477730392380920e-002 -5.0180432216446885e-003
      -6.0435262803660184e-002 -2.2276316132815019e-001
      5.6092401830594163e-002 2.1699211403529417e-001
      1.0659384948290786e-001 -1.5861683966028925e-001
      -1.3809205832303567e-001 4.1379300470188743e-002
      -7.9406873552681029e-002 1.3373739999499101e-001
      -1.6782732784062901e-001 -8.7054741519760392e-002
      1.2109113205076084e-001 1.7195015896972474e-001
      5.5868374579894978e-002 1.7920143496334381e-001
      7.4965595567670862e-001 5.4406950340767313e-002
      -9.6604422466507051e-002 2.3890515944422475e-001
      -3.2195290072573723e-001 -2.6171540334364929e-001
      5.1683044595919525e-001 5.9301553819561925e-001
      4.7618084437969679e-002 -3.3474089373290988e-001
      1.0782850684386569e-001 2.6557161220599368e-002
      1.2767397890681284e-001 -2.5562232380680572e-001
      3.2220360012143262e-001 8.8396655497554225e-002
      1.6566883384339740e-001 -1.0374480691869375e-001
      -1.4652516292912809e-002 6.1741404413430290e-002
      3.9245338830962123e-002 -1.8770040979271561e-002
      2.9632806298481817e-001 -1.7280208244511835e-001
      -5.9450822455876018e-002 1.5115849057733044e-001
      -1.0094442159101023e-001 -8.9248859758419480e-002
      -8.1526039156109442e-001 6.8349118181407320e-002
      3.9567725658930145e-002 -1.1797109311023156e-001
      -1.7046871180875431e-001 -7.4093942612044314e-002
      -1.9106927738422169e-001 2.8231992645065762e-002
      -3.7906713277298432e-001 1.0009755238814588e-001
      9.3418319275974451e-003 -1.2949215203512360e-002
      5.5444741179154722e-001 -2.0868594883983330e-001
      -1.6628451563903821e+000 -4.8636273659620727e-002
      4.1364785738145241e-002 -5.7087319618048016e-001
      -2.8317318217340185e-002 9.7933341347236622e-002
      -4.7312406682693958e-001 -6.8139132766918270e-002
      1.2206111958661321e+000 -8.2254607330519192e-001
      1.9407988200007574e-002 -5.3902031607432205e-003
      9.7134150610179992e-002 -3.0262582642432378e+000
      -9.1092860463474673e-002 -8.3322812177269279e-002
      -1.7241446480040086e+000 4.2639408828037201e-001
      3.6279121276228854e-001 1.1135962859793624e-001
      3.4424996938042940e-001 -4.5737829511476891e-001
      -3.3067282478083915e-001 -4.4075917115591934e-001
      -4.0560659217185102e-001 -1.2038785294923779e-001
      -3.4662357017473061e-001 -3.8268662174838944e-002
      -2.0830806800529120e-001 2.0692270677750213e-001
      5.5440174662822750e-002 1.8282520656912056e-002
      -3.0876722748969404e-001 -2.8622544573326669e-001
      -7.6936865324847481e-003 -1.1446843588291239e-001
      -2.1942407680596804e-001 4.4555682757401883e-002
      2.3427447262777554e-002 1.0382659546612232e-001
      -3.5070900173384789e-001 -1.4350768657366425e-003
      -9.2486654985924566e-001 -1.2272248477215154e-001
      2.3098209444552868e-002 -3.6058892027907302e-001
      1.3061705776182869e-001 7.0652823728308534e-001
      6.0172593900070612e-002 -6.2075132380340986e-002
      -2.1420441808967394e-001 2.0556225286042440e-001
      -5.8108093820658546e-001 -1.3104565604678375e-001
      -5.0356306135610485e-002 5.7356353970328941e-002
      2.0141962747094924e-001 -2.2456508141629264e-002
      2.9788412640467173e-002 -9.0368163271060897e-002
      5.9986493695037502e-002 1.9237716337782543e-001
      -1.9476338583867397e-001 -2.5284668102778868e-001
      5.3464716122714459e-002 7.7278664258051633e-002
      4.1575018254781043e-001 -3.3059208035934162e-001
      -2.0722169583579711e-002 2.2401494424052534e-001
      5.2238698440219153e-002 1.6712315214059989e-001
      -7.1358975213827197e-002 -2.8980304631792775e-001
      -7.1545054424153876e-002 7.3980353123927270e-002
      5.2613668775808797e-001 -1.9470145168527211e-001
      2.1511718874341897e-002 4.2428234291904265e-001
      4.3463256868942340e-002 1.5378145370827084e-001
      -6.6627320430387910e-002 -1.2328748365522825e-001
      1.2167030051951067e-002 4.9666802888048894e-002
      1.0211627370796915e-003 1.0926775501637731e-002
      3.5346445521990524e-002 1.8418318598192671e-001
      1.0707638174135153e-001 1.2828173583215424e-001
      -1.5514151898977999e-001 -2.3494113814315340e-001
      -3.7443653281972522e-002 -1.0828669040961118e-001
      -5.1394577844048051e-004 5.4004863403575232e-001
      -2.9579958082391450e-001 9.9473356732378657e-002
      -3.2934707921383963e-002 -6.4894576747850127e-004
      -3.5628686084310113e-001 -9.6993495850044020e-002
      -1.5437519873543835e-002 -1.4535438212635390e-001
      -2.3263366354725215e-001 -8.3420036439651360e-002
      3.8426540318378238e-001 2.4566011018379133e-001
      1.2850278019976558e-001 -1.4018172005840204e-001
      2.3342537507559333e-001 8.2029927294863483e-002
      6.5929170878993873e-002 1.2453633145462495e-003
      5.6389759924407340e-002 6.2673261762664884e-002
      1.9289286913235065e-001 9.1676623549993272e-002
      3.0076860910597075e-001 2.2347536158892289e-001
      -8.6771483043529288e-002 7.6681858032265571e-002
      3.1735667069086654e-001 -8.3653686568973762e-002
      -1.0441710538116300e-001 6.4665362998503534e-002
      5.0040747036507016e-001 1.4634736147878499e-001
      1.1639367784110027e-001 3.2820435852307767e-001
      2.2835185298219549e-001 -4.9710079242349922e-002
      3.3287527004786577e-001 4.0521216114279113e-002
      2.3132717604793601e-002 6.3171269792905604e-002
      -3.7287910376666096e+000 -1.8326425286260117e-001
      4.9086925750251212e-002 1.9595344262532180e-001
      -1.1388470101243475e-001 2.9596327260159994e+000
      9.6592167999521181e-002 8.2756038712232471e-002
      3.0243492408115089e+000 2.5478697529386657e-001</_>
    <_>
      -4.7763432577114573e-001 2.1818642555956327e-001
      7.7099916119310530e-001 6.4121498327156201e-001
      -2.9979851656494438e-001 7.3832076286732151e-001
      -1.7337573286118019e-001 -2.0693524821895307e-001
      6.0037995445583392e-001 5.7073839527794523e-001
      9.0425393136610999e-001 6.7703670950738171e-001
      6.0350450681080733e-002 7.9410151904035919e-001
      -6.0997527052827538e-001 8.9794229045299312e-001
      -5.2081384715255985e-001 -7.2029209895956137e-001
      -1.1377933139282104e+000 -5.6417054405807887e-001
      -4.2443415383457178e-001 9.3770501231807435e-001
      6.5178481125507837e-001 1.0969686489382122e+000
      3.9192436393179531e-001 -8.1123572854546155e-001
      -2.3626615573982197e+000 -2.0480316217298009e-001
      1.8598904265366611e+000 -1.0432435819983801e+000
      4.6846836053734792e-001 -2.0473969733240631e+000
      2.6244128144820544e-001 6.7331316458870094e-001
      7.5422975955120108e-001 1.4183060857990562e-001
      1.8236838979632916e-001 9.6682765859669195e-001
      -6.9300121851452667e-001 -1.5082299388684139e+000
      6.6825739117096761e-001 7.1020349626759427e-001
      -1.2298372873794439e+000 -7.0078141550058104e-001
      7.9750905251441517e-001 1.3076960306055472e+000
      -8.8926815544232329e-001 1.3385350235212439e+000
      -5.9943591068938484e-001 -3.6398946583317771e-001
      -2.2299842832850101e+000 -2.8888151848438970e-001
      -1.3848643068299857e+000 8.8734693670731346e-001
      9.3139403356067518e-001 7.7562345977558922e-001
      -3.5411888344814735e-001 -2.5748177465596156e-001
      -2.2543255186025082e-001 1.2907216018523440e+000
      1.4049219501139307e+000 1.4105100987746959e+000
      -3.7046131813000838e-001 -4.0332581366724785e-001
      9.3243827358485643e-001 -7.4629813316549765e-001
      1.3285349903798738e+000 -8.1944034670982535e-001
      -1.0128353957453029e+000 -7.9317058390989925e-001
      3.8269346063443510e-001 -2.3706983990732361e-001
      -8.9249018778733435e-001 -1.6040140203906068e+000
      -3.4675133633430423e-002 1.3168430607536115e+000
      5.1196428912051128e-001 7.0895332241860676e-002
      6.9065935883914276e-001 -8.3424221398702736e-001
      6.9624405502022768e-001 -9.6386882220561776e-001
      -1.0648898719481878e+000 1.1602267832068085e+000
      -7.1640627400851076e-001 1.7602526785527509e-001
      -3.1278546834934379e-001 -7.5753132607381257e-001
      8.2940726992644143e-001 -7.7287138213328688e-001
      4.7488640064070475e-001 -5.8607370467785702e-001
      -5.5382571087682131e-001 5.1011446037067376e-001
      1.3789763328739313e+000 -8.4079057783771205e-001
      -1.6160471664767933e+000 -1.2539452381378080e+000
      -5.3536751112995962e-001 8.8264602445718243e-001
      -2.9325074628893351e+000 -3.3761916414376798e+000
      -2.6155463566098685e+000 -4.4993438695559052e+000
      -4.6651546517569402e+000 -3.0281429073930708e+000
      -3.9842772760224325e+000 -3.7308623667860710e+000
      -3.4258083350416424e+000 -4.9747587669879323e+000</_></weights></my_nn>
</opencv_storage>
