<?xml version="1.0"?>
<opencv_storage>
<my_svm type_id="opencv-ml-svm">
  <svm_type>C_SVC</svm_type>
  <kernel><type>RBF</type>
    <gamma>8.9999999999999997e-002</gamma></kernel>
  <C>10.</C>
  <term_criteria><epsilon>2.2204460492503131e-016</epsilon>
    <iterations>100</iterations></term_criteria>
  <var_all>440</var_all>
  <var_count>440</var_count>
  <class_count>15</class_count>
  <class_labels type_id="opencv-matrix">
    <rows>1</rows>
    <cols>15</cols>
    <dt>i</dt>
    <data>
      2 3 4 5 6 7 8 9 10 11 12 13 14 15 16</data></class_labels>
  <sv_total>39</sv_total>
  <support_vectors>
    <_>
      3.49999994e-001 3.49999994e-001 2.00000003e-001 8.50000024e-001
      8.50000024e-001 1. 1. 5.50000012e-001 5.00000000e-001
      7.50000000e-001 4.50000018e-001 9.49999988e-001 1. 1.
      8.00000012e-001 8.00000012e-001 0. 0. 0. 0. 7.69230783e-001
      9.23076987e-001 1. 8.46153855e-001 9.23076987e-001 7.69230783e-001
      9.23076987e-001 7.69230783e-001 9.23076987e-001 9.23076987e-001
      9.23076987e-001 7.69230783e-001 9.23076987e-001 1. 8.46153855e-001
      9.23076987e-001 6.92307711e-001 9.23076987e-001 1. 7.69230783e-001
      0. 0. 0. 1. 0. 40. 255. 255. 255. 253. 255. 255. 177. 12. 0. 0. 0.
      0. 0. 0. 0. 1. 0. 0. 77. 248. 255. 253. 255. 255. 255. 252. 254.
      166. 0. 1. 0. 0. 0. 0. 2. 0. 0. 49. 242. 255. 254. 255. 255. 253.
      255. 255. 253. 255. 207. 0. 0. 0. 0. 0. 0. 0. 0. 55. 255. 255.
      238. 74. 0. 4. 0. 197. 255. 249. 240. 33. 0. 0. 0. 0. 2. 0. 3. 60.
      253. 251. 184. 0. 0. 1. 0. 7. 254. 255. 254. 147. 0. 0. 0. 0. 0.
      3. 0. 56. 255. 255. 189. 0. 1. 0. 0. 0. 108. 255. 254. 149. 0. 0.
      0. 0. 1. 0. 5. 57. 254. 255. 182. 0. 0. 1. 0. 5. 255. 254. 255.
      144. 0. 0. 0. 0. 0. 1. 0. 53. 255. 253. 187. 0. 0. 0. 0. 9. 254.
      255. 253. 148. 0. 0. 0. 0. 1. 0. 1. 56. 254. 255. 185. 0. 0. 1. 0.
      7. 255. 254. 253. 147. 0. 0. 0. 0. 0. 0. 3. 59. 255. 255. 184. 0.
      0. 1. 1. 4. 251. 255. 255. 148. 0. 0. 0. 0. 2. 0. 0. 56. 254. 255.
      187. 2. 2. 0. 0. 6. 255. 255. 254. 142. 0. 0. 0. 0. 0. 0. 0. 58.
      255. 254. 184. 0. 0. 0. 3. 7. 254. 255. 255. 149. 0. 0. 0. 0. 0.
      0. 0. 59. 255. 253. 186. 2. 0. 2. 2. 4. 254. 255. 253. 147. 0. 0.
      0. 0. 2. 1. 0. 57. 255. 253. 185. 0. 1. 1. 0. 6. 255. 255. 255.
      149. 0. 0. 0. 0. 0. 0. 0. 59. 255. 253. 187. 0. 1. 1. 0. 9. 253.
      252. 255. 143. 0. 0. 0. 0. 0. 2. 0. 57. 253. 255. 212. 41. 0. 2.
      0. 7. 253. 255. 244. 85. 0. 0. 0. 0. 0. 0. 0. 56. 255. 255. 254.
      96. 0. 0. 0. 201. 253. 255. 236. 0. 0. 0. 0. 0. 0. 1. 0. 0. 129.
      249. 255. 255. 255. 255. 255. 253. 255. 254. 0. 1. 0. 0. 0. 0. 0.
      1. 0. 1. 0. 123. 255. 252. 255. 251. 255. 255. 254. 166. 1. 1. 0.
      0. 0. 0. 2. 0. 0. 0. 0. 1. 43. 179. 255. 255. 255. 248. 46. 13. 0.
      0. 0. 0. 0. 0.</_>
    <_>
      4.00000006e-001 3.00000012e-001 2.50000000e-001 5.50000012e-001
      4.00000006e-001 6.99999988e-001 9.49999988e-001 1. 5.00000000e-001
      5.00000000e-001 4.00000006e-001 3.49999994e-001 4.50000018e-001
      9.49999988e-001 9.00000036e-001 8.50000024e-001 0. 0. 0. 0.
      8.46153855e-001 7.69230783e-001 7.69230783e-001 1. 9.23076987e-001
      6.92307711e-001 6.15384638e-001 6.92307711e-001 6.15384638e-001
      4.61538494e-001 6.15384638e-001 6.92307711e-001 5.38461566e-001
      6.92307711e-001 5.38461566e-001 6.92307711e-001 8.46153855e-001
      8.46153855e-001 1. 6.92307711e-001 0. 0. 0. 1. 65. 255. 255. 254.
      254. 255. 189. 1. 0. 2. 0. 1. 0. 0. 0. 0. 0. 3. 0. 1. 18. 204.
      255. 255. 255. 253. 192. 0. 0. 0. 5. 0. 0. 0. 0. 0. 0. 3. 2. 0. 0.
      0. 205. 255. 255. 254. 255. 255. 207. 64. 0. 0. 0. 0. 0. 0. 0. 0.
      0. 2. 1. 3. 65. 251. 255. 253. 253. 254. 251. 255. 142. 2. 0. 0.
      0. 0. 0. 5. 0. 0. 3. 0. 115. 255. 238. 193. 192. 193. 255. 254.
      255. 61. 0. 0. 0. 0. 0. 0. 0. 1. 0. 5. 254. 254. 191. 0. 0. 0. 63.
      210. 253. 209. 0. 0. 0. 0. 1. 0. 0. 2. 0. 0. 255. 255. 0. 0. 0. 0.
      1. 188. 255. 255. 0. 0. 0. 0. 1. 0. 0. 2. 0. 2. 255. 254. 0. 2. 0.
      0. 0. 193. 255. 253. 0. 0. 0. 0. 0. 0. 0. 1. 1. 1. 255. 254. 0. 0.
      0. 0. 0. 191. 255. 255. 0. 0. 0. 0. 5. 0. 0. 0. 0. 0. 255. 255. 0.
      0. 0. 0. 0. 191. 255. 255. 0. 0. 0. 0. 0. 0. 2. 3. 0. 191. 255.
      253. 0. 0. 0. 0. 0. 191. 255. 255. 0. 0. 0. 0. 3. 1. 0. 0. 4. 194.
      251. 255. 0. 0. 0. 0. 0. 191. 255. 255. 0. 0. 0. 0. 0. 0. 3. 0. 0.
      190. 255. 255. 0. 0. 0. 0. 0. 191. 255. 255. 0. 0. 0. 0. 2. 0. 2.
      2. 0. 192. 254. 255. 0. 0. 0. 0. 0. 191. 255. 255. 0. 0. 0. 0. 0.
      2. 0. 0. 0. 192. 255. 253. 0. 0. 0. 0. 0. 191. 255. 255. 0. 0. 0.
      0. 1. 0. 2. 0. 2. 47. 252. 255. 0. 0. 0. 0. 0. 191. 255. 255. 0.
      0. 0. 0. 0. 2. 0. 2. 1. 0. 255. 255. 206. 16. 0. 0. 17. 207. 253.
      65. 0. 0. 0. 0. 2. 0. 0. 0. 0. 0. 255. 255. 255. 207. 194. 190.
      205. 255. 255. 64. 0. 0. 0. 0. 1. 0. 0. 2. 0. 1. 46. 239. 255.
      253. 252. 255. 255. 255. 192. 48. 0. 0. 0. 0. 0. 0. 0. 0. 0. 2. 0.
      49. 253. 255. 255. 252. 255. 106. 1. 0. 0. 0. 0. 0.</_>
    <_>
      4.50000018e-001 4.50000018e-001 3.49999994e-001 7.50000000e-001
      9.49999988e-001 1. 1. 6.99999988e-001 5.00000000e-001
      5.00000000e-001 6.99999988e-001 6.50000036e-001 1. 1.
      9.49999988e-001 9.00000036e-001 0. 0. 0. 0. 8.00000072e-001 1.
      8.66666734e-001 6.66666687e-001 6.66666687e-001 8.66666734e-001
      7.33333349e-001 7.33333349e-001 7.33333349e-001 6.66666687e-001
      7.33333349e-001 6.66666687e-001 8.66666734e-001 7.33333349e-001
      8.66666734e-001 7.33333349e-001 9.33333397e-001 8.66666734e-001
      9.33333397e-001 7.33333349e-001 0. 4. 0. 0. 2. 11. 31. 227. 252.
      255. 255. 252. 229. 32. 10. 0. 0. 0. 0. 0. 4. 0. 4. 1. 10. 155.
      255. 255. 255. 213. 220. 255. 254. 254. 156. 11. 0. 0. 0. 0. 0. 2.
      0. 0. 173. 255. 254. 117. 95. 62. 57. 95. 114. 255. 255. 29. 0. 0.
      0. 0. 0. 3. 0. 0. 252. 255. 252. 32. 0. 0. 3. 0. 34. 251. 252.
      229. 0. 0. 0. 0. 0. 1. 0. 25. 255. 255. 99. 0. 0. 0. 1. 0. 32.
      255. 255. 254. 0. 0. 0. 0. 1. 0. 0. 226. 251. 252. 95. 4. 2. 4. 0.
      1. 31. 254. 254. 255. 0. 0. 0. 0. 1. 0. 2. 223. 255. 255. 98. 0.
      0. 0. 0. 3. 31. 253. 255. 254. 0. 0. 0. 0. 0. 1. 0. 224. 253. 255.
      96. 0. 0. 1. 2. 0. 31. 255. 254. 255. 0. 0. 0. 0. 0. 0. 3. 221.
      254. 255. 95. 0. 0. 0. 1. 1. 29. 255. 254. 255. 0. 0. 0. 0. 0. 0.
      0. 228. 254. 255. 98. 1. 4. 0. 0. 0. 33. 255. 253. 253. 0. 0. 0.
      0. 1. 0. 3. 219. 254. 255. 95. 0. 0. 0. 0. 1. 33. 252. 255. 255.
      0. 0. 0. 0. 0. 0. 1. 226. 255. 255. 94. 1. 0. 0. 0. 0. 36. 255.
      249. 255. 0. 0. 0. 0. 1. 1. 0. 222. 254. 254. 94. 1. 0. 2. 2. 0.
      30. 255. 255. 255. 0. 0. 0. 0. 0. 1. 0. 226. 254. 255. 97. 0. 2.
      0. 0. 1. 33. 254. 255. 255. 0. 0. 0. 0. 1. 0. 1. 221. 254. 255.
      94. 2. 0. 0. 1. 1. 33. 254. 252. 255. 0. 0. 0. 0. 1. 0. 0. 224.
      255. 252. 238. 26. 0. 0. 2. 0. 228. 255. 254. 255. 0. 0. 0. 0. 0.
      0. 1. 195. 254. 255. 255. 254. 31. 32. 32. 229. 253. 255. 255.
      226. 0. 0. 0. 0. 0. 1. 0. 0. 171. 255. 253. 255. 255. 255. 254.
      255. 255. 255. 194. 19. 0. 0. 0. 0. 1. 3. 0. 0. 13. 155. 252. 254.
      255. 255. 254. 255. 233. 97. 34. 4. 0. 0. 0. 0. 1. 0. 0. 2. 0. 11.
      37. 31. 254. 255. 115. 33. 30. 2. 0. 0. 0. 0. 0. 0.</_>
    <_>
      3.49999994e-001 5.00000000e-001 5.00000000e-001 4.00000006e-001
      9.00000036e-001 9.49999988e-001 1. 1. 6.50000036e-001
      6.50000036e-001 5.00000000e-001 6.50000036e-001 6.00000024e-001 1.
      9.49999988e-001 1. 0. 0. 0. 0. 8.66666734e-001 9.33333397e-001
      8.66666734e-001 7.33333349e-001 7.33333349e-001 6.66666687e-001
      7.33333349e-001 6.00000024e-001 6.66666687e-001 7.33333349e-001
      6.66666687e-001 8.00000072e-001 7.33333349e-001 7.33333349e-001
      7.33333349e-001 6.66666687e-001 9.33333397e-001 1. 9.33333397e-001
      7.33333349e-001 0. 1. 1. 0. 0. 13. 32. 228. 255. 255. 255. 255.
      227. 33. 10. 1. 0. 0. 0. 0. 0. 1. 0. 3. 12. 153. 255. 253. 254.
      255. 255. 255. 249. 255. 154. 11. 0. 0. 0. 0. 0. 0. 0. 1. 29. 255.
      255. 255. 97. 95. 93. 101. 116. 254. 255. 170. 0. 0. 0. 0. 0. 3.
      0. 0. 229. 255. 255. 57. 1. 2. 0. 0. 3. 112. 253. 255. 0. 0. 0. 0.
      0. 0. 2. 0. 255. 255. 249. 37. 0. 0. 3. 2. 2. 94. 255. 255. 0. 0.
      0. 0. 1. 0. 2. 0. 253. 255. 255. 28. 3. 0. 0. 0. 0. 95. 255. 253.
      0. 0. 0. 0. 0. 1. 0. 1. 255. 254. 255. 33. 0. 3. 0. 0. 1. 94. 255.
      255. 0. 0. 0. 0. 2. 0. 1. 0. 255. 255. 254. 32. 0. 0. 0. 0. 0. 96.
      254. 254. 0. 0. 0. 0. 0. 0. 1. 0. 255. 252. 255. 30. 0. 3. 1. 0.
      0. 94. 255. 254. 0. 0. 0. 0. 0. 2. 0. 0. 255. 253. 254. 34. 3. 0.
      2. 0. 4. 96. 254. 255. 0. 0. 0. 0. 1. 0. 4. 0. 255. 255. 254. 32.
      0. 0. 0. 3. 0. 98. 255. 252. 0. 0. 0. 0. 1. 2. 0. 0. 255. 251.
      254. 34. 3. 1. 0. 2. 0. 92. 255. 255. 0. 0. 0. 0. 0. 2. 0. 1. 251.
      255. 255. 31. 0. 1. 0. 1. 0. 96. 253. 255. 0. 0. 0. 0. 0. 0. 2. 1.
      255. 254. 255. 33. 5. 0. 0. 1. 0. 97. 254. 252. 0. 0. 0. 0. 4. 0.
      0. 3. 253. 253. 255. 29. 0. 3. 0. 3. 0. 96. 255. 255. 0. 0. 0. 0.
      0. 3. 0. 0. 255. 254. 255. 228. 2. 0. 0. 0. 27. 236. 254. 254. 0.
      0. 0. 0. 2. 0. 2. 0. 229. 255. 254. 255. 224. 33. 172. 255. 255.
      255. 252. 229. 0. 0. 0. 0. 0. 1. 1. 2. 20. 194. 255. 255. 255.
      255. 251. 254. 254. 255. 255. 31. 0. 0. 0. 0. 1. 0. 1. 0. 1. 35.
      192. 255. 252. 255. 255. 255. 254. 196. 93. 12. 0. 0. 0. 0. 0. 5.
      0. 3. 0. 0. 22. 31. 255. 255. 254. 60. 33. 21. 0. 2. 0. 0. 0. 0.</_>
    <_>
      4.00000006e-001 5.00000000e-001 3.49999994e-001 4.00000006e-001
      8.00000012e-001 9.49999988e-001 9.49999988e-001 7.50000000e-001
      6.50000036e-001 5.50000012e-001 6.00000024e-001 5.50000012e-001
      6.00000024e-001 1. 1. 7.50000000e-001 6.50000036e-001
      3.49999994e-001 4.00000006e-001 3.00000012e-001 8.12500000e-001
      7.50000000e-001 1. 8.75000000e-001 9.37500000e-001 6.87500000e-001
      6.25000000e-001 8.12500000e-001 6.25000000e-001 8.75000000e-001
      8.12500000e-001 6.87500000e-001 8.75000000e-001 6.25000000e-001
      8.75000000e-001 7.50000000e-001 7.50000000e-001 7.50000000e-001
      7.50000000e-001 7.50000000e-001 1. 1. 0. 2. 0. 2. 0. 254. 254.
      255. 253. 255. 255. 29. 1. 0. 0. 3. 0. 0. 0. 2. 0. 0. 0. 0. 91.
      255. 255. 255. 255. 255. 255. 216. 30. 0. 1. 0. 2. 0. 4. 0. 2. 0.
      6. 51. 253. 253. 255. 251. 252. 254. 254. 253. 255. 1. 2. 1. 0. 0.
      0. 2. 1. 0. 0. 133. 255. 255. 213. 29. 3. 1. 254. 255. 255. 202.
      0. 0. 0. 1. 2. 0. 2. 2. 162. 255. 255. 255. 30. 3. 0. 0. 54. 253.
      255. 205. 1. 0. 6. 0. 0. 3. 0. 0. 205. 253. 255. 1. 0. 0. 3. 0. 0.
      255. 255. 251. 102. 0. 0. 4. 0. 4. 0. 0. 205. 254. 254. 0. 2. 0.
      0. 0. 0. 255. 252. 255. 104. 0. 1. 0. 1. 0. 0. 3. 204. 255. 255.
      0. 0. 0. 2. 0. 1. 255. 253. 255. 102. 1. 1. 0. 0. 0. 0. 1. 201.
      255. 255. 0. 0. 0. 0. 1. 0. 255. 255. 253. 103. 3. 0. 0. 0. 0. 1.
      2. 204. 254. 252. 1. 0. 1. 1. 2. 0. 255. 255. 255. 100. 0. 0. 2.
      1. 1. 0. 0. 203. 255. 254. 4. 1. 0. 0. 2. 0. 255. 252. 255. 104.
      0. 4. 0. 0. 1. 0. 0. 203. 255. 253. 0. 1. 0. 0. 0. 1. 255. 254.
      255. 104. 0. 1. 0. 1. 0. 0. 4. 203. 253. 255. 1. 1. 0. 1. 0. 0.
      254. 255. 255. 102. 2. 0. 1. 0. 1. 0. 0. 201. 255. 255. 0. 0. 0.
      0. 0. 0. 254. 255. 233. 60. 3. 1. 0. 0. 0. 3. 0. 203. 255. 250. 3.
      0. 1. 0. 1. 2. 255. 252. 208. 2. 0. 1. 1. 3. 0. 2. 0. 205. 254.
      255. 50. 0. 3. 0. 0. 0. 255. 255. 203. 0. 3. 0. 1. 0. 1. 0. 2.
      205. 252. 254. 255. 94. 0. 1. 0. 153. 252. 255. 83. 0. 0. 0. 0. 2.
      0. 0. 0. 1. 255. 251. 255. 253. 52. 255. 255. 255. 255. 255. 0. 0.
      0. 0. 0. 0. 4. 0. 0. 3. 171. 255. 255. 255. 255. 255. 255. 253.
      253. 172. 0. 0. 0. 0. 0. 0. 0. 1. 1. 0. 7. 54. 252. 255. 255. 254.
      255. 49. 51. 13. 0. 0. 0. 0. 0.</_>
    <_>
      3.00000012e-001 4.50000018e-001 3.49999994e-001 7.50000000e-001
      9.00000036e-001 1. 1. 6.00000024e-001 6.00000024e-001
      5.00000000e-001 5.00000000e-001 6.00000024e-001 7.50000000e-001 1.
      9.00000036e-001 9.49999988e-001 0. 0. 0. 0. 9.23076987e-001
      9.23076987e-001 1. 1. 8.46153855e-001 9.23076987e-001
      6.92307711e-001 6.92307711e-001 7.69230783e-001 9.23076987e-001
      7.69230783e-001 9.23076987e-001 6.92307711e-001 7.69230783e-001
      6.92307711e-001 1. 6.92307711e-001 1. 1. 9.23076987e-001 0. 4. 0.
      0. 2. 1. 44. 45. 46. 44. 45. 45. 46. 12. 0. 1. 0. 0. 0. 0. 0. 0.
      5. 2. 0. 125. 252. 255. 255. 253. 255. 253. 253. 169. 0. 1. 0. 0.
      0. 0. 1. 0. 0. 0. 129. 254. 253. 253. 254. 255. 252. 255. 255.
      254. 205. 3. 0. 0. 0. 0. 0. 0. 1. 2. 144. 255. 243. 73. 1. 0. 2.
      201. 255. 255. 255. 143. 0. 0. 0. 0. 0. 3. 0. 32. 214. 253. 181.
      0. 2. 1. 0. 0. 166. 254. 255. 149. 0. 0. 0. 0. 0. 1. 1. 57. 253.
      255. 185. 2. 0. 0. 0. 3. 93. 255. 253. 148. 0. 0. 0. 0. 1. 0. 0.
      57. 255. 251. 187. 0. 2. 0. 0. 0. 0. 189. 255. 143. 0. 0. 0. 0. 0.
      2. 0. 57. 255. 255. 183. 0. 0. 0. 0. 2. 0. 184. 254. 149. 0. 0. 0.
      0. 1. 0. 0. 57. 255. 254. 186. 0. 0. 2. 0. 0. 1. 185. 254. 149. 0.
      0. 0. 0. 0. 2. 1. 57. 254. 255. 186. 0. 2. 0. 1. 2. 0. 186. 253.
      145. 0. 0. 0. 0. 0. 0. 0. 56. 253. 255. 182. 2. 0. 3. 0. 0. 66.
      231. 255. 147. 0. 0. 0. 0. 0. 1. 0. 59. 255. 255. 183. 1. 1. 0. 3.
      0. 4. 184. 252. 148. 0. 0. 0. 0. 0. 3. 0. 55. 255. 253. 188. 0. 0.
      0. 0. 2. 0. 185. 255. 147. 0. 0. 0. 0. 1. 0. 0. 60. 255. 253. 186.
      0. 1. 0. 0. 0. 3. 187. 255. 143. 0. 0. 0. 0. 0. 0. 2. 61. 248.
      255. 184. 0. 0. 0. 0. 1. 0. 184. 255. 150. 0. 0. 0. 0. 1. 2. 0.
      32. 211. 254. 186. 2. 0. 2. 1. 0. 46. 216. 254. 146. 0. 0. 0. 0.
      0. 0. 0. 0. 149. 255. 236. 75. 0. 4. 0. 0. 98. 254. 254. 148. 0.
      0. 0. 0. 0. 3. 0. 1. 146. 253. 255. 114. 3. 0. 3. 34. 255. 255.
      255. 147. 0. 0. 0. 0. 0. 0. 2. 0. 79. 246. 253. 253. 121. 118.
      122. 254. 255. 255. 132. 78. 0. 0. 0. 0. 2. 0. 3. 0. 0. 42. 102.
      255. 255. 255. 253. 255. 252. 103. 4. 0. 0. 0. 0. 0.</_>
    <_>
      4.00000006e-001 2.50000000e-001 4.00000006e-001 8.50000024e-001
      8.50000024e-001 9.00000036e-001 1. 6.50000036e-001 6.00000024e-001
      5.00000000e-001 6.00000024e-001 6.00000024e-001 7.50000000e-001 1.
      9.49999988e-001 8.50000024e-001 6.99999988e-001 3.49999994e-001
      1.50000006e-001 3.49999994e-001 8.66666734e-001 9.33333397e-001
      8.00000072e-001 1. 8.00000072e-001 1. 8.66666734e-001
      8.66666734e-001 8.66666734e-001 8.66666734e-001 8.00000072e-001
      6.66666687e-001 8.00000072e-001 8.66666734e-001 8.00000072e-001
      9.33333397e-001 7.33333349e-001 9.33333397e-001 8.00000072e-001
      7.33333349e-001 1. 0. 2. 0. 0. 1. 44. 46. 252. 254. 114. 45. 45.
      43. 3. 0. 0. 0. 0. 4. 0. 0. 0. 1. 4. 0. 255. 254. 253. 255. 255.
      254. 255. 255. 120. 1. 3. 1. 0. 0. 0. 0. 5. 0. 0. 205. 255. 255.
      255. 255. 253. 255. 255. 254. 237. 0. 0. 0. 1. 0. 2. 0. 0. 14.
      168. 255. 253. 218. 8. 0. 0. 4. 218. 254. 255. 145. 2. 0. 2. 1. 0.
      2. 0. 55. 255. 252. 255. 96. 0. 0. 4. 0. 99. 254. 248. 212. 33. 0.
      0. 0. 2. 0. 2. 57. 255. 254. 190. 6. 0. 4. 0. 1. 93. 255. 255.
      253. 56. 2. 0. 0. 0. 2. 0. 55. 255. 255. 184. 0. 0. 0. 1. 0. 2.
      183. 253. 255. 58. 1. 0. 2. 1. 0. 1. 58. 255. 255. 187. 0. 2. 0.
      2. 1. 0. 186. 255. 255. 57. 0. 0. 0. 1. 0. 1. 56. 254. 255. 185.
      0. 0. 0. 0. 0. 1. 186. 255. 254. 57. 1. 0. 1. 0. 0. 3. 59. 255.
      255. 184. 0. 1. 1. 0. 2. 0. 183. 254. 255. 56. 0. 0. 1. 2. 0. 0.
      56. 254. 255. 187. 2. 0. 0. 0. 2. 0. 186. 255. 254. 59. 1. 0. 0.
      0. 0. 0. 58. 255. 254. 184. 0. 0. 0. 2. 0. 0. 184. 255. 255. 58.
      0. 0. 1. 0. 0. 0. 59. 255. 253. 186. 2. 2. 0. 0. 0. 1. 187. 255.
      251. 56. 0. 0. 3. 2. 1. 0. 57. 255. 253. 185. 0. 0. 1. 0. 1. 0.
      184. 253. 255. 60. 1. 0. 0. 0. 0. 0. 59. 255. 253. 187. 0. 0. 3.
      1. 0. 3. 186. 254. 254. 54. 3. 0. 0. 0. 2. 0. 57. 253. 255. 212.
      41. 1. 0. 1. 0. 41. 215. 254. 210. 36. 0. 1. 0. 0. 0. 0. 58. 255.
      255. 254. 220. 4. 1. 0. 0. 96. 255. 255. 145. 0. 0. 0. 0. 2. 0. 1.
      2. 128. 252. 255. 254. 37. 0. 1. 7. 252. 255. 251. 129. 0. 0. 0.
      0. 0. 7. 1. 0. 0. 121. 255. 255. 255. 120. 120. 123. 255. 254.
      124. 0. 0. 0. 0. 0. 0. 0. 0. 1. 4. 0. 105. 252. 254. 253. 255.
      255. 251. 103. 0. 1. 0. 0. 0. 0.</_>
    <_>
      2.50000000e-001 2.50000000e-001 2.50000000e-001 1.50000006e-001
      7.50000000e-001 1. 9.49999988e-001 5.00000000e-001 5.00000000e-001
      6.50000036e-001 5.50000012e-001 5.50000012e-001 5.00000000e-001
      9.00000036e-001 9.00000036e-001 7.50000000e-001 0. 0. 0. 0.
      6.92307711e-001 5.38461566e-001 6.92307711e-001 8.46153855e-001 1.
      8.46153855e-001 8.46153855e-001 6.15384638e-001 6.15384638e-001
      5.38461566e-001 6.15384638e-001 6.15384638e-001 5.38461566e-001
      5.38461566e-001 6.15384638e-001 5.38461566e-001 9.23076987e-001
      9.23076987e-001 1. 9.23076987e-001 0. 0. 1. 0. 2. 212. 253. 255.
      233. 44. 0. 0. 1. 0. 0. 3. 0. 0. 0. 0. 0. 0. 0. 0. 0. 24. 195.
      252. 153. 0. 3. 0. 0. 1. 2. 0. 0. 0. 0. 0. 0. 5. 0. 0. 2. 1. 0.
      255. 255. 255. 251. 255. 253. 0. 0. 0. 0. 0. 0. 0. 0. 0. 0. 0. 0.
      17. 105. 254. 253. 255. 255. 254. 255. 195. 103. 2. 0. 0. 0. 0. 4.
      0. 0. 2. 0. 216. 254. 253. 175. 49. 52. 173. 254. 254. 251. 1. 0.
      0. 0. 0. 0. 1. 1. 0. 205. 250. 255. 255. 0. 0. 0. 3. 204. 254.
      255. 204. 0. 0. 0. 0. 2. 0. 1. 0. 205. 255. 251. 102. 0. 3. 0. 1.
      0. 255. 254. 204. 0. 0. 0. 0. 1. 0. 1. 0. 202. 254. 255. 0. 0. 0.
      0. 0. 0. 255. 255. 204. 0. 0. 0. 0. 0. 0. 0. 0. 204. 255. 255. 0.
      0. 1. 1. 0. 0. 255. 253. 204. 0. 0. 0. 0. 0. 0. 0. 0. 204. 255.
      255. 0. 0. 1. 0. 0. 0. 255. 255. 204. 0. 0. 0. 0. 0. 0. 0. 0. 204.
      255. 255. 0. 0. 2. 0. 1. 0. 255. 255. 41. 0. 0. 0. 0. 0. 0. 0. 0.
      204. 255. 255. 0. 0. 0. 1. 0. 2. 254. 253. 205. 0. 0. 0. 0. 0. 0.
      0. 0. 204. 255. 255. 0. 0. 6. 0. 0. 0. 255. 252. 204. 0. 0. 0. 0.
      0. 0. 0. 0. 204. 255. 255. 0. 0. 0. 0. 5. 0. 252. 255. 204. 0. 0.
      0. 0. 0. 0. 0. 0. 204. 255. 255. 0. 3. 0. 1. 0. 0. 254. 255. 204.
      0. 0. 0. 0. 0. 0. 0. 0. 204. 255. 255. 0. 0. 1. 0. 1. 0. 255. 255.
      0. 0. 0. 0. 0. 1. 0. 1. 2. 202. 253. 255. 0. 1. 0. 1. 0. 151. 255.
      255. 1. 0. 0. 0. 0. 0. 3. 0. 0. 206. 255. 251. 255. 151. 2. 52.
      254. 255. 255. 255. 0. 0. 0. 0. 0. 0. 2. 0. 1. 0. 171. 255. 255.
      254. 255. 253. 255. 255. 211. 152. 4. 0. 0. 0. 0. 3. 1. 0. 0. 0.
      12. 175. 254. 255. 254. 255. 255. 253. 31. 3. 0. 0. 0. 0. 0.</_>
    <_>
      0. 0. 0. 0. 0. 0. 0. 0. 2.00000003e-001 9.49999988e-001 1. 1.
      4.00000006e-001 6.50000036e-001 2.50000000e-001 2.50000000e-001 0.
      0. 0. 0. 8.33333373e-001 6.66666687e-001 1. 1. 8.33333373e-001
      8.33333373e-001 1. 6.66666687e-001 6.66666687e-001 6.66666687e-001
      6.66666687e-001 6.66666687e-001 6.66666687e-001 6.66666687e-001
      6.66666687e-001 6.66666687e-001 8.33333373e-001 1. 8.33333373e-001
      8.33333373e-001 0. 0. 0. 0. 0. 0. 0. 0. 2. 0. 89. 135. 0. 1. 0. 1.
      0. 0. 0. 0. 0. 0. 0. 0. 0. 0. 0. 0. 0. 3. 255. 254. 0. 0. 3. 0. 0.
      0. 0. 0. 0. 0. 0. 0. 0. 0. 0. 0. 2. 202. 254. 255. 255. 0. 1. 0.
      0. 0. 0. 0. 0. 0. 0. 0. 0. 0. 0. 0. 0. 205. 255. 255. 252. 0. 2.
      2. 0. 0. 0. 0. 0. 0. 0. 0. 0. 0. 0. 0. 0. 208. 253. 255. 255. 2.
      0. 0. 0. 0. 0. 0. 0. 0. 0. 0. 0. 0. 0. 0. 3. 198. 255. 255. 254.
      0. 0. 0. 0. 0. 0. 0. 0. 0. 0. 0. 0. 0. 0. 0. 0. 208. 253. 253.
      104. 0. 1. 2. 0. 0. 0. 0. 0. 0. 0. 0. 0. 0. 0. 0. 0. 204. 255.
      253. 2. 0. 0. 0. 0. 0. 0. 0. 0. 0. 0. 0. 0. 0. 0. 0. 0. 204. 255.
      255. 0. 1. 0. 0. 0. 0. 0. 0. 0. 0. 0. 0. 0. 0. 0. 0. 0. 204. 255.
      255. 0. 1. 0. 0. 0. 0. 0. 0. 0. 0. 0. 0. 0. 0. 0. 0. 0. 204. 255.
      255. 0. 1. 0. 0. 0. 0. 0. 0. 0. 0. 0. 0. 0. 0. 0. 0. 0. 204. 255.
      255. 0. 1. 0. 0. 0. 0. 0. 0. 0. 0. 0. 0. 0. 0. 0. 0. 0. 204. 255.
      255. 0. 1. 0. 0. 0. 0. 0. 0. 0. 0. 0. 0. 0. 0. 0. 0. 0. 204. 255.
      255. 0. 1. 0. 0. 0. 0. 0. 0. 0. 0. 0. 0. 0. 0. 0. 0. 0. 204. 255.
      255. 0. 1. 0. 0. 0. 0. 0. 0. 0. 0. 0. 0. 0. 0. 0. 0. 0. 204. 255.
      255. 0. 1. 0. 0. 0. 0. 0. 0. 0. 0. 0. 0. 0. 0. 0. 0. 0. 204. 254.
      255. 1. 0. 1. 0. 0. 0. 0. 0. 0. 0. 0. 0. 0. 0. 0. 0. 1. 204. 255.
      252. 0. 4. 0. 4. 0. 0. 0. 0. 0. 0. 0. 0. 0. 0. 0. 0. 0. 202. 255.
      255. 1. 2. 0. 0. 0. 0. 0. 0. 0. 0. 0. 0. 0. 0. 0. 0. 0. 44. 254.
      133. 0. 2. 0. 1. 0. 0. 0. 0.</_>
    <_>
      0. 0. 0. 0. 0. 0. 0. 0. 4.50000018e-001 1. 1. 9.49999988e-001
      4.00000006e-001 4.00000006e-001 3.00000012e-001 4.00000006e-001 0.
      0. 0. 0. 4.28571463e-001 5.71428597e-001 7.14285731e-001
      7.14285731e-001 1. 7.14285731e-001 7.14285731e-001 5.71428597e-001
      5.71428597e-001 8.57142925e-001 5.71428597e-001 7.14285731e-001
      5.71428597e-001 7.14285731e-001 8.57142925e-001 7.14285731e-001 1.
      5.71428597e-001 7.14285731e-001 7.14285731e-001 0. 0. 0. 0. 0. 0.
      0. 0. 0. 38. 209. 0. 0. 1. 0. 0. 0. 0. 0. 0. 0. 0. 0. 0. 0. 0. 0.
      0. 0. 207. 233. 59. 0. 1. 0. 0. 0. 0. 0. 0. 0. 0. 0. 0. 0. 0. 0.
      0. 0. 207. 253. 103. 2. 0. 0. 3. 0. 0. 0. 0. 0. 0. 0. 0. 0. 0. 0.
      0. 0. 204. 255. 101. 3. 0. 2. 0. 0. 0. 0. 0. 0. 0. 0. 0. 0. 0. 0.
      0. 2. 201. 252. 102. 0. 2. 1. 1. 0. 0. 0. 0. 0. 0. 0. 0. 0. 0. 0.
      0. 0. 208. 255. 102. 3. 0. 2. 0. 0. 0. 0. 0. 0. 0. 0. 0. 0. 0. 0.
      0. 2. 201. 253. 103. 0. 0. 0. 1. 0. 0. 0. 0. 0. 0. 0. 0. 0. 0. 0.
      0. 0. 204. 255. 102. 0. 0. 1. 0. 0. 0. 0. 0. 0. 0. 0. 0. 0. 0. 0.
      0. 1. 203. 255. 101. 0. 0. 0. 0. 0. 0. 0. 0. 0. 0. 0. 0. 0. 0. 0.
      0. 1. 202. 255. 101. 2. 2. 0. 0. 0. 0. 0. 0. 0. 0. 0. 0. 0. 0. 0.
      0. 0. 204. 255. 101. 0. 0. 0. 2. 0. 0. 0. 0. 0. 0. 0. 0. 0. 0. 0.
      0. 0. 204. 255. 102. 1. 3. 0. 0. 0. 0. 0. 0. 0. 0. 0. 0. 0. 0. 0.
      0. 0. 206. 255. 104. 0. 0. 0. 1. 0. 0. 0. 0. 0. 0. 0. 0. 0. 0. 0.
      0. 1. 204. 251. 105. 1. 0. 0. 0. 0. 0. 0. 0. 0. 0. 0. 0. 0. 0. 0.
      0. 81. 247. 255. 100. 1. 3. 0. 0. 0. 0. 0. 0. 0. 0. 0. 0. 0. 0. 0.
      0. 102. 255. 255. 101. 0. 0. 0. 2. 0. 0. 0. 0. 0. 0. 0. 0. 0. 0.
      0. 0. 43. 219. 255. 102. 1. 1. 0. 1. 0. 0. 0. 0. 0. 0. 0. 0. 0. 0.
      0. 0. 0. 207. 253. 103. 0. 0. 2. 0. 0. 0. 0. 0. 0. 0. 0. 0. 0. 0.
      0. 0. 0. 208. 235. 60. 0. 0. 1. 2. 0. 0. 0. 0. 0. 0. 0. 0. 0. 0.
      0. 0. 2. 38. 205. 1. 0. 2. 0. 0. 0. 0. 0. 0.</_>
    <_>
      0. 0. 0. 0. 0. 0. 0. 0. 2.00000003e-001 6.50000036e-001 1. 1. 1.
      4.00000006e-001 4.50000018e-001 2.00000003e-001 0. 0. 0. 0.
      5.71428597e-001 8.57142925e-001 5.71428597e-001 7.14285731e-001
      5.71428597e-001 7.14285731e-001 8.57142925e-001 7.14285731e-001
      7.14285731e-001 7.14285731e-001 5.71428597e-001 8.57142925e-001
      5.71428597e-001 1. 5.71428597e-001 4.28571463e-001 8.57142925e-001
      7.14285731e-001 7.14285731e-001 7.14285731e-001 0. 0. 0. 0. 0. 0.
      0. 0. 0. 0. 72. 253. 255. 0. 1. 0. 0. 0. 0. 0. 0. 0. 0. 0. 0. 0.
      0. 0. 3. 2. 252. 255. 253. 0. 1. 0. 0. 0. 0. 0. 0. 0. 0. 0. 0. 0.
      0. 0. 0. 0. 253. 255. 254. 0. 2. 0. 0. 0. 0. 0. 0. 0. 0. 0. 0. 0.
      0. 0. 0. 5. 255. 250. 255. 0. 0. 2. 0. 0. 0. 0. 0. 0. 0. 0. 0. 0.
      0. 0. 0. 0. 253. 255. 255. 1. 0. 0. 0. 0. 0. 0. 0. 0. 0. 0. 0. 0.
      0. 0. 1. 0. 255. 251. 252. 3. 0. 0. 0. 0. 0. 0. 0. 0. 0. 0. 0. 0.
      0. 0. 0. 3. 251. 255. 255. 1. 0. 2. 0. 0. 0. 0. 0. 0. 0. 0. 0. 0.
      0. 0. 0. 1. 253. 255. 254. 0. 1. 0. 0. 0. 0. 0. 0. 0. 0. 0. 0. 0.
      0. 0. 0. 1. 254. 255. 255. 0. 2. 0. 0. 0. 0. 0. 0. 0. 0. 0. 0. 0.
      0. 0. 0. 1. 254. 255. 253. 0. 2. 0. 0. 0. 0. 0. 0. 0. 0. 0. 0. 0.
      0. 0. 0. 0. 255. 255. 254. 2. 0. 0. 0. 0. 0. 0. 0. 0. 0. 0. 0. 0.
      0. 0. 0. 101. 254. 254. 252. 1. 0. 2. 0. 0. 0. 0. 0. 0. 0. 0. 0.
      0. 0. 0. 0. 219. 255. 255. 255. 0. 0. 0. 0. 0. 0. 0. 0. 0. 0. 0.
      0. 0. 0. 0. 4. 200. 251. 255. 251. 2. 1. 0. 0. 0. 0. 0. 0. 0. 0.
      0. 0. 0. 0. 0. 0. 5. 255. 255. 255. 0. 0. 0. 0. 0. 0. 0. 0. 0. 0.
      0. 0. 0. 0. 0. 0. 0. 255. 253. 255. 0. 0. 0. 0. 0. 0. 0. 0. 0. 0.
      0. 0. 0. 0. 0. 1. 0. 255. 254. 253. 1. 1. 0. 0. 0. 0. 0. 0. 0. 0.
      0. 0. 0. 0. 0. 0. 216. 252. 255. 255. 4. 0. 0. 0. 0. 0. 0. 0. 0.
      0. 0. 0. 0. 0. 0. 0. 217. 255. 252. 150. 0. 0. 4. 0. 0. 0. 0. 0.
      0. 0. 0. 0. 0. 0. 0. 0. 221. 254. 255. 63. 0. 1. 0. 0. 0. 0. 0.</_>
    <_>
      0. 0. 0. 0. 0. 0. 0. 0. 1. 1. 1. 1. 1. 2.50000000e-001
      2.50000000e-001 2.00000003e-001 0. 0. 0. 0. 8.57142925e-001
      8.57142925e-001 8.57142925e-001 1. 1. 1. 8.57142925e-001
      8.57142925e-001 7.14285731e-001 7.14285731e-001 7.14285731e-001
      7.14285731e-001 7.14285731e-001 7.14285731e-001 7.14285731e-001
      7.14285731e-001 7.14285731e-001 1. 8.57142925e-001 7.14285731e-001
      0. 0. 0. 0. 0. 0. 0. 0. 16. 230. 255. 188. 10. 0. 3. 0. 0. 0. 0.
      0. 0. 0. 0. 0. 0. 0. 0. 0. 181. 255. 253. 253. 129. 3. 0. 0. 0. 0.
      0. 0. 0. 0. 0. 0. 0. 0. 0. 0. 177. 255. 251. 255. 126. 0. 2. 0. 0.
      0. 0. 0. 0. 0. 0. 0. 0. 0. 0. 0. 181. 255. 255. 255. 124. 1. 1. 0.
      0. 0. 0. 0. 0. 0. 0. 0. 0. 0. 0. 0. 179. 254. 255. 252. 126. 1. 0.
      1. 0. 0. 0. 0. 0. 0. 0. 0. 0. 0. 0. 0. 177. 255. 253. 255. 127. 2.
      0. 1. 0. 0. 0. 0. 0. 0. 0. 0. 0. 0. 0. 0. 178. 255. 255. 255. 130.
      0. 1. 0. 0. 0. 0. 0. 0. 0. 0. 0. 0. 0. 0. 0. 181. 252. 255. 255.
      127. 0. 0. 1. 0. 0. 0. 0. 0. 0. 0. 0. 0. 0. 0. 0. 178. 255. 255.
      255. 127. 0. 0. 0. 0. 0. 0. 0. 0. 0. 0. 0. 0. 0. 0. 0. 178. 255.
      255. 255. 127. 0. 0. 0. 0. 0. 0. 0. 0. 0. 0. 0. 0. 0. 0. 0. 178.
      255. 255. 255. 127. 0. 0. 0. 0. 0. 0. 0. 0. 0. 0. 0. 0. 0. 0. 0.
      178. 255. 255. 255. 127. 0. 0. 0. 0. 0. 0. 0. 0. 0. 0. 0. 0. 0. 0.
      0. 178. 255. 255. 255. 127. 0. 0. 0. 0. 0. 0. 0. 0. 0. 0. 0. 0. 0.
      0. 0. 178. 255. 255. 255. 127. 0. 0. 0. 0. 0. 0. 0. 0. 0. 0. 0. 0.
      0. 0. 0. 178. 255. 255. 255. 127. 0. 0. 0. 0. 0. 0. 0. 0. 0. 0. 0.
      0. 0. 0. 0. 178. 255. 255. 255. 127. 0. 0. 0. 0. 0. 0. 0. 0. 0. 0.
      0. 0. 0. 0. 0. 179. 255. 253. 255. 127. 0. 0. 0. 0. 0. 0. 0. 0. 0.
      0. 0. 0. 0. 0. 0. 181. 254. 255. 254. 130. 4. 0. 3. 0. 0. 0. 0. 0.
      0. 0. 0. 0. 0. 0. 0. 177. 255. 255. 254. 125. 0. 4. 0. 0. 0. 0. 0.
      0. 0. 0. 0. 0. 0. 0. 0. 179. 255. 251. 186. 16. 0. 0. 0. 0. 0. 0.
      0.</_>
    <_>
      4.11764711e-001 4.70588237e-001 5.88235319e-001 3.52941185e-001
      6.47058845e-001 7.64705896e-001 7.05882370e-001 8.82352948e-001
      9.41176474e-001 8.82352948e-001 8.82352948e-001 8.23529422e-001
      9.41176474e-001 1. 8.23529422e-001 6.47058845e-001 0. 0. 0. 0.
      6.42857194e-001 7.85714328e-001 8.57142925e-001 7.85714328e-001
      8.57142925e-001 4.28571463e-001 7.14285731e-001 5.71428597e-001
      5.71428597e-001 7.85714328e-001 7.85714328e-001 5.71428597e-001
      7.14285731e-001 6.42857194e-001 5.00000000e-001 5.71428597e-001
      6.42857194e-001 9.28571463e-001 9.28571463e-001 1. 0. 0. 2. 0. 0.
      1. 0. 29. 44. 45. 46. 44. 46. 14. 0. 0. 0. 0. 0. 0. 0. 2. 0. 0. 2.
      0. 135. 207. 255. 253. 255. 252. 254. 167. 3. 0. 0. 0. 0. 0. 4. 0.
      3. 1. 0. 0. 255. 255. 252. 255. 250. 255. 255. 254. 204. 0. 0. 0.
      0. 0. 0. 0. 0. 0. 2. 239. 249. 218. 201. 0. 2. 5. 217. 255. 255.
      148. 0. 0. 0. 0. 0. 2. 0. 1. 0. 100. 110. 42. 1. 0. 2. 1. 37. 219.
      254. 146. 0. 0. 0. 0. 0. 0. 4. 0. 1. 0. 0. 0. 0. 0. 0. 0. 4. 186.
      254. 149. 0. 0. 0. 0. 0. 2. 0. 0. 2. 3. 0. 2. 0. 2. 2. 0. 29. 199.
      255. 146. 0. 0. 0. 0. 1. 0. 1. 0. 0. 0. 0. 0. 2. 0. 0. 6. 195.
      255. 255. 147. 0. 0. 0. 0. 0. 1. 0. 0. 0. 1. 0. 0. 0. 5. 0. 248.
      255. 253. 235. 5. 0. 0. 0. 0. 2. 0. 1. 3. 0. 0. 2. 0. 1. 24. 198.
      252. 255. 196. 3. 0. 0. 0. 0. 0. 1. 0. 1. 0. 2. 1. 0. 3. 0. 85.
      254. 255. 191. 20. 1. 0. 0. 0. 0. 0. 0. 2. 1. 0. 1. 0. 0. 0. 2.
      254. 255. 242. 0. 5. 0. 0. 0. 0. 0. 0. 3. 1. 0. 3. 0. 3. 0. 60.
      255. 252. 255. 0. 1. 0. 0. 2. 0. 0. 0. 0. 0. 0. 2. 1. 0. 0. 49.
      230. 252. 255. 128. 2. 0. 2. 0. 0. 0. 0. 0. 0. 0. 0. 0. 0. 0. 2.
      255. 254. 255. 163. 0. 0. 3. 0. 2. 0. 0. 0. 0. 0. 0. 1. 0. 0. 1.
      97. 255. 255. 151. 0. 2. 0. 0. 1. 0. 0. 0. 0. 0. 0. 0. 1. 2. 0.
      115. 251. 255. 255. 4. 4. 0. 0. 0. 0. 0. 1. 0. 0. 0. 0. 1. 0. 0.
      0. 149. 254. 253. 255. 255. 253. 255. 254. 255. 255. 239. 18. 0.
      0. 0. 0. 0. 0. 0. 4. 147. 255. 255. 251. 254. 255. 252. 255. 253.
      255. 254. 147. 0. 0. 0. 0. 1. 0. 2. 0. 23. 46. 39. 49. 249. 45.
      47. 43. 46. 47. 45. 24. 0. 0. 0. 0.</_>
    <_>
      4.21052635e-001 3.68421048e-001 3.68421048e-001 4.21052635e-001
      6.84210539e-001 6.84210539e-001 7.89473712e-001 6.84210539e-001
      7.36842096e-001 7.89473712e-001 8.94736826e-001 9.47368443e-001 1.
      9.47368443e-001 8.94736826e-001 6.31578922e-001 0. 0. 0. 0.
      8.66666734e-001 8.66666734e-001 9.33333397e-001 7.33333349e-001
      7.33333349e-001 5.33333361e-001 5.33333361e-001 6.00000024e-001
      6.66666687e-001 9.33333397e-001 6.00000024e-001 6.00000024e-001
      6.66666687e-001 4.66666698e-001 6.66666687e-001 6.00000024e-001
      6.66666687e-001 1. 8.00000072e-001 8.00000072e-001 2. 0. 0. 1.
      255. 255. 254. 255. 31. 113. 255. 255. 255. 170. 12. 0. 0. 0. 0.
      0. 0. 0. 0. 2. 255. 253. 255. 255. 255. 255. 255. 255. 252. 255.
      157. 13. 0. 0. 0. 0. 0. 2. 4. 0. 95. 99. 93. 96. 114. 254. 252.
      253. 255. 255. 158. 10. 0. 0. 0. 0. 1. 0. 0. 0. 3. 0. 0. 2. 5.
      116. 255. 255. 253. 255. 90. 1. 0. 0. 0. 0. 0. 1. 0. 6. 1. 0. 1.
      0. 32. 252. 254. 255. 222. 139. 2. 0. 0. 0. 0. 0. 0. 0. 1. 0. 0.
      3. 2. 0. 115. 255. 250. 255. 4. 0. 0. 0. 0. 0. 0. 0. 0. 0. 3. 0.
      2. 0. 0. 141. 252. 255. 255. 118. 0. 3. 0. 0. 0. 0. 0. 0. 0. 2. 0.
      0. 0. 3. 138. 252. 255. 255. 253. 227. 2. 0. 0. 0. 0. 0. 0. 0. 0.
      0. 1. 0. 0. 0. 138. 252. 255. 254. 255. 255. 226. 30. 16. 0. 0. 0.
      0. 0. 2. 1. 0. 1. 0. 1. 1. 137. 159. 195. 252. 255. 255. 255. 156.
      14. 0. 0. 0. 0. 0. 0. 0. 2. 0. 0. 4. 0. 0. 36. 100. 235. 252. 254.
      255. 31. 0. 0. 0. 0. 2. 4. 0. 0. 0. 2. 0. 0. 2. 0. 0. 26. 255.
      255. 254. 34. 0. 0. 0. 0. 0. 0. 1. 1. 1. 0. 2. 0. 0. 0. 1. 3. 254.
      255. 249. 255. 0. 0. 0. 0. 1. 0. 0. 0. 0. 1. 0. 0. 0. 0. 1. 0.
      254. 250. 255. 254. 0. 0. 0. 0. 1. 1. 3. 0. 140. 0. 0. 1. 0. 2. 0.
      0. 255. 255. 255. 253. 0. 0. 0. 0. 0. 0. 0. 0. 251. 139. 1. 0. 0.
      0. 1. 1. 253. 255. 252. 61. 0. 0. 0. 0. 0. 0. 0. 226. 253. 255.
      114. 32. 0. 0. 0. 27. 255. 253. 235. 28. 0. 0. 0. 0. 1. 3. 0. 139.
      254. 254. 254. 255. 95. 98. 96. 235. 255. 219. 57. 4. 0. 0. 0. 0.
      0. 0. 3. 0. 116. 255. 255. 255. 255. 253. 253. 255. 253. 158. 3.
      0. 0. 0. 0. 0. 1. 0. 0. 0. 4. 36. 168. 254. 253. 255. 255. 255.
      33. 20. 3. 0. 0. 0. 0. 0.</_>
    <_>
      3.49999994e-001 4.50000018e-001 4.50000018e-001 4.00000006e-001
      5.50000012e-001 6.50000036e-001 5.50000012e-001 6.50000036e-001
      7.50000000e-001 8.00000012e-001 8.00000012e-001 7.50000000e-001 1.
      9.49999988e-001 9.00000036e-001 8.00000012e-001 0. 0. 0. 0.
      9.28571463e-001 1. 9.28571463e-001 8.57142925e-001 8.57142925e-001
      6.42857194e-001 7.14285731e-001 6.42857194e-001 7.85714328e-001
      7.85714328e-001 7.14285731e-001 5.71428597e-001 6.42857194e-001
      6.42857194e-001 5.71428597e-001 5.00000000e-001 8.57142925e-001
      9.28571463e-001 9.28571463e-001 9.28571463e-001 2. 0. 0. 3. 0. 32.
      32. 33. 30. 33. 32. 33. 255. 253. 255. 31. 0. 0. 0. 0. 0. 1. 1. 0.
      36. 255. 252. 255. 255. 253. 255. 254. 254. 255. 253. 32. 0. 0. 0.
      0. 0. 3. 0. 0. 11. 151. 255. 255. 255. 254. 255. 255. 255. 255.
      255. 31. 0. 0. 0. 0. 0. 0. 0. 2. 0. 11. 29. 33. 32. 114. 254. 255.
      254. 253. 253. 32. 0. 0. 0. 0. 1. 0. 3. 0. 1. 2. 2. 0. 1. 95. 254.
      255. 253. 255. 96. 0. 0. 0. 0. 0. 0. 3. 0. 2. 0. 0. 0. 0. 0. 100.
      253. 253. 255. 219. 58. 2. 0. 0. 0. 0. 3. 0. 0. 0. 3. 2. 0. 0. 22.
      192. 255. 255. 232. 63. 0. 1. 0. 0. 0. 0. 0. 0. 1. 2. 0. 2. 0. 1.
      227. 253. 255. 255. 222. 0. 0. 0. 0. 0. 0. 0. 0. 3. 1. 0. 1. 0. 0.
      196. 253. 255. 255. 254. 254. 171. 12. 0. 0. 0. 0. 0. 4. 0. 0. 3.
      0. 0. 2. 0. 172. 255. 250. 255. 255. 255. 157. 11. 0. 0. 0. 0. 0.
      0. 3. 0. 0. 0. 0. 1. 15. 97. 96. 99. 254. 254. 252. 33. 0. 0. 0.
      0. 0. 1. 0. 1. 0. 5. 0. 0. 0. 0. 3. 0. 59. 255. 255. 32. 0. 0. 0.
      0. 1. 1. 0. 0. 2. 0. 0. 2. 3. 0. 0. 0. 28. 232. 255. 32. 0. 0. 0.
      0. 1. 0. 4. 0. 1. 3. 0. 0. 0. 4. 0. 0. 4. 97. 255. 32. 0. 0. 0. 0.
      0. 1. 0. 0. 2. 0. 0. 2. 0. 4. 0. 0. 1. 95. 255. 33. 0. 0. 0. 0. 0.
      0. 2. 0. 0. 0. 2. 0. 0. 0. 2. 0. 28. 235. 255. 31. 0. 0. 0. 0. 0.
      0. 1. 1. 30. 173. 33. 3. 3. 0. 0. 2. 59. 255. 253. 33. 0. 0. 0. 0.
      0. 2. 0. 0. 34. 252. 254. 118. 93. 63. 2. 83. 251. 255. 192. 19.
      0. 0. 0. 0. 0. 2. 0. 3. 9. 156. 255. 252. 255. 220. 58. 221. 255.
      252. 97. 0. 0. 0. 0. 0. 1. 0. 1. 0. 0. 10. 32. 227. 253. 254. 237.
      251. 31. 34. 12. 1. 0. 0. 0. 0.</_>
    <_>
      5.78947365e-001 3.15789461e-001 4.21052635e-001 8.42105269e-001
      8.94736826e-001 9.47368443e-001 1. 8.94736826e-001 7.36842096e-001
      6.84210539e-001 8.94736826e-001 6.84210539e-001 8.42105269e-001
      8.42105269e-001 8.42105269e-001 7.89473712e-001 2.63157904e-001
      1.57894731e-001 1.05263159e-001 2.63157904e-001 8.23529422e-001
      8.82352948e-001 8.82352948e-001 5.29411793e-001 6.47058845e-001
      6.47058845e-001 5.29411793e-001 7.05882370e-001 7.64705896e-001
      8.23529422e-001 1. 5.29411793e-001 7.64705896e-001 5.88235319e-001
      7.05882370e-001 7.05882370e-001 7.05882370e-001 8.23529422e-001
      8.23529422e-001 6.47058845e-001 3. 0. 0. 3. 88. 254. 255. 255.
      254. 255. 223. 36. 40. 37. 37. 13. 0. 0. 0. 0. 0. 3. 2. 2. 166.
      255. 255. 255. 254. 255. 255. 254. 255. 255. 255. 91. 0. 0. 0. 0.
      1. 3. 0. 14. 255. 249. 255. 255. 255. 252. 255. 255. 254. 255.
      185. 21. 0. 0. 0. 0. 0. 0. 0. 14. 254. 255. 253. 253. 243. 243.
      206. 0. 0. 0. 3. 0. 0. 0. 0. 0. 1. 3. 0. 11. 255. 255. 254. 191.
      0. 4. 0. 2. 1. 0. 0. 1. 0. 0. 0. 0. 1. 0. 1. 15. 250. 255. 253.
      191. 2. 0. 1. 0. 0. 2. 3. 0. 0. 0. 0. 0. 0. 0. 1. 12. 255. 252.
      255. 190. 0. 0. 1. 0. 4. 0. 3. 0. 0. 0. 0. 0. 1. 0. 0. 14. 252.
      255. 253. 207. 66. 63. 63. 64. 15. 0. 0. 2. 0. 0. 0. 0. 1. 0. 0.
      15. 254. 255. 254. 255. 255. 252. 255. 255. 171. 132. 0. 1. 0. 0.
      0. 0. 0. 0. 0. 7. 255. 255. 255. 254. 254. 255. 254. 255. 253.
      252. 147. 0. 0. 0. 1. 1. 0. 1. 2. 5. 75. 244. 252. 218. 217. 31.
      215. 236. 255. 253. 253. 90. 0. 0. 1. 1. 0. 0. 0. 0. 1. 90. 141.
      0. 0. 0. 0. 63. 227. 255. 255. 88. 3. 0. 0. 0. 1. 0. 2. 1. 0. 0.
      3. 1. 0. 0. 1. 0. 50. 255. 252. 216. 9. 1. 0. 1. 0. 1. 0. 0. 4. 0.
      0. 0. 1. 0. 2. 0. 0. 255. 255. 252. 11. 2. 0. 1. 1. 0. 3. 0. 0.
      61. 3. 0. 1. 3. 0. 0. 0. 255. 254. 196. 7. 2. 0. 1. 1. 0. 0. 11.
      164. 222. 171. 1. 0. 0. 1. 0. 125. 253. 255. 90. 1. 0. 0. 0. 0. 0.
      1. 14. 254. 254. 255. 183. 0. 0. 1. 1. 190. 255. 255. 89. 0. 0. 0.
      0. 1. 0. 0. 10. 218. 254. 255. 254. 150. 65. 65. 147. 255. 255.
      237. 65. 0. 0. 0. 0. 0. 1. 1. 0. 36. 207. 255. 254. 254. 255. 255.
      255. 253. 113. 74. 1. 0. 0. 0. 0. 1. 0. 0. 2. 0. 25. 38. 254. 255.
      254. 255. 154. 36. 3. 0. 0. 0. 0. 0. 0.</_>
    <_>
      4.21052635e-001 3.15789461e-001 3.68421048e-001 6.84210539e-001
      8.42105269e-001 8.94736826e-001 1. 9.47368443e-001 9.47368443e-001
      8.42105269e-001 7.89473712e-001 8.94736826e-001 7.89473712e-001
      7.89473712e-001 7.89473712e-001 6.31578922e-001 3.15789461e-001
      2.10526317e-001 3.15789461e-001 1.57894731e-001 3.88888896e-001
      5.00000000e-001 6.66666687e-001 5.55555582e-001 5.55555582e-001
      4.44444448e-001 5.55555582e-001 6.11111104e-001 6.66666687e-001
      8.33333313e-001 7.77777791e-001 8.33333313e-001 7.77777791e-001
      7.22222209e-001 6.66666687e-001 7.77777791e-001 1. 7.22222209e-001
      8.88888896e-001 7.22222209e-001 0. 0. 0. 0. 1. 0. 0. 0. 0. 26. 47.
      255. 126. 1. 0. 1. 0. 0. 0. 0. 1. 0. 0. 1. 0. 0. 1. 0. 55. 237.
      252. 255. 127. 1. 0. 0. 0. 0. 0. 0. 0. 1. 1. 0. 1. 1. 2. 64. 214.
      255. 255. 215. 68. 0. 1. 0. 0. 0. 0. 0. 1. 1. 0. 0. 0. 2. 50. 216.
      255. 255. 234. 55. 0. 0. 0. 1. 0. 0. 0. 0. 0. 0. 0. 2. 3. 0. 76.
      255. 252. 253. 26. 1. 0. 1. 2. 0. 0. 0. 0. 0. 3. 0. 0. 0. 0. 46.
      255. 253. 239. 24. 0. 1. 0. 0. 0. 2. 0. 0. 0. 0. 0. 3. 0. 3. 1.
      255. 255. 253. 76. 1. 0. 0. 1. 2. 0. 0. 0. 0. 0. 0. 2. 0. 3. 0.
      114. 255. 253. 255. 74. 1. 1. 1. 0. 0. 1. 0. 0. 0. 0. 0. 0. 3. 0.
      1. 231. 253. 255. 253. 201. 180. 180. 181. 87. 0. 1. 0. 0. 0. 0.
      0. 4. 0. 0. 161. 250. 255. 254. 255. 255. 255. 252. 252. 248. 225.
      24. 0. 0. 0. 1. 2. 0. 0. 3. 178. 255. 255. 255. 254. 255. 229.
      255. 255. 255. 255. 254. 21. 0. 0. 0. 0. 3. 0. 0. 179. 255. 254.
      253. 255. 202. 20. 180. 201. 253. 254. 255. 228. 0. 0. 2. 0. 0. 0.
      3. 180. 253. 253. 222. 125. 37. 0. 0. 37. 131. 216. 252. 244. 87.
      3. 0. 0. 0. 5. 0. 176. 255. 255. 174. 1. 1. 0. 4. 0. 0. 179. 255.
      253. 180. 1. 0. 0. 0. 0. 2. 179. 255. 253. 176. 3. 0. 0. 0. 0. 1.
      178. 255. 254. 181. 0. 4. 0. 0. 2. 0. 178. 254. 255. 186. 12. 1.
      0. 0. 3. 13. 184. 255. 254. 176. 2. 0. 0. 1. 0. 1. 125. 248. 255.
      254. 166. 76. 6. 8. 75. 167. 255. 254. 249. 126. 0. 2. 1. 0. 0. 0.
      0. 112. 253. 255. 254. 254. 142. 143. 255. 254. 252. 255. 112. 0.
      0. 1. 0. 1. 0. 0. 0. 3. 255. 254. 255. 255. 255. 251. 251. 255.
      255. 92. 3. 1. 3. 0. 2. 0. 0. 3. 3. 0. 25. 24. 139. 255. 253. 255.
      255. 141. 25. 1. 0. 0. 0. 2. 0.</_>
    <_>
      3.68421048e-001 3.68421048e-001 3.68421048e-001 7.36842096e-001
      7.36842096e-001 9.47368443e-001 1. 8.42105269e-001 9.47368443e-001
      7.89473712e-001 8.94736826e-001 8.42105269e-001 7.89473712e-001
      7.36842096e-001 7.36842096e-001 6.31578922e-001 2.10526317e-001
      1.57894731e-001 1.57894731e-001 1.57894731e-001 3.75000000e-001
      5.62500000e-001 6.25000000e-001 6.87500000e-001 5.62500000e-001
      5.62500000e-001 4.37500000e-001 6.25000000e-001 8.12500000e-001 1.
      1. 8.75000000e-001 1. 6.87500000e-001 9.37500000e-001
      8.12500000e-001 8.12500000e-001 8.75000000e-001 7.50000000e-001
      7.50000000e-001 0. 0. 0. 0. 0. 0. 3. 0. 1. 21. 255. 255. 126. 0.
      0. 0. 0. 0. 0. 0. 0. 4. 0. 1. 0. 0. 0. 0. 51. 241. 252. 230. 90.
      0. 1. 3. 0. 0. 0. 0. 0. 0. 3. 1. 0. 2. 1. 67. 215. 255. 243. 90.
      0. 1. 0. 0. 0. 0. 0. 0. 4. 0. 0. 0. 3. 2. 51. 216. 255. 255. 66.
      0. 3. 0. 3. 2. 0. 0. 0. 0. 0. 1. 0. 0. 0. 19. 240. 255. 253. 253.
      2. 1. 0. 5. 0. 0. 0. 0. 0. 0. 0. 0. 4. 0. 0. 51. 255. 254. 240.
      19. 1. 2. 0. 0. 0. 3. 0. 0. 0. 0. 1. 0. 1. 0. 2. 255. 253. 255.
      78. 0. 0. 0. 0. 0. 0. 0. 0. 0. 0. 0. 2. 0. 0. 1. 113. 255. 255.
      254. 75. 0. 1. 0. 0. 1. 1. 0. 0. 0. 0. 0. 1. 0. 0. 127. 244. 255.
      255. 255. 200. 179. 177. 124. 2. 0. 0. 2. 0. 0. 1. 0. 0. 1. 2.
      173. 255. 253. 252. 254. 254. 255. 254. 249. 226. 69. 4. 0. 2. 2.
      0. 0. 0. 4. 0. 178. 254. 255. 255. 255. 255. 253. 255. 254. 255.
      255. 44. 1. 0. 0. 1. 1. 0. 0. 0. 178. 255. 255. 253. 217. 178.
      179. 182. 198. 255. 255. 255. 67. 2. 0. 0. 0. 2. 3. 0. 177. 255.
      254. 217. 65. 1. 2. 0. 38. 191. 254. 251. 232. 0. 1. 0. 1. 0. 0.
      0. 184. 255. 251. 181. 0. 0. 0. 4. 1. 128. 255. 254. 229. 0. 2. 0.
      0. 2. 1. 1. 173. 252. 255. 176. 0. 1. 1. 0. 0. 9. 190. 253. 252.
      164. 0. 0. 3. 0. 0. 0. 182. 255. 254. 186. 14. 0. 0. 1. 10. 139.
      253. 255. 252. 161. 0. 1. 0. 0. 0. 2. 178. 254. 255. 255. 165. 22.
      0. 81. 129. 254. 255. 255. 228. 0. 0. 0. 0. 3. 0. 0. 89. 245. 252.
      255. 255. 166. 131. 250. 255. 255. 254. 255. 116. 0. 0. 0. 0. 0.
      0. 1. 0. 70. 255. 255. 253. 255. 255. 255. 253. 255. 252. 92. 0.
      0. 0. 0. 0. 0. 2. 0. 1. 0. 28. 93. 255. 255. 251. 254. 255. 253.
      95. 9. 0. 0. 0. 0. 0.</_>
    <_>
      3.52941185e-001 4.11764711e-001 6.47058845e-001 3.52941185e-001
      4.70588237e-001 6.47058845e-001 8.23529422e-001 1. 1. 1.
      9.41176474e-001 9.41176474e-001 8.82352948e-001 8.82352948e-001
      8.23529422e-001 7.05882370e-001 5.88235319e-001 2.35294119e-001
      1.17647059e-001 3.52941185e-001 5.62500000e-001 5.62500000e-001
      5.62500000e-001 5.00000000e-001 6.25000000e-001 4.37500000e-001
      4.37500000e-001 5.00000000e-001 6.87500000e-001 8.12500000e-001
      9.37500000e-001 1. 8.12500000e-001 9.37500000e-001 6.87500000e-001
      7.50000000e-001 8.12500000e-001 8.12500000e-001 8.75000000e-001
      6.87500000e-001 0. 1. 1. 0. 2. 0. 2. 0. 0. 1. 0. 16. 43. 35. 25.
      0. 0. 0. 0. 0. 2. 0. 0. 3. 0. 0. 1. 0. 0. 0. 20. 177. 248. 253.
      91. 1. 0. 0. 0. 0. 0. 0. 1. 0. 2. 1. 0. 0. 3. 1. 200. 255. 255.
      245. 0. 0. 0. 0. 0. 0. 0. 3. 0. 0. 0. 0. 0. 2. 5. 219. 255. 252.
      246. 0. 0. 4. 0. 0. 0. 0. 1. 0. 2. 0. 2. 0. 0. 21. 180. 254. 255.
      215. 41. 3. 0. 0. 0. 0. 0. 0. 0. 0. 0. 0. 2. 0. 0. 66. 255. 254.
      229. 49. 0. 0. 1. 0. 0. 0. 0. 0. 1. 0. 0. 3. 0. 0. 0. 244. 255.
      255. 217. 0. 0. 0. 0. 1. 0. 0. 0. 0. 0. 0. 1. 0. 0. 3. 60. 255.
      254. 255. 0. 1. 2. 0. 0. 0. 0. 0. 0. 0. 0. 3. 0. 2. 0. 0. 244.
      255. 255. 254. 142. 138. 142. 0. 1. 0. 0. 0. 2. 0. 0. 0. 3. 0. 1.
      141. 254. 253. 255. 254. 254. 255. 254. 216. 144. 0. 1. 0. 0. 0.
      1. 2. 0. 0. 2. 167. 254. 255. 255. 254. 253. 255. 255. 254. 255.
      113. 5. 0. 0. 0. 0. 0. 3. 1. 0. 168. 254. 255. 190. 142. 142. 138.
      142. 255. 253. 255. 10. 1. 0. 1. 0. 2. 0. 1. 0. 164. 255. 207. 29.
      1. 0. 0. 0. 255. 255. 255. 13. 1. 0. 2. 2. 0. 2. 0. 2. 166. 255.
      187. 3. 0. 1. 2. 1. 14. 251. 255. 13. 0. 0. 1. 0. 0. 0. 1. 0. 170.
      252. 194. 0. 4. 0. 2. 0. 14. 255. 253. 13. 0. 0. 1. 1. 0. 1. 0. 0.
      164. 255. 233. 75. 0. 2. 0. 0. 169. 255. 255. 14. 0. 0. 1. 0. 0.
      1. 0. 0. 168. 254. 255. 248. 36. 2. 0. 184. 254. 255. 253. 12. 3.
      0. 0. 0. 1. 0. 0. 0. 0. 183. 253. 255. 255. 93. 255. 250. 255.
      253. 216. 8. 1. 0. 0. 0. 2. 1. 0. 2. 0. 0. 152. 255. 253. 254.
      255. 255. 247. 118. 39. 2. 0. 0. 1. 0. 0. 1. 0. 0. 1. 2. 9. 39.
      39. 223. 32. 41. 35. 0. 0. 0. 0. 1. 0.</_>
    <_>
      2.00000003e-001 1.50000006e-001 1.00000001e-001 1.00000001e-001
      3.00000012e-001 3.00000012e-001 2.50000000e-001 2.50000000e-001
      8.00000012e-001 8.50000024e-001 1. 1. 7.50000000e-001
      6.50000036e-001 6.50000036e-001 6.00000024e-001 0. 0. 0. 0.
      9.28571463e-001 1. 9.28571463e-001 1. 6.42857194e-001
      6.42857194e-001 6.42857194e-001 5.71428597e-001 4.28571463e-001
      4.28571463e-001 3.57142866e-001 5.00000000e-001 3.57142866e-001
      5.00000000e-001 3.57142866e-001 4.28571463e-001 3.57142866e-001
      4.28571463e-001 4.28571463e-001 4.28571463e-001 0. 0. 0. 1. 32.
      31. 172. 254. 228. 31. 32. 30. 255. 255. 113. 4. 0. 0. 0. 0. 1. 1.
      0. 0. 255. 255. 255. 255. 252. 255. 254. 255. 255. 255. 254. 115.
      0. 0. 0. 0. 0. 0. 1. 0. 255. 254. 253. 255. 255. 255. 255. 254.
      254. 253. 255. 253. 0. 0. 0. 0. 3. 0. 0. 5. 32. 28. 40. 30. 32.
      29. 29. 226. 255. 255. 253. 255. 0. 0. 0. 0. 0. 0. 2. 0. 3. 0. 0.
      0. 1. 0. 3. 28. 252. 255. 236. 29. 0. 0. 0. 0. 1. 2. 0. 0. 0. 1.
      0. 3. 0. 0. 59. 233. 255. 255. 97. 0. 0. 0. 0. 0. 0. 3. 0. 0. 0.
      0. 2. 0. 0. 1. 161. 255. 255. 255. 91. 5. 0. 0. 0. 0. 2. 0. 0. 0.
      2. 1. 0. 0. 0. 0. 159. 255. 255. 167. 18. 0. 0. 0. 0. 0. 0. 0. 0.
      0. 0. 0. 0. 0. 0. 14. 170. 255. 251. 139. 1. 0. 0. 0. 0. 0. 0. 0.
      0. 0. 0. 0. 0. 0. 4. 92. 255. 252. 222. 0. 0. 1. 0. 0. 0. 0. 0. 0.
      0. 0. 0. 0. 0. 0. 15. 197. 253. 255. 226. 0. 0. 0. 0. 0. 0. 0. 0.
      0. 0. 0. 0. 0. 0. 0. 34. 255. 255. 255. 25. 0. 1. 1. 0. 0. 0. 0.
      0. 0. 0. 0. 0. 0. 0. 0. 31. 255. 252. 255. 0. 1. 0. 0. 0. 0. 0. 0.
      0. 0. 0. 0. 0. 0. 0. 0. 116. 255. 255. 251. 1. 4. 0. 1. 0. 0. 0.
      0. 0. 0. 0. 0. 0. 0. 0. 0. 252. 255. 255. 255. 0. 1. 0. 0. 0. 0.
      0. 0. 0. 0. 0. 0. 0. 0. 0. 0. 255. 254. 255. 61. 0. 0. 1. 1. 0. 0.
      0. 0. 0. 0. 0. 0. 0. 0. 0. 0. 254. 254. 255. 32. 0. 0. 2. 0. 0. 0.
      0. 0. 0. 0. 0. 0. 0. 0. 0. 0. 255. 253. 255. 30. 1. 2. 0. 0. 0. 0.
      0. 0. 0. 0. 0. 0. 0. 0. 0. 0. 252. 255. 255. 32. 0. 0. 1. 1. 0. 0.
      0. 0. 0. 0. 0. 0. 0. 0. 0. 0. 255. 255. 112. 4. 1. 0. 0. 1. 0. 0.
      0. 0.</_>
    <_>
      2.50000000e-001 4.00000006e-001 3.00000012e-001 4.50000018e-001
      8.50000024e-001 9.00000036e-001 9.49999988e-001 9.49999988e-001
      6.50000036e-001 6.50000036e-001 6.00000024e-001 7.50000000e-001
      8.50000024e-001 1. 9.49999988e-001 8.50000024e-001 2.50000000e-001
      5.00000007e-002 1.00000001e-001 1.00000001e-001 6.66666687e-001
      7.33333349e-001 8.66666734e-001 6.00000024e-001 8.00000072e-001
      6.66666687e-001 6.66666687e-001 8.00000072e-001 9.33333397e-001
      8.00000072e-001 1. 8.66666734e-001 8.00000072e-001 8.66666734e-001
      7.33333349e-001 8.00000072e-001 7.33333349e-001 9.33333397e-001
      8.00000072e-001 7.33333349e-001 0. 2. 0. 0. 3. 0. 0. 40. 38. 38.
      39. 36. 39. 2. 0. 1. 0. 0. 0. 0. 0. 0. 4. 0. 1. 0. 111. 254. 254.
      254. 255. 255. 253. 114. 77. 0. 0. 0. 0. 0. 0. 1. 0. 2. 0. 126.
      248. 255. 255. 255. 90. 255. 255. 255. 165. 2. 0. 0. 0. 0. 0. 1.
      0. 0. 4. 171. 255. 190. 0. 0. 0. 0. 184. 250. 255. 86. 0. 0. 0. 0.
      1. 0. 0. 6. 148. 255. 254. 189. 0. 1. 0. 1. 1. 255. 255. 91. 0. 0.
      0. 0. 0. 0. 3. 14. 252. 255. 254. 194. 3. 0. 0. 0. 0. 255. 252.
      90. 0. 0. 0. 0. 1. 0. 0. 5. 97. 254. 255. 191. 0. 0. 0. 2. 0. 252.
      255. 85. 0. 0. 0. 0. 0. 3. 0. 0. 68. 233. 255. 206. 28. 2. 0. 29.
      205. 255. 251. 92. 0. 0. 0. 0. 2. 0. 0. 0. 3. 163. 255. 254. 193.
      140. 139. 192. 255. 254. 206. 39. 0. 0. 0. 1. 0. 0. 2. 0. 0. 28.
      242. 255. 252. 255. 255. 255. 255. 255. 168. 0. 0. 0. 1. 0. 0. 1.
      1. 0. 15. 175. 251. 255. 236. 218. 222. 253. 253. 252. 179. 15. 0.
      0. 1. 0. 0. 1. 0. 0. 88. 255. 255. 223. 61. 0. 18. 145. 228. 254.
      255. 88. 2. 0. 0. 0. 0. 0. 0. 10. 215. 251. 254. 47. 2. 0. 3. 0.
      48. 255. 253. 213. 9. 0. 0. 0. 0. 0. 1. 13. 254. 255. 255. 1. 0.
      0. 0. 1. 2. 249. 255. 255. 14. 1. 0. 0. 0. 4. 0. 12. 255. 252.
      254. 0. 0. 4. 0. 0. 1. 255. 254. 254. 12. 0. 0. 0. 0. 0. 0. 12.
      255. 255. 254. 2. 0. 0. 4. 1. 0. 255. 255. 147. 6. 0. 0. 1. 0. 1.
      0. 14. 255. 254. 255. 182. 0. 1. 0. 0. 181. 255. 255. 87. 0. 0. 0.
      0. 1. 0. 4. 0. 67. 236. 255. 253. 151. 65. 90. 255. 255. 253. 232.
      67. 0. 0. 0. 0. 0. 0. 0. 0. 1. 72. 249. 255. 255. 253. 255. 251.
      255. 250. 76. 2. 0. 0. 0. 0. 4. 0. 0. 0. 0. 2. 36. 254. 255. 255.
      254. 255. 254. 34. 1. 0. 0. 0. 0. 0.</_>
    <_>
      5.00000000e-001 2.50000000e-001 5.50000012e-001 4.00000006e-001
      9.00000036e-001 1. 1. 9.00000036e-001 6.00000024e-001
      8.50000024e-001 8.00000012e-001 7.50000000e-001 1. 1.
      9.00000036e-001 9.00000036e-001 0. 0. 0. 0. 8.66666734e-001
      7.33333349e-001 8.66666734e-001 8.66666734e-001 6.66666687e-001
      8.00000072e-001 6.66666687e-001 8.66666734e-001 9.33333397e-001
      8.00000072e-001 1. 9.33333397e-001 8.66666734e-001 7.33333349e-001
      6.66666687e-001 7.33333349e-001 8.00000072e-001 9.33333397e-001
      8.66666734e-001 8.00000072e-001 0. 1. 0. 1. 1. 1. 20. 225. 254.
      253. 255. 252. 227. 22. 0. 1. 0. 0. 0. 0. 0. 0. 2. 0. 0. 34. 196.
      255. 255. 254. 255. 255. 252. 191. 38. 0. 0. 0. 0. 0. 0. 0. 0. 6.
      19. 194. 253. 255. 95. 96. 90. 236. 255. 255. 194. 20. 0. 0. 0. 0.
      1. 2. 0. 0. 227. 255. 255. 60. 0. 1. 3. 26. 59. 255. 255. 30. 0.
      0. 0. 0. 0. 1. 0. 0. 255. 255. 255. 33. 0. 1. 0. 0. 4. 113. 255.
      62. 0. 0. 0. 0. 3. 0. 1. 0. 254. 255. 252. 32. 0. 2. 0. 2. 33.
      254. 254. 254. 0. 0. 0. 0. 0. 0. 0. 2. 255. 255. 255. 32. 0. 0. 1.
      0. 30. 255. 255. 115. 0. 0. 0. 0. 1. 0. 2. 0. 60. 255. 255. 227.
      1. 1. 1. 0. 229. 253. 255. 30. 0. 0. 0. 0. 1. 0. 1. 0. 28. 236.
      252. 255. 255. 255. 255. 254. 255. 255. 235. 27. 0. 0. 0. 0. 0. 0.
      1. 0. 0. 97. 255. 252. 252. 255. 251. 255. 255. 253. 94. 4. 0. 0.
      0. 0. 1. 1. 0. 1. 19. 194. 255. 254. 255. 253. 255. 255. 255. 255.
      197. 17. 0. 0. 0. 0. 1. 0. 1. 0. 226. 254. 255. 254. 27. 32. 32.
      31. 255. 253. 255. 32. 0. 0. 0. 0. 2. 0. 0. 221. 255. 255. 234.
      27. 2. 1. 1. 0. 31. 255. 255. 255. 0. 0. 0. 0. 0. 0. 4. 224. 252.
      254. 99. 0. 0. 0. 1. 3. 22. 194. 251. 255. 0. 0. 0. 0. 0. 0. 0.
      223. 255. 254. 95. 1. 0. 4. 0. 0. 21. 194. 255. 255. 0. 0. 0. 0.
      2. 0. 0. 224. 254. 255. 95. 0. 0. 0. 1. 1. 31. 255. 252. 255. 0.
      0. 0. 0. 2. 0. 2. 0. 255. 254. 255. 32. 0. 2. 0. 28. 255. 254.
      255. 31. 0. 0. 0. 0. 2. 0. 2. 0. 168. 255. 252. 115. 13. 91. 98.
      235. 255. 255. 195. 21. 0. 0. 0. 0. 0. 2. 1. 0. 12. 155. 255. 255.
      172. 255. 255. 254. 255. 192. 40. 0. 0. 0. 0. 0. 0. 0. 1. 0. 2.
      13. 170. 254. 253. 254. 255. 252. 228. 22. 0. 1. 0. 0. 0. 0.</_>
    <_>
      3.49999994e-001 3.49999994e-001 5.50000012e-001 3.49999994e-001
      7.50000000e-001 9.49999988e-001 1. 1. 8.00000012e-001
      7.50000000e-001 7.50000000e-001 7.50000000e-001 9.00000036e-001 1.
      9.49999988e-001 6.50000036e-001 3.00000012e-001 3.00000012e-001
      1.50000006e-001 2.00000003e-001 7.50000000e-001 6.87500000e-001
      8.12500000e-001 6.87500000e-001 6.25000000e-001 8.12500000e-001
      6.87500000e-001 8.12500000e-001 8.75000000e-001 8.12500000e-001
      8.75000000e-001 1. 8.75000000e-001 8.12500000e-001 9.37500000e-001
      8.75000000e-001 8.12500000e-001 8.75000000e-001 6.87500000e-001
      6.87500000e-001 0. 0. 2. 0. 0. 2. 28. 141. 255. 255. 232. 24. 27.
      27. 1. 1. 0. 0. 0. 0. 0. 0. 0. 0. 3. 95. 253. 255. 255. 255. 252.
      255. 254. 254. 24. 0. 0. 0. 0. 0. 1. 0. 4. 0. 114. 253. 255. 192.
      129. 128. 127. 164. 255. 255. 142. 0. 0. 0. 0. 0. 0. 2. 0. 1. 229.
      252. 255. 127. 0. 1. 0. 28. 164. 255. 253. 0. 0. 0. 0. 0. 3. 0. 0.
      3. 231. 255. 186. 13. 0. 0. 0. 0. 127. 255. 255. 207. 0. 0. 0. 0.
      0. 2. 1. 0. 227. 255. 186. 12. 2. 0. 3. 3. 126. 255. 252. 206. 0.
      0. 0. 0. 1. 2. 2. 0. 232. 255. 255. 128. 0. 3. 0. 0. 125. 255.
      255. 0. 0. 0. 0. 0. 0. 0. 0. 1. 115. 254. 255. 191. 128. 127. 130.
      128. 192. 255. 253. 2. 0. 0. 0. 0. 1. 0. 1. 0. 0. 254. 255. 255.
      255. 253. 255. 255. 255. 255. 254. 0. 0. 2. 0. 1. 0. 0. 2. 0. 2.
      48. 252. 253. 255. 255. 255. 254. 253. 255. 255. 0. 0. 4. 0. 0. 0.
      0. 0. 0. 23. 255. 253. 244. 227. 228. 229. 228. 243. 253. 255. 23.
      2. 0. 0. 5. 0. 7. 1. 0. 229. 250. 255. 126. 2. 2. 0. 3. 91. 230.
      254. 235. 54. 1. 2. 0. 1. 0. 0. 2. 230. 253. 255. 128. 0. 2. 1. 0.
      0. 178. 255. 255. 179. 1. 0. 2. 0. 0. 4. 0. 229. 255. 254. 128. 1.
      0. 0. 1. 3. 176. 255. 252. 179. 0. 5. 0. 2. 1. 0. 1. 226. 255.
      255. 126. 1. 0. 1. 0. 0. 182. 253. 255. 178. 1. 1. 0. 0. 0. 3. 0.
      208. 254. 255. 140. 8. 0. 2. 0. 14. 181. 255. 250. 160. 1. 0. 1.
      1. 0. 1. 0. 0. 254. 255. 255. 130. 7. 8. 76. 165. 255. 255. 229.
      0. 0. 0. 0. 0. 4. 0. 1. 1. 143. 250. 255. 254. 139. 141. 253. 255.
      251. 255. 116. 0. 0. 0. 0. 0. 0. 2. 0. 0. 8. 81. 165. 255. 255.
      252. 255. 255. 130. 75. 0. 0. 0. 0. 0. 0. 1. 0. 2. 0. 0. 2. 11.
      25. 24. 28. 23. 24. 12. 0. 1. 0. 0. 0. 0.</_>
    <_>
      2.50000000e-001 3.00000012e-001 4.00000006e-001 4.00000006e-001
      8.00000012e-001 9.49999988e-001 1. 9.49999988e-001 8.50000024e-001
      7.50000000e-001 6.00000024e-001 8.50000024e-001 9.49999988e-001 1.
      9.49999988e-001 6.00000024e-001 4.00000006e-001 3.00000012e-001
      2.50000000e-001 3.00000012e-001 6.25000000e-001 8.12500000e-001
      7.50000000e-001 7.50000000e-001 6.87500000e-001 5.62500000e-001
      7.50000000e-001 7.50000000e-001 8.12500000e-001 8.12500000e-001 1.
      8.75000000e-001 1. 8.75000000e-001 7.50000000e-001 8.12500000e-001
      9.37500000e-001 8.75000000e-001 8.12500000e-001 8.12500000e-001 0.
      0. 0. 0. 4. 1. 7. 27. 186. 253. 233. 25. 13. 2. 0. 0. 0. 0. 0. 0.
      0. 1. 2. 3. 0. 76. 129. 255. 255. 254. 255. 255. 165. 74. 8. 0. 0.
      0. 0. 0. 0. 0. 0. 0. 115. 254. 255. 254. 168. 130. 139. 255. 255.
      255. 139. 1. 0. 0. 0. 0. 0. 1. 0. 1. 230. 255. 255. 167. 20. 0.
      10. 127. 255. 252. 253. 0. 0. 0. 0. 0. 1. 0. 0. 0. 230. 253. 184.
      15. 3. 1. 0. 6. 139. 253. 255. 0. 0. 0. 0. 0. 0. 3. 0. 0. 233.
      254. 181. 0. 0. 0. 2. 0. 127. 255. 254. 228. 0. 0. 0. 0. 4. 0. 0.
      0. 226. 255. 200. 41. 1. 1. 0. 27. 167. 250. 254. 163. 0. 0. 0. 0.
      0. 0. 1. 1. 230. 253. 255. 189. 36. 3. 0. 76. 255. 255. 255. 0. 0.
      0. 0. 0. 0. 0. 0. 2. 67. 254. 255. 254. 200. 178. 178. 203. 255.
      255. 254. 0. 0. 0. 0. 2. 0. 0. 0. 0. 0. 255. 253. 255. 255. 252.
      255. 252. 254. 255. 255. 0. 0. 1. 4. 1. 0. 3. 0. 2. 21. 254. 255.
      255. 237. 232. 225. 238. 255. 252. 255. 22. 3. 0. 0. 3. 1. 0. 0.
      0. 233. 255. 253. 218. 53. 1. 0. 53. 217. 255. 254. 237. 51. 5. 0.
      0. 0. 2. 2. 2. 231. 254. 255. 128. 1. 0. 0. 4. 58. 216. 255. 254.
      178. 2. 0. 3. 3. 0. 1. 0. 229. 252. 200. 38. 2. 0. 1. 0. 2. 178.
      254. 254. 179. 0. 3. 0. 0. 2. 2. 0. 230. 255. 176. 1. 0. 0. 0. 1.
      0. 178. 255. 255. 179. 2. 0. 0. 1. 0. 1. 0. 230. 255. 254. 127. 0.
      3. 0. 0. 15. 184. 255. 255. 176. 2. 0. 0. 0. 0. 1. 0. 160. 255.
      253. 167. 74. 12. 0. 22. 169. 254. 255. 248. 126. 0. 2. 1. 0. 0.
      0. 2. 3. 138. 255. 255. 255. 134. 130. 166. 254. 255. 253. 115. 0.
      0. 1. 0. 0. 0. 0. 0. 0. 6. 131. 255. 255. 255. 255. 255. 255. 255.
      98. 0. 1. 3. 0. 2. 0. 0. 1. 1. 0. 0. 9. 23. 184. 255. 255. 255.
      136. 28. 2. 2. 0. 0. 2. 0.</_>
    <_>
      4.50000018e-001 4.50000018e-001 4.50000018e-001 3.49999994e-001
      6.99999988e-001 1. 1. 1. 8.00000012e-001 6.99999988e-001
      8.00000012e-001 7.50000000e-001 9.00000036e-001 9.49999988e-001
      9.49999988e-001 8.00000012e-001 3.00000012e-001 2.00000003e-001
      3.00000012e-001 1.50000006e-001 6.47058845e-001 7.64705896e-001
      7.05882370e-001 8.23529422e-001 7.64705896e-001 5.88235319e-001
      6.47058845e-001 7.05882370e-001 7.64705896e-001 8.82352948e-001
      7.05882370e-001 7.64705896e-001 7.64705896e-001 8.23529422e-001
      5.88235319e-001 8.23529422e-001 1. 8.23529422e-001 8.82352948e-001
      8.23529422e-001 0. 0. 0. 1. 0. 1. 8. 26. 24. 29. 23. 27. 25. 7. 0.
      1. 0. 0. 0. 0. 0. 5. 0. 1. 4. 5. 132. 255. 255. 253. 255. 253.
      255. 131. 7. 0. 0. 0. 0. 0. 2. 0. 1. 0. 0. 139. 255. 253. 253.
      255. 255. 254. 253. 252. 142. 0. 0. 0. 0. 0. 4. 0. 2. 0. 159. 255.
      255. 166. 78. 74. 77. 129. 255. 255. 254. 2. 0. 0. 0. 0. 0. 3. 1.
      0. 230. 255. 254. 127. 1. 1. 0. 10. 142. 255. 251. 207. 0. 0. 0.
      0. 2. 0. 0. 0. 232. 254. 186. 12. 0. 0. 1. 0. 126. 254. 255. 227.
      0. 0. 0. 0. 0. 1. 2. 0. 230. 252. 255. 128. 0. 1. 0. 0. 127. 255.
      253. 229. 0. 0. 0. 0. 1. 0. 0. 0. 229. 255. 255. 190. 37. 0. 1.
      38. 190. 255. 255. 114. 0. 0. 0. 0. 0. 1. 1. 0. 72. 255. 253. 255.
      200. 180. 179. 202. 253. 255. 255. 0. 0. 0. 0. 0. 0. 1. 0. 2. 0.
      254. 254. 253. 255. 255. 252. 255. 255. 255. 253. 1. 0. 0. 1. 2.
      2. 0. 0. 0. 0. 253. 255. 255. 236. 229. 233. 254. 255. 253. 255.
      21. 0. 0. 0. 0. 0. 2. 0. 0. 69. 255. 252. 215. 58. 0. 20. 182.
      213. 255. 254. 231. 0. 0. 2. 0. 0. 2. 0. 2. 230. 253. 254. 131. 0.
      0. 1. 0. 65. 218. 254. 242. 87. 3. 0. 0. 2. 2. 0. 0. 226. 255.
      255. 124. 2. 3. 0. 0. 2. 55. 239. 253. 180. 1. 0. 0. 0. 0. 2. 1.
      231. 253. 253. 130. 0. 0. 0. 0. 0. 0. 226. 255. 181. 0. 4. 0. 1.
      0. 0. 2. 227. 255. 255. 138. 8. 0. 2. 1. 0. 181. 254. 254. 176. 2.
      0. 0. 0. 1. 1. 0. 159. 255. 255. 254. 131. 5. 2. 1. 38. 199. 255.
      246. 126. 0. 2. 1. 2. 0. 0. 0. 4. 137. 252. 255. 254. 143. 125.
      128. 192. 255. 255. 230. 0. 0. 1. 0. 0. 0. 2. 0. 0. 11. 130. 255.
      255. 253. 255. 252. 255. 253. 254. 69. 1. 3. 0. 2. 1. 0. 2. 3. 0.
      2. 7. 28. 183. 255. 255. 253. 255. 96. 27. 0. 0. 0. 2. 0.</_>
    <_>
      4.11764711e-001 4.70588237e-001 4.11764711e-001 5.29411793e-001
      6.47058845e-001 7.05882370e-001 7.05882370e-001 1. 9.41176474e-001
      1. 8.23529422e-001 9.41176474e-001 7.64705896e-001 8.23529422e-001
      7.64705896e-001 4.11764711e-001 0. 0. 0. 0. 6.15384638e-001
      5.38461566e-001 6.92307711e-001 1. 9.23076987e-001 9.23076987e-001
      7.69230783e-001 7.69230783e-001 9.23076987e-001 8.46153855e-001 1.
      7.69230783e-001 6.15384638e-001 5.38461566e-001 6.15384638e-001
      6.92307711e-001 6.92307711e-001 6.15384638e-001 6.15384638e-001
      6.92307711e-001 0. 1. 0. 1. 1. 0. 0. 255. 255. 144. 0. 2. 0. 0. 1.
      0. 0. 0. 0. 0. 1. 0. 0. 0. 0. 1. 4. 69. 254. 163. 0. 0. 0. 0. 0.
      3. 0. 0. 0. 0. 0. 0. 4. 0. 0. 1. 0. 115. 254. 255. 253. 255. 117.
      2. 0. 0. 0. 0. 0. 0. 1. 1. 0. 0. 5. 0. 136. 255. 255. 253. 255.
      250. 255. 236. 7. 2. 0. 0. 0. 0. 0. 2. 0. 3. 0. 123. 255. 254.
      172. 133. 132. 175. 254. 254. 125. 0. 0. 0. 0. 0. 3. 0. 1. 3. 3.
      252. 255. 218. 0. 2. 0. 0. 228. 255. 251. 6. 0. 0. 0. 0. 0. 1. 1.
      0. 118. 255. 255. 0. 0. 1. 2. 0. 218. 254. 255. 0. 0. 0. 0. 0. 0.
      0. 0. 1. 108. 253. 255. 29. 1. 0. 0. 12. 226. 255. 255. 0. 0. 0.
      0. 0. 0. 2. 0. 0. 1. 255. 253. 247. 174. 0. 2. 197. 255. 255. 254.
      1. 0. 0. 0. 0. 0. 0. 2. 0. 0. 2. 231. 255. 253. 255. 254. 255.
      255. 255. 199. 0. 0. 0. 0. 0. 3. 0. 0. 1. 1. 0. 37. 255. 255. 255.
      254. 253. 255. 254. 10. 2. 0. 0. 0. 0. 0. 1. 3. 0. 0. 2. 0. 1. 0.
      2. 134. 255. 253. 220. 2. 0. 0. 0. 0. 0. 0. 0. 0. 0. 2. 0. 2. 1.
      2. 0. 174. 254. 254. 148. 0. 0. 0. 0. 0. 0. 2. 0. 0. 2. 0. 0. 0.
      0. 1. 25. 221. 255. 255. 0. 0. 0. 0. 0. 0. 0. 1. 0. 0. 0. 3. 0. 2.
      0. 0. 248. 255. 255. 37. 0. 0. 2. 0. 0. 0. 0. 0. 0. 1. 1. 0. 2. 0.
      16. 217. 253. 255. 82. 0. 0. 2. 0. 0. 0. 0. 0. 1. 2. 0. 3. 0. 0.
      0. 255. 255. 254. 56. 2. 0. 0. 1. 0. 0. 0. 0. 0. 0. 0. 0. 0. 1. 0.
      1. 115. 254. 96. 24. 0. 0. 2. 0. 1. 0. 0. 0. 0. 0. 4. 4. 0. 0. 1.
      0. 255. 255. 200. 0. 3. 0. 3. 0. 0. 0. 0. 0. 0. 0. 0. 0. 3. 1. 1.
      0. 255. 254. 195. 0. 2. 0. 1. 3. 0. 0. 0. 0. 0.</_>
    <_>
      3.33333343e-001 5.55555582e-001 5.55555582e-001 3.33333343e-001
      7.22222209e-001 7.22222209e-001 7.77777791e-001 9.44444478e-001
      8.88888896e-001 8.33333313e-001 8.33333313e-001 1. 9.44444478e-001
      9.44444478e-001 1. 8.33333313e-001 5.00000000e-001 2.77777791e-001
      3.88888896e-001 2.77777791e-001 8.66666734e-001 1. 1.
      9.33333397e-001 8.00000072e-001 8.66666734e-001 8.66666734e-001
      9.33333397e-001 9.33333397e-001 9.33333397e-001 1. 8.66666734e-001
      6.66666687e-001 7.33333349e-001 7.33333349e-001 8.00000072e-001
      6.00000024e-001 6.66666687e-001 6.66666687e-001 5.33333361e-001 0.
      3. 0. 0. 2. 0. 6. 29. 186. 255. 255. 255. 255. 255. 254. 0. 0. 0.
      2. 1. 3. 0. 4. 0. 1. 9. 129. 253. 255. 255. 254. 250. 255. 255.
      255. 68. 0. 2. 0. 0. 0. 1. 0. 3. 0. 137. 255. 255. 255. 137. 130.
      132. 192. 255. 255. 243. 87. 3. 0. 0. 0. 0. 2. 0. 2. 255. 254.
      252. 128. 8. 1. 0. 38. 199. 255. 255. 178. 0. 1. 0. 1. 2. 0. 0.
      205. 254. 252. 144. 10. 0. 0. 1. 0. 19. 232. 255. 183. 0. 0. 0. 0.
      1. 0. 1. 226. 255. 255. 126. 0. 4. 0. 3. 1. 0. 232. 253. 174. 0.
      2. 0. 3. 0. 0. 3. 230. 255. 253. 128. 1. 0. 0. 1. 0. 57. 240. 254.
      181. 0. 1. 0. 0. 0. 1. 0. 228. 255. 255. 191. 37. 1. 1. 0. 0. 178.
      253. 255. 177. 2. 0. 1. 0. 1. 2. 0. 69. 255. 254. 255. 199. 182.
      0. 54. 180. 234. 253. 255. 177. 0. 0. 0. 0. 0. 0. 3. 0. 45. 255.
      255. 255. 253. 230. 239. 250. 253. 255. 255. 180. 0. 0. 2. 1. 3.
      0. 1. 2. 1. 71. 226. 246. 253. 255. 253. 255. 255. 254. 230. 0. 0.
      0. 0. 0. 1. 2. 0. 0. 0. 0. 2. 125. 183. 178. 201. 254. 255. 251.
      229. 0. 0. 3. 3. 0. 1. 1. 0. 4. 1. 0. 0. 0. 0. 0. 36. 191. 255.
      255. 229. 2. 0. 0. 0. 0. 0. 0. 0. 0. 1. 3. 1. 0. 0. 3. 52. 219.
      255. 250. 73. 0. 0. 2. 3. 0. 1. 1. 0. 3. 0. 2. 0. 0. 2. 24. 236.
      255. 254. 52. 0. 0. 1. 0. 0. 3. 0. 1. 0. 0. 0. 0. 1. 3. 0. 255.
      255. 255. 237. 23. 1. 0. 1. 1. 0. 0. 0. 0. 2. 0. 0. 4. 0. 56. 74.
      255. 253. 219. 54. 2. 0. 0. 0. 0. 0. 0. 0. 2. 0. 0. 7. 0. 2. 177.
      255. 255. 219. 59. 3. 0. 1. 0. 0. 0. 0. 1. 0. 1. 0. 2. 0. 0. 87.
      233. 255. 235. 55. 1. 0. 1. 0. 0. 0. 0. 0. 0. 1. 0. 0. 2. 0. 0.
      132. 255. 249. 24. 2. 1. 0. 0. 0. 0. 0. 0. 0.</_>
    <_>
      5.55555582e-001 3.88888896e-001 3.88888896e-001 5.55555582e-001
      7.22222209e-001 7.22222209e-001 9.44444478e-001 8.88888896e-001
      8.88888896e-001 8.88888896e-001 7.77777791e-001 1. 1. 1. 1.
      8.88888896e-001 4.44444448e-001 2.77777791e-001 3.33333343e-001
      3.33333343e-001 8.12500000e-001 1. 8.12500000e-001 1.
      9.37500000e-001 7.50000000e-001 7.50000000e-001 8.12500000e-001
      9.37500000e-001 1. 8.75000000e-001 8.75000000e-001 6.25000000e-001
      7.50000000e-001 6.87500000e-001 6.87500000e-001 6.87500000e-001
      5.00000000e-001 5.62500000e-001 6.87500000e-001 0. 1. 0. 0. 1. 0.
      10. 25. 185. 255. 253. 255. 138. 26. 5. 0. 0. 2. 1. 0. 1. 0. 1. 2.
      0. 78. 128. 255. 255. 255. 255. 255. 252. 255. 92. 2. 0. 2. 0. 5.
      0. 0. 0. 0. 114. 253. 255. 254. 254. 140. 126. 166. 255. 255. 255.
      114. 0. 0. 1. 0. 2. 0. 0. 1. 229. 255. 250. 255. 131. 6. 5. 19.
      167. 255. 252. 248. 128. 0. 0. 1. 0. 1. 3. 0. 233. 253. 255. 140.
      8. 1. 0. 2. 11. 185. 255. 255. 175. 0. 5. 0. 6. 0. 0. 0. 228. 255.
      179. 0. 0. 3. 0. 1. 3. 176. 255. 255. 179. 1. 0. 0. 0. 0. 0. 2.
      229. 255. 198. 45. 2. 0. 2. 0. 0. 179. 255. 255. 178. 0. 0. 4. 0.
      1. 1. 0. 229. 254. 255. 188. 36. 3. 0. 0. 3. 178. 255. 255. 180.
      0. 0. 0. 1. 1. 0. 1. 228. 255. 255. 254. 76. 1. 0. 57. 176. 233.
      255. 255. 177. 0. 0. 0. 1. 0. 0. 1. 21. 255. 252. 255. 234. 233.
      228. 237. 254. 255. 255. 254. 180. 0. 0. 2. 1. 0. 0. 1. 1. 22.
      231. 240. 255. 251. 255. 255. 255. 255. 254. 229. 0. 0. 0. 0. 0.
      1. 0. 3. 0. 0. 2. 90. 181. 178. 182. 199. 254. 253. 255. 228. 0.
      0. 3. 3. 0. 0. 2. 0. 1. 2. 2. 0. 0. 0. 0. 77. 255. 255. 253. 230.
      2. 0. 0. 0. 1. 4. 0. 2. 0. 0. 0. 2. 0. 2. 0. 76. 253. 253. 255.
      70. 0. 0. 2. 3. 0. 0. 0. 3. 0. 2. 3. 0. 4. 0. 24. 234. 255. 255.
      46. 1. 0. 1. 0. 0. 1. 1. 0. 0. 2. 0. 0. 2. 0. 0. 255. 255. 252.
      238. 25. 0. 0. 1. 1. 0. 2. 0. 1. 0. 2. 0. 2. 0. 55. 75. 255. 255.
      216. 53. 2. 0. 0. 0. 0. 0. 0. 0. 4. 0. 0. 0. 0. 64. 218. 254. 255.
      218. 65. 0. 0. 1. 0. 0. 0. 0. 3. 0. 0. 0. 0. 0. 4. 126. 255. 255.
      240. 52. 0. 0. 3. 1. 0. 0. 0. 0. 0. 0. 1. 2. 0. 1. 69. 241. 255.
      252. 21. 3. 1. 2. 0. 0. 0. 0. 0. 0.</_>
    <_>
      4.44444448e-001 5.00000000e-001 3.88888896e-001 6.11111104e-001
      7.22222209e-001 7.22222209e-001 1. 7.77777791e-001 8.33333313e-001
      8.88888896e-001 9.44444478e-001 8.88888896e-001 1. 8.88888896e-001
      9.44444478e-001 7.77777791e-001 0. 0. 0. 0. 7.85714328e-001
      9.28571463e-001 1. 8.57142925e-001 7.85714328e-001 7.85714328e-001
      7.85714328e-001 7.85714328e-001 1. 1. 8.57142925e-001
      7.85714328e-001 7.85714328e-001 5.71428597e-001 6.42857194e-001
      6.42857194e-001 8.57142925e-001 7.14285731e-001 6.42857194e-001
      6.42857194e-001 0. 2. 1. 0. 0. 16. 31. 227. 255. 255. 255. 255.
      32. 21. 0. 0. 0. 0. 0. 0. 0. 0. 0. 2. 14. 151. 255. 255. 254. 255.
      254. 255. 255. 192. 36. 1. 0. 0. 0. 0. 1. 4. 0. 0. 172. 255. 254.
      255. 235. 96. 95. 235. 255. 255. 195. 20. 0. 0. 0. 0. 0. 0. 3. 1.
      254. 255. 254. 59. 27. 0. 0. 31. 255. 254. 255. 33. 0. 0. 0. 0. 3.
      0. 0. 221. 255. 255. 93. 0. 2. 3. 0. 0. 28. 253. 255. 251. 0. 0.
      0. 0. 0. 4. 0. 225. 254. 252. 102. 0. 0. 0. 1. 5. 32. 255. 251.
      255. 0. 0. 0. 0. 1. 0. 1. 226. 255. 255. 94. 0. 3. 0. 0. 0. 34.
      253. 255. 254. 0. 0. 0. 0. 0. 3. 0. 27. 255. 255. 235. 28. 0. 0.
      2. 0. 227. 255. 255. 255. 0. 0. 0. 0. 0. 2. 2. 0. 229. 255. 255.
      255. 227. 32. 30. 229. 255. 253. 255. 227. 0. 0. 0. 0. 4. 0. 0. 5.
      19. 194. 254. 254. 255. 252. 255. 252. 253. 255. 255. 31. 0. 0. 0.
      0. 0. 0. 2. 0. 0. 37. 98. 236. 254. 254. 255. 255. 255. 252. 252.
      34. 0. 0. 0. 0. 1. 1. 0. 0. 0. 0. 0. 28. 33. 30. 32. 225. 254.
      255. 116. 4. 0. 0. 0. 0. 0. 1. 0. 1. 1. 1. 2. 0. 0. 3. 17. 228.
      255. 252. 94. 0. 0. 0. 0. 0. 2. 0. 0. 0. 0. 0. 0. 0. 0. 2. 159.
      255. 253. 220. 62. 2. 0. 0. 0. 0. 0. 0. 3. 1. 0. 0. 1. 1. 0. 57.
      222. 254. 235. 60. 0. 0. 0. 0. 0. 0. 0. 0. 0. 0. 2. 0. 1. 0. 30.
      234. 255. 254. 30. 0. 1. 1. 0. 0. 0. 0. 2. 0. 1. 2. 0. 1. 22. 32.
      255. 255. 235. 221. 0. 1. 0. 1. 0. 0. 0. 0. 0. 3. 0. 0. 3. 0. 159.
      252. 253. 255. 97. 2. 3. 0. 2. 0. 0. 0. 0. 0. 0. 3. 0. 0. 1. 0.
      160. 255. 255. 194. 35. 0. 1. 0. 4. 0. 0. 0. 0. 0. 2. 0. 0. 2. 0.
      0. 19. 32. 30. 20. 1. 1. 0. 0. 1. 0. 0. 0. 0. 0.</_>
    <_>
      4.70588237e-001 4.11764711e-001 4.70588237e-001 7.64705896e-001
      7.05882370e-001 8.82352948e-001 8.82352948e-001 9.41176474e-001
      8.82352948e-001 9.41176474e-001 8.82352948e-001 8.82352948e-001 1.
      1. 1. 7.64705896e-001 4.70588237e-001 5.29411793e-001
      2.94117659e-001 2.94117659e-001 8.75000000e-001 8.12500000e-001
      9.37500000e-001 8.75000000e-001 7.50000000e-001 8.75000000e-001
      8.75000000e-001 8.12500000e-001 1. 9.37500000e-001 8.12500000e-001
      8.12500000e-001 5.62500000e-001 8.12500000e-001 5.62500000e-001
      7.50000000e-001 6.25000000e-001 6.25000000e-001 5.62500000e-001
      5.00000000e-001 1. 0. 0. 2. 0. 3. 95. 255. 255. 253. 255. 254.
      255. 94. 27. 0. 0. 1. 0. 1. 0. 0. 2. 0. 0. 95. 253. 255. 255. 255.
      252. 255. 254. 255. 253. 0. 0. 2. 1. 0. 1. 0. 0. 2. 111. 253. 255.
      190. 125. 130. 127. 168. 251. 255. 255. 116. 0. 1. 0. 0. 0. 2. 0.
      128. 248. 253. 199. 36. 2. 1. 0. 25. 169. 253. 255. 226. 0. 0. 0.
      4. 0. 0. 0. 175. 255. 255. 179. 1. 0. 3. 0. 0. 11. 190. 252. 255.
      164. 0. 1. 0. 1. 0. 1. 175. 255. 251. 176. 2. 0. 0. 0. 0. 2. 176.
      255. 253. 174. 1. 2. 0. 0. 1. 2. 180. 255. 255. 179. 0. 0. 3. 0.
      0. 37. 203. 254. 255. 180. 2. 0. 2. 1. 0. 1. 176. 255. 255. 217.
      64. 0. 0. 1. 0. 129. 253. 255. 254. 180. 0. 0. 0. 0. 0. 0. 54.
      238. 252. 255. 219. 181. 175. 182. 178. 218. 253. 255. 234. 52. 3.
      0. 1. 0. 2. 2. 0. 24. 255. 255. 251. 252. 255. 255. 252. 255. 255.
      254. 232. 3. 0. 0. 0. 1. 0. 0. 0. 0. 27. 226. 245. 255. 230. 255.
      255. 253. 253. 254. 1. 0. 3. 0. 0. 0. 2. 4. 0. 1. 0. 0. 89. 179.
      16. 186. 255. 255. 255. 255. 0. 1. 3. 0. 0. 1. 0. 0. 2. 0. 2. 0.
      0. 3. 0. 29. 255. 253. 255. 255. 0. 0. 0. 0. 0. 0. 0. 1. 2. 0. 2.
      2. 0. 1. 0. 26. 255. 254. 255. 90. 4. 4. 0. 2. 0. 0. 0. 0. 0. 4.
      0. 0. 2. 0. 2. 230. 254. 255. 93. 5. 0. 0. 0. 0. 1. 0. 3. 0. 1. 0.
      0. 0. 0. 16. 233. 255. 255. 239. 69. 1. 1. 0. 3. 1. 0. 2. 0. 2. 0.
      0. 3. 0. 38. 201. 255. 254. 230. 91. 0. 0. 2. 0. 0. 0. 0. 0. 1. 0.
      1. 3. 0. 42. 192. 255. 254. 241. 94. 0. 0. 1. 0. 0. 0. 0. 0. 0. 2.
      0. 0. 1. 1. 73. 255. 254. 254. 69. 0. 0. 0. 0. 3. 0. 0. 0. 0. 2.
      0. 0. 1. 0. 0. 78. 254. 255. 49. 0. 1. 0. 4. 0. 0. 0. 0. 0. 0.</_>
    <_>
      2.00000003e-001 3.00000012e-001 2.50000000e-001 2.50000000e-001
      2.50000000e-001 4.50000018e-001 4.50000018e-001 6.00000024e-001
      7.50000000e-001 8.50000024e-001 8.00000012e-001 1. 8.50000024e-001
      9.00000036e-001 6.50000036e-001 4.00000006e-001 0. 0. 0. 0.
      5.00000000e-001 3.57142866e-001 4.28571463e-001 2.14285731e-001
      3.57142866e-001 4.28571463e-001 4.28571463e-001 4.28571463e-001
      6.42857194e-001 7.85714328e-001 7.14285731e-001 8.57142925e-001
      7.85714328e-001 7.85714328e-001 8.57142925e-001 8.57142925e-001
      8.57142925e-001 1. 8.57142925e-001 6.42857194e-001 0. 0. 0. 0. 0.
      0. 0. 0. 0. 163. 253. 255. 255. 254. 53. 1. 0. 0. 0. 0. 0. 0. 0.
      0. 0. 0. 0. 0. 0. 0. 255. 255. 252. 192. 19. 0. 0. 0. 0. 0. 0. 0.
      0. 0. 0. 0. 0. 0. 0. 1. 252. 253. 3. 4. 0. 2. 0. 0. 0. 0. 0. 0. 0.
      0. 0. 0. 0. 0. 0. 204. 255. 254. 0. 0. 0. 0. 0. 0. 0. 0. 0. 0. 0.
      0. 0. 0. 0. 0. 0. 203. 255. 255. 0. 2. 3. 0. 0. 0. 0. 0. 0. 0. 0.
      0. 0. 0. 0. 0. 104. 255. 252. 255. 52. 0. 0. 1. 0. 0. 0. 0. 0. 0.
      0. 0. 0. 0. 0. 0. 194. 255. 255. 252. 252. 3. 0. 0. 0. 0. 0. 0. 0.
      0. 0. 0. 0. 0. 0. 0. 254. 255. 254. 255. 255. 1. 0. 0. 0. 0. 0. 0.
      0. 0. 0. 0. 1. 0. 0. 104. 254. 254. 255. 255. 253. 152. 0. 1. 0.
      0. 0. 0. 2. 1. 0. 0. 0. 2. 0. 251. 255. 254. 252. 255. 255. 151.
      3. 0. 0. 0. 0. 0. 0. 0. 1. 0. 0. 1. 0. 255. 253. 255. 49. 255.
      255. 153. 0. 2. 0. 0. 0. 0. 0. 4. 0. 1. 1. 0. 92. 255. 255. 131.
      20. 193. 252. 215. 30. 0. 0. 0. 0. 0. 0. 0. 1. 2. 0. 4. 155. 251.
      255. 47. 0. 156. 255. 255. 49. 0. 0. 0. 0. 0. 2. 0. 2. 0. 0. 0.
      150. 255. 255. 54. 0. 149. 255. 254. 50. 2. 0. 0. 0. 0. 0. 1. 0.
      3. 0. 43. 234. 255. 254. 48. 40. 235. 255. 255. 212. 0. 0. 0. 0.
      0. 0. 1. 0. 0. 1. 54. 252. 255. 255. 255. 254. 254. 254. 254. 255.
      0. 0. 0. 0. 0. 1. 0. 0. 2. 0. 173. 255. 255. 255. 252. 255. 254.
      255. 252. 255. 0. 0. 0. 0. 0. 0. 2. 1. 0. 3. 255. 255. 251. 255.
      255. 53. 252. 253. 255. 253. 1. 0. 0. 0. 0. 0. 5. 0. 1. 2. 250.
      255. 255. 91. 0. 0. 2. 153. 255. 255. 120. 0. 0. 0. 0. 2. 0. 2. 0.
      0. 93. 254. 48. 2. 0. 0. 1. 0. 254. 255. 0. 0. 0. 0. 0.</_>
    <_>
      5.78947365e-001 3.68421048e-001 4.21052635e-001 2.63157904e-001
      6.31578922e-001 8.42105269e-001 8.42105269e-001 1. 9.47368443e-001
      8.42105269e-001 8.94736826e-001 9.47368443e-001 8.94736826e-001
      8.42105269e-001 5.78947365e-001 5.26315808e-001 2.10526317e-001
      1.05263159e-001 1.05263159e-001 0. 6.66666687e-001 6.66666687e-001
      6.66666687e-001 6.00000024e-001 7.33333349e-001 6.00000024e-001
      7.33333349e-001 6.66666687e-001 8.66666734e-001 6.66666687e-001
      6.00000024e-001 7.33333349e-001 7.33333349e-001 9.33333397e-001
      9.33333397e-001 8.66666734e-001 1. 1. 6.00000024e-001
      7.33333349e-001 0. 2. 0. 0. 0. 2. 2. 63. 252. 255. 251. 139. 2. 0.
      0. 3. 0. 0. 0. 0. 2. 0. 0. 0. 2. 1. 0. 151. 255. 252. 254. 143. 0.
      1. 1. 0. 0. 0. 0. 0. 0. 0. 3. 0. 0. 2. 2. 255. 255. 255. 255. 139.
      2. 0. 3. 0. 0. 0. 0. 0. 1. 0. 0. 1. 0. 0. 0. 255. 254. 252. 255.
      255. 62. 3. 0. 0. 0. 0. 0. 0. 0. 0. 0. 2. 2. 3. 3. 252. 255. 254.
      255. 252. 63. 2. 0. 0. 0. 0. 0. 0. 1. 1. 1. 0. 0. 0. 0. 255. 253.
      255. 255. 255. 188. 0. 0. 0. 0. 0. 0. 0. 1. 0. 0. 0. 3. 2. 0. 255.
      254. 254. 254. 255. 254. 2. 2. 0. 0. 0. 0. 0. 0. 1. 2. 0. 0. 0. 3.
      254. 255. 255. 255. 255. 255. 0. 0. 1. 0. 0. 0. 0. 1. 0. 4. 0. 1.
      1. 130. 255. 255. 255. 136. 254. 254. 135. 0. 1. 0. 0. 0. 0. 0. 5.
      0. 0. 0. 0. 242. 255. 255. 70. 6. 137. 255. 238. 3. 0. 0. 0. 0. 0.
      0. 0. 3. 0. 0. 166. 255. 255. 113. 1. 0. 112. 254. 244. 0. 0. 0.
      0. 0. 0. 2. 1. 0. 2. 0. 167. 255. 252. 119. 0. 2. 114. 255. 240.
      0. 0. 0. 0. 0. 0. 0. 2. 0. 0. 70. 233. 253. 208. 26. 1. 1. 115.
      252. 242. 0. 0. 0. 0. 0. 0. 1. 0. 3. 0. 84. 255. 255. 255. 255.
      49. 48. 255. 255. 255. 165. 1. 0. 0. 0. 0. 1. 0. 0. 4. 91. 255.
      251. 255. 254. 255. 255. 254. 255. 253. 199. 30. 0. 0. 0. 0. 1. 0.
      0. 0. 89. 253. 255. 253. 253. 255. 253. 255. 255. 254. 255. 88. 0.
      0. 0. 0. 0. 0. 2. 0. 88. 255. 255. 190. 12. 12. 15. 122. 255. 255.
      254. 88. 3. 0. 1. 0. 1. 2. 0. 3. 87. 254. 255. 3. 2. 0. 0. 3. 0.
      192. 255. 255. 10. 1. 1. 0. 1. 0. 0. 0. 89. 254. 255. 0. 0. 0. 0.
      0. 0. 14. 254. 255. 14. 1. 0. 0. 0. 0. 4. 0. 93. 255. 46. 2. 0. 0.
      1. 0. 2. 10. 255. 255. 13. 0. 0. 0.</_>
    <_>
      4.73684222e-001 4.73684222e-001 4.73684222e-001 5.78947365e-001
      5.26315808e-001 6.31578922e-001 7.89473712e-001 1. 1.
      7.89473712e-001 1. 9.47368443e-001 1. 7.89473712e-001
      6.84210539e-001 5.78947365e-001 0. 0. 0. 0. 7.14285731e-001
      7.14285731e-001 6.42857194e-001 6.42857194e-001 7.14285731e-001
      7.14285731e-001 5.71428597e-001 8.57142925e-001 8.57142925e-001
      8.57142925e-001 9.28571463e-001 7.14285731e-001 7.14285731e-001
      9.28571463e-001 1. 9.28571463e-001 1. 9.28571463e-001
      8.57142925e-001 6.42857194e-001 0. 0. 1. 1. 0. 3. 0. 1. 21. 225.
      253. 154. 11. 1. 0. 0. 0. 0. 0. 0. 1. 1. 0. 1. 1. 0. 0. 0. 139.
      255. 255. 255. 61. 0. 0. 4. 0. 0. 0. 0. 0. 2. 0. 0. 0. 1. 0. 2.
      141. 255. 255. 254. 63. 2. 0. 0. 0. 0. 0. 0. 0. 2. 0. 0. 4. 0. 0.
      65. 254. 255. 254. 255. 63. 0. 2. 0. 0. 0. 0. 0. 0. 0. 4. 1. 0. 0.
      2. 62. 255. 255. 255. 248. 131. 0. 0. 2. 0. 0. 0. 0. 2. 2. 0. 0.
      0. 0. 2. 65. 255. 252. 255. 255. 255. 0. 1. 0. 0. 0. 0. 0. 0. 0.
      0. 1. 2. 0. 0. 66. 255. 254. 255. 255. 253. 0. 0. 0. 0. 0. 0. 0.
      0. 0. 3. 1. 0. 1. 64. 254. 254. 255. 253. 255. 255. 59. 2. 0. 0.
      0. 0. 0. 0. 1. 1. 0. 2. 0. 238. 255. 254. 255. 255. 252. 255. 242.
      0. 1. 0. 0. 0. 0. 1. 1. 0. 1. 0. 0. 244. 251. 255. 255. 71. 255.
      255. 241. 3. 0. 0. 0. 0. 0. 1. 1. 0. 0. 1. 2. 240. 255. 233. 219.
      36. 253. 255. 245. 0. 1. 0. 0. 0. 0. 1. 0. 0. 4. 0. 0. 242. 255.
      117. 0. 21. 194. 255. 244. 76. 0. 0. 0. 0. 0. 0. 0. 3. 0. 0. 128.
      254. 255. 116. 0. 5. 111. 255. 255. 167. 0. 0. 0. 0. 0. 2. 0. 4.
      0. 0. 163. 253. 255. 122. 4. 1. 113. 255. 253. 168. 5. 0. 0. 0. 0.
      1. 1. 0. 2. 0. 167. 255. 253. 253. 117. 86. 167. 255. 255. 253.
      90. 0. 0. 0. 0. 0. 0. 1. 0. 60. 223. 255. 255. 255. 255. 254. 255.
      252. 255. 255. 88. 0. 0. 0. 0. 0. 0. 2. 2. 87. 254. 255. 254. 254.
      255. 255. 253. 255. 254. 254. 90. 0. 0. 0. 0. 3. 1. 0. 1. 90. 255.
      254. 241. 88. 0. 0. 86. 238. 255. 255. 88. 0. 0. 0. 0. 0. 0. 4. 2.
      87. 254. 255. 188. 1. 0. 1. 0. 89. 253. 254. 87. 0. 0. 0. 0. 1. 0.
      0. 0. 89. 254. 48. 32. 0. 0. 2. 0. 0. 50. 255. 91. 0. 0. 0. 0.</_>
    <_>
      4.00000006e-001 4.00000006e-001 4.50000018e-001 3.49999994e-001
      7.50000000e-001 1. 1. 8.00000012e-001 7.50000000e-001
      7.50000000e-001 8.00000012e-001 7.50000000e-001 9.49999988e-001
      9.49999988e-001 9.49999988e-001 5.50000012e-001 0. 0. 0. 0.
      9.33333397e-001 8.66666734e-001 8.00000072e-001 1. 8.66666734e-001
      6.66666687e-001 6.00000024e-001 8.00000072e-001 7.33333349e-001
      8.66666734e-001 9.33333397e-001 8.00000072e-001 6.66666687e-001
      6.00000024e-001 6.66666687e-001 7.33333349e-001 6.66666687e-001
      7.33333349e-001 8.00000072e-001 7.33333349e-001 1. 0. 1. 0. 1. 52.
      48. 53. 50. 51. 255. 252. 255. 254. 254. 206. 0. 0. 0. 0. 0. 0. 3.
      0. 4. 255. 254. 254. 254. 255. 255. 253. 255. 255. 131. 80. 0. 0.
      0. 0. 0. 4. 0. 1. 0. 255. 255. 254. 255. 255. 252. 255. 252. 254.
      54. 0. 0. 0. 0. 0. 1. 0. 2. 1. 206. 254. 250. 255. 154. 153. 175.
      254. 255. 254. 49. 1. 0. 0. 0. 0. 1. 2. 0. 0. 204. 255. 255. 50.
      0. 1. 9. 169. 255. 255. 50. 1. 0. 0. 0. 0. 0. 0. 3. 0. 203. 251.
      254. 0. 3. 2. 0. 0. 255. 255. 92. 2. 0. 0. 0. 0. 0. 2. 0. 0. 208.
      255. 251. 4. 0. 0. 3. 0. 253. 255. 255. 0. 0. 0. 0. 0. 1. 0. 0. 1.
      1. 251. 255. 0. 1. 0. 1. 152. 255. 252. 255. 1. 0. 0. 0. 0. 0. 0.
      0. 0. 2. 255. 254. 255. 197. 221. 255. 255. 255. 253. 53. 0. 0. 0.
      0. 0. 2. 0. 2. 0. 2. 253. 255. 253. 253. 255. 255. 253. 255. 255.
      53. 0. 0. 0. 0. 0. 0. 2. 0. 3. 42. 255. 255. 255. 233. 203. 255.
      251. 254. 253. 49. 3. 0. 0. 0. 0. 5. 0. 0. 0. 204. 253. 253. 255.
      61. 1. 98. 196. 255. 255. 175. 0. 0. 0. 0. 0. 0. 2. 3. 0. 205.
      255. 253. 1. 0. 4. 0. 0. 255. 253. 254. 0. 0. 0. 0. 0. 0. 0. 2. 0.
      1. 255. 252. 0. 1. 0. 0. 0. 1. 253. 255. 203. 0. 0. 0. 0. 0. 2. 0.
      1. 0. 255. 255. 1. 0. 1. 1. 0. 0. 255. 249. 206. 0. 0. 0. 0. 1. 0.
      2. 1. 1. 254. 254. 0. 0. 0. 0. 1. 52. 255. 254. 1. 0. 0. 0. 0. 0.
      2. 0. 0. 0. 255. 253. 154. 1. 0. 2. 90. 255. 255. 130. 0. 0. 0. 0.
      0. 0. 0. 0. 0. 3. 252. 255. 253. 254. 255. 254. 255. 254. 253. 57.
      0. 0. 0. 0. 0. 1. 2. 1. 0. 0. 254. 250. 255. 255. 255. 255. 255.
      252. 91. 0. 0. 0. 0. 0. 0. 0. 0. 0. 4. 0. 255. 255. 253. 253. 255.
      255. 129. 53. 0. 1. 1. 0. 0. 0. 0.</_>
    <_>
      2.50000000e-001 3.49999994e-001 4.50000018e-001 3.49999994e-001
      5.00000000e-001 1. 1. 9.00000036e-001 6.50000036e-001
      6.00000024e-001 6.50000036e-001 7.50000000e-001 8.00000012e-001
      9.49999988e-001 9.00000036e-001 5.50000012e-001 0. 0. 0. 0.
      9.23076987e-001 9.23076987e-001 1. 9.23076987e-001 6.92307711e-001
      7.69230783e-001 6.92307711e-001 1. 1. 9.23076987e-001
      7.69230783e-001 8.46153855e-001 5.38461566e-001 7.69230783e-001
      4.61538494e-001 7.69230783e-001 8.46153855e-001 9.23076987e-001
      9.23076987e-001 6.92307711e-001 1. 0. 1. 0. 0. 52. 172. 255. 255.
      254. 54. 49. 50. 1. 0. 1. 0. 0. 0. 0. 0. 1. 1. 2. 0. 254. 255.
      253. 255. 254. 254. 255. 255. 93. 0. 0. 0. 0. 0. 0. 0. 0. 4. 0. 2.
      255. 253. 255. 254. 255. 255. 253. 255. 252. 53. 1. 0. 0. 0. 0. 2.
      0. 1. 2. 0. 255. 255. 254. 97. 0. 32. 155. 255. 255. 254. 0. 0. 0.
      0. 0. 0. 3. 0. 0. 3. 254. 255. 48. 0. 2. 0. 0. 251. 255. 255. 0.
      0. 0. 0. 0. 1. 1. 0. 0. 1. 253. 255. 3. 0. 1. 0. 0. 6. 252. 255.
      0. 0. 0. 0. 0. 0. 0. 0. 1. 0. 255. 255. 150. 2. 0. 0. 0. 150. 255.
      254. 1. 0. 0. 0. 0. 1. 0. 3. 0. 2. 253. 255. 255. 254. 255. 255.
      255. 255. 255. 49. 0. 0. 0. 0. 0. 0. 0. 1. 1. 0. 255. 255. 253.
      252. 255. 255. 254. 255. 217. 28. 1. 0. 0. 0. 0. 0. 0. 0. 2. 0.
      254. 255. 255. 255. 255. 252. 255. 250. 236. 39. 2. 0. 0. 0. 0. 0.
      0. 2. 0. 1. 254. 254. 254. 0. 0. 207. 234. 255. 255. 94. 0. 0. 0.
      0. 0. 0. 3. 0. 1. 1. 254. 255. 104. 0. 0. 0. 61. 254. 254. 254. 2.
      0. 0. 0. 0. 0. 2. 0. 0. 2. 254. 255. 0. 0. 0. 0. 0. 0. 255. 255.
      201. 0. 0. 0. 0. 0. 0. 5. 0. 2. 255. 254. 1. 1. 0. 0. 2. 0. 255.
      255. 204. 0. 0. 0. 0. 0. 0. 0. 0. 0. 254. 254. 0. 0. 0. 1. 0. 0.
      254. 255. 202. 0. 0. 0. 0. 0. 2. 0. 0. 0. 255. 255. 51. 0. 2. 0.
      1. 255. 255. 253. 164. 0. 0. 0. 0. 1. 0. 0. 0. 3. 253. 255. 255.
      1. 0. 31. 152. 255. 255. 255. 0. 0. 0. 0. 0. 0. 3. 1. 0. 0. 255.
      255. 255. 253. 255. 253. 255. 254. 252. 51. 0. 0. 0. 0. 0. 0. 0.
      0. 2. 0. 175. 255. 253. 255. 252. 255. 255. 152. 90. 1. 2. 0. 0.
      0. 0. 0. 0. 0. 0. 3. 6. 50. 255. 255. 253. 54. 51. 0. 0. 1. 0. 0.
      0. 0. 0.</_>
    <_>
      4.00000006e-001 4.50000018e-001 4.00000006e-001 6.99999988e-001
      9.49999988e-001 9.00000036e-001 9.00000036e-001 4.50000018e-001
      4.00000006e-001 5.00000000e-001 3.49999994e-001 5.50000012e-001 1.
      1. 1. 6.99999988e-001 0. 0. 0. 0. 6.00000024e-001 5.33333361e-001
      6.66666687e-001 6.00000024e-001 7.33333349e-001 6.00000024e-001
      6.66666687e-001 8.66666734e-001 8.66666734e-001 9.33333397e-001 1.
      8.00000072e-001 7.33333349e-001 6.66666687e-001 7.33333349e-001
      8.00000072e-001 6.66666687e-001 8.00000072e-001 4.66666698e-001
      4.66666698e-001 2. 0. 0. 9. 44. 45. 0. 1. 0. 2. 0. 0. 20. 196. 38.
      0. 0. 0. 0. 0. 0. 0. 0. 62. 255. 252. 3. 0. 0. 0. 0. 0. 92. 255.
      236. 2. 0. 0. 0. 0. 1. 0. 0. 57. 251. 255. 164. 0. 0. 4. 0. 1. 98.
      251. 237. 0. 0. 0. 0. 0. 0. 4. 0. 61. 255. 254. 185. 0. 3. 0. 0.
      0. 94. 255. 240. 0. 0. 0. 0. 0. 0. 0. 2. 54. 255. 255. 183. 3. 0.
      0. 3. 0. 97. 254. 235. 1. 0. 0. 0. 0. 0. 2. 0. 59. 254. 255. 184.
      0. 0. 3. 0. 0. 94. 255. 233. 0. 0. 0. 0. 0. 1. 0. 0. 59. 255. 251.
      186. 0. 1. 0. 0. 0. 94. 255. 237. 1. 0. 0. 0. 0. 0. 1. 3. 56. 253.
      255. 229. 60. 0. 1. 0. 160. 195. 255. 234. 1. 0. 0. 0. 0. 0. 0. 2.
      58. 255. 253. 255. 250. 249. 249. 249. 254. 255. 254. 235. 0. 0.
      0. 0. 0. 4. 0. 0. 59. 255. 255. 253. 255. 173. 255. 255. 254. 255.
      255. 233. 1. 0. 0. 0. 0. 0. 1. 2. 56. 255. 253. 211. 80. 3. 80.
      82. 84. 150. 251. 255. 95. 0. 0. 0. 0. 0. 2. 1. 0. 144. 255. 183.
      1. 0. 4. 1. 0. 93. 255. 254. 147. 0. 0. 0. 0. 1. 0. 0. 3. 148.
      255. 185. 0. 1. 0. 0. 2. 95. 255. 255. 149. 0. 0. 0. 0. 0. 2. 0.
      0. 145. 253. 186. 0. 0. 3. 0. 2. 95. 252. 255. 145. 0. 0. 0. 0. 1.
      0. 1. 3. 149. 255. 187. 0. 1. 0. 0. 0. 97. 255. 255. 146. 0. 0. 0.
      0. 0. 1. 0. 0. 146. 255. 211. 43. 1. 0. 1. 2. 94. 255. 254. 147.
      0. 0. 0. 0. 0. 0. 2. 0. 147. 255. 203. 21. 0. 0. 0. 1. 97. 254.
      255. 147. 0. 0. 0. 0. 3. 1. 0. 1. 129. 221. 162. 0. 0. 1. 0. 2.
      83. 247. 255. 127. 0. 0. 0. 0. 0. 0. 3. 0. 2. 0. 3. 0. 0. 0. 1. 0.
      2. 185. 235. 0. 0. 0. 0. 0. 3. 1. 0. 0. 0. 0. 0. 0. 0. 0. 0. 3.
      83. 243. 248. 124. 0. 0. 0. 0.</_>
    <_>
      4.50000018e-001 4.50000018e-001 4.00000006e-001 3.00000012e-001 1.
      1. 1. 9.49999988e-001 6.00000024e-001 6.50000036e-001
      7.50000000e-001 7.50000000e-001 1. 1. 1. 1. 0. 0. 0. 0.
      6.66666687e-001 8.66666734e-001 6.66666687e-001 8.66666734e-001
      8.66666734e-001 7.33333349e-001 8.66666734e-001 8.00000072e-001
      9.33333397e-001 8.00000072e-001 1. 8.66666734e-001 8.00000072e-001
      9.33333397e-001 8.66666734e-001 8.66666734e-001 8.66666734e-001
      7.33333349e-001 7.33333349e-001 6.66666687e-001 0. 0. 1. 0. 148.
      255. 255. 94. 0. 0. 0. 2. 16. 196. 239. 26. 0. 0. 0. 0. 2. 2. 0.
      5. 145. 254. 255. 95. 3. 0. 2. 0. 97. 254. 255. 145. 0. 0. 0. 0.
      0. 0. 2. 0. 147. 253. 252. 238. 8. 0. 0. 0. 94. 255. 255. 145. 0.
      0. 0. 0. 1. 0. 1. 0. 145. 255. 255. 253. 63. 0. 2. 1. 98. 255.
      250. 149. 0. 0. 0. 0. 1. 2. 0. 0. 149. 252. 255. 255. 253. 1. 0.
      1. 92. 254. 255. 145. 0. 0. 0. 0. 0. 0. 4. 0. 147. 255. 253. 255.
      255. 162. 0. 0. 96. 255. 255. 145. 0. 0. 0. 0. 1. 0. 0. 0. 151.
      254. 255. 254. 255. 168. 4. 2. 92. 254. 254. 147. 0. 0. 0. 0. 1.
      0. 0. 0. 146. 253. 255. 255. 253. 226. 52. 0. 100. 255. 253. 148.
      0. 0. 0. 0. 0. 1. 0. 1. 144. 255. 253. 255. 255. 253. 83. 2. 92.
      255. 252. 147. 0. 0. 0. 0. 0. 0. 0. 1. 146. 254. 255. 252. 255.
      255. 255. 0. 99. 252. 255. 142. 0. 0. 0. 0. 1. 2. 0. 1. 146. 255.
      255. 148. 82. 255. 253. 173. 200. 252. 255. 149. 0. 0. 0. 0. 0. 2.
      0. 2. 148. 252. 255. 92. 0. 252. 255. 255. 255. 255. 254. 146. 0.
      0. 0. 0. 0. 0. 2. 0. 150. 254. 254. 101. 0. 84. 255. 253. 255.
      255. 253. 147. 0. 0. 0. 0. 0. 1. 2. 0. 149. 255. 254. 92. 2. 82.
      254. 255. 253. 253. 255. 148. 0. 0. 0. 0. 1. 0. 0. 3. 147. 250.
      255. 96. 0. 3. 171. 253. 255. 255. 252. 148. 0. 0. 0. 0. 0. 1. 2.
      0. 146. 255. 254. 95. 0. 1. 97. 255. 255. 255. 255. 145. 0. 0. 0.
      0. 0. 1. 1. 0. 146. 255. 255. 94. 0. 1. 2. 252. 254. 255. 255.
      145. 0. 0. 0. 0. 2. 0. 0. 0. 150. 255. 253. 96. 1. 0. 0. 229. 255.
      253. 254. 150. 0. 0. 0. 0. 0. 3. 0. 0. 144. 255. 221. 53. 0. 0. 2.
      1. 179. 254. 255. 143. 0. 0. 0. 0. 3. 0. 0. 0. 27. 44. 33. 0. 0.
      0. 1. 2. 16. 199. 39. 28. 0. 0. 0. 0.</_>
    <_>
      3.15789461e-001 5.26315808e-001 3.15789461e-001 3.15789461e-001
      6.31578922e-001 7.89473712e-001 1. 1. 8.94736826e-001
      7.36842096e-001 7.89473712e-001 9.47368443e-001 9.47368443e-001
      8.42105269e-001 6.31578922e-001 4.21052635e-001 0. 0. 0. 0.
      9.16666687e-001 7.50000000e-001 8.33333373e-001 8.33333373e-001
      8.33333373e-001 8.33333373e-001 9.16666687e-001 1. 9.16666687e-001
      1. 1. 1. 1. 7.50000000e-001 9.16666687e-001 8.33333373e-001
      9.16666687e-001 8.33333373e-001 6.66666687e-001 8.33333373e-001 1.
      0. 0. 0. 228. 254. 179. 1. 1. 0. 0. 1. 13. 183. 254. 2. 0. 0. 0.
      0. 0. 2. 2. 0. 230. 255. 174. 0. 0. 0. 0. 2. 126. 255. 255. 0. 0.
      0. 0. 0. 0. 1. 0. 0. 231. 254. 222. 64. 1. 0. 0. 0. 127. 253. 254.
      3. 0. 0. 0. 0. 0. 1. 0. 2. 230. 254. 248. 129. 0. 4. 0. 0. 128.
      255. 254. 0. 0. 0. 0. 0. 0. 1. 2. 0. 21. 255. 255. 127. 0. 0. 0.
      70. 240. 253. 255. 0. 0. 0. 0. 0. 0. 0. 0. 0. 2. 253. 255. 252.
      77. 0. 3. 78. 251. 255. 24. 0. 0. 0. 0. 0. 0. 4. 0. 0. 0. 255.
      254. 255. 75. 0. 9. 127. 255. 254. 25. 1. 0. 0. 0. 0. 1. 0. 0. 3.
      0. 255. 254. 255. 165. 15. 24. 255. 255. 254. 25. 0. 0. 0. 0. 0.
      0. 0. 0. 0. 1. 94. 255. 253. 253. 27. 185. 255. 255. 254. 27. 0.
      0. 0. 0. 0. 0. 7. 0. 0. 0. 21. 254. 255. 255. 232. 255. 254. 255.
      255. 20. 4. 0. 0. 0. 0. 3. 0. 1. 4. 0. 27. 255. 254. 254. 253.
      255. 254. 255. 80. 0. 0. 0. 0. 0. 0. 1. 0. 0. 0. 1. 20. 255. 255.
      255. 255. 255. 251. 254. 73. 0. 1. 0. 0. 0. 0. 0. 2. 2. 0. 1. 28.
      255. 253. 254. 254. 253. 255. 191. 41. 0. 0. 0. 0. 0. 0. 0. 0. 0.
      0. 0. 8. 129. 255. 255. 253. 254. 254. 125. 1. 0. 0. 0. 0. 0. 0.
      2. 0. 3. 0. 1. 0. 74. 255. 255. 255. 254. 255. 126. 0. 0. 2. 0. 0.
      0. 0. 0. 1. 0. 2. 0. 0. 72. 240. 252. 255. 252. 255. 127. 1. 0. 0.
      0. 0. 0. 0. 2. 0. 0. 3. 1. 0. 2. 125. 254. 255. 255. 230. 91. 0.
      0. 2. 0. 0. 0. 0. 0. 1. 0. 1. 0. 0. 1. 129. 255. 253. 254. 181. 0.
      2. 3. 0. 0. 0. 0. 0. 0. 0. 1. 0. 1. 0. 0. 126. 251. 255. 255. 179.
      1. 0. 0. 0. 0. 0. 0. 0. 0. 4. 0. 0. 0. 2. 1. 14. 188. 254. 20. 21.
      0. 0. 3. 3. 0. 0. 0. 0.</_>
    <_>
      5.29411793e-001 4.70588237e-001 5.88235319e-001 4.70588237e-001
      6.47058845e-001 7.05882370e-001 9.41176474e-001 8.82352948e-001
      9.41176474e-001 7.64705896e-001 8.82352948e-001 1. 8.23529422e-001
      7.64705896e-001 7.64705896e-001 4.70588237e-001 0. 0. 0. 0.
      6.66666687e-001 6.00000024e-001 1. 7.33333349e-001 1.
      4.00000036e-001 6.00000024e-001 5.33333361e-001 4.66666698e-001
      6.00000024e-001 6.66666687e-001 5.33333361e-001 6.00000024e-001
      6.66666687e-001 4.66666698e-001 5.33333361e-001 8.66666734e-001
      8.00000072e-001 8.00000072e-001 6.66666687e-001 2. 0. 2. 0. 3. 1.
      0. 2. 0. 0. 0. 208. 255. 253. 186. 2. 0. 0. 0. 0. 0. 3. 0. 4. 0.
      0. 3. 0. 2. 0. 2. 84. 249. 255. 6. 0. 0. 0. 0. 0. 1. 0. 1. 1. 3.
      255. 253. 255. 253. 255. 252. 255. 255. 252. 255. 2. 0. 0. 0. 0.
      0. 2. 0. 0. 0. 255. 255. 255. 255. 255. 255. 251. 253. 255. 255.
      0. 0. 0. 0. 0. 1. 1. 0. 2. 2. 2. 135. 133. 131. 134. 137. 255.
      255. 252. 138. 1. 0. 0. 0. 0. 0. 2. 0. 1. 0. 0. 0. 3. 0. 0. 0.
      255. 253. 148. 0. 0. 0. 0. 0. 0. 0. 1. 1. 0. 3. 0. 2. 0. 1. 0.
      113. 255. 255. 148. 0. 0. 0. 0. 0. 0. 1. 0. 0. 3. 0. 0. 2. 0. 0.
      58. 255. 255. 227. 0. 0. 2. 0. 0. 0. 0. 0. 0. 1. 0. 0. 0. 0. 0. 1.
      188. 255. 253. 31. 0. 3. 0. 0. 0. 0. 0. 2. 2. 0. 0. 2. 0. 0. 3.
      169. 255. 251. 176. 0. 0. 1. 0. 0. 0. 0. 0. 0. 0. 0. 0. 1. 0. 2.
      22. 238. 255. 255. 35. 3. 1. 0. 1. 0. 0. 0. 0. 0. 4. 0. 0. 0. 2.
      2. 103. 254. 254. 190. 0. 0. 0. 1. 0. 0. 0. 0. 0. 1. 0. 0. 0. 1.
      0. 126. 255. 255. 205. 9. 2. 0. 0. 0. 3. 0. 0. 0. 0. 2. 0. 2. 2.
      0. 4. 197. 252. 254. 113. 0. 0. 0. 5. 1. 0. 0. 0. 0. 0. 0. 0. 1.
      0. 1. 2. 255. 255. 255. 0. 0. 0. 0. 0. 0. 2. 0. 0. 0. 0. 1. 0. 1.
      0. 2. 255. 251. 255. 83. 0. 0. 1. 0. 0. 0. 0. 0. 0. 0. 0. 0. 2. 0.
      3. 119. 251. 255. 255. 255. 253. 255. 254. 255. 254. 28. 0. 0. 0.
      0. 0. 0. 0. 1. 0. 122. 255. 255. 253. 255. 255. 255. 255. 253.
      255. 254. 0. 0. 0. 0. 0. 3. 0. 1. 0. 0. 5. 84. 3. 1. 0. 161. 225.
      255. 253. 8. 1. 0. 0. 0. 0. 0. 0. 1. 2. 0. 1. 2. 0. 0. 3. 1. 83.
      254. 254. 189. 0. 0. 0. 0. 0.</_></support_vectors>
  <decision_functions>
    <_>
      <sv_count>12</sv_count>
      <rho>-3.3333333333333331e-001</rho>
      <alpha>
        6.6666668653488159e-001 6.6666668653488159e-001
        6.6666668653488159e-001 6.6666668653488159e-001
        6.6666662693023682e-001 6.6666662693023682e-001
        6.6666662693023682e-001 6.6666662693023682e-001
        -1.3333333134651184e+000 -1.3333333134651184e+000
        -1.3333333134651184e+000 -1.3333333134651184e+000</alpha>
      <index>
        0 1 2 3 4 5 6 7 8 9 10 11</index></_>
    <_>
      <sv_count>9</sv_count>
      <rho>-7.7777777777777779e-001</rho>
      <alpha>
        2.2222222222228538e-001 2.2222222222228538e-001
        2.2222222222217169e-001 2.2222222222217169e-001
        2.2222222222217169e-001 2.2222222222217169e-001
        2.2222222222217169e-001 2.2222222222217169e-001
        -1.7777777777776009e+000</alpha>
      <index>
        0 1 2 3 4 5 6 7 12</index></_>
    <_>
      <sv_count>10</sv_count>
      <rho>-5.9999999999999998e-001</rho>
      <alpha>
        4.0000000002328306e-001 4.0000000002328306e-001
        4.0000000002328306e-001 4.0000000002328306e-001
        3.9999999990686774e-001 3.9999999990686774e-001
        3.9999999990686774e-001 3.9999999990686774e-001
        -1.5999999998603016e+000 -1.5999999998603016e+000</alpha>
      <index>
        0 1 2 3 4 5 6 7 13 14</index></_>
    <_>
      <sv_count>9</sv_count>
      <rho>-7.7777777777777779e-001</rho>
      <alpha>
        2.2222222222228538e-001 2.2222222222228538e-001
        2.2222222222217169e-001 2.2222222222217169e-001
        2.2222222222217169e-001 2.2222222222217169e-001
        2.2222222222217169e-001 2.2222222222217169e-001
        -1.7777777777776009e+000</alpha>
      <index>
        0 1 2 3 4 5 6 7 15</index></_>
    <_>
      <sv_count>11</sv_count>
      <rho>-4.5454545454545453e-001</rho>
      <alpha>
        5.4545454552862793e-001 5.4545454552862793e-001
        5.4545454541221261e-001 5.4545454541221261e-001
        5.4545454541221261e-001 5.4545454541221261e-001
        5.4545454541221261e-001 5.4545454541221261e-001
        -1.4545454545877874e+000 -1.4545454545877874e+000
        -1.4545454543549567e+000</alpha>
      <index>
        0 1 2 3 4 5 6 7 16 17 18</index></_>
    <_>
      <sv_count>9</sv_count>
      <rho>-7.7777777777777779e-001</rho>
      <alpha>
        2.2222222222228538e-001 2.2222222222228538e-001
        2.2222222222217169e-001 2.2222222222217169e-001
        2.2222222222217169e-001 2.2222222222217169e-001
        2.2222222222217169e-001 2.2222222222217169e-001
        -1.7777777777776009e+000</alpha>
      <index>
        0 1 2 3 4 5 6 7 19</index></_>
    <_>
      <sv_count>13</sv_count>
      <rho>-2.3076923076923078e-001</rho>
      <alpha>
        7.6923077180981636e-001 7.6923077180981636e-001
        7.6923076808452606e-001 7.6923076808452606e-001
        7.6923076808452606e-001 7.6923076808452606e-001
        7.6923076808452606e-001 7.6923076808452606e-001
        -1.2307692319154739e+000 -1.2307692319154739e+000
        -1.2307692319154739e+000 -1.2307692319154739e+000
        -1.2307692244648933e+000</alpha>
      <index>
        0 1 2 3 4 5 6 7 20 21 22 23 24</index></_>
    <_>
      <sv_count>13</sv_count>
      <rho>-2.3076923076923078e-001</rho>
      <alpha>
        7.6923077180981636e-001 7.6923077180981636e-001
        7.6923076808452606e-001 7.6923076808452606e-001
        7.6923076808452606e-001 7.6923076808452606e-001
        7.6923076808452606e-001 7.6923076808452606e-001
        -1.2307692319154739e+000 -1.2307692319154739e+000
        -1.2307692319154739e+000 -1.2307692319154739e+000
        -1.2307692244648933e+000</alpha>
      <index>
        0 1 2 3 4 5 6 7 25 26 27 28 29</index></_>
    <_>
      <sv_count>11</sv_count>
      <rho>-4.5454545454545453e-001</rho>
      <alpha>
        5.4545454552862793e-001 5.4545454552862793e-001
        5.4545454541221261e-001 5.4545454541221261e-001
        5.4545454541221261e-001 5.4545454541221261e-001
        5.4545454541221261e-001 5.4545454541221261e-001
        -1.4545454545877874e+000 -1.4545454545877874e+000
        -1.4545454543549567e+000</alpha>
      <index>
        0 1 2 3 4 5 6 7 30 31 32</index></_>
    <_>
      <sv_count>10</sv_count>
      <rho>-5.9999999999999998e-001</rho>
      <alpha>
        4.0000000002328306e-001 4.0000000002328306e-001
        4.0000000002328306e-001 4.0000000002328306e-001
        3.9999999990686774e-001 3.9999999990686774e-001
        3.9999999990686774e-001 3.9999999990686774e-001
        -1.5999999998603016e+000 -1.5999999998603016e+000</alpha>
      <index>
        0 1 2 3 4 5 6 7 33 34</index></_>
    <_>
      <sv_count>9</sv_count>
      <rho>-7.7777777777777779e-001</rho>
      <alpha>
        2.2222222222228538e-001 2.2222222222228538e-001
        2.2222222222217169e-001 2.2222222222217169e-001
        2.2222222222217169e-001 2.2222222222217169e-001
        2.2222222222217169e-001 2.2222222222217169e-001
        -1.7777777777776009e+000</alpha>
      <index>
        0 1 2 3 4 5 6 7 35</index></_>
    <_>
      <sv_count>9</sv_count>
      <rho>-7.7777777777777779e-001</rho>
      <alpha>
        2.2222222222228538e-001 2.2222222222228538e-001
        2.2222222222217169e-001 2.2222222222217169e-001
        2.2222222222217169e-001 2.2222222222217169e-001
        2.2222222222217169e-001 2.2222222222217169e-001
        -1.7777777777776009e+000</alpha>
      <index>
        0 1 2 3 4 5 6 7 36</index></_>
    <_>
      <sv_count>9</sv_count>
      <rho>-7.7777777777777779e-001</rho>
      <alpha>
        2.2222222222228538e-001 2.2222222222228538e-001
        2.2222222222217169e-001 2.2222222222217169e-001
        2.2222222222217169e-001 2.2222222222217169e-001
        2.2222222222217169e-001 2.2222222222217169e-001
        -1.7777777777776009e+000</alpha>
      <index>
        0 1 2 3 4 5 6 7 37</index></_>
    <_>
      <sv_count>9</sv_count>
      <rho>-7.7777777777777779e-001</rho>
      <alpha>
        2.2222222222228538e-001 2.2222222222228538e-001
        2.2222222222217169e-001 2.2222222222217169e-001
        2.2222222222217169e-001 2.2222222222217169e-001
        2.2222222222217169e-001 2.2222222222217169e-001
        -1.7777777777776009e+000</alpha>
      <index>
        0 1 2 3 4 5 6 7 38</index></_>
    <_>
      <sv_count>5</sv_count>
      <rho>-5.9999999999999998e-001</rho>
      <alpha>
        4.0000000000000002e-001 4.0000000000000002e-001
        4.0000000000000002e-001 3.9999999999999991e-001
        -1.6000000000000001e+000</alpha>
      <index>
        8 9 10 11 12</index></_>
    <_>
      <sv_count>6</sv_count>
      <rho>-3.3333333333333331e-001</rho>
      <alpha>
        6.6666666666666607e-001 6.6666666666666607e-001
        6.6666666666666607e-001 6.6666666666666607e-001
        -1.3333333333333321e+000 -1.3333333333333321e+000</alpha>
      <index>
        8 9 10 11 13 14</index></_>
    <_>
      <sv_count>5</sv_count>
      <rho>-5.9999999999999998e-001</rho>
      <alpha>
        4.0000000000000002e-001 4.0000000000000002e-001
        4.0000000000000002e-001 3.9999999999999991e-001
        -1.6000000000000001e+000</alpha>
      <index>
        8 9 10 11 15</index></_>
    <_>
      <sv_count>7</sv_count>
      <rho>-1.4285714285714285e-001</rho>
      <alpha>
        8.5714285714285587e-001 8.5714285714285765e-001
        8.5714285714285765e-001 8.5714285714285587e-001
        -1.1428571428571423e+000 -1.1428571428571423e+000
        -1.1428571428571423e+000</alpha>
      <index>
        8 9 10 11 16 17 18</index></_>
    <_>
      <sv_count>5</sv_count>
      <rho>-5.9999999999999998e-001</rho>
      <alpha>
        4.0000000000000002e-001 4.0000000000000002e-001
        4.0000000000000002e-001 3.9999999999999991e-001
        -1.6000000000000001e+000</alpha>
      <index>
        8 9 10 11 19</index></_>
    <_>
      <sv_count>9</sv_count>
      <rho>1.1111111111111110e-001</rho>
      <alpha>
        1.1111111111110858e+000 1.1111111111110858e+000
        1.1111111111108585e+000 1.1111111111110858e+000
        -8.8888888888891415e-001 -8.8888888888868678e-001
        -8.8888888888868678e-001 -8.8888888888914153e-001
        -8.8888888888868678e-001</alpha>
      <index>
        8 9 10 11 20 21 22 23 24</index></_>
    <_>
      <sv_count>9</sv_count>
      <rho>1.1111111111111110e-001</rho>
      <alpha>
        1.1111111111110858e+000 1.1111111111110858e+000
        1.1111111111108585e+000 1.1111111111110858e+000
        -8.8888888888891415e-001 -8.8888888888868678e-001
        -8.8888888888868678e-001 -8.8888888888914153e-001
        -8.8888888888868678e-001</alpha>
      <index>
        8 9 10 11 25 26 27 28 29</index></_>
    <_>
      <sv_count>7</sv_count>
      <rho>-1.4285714285714285e-001</rho>
      <alpha>
        8.5714285714285587e-001 8.5714285714285765e-001
        8.5714285714285765e-001 8.5714285714285587e-001
        -1.1428571428571423e+000 -1.1428571428571423e+000
        -1.1428571428571423e+000</alpha>
      <index>
        8 9 10 11 30 31 32</index></_>
    <_>
      <sv_count>6</sv_count>
      <rho>-3.3333333333333331e-001</rho>
      <alpha>
        6.6666666666666607e-001 6.6666666666666607e-001
        6.6666666666666607e-001 6.6666666666666607e-001
        -1.3333333333333321e+000 -1.3333333333333321e+000</alpha>
      <index>
        8 9 10 11 33 34</index></_>
    <_>
      <sv_count>5</sv_count>
      <rho>-5.9999999999999998e-001</rho>
      <alpha>
        4.0000000000000002e-001 4.0000000000000002e-001
        4.0000000000000002e-001 3.9999999999999991e-001
        -1.6000000000000001e+000</alpha>
      <index>
        8 9 10 11 35</index></_>
    <_>
      <sv_count>5</sv_count>
      <rho>-5.9999999999999998e-001</rho>
      <alpha>
        4.0000000000000002e-001 4.0000000000000002e-001
        4.0000000000000002e-001 3.9999999999999991e-001
        -1.6000000000000001e+000</alpha>
      <index>
        8 9 10 11 36</index></_>
    <_>
      <sv_count>5</sv_count>
      <rho>-5.9999999999999998e-001</rho>
      <alpha>
        4.0000000000000002e-001 4.0000000000000002e-001
        4.0000000000000002e-001 3.9999999999999991e-001
        -1.6000000000000001e+000</alpha>
      <index>
        8 9 10 11 37</index></_>
    <_>
      <sv_count>5</sv_count>
      <rho>-5.9999999999999998e-001</rho>
      <alpha>
        4.0000000000000002e-001 4.0000000000000002e-001
        4.0000000000000002e-001 3.9999999999999991e-001
        -1.6000000000000001e+000</alpha>
      <index>
        8 9 10 11 38</index></_>
    <_>
      <sv_count>3</sv_count>
      <rho>3.3333333333333343e-001</rho>
      <alpha>
        1.3333333333333335e+000 -6.6666666666666663e-001
        -6.6666666666666663e-001</alpha>
      <index>
        12 13 14</index></_>
    <_>
      <sv_count>2</sv_count>
      <rho>0.</rho>
      <alpha>
        1. -1.</alpha>
      <index>
        12 15</index></_>
    <_>
      <sv_count>4</sv_count>
      <rho>5.0000000000000000e-001</rho>
      <alpha>
        1.5000000000000000e+000 -5.0000000000000000e-001
        -5.0000000000000000e-001 -5.0000000000000000e-001</alpha>
      <index>
        12 16 17 18</index></_>
    <_>
      <sv_count>2</sv_count>
      <rho>0.</rho>
      <alpha>
        1. -1.</alpha>
      <index>
        12 19</index></_>
    <_>
      <sv_count>6</sv_count>
      <rho>6.6666666666666663e-001</rho>
      <alpha>
        1.6666666666666670e+000 -3.3333333333333393e-001
        -3.3333333333333393e-001 -3.3333333333333393e-001
        -3.3333333333333304e-001 -3.3333333333333215e-001</alpha>
      <index>
        12 20 21 22 23 24</index></_>
    <_>
      <sv_count>6</sv_count>
      <rho>6.6666666666666663e-001</rho>
      <alpha>
        1.6666666666666670e+000 -3.3333333333333393e-001
        -3.3333333333333393e-001 -3.3333333333333393e-001
        -3.3333333333333304e-001 -3.3333333333333215e-001</alpha>
      <index>
        12 25 26 27 28 29</index></_>
    <_>
      <sv_count>4</sv_count>
      <rho>5.0000000000000000e-001</rho>
      <alpha>
        1.5000000000000000e+000 -5.0000000000000000e-001
        -5.0000000000000000e-001 -5.0000000000000000e-001</alpha>
      <index>
        12 30 31 32</index></_>
    <_>
      <sv_count>3</sv_count>
      <rho>3.3333333333333343e-001</rho>
      <alpha>
        1.3333333333333335e+000 -6.6666666666666663e-001
        -6.6666666666666663e-001</alpha>
      <index>
        12 33 34</index></_>
    <_>
      <sv_count>2</sv_count>
      <rho>0.</rho>
      <alpha>
        1. -1.</alpha>
      <index>
        12 35</index></_>
    <_>
      <sv_count>2</sv_count>
      <rho>0.</rho>
      <alpha>
        1. -1.</alpha>
      <index>
        12 36</index></_>
    <_>
      <sv_count>2</sv_count>
      <rho>0.</rho>
      <alpha>
        1. -1.</alpha>
      <index>
        12 37</index></_>
    <_>
      <sv_count>2</sv_count>
      <rho>0.</rho>
      <alpha>
        1. -1.</alpha>
      <index>
        12 38</index></_>
    <_>
      <sv_count>3</sv_count>
      <rho>-3.3333333333333331e-001</rho>
      <alpha>
        6.6666666666666663e-001 6.6666666666666663e-001
