<?xml version="1.0"?>
<opencv_storage>
<my_nn type_id="opencv-ml-ann-mlp">
  <layer_sizes type_id="opencv-matrix">
    <rows>1</rows>
    <cols>3</cols>
    <dt>i</dt>
    <data>
      265 10 34</data></layer_sizes>
  <activation_function>SIGMOID_SYM</activation_function>
  <f_param1>1.</f_param1>
  <f_param2>1.</f_param2>
  <min_val>-9.4999999999999996e-001</min_val>
  <max_val>9.4999999999999996e-001</max_val>
  <min_val1>-9.7999999999999998e-001</min_val1>
  <max_val1>9.7999999999999998e-001</max_val1>
  <training_params>
    <train_method>RPROP</train_method>
    <dw0>1.0000000000000001e-001</dw0>
    <dw_plus>1.2000000000000000e+000</dw_plus>
    <dw_minus>5.0000000000000000e-001</dw_minus>
    <dw_min>1.1920928955078125e-007</dw_min>
    <dw_max>50.</dw_max>
    <term_criteria><epsilon>9.9999997764825821e-003</epsilon>
      <iterations>1000</iterations></term_criteria></training_params>
  <input_scale>
    5.9787075378034293e+000 -2.2391788831947608e+000
    5.4523915219554961e+000 -2.1317227049574949e+000
    4.7826956924178390e+000 -1.9932706822674435e+000
    4.1873142720591243e+000 -1.9142024411226999e+000
    3.5028042716102337e+000 -2.1371558696615853e+000
    3.6037231139977250e+000 -2.7825583060476053e+000
    3.5704719253150765e+000 -2.9512397827579036e+000
    3.5747783109314555e+000 -2.8038918687837224e+000
    4.8196164984806540e+000 -3.6107312744863642e+000
    5.6602790177245854e+000 -4.2112263370322252e+000
    5.5545308772387845e+000 -4.1732389222075872e+000
    4.8860870476040139e+000 -3.8037107185228534e+000
    5.0198724610457397e+000 -4.2752076691757628e+000
    4.9187962353674566e+000 -4.1496346924873135e+000
    4.8811866530030423e+000 -3.8081932419360869e+000
    4.2420235091592664e+000 -2.5056514095725033e+000
    3.2316858272037532e+000 -5.8393185343170517e-001
    3.6840981403611401e+000 -5.2690351186887496e-001
    4.3688467112680973e+000 -5.2034787572541352e-001
    4.3912233953803064e+000 -5.2459081176523037e-001
    6.1406815170353193e+000 -4.3546098756054175e+000
    6.4318949429848811e+000 -4.9383914511187195e+000
    6.2436801818554084e+000 -5.0088538782339036e+000
    6.2613379639340181e+000 -4.9673840382878129e+000
    6.7817017115745788e+000 -5.1432252351298748e+000
    6.4553429869942409e+000 -4.7598657748090032e+000
    6.7373040408378051e+000 -4.9834285182707596e+000
    6.9868109290241573e+000 -5.1380178358005288e+000
    6.1755398616675148e+000 -4.6670042823173628e+000
    6.5511844955538967e+000 -5.0495649955857882e+000
    6.1406151582264421e+000 -4.8126827237217631e+000
    6.1969442284194525e+000 -4.7221739447861175e+000
    6.5020341383737978e+000 -4.7405812767819189e+000
    6.5831491459824329e+000 -4.8045996560975457e+000
    6.7841369921677348e+000 -4.9405334071772273e+000
    6.3720293279386455e+000 -4.7409392908889298e+000
    6.1722737482220973e+000 -4.8483152294458467e+000
    6.0417305054420236e+000 -4.9127210650254876e+000
    6.3803854206578059e+000 -5.0911635224586389e+000
    6.2352406286420683e+000 -4.6584362071781005e+000
    1.3165339673798437e+000 -6.8569477467700202e-001
    1.1224533710537061e+000 -6.3138002121770964e-001
    8.0094646154015500e-002 -2.2335917692354917e-001
    1.7055332006412221e-002 -4.1440395982246836e-001
    1.1564985079176023e-002 -6.6168236060142815e-001
    1.0247525608987767e-002 -9.1547611965769582e-001
    9.3598692043848387e-003 -1.1309563387762502e+000
    9.8395259449974206e-003 -1.4040652111870429e+000
    9.5193759086091550e-003 -1.2971566249275899e+000
    1.0541786122991340e-002 -1.0376129483915761e+000
    1.2526465673252713e-002 -6.7344665452868158e-001
    1.9695258974566195e-002 -3.6160729944672282e-001
    4.8835410031897300e-002 -1.5697096081681275e-001
    5.2946814357685779e-001 -1.8594416947044409e-001
    1.4132124908507679e+000 -2.8600728981503637e-001
    1.2522763371169572e+000 -8.1621582687087391e-001
    4.8567947932810263e-001 -5.5361678744840270e-001
    3.7653982292806608e-002 -2.6077624046238385e-001
    1.4128804899456202e-002 -5.8676590347324953e-001
    1.0193201010928143e-002 -1.0883669031787442e+000
    9.1092267641195556e-003 -1.2957061748141843e+000
    9.8936405267243122e-003 -1.4712079026108738e+000
    1.0686897141960951e-002 -1.7409464344118291e+000
    1.0362401450218281e-002 -1.7031038550160837e+000
    9.7311299887188930e-003 -1.5012005709382592e+000
    1.0900220285254704e-002 -1.1199003109145167e+000
    1.5884056558097531e-002 -5.5395647246365143e-001
    3.9453564545018562e-002 -2.3038063582537624e-001
    6.0173710666966740e-001 -2.9370501635067098e-001
    1.3308626832412800e+000 -3.7232467924012003e-001
    1.1608866993223395e+000 -6.8409394781495003e-001
    4.2154177631320217e-001 -4.3032389665306053e-001
    3.4399955558659816e-002 -3.4963050069292639e-001
    1.2323565476874814e-002 -7.7678807510336811e-001
    9.6224355468693800e-003 -1.3194478361634312e+000
    1.0145590718737021e-002 -1.4236135881437331e+000
    1.1516697828191834e-002 -1.1951316067660502e+000
    1.0376978847702976e-002 -1.0860311344627238e+000
    1.1054728517095052e-002 -1.2625092184121680e+000
    9.9759965836905707e-003 -1.4824449685228280e+000
    9.9857418794149291e-003 -1.3263799407091914e+000
    1.2695859255117452e-002 -7.1289516835208622e-001
    3.2791307405109077e-002 -3.1600670648137857e-001
    2.4372102779164737e-001 -1.9149509326486577e-001
    9.6534189132535886e-001 -3.3901887850116769e-001
    1.3152322015731350e+000 -9.2379404634303530e-001
    1.9255172414442071e-001 -3.3983087029059961e-001
    2.3311307325125163e-002 -3.4502122419002212e-001
    1.0695709959367108e-002 -8.4518391408082161e-001
    9.2779314990740439e-003 -1.3724435395788013e+000
    1.0596142534386330e-002 -1.2782858377643318e+000
    1.0368477497947233e-002 -7.8954721804308892e-001
    1.0034583786827757e-002 -8.1166642309049042e-001
    1.0169288223966733e-002 -8.0216314014289958e-001
    9.9880342000411935e-003 -1.2047174465031829e+000
    9.5080402213443480e-003 -1.3420202604084992e+000
    1.1531257188394145e-002 -7.9346031605854950e-001
    2.6072016192336463e-002 -3.3296137345629695e-001
    1.1993836384676559e-001 -1.3064714633308394e-001
    1.0212105556789295e+000 -3.1912829864966547e-001
    1.2823400065918586e+000 -8.5870982584276245e-001
    1.5799638735459784e-001 -3.4937891608472083e-001
    2.1827488371953280e-002 -3.3754651660913465e-001
    1.0594742669648117e-002 -8.7211128796764170e-001
    9.4283794338419352e-003 -1.4310091249632060e+000
    1.0611171515796509e-002 -1.2109999492402765e+000
    1.0905704767626050e-002 -7.7044260139624865e-001
    1.0051307365809448e-002 -7.0984366810503685e-001
    1.0569118513705232e-002 -7.1234600553978766e-001
    1.0398830009745008e-002 -1.1402812288066817e+000
    9.2065195451803330e-003 -1.2169320016669469e+000
    1.1116283272908400e-002 -7.6417830665963760e-001
    2.6631725467637243e-002 -3.3733518925673839e-001
    1.1965739123245539e-001 -1.3675130426566329e-001
    1.1375852125330692e+000 -3.6903806001816830e-001
    1.3371393555798874e+000 -6.8846758486702531e-001
    1.6593217790079803e-001 -2.7556593829953963e-001
    2.3788078538873384e-002 -3.4832543574778885e-001
    1.0697388422626762e-002 -8.5095177904752417e-001
    9.6043693629257361e-003 -1.5176904503706607e+000
    9.9846562063487677e-003 -1.3922652160114657e+000
    1.0012610281801233e-002 -8.8128850141068349e-001
    9.5830857527157108e-003 -7.7480389154248519e-001
    9.8704326987807799e-003 -8.7303389694960121e-001
    9.8130307815880065e-003 -1.2070904024815889e+000
    9.3594342497658554e-003 -1.1681465318398241e+000
    1.1536856264455012e-002 -6.9667504049342910e-001
    2.5508900032891666e-002 -3.1362281558296273e-001
    1.1317106707427486e-001 -1.4685293227495191e-001
    1.1928476209186489e+000 -3.3726346424783227e-001
    1.2248750733662717e+000 -6.2701938279463898e-001
    1.7092106872212892e-001 -2.6401200793685986e-001
    2.4874277341668048e-002 -3.2070050429793445e-001
    1.1178623565699914e-002 -8.1174772731997680e-001
    9.7705481006602601e-003 -1.5134753481995971e+000
    9.5985284272489917e-003 -1.5534189845742432e+000
    9.5097929175942623e-003 -1.3265312031390639e+000
    9.8292820614446583e-003 -1.3595418289392236e+000
    9.6419661426540050e-003 -1.3693887628793129e+000
    9.8981972279708706e-003 -1.5036716699622534e+000
    9.9859316885464976e-003 -1.2330842433267684e+000
    1.2122643482070984e-002 -6.3954160227139956e-001
    2.8092725681712057e-002 -2.9338504290811790e-001
    1.1621843583785103e-001 -1.4492715659541544e-001
    1.0256159880243323e+000 -3.1440013918603044e-001
    1.1712579524088056e+000 -7.9826806875481093e-001
    1.7234123469442861e-001 -3.2724317778287337e-001
    2.5100410454857593e-002 -3.1024406136614163e-001
    1.1714561095921467e-002 -7.7950641959110767e-001
    1.0147714775798657e-002 -1.5059087921156922e+000
    9.5232834418245999e-003 -1.5063793701371839e+000
    9.5372733252553459e-003 -1.3314430948445015e+000
    1.0001116723491188e-002 -1.4795402052814777e+000
    9.7977595229381716e-003 -1.5472003646654062e+000
    1.0286402852977106e-002 -1.7474026846494859e+000
    1.0533119170529962e-002 -1.4299336245373622e+000
    1.2365357694149469e-002 -6.7715054039389944e-001
    2.8783612256960640e-002 -2.9254772576643034e-001
    1.1263018941977379e-001 -1.6224110618800749e-001
    1.3882045817557809e+000 -3.7597207422552398e-001
    1.0716735659439545e+000 -6.9531201599935144e-001
    1.8666208658832470e-001 -3.4165828348755861e-001
    2.4225903512381797e-002 -3.3440398955484157e-001
    1.1220036454937271e-002 -8.3689450486201744e-001
    9.5831495702723840e-003 -1.4622003839855782e+000
    9.5529630648324704e-003 -1.3480766182114035e+000
    1.0865919222789896e-002 -1.0205232527189902e+000
    1.0316087497599973e-002 -9.5433020145208325e-001
    1.0001780396702555e-002 -1.1525265874985997e+000
    1.0121188334617132e-002 -1.6338489740167654e+000
    9.9668115800272111e-003 -1.5377069806459245e+000
    1.1671493750973811e-002 -8.0936251308836260e-001
    2.6144580071460900e-002 -3.2260544338177644e-001
    1.1544682964396719e-001 -1.8176003833826976e-001
    1.2913242915963410e+000 -3.2667429995740765e-001
    1.1375852125330692e+000 -7.4823313086252463e-001
    1.6088773296821010e-001 -2.9783383900662702e-001
    2.1964448644844353e-002 -3.4031821322934436e-001
    1.0902821176086024e-002 -9.2355981045762026e-001
    9.3283195321614120e-003 -1.4864510597364706e+000
    9.9939952486673700e-003 -1.1585003599415042e+000
    1.3533476108199875e-002 -6.4288039334219704e-001
    1.1395411357859306e-002 -5.7414559189642911e-001
    1.1046774883889443e-002 -7.4795871609668096e-001
    1.0351328094345792e-002 -1.3937323898458440e+000
    9.8390210318945719e-003 -1.6124281372031033e+000
    1.0770608186005804e-002 -9.0492341991352332e-001
    2.3408645784323126e-002 -3.4381448495724592e-001
    1.9876118068039614e-001 -2.5909939624408784e-001
    1.4059192744368112e+000 -3.5984838571894567e-001
    1.4278365220767977e+000 -7.9890853020963681e-001
    1.6209662970920841e-001 -3.3770131189418423e-001
    2.1388486483622435e-002 -3.5717499303454014e-001
    1.0876052280141177e-002 -9.5440595678560292e-001
    9.7821773446368308e-003 -1.5915835448708522e+000
    1.0106873845068486e-002 -1.1280293930473611e+000
    1.2019209606951523e-002 -6.4807148943196646e-001
    1.1306880134814014e-002 -6.6188995646326443e-001
    1.0540754782693770e-002 -7.3267657127920538e-001
    1.0452198065567958e-002 -1.3100088242178507e+000
    1.0058515603340567e-002 -1.6664206237367738e+000
    1.0601531711640475e-002 -9.4880553601410933e-001
    2.2438753378888499e-002 -3.5207472563541714e-001
    1.8318018561322327e-001 -2.6713777068595057e-001
    1.4953728620095810e+000 -3.3378858526999577e-001
    1.3836771235911394e+000 -7.4537368860117925e-001
    1.8346866118940730e-001 -2.7738714251255625e-001
    2.1799463604119506e-002 -3.7072063998196086e-001
    1.0918551022221416e-002 -9.6024756757929419e-001
    1.0201721233887221e-002 -1.7209635751725045e+000
    1.0189593834411703e-002 -1.1927890020686938e+000
    1.1546789708543148e-002 -6.7799587547573736e-001
    1.0370460036472575e-002 -7.0454312872785552e-001
    1.0262177348393835e-002 -7.2516332375867520e-001
    1.0430686352616823e-002 -1.3273358820798735e+000
    9.5945825092663521e-003 -1.5455273325343217e+000
    1.0993884611421411e-002 -9.1605889126775364e-001
    2.5278330017539100e-002 -3.3237994648061830e-001
    2.5190499462833293e-001 -2.5265471187425059e-001
    1.2493641835602356e+000 -3.4580615794970809e-001
    1.5529117053131378e+000 -7.0712943724080379e-001
    2.8894185802585703e-001 -2.5970369382085962e-001
    2.7748311561135969e-002 -3.2158311077102220e-001
    1.1475866058913081e-002 -8.4627681311829850e-001
    9.5295840068869691e-003 -1.5307745166777096e+000
    9.8094842826117259e-003 -1.4242728890690866e+000
    1.1948224039619046e-002 -9.7331797675122889e-001
    1.0884708127358160e-002 -8.1946302615967870e-001
    1.1409972317836208e-002 -1.0207850234349893e+000
    9.5747031186923723e-003 -1.4503110572197866e+000
    9.3392822898580707e-003 -1.4061734852497614e+000
    1.2790820030726688e-002 -7.7753719978450175e-001
    5.3084286972420208e-002 -2.3935325822385897e-001
    9.9162081913181466e-001 -2.7741772916187674e-001
    1.3459503491822329e+000 -3.2447017346357399e-001
    1.5747251391063806e+000 -9.2327634644034817e-001
    2.9475861639918360e-001 -3.4739408361332352e-001
    3.6360215893652473e-002 -2.3547568388270174e-001
    1.5116050058076856e-002 -6.7617331063361652e-001
    1.0258485395422951e-002 -1.3491740167373221e+000
    9.5956071104594913e-003 -1.5772208020727880e+000
    1.0006536182291848e-002 -1.4901995758616651e+000
    1.0278135207237844e-002 -1.4684579780459901e+000
    1.0086298124123615e-002 -1.4774025252287732e+000
    9.3786322370390147e-003 -1.5205107514299503e+000
    1.0680733492026634e-002 -1.3170043729409389e+000
    1.7024774664121011e-002 -6.4253323665392426e-001
    7.5933851561794080e-002 -1.8599273760522775e-001
    1.8849058572338411e+000 -4.0390839797868022e-001
    1.8715541076064270e+000 -3.3977619215473825e-001
    1.3220561822110539e+000 -8.3415449591887925e-001
    3.6660692847114551e-001 -2.7713738045140168e-001
    5.5616630335540235e-002 -1.9167874383498690e-001
    2.0200058333768169e-002 -3.9612554869404304e-001
    1.3106383980770809e-002 -8.1384403385357784e-001
    9.9973154282583798e-003 -1.1594208044432865e+000
    9.0859399135387389e-003 -1.3156224662901390e+000
    9.1403338741034880e-003 -1.3411263690276845e+000
    9.0851190396737582e-003 -1.1529178295614564e+000
    1.0981528882980837e-002 -1.0371008170081784e+000
    1.2881954908558585e-002 -7.3933219778763026e-001
    2.1172871778748086e-002 -3.9157209890815659e-001
    6.2631568288442435e-002 -1.2544954005393383e-001
    1.8906563045861526e+000 -3.0948243081023330e-001
    1.3018953643649649e+000 -2.6347882374052861e-001</input_scale>
  <output_scale>
    5.2631578947368418e-001 4.9999999999999994e-001
    5.2631578947368418e-001 4.9999999999999994e-001
    5.2631578947368418e-001 4.9999999999999994e-001
    5.2631578947368418e-001 4.9999999999999994e-001
    5.2631578947368418e-001 4.9999999999999994e-001
    5.2631578947368418e-001 4.9999999999999994e-001
    5.2631578947368418e-001 4.9999999999999994e-001
    5.2631578947368418e-001 4.9999999999999994e-001
    5.2631578947368418e-001 4.9999999999999994e-001
    5.2631578947368418e-001 4.9999999999999994e-001
    5.2631578947368418e-001 4.9999999999999994e-001
    5.2631578947368418e-001 4.9999999999999994e-001
    5.2631578947368418e-001 4.9999999999999994e-001
    5.2631578947368418e-001 4.9999999999999994e-001
    5.2631578947368418e-001 4.9999999999999994e-001
    5.2631578947368418e-001 4.9999999999999994e-001
    5.2631578947368418e-001 4.9999999999999994e-001
    5.2631578947368418e-001 4.9999999999999994e-001
    5.2631578947368418e-001 4.9999999999999994e-001
    5.2631578947368418e-001 4.9999999999999994e-001
    5.2631578947368418e-001 4.9999999999999994e-001
    5.2631578947368418e-001 4.9999999999999994e-001
    5.2631578947368418e-001 4.9999999999999994e-001
    5.2631578947368418e-001 4.9999999999999994e-001
    5.2631578947368418e-001 4.9999999999999994e-001
    5.2631578947368418e-001 4.9999999999999994e-001
    5.2631578947368418e-001 4.9999999999999994e-001
    5.2631578947368418e-001 4.9999999999999994e-001
    5.2631578947368418e-001 4.9999999999999994e-001
    5.2631578947368418e-001 4.9999999999999994e-001
    5.2631578947368418e-001 4.9999999999999994e-001
    5.2631578947368418e-001 4.9999999999999994e-001
    5.2631578947368418e-001 4.9999999999999994e-001
    5.2631578947368418e-001 4.9999999999999994e-001</output_scale>
  <inv_output_scale>
    1.8999999999999999e+000 -9.4999999999999996e-001
    1.8999999999999999e+000 -9.4999999999999996e-001
    1.8999999999999999e+000 -9.4999999999999996e-001
    1.8999999999999999e+000 -9.4999999999999996e-001
    1.8999999999999999e+000 -9.4999999999999996e-001
    1.8999999999999999e+000 -9.4999999999999996e-001
    1.8999999999999999e+000 -9.4999999999999996e-001
    1.8999999999999999e+000 -9.4999999999999996e-001
    1.8999999999999999e+000 -9.4999999999999996e-001
    1.8999999999999999e+000 -9.4999999999999996e-001
    1.8999999999999999e+000 -9.4999999999999996e-001
    1.8999999999999999e+000 -9.4999999999999996e-001
    1.8999999999999999e+000 -9.4999999999999996e-001
    1.8999999999999999e+000 -9.4999999999999996e-001
    1.8999999999999999e+000 -9.4999999999999996e-001
    1.8999999999999999e+000 -9.4999999999999996e-001
    1.8999999999999999e+000 -9.4999999999999996e-001
    1.8999999999999999e+000 -9.4999999999999996e-001
    1.8999999999999999e+000 -9.4999999999999996e-001
    1.8999999999999999e+000 -9.4999999999999996e-001
    1.8999999999999999e+000 -9.4999999999999996e-001
    1.8999999999999999e+000 -9.4999999999999996e-001
    1.8999999999999999e+000 -9.4999999999999996e-001
    1.8999999999999999e+000 -9.4999999999999996e-001
    1.8999999999999999e+000 -9.4999999999999996e-001
    1.8999999999999999e+000 -9.4999999999999996e-001
    1.8999999999999999e+000 -9.4999999999999996e-001
    1.8999999999999999e+000 -9.4999999999999996e-001
    1.8999999999999999e+000 -9.4999999999999996e-001
    1.8999999999999999e+000 -9.4999999999999996e-001
    1.8999999999999999e+000 -9.4999999999999996e-001
    1.8999999999999999e+000 -9.4999999999999996e-001
    1.8999999999999999e+000 -9.4999999999999996e-001
    1.8999999999999999e+000 -9.4999999999999996e-001</inv_output_scale>
  <weights>
    <_>
      2.7512890471150797e-001 -5.1797546313733484e-002
      -5.7520175236532432e-002 5.4191077426329275e-002
      -1.1641563050142097e-001 -6.8592382201031532e-001
      3.7798715516808426e-002 -1.4408007805568106e-002
      -1.4567733050979267e-001 -3.5089420408707039e-001
      -5.3257859176749543e-002 -4.8181128246719919e-002
      -7.0071428688865378e-001 -7.8352072787838345e-002
      1.7820327350345805e-002 -2.5325902686083986e-002
      8.9035803440440861e-002 -9.8745539471490881e-002
      -4.2060147148244004e-001 -1.3431123604625275e+000
      4.0980101358373780e-002 -5.3118959896733220e-001
      -4.4640739360878651e-001 -2.6318237140159753e-002
      -3.8952302356811319e-001 -4.7683144015336804e-001
      -2.0750375006014565e-001 1.0951407394483026e-001
      -1.0656922479364797e+000 -1.1244528562437427e-001
      3.1821535344861729e-001 -5.4377673886108827e-002
      -1.7177320304031424e-001 -2.7103205180404422e-001
      5.9184454568960529e-002 -3.6377017704421660e-001
      -1.6310556209888616e-001 -1.1209186436215142e-001
      -7.5514804256320525e-002 -2.4161833810407618e-001
      1.8655204832656025e-001 3.0435956775814049e-001
      2.7518753099462895e-001 -3.6545617298867614e-002
      -2.0206683410802610e-002 -9.3739295308469556e-002
      3.8928068029355173e-001 -3.0454252205367127e-001
      -4.1922974075751837e-002 -3.2271981469938688e-001
      3.7758069729594557e-001 -3.0960752494587553e-002
      -4.0639734307274572e-001 9.9421939801391176e-002
      -3.8568719298764452e-002 3.4211683437070949e-002
      8.1703668320237746e-002 -2.2811303091452279e-001
      1.0130049902082226e-001 2.1291396748659697e-001
      3.6277112439619408e-001 -4.9938999908295756e-002
      4.4341518883477959e-001 -8.9926820594962084e-002
      -2.0036703456715821e-002 -1.3795893421775959e-001
      -7.0450457885535472e-002 -2.3753237404056454e-001
      1.0126200327167766e-001 1.6883658049765957e-001
      3.6898841244612762e-001 5.0580635342454494e-002
      -5.4820153812171002e-001 -2.0821779726524284e-001
      1.7537906710307591e-001 3.7260554409368840e-001
      4.5535385786070803e-002 -1.5132340434779870e-001
      3.6405250409962252e-002 1.5660058786975337e-001
      7.0365328692292006e-002 5.7480148166517669e-002
      -5.4234271255336364e-001 -3.3423719710139949e-001
      1.2999935569928484e-001 -2.9574785270950789e-002
      -4.2626673707833775e-002 1.4420710278868698e+000
      1.5768209593774629e-001 -5.3989915654544940e-001
      -3.4799769156339222e-001 5.7253807040839355e-001
      3.9365691900432803e-001 -3.0543658696844356e-001
      -7.0594216525731543e-002 5.2495810130780786e-002
      6.7392672607530790e-002 3.4950803379525136e-001
      -2.8315777944352361e-002 -2.4993100067148358e-001
      -4.7533890211611185e-001 1.5920446757008916e-001
      4.3023649386918256e-001 1.2372506648997174e-002
      -2.4610255126325864e-001 7.1954419483175644e-002
      1.3441471631038912e-001 1.8884951460763352e-001
      4.8798127474875636e-002 -4.8918305268671303e-001
      7.5514641661349996e-002 2.3514684103245467e-001
      -1.1086971327077215e-001 -1.3535592000740827e-002
      -9.5116897450277654e-002 3.8110712058707974e-002
      -2.5160721164329081e-001 2.8963648408607179e-001
      2.4424152954163423e-002 -3.3841812372446983e-001
      5.0448691498665565e-001 -3.7050265535053029e-002
      -2.3771205964641720e-001 -1.8679810465992977e-001
      -1.6323176159249242e-001 -3.1731219435722630e-002
      4.6688324965922628e-001 -4.8441730505242658e-001
      -2.7193182148017864e-001 -2.5756112783513074e-001
      5.6712963405320638e-001 -3.8513991791740815e-001
      -8.1201765053358077e-001 -1.2232384187262098e-001
      1.9424081185267175e-001 -1.0770139176914564e+000
      2.6221760071011285e-001 -2.0450648514616451e-001
      3.2983400119442469e-001 -1.2801304330678434e-001
      3.2928265970136805e-001 -2.1603141760323855e-001
      -4.3101047923224700e-001 -4.4828314485612863e-001
      1.1494214811512041e-001 -4.3446289991453135e-001
      1.3951018895239036e-002 -2.0117808398337594e-001
      1.9484992011723554e-001 -1.6864579203624072e-001
      3.3320011804963828e-001 -2.9058873890890174e-001
      -2.5551996983389436e-001 1.1019941009046567e-001
      1.1314858539681633e-001 -3.1908581698556227e-001
      -1.8389282209330576e-001 -8.9729832404827722e-002
      8.5485292933040417e-003 -2.8044314033482692e-001
      -1.8335517234405757e-001 -1.8125321661404137e-001
      -3.0863604557969865e-001 -2.2654862790240365e-001
      -7.0837529078012731e-002 -1.1946197861603937e-001
      1.0288490606684794e-001 -1.3056593725916732e-001
      -1.9695376476284120e-002 1.1043705545974392e-002
      -1.9261413791642304e-001 -1.7722075784245633e-001
      -3.8739809934937436e-001 -5.0979040630861738e-001
      -4.1928349804895976e-001 -1.1909305151010520e-001
      5.0693851450523728e-002 -1.4306747631319178e-001
      -3.8327692899384189e-002 -2.8747523404725722e-001
      -1.8780315217177038e-001 -1.7456840914736127e-001
      -2.1495980406385543e-001 -5.1200856256424254e-001
      1.9765988564284351e-001 -1.1700510443453775e-001
      3.9242223650061296e-002 -1.4191641654874035e-001
      -2.5799012012385436e-001 -2.8554492184033770e-001
      -1.8646574621157064e-001 6.2920825664641369e-002
      -4.7334157228102275e-001 -2.8460912323977000e-001
      -4.7768739624393292e-001 -1.1528936609125963e-001
      2.8212182655028877e-002 -1.3867135826902838e-001
      -6.5118195155614100e-001 -2.8228883152293993e-001
      -1.7849171764883218e-001 -4.2568921830931424e-002
      -8.9026932161344219e-002 1.9600706707863266e-001
      2.4651135584532707e-001 7.3266169264868126e-005
      -3.0504455272538639e-001 -1.8886208702960242e-001
      -3.9321219623003412e-001 4.7341617129847288e-002
      -6.7184497612834307e-002 6.0976414785612582e-002
      -3.0237127685886860e-002 8.4616727172058737e-001
      -4.6642951597789317e-001 -7.6114601278794866e-002
      -5.8900418002738250e-003 -2.7477572922565691e-001
      -3.0086010234964061e-001 3.1983527762359809e-001
      -6.4014960249439923e-002 -4.4525756767252073e-001
      -2.3651115578373999e-001 6.7472519549595392e-002
      -1.8986396130280986e-001 -4.8899350305063549e-001
      -9.2596540140445313e-002 -6.9614231811443084e-001
      -1.9417007982631823e-001 -5.2101120174669426e-002
      -4.3851811666122467e-002 1.9575279613624871e-001
      2.9052599714212307e-001 4.7319616033876938e-001
      -7.1944017686310757e-002 -6.8601784691089782e-002
      2.2128901261224640e-001 -5.0132524813172730e-001
      -3.7485904934741970e-001 5.3340122360438551e-002
      -1.9683477760735338e-001 -4.6849870121806969e-001
      -3.5066656579209443e-001 3.5557187981994498e-001
      1.2224811890317572e-001 3.0916518867487258e-001
      -2.1529118134301573e-001 1.2882886592015408e-001
      1.9119697962312041e-001 2.4099072380900038e-001
      -2.9602579047894841e-002 -5.9429105085539380e-001
      1.3722119899214238e-001 -1.9360923072620636e-003
      8.4285649386769926e-002 -2.0911480252998055e-001
      3.7316311880489179e-002 1.2853075321259105e-001
      1.5717843618889279e-002 1.3456468654050676e-002
      -1.0884803077684327e-001 -7.2247251821336289e-002
      -1.2685923368994084e-001 2.5781272798602800e-001
      -4.3905426805114625e-002 -7.8024266998212788e-001
      -2.2141216308999781e-001 3.8340989023184202e-001
      -2.9638744639501763e-001 -8.1965467583770546e-002
      2.1357364788216074e-001 -3.5627657344063779e-001
      9.8881124700299805e-002 6.4686747670251776e-001
      3.3104803134927430e-001 -5.3412950241256640e-001
      -1.3561033599227923e-001 -3.1416368725325231e-002
      1.5445068998686823e-001 2.0673407269920459e-002
      -2.1536594001202744e-001 3.0993747605199562e-001
      8.8192968586923090e-002 -3.2567708926121526e-003
      2.4655619484782046e-001 -1.3290430507918805e-001
      5.5653614588252180e-002 2.2195926814021183e-001
      1.8093494775639561e-002 -1.7961984726009617e-002
      -4.1628130128060409e-002 -3.4175101974676853e-002
      1.9143838434832955e-001 2.2452036308644147e-002
      5.3358193003196504e-002 -7.4898187394695698e-002
      -1.3944902402346415e-001 1.6463199844984996e-001
      1.0986061186936125e+000 -2.5379173351174139e-001
      -1.7563461241729161e-001 1.6774963004884635e-001
      5.4903276219771355e-002 -6.8394906284159218e-001
      -5.6105969993649668e-002 3.9348893267664810e-002
      -2.7019742437979133e-001 3.8862476435009319e-001
      7.4017918678869719e-003 3.6650158258392784e-001
      -5.4964158291390779e-002 3.0098923758528795e-001
      5.4107853690511742e-002 -1.9617148046884431e-001
      -3.8489881703584616e-001 -5.2122023773726678e-001
      -6.8338154925931982e-002 1.5138958355607510e-001
      -3.1554447551843817e-001 7.7325784208646567e-002
      6.2890305054807472e-001 -3.5662366792628009e-001
      4.5376859353022159e-002 -1.3647344404687856e-001
      -4.2331102382493341e-001 -3.0710338906581519e-001
      -2.6938772019466367e-001 -4.5480822759364596e-002
      4.7634320323571150e-003 4.0048836040016678e-001
      1.2721777326940437e-001 1.8657683781022807e-001
      3.1843299319407138e-002 2.7267860102659064e-001
      -3.3788155861868574e-001 -5.3776616534629507e-001
      1.1814912798687724e-001 2.1903475721964200e-001
      -7.2943847364841130e-004 1.2929122415091318e-001
      -1.1111887839326753e-001 -6.4177704493185050e-002
      5.2870443327626138e-002 -8.6706060040562388e-003
      -1.4769362936731420e-001 5.0141258746998285e-001
      -4.0215616601725721e-002 1.7759254726507825e-001
      -1.1513793820004516e-001 1.5868288226615584e-001
      2.3703680539321668e-002 -4.9552410859717913e-002
      -1.1481984155345862e-001 2.7767400620786978e-002
      -3.4398552043369272e-002 2.3209793995569225e-001
      1.3631827529817825e-001 1.0430376034359264e-001
      -4.0544628934002708e-002 -6.2777874135884448e-001
      2.3437119029504536e-001 2.1849093723054373e-002
      2.2814029585315726e-001 -9.2128167207357864e-002
      -1.7997106609468994e+000 4.9953421218799150e-002
      5.2787327315879240e-001 1.3031011627453075e+000
      5.8234445212338455e-002 3.0828912790326884e-001
      2.7656419194846915e-001 -1.0310208930224628e-001
      8.8197480247220650e-001 -5.7792413449056401e-001
      1.4046891125829280e-002 -4.3592739013667628e-002
      4.3454168750268279e-001 8.6778668608576859e-002
      -3.6460226719980060e-002 3.5982001563576407e-002
      1.1193283362667708e-001 -1.2743855617665298e-001
      5.1364203063836511e-001 -1.0694583281868511e-001
      -3.0022541583871165e-001 4.3652384856443481e-002
      8.2992694959224969e-002 1.4174103486269887e-001
      -3.5594029628440632e-001 4.7829187943033070e-002
      3.2889716563162125e-001 -5.3852981347011319e-001
      -2.8599251127741625e-002 1.0218612396510277e-001
      -5.2490612691863718e-002 -8.3755375571777521e-002
      -2.1956260332059283e-001 7.4317643782006615e-001
      -3.3272472316643364e+000 -2.7494618567390000e-001
      -6.0493288594019279e-001 -9.4700985235774571e-001
      2.3818713352872681e-002 1.9231867447800768e-001
      -1.0428798692217358e+000 -1.2669569104854452e-002
      2.5598568587986775e-001 -1.8743804475656720e-001
      -7.6353505081311090e-001 -6.1228426459154306e-001
      -8.4073632533121123e-001 -2.4013610714992362e-001
      1.4641469392695672e-001 -5.4473890711405926e-001
      4.8838256791125783e-003 -6.4802354616148750e-002
      1.1561069993228386e-001 -5.7239647736616295e-001
      -7.4812121781056573e-001 -9.2491839687966448e-001
      -7.1069972909446236e-002 6.5806445936174365e-002
      3.1862052994710549e-001 1.5125442441870277e-001
      -7.7420745076209087e-003 4.2707515794123402e-001
      -4.6630805889259047e-001 -5.8892852196790524e-001
      3.5147344771011185e-001 -1.6910699686622871e-001
      -4.0997064155198382e-001 5.5445879866909142e-001
      -3.6341151141100592e-001 -6.4588550014938684e-002
      -9.9258720642330968e-003 9.1648985043333672e-002
      -1.6446838674061057e-001 -1.1872804102753468e-001
      1.9966106976813728e-002 1.5051225868892701e-001
      -5.0682411831553947e-002 -1.8147470710216732e-002
      -6.8426515895206241e-001 2.4432391234186901e-001
      -1.9426762891552082e-001 5.1717418469836374e-001
      -7.1851910217021864e-002 -3.3222761825670366e-001
      3.0319552852505149e-003 -7.2846306952855516e-002
      3.9801342702107922e-001 -9.6500416315436183e-002
      -7.8893816148149554e-002 3.9217833245121139e-002
      3.0764087446134081e-001 -1.8420591913423545e-001
      3.1957676365782256e-002 -3.2695095471549601e-001
      -2.9646008578223637e-001 1.9070184173768212e-001
      -1.5441936087585307e-002 -9.4571794715318944e-002
      -6.3154129342184478e-002 9.0369391163011931e-002
      9.9850681433395305e-001 -3.9788030734362037e-003
      -3.4775334287799176e-001 2.8372304427208056e-001
      1.1670479655679705e-001 3.0835446972862934e-001
      -9.7986345299466635e-002 -1.1994149131455821e-001
      2.5888345612565455e-001 5.4523932811764209e-001
      2.7368384612460526e+000 8.8800456831032507e-002
      -3.0870372640245708e-001 2.3218907908390202e-001
      1.7866375965752723e-001 2.2254364246746819e-001
      1.7025415009805700e-001 -1.1203749623445071e-001
      -3.4603524056410055e-003 1.1043429102727155e-001
      1.0212256143114938e-001 8.1874524584179709e-002
      9.8031332733337723e-002 -8.0073402584777964e-003
      1.7397359025906148e-001 3.5795220826268415e-001
      5.0221877213298638e-001 -3.3591656502337208e-001
      -1.9580023508805303e-001 1.9138323296284110e-001
      -6.4234524301560569e-002 2.7699117701257975e-001
      1.7187881309758229e-001 5.4371891934411288e-003
      1.3814931208509545e-001 -3.5394370605175157e-001
      -6.1795568460256160e-003 4.2253261915833723e-001
      -8.1261150374248803e-001 4.2734950007684114e-001
      1.5223935224368251e-002 1.2650231269583401e-001
      1.4035412391209947e-002 -1.2276213922871833e-001
      9.5248327133111085e-002 -3.7735656024426772e-001
      -7.5671152379683748e-002 8.8309469370184734e-001
      -7.6277162162003351e-002 4.5638203516135767e-001
      2.7173869851492810e-002 1.7173915994064431e-001
      1.5142793234562973e-001 -5.0118011867866429e-002
      -2.8420480985727192e-001 -6.1316560065606804e-002
      2.6693459617592136e-002 3.8594368558524210e-002
      4.0871936172023459e-003 2.8801249611708735e-001
      3.4281072227010982e-002 2.1214777510308672e-001
      3.4376265213605234e-002 -1.3447110159961126e-001
      4.0623618270627992e-002 5.7520305515899130e-002
      -1.8865287674746256e-001 -2.1429265904258205e-001
      -1.5841976166942096e-001 -4.7074287774618745e-001
      3.3534511067533984e-001 -1.3225422818248112e-001
      -2.5495435082737866e-001 -1.6700253266168757e-001
      -8.7516852730720707e-001 -7.0386551173255751e-001
      -2.4383748743341938e-001 -1.2028356494215352e-001
      -2.5898974609545289e-001 -1.3066959688424277e-002
      -5.5760360601928527e-001 7.9007406577198430e-002
      1.1860075533066582e-001 -4.0810948682352227e-001
      1.3071478866589833e-001 -8.1030309163413605e-001
      5.0442845439127602e-002 -1.8953842335189874e+000
      -2.3547348634098547e-001 -4.3887598493997437e-001
      -2.8998917483872014e-002 -2.6978777495633643e-001
      -3.4146817380763361e-001 -5.3858080401833042e-001
      -1.1834775451510582e+000 -1.5331296212784079e-001
      -2.0976518381873097e+000 -1.5377264736172858e-001
      1.4710823121365546e+000 -1.8190167820092651e-001
      -1.9955449393108407e-001 1.3204262782446047e-002
      1.8160444902463158e-001 -4.2980881120660597e-001
      2.1373160073991973e-001 -7.1328028897093521e-001
      -1.0783325118257752e-002 1.4470796742480075e-002
      -1.7367770513946994e-002 1.8602051107908465e-001
      1.6228563460695186e-001 1.1243468463203812e-001
      1.7928006039781913e-001 -5.1679570817582543e-001
      -3.1079885252430006e-001 -6.1199111324530445e-002
      9.4658011835514533e-002 -5.7104464943460997e-001
      -1.3530240617127816e+000 -6.3523561446009374e-002
      4.9149148766746066e-002 -1.6406588075168493e-002
      -1.4713045301438341e-001 -2.0738223482210830e-001
      -8.9201473920832872e-002 1.7515912971859962e-001
      -4.9228453190662741e-002 2.8336573693525402e-001
      -2.8896878110841051e-001 5.0588303034227143e-002
      1.5587438537359080e-001 2.4391631481545978e-001
      -1.0511174167961426e-001 -5.6057168753292208e-001
      -9.0754228391153220e-003 -1.4778821923973337e-001
      -1.9104168291229410e-002 -1.7839892438447222e-001
      -2.6911883582033019e-001 2.2297747525938508e-001
      4.7693222492706960e-001 1.9828465886241300e-001
      -2.2782695888402724e-001 2.5922730469436583e-001
      -6.3580243608856836e-003 3.0534496990698434e-001
      -1.7941100019963289e-002 -8.1270163781047522e-001
      2.3440307630381583e-003 2.6693933477208178e+000
      4.3082695905245209e-002 -4.1169424216692341e-002
      -2.4851585981257407e-001 2.7228524235923579e-001
      1.5320222660311639e-001 2.5379931602578160e-001
      3.0327840289074953e-001 -2.7963219022758490e-001
      4.5295723817818312e-001 1.7005152181199845e-001
      4.6952567376417703e-002 4.3655457326649810e-001
      -3.6151542783192719e-001 4.4249649060243273e-001
      7.0177044762051299e-001 5.0160173949513653e-001
      -1.5435574890341938e-001 -1.0429459879812855e+000
      7.4504860996029931e-002 8.1232320579009409e-001
      -1.3712634333864016e+000 -1.6158624099928114e-002
      6.8204262990257235e-003 5.3099965155197354e-002
      3.3710782657127686e-001 4.1364645192368360e-001
      -6.0536472266340775e-003 1.9180187168675403e-001
      -4.6971394398258720e-001 2.4052655725943201e-001
      -3.4627744684196458e-002 -1.5309595934391737e-001
      -6.9178033461468058e-002 -9.9248812217912874e-002
      1.1021468346806473e-001 1.7089430871892972e-001
      -1.5270569732219729e-002 3.3399584176749481e-001
      -9.0531498424253354e-001 1.8166410338886141e-001
      -3.6722604954418092e-002 -2.0888615211224490e-001
      -3.1101000466287076e-001 1.4023363864812120e-002
      2.6905804940712041e-001 -4.2584457389386876e-001
      2.1129511838292767e-001 2.0185331761302101e+000
      -2.9513905427749754e-001 8.3870614045218195e-001
      3.1188415510378831e-001 1.2134385751505716e-001
      1.8131724508023730e-001 -1.4943188348757105e-001
      1.8020800493031827e-001 -2.5841681420634185e-002
      2.2618699320883384e-001 4.3597750001261748e-001
      1.9680831885655903e-001 3.7671923852641181e-001
      2.7901123111970677e-001 3.6423660026574184e-002
      1.9194701666542130e-001 -2.2618174496711757e-001
      -2.1829106023596970e-001 4.6028129204400703e-001
      -1.8428403443555566e-001 -2.7794003903246101e-001
      3.2654074093410701e-002 -3.7892205525949157e-001
      2.6609181456171253e-002 -1.3233872958402934e-001
      8.8291544617937104e-002 -1.1145354416345521e-001
      -8.3883614495303349e-002 -3.5335742197473557e-001
      -6.0495041521829274e-001 5.1367940737958730e-002
      -1.3394056974196736e-001 -4.6502152224283794e-001
      -5.1838598585597317e-001 -2.1864623237546257e-001
      2.7917783488515101e-002 -1.1321305019461851e-001
      -2.1369204734690892e+000 -3.3729975178989685e-001
      -1.3310233047171974e-001 -2.0262937998931835e-001
      -2.5248241580322583e-001 -4.1002307545691807e-001
      2.3001416610958836e-001 -7.9732788308869998e-002
      1.9621773816102947e-001 -1.9519987775962447e-001
      -3.4901332322948370e-002 -1.6242149008103868e-001
      -4.8579696500885200e-001 -8.0478300170330433e-002
      1.5371641061390948e-001 -8.9783759405424191e-001
      -1.9182248597951226e-001 -1.9256946126741706e-001
      -2.8214099493539940e-001 -3.5749301231850067e-001
      -9.2221773959851983e-001 -5.0359190073963800e-001
      2.7997341100305667e-001 1.8330603785566682e-002
      -2.2547319483977835e-001 -1.0827050111019478e-001
      -2.6598549701404711e-001 -1.5372551764677034e-001
      -8.2989516892428616e-002 3.4587892312340170e-002
      -1.8466702579978836e-001 -8.5122782114879780e-002
      -4.2010379290555705e-002 -6.1518387196777791e-001
      -7.7993368058099352e-002 -3.0069712818425248e-001
      2.1245773265544010e-001 -5.0366948265449969e-002
      -5.1844636796070709e-001 2.2130456242539481e-001
      -1.3048425851416198e-001 4.2213960786446472e-002
      -5.3991500481692600e-002 -4.9749651453273043e-002
      -1.9194316542204709e-001 -6.7974459309622898e-002
      2.2035417370536279e+000 -6.7628008400819298e-002
      -1.1600576315494252e-001 -1.5578610104263621e-001
      4.3035771646716546e-005 4.7201066592032111e-002
      8.1221976731051023e-003 1.5161537231233342e-002
      -2.9525468458411430e-001 4.7780057754823350e-002
      4.0429013899654015e-001 -2.2295613322590208e-001
      -6.3538928843997111e-001 -3.0903297176673039e-001
      5.3464524625549001e-002 2.0519786291709602e-001
      8.8608276247797393e-002 2.4126673841468500e-002
      1.6322563337427384e-001 1.7177876695992206e-001
      1.7609935492546763e-001 4.6888574211387708e-002
      2.1071451295853272e-001 -4.4779599867076331e-002
      3.9883411345971020e-001 5.0293216621367695e-002
      1.4711727391455414e-002 -2.0258625802817176e-001
      8.7868477015852542e-001 -2.4434034753745310e-002
      -7.5988307704211666e-002 1.0129529256775940e+000
      3.7940301448845376e-001 1.3260101775373628e-001
      1.6682875559928320e-001 2.5151424858619771e-002
      7.0994845115595923e-002 -3.1395004522648112e-001
      5.1989812115844108e-002 7.3586757509346212e-001
      -1.2584182656183904e-001 5.4188316847928508e-001
      -5.3933075040308968e-003 -3.0491070084132005e-001
      1.4009333716900171e-001 9.7057744479057489e-002
      3.2940683563855077e-003 2.8465598892087593e-002
      -1.4797167199897741e+000 2.9070850507841856e-001
      3.9527324118640961e-002 5.8863522525664036e-003
      -3.3713010846631247e-001 -5.4382654407126430e-001
      5.0983252003796033e-002 1.1097293456778730e-001
      1.5195998837058319e-001 2.3879998654919299e-001
      -6.4855466037095977e-001 7.8072126323276467e-002
      1.1850714670894140e-001 -3.7293993392783936e-001
      -3.8488568819170656e-002 -1.4661339172899229e-001
      1.1575981038205339e-001 5.7172156976223937e-002
      -7.0937725338707708e-002 6.7324677380440945e-001
      -2.7095632952694970e-001 5.1000797311447377e-001
      3.0712388606079041e-002 7.5591355104517888e-001
      1.6756617734367346e-001 8.9458788787607092e-003
      9.1264614771939312e-002 7.1987233511021181e-002
      1.3158520401987450e-002 8.7720578866869237e-001
      -2.6393023090103534e-002 1.3464017520503970e+000
      5.2201615150426151e-002 1.1107891878443409e-001
      1.2906994288565185e-001 -4.4629239362847078e-001
      6.3789843059945520e-002 -3.6482482859041560e-001
      -1.0866296613541591e+000 -4.5713885804972038e-001
      1.2181420414689467e-001 -4.8857403736843197e-001
      -4.2903128530266077e-001 -2.0018931111601349e-001
      4.5686951050699302e-002 -3.1171226395407614e-001
      -2.2686403634001286e+000 -1.0008485876031190e+000
      -5.6979612084281495e-001 -8.7168628473009013e-001
      -1.2663430847394097e-001 -4.7769789400655943e-001
      -5.4322136156815282e-001 -1.9694233772416037e-001
      3.2204451135280990e-002 -1.0522940585837788e-001
      -9.1158124571492982e-001 -3.5340476803076876e-001
      -1.7774281530994754e-001 -3.7153826018539893e-001
      3.4389501086426039e-001 -2.9677968161650536e-001
      3.8031850250623767e-001 3.6393975303654474e-001
      -7.6379878080297725e-002 -8.1276076817113893e-002
      6.5749780833818355e-002 1.6495135779572671e-002
      -2.2617763357846179e-002 1.3267417770996642e-001
      1.5318702440772428e-001 -1.7979506383038107e-001
      -1.0948198679620771e+000 -2.2737220130581445e-001
      -9.2054370892621695e-001 -6.4258135866922554e-003
      -5.6617649446074982e-002 1.6275661395282068e-001
      -4.4495921537749318e-002 4.8938878681998810e-002
      9.0798114082460399e-002 -8.5314123337027134e-002
      -3.4005398910880558e-001 -6.6684901318946097e-002
      -2.9582634174954903e-001 1.2361507953633349e-001
      -8.0582289681825677e-003 2.1180124055725313e-001
      -5.6501295153217550e-002 2.0145472136183590e-001
      -1.9918010641021003e-001 -5.0062227428426087e-001
      1.1528413892608620e+000 5.6993649607412676e-002
      -4.4015295247154684e-001 1.2136592569466551e-001
      6.9847611254141004e-002 -1.2618103055490404e-001
      -4.9261514732033516e-002 -4.7340421929450101e-002
      -6.2861815537214677e-002 -7.3591408677361553e-002
      1.6735319764789123e+000 -1.1638782521368099e-001
      -1.3244221929311448e-001 1.6469929262501071e-001
      3.3782726953158274e-002 -4.2816392355039579e-001
      -8.3624703168983516e-002 -1.2701099756963180e-001
      -7.2914738706785054e-002 -1.8206992667715360e-001
      3.9451236293841840e-001 -7.6198689314533741e-001
      -4.9031006932959148e-001 -8.6610820331726790e-002
      -1.9489368264608475e-001 6.6993244958438225e-002
      -7.6381909928956770e-002 9.5196288220428305e-002
      4.9285336147897957e-001 -6.8392875149546034e-002
      1.4201605684163127e-001 1.5069467966471206e-001
      3.3482579903918408e-001 2.5078353683631810e-003
      1.9284304358170884e-001 6.2248731261992329e-001
      4.6602404088162734e-002 -2.5939668165200463e-001
      2.9086939139469153e-001 -2.6109087407100239e-002
      -5.8242086052677466e-001 7.7953625439302865e-001
      7.8337036153888817e-002 2.3438518051387278e-001
      3.9487259195654650e-001 3.5860824205549974e-001
      7.2780543454772056e-002 -2.7506403357330089e-001
      -1.1229087541121657e-001 2.9440288368379758e-001
      -1.4020079146276510e-001 1.6112649481612606e-001
      1.6413074612873590e-001 4.8763864423671877e-001
      7.1556657869701601e-001 1.1072367499148900e-001
      -1.8411190411302705e-001 -2.4259127590883108e-002
      -1.2736751743368895e+000 1.2960740056436490e-001
      -4.6117335749339622e-001 -1.2876735273479545e+000
      -1.9643811831800445e-001 -7.6265989447756233e-001
      3.5814815639237696e-001 -6.5303472850154420e-001
      5.2200225267481117e-003 1.0096561544957929e-001
      -2.2883577432012839e-001 5.3618785242415742e-002
      4.8014278819630725e-002 -2.7805203210783591e-001
      -1.2464996870511526e-001 -2.7580034527039943e-001
      2.8846729382080695e-002 1.0888180089725082e-001
      -5.2504322728047670e-002 1.0752687185994207e+000
      -1.8573676960235014e-001 -5.8995927054883955e-003
      2.0639458132788219e-001 -2.5521866801499588e-001
      1.1685291333524536e-001 8.1381355240206940e-002
      5.9641653187267010e-002 -1.0367289235110624e-001
      -2.8072335985877800e-001 4.9013768808279568e-001
      -2.5570898119579244e-002 4.7129215163488014e-001
      1.3149775097050434e-001 -3.1913726609596416e-001
      5.9106946418970567e-002 -1.4683471669744272e-002
      8.8842296703018103e-002 -1.1228115904404420e-001
      -1.9386200469321027e+000 -1.0117237399742194e+000
      -1.8371102333660325e-001 1.1822412087324428e-001
      8.3492494420498076e-001 -2.0704628606388706e-001
      2.2371743554194232e-002 -3.7377735918873339e-001
      -9.7455836181240019e-001 -1.2290541568139113e+000
      -7.7538495179468914e-001 -1.1646569164415230e+000
      1.2343093778209759e-001 -4.5669116899323137e-001
      -9.5837335369879983e-001 -8.1603523414562659e-002
      3.4916871589603500e-002 -1.0416492628897045e-001
      1.2312508244942180e+000 -4.6746622556350842e-001
      -5.8883421978518216e-002 -5.1284273776058910e-002
      -2.6253603723313751e-001 -4.0980058452343132e-001
      4.7921350709205557e-002 -9.6864892167048500e-001
      7.5231729016650345e-002 -3.3493019602288415e-001
      -6.0688640978156361e-001 -3.9591591277462279e-001
      -3.3175077055865573e-002 -1.8789815304390731e+000
      -1.0057066022264302e-001 -1.4458627409059682e-001
      -1.6986991854021061e+000 -1.6469183135660642e-001
      -3.7653989718381303e-001 -6.3484199808839903e-002
      2.0188128517106430e-001 2.0214424324948990e-001
      -4.2294872643321983e-002 -4.8506879973683753e-001
      -2.0114182356273136e-001 -8.1667905767549037e-002
      -3.3609891575871187e-001 -6.6462196087918077e-002
      -1.2257861513774174e-001 5.0470220179364575e-002
      6.1012270070276105e-002 2.3433045549103584e-001
      -4.4907290011830373e-002 1.0252845740146740e-001
      -1.9489754908234933e-001 -3.7985383531198663e-001
      1.0028656058126435e+000 -3.4212154771883108e-002
      -4.5826438928152152e-001 1.2170519212690020e-001
      6.7789602738422522e-002 -1.1943456787488525e-001
      -2.6766115259742407e-001 -1.4352224372916292e-001
      -3.7039019125700637e-002 -6.8749501113977332e-002
      1.3357926567404379e+000 -1.2140227730931302e-001
      -2.4188459477749197e-002 -1.6150950982663007e-001
      3.4398880508566251e-002 -4.2635081201333125e-001
      -2.0018782499881713e-001 -9.8428281156646660e-002
      -2.4790965028064871e-002 -8.9929461672211441e-002
      2.5111937888740395e-002 -2.3145621083100576e-001
      -3.7246564169425639e-001 -1.4549991054151148e-001
      -1.1249740699376772e-001 1.5901172448019854e-001
      -9.7080823820857434e-002 -9.8151038969380322e-002
      2.9665411710678152e-001 8.5993565632274105e-001
      -2.4411668430098163e-001 2.2323239592907096e-001
      4.0117419836604123e-001 2.1150461977217794e-001
      5.3118882585120519e-001 1.5274114963479768e-001
      2.9319912604374210e-002 -3.0949282684342583e-001
      2.9524912619935956e-001 8.3682720162794169e-002
      -5.9801936838144099e-001 1.1186287509345851e+000
      5.1949177414050596e-001 2.9853770260722029e-001
      4.7382620542400727e-001 5.4509392389764344e-001
      6.4244900073449407e-002 -1.2011275376523343e-001
      -7.6911220440523353e-001 4.7960589490466116e-001
      -1.7051170081829647e-001 5.7275443041073204e-001
      1.2724083732987432e-001 2.4948170896608127e-001
      1.0066962533587687e+000 1.1667638767957444e-001
      -3.0050435488854051e-002 5.9512229771644394e-002
      -2.3929749952848026e-001 -1.1773956312311615e-001
      -2.7427223055595286e-003 -1.2964213760464831e+000
      -1.2074753136461826e-001 -3.2703326616607117e-002
      4.6010780732930529e-001 -4.4327882460962964e-001
      -3.9207337430987053e-002 3.4844837464445932e-001
      -7.6002953175988278e-002 6.0560610475689156e-002
      6.2738249383941250e-002 -4.2584140244641311e-001
      -1.3521408624352105e-001 -2.7202888704908890e-001
      1.7292991536906788e-001 -4.2114284071492686e-001
      -3.4458695095676971e-002 6.8751802905589865e-001
      -1.8660335642385847e-001 -1.4772455365186205e-001
      2.1466830986317575e-001 -3.1927553820723836e-001
      1.2767623910817527e-001 2.2940896238725009e-001
      6.6579460141650129e-002 -5.2770854978271942e-002
      -2.7761051876281989e-001 1.9246055157758757e-001
      2.8172335650201663e-001 2.0493855037248063e-001
      3.1268897584861555e-001 -2.7338479545299926e-001
      1.2484809636277450e-001 -1.0613881677722942e-002
      7.3968472929746690e-002 -1.1021262140808817e-001
      -1.9339852106744349e+000 -1.3182598393254874e+000
      3.7084712713028611e-001 9.5567572526369229e-002
      -4.9194140928168373e-001 -7.3346025008581228e-002
      -3.7756616588011410e-002 -2.8002565409465058e-001
      -3.5993914189146525e+000 -1.0094104080770305e+000
      -7.8693942978952292e-001 -8.1653322622433577e-001
      7.5785494641006451e-002 -4.5841655213807231e-001
      -3.6248498648626176e-001 -8.5504442380172213e-002
      1.2323647873321092e-001 -3.1124093591052449e-001
      4.0790469302428078e-001 -3.5459552968993369e-001
      -1.1438527948857391e-001 -2.1338611431861159e+000
      -6.0770873093990874e-002 1.1662175110612203e+000
      -2.0889291563778078e+000 4.8835993236315042e-003
      -8.0824844071453791e-003 -2.3883881609923160e-001
      -1.3769372333130057e+000 -2.0465393509073820e-001
      -4.8958841367482481e-001 -1.3691634659560501e+000
      -1.9633202695090654e-001 2.3552337373498558e-001
      -1.2411995470279449e+000 6.0764681120673916e-003
      -1.3600357331481244e-001 -5.5906744489876342e-002
      -6.3834922579188560e-002 -2.6099117674187811e-001
      -3.8559174606237319e-002 -4.7583452999414849e-001
      -2.0293452515409613e-001 1.8648110583986013e-001
      -3.3945726423052686e-001 -1.4968689349045322e-001
      1.2792328819158008e-001 1.9846258744378192e-001
      1.1421432278695352e-002 2.8554452668329577e-001
      -4.3668625929489849e-002 9.8259492415651309e-002
      -1.9912668268385561e-001 -2.8031184713338425e-001
      6.8028460273841795e-001 -6.7930477226948033e-002
      1.4310656748731745e-001 6.3771600622801139e-001
      -1.4220539199559507e-001 -1.6796448369394337e-001
      -2.1360102258471683e-001 -5.2727280057743187e-002
      -4.1756090601829374e-002 1.0488363165815218e-001
      6.2118332736207393e-001 -1.2025173856322306e-001
      1.6151630303696132e-001 -3.4357029224290053e-001
      4.0611794751564109e-002 8.3850045808634057e-003
      2.5541603108480731e-002 -3.0464230265242906e-002
      -1.4988031778689277e-002 -8.4146317225134482e-001
      1.1159342548513414e-001 -1.7677674889569944e-001
      -2.0729893816104375e-001 1.8742368903785198e-001
      -2.5397198219047157e-001 1.1047537625954980e-001
      3.9567893091296227e-002 -9.6933715069351722e-002
      2.4427366266666509e-001 -1.4966842509733149e-002
      -3.1615657816267773e-001 4.7770877725223371e-001
      -1.1004629362235689e-001 2.5875616932257983e-001
      1.5752091833576045e+000 2.1086770027306350e+000
      6.8508240831176612e-002 -1.8652573738097342e-001
      8.5355165200812683e-002 9.7701483449922327e-002
      -1.0811599307108125e-001 5.6171122845173971e-001
      1.9149256911718768e-001 9.0979552853411383e-001
      1.4869777293039561e+000 3.3607427749309593e-001
      5.9448695273043528e-002 -1.0592767501630916e-001
      -3.0877993037760909e-001 -1.5161208631557146e-001
      2.5005630331966969e-002 2.0477996491402783e-001
      -8.9393983336290972e-001 2.6867677734100670e-001
      -1.9371988902328752e-001 8.7016371577109744e-002
      3.5396949201661321e-001 3.9862237025598067e-002
      -2.3944591761305697e-001 -1.1630400625887400e-002
      7.2270067530668947e-002 -4.2418736142772423e-001
      -1.4356413378994323e-001 -6.6746127600757571e-002
      4.6866125966830696e-001 1.5300284793421806e-001
      -3.6021966780724474e-002 2.2095173792216349e-001
      -3.9982140525525033e-002 -9.5005941778528308e-002
      2.2872980552677960e-001 -4.1036571761096657e-001
      6.3673997850703962e-002 -1.5288960547586170e-001
      8.4603259917319026e-002 -3.2762983038539911e-001
      -4.4099975169009459e-002 -3.5424703603734542e-001
      -1.8747698967493023e-001 1.6468406594562313e-001
      2.7089032934668950e-001 -2.9179585377724931e-001
      1.4145313528243394e-001 4.6373843474161715e-002
      9.7444564859770336e-002 -5.5771840842211200e-002
      -2.8709762555975876e-001 -1.0725959408427696e-002
      -2.7786770406591204e-002 4.6734380193349734e-001
      -7.9528961297030937e-002 1.5570231043189459e-002
      1.2872417502563910e-001 -6.9026875850563343e-003
      1.9053928640155440e-001 -1.2047965602656081e-001
      -8.3300710976080639e-001 -1.3976517532048189e+000
      2.7504267861946319e-002 7.7002426432806123e-002
      -1.0636189995134877e+000 2.7081233174717106e-003
      -5.6156993068447302e-003 -1.5395253728077046e-001
      -9.6103873191921430e-002 -3.2549094907109066e-001
      -4.9068882854131390e-001 -4.6929717068478288e-001
      -1.5800179046616086e-001 -2.0729207422149051e-001
      -1.6972368072095281e+000 -4.8825781387395445e-001
      1.1101249107520017e-001 -1.2722385170576370e-001
      -1.4491949174373406e+000 -3.1289161526234277e-001
      -1.4038375447631574e-001 -5.0844291473838110e-001
      3.5451229958219255e-002 -1.2157875392455927e-001
      1.0158989089390672e-002 -4.7934999613649942e-001
      -2.5315438970678884e-002 -3.9359311317347739e-001
      -3.9120365795019818e-001 -9.4085615360827735e-001
      -4.7996063433696745e-001 -1.1838508570136725e+000
      3.5329784201218607e-002 1.8675980605562290e-001
      2.3923044060622611e-001 1.2184525395348342e-001
      -1.3923026657183260e-001 -2.9845567018341435e-001
      -4.0226611558125798e-002 -4.8761966192375515e-002
      6.3637165621178549e-002 -3.8887969155369972e-001
      2.0320132513601576e-003 2.2164124872595004e-001
      -6.9254247166797367e-001 1.4148841437980877e-001
      1.2009808900445507e-001 1.0460390661908105e-001
      1.2153579623667270e-001 -1.1305485917110705e-001
      -4.7557801266736408e-002 6.5941975327618876e-002
      -1.9705828260568822e-001 3.7966850404946788e-002
      4.5270444789432435e-001 -1.7407758441494217e-001
      1.6127659848707132e-001 3.9558146431681845e-002
      -1.1073492385591252e-001 -9.7843248461044641e-002
      -2.6255648112508517e-001 -5.8995219424930481e-002
      -4.1630518877348033e-002 2.9108788840622174e-001
      4.6925561606287325e-001 -5.6637158839250426e-002
      7.8588207767153051e-001 -1.2796761110197252e-001
      1.4502803784952435e-002 1.1649081408852980e-002
      3.9909298127426396e-001 3.0097482545290693e-003
      8.4830920743018942e-002 -3.6008258603781407e-001
      3.7997567487107919e-001 5.0599649126077235e-002
      9.1822448511959628e-002 6.9216294362170083e-001
      5.1066850438252750e-002 -2.3961688945162674e-001
      2.3233437566659762e-001 1.1428046152205047e+000
      1.5741446152863411e-001 -1.5376940066299805e-001
      4.7912770366594207e-002 -7.4034800087282512e-002
      -3.0645654174815978e-001 5.4103988939864800e-001
      1.3785439139611619e-001 4.5451329253388711e-001
      6.7064262861201165e-002 2.8348087839330011e-001
      2.3539073300104636e-002 -3.5933036702028892e-001
      1.8226293228739653e-002 1.0756388584041543e+000
      -3.7510033707708612e-001 4.5520059822823211e-001
      8.9653383542837320e-002 8.9009229050655628e-002
      -2.5613404192675403e-002 7.4728238984122197e-001
      1.5906215511991145e-001 -5.0307847959575014e-001
      1.8273172407807239e-001 1.1793909574740065e-001
      -2.7347328265519866e-001 1.8108986940441280e-001
      -1.0002995608659703e-002 1.4258877821035279e-002
      2.1111246128443267e-002 4.8024566665618312e-001
      -2.3834101590199175e-001 -6.2686673237085699e-001
      1.1089226312208600e-001 -7.0400858488462581e-001
      -2.3501039076792818e-001 6.9519541728640999e-002
      -6.8980791379652823e-002 -1.4803458468049735e-001
      -3.9849177357073426e-002 -1.8981132492663302e-001
      1.4534816057927369e-001 2.2515294111605802e-001
      1.8673739831764002e-001 -1.3931569395241461e+000
      -2.9342416856946513e-001 -1.2045545559555548e-001
      6.9611527563494396e-002 -5.8363814232482525e-001
      -6.3116920084952968e-002 -3.7544342481685711e-001
      -1.9907778569824416e-001 3.8731350910142071e-001
      3.8719549256096647e-001 -5.3517020012481187e-001
      1.8578095919977769e-001 -4.3129787799955958e-002
      1.4252803594352961e-001 -6.1429912963184390e-002
      -1.7405670438386447e-001 -2.7781362866435932e-001
      -2.1906558207288779e-002 1.2281054184167894e+000
      -8.1802485286852605e-002 -3.9250323083989729e-002
      1.1840845631266131e-001 -1.8917736761921169e-002
      2.4979552026995658e-001 -8.6155544983221921e-002
      -8.3338706833710530e-001 -1.2896504488637026e+000
      3.2390948544509170e-002 1.3214828974749970e-001
      -1.0687930053877264e+000 -2.8773288197199213e-002
      1.8199552606158997e-001 3.2275394522004308e-001
      -1.0113391012287770e-001 -1.8835646532169628e-001
      -1.2101577028433568e+000 -1.0452053928249516e+000
      -4.5910117328023170e-003 -3.1702099407153361e-001
      -7.0267431470843045e-001 -1.0078112840863553e-001
      5.3593365515537249e-002 -2.2195189985763072e-001
      -2.0882702363666725e+000 -6.8601287298336611e-001
      -3.8824338968010484e-002 -2.4427800431314459e-001
      -6.3333325250913430e-001 8.0501927836539600e-001
      2.7629834907013007e-001 -3.9521561272697009e-001
      1.0870425483088111e-001 -7.5034732078482630e-002
      1.1946718441496057e-001 -5.3875664931505210e-002
      -7.9307540162823417e-002 -1.8377010198203796e+000
      2.2143357301431046e-002 2.6227077527037879e-001
      -1.0827013343268570e+000 1.4843583299324348e-001
      -5.5436176324082820e-001 -1.0779167033780361e-001
      -1.6187163113798367e-001 -8.8210458726654492e-002
      5.7891870632970334e-002 -4.2432119871927010e-001
      3.6114806928624510e-001 2.0380913923766641e-001
      -1.7856081672637902e+000 1.1216705860717915e-001
      3.0430021025911563e-001 -7.3771081835932284e-002
      1.0085275420016110e-001 -1.1773575535378544e-001
      2.6528664504617733e-001 -2.5286252772428608e-001
      8.4614844703169059e-002 7.5194440316015604e-002
      -4.7694575389218713e-001 1.3094345737477503e-001
      1.9509849161370310e-001 -1.0891835171977961e-001
      4.0935855917604916e-003 -4.6904934634252854e-002
      -2.6874955166125914e-002 -1.4626460532271143e-001
      1.9060023691836384e-001 4.4082459276792657e-001
      -2.9121106177319928e-001 -3.2889962686489464e-002
      5.9588155017542110e-001 -1.5963519307979207e-001
      -8.2013950373119177e-002 -2.6910365715090618e-003
      3.7777735015707731e-001 1.4030454183599172e-002
      3.4520075276933404e-001 -3.0359655227970789e-001
      3.6032407847298914e-001 -3.2491767239731219e-002
      -4.5233503307004402e-002 1.0949839133535704e+000
      2.5819028404744815e-002 6.6484407224567346e-002
      1.3542591658259315e-002 6.9306427745613663e-001
      2.1990355203107767e-001 -7.6257902069003081e-001
      5.4282088348916319e-002 1.4058925228600691e-001
      7.2000099266175413e-002 3.0821225553856346e-001
      1.5324096287046285e-001 1.7422423577363938e-001
      -1.7796936083466069e-001 3.1821632268620992e-001
      2.1902189879003978e-001 -3.3816665170553095e-001
      -1.5847516877065759e-002 1.8165659504123233e-001
      9.3841575169278740e-002 2.0645670119656859e-001
      -1.0667065811420109e-001 -2.4516345058827904e-001
      -1.7986796160877222e-001 1.8625331217035603e+000
      2.6176774034108791e-001 -1.4143197015515982e-001
      2.6630747825185991e-001 -2.6841578612822864e-001
      -4.0703939116738780e-001 1.8847687958280396e-001
      2.8542675085734479e-002 -3.2174046697665981e-001
      2.2728540071609689e+000 5.1594439145792492e-001
      1.5706383136868004e-002 -1.2801026146851813e-001
      -4.6003933485490367e-002 2.4717163124902466e-001
      -2.7214516574643705e-001 4.1982087404589741e-001
      -1.0487706512864428e-001 9.2678650958772951e-002
      -3.5048422543983361e-002 2.3763988157599242e-001
      1.2915120706409328e-001 -4.8672757615923219e-002
      8.0164925547408838e-002 -5.4257312551088510e-001
      -2.9493457612302409e-001 5.1199986544287313e-002
      1.6395436474499184e-001 2.5483574457870608e-002
      -3.2951733181640575e-002 -5.9617672336121796e-001
      -2.7061365992979605e-002 2.2063979428233660e-001
      2.3203339217946736e-001 -1.1889963157802279e-001
      1.5667376549989456e-001 -1.3556685888261538e-001
      1.1051506581527029e-002 3.9897795761535584e-002
      6.1619020035548200e-002 -5.0228662088238618e-001
      -3.2620987853510502e-002 5.2103645084668171e-001
      -1.4382994801312166e-001 1.6941539064577732e-001
      1.1654821902500027e-001 -1.3942362530492835e-002
      1.5414424353549647e-001 1.8698041937920698e-001
      -4.7696337439074582e-001 -1.0017037032285547e+000
      3.4320863026074837e-002 1.5184447681568294e-001
      -1.0600832082677067e+000 3.3886422925210533e-002
      -5.6815547149790943e-003 4.8507329613188502e-002
      -4.1578431501337521e-001 -2.0007404444025892e-001
      -4.7677353481339385e-001 4.5373179250430568e-001
      8.7978569506312089e-003 -5.3188671109552466e-001
      3.3783477329231405e-002 -1.2022580797552679e-001
      -1.8663134541593118e-001 -1.5068168351457714e-001
      -5.1020905392694249e-001 -8.2199514939168461e-001
      -1.7602064558020028e-001 -4.4233491670344138e-001
      2.1933757247730497e-002 -1.6614351431732510e-001
      -8.6747972018361741e-001 -4.6291008393254651e-001
      -3.9894906587669371e-001 -1.3728664794889917e-001
      -4.4055531760751121e-001 -3.9499927101441001e-001
      5.8998715359292082e-002 -1.2645134565469072e+000
      -2.4455675589923767e-001 4.6189194723049658e-002
      -1.1798676723186063e+000 -3.0412788897185900e-001
      4.0552705459103782e-003 1.2151255308794423e-001
      -1.1469053976756338e-001 -7.2367514610349260e-004
      6.3873674247771434e-002 6.0377954109674677e-002
      8.6971710989867085e-002 2.0978398180444000e-001
      -2.1813379011634657e+000 2.3570055936610676e-001
      3.2682731304412360e-001 8.8397343644730703e-002
      8.7720320432328691e-002 1.9578820023786572e-001
      2.6522377336114550e-001 4.0145398470948578e-002
      9.7394251263412612e-002 5.7493276002388974e-002
      -1.0292833317166514e-001 1.7057230230345707e-001
      3.2097720414763642e-001 -3.3755306922814682e-001
      -1.8900215306928586e-001 3.0848371585865086e-001
      -2.0082007450562758e-001 -1.1264293172387235e-001
      2.1320133907220168e-001 8.8095239896073860e-002
      -2.3994840169786236e-001 -4.0168333370341973e-002
      6.3675097361947430e-001 -2.1061241616113785e-001
      -1.4164600984854991e-001 2.1245731449212057e-001
      1.9655447921733873e-001 4.5086030903910779e-001
      1.9518395713361786e-001 -9.2642803341510471e-001
      -4.6735757067311944e-002 -3.8876568564159508e-001
      -5.9368466889384387e-002 2.6871228199670638e-001
      2.9973993482156963e-001 1.4809061523384973e-001
      -3.2552435537192187e-001 5.9388388643192824e-001
      1.4075864416826789e-002 -2.0995504314578231e+000
      5.5057184104895907e-001 -1.4588636095530622e-001
      -1.6288993637001667e-001 3.1443114874938172e-001
      9.4195347522157150e-002 1.0334971784165844e-001
      -1.3487835134243042e-001 9.7892274158591044e-002
      1.2603752963875265e-002 1.0215798816775770e+000
      6.9320984905477601e-001 7.8321331194036004e-002
      -1.3091355318446787e-002 2.7394842417979465e-001
      -8.0978253643919432e-002 4.6415883533279419e-002
      -1.8629495390767065e-001 1.5758724497471481e+000
      8.0089074038469835e-002 1.1973756948262460e-001
      1.6894530941574021e-001 1.8655620599519998e-001
      -3.3587070951598458e-001 2.3004242050565199e-001
      2.7783560249057238e-001 -2.1852892619535874e-001
      -6.1217300355454654e-002 5.0312164980994001e-002
      -6.9382672518892366e-002 -5.8439910666945749e-001
      -2.9763620393563825e-002 1.5474587544157448e-001
      -3.8695385257966225e-001 1.4704472382783347e+000
      9.5415287366631518e-002 8.7110423100963771e-002
      -2.6446378935496162e-001 -6.1735268278733178e-002
      2.2046962438160536e-001 -1.7889111795018880e-001
      -5.6331394913221144e-001 5.9348747815484257e-002
      -1.2908893863980114e-001 5.4684252251973564e-001
      7.5662978337115294e-001 1.6734926517855724e-002
      3.2045319561550589e-001 -3.5896795217844457e-001
      -2.0763901440263591e-001 -8.5157627583698867e-002
      3.7634748578801849e-002 -7.0922166627871361e-002
      -1.2642587035368433e-001 8.3640363286998837e-002
      6.5388232607938362e-003 3.2120669518560829e-001
      5.5789517045551802e-002 -3.4193360664503641e-001
      -3.0781744908107270e-002 5.1323387601070214e-001
      -6.1866566075259255e-001 1.7475306692729745e-001
      -8.5169748777115441e-003 7.0978404546511451e-003
      -2.5156495792920095e-002 2.9444819566307151e-001
      -5.7371988113554417e-001 -9.6666527070728570e-001
      2.6236378553843465e-002 2.1406659257884084e-001
      -1.0558191832032024e+000 8.8393616419525728e-002
      -1.8316207520432828e-003 -6.1935429591683813e-002
      -3.7258583031057896e-001 2.6939227866588991e-002
      -4.7688755975262903e-001 -6.2258318546973924e-002
      -1.9765905048289872e-001 2.2607394993250549e-001
      -8.6581478775272080e-001 -1.6053421536613646e-001
      2.0808537299151350e-001 2.4682338590994501e-001
      -3.9955223355096497e-001 -7.3907526765600973e-002
      -3.9998950779824377e-001 6.3129727234110242e-002
      -2.3242185138504792e-001 -4.3831440433541968e-001
      -1.9711214531384219e-002 5.0423729520082630e-002
      -6.2011958136600631e-001 4.1533125926968742e-002
      -4.1559213380152255e-002 3.0897336794859929e-002
      -1.2870054565240806e-002 1.7979114295572578e+000
      9.1327796955195620e-002 -2.7444908360416181e-001
      -5.6677836391503200e-001 9.8359269416539684e-003
      -4.3439518741917421e-001 6.2756784607526553e-002
      3.1502463284671843e-002 1.6490162683463938e-001
      3.2394937096917858e-001 5.4785453409449949e-004
      2.1395453342537943e-001 1.9156029358715229e-001
      -1.8948260922828926e+000 -6.3331195780449934e-002
      1.1598372040737125e-001 -5.6833435301651296e-002
      2.1892951264728558e-001 2.0783641717172918e-001
      2.6775616181724243e-001 4.9811070395273348e-002
      9.5315971449656645e-002 -1.5086810060332925e-001
      -6.6328478060167118e-002 -7.3086984720526606e-003
      9.4095051219022077e-002 -3.7529735983889839e-001
      -1.0864549798713771e-001 3.6776838932003564e-001
      3.5496158414334178e-002 -6.8193216587152605e-002
      2.0488012059636951e-001 -6.8370347219474759e-001
      -2.7971108991346216e-001 -6.5837896195451967e-002
      1.8561623540860155e-003 -1.7455864273497376e-001
      -6.5281008219929063e-002 1.1800668532014918e-001
      2.3273682380406688e-001 -3.5534963382024984e-002
      3.7317258724206166e-002 -1.0055007642980920e-001
      -8.5449053090654065e-002 -1.3840442693920960e-001
      -2.9110131746971191e-001 -1.5585989509096934e-001
      8.4201822043742450e-002 1.1076552009915065e-001
      -4.0912542990174550e-001 1.6716361383634440e-001
      -1.6952209646193031e-001 2.7506324355300910e-001
      1.5845963565325841e-001 -6.4651487469034916e-002
      -2.8407232077117195e-001 -2.5832052289523394e-001
      -1.7418822318723576e-001 1.3815814876595320e-001
      -1.4269792812990020e-001 4.1303427580492401e-002
      1.9586712956687202e-001 2.7660527958376041e-001
      7.2515833975297095e-001 -1.4003742204621285e-002
      -3.9416477478014661e-002 -2.4553589416275753e-001
      -3.0427257290393267e-001 -1.2437955487143820e-001
      -2.9350227721682604e-001 2.2528553014859723e-001
      5.7818852049318754e-002 1.3488560781247267e+000
      5.0447449317685807e-002 -2.3280174332270112e-001
      3.9248476606757526e-001 2.9878684129860500e-001
      -3.2973059968537034e-002 7.8081206889846252e-002
      6.8770501186087629e-002 -5.5577817541133119e-002
      1.9596428514170091e-002 -2.1131204209055079e-003
      3.5634199345668048e-002 -1.7086127084236277e-002
      8.8455397482757880e-003 3.7149806019357884e-001
      8.1744675845338366e-001 1.1066985825795873e-001
      -1.8653999301469060e-004 -6.0355687571103718e-002
      6.7863717877622520e-002 -2.2504703856401617e-002
      -2.1351332652195801e-001 -2.7557728914000074e-002
      4.4605352576729554e-002 4.2049714439147656e-001
      1.1481763167387207e+000 9.1676872208158122e-002
      3.2700924353207350e-001 -1.1389747909442212e-001
      -1.8631708424531471e-001 5.2094506814503401e-002
      9.1535585835482561e-002 -6.9436547504063639e-002
      -1.4955040093983599e-001 2.0031826183990847e-001
      1.8703643546172111e-001 3.0434312756324206e-001
      2.7962923290058755e-001 -1.4473233429316576e-001
      -1.9456236677686062e-002 5.7665234867311232e-001
      -3.4600328011780168e-001 1.7524613002211289e-001
      -8.0026341714558635e-002 1.5758632495292697e-002
      1.6300365601351896e-001 1.2253920146768380e+000
      3.3233920421459290e-001 -1.0519998216056234e+000
      -2.2724404999472265e-002 1.8380126227771337e-001
      -1.0357644646385120e+000 1.2000072986034850e-001
      5.8670438347295253e-002 -1.2804852549714618e-001
      -6.0378473039891534e-001 -6.6281375905151360e-002
      1.4381955765165574e-001 -4.0913650916422972e-001
      1.3086443095236794e-001 -5.0633546672295604e-001
      -7.2914274040276186e-002 -5.6428329258314147e-002
      -3.4632714304089968e-001 -1.6563747604628024e-001
      -5.8764467023407796e-001 -2.0051981278511072e-001
      -1.6953401861343867e-001 -2.6418893210156158e-001
      -5.1685560040472985e-002 -2.3779273980108434e-001
      -2.0969082958263713e-001 -1.8753165891333892e-001
      2.1592356418824649e-001 -1.6717284028140048e-001
      -6.5776746470397951e-001 -3.2128569702459997e-001
      3.1227109220023780e-001 -1.8386896728424635e+000
      7.3026495067417735e-002 -2.6385080513409914e-001
      -1.0580836141844059e+000 -3.7080413476813773e-001
      -2.8148330360039270e-001 4.7431025517582034e-002
      1.2991457225276140e-001 1.8161014534337375e-001
      3.3286408330713535e-001 3.6667765269761780e-003
      2.0794847325089691e-001 1.3241463091634237e-001
      -1.9915988568585263e+000 -1.4592798933672252e-001
      -1.7842930629488149e-001 7.8979921385737145e-002
      2.7467239683867423e-001 2.0393827243362495e-001
      2.6119747940442439e-001 1.5932037474285995e-001
      1.0340251684166232e-001 -6.1343584009527907e-001
      -2.3759650583891284e-001 1.2542528138565598e-001
      -2.2109929269652218e-001 -1.1668633100822304e-001
      -7.7939479192489655e-002 3.6686537758017734e-001
      -5.2846841412664450e-002 -7.6657739090363053e-002
      2.0167884816203721e-001 -9.2097047980318855e-002
      -1.6309770630923551e-001 -6.2103689753184942e-002
      -1.6003285659706382e-003 -2.2165815679638037e-001
      2.1833733470064079e-002 3.4002358156980961e-001
      2.1329926042156977e-001 8.1221811750586320e-002
      -1.9859327817886502e-001 7.7775138543412536e-001
      -1.4029110882622992e-001 -3.2723076000398676e-001
      3.1654569306242539e-002 -8.8278712333879161e-001
      -5.8315339768908359e-001 9.4270941135547404e-002
      3.2118704706150447e-001 -5.6303210087686330e-002
      -5.5716869956055487e-002 3.5040558309428829e-002
      1.9761842243624536e-001 -6.1493862006805677e-002
      -1.3335886663542218e-001 -1.0063160815932717e+000
      -2.4274613048843682e-001 -2.1757094480445535e-001
      -1.4609864231800671e-001 1.4348208824391642e-001
      2.8660065606453128e-001 3.7797252208069960e-002
      1.2076873945877491e-002 -4.3582915862428670e-002
      1.6503268410938418e-001 -3.2373879138226974e-001
      -1.1665636126315197e-001 -3.5416324789006241e-002
      -2.2301819262790082e-001 2.6040406815641925e-001
      4.3269530141708375e-002 3.8126871470349472e-001
      4.4898785030652982e-001 -1.1307227790415614e-001
      2.7622018113108154e-001 8.9105623493765496e-002
      1.3193121585125110e-002 -1.6969182255724863e-001
      5.2314199020669562e-002 9.8921540574275699e-003
      -3.2785015866940874e-002 3.5240051139721194e-002
      -7.1644419973241558e-002 -8.8144522261680611e-002
      5.3150586339772055e-001 8.8006824407957346e-002
      2.3056440179449461e-001 7.8469638051322912e-002
      3.2104496395936040e-003 -2.7148557623782869e-004
      2.2164987102756889e-001 -8.2030178905021434e-001
      -1.0334126964551773e+000 9.7781252241824365e-002
      6.6918972828422338e-002 2.0631970625713525e-001
      8.7426355922460364e-001 -2.3596745220722734e-002
      3.2097697080452836e-001 -8.3447336343319536e-002
      3.0881534564096980e-001 4.3947421997402508e-002
      -3.6372821773613645e-002 -3.8779259684330922e-002
      -1.9286109654302885e-001 -9.3255738004593844e-002
      1.9393199144498788e-001 2.5172326103633214e-001
      2.7568489605392266e-001 -8.9339491710931862e-002
      -1.2954584806656264e-001 1.7190290416707488e-001
      -2.2979357278722182e-001 4.7932775686164115e-002
      -8.8503399018819928e-002 -5.8904708528487226e-002
      2.3512626692517702e-001 1.2132233401455472e+000
      1.1358331643864146e-001 -5.7439893844791079e-001
      -1.0473468979379937e-001 -2.8596038006047386e-001
      -1.0555562936077785e+000 1.3880438513489510e-001
      6.2050834646750500e-002 -2.8687029794579461e-002
      -3.8548344632315024e+000 -8.7800427089099409e-002
      -1.0876737446058906e+000 -2.3810683799834040e-001
      7.0413472149491257e-002 -4.5843410526179018e-001
      -8.9988460774277146e-001 -2.3221143907496491e-001
      1.2317671209073029e-001 -1.7339669738123659e-001
      -1.0430855705229585e+000 -7.3954049293768531e-001
      -3.1495170469222900e-001 -7.5073401583936758e-002
      2.9543839866533905e-001 -9.8000504423037793e-001
      -4.2752196328814440e-002 -3.5803876506854355e-002
      -1.2810143384864420e-001 -1.3698173852300877e-001
      1.5744960187750778e-001 -3.7055437594840285e-001
      -3.9998282643445994e-002 -1.0051893679130561e+000
      7.4296073500049478e-002 -3.3227118777352987e-001
      -1.0500746477668994e+000 -1.6414111903850323e-001
      -2.7271264275968121e-001 -4.6741532329428556e-002
      3.9870229130212646e-002 1.4571337231339979e-001
      3.2144178069394641e-001 1.7588684559659049e-001
      -1.9897197967596778e-001 1.7977643897341788e-001
      3.2146817185219484e-001 -1.3783831499993174e-001
      -2.3145596081118150e-001 -7.2946999346506902e-003
      1.7062106529864940e-001 3.1408190457912677e-001
      2.9725354932143155e-001 2.1131060610249444e-001
      1.7576561939472538e-001 -9.6451849734457273e-001
      1.1457821649606141e-001 1.0457988605501108e-001
      -2.5538599393918821e-001 1.1460678873564635e-001
      7.4553911461317332e-002 8.5925311183834829e-001
      8.0965664872657261e-001 -9.5649816869721210e-002
      1.7864844162173563e-001 -9.2344364891745120e-002
      -3.2428361962830188e-001 2.9644301673905870e-002
      -1.5715482321139546e-001 -2.3337110668355668e-001
      -3.9420581994699000e-002 2.3101286297406096e-001
      8.3085093964510370e-001 9.0388767199768696e-002
      -7.6475210750440361e-003 1.1540376866060500e+000
      1.7068769272790199e-001 -4.6290704586759227e-002
      5.3493221693820620e-002 -5.3341843302514758e-001
      -2.2712715439766265e-001 1.5589103676351738e-002
      2.0580373059936583e-001 -4.6131389224273518e-002
      -1.3233695497070222e-001 9.5854535918776157e-002
      8.7210613602008227e-003 -1.1862173619266554e-001
      -4.1046425242796100e-002 -1.1665047167574798e+000
      -1.1169018035014304e-001 -1.6382333299828436e-001
      -3.6854960188108932e-001 5.2402859300659033e-001
      2.7450711693453450e-001 2.2985892414659087e-001
      2.0238690494393330e-001 3.9314042272887408e-002
      2.2075657798870413e-001 2.6881439931386525e-001
      3.0479450607390085e-001 -1.6682657553084254e-001
      -3.4664026424036959e-001 9.1481777868198735e-002
      1.4484481204402072e-001 5.0648646644884832e-001
      2.0467530797214009e+000 -1.1814292344324981e-002
      1.5928076247294212e+000 1.3053798139540529e-001
      4.2300399675452849e-001 -1.7510717713049853e-003
      6.1637999777326376e-002 2.7522531778444822e-002
      6.6188765228049366e-003 1.8516756715041965e-001
      9.8828506409248378e-003 3.2300841411660974e-001
      3.5546369830424279e-001 4.2186217707777342e-002
      2.6813515134366961e-001 1.3676306044770911e-001
      1.3929576405911537e-001 -3.5757149703917579e-002
      1.7736835808227444e-001 -2.9172722363412462e-001
      -9.8366900451942707e-001 1.3920809349351687e-001
      8.0263580724250702e-002 2.2173277340060768e-001
      4.0758073924865224e-001 -2.7344279517038519e-002
      3.2893849484989002e-001 -4.2980428943045011e-002
      5.6650087409371674e-001 9.6726807195977871e-002
      5.0854283505575977e-002 -5.0363312028524364e-002
      5.7089941012201766e-002 8.9426334937350124e-002
      2.5326293164469504e-001 3.0422816498047739e-001
      2.7759667209710498e-001 2.0316534609277276e-001
      -1.2767271325097490e-001 1.5909987763575040e-001
      3.7987774362850758e-002 1.3126144514759414e-001
      -6.9987195408850247e-002 -7.1478222343396111e-002
      -4.8663917765620353e-002 4.5524874616498645e-001
      -3.5359175353516525e-001 -7.1904960807157803e-002
      -1.3144624072019481e-001 -1.1776577486683697e+000
      -1.0567161446872075e+000 2.0259209163868214e-001
      7.8686206398949105e-002 -1.8010024833345137e-001
      -2.5320035439431638e+000 -2.8996748516539705e-001
      -3.9398924420653048e-001 -2.2560997211281195e-001
      7.3915465414225390e-002 3.9112407070858368e-001
      1.8430623228748291e-002 -2.1887112049000937e-001
      6.0199489517701953e-002 -1.3412810623768032e-001
      -5.2780478676232301e-001 -3.2434179835565169e-001
      -6.0484294723182763e-001 -8.6514795998220850e-001
      -9.1398152951840350e-001 -6.9627429268507812e-001
      -1.9149001762707166e-001 -4.5178738571797022e-001
      -1.6057475110322372e-001 -7.2785597426316045e-002
      -3.7471949151247941e-001 -1.8765689389791917e-001
      6.9805392383893730e-002 -1.0433941845083863e+000
      6.5982152693399562e-002 1.5570977053723338e-002
      -4.5894705735572044e-001 -9.6465367975926614e-002
      -1.9142359157430952e-001 -9.2798576629680357e-002
      -5.5969286360092629e-001 5.4000481110860636e-002
      6.5790750981250382e-002 2.8744975284660246e-001
      -1.1642283184445388e-002 4.4063720554977426e-001
      -1.0899411367733565e+000 -1.4532532974802154e-001
      -1.7171927985950927e-001 9.6620988558780790e-002
      7.1622482135732440e-002 4.4476364563514026e-001
      2.9246398279691777e-001 1.5172446823826877e-001
      6.6375258401135639e-001 -7.0394140037034969e-001
      -7.2367971980628415e-002 5.8778541023398120e-002
      -1.7092965956751310e-001 -8.9698262651006413e-003
      3.7493149117092056e-001 8.9213041976504459e-001
      1.8457465451125066e+000 3.6804145748050708e-002
      4.8491069528270547e-001 1.9503492092963223e-001
      -4.4693183130626979e-001 4.1864268538097056e-002
      -3.2276910798305064e-001 -8.6423092330202411e-001
      4.8052621424583081e-002 1.2184975401348722e-001
      1.1109512733884273e+000 7.9457946657598047e-002
      -1.1434644585700461e-001 -2.4262482138409522e-001
      1.5122880969678451e-001 1.2950309800566370e-001
      -2.1704237067245644e-001 -1.0431278113055288e-001
      3.2345713697014354e-002 5.7028381156601160e-001
      1.5605499451553867e-001 1.3674911990591598e-001
      -9.1963555223989288e-002 3.7981933626564041e-001
      4.0243588587039963e-001 -1.5838168805610686e-001
      2.4527704854998400e-001 1.1617076649146988e-002
      3.2477138591917275e-002 3.8909112615399000e-001
      -3.0135436892687223e-001 -1.1708285199620101e-002
      3.7144300389401430e-001 6.1505241475907735e-001
      1.1812637353711399e+000 6.1644816193110064e-001
      8.8085187811451360e-002 1.3091134237405741e-001
      9.9872540006524888e-002 1.1262163322612326e-001
      -2.8053907525601041e-001 -1.8035585437948817e-001
      1.9318109339307821e-001 -1.9202882876807778e-001
      1.2906492020317659e-001 1.3326933901764555e+000
      -4.7871456760480541e-001 -2.8418425583655361e-002
      1.5224924451918309e+000 1.5507999783395168e-001
      7.3996611252439459e-001 -5.5507768740883180e-002
      -8.0462767223028100e-002 1.5486444407965452e-001
      -1.5868415980382064e-001 1.1136720798362154e-001
      -7.3483218656729826e-002 1.5577944190637366e-001
      1.5293571985408613e-001 1.1028543177605381e-001
      4.2476186155027690e-001 -8.9927024346907747e-002
      1.6081114611271631e-003 -1.0613082836867691e-003
      -3.3604000735989942e-001 6.3072099916227919e-002
      1.1704053024641768e-001 1.9114477290131227e-001
      3.0442174194842941e-001 2.0995889020209277e-001
      3.2796884456000541e-001 -4.6704790395860011e-003
      1.6732867767264248e-001 1.6415090065279853e-001
      1.4344919619175528e-001 -3.7067220697812091e-002
      6.8320399628943068e-002 5.5451707517761462e-001
      2.6810834476102990e-001 1.9862662577702819e-001
      1.1897359262587139e-001 1.8390968164753557e-001
      9.5477422760731054e-002 4.6252234039240825e-001
      1.7304149244345557e-001 1.9599446118580072e-001
      -5.4499043405685677e-002 2.3922842109251935e-001
      2.2592100350902506e+000 4.5430385017753872e-001
      -1.3798996880772402e-001 2.6188847398902143e-001
      1.1889490826543653e-001 -3.1701284507917149e-001
      -8.7997898451694187e-002 1.6414470277830381e-002
      -1.4361911113779810e-001 6.7871489011558150e-002
      -6.9510785175423018e-001 2.7096058912743554e-001
      -4.8376606487466983e-001 8.8987580132742754e-003
      -2.5542750775976020e-001 -5.3497883980634720e-001
      -3.2981873496659686e-001 -1.0330253743809849e-001
      5.3171412122081110e-002 -9.6394995200858230e-002
      -7.8173271488119689e-001 -3.4071588738269343e-001
      1.1551459770009211e-001 -2.6902111166652737e-001
      3.8306216205642291e-001 -5.8676578277033299e-002
      -2.7017207705257329e-001 -1.1112029565252701e+000
      2.4895828072685633e-001 5.7880707750857456e-002
      -4.8177710409983393e-001 -2.3505856525129479e-001
      -2.8481821576455225e-002 -9.8443586825854336e-003
      2.8505131525708549e-001 1.1319085005717540e-001
      -1.6545393132574171e-001 7.2352517507368708e-002
      -4.1478653577702175e-002 -2.7447373317815005e-001
      -1.4692504675984548e+000 -1.5362683340370858e-001
      2.6250881159081380e-001 2.5731311960629955e-001
      4.2127023567901128e-001 1.2120428410943158e-001
      -5.1281594563052334e-002 -1.6214662601415991e-001
      1.5599290135516225e-001 1.1018447451133383e-001
      -6.4366335930096108e-001 -7.5156104069906818e-002
      8.5164688987565085e-001 9.5331698302046053e-001
      2.4580776666841542e-002 2.6546198369928686e-001
      5.1873658016889068e-001 -7.5813430379161675e-002
      -5.9247841713255277e-002 7.2538844861915919e-002
      7.8658086509635988e-002 1.5238047161383048e-001
      7.5210949710491803e-001 -7.1144715431497002e-002
      2.3626574653410803e-001 3.3394647149804152e-001
      -3.5235605975872242e-001 1.9010596275016792e-002
      -6.0655950207791920e-001 -8.8405965860872682e-002
      7.6497296214964747e-002 1.2499346392943247e-001
      3.2889188440986522e-001 -3.4498236687681122e-001
      -1.4811136885517276e-001 -9.8719288590404575e-002
      4.2882866476424822e-002 4.8840231881029195e-001
      -5.1218023834051548e-003 6.5566838027051072e-002
      -2.6430152287093950e-001 5.6619200366372857e-002
      -1.1338402918340333e-001 6.1408013078085938e-002
      -4.4942590700006106e-002 1.6223145992294638e-001
      -8.9896780534182708e-002 -1.7585399151742925e-001
      -9.2998361838224353e-003 1.1815470370625032e-001
      1.4772996472772193e-001 3.4630095429480784e-002
      -1.6235620888742053e-001 3.0176745984811043e-001
      2.4232455020296548e-001 2.1035795895879245e-002
      -1.1639859472974737e-001 -7.4563442643949901e-002
      -3.0645652350260039e-002 3.8197569068302900e-001
      -3.2685212270289288e-001 4.4729180684929165e-001
      2.0483657512038958e-001 -2.3666203402264116e-001
      2.6037230831290453e-001 -2.7357680368431414e-001
      -1.7242413491062785e+000 2.2158892940004001e-002
      -3.1348113984430026e-001 8.3440564483508048e-002
      -1.7614943003791665e+000 1.8136061218545788e-001
      7.3984492895360865e-001 -8.9048309374572698e-002
      -7.2050085475777931e-002 -2.8500895248138886e-001
      -1.2457295599395113e+000 1.5005136913460199e-001
      -2.9633015379502697e-001 -2.3170607309274609e-002
      8.2969434855211410e-002 2.2763039661242510e-001
      4.2543491014559198e-001 -2.2449341599359480e-002
      -4.5736383490906658e-003 6.5931100360486039e-001
      5.8827871592935024e-002 1.6743920562973042e-002
      -8.8230900981588270e-002 -1.1105251654716244e-001
      3.7030260798351916e-001 3.4512028115244242e-001
      6.2415871704788151e-001 8.8608799317542092e-002
      1.2495651505242744e-001 3.6632632027297746e-001
      8.2383987441948880e-001 6.7223864493860863e-002
      1.2671177161439603e-001 3.9915195541907678e-001
      2.0890266563167479e-002 6.1858451942258474e-001
      3.2006333414160121e-001 1.4226863547084836e-001
      1.0862695309590474e-001 1.6024037690291887e-001
      3.3475555034737275e-001 -3.0106027161722469e-002
      1.5976531546837835e-001 -3.4445832870108833e-001
      -1.1891663482178263e+000 1.1528004378900638e+000
      -4.6972008821526981e-002 -2.4348249294802676e-001
      -1.9539796533558359e-002 -4.2294820043607434e-001
      -3.0193850684804946e-001 -2.3478642042666472e-002
      2.7223410464810215e-002 -2.8407194633449090e-001
      -4.2380298736631816e-001 -4.1015923437639717e-001
      -4.7779137570794444e-001 -5.7997348354317002e-001
      5.3326321073723275e-003 -3.6493645342053882e-001
      2.8622142432296556e-002 2.3557548985469853e-002
      1.3456488392109698e-002 -2.2616472995138456e-001
      -7.9249322556813917e-001 -7.1348239015619019e-001
      -1.2294925938137638e-001 5.1746132840155305e-003
      -2.2548733769401325e-001 -6.0577945881673889e-001
      -1.4744007951841315e-001 -2.4307091225643293e-001
      -1.0531699976674563e-001 -2.6576718080023619e-002
      -3.4917543460393963e-001 -4.3492207767448610e-001
      3.5752503557149283e-002 6.0041680960441957e-001
      2.2143611543180488e+000 7.2605416135043044e-001
      -5.3176922052525499e-002 -6.2193863135140104e-001
      3.1365184997475376e-001 -8.2323974433305400e-002
      -1.2131886013776529e+000 -6.4105183659440690e-001
      7.8587180036969087e-002 4.5390597882258260e-001
      8.0268765207250758e-001 -1.5616063779404729e-001
      7.7425778914852883e-001 -1.1652803043163035e-001
      1.2052345999387971e-001 2.6067235087257667e-001
      1.8705529899365120e-001 -2.1931313745724923e-001
      2.2798662732428496e-001 1.8393854977297168e+000
      6.6890570222965823e-002 9.8053389838753252e-002
      9.5799211434679579e-003 -3.2152424854499978e-001
      -6.0548487506957438e-001 3.5697997849681385e-003
      7.7696887190502745e-002 1.2148723686149729e-001
      7.0771970665618111e-001 2.7908211701069097e-001
      3.5047225525058778e-001 9.0785890567547589e-001
      -6.7237974968942585e-003 1.0471040342944000e-001
      -1.4060709646712768e-003 1.3279802476689448e-001
      9.3097645283797464e-002 -5.7858008945105477e-001
      5.6586159625786692e-001 -1.8063133007707782e-001
      -1.9715361127596837e-001 3.5685552709075141e-001
      -4.4360125327363820e-001 -3.5829354228244480e-002
      2.6677473908837462e-001 -8.4348459093172373e-002
      2.0026806833926297e-001 -4.4196952074294837e-001
      4.1026001479193636e-002 -9.9845231675811282e-003
      2.1987472219589972e-002 4.1518550647261293e-001
      -1.8312860195738820e-001 3.5480352236371521e-001
      -1.6323841815330836e-002 -2.4682908282794350e-002
      -1.9926256882346993e-001 -7.9200113393489716e-002
      1.3797506979394333e-001 -2.9905712882143504e-001
      2.2917254386558176e-002 2.3418604562437426e-001
      -8.9392079638636102e-001 -2.7419875362070332e-002
      -2.4331307375101141e-001 -2.4764409899794695e-001
      -9.4608940715013773e-002 2.2218679252674911e-001
      1.8620211327288980e-001 4.6645668499854659e-002
      -8.5927600068071527e-002 -6.2667357486397079e-001
      -1.7809529122500836e-001 -5.2111039954436476e-003
      -3.4341133988104261e-001 -2.8492702325815894e-001
      1.1259109902521571e-002 3.7158128173755842e-002
      3.0628967407668178e-001 -1.8209769299221401e-001
      -4.9368564306315549e-001 -5.7227938275979173e-001
      -9.9891265711570296e-002 -7.1812193435426649e-002
      -9.6228234739416024e-002 -2.1078242132540344e-002
      -5.8770689643975083e-001 8.8760377625727555e-002
      6.4804999778672190e-001 1.6915956357273204e-001
      -1.3486155909212044e-001 2.9586719909928294e-001
      1.4002552052124686e+000 8.5147295162142422e-002
      3.3152430355068041e-002 -3.5487949188308832e-002
      -2.6954603242700814e-001 1.0375168301077774e-001
      1.3430284938512818e-001 3.2957436119994177e-001
      1.4025575759098610e-001 3.7771998880234758e-001
      2.4587908912345532e-001 -1.8089259080312214e-001
      3.1786311376810661e-001 -2.5325716390103215e-002
      -7.3098540084898789e-001 -3.5658112181158480e-001
      1.0903698815990048e+000 -1.9228086999600786e-002
      3.4008369865338860e-002 1.5182595605974314e-001
      2.5274034315982941e-003 2.5511432634488768e-001
      -1.2771434044585109e-001 -2.6345150760789998e-001
      -8.0864469080536916e-001 3.4039841093496587e-001
      -1.1532157534837477e+000 -1.4137803908849472e-001
      1.2103908326203400e-001 -4.3237694899589185e-001
      -3.7280048760708473e-001 -1.9512985482220055e-001
      7.3025649486163505e-004 -1.0810658354332942e-001
      -1.0367341120812441e+000 -3.2012135563270300e-001
      -7.0331267649177714e-002 -1.3626392976688198e-001
      3.7565634702464995e-001 -6.2367487203510341e-001
      -5.1013001403360902e-001 5.1940135140748030e-002
      -2.9907154725853746e-001 -6.9878240909810596e-002
      -1.6028656952070033e+000 -1.1965380028749875e+000
      1.9340643223107137e+000 1.3912119998386629e+000
      -3.7484412807815173e+000 9.3164257196502442e-001
      1.0610171117286997e+000 -1.1366483435693528e+000
      1.3086727241365361e+000 6.3671620507854715e-002
      6.7869819258650055e-001 6.2256525509449745e-001</_>
    <_>
      3.3546238692939122e-002 -4.3617074736696813e+000
      1.2853615730882257e+000 -2.7788806583618042e-001
      2.8087389736367224e-001 2.7813517347049421e-001
      -1.3041104449148133e-001 -1.1436609532573032e+000
      -3.1196992241562724e-002 -1.5526514051154268e+000
      2.4509735552426184e+000 1.1113790524252030e+000
      8.1517466173446829e-001 -2.4432876453097910e-001
      -3.6021352164166709e-001 -2.4507018296845628e+000
      1.0029194745264438e+000 3.4300587521239173e-001
      -3.1851464410842717e-001 4.5818872092270979e-001
      1.5228556607053459e-001 -2.8724318256575548e-001
      1.1738951022881620e-001 -3.6618616761125311e-001
      -9.9779794404825983e-002 2.1742251178984345e-001
      -1.0220315789493591e-001 -5.8747079269747104e-001
      -9.2710665763750436e-002 -2.9292677643811023e+000
      -2.2294625617469610e-001 -6.8571812850915170e-001
      -4.5185087061185297e-001 1.0222942647876343e+000
      -2.8332457198096344e+000 6.6933345711754832e-001
      5.5804965196884361e-002 -9.2376848882712226e-001
      5.0179241890904058e-001 -1.4848322089105410e+000
      7.8286826094874140e-002 5.5687926477490113e-001
      -2.2994837997433300e-002 -5.1267773304708830e-001
      -4.7130005126801094e-001 -8.6323966206021951e-002
      -1.0369070629936079e+000 -7.6645227286624729e-001
      7.6564652972626546e-001 -9.0735482566559678e-001
      -1.4716806395837654e+000 2.7164063409057260e-001
      2.3829161145106029e-001 3.9110546399188806e-001
      1.3614940702413048e-001 4.0032024239617375e-001
      1.5195222372983588e+000 1.2360867784263994e+000
      1.2139968575052276e-001 -4.3589604406019089e-001
      -7.5413476439318353e-002 -3.8106916053012180e-001
      -6.8755923404647951e-002 8.8020525992130327e-001
      -2.0701333233920483e-001 3.3689586063838046e-002
      -4.0523083946956667e-001 1.9880649596503813e-001
      5.9565349479974850e-001 1.7172233020386802e+000
      2.0249611771861113e+000 -2.7994137903794808e-001
      -2.0885819908677132e+000 1.1666368894590876e-001
      3.1359105755484298e+000 -1.8626025897142764e+000
      7.7968221765173229e-001 1.9191839398613261e-001
      2.3523506725713208e+000 1.1250980641710981e+000
      -2.1061192507925902e-001 1.2001215457175922e+000
      6.6953903473689724e-001 -3.9757438773631526e-001
      3.5896207373533756e-001 1.0070380132776156e+000
      -6.1198013386989225e-001 -1.2794005781498488e+000
      7.8515964036906499e-002 -1.5310570901381898e-001
      -3.9696920710953332e-001 6.1807084865125161e-001
      8.3294999255012631e-002 3.8634661480110277e-001
      9.6005075311824811e-002 1.8380992233548321e+000
      4.6965573049242940e-002 9.9429844036235193e-001
      3.3404854138341561e-001 1.0076889263281463e+000
      7.9126037582723086e-001 4.3606832611828031e-002
      2.0019642617646998e+000 -2.6208306015503524e-001
      -1.5019626309636672e-001 1.8443202826182341e+000
      -1.2155061789820971e+000 -2.6388677087200749e+000
      -1.5065005339889550e+000 -1.5625020690838270e-001
      -2.1119395979348696e+000 -3.9932610924487610e-001
      9.6595300325234512e-001 8.2538251711566779e-001
      3.7499057104245470e-001 -4.3588144790164951e-001
      -1.2070018856697944e-001 -4.7208360964475221e-001
      -1.0226467866572448e+000 -1.6763326266050780e+000
      -2.9450268188445750e-001 7.5318736254146601e-001
      -1.6932806705752348e+000 6.3136431979574914e-003
      6.7289041535071148e-001 1.4137396335168889e-001
      -1.5004694591160003e-001 -2.0618220429958430e-002
      -1.1953783257689110e-001 -2.9689044303659828e-001
      -1.2077563377602980e-001 3.8600583486990675e-001
      -1.3738430287416584e-001 -4.6656182773570182e-001
      -1.5402927201171568e-001 3.6169527864843454e-001
      -2.9438864041150087e-001 -7.5236284460127001e-001
      5.7074088688718272e-001 -2.4247863230227402e+000
      -6.0364793414143081e-001 1.5416909467893802e+000
      -2.1894230827972647e+000 -1.4365080731410648e-001
      3.7203147298799276e-002 -2.0029431269560669e-001
      1.5478983159439705e+000 -1.5612146072985864e-002
      -5.1765794338615806e-002 3.0842132553983576e-002
      -2.9156387295004216e-001 4.9820223452262752e-001
      -7.7465183021708550e-001 4.1291226769603329e-001
      -5.9151368432972240e-001 4.7893255336055596e-001
      4.5310840826977705e-001 3.9898998334931227e-002
      -3.1869985898695641e-001 -1.3110251859373216e+000
      3.2777645623847537e-002 9.7821313179644043e-002
      -8.9116940574771805e-003 -1.4827578806778491e-001
      -3.6050794266856374e-002 -6.2314036918853011e-001
      -7.7090371563468887e-002 -4.6089760119227113e-001
      -1.7912030436392851e-001 2.5573391963936620e-001
      -2.5094429664583076e+000 6.6217074985949909e-001
      -7.3740380615778434e-001 2.7056636485900305e+000
      6.9533459691267163e-001 3.1372589274689044e+000
      9.8486226626164153e-001 2.7014482399915374e+000
      -3.6634132420070928e+000 -9.5585709244729411e-001
      8.9073792923334238e-001 -3.7198241242207902e-001
      1.7322483975315293e+000 2.6591416455337208e-001
      1.3443051926148901e+000 6.6703753158116819e-001
      8.5585233814989869e-001 -8.2574222110186568e-001
      -8.7521868453685463e-003 5.0195175684525151e-001
      6.4202042522686587e-001 -2.3291457423667750e-001
      -1.4948257807714564e+000 -1.3179136292979960e+000
      -1.4991126813977823e-001 -8.7579385947739563e-002
      -7.3730573926079471e-002 7.1936411863494520e-001
      -2.2970874920758402e-002 -1.0079830848648694e+000
      -2.8624071086951607e-002 9.9055693159809166e-002
      -1.2869875091556848e-001 1.0713752376682151e+000
      -1.9003785501191955e-001 -1.1412636102698455e-001
      -1.5705624468219164e+000 -1.6449064637213942e+000
      1.2465204599205753e+000 -1.7410980426881371e+000
      5.3460969594938135e-001 -6.6403705654802592e-001
      -1.2907683869776234e+000 4.3820427961191594e-002
      1.1462459384908957e-001 -1.7819982231828526e+000
      1.2691579091245562e+000 9.5745343480409928e-001
      -1.7112820690020216e+000 -9.8336957552057769e-001
      -6.7674885388169861e-002 -1.4685346762950086e-001
      1.0438804797973855e-001 7.1843393282490287e-001
      3.2361194319563397e-001 2.5099637677002645e-001
      1.2862891415238624e+000 -4.5421748474354096e-001
      2.7722847239041304e-001 3.4685111632038919e-002
      5.4628375404188911e-002 -2.4078454268147509e-001
      4.6184693304197035e-002 -3.2172854462625322e+000
      -3.2232825068281096e-001 -1.1288595771338141e+000
      -7.2035362451551088e-001 -8.0425604503103398e-001
      -1.3174430324690996e+000 2.3897970550600580e+000
      -8.6386355344700472e-001 1.1099669211096574e+000
      6.0207155328768247e-001 1.0762748752097580e+000
      1.5161471399887763e-001 -8.5261730577393155e-002
      1.8349424475405223e+000 3.5357973260648228e+000
      1.0002959149563060e+000 5.8495977043542713e-001
      -8.5382794148007979e-001 -2.6822404502679126e-001
      -6.2073830294287968e-001 -1.3600681704448685e+000
      -9.1609863770373434e-001 -1.1803444371136922e+000
      4.2121301493143182e-001 5.2820834547972551e-001
      -6.4217972447711213e-001 -7.4001390069846185e-001
      4.2009260982794554e-002 -1.0095614515345532e+000
      -4.0229104466419263e-001 5.5081548109253232e-002
      -3.3517528923951566e-002 -9.8746808997651292e-001
      -3.7733458675193621e-002 2.5299649059811708e-002
      -1.0843228541095765e-001 -1.4611190879209468e-001
      -4.6493749487179624e-002 -8.1350847386233927e-001
      3.8359082612225709e-001 -8.5819836522911502e-002
      -1.7145786222093156e+000 1.3833461834755496e+000
      -1.4173798080511429e-001 1.2295036312812889e-002
      -9.2887637517037958e-001 -2.1495738465481912e-001
      -2.1602202325570981e-002 6.8839926922495243e-001
      -4.1572464450158708e-001 1.6906148374486578e+000
      -1.2300944302560832e+000 -3.9428986934899529e-001
      -1.7716798005965175e+000 -1.9295977335695685e-002
      1.3004678353557246e+000 1.2622760514289828e+000
      4.8662424743582899e-002 2.2929537075066858e-001
      -1.0475665719915859e+000 2.6295887849415228e-001
