<?xml version="1.0"?>
<opencv_storage>
<my_nn type_id="opencv-ml-ann-mlp">
  <layer_sizes type_id="opencv-matrix">
    <rows>1</rows>
    <cols>3</cols>
    <dt>i</dt>
    <data>
      265 10 34</data></layer_sizes>
  <activation_function>SIGMOID_SYM</activation_function>
  <f_param1>1.</f_param1>
  <f_param2>1.</f_param2>
  <min_val>-9.4999999999999996e-001</min_val>
  <max_val>9.4999999999999996e-001</max_val>
  <min_val1>-9.7999999999999998e-001</min_val1>
  <max_val1>9.7999999999999998e-001</max_val1>
  <training_params>
    <train_method>RPROP</train_method>
    <dw0>1.0000000000000001e-001</dw0>
    <dw_plus>1.2000000000000000e+000</dw_plus>
    <dw_minus>5.0000000000000000e-001</dw_minus>
    <dw_min>1.1920928955078125e-007</dw_min>
    <dw_max>50.</dw_max>
    <term_criteria><epsilon>9.9999997764825821e-003</epsilon>
      <iterations>1000</iterations></term_criteria></training_params>
  <input_scale>
    5.9534978827400398e+000 -2.2295225973007442e+000
    5.4430249004217428e+000 -2.3305154444007825e+000
    4.9693766433425033e+000 -2.4767214717995367e+000
    4.4514439181761105e+000 -2.5553090832002048e+000
    4.1441430328896445e+000 -2.9435479415338430e+000
    4.6480441994169972e+000 -3.7856372799059708e+000
    4.6743087776391414e+000 -4.0329673548883447e+000
    4.6202701447687442e+000 -3.8989494655246357e+000
    5.5010161803563742e+000 -4.5609255234100621e+000
    6.1546072949789874e+000 -5.0316670758700086e+000
    6.2695911597522533e+000 -5.0333238410625540e+000
    5.9419848994021756e+000 -4.7357034932143867e+000
    5.6883444183393861e+000 -4.5735670251840688e+000
    5.5490086001452337e+000 -4.3974849098692337e+000
    5.8111887967688336e+000 -4.3292294098642685e+000
    5.0541286609688969e+000 -3.2108183448148875e+000
    3.1895356377029334e+000 -1.2232156001713306e+000
    3.7185772167426907e+000 -1.1462055826129889e+000
    4.4989046420273713e+000 -1.0915180553225818e+000
    5.2315810515641710e+000 -9.4779945421140988e-001
    3.2911484013450285e+000 -1.4635638345458217e+000
    3.6940186977630503e+000 -1.9907921861038851e+000
    4.2295144387810035e+000 -2.6009701470080269e+000
    5.1375218816319395e+000 -3.4233628619212024e+000
    6.1261059542742142e+000 -4.2629755357234256e+000
    6.4060065894792357e+000 -4.6253568315154965e+000
    7.0221319615533888e+000 -5.2356888963467894e+000
    7.1879894604378380e+000 -5.5208894831941908e+000
    6.8547138959749567e+000 -5.4527192246847029e+000
    6.9157050015994734e+000 -5.6968748276967149e+000
    6.6281351092112937e+000 -5.5047179848499388e+000
    6.5017959514191785e+000 -5.4027694097873145e+000
    6.4609108912805553e+000 -5.2341045072793264e+000
    6.7767585675561586e+000 -5.4016271400034590e+000
    6.8330538023345815e+000 -5.3766487822186173e+000
    6.7459509454492652e+000 -5.2447362889877382e+000
    6.7220900137729362e+000 -5.1525544892931601e+000
    5.7872308180627368e+000 -4.2103048073158735e+000
    4.9389686556982744e+000 -3.2838356736567742e+000
    4.4380867589701785e+000 -2.5977084456709281e+000
    1.6753208712820709e+000 -4.3628147689637264e-001
    1.4494915976122826e+000 -4.0766951182845451e-001
    1.1188407511855204e-001 -1.5600502736024296e-001
    2.3288809596162377e-002 -3.9403834093506879e-001
    1.3736878051005737e-002 -6.1999927274851785e-001
    1.1713605333246018e-002 -6.9995764250271886e-001
    1.0462226804905847e-002 -7.1977629411370103e-001
    1.0008873563642764e-002 -7.4298013221541026e-001
    9.9489032467030801e-003 -6.8338009667346356e-001
    1.2035074406037837e-002 -5.9457207619947938e-001
    1.6001864017299434e-002 -4.3128833494245139e-001
    2.6985125374243444e-002 -2.4772505719301757e-001
    6.8642159862622593e-002 -1.1031775692207203e-001
    7.4239143692609710e-001 -1.3036040112690395e-001
    1.9589256062779261e+000 -1.9822461492098062e-001
    1.5338508589020405e+000 -4.9987103883861145e-001
    6.3959316829323787e-001 -3.6453003490522334e-001
    4.1549090331527837e-002 -6.0171986176551928e-001
    1.3765183742206408e-002 -8.5049170978632449e-001
    1.0895175566341677e-002 -1.1616818817023027e+000
    9.9414491064041023e-003 -1.1731649636710590e+000
    1.0173368472944352e-002 -1.0793308114264399e+000
    9.9776690266405489e-003 -9.6364683804616802e-001
    9.5322863421348405e-003 -8.2224480670861333e-001
    9.4581072519418011e-003 -7.3477670713522869e-001
    1.2103225130866651e-002 -6.2439673934060280e-001
    2.0925562194908764e-002 -3.6619733841090341e-001
    5.5069839420108166e-002 -1.6078426330692294e-001
    8.3320582798576714e-001 -2.0334189849652651e-001
    1.8201025416514960e+000 -2.5459767695720331e-001
    1.4779121330539358e+000 -4.3545625348910610e-001
    5.8557931356016446e-002 -6.9859960666842835e-001
    1.2089070448441135e-002 -7.4988216156669685e-001
    9.9992317364760077e-003 -1.1015671498259751e+000
    1.0084753201081169e-002 -1.4754954385867567e+000
    1.0092311846437295e-002 -1.4657881491254168e+000
    1.0817901695224558e-002 -1.2453948345947283e+000
    1.0868427652737647e-002 -9.9884408244854817e-001
    1.1713872884560377e-002 -8.5268976174708322e-001
    9.8535749292196894e-003 -7.6834423555224962e-001
    1.0326527088209851e-002 -6.9255345656464518e-001
    1.6051217952639914e-002 -4.5356633586708234e-001
    4.5289815042346054e-002 -2.2193357281911538e-001
    3.4155655449232825e-001 -1.3418293212198609e-001
    1.3275862925400337e+000 -2.3311783113054160e-001
    8.9456060534158624e-002 -5.9184768621260309e-001
    1.4184865046918077e-002 -6.5725318893733364e-001
    9.6360906282329968e-003 -8.3736480405698521e-001
    1.0083712495080362e-002 -1.1913035992513765e+000
    1.0682773996907667e-002 -1.4752561156056971e+000
    1.1045534484712878e-002 -1.3451718700809780e+000
    9.6695455949649921e-003 -1.0416776997861616e+000
    9.7081695343391901e-003 -9.7996170241492608e-001
    1.0718287231551979e-002 -8.0002763280865441e-001
    1.0759067851287907e-002 -7.9045526619930839e-001
    9.8601370741527757e-003 -7.3028107487746707e-001
    1.4243080170913774e-002 -4.9992787498711783e-001
    3.5921182391441410e-002 -2.3674838811263987e-001
    1.6887966840395857e-001 -9.7256594750493988e-002
    1.4087864565329808e+000 -2.2012288383327827e-001
    1.8563098151811862e-002 -5.1200450036284650e-001
    1.0917457830285880e-002 -6.9509439474521040e-001
    1.0478695873200309e-002 -8.3330581467831022e-001
    1.0975058122418170e-002 -1.0739388347557315e+000
    9.5863517634145693e-003 -1.1556832074546197e+000
    1.0974531730495445e-002 -1.0638763319217190e+000
    1.1278355554848527e-002 -9.6312457123591888e-001
    9.8106102060037132e-003 -9.8103182235571063e-001
    1.0165139037552447e-002 -9.0437971374724435e-001
    1.0835599393483839e-002 -9.2425082921799651e-001
    1.0021539847202171e-002 -7.9052352047669627e-001
    1.3787441143474966e-002 -5.2780048127365098e-001
    3.6286995009593426e-002 -2.5714087832691057e-001
    1.6766167002952698e-001 -1.3148467277613202e-001
    1.4764275111990868e+000 -3.2077145332599205e-001
    1.3759601585016067e-002 -4.9993219092225044e-001
    1.0446944593760483e-002 -7.0081586649809902e-001
    1.1025112684979533e-002 -8.1795836015229106e-001
    1.1199664091334606e-002 -9.4115510550856629e-001
    9.3995641758268696e-003 -1.1018471255752766e+000
    9.4296368471923752e-003 -9.8092077946872469e-001
    1.0573742931126876e-002 -9.1365320987918630e-001
    9.9789637020713771e-003 -1.0471526538377489e+000
    9.7897979071362197e-003 -1.1620286161647628e+000
    1.0293859325418278e-002 -1.2365192149797830e+000
    1.0098178155183201e-002 -9.9124438069717957e-001
    1.3586325034448463e-002 -6.3042974289311304e-001
    3.0181731957347566e-002 -3.1699801213535583e-001
    1.3962064298738311e-001 -1.7909671764155394e-001
    1.2268515004054172e+000 -3.7426273449867642e-001
    1.7307196720596090e-002 -4.8681641728081443e-001
    1.0967476399287204e-002 -6.8274172650503218e-001
    1.0452217288224656e-002 -8.1418417584733305e-001
    1.1291355332121571e-002 -9.9720142299218895e-001
    9.8730598314998412e-003 -1.1384725197665047e+000
    9.2311875057861127e-003 -1.1107646156515849e+000
    9.8118268254199590e-003 -1.1954659719614353e+000
    1.0293294976644966e-002 -1.4638076405402918e+000
    1.0021156488819854e-002 -1.5462107614579992e+000
    1.0228468363268222e-002 -1.6300708197854865e+000
    1.0153080050383479e-002 -1.3491207291948548e+000
    1.1213940305051106e-002 -8.1613121800466437e-001
    1.9536262225418374e-002 -4.9233125117181570e-001
    5.2649347268233886e-002 -2.9709274529931978e-001
    3.6672220268685335e-001 -2.5976156023652114e-001
    2.8908088095205894e-002 -4.0746638458004497e-001
    1.3743823713516044e-002 -6.1513837177294950e-001
    9.7535559608792188e-003 -7.5102380898769983e-001
    1.0615630371652774e-002 -1.1027933872694644e+000
    1.0950652323755949e-002 -1.4564367590595413e+000
    1.0091921671284376e-002 -1.3795296498871767e+000
    1.0045518900815158e-002 -1.4011705023976286e+000
    1.0305785774186215e-002 -1.5370343354643441e+000
    1.0274560224938402e-002 -1.5348235916967508e+000
    1.0868705407624630e-002 -1.6899866488730617e+000
    1.0905845395843857e-002 -1.6031917310622490e+000
    9.9122482109204133e-003 -1.0281744963425705e+000
    1.2403741414772228e-002 -6.8261185268021807e-001
    2.3967775283714306e-002 -4.5560172838417645e-001
    1.2168097025273225e-001 -2.8808693998823959e-001
    6.2426285732702626e-002 -2.9039370416730420e-001
    2.1579298139513616e-002 -4.4353164568893161e-001
    1.2203110388210734e-002 -6.6746655569802638e-001
    9.5149486093014379e-003 -1.0692423499702490e+000
    1.0141842278730178e-002 -1.5938991766982908e+000
    9.8336718096288037e-003 -1.4534371802794073e+000
    1.0075231056852180e-002 -1.1932551924892132e+000
    1.0485470405590643e-002 -1.1114598629926082e+000
    1.0331960236079220e-002 -1.0313356557677946e+000
    1.0020569377636917e-002 -1.1976220678049241e+000
    1.0595999188011478e-002 -1.4148970165741577e+000
    1.0214459811478961e-002 -1.1578667799693598e+000
    9.8164250125164238e-003 -7.9089417117211935e-001
    1.5000454077338138e-002 -5.9916992313081885e-001
    4.2892440369041031e-002 -3.6643675618848898e-001
    2.1687337768771631e-001 -3.3111917486249542e-001
    4.4321726517409732e-002 -2.6955788136406783e-001
    1.8094146312791382e-002 -4.9250004495129041e-001
    1.1065632767905682e-002 -9.7703609323052942e-001
    9.6446902301077497e-003 -1.4624048605752964e+000
    1.0012930597086781e-002 -1.3919016543554488e+000
    9.9990014295304238e-003 -9.4398310817301967e-001
    1.2042023627526585e-002 -8.2305081132782154e-001
    1.1671382187371427e-002 -6.9988346429242021e-001
    1.0060848041600573e-002 -9.5488227394834013e-001
    9.6219666864440587e-003 -1.1658186749657169e+000
    1.0925761152403698e-002 -1.0919420308877750e+000
    9.3056475371500313e-003 -8.1468728557382541e-001
    1.1218295055002882e-002 -6.9553429341017869e-001
    2.2015985756417056e-002 -4.4795323399924164e-001
    1.2558685615268543e+000 -8.8396700833661035e-001
    1.4478544372752933e-001 -3.5571542796748651e-001
    2.5964459049892745e-002 -3.3974031015730194e-001
    1.2415473663592759e-002 -7.5797205732523298e-001
    9.9011957688503929e-003 -1.2163294855742657e+000
    9.9896657060396608e-003 -1.2630088954115204e+000
    9.8267053292350384e-003 -1.0091967880830757e+000
    1.1719588508383894e-002 -9.2347567067848801e-001
    1.1912804791846227e-002 -7.5219080375420722e-001
    1.0357533827491957e-002 -9.6809032694162167e-001
    9.3470887607850842e-003 -1.0973510023878239e+000
    1.1761944996105132e-002 -1.0861421082340834e+000
    9.7509048736784364e-003 -8.3217878781299404e-001
    1.0800685370711579e-002 -7.3880223874330231e-001
    1.8815830534856484e-002 -4.9363555406178544e-001
    1.6396878128031036e+000 -6.0024286004399330e-001
    2.5356425306566721e-001 -2.4979097549028528e-001
    2.9764703079965024e-002 -2.8418204607299941e-001
    1.2817197228012844e-002 -6.1841069304145901e-001
    9.5895010175159404e-003 -9.7123664993028636e-001
    1.0691168842886848e-002 -1.1224931811158951e+000
    9.1495774135791508e-003 -9.8303495425656950e-001
    9.7950087356860668e-003 -1.0295836860921443e+000
    1.0623891430298644e-002 -8.8466029264382662e-001
    1.0634806979307370e-002 -1.0146903557920397e+000
    9.7498987951922470e-003 -1.1515326898464557e+000
    1.0845861830033303e-002 -1.0592307530405589e+000
    9.8991932263457812e-003 -8.0374967383315254e-001
    1.2908445874790458e-002 -6.8147758080348375e-001
    4.8750834514558708e-002 -5.3234170188665453e-001
    1.9642826100898874e+000 -4.4722505854725114e-001
    3.9998667867003151e-001 -2.2975425292653595e-001
    3.8361253282540857e-002 -2.3501976155389984e-001
    1.4017131079909101e-002 -5.3340189877296951e-001
    9.2843680938677186e-003 -7.9052525832577836e-001
    1.0072067424568440e-002 -9.3362969039254873e-001
    1.1591497637906664e-002 -1.0673492423190305e+000
    9.7384914830649927e-003 -1.1421859296566228e+000
    1.0652701023342181e-002 -1.2768023083691558e+000
    1.0342834879990048e-002 -1.4033010610386496e+000
    1.0296241472138735e-002 -1.4076892637689677e+000
    1.0068615301560752e-002 -1.0744501069794985e+000
    1.0391991367238507e-002 -7.2459396949899924e-001
    2.6114025531934447e-002 -6.1554488753845482e-001
    8.7188359055272580e-001 -6.5391269291454435e-001
    1.8647755115791289e+000 -5.4666782110281009e-001
    4.0486284231805675e-001 -2.4159226156181660e-001
    5.0771975076055999e-002 -1.7218650475942204e-001
    1.9351794233716250e-002 -4.4094445432539164e-001
    1.0590810533694262e-002 -7.1180648475342456e-001
    9.1993848052201229e-003 -8.0561695893214147e-001
    1.0186019546667710e-002 -9.7831260949557652e-001
    1.0917035723673580e-002 -1.3527701855808021e+000
    1.0137580411828878e-002 -1.5159454136968336e+000
    9.7685760406830448e-003 -1.5695426968223656e+000
    1.0484640226914253e-002 -1.4590344208629262e+000
    1.0859158664211641e-002 -9.4361564142555732e-001
    2.3776212105944487e-002 -6.9329594674997352e-001
    3.9481707336983385e-001 -6.9210492921080990e-001
    2.5735417617170855e+000 -2.3361018967967589e-001
    1.6104044692072574e+000 -5.0804426707133710e-001
    5.0878323264994196e-001 -1.9230794805518639e-001
    7.7941147040605646e-002 -1.3430929802532937e-001
    2.7533514461220692e-002 -2.7353235497486511e-001
    1.6104954630882212e-002 -5.0512519159985769e-001
    1.1006661385893676e-002 -6.5121108637164682e-001
    9.5758059647191099e-003 -7.4430516808805547e-001
    9.7318496149827408e-003 -8.8462802638574511e-001
    1.0184863491588231e-002 -1.0341425455677675e+000
    1.0880115246126632e-002 -1.0895334454953058e+000
    1.2539415897844927e-002 -9.5566396608352366e-001
    2.4464546609814276e-002 -6.8016536355827395e-001
    8.8243431421657845e-002 -1.6558774854570021e-001
    2.6119797272975971e+000 -2.1377810268060690e-001
    1.8100127780016664e+000 -1.8315605491683529e-001</input_scale>
  <output_scale>
    5.2631578947368418e-001 4.9999999999999994e-001
    5.2631578947368418e-001 4.9999999999999994e-001
    5.2631578947368418e-001 4.9999999999999994e-001
    5.2631578947368418e-001 4.9999999999999994e-001
    5.2631578947368418e-001 4.9999999999999994e-001
    5.2631578947368418e-001 4.9999999999999994e-001
    5.2631578947368418e-001 4.9999999999999994e-001
    5.2631578947368418e-001 4.9999999999999994e-001
    5.2631578947368418e-001 4.9999999999999994e-001
    5.2631578947368418e-001 4.9999999999999994e-001
    5.2631578947368418e-001 4.9999999999999994e-001
    5.2631578947368418e-001 4.9999999999999994e-001
    5.2631578947368418e-001 4.9999999999999994e-001
    5.2631578947368418e-001 4.9999999999999994e-001
    5.2631578947368418e-001 4.9999999999999994e-001
    5.2631578947368418e-001 4.9999999999999994e-001
    5.2631578947368418e-001 4.9999999999999994e-001
    5.2631578947368418e-001 4.9999999999999994e-001
    5.2631578947368418e-001 4.9999999999999994e-001
    5.2631578947368418e-001 4.9999999999999994e-001
    5.2631578947368418e-001 4.9999999999999994e-001
    5.2631578947368418e-001 4.9999999999999994e-001
    5.2631578947368418e-001 4.9999999999999994e-001
    5.2631578947368418e-001 4.9999999999999994e-001
    5.2631578947368418e-001 4.9999999999999994e-001
    5.2631578947368418e-001 4.9999999999999994e-001
    5.2631578947368418e-001 4.9999999999999994e-001
    5.2631578947368418e-001 4.9999999999999994e-001
    5.2631578947368418e-001 4.9999999999999994e-001
    5.2631578947368418e-001 4.9999999999999994e-001
    5.2631578947368418e-001 4.9999999999999994e-001
    5.2631578947368418e-001 4.9999999999999994e-001
    5.2631578947368418e-001 4.9999999999999994e-001
    5.2631578947368418e-001 4.9999999999999994e-001</output_scale>
  <inv_output_scale>
    1.8999999999999999e+000 -9.4999999999999996e-001
    1.8999999999999999e+000 -9.4999999999999996e-001
    1.8999999999999999e+000 -9.4999999999999996e-001
    1.8999999999999999e+000 -9.4999999999999996e-001
    1.8999999999999999e+000 -9.4999999999999996e-001
    1.8999999999999999e+000 -9.4999999999999996e-001
    1.8999999999999999e+000 -9.4999999999999996e-001
    1.8999999999999999e+000 -9.4999999999999996e-001
    1.8999999999999999e+000 -9.4999999999999996e-001
    1.8999999999999999e+000 -9.4999999999999996e-001
    1.8999999999999999e+000 -9.4999999999999996e-001
    1.8999999999999999e+000 -9.4999999999999996e-001
    1.8999999999999999e+000 -9.4999999999999996e-001
    1.8999999999999999e+000 -9.4999999999999996e-001
    1.8999999999999999e+000 -9.4999999999999996e-001
    1.8999999999999999e+000 -9.4999999999999996e-001
    1.8999999999999999e+000 -9.4999999999999996e-001
    1.8999999999999999e+000 -9.4999999999999996e-001
    1.8999999999999999e+000 -9.4999999999999996e-001
    1.8999999999999999e+000 -9.4999999999999996e-001
    1.8999999999999999e+000 -9.4999999999999996e-001
    1.8999999999999999e+000 -9.4999999999999996e-001
    1.8999999999999999e+000 -9.4999999999999996e-001
    1.8999999999999999e+000 -9.4999999999999996e-001
    1.8999999999999999e+000 -9.4999999999999996e-001
    1.8999999999999999e+000 -9.4999999999999996e-001
    1.8999999999999999e+000 -9.4999999999999996e-001
    1.8999999999999999e+000 -9.4999999999999996e-001
    1.8999999999999999e+000 -9.4999999999999996e-001
    1.8999999999999999e+000 -9.4999999999999996e-001
    1.8999999999999999e+000 -9.4999999999999996e-001
    1.8999999999999999e+000 -9.4999999999999996e-001
    1.8999999999999999e+000 -9.4999999999999996e-001
    1.8999999999999999e+000 -9.4999999999999996e-001</inv_output_scale>
  <weights>
    <_>
      2.2819914593652454e-001 -7.3623628481826547e-002
      -8.1622453806316564e-001 8.5410094014274562e-001
      4.9909932097873261e-001 1.8978485754970303e-001
      -4.3160999600814959e-001 -4.0116569392737472e-001
      3.8292094910286589e-001 -1.2631969416871673e+000
      5.4398011383735817e-002 2.7545102903728763e-001
      -7.4800357836731146e-001 -8.5289499289358958e-002
      -1.5165362083824896e+000 2.0692852642316836e-001
      2.7421284753885683e-001 -6.9445289970758595e-001
      -1.4586094384031506e-001 -6.5451154805032352e-001
      -1.2494018904698159e-001 4.4755365439106451e-002
      -3.1348041986545749e-001 4.5571235438459097e-002
      1.9772751717638035e-001 3.1492206255557570e-001
      1.5055870130389329e-001 -1.5317200774737685e-001
      -2.8389286435541777e-001 -1.9103066163796018e-001
      5.9596649151121193e-002 6.5357108834042749e-002
      -4.2718410889814429e-001 5.0150075683041192e-003
      1.5790547405008112e-002 -1.2622422284252591e-001
      -3.8702194930334373e-003 -1.9641022623992743e-001
      -1.2452389462186857e-001 1.1752560765271551e-001
      -2.6873373747553003e-001 1.0041580757573201e-001
      -3.9325241302387004e-001 -1.2276106225473887e-001
      -9.7754308222675695e-002 -6.9308826670543097e-002
      -1.7294211632485471e-002 -2.0414875868727309e-001
      -1.4749858381091496e-001 -1.5725826420599795e-001
      -2.5352884723323776e-001 -2.8646440031669373e-001
      -7.6775667084635246e-001 2.0448479802151395e-001
      -5.6280346422401828e-001 2.7587129072762090e-001
      -1.2852517891190082e-001 -4.0311636948454116e-001
      -3.5384387269536348e-002 4.2321559309294315e-001
      -4.6079910381396483e-001 3.1445953533240606e-001
      -1.1314530101574281e+000 1.3081606796483675e-002
      -1.8736033737455036e+000 -5.6642979570944785e-001
      -1.3956605450979001e-001 -6.3149023749358402e-001
      -3.6114955050860770e-001 9.7313550841644003e-001
      4.3881890752820069e-001 -1.6427963428803163e-002
      2.1329978279276260e+000 3.2663170444202322e-001
      -1.5920171877548761e-001 -6.4749221449940497e-001
      5.2877953627471319e-001 -6.2561286520798798e-001
      -7.6420443690857015e-002 2.6847804674767384e-001
      7.2549392052328604e-002 -1.4971429043086326e-001
      1.9727020522561362e-001 1.3069621681120297e-001
      -9.4870935469949291e-002 1.7999037544547597e-002
      2.9428832465879233e-002 3.9252750354911846e-002
      -1.5567102329298652e-001 9.3915613619349261e-002
      -2.1332267685915374e-001 1.0349244844470012e-001
      1.0125813799639818e+000 1.3278938616472466e-001
      3.6186199937962898e-001 6.3294823023333349e-002
      -5.7462543563701278e-002 2.4960041626556903e-001
      -1.2375372127998503e-001 -2.8239513558778068e-001
      -2.3544633829503200e-001 1.1093027007380930e-001
      2.5048091338267775e-001 1.2987899652802357e-001
      6.6185609674121948e-001 -6.2131943508965622e-002
      -4.8626940101620060e-002 8.1102758028845034e-002
      -2.0600676051427386e-001 -1.5325358608644510e-001
      1.4128131778262837e-001 6.6673390723232440e-001
      -4.8134723083903475e-001 6.7311571765890088e-002
      -3.9128980373205990e-001 -6.9909694731555630e-002
      -1.4123743216196438e-001 3.2322292092605023e-002
      3.6185832273786622e-001 5.2303617435554139e-001
      -5.1900605215988674e-002 3.2049188625551084e-001
      -8.9510714518201237e-002 -1.8759741319418155e-002
      8.4458828122590701e-002 -3.9169792955723870e-001
      3.2590269330033966e-001 -1.8202608133412065e-001
      -4.1262356360338252e-002 -1.0413305072740731e-001
      1.4232760436213264e-003 -1.0246657210112073e-001
      -4.4216915743487378e-002 3.7795957221389886e-001
      1.7347429345115559e-002 -3.4669168212051082e-001
      2.2775198637975466e-001 -3.0510134729407634e-001
      -1.7453289216811943e-001 -5.8719698771641911e-002
      -1.9478014745248176e-001 -2.1510281529195596e-001
      -1.9493357041662801e-001 1.4511962847257723e-001
      -5.6416767656218081e-001 2.5365545556617203e-001
      2.9680048412089782e-001 -1.1000278565630861e-001
      4.4915123031826439e-002 -6.8531924941241620e-002
      -3.2132096350596058e-002 -5.0813191915665135e-001
      1.0432170538975302e-001 1.7258642749752498e-001
      -4.7668902981215527e-001 3.9765607941022341e-001
      3.1419415439261095e-001 1.6604922178813480e-001
      -2.3776490803568001e-001 3.0295347398499598e-002
      2.1549519962599639e-002 8.6539926082866564e-002
      -2.2350336394935966e-001 5.3860240969092099e-001
      2.1928011381424967e-001 1.3378653765128157e-001
      -2.5594732036342477e-001 1.5790037842297606e-002
      1.3351935552063368e-001 -5.2291223029745607e-002
      2.7415838644462627e-002 4.9536375338178229e-002
      -6.5250230556262900e-001 4.4611284483463837e-001
      2.1768100224800030e-001 1.3403840485321561e-001
      -2.4840706502436294e-001 -2.7078352197576672e-001
      -1.9977351233769530e-001 -1.0157618951757719e-001
      6.5497098949115304e-002 5.0782502289931787e-002
      -5.3265434370550946e-001 8.7173690658572986e-002
      2.3447375559968259e-001 3.5476313843150320e-001
      -2.4921039854667471e-001 1.7703271611515647e-002
      -1.2663610497922709e-001 -1.4013515197105772e-001
      9.6039591004548841e-002 1.4192838432381677e-001
      -3.6362595799605858e-002 3.8362647886738745e-002
      -1.0471641120535796e-001 4.0317373858011346e-001
      -6.5016934873527457e-002 -4.8473963772101968e-002
      -9.2183139788916485e-002 -5.3436616871153371e-002
      -2.2991391545255889e-002 1.3917450598535703e-002
      5.4189619430515942e-003 -6.8494259106837263e-002
      1.6730142294727413e-001 -3.5290324168205989e-002
      3.5440036476376863e-002 4.7079809954316529e-002
      1.2594855603340285e-001 -8.5663420675232346e-002
      -2.4372089289762356e-002 3.2999116127671820e-002
      1.2536818046424574e-002 -1.8983602497916266e-002
      -1.9316179065299404e-002 -2.0922673328068544e-002
      4.8872151480806397e-002 3.6740630534852249e-002
      1.3264461704941832e-001 -7.3814885210591291e-002
      -3.8052763113695896e-002 7.4187598124410411e-003
      -1.0526701035329962e-001 -2.1014717826073798e-002
      -5.5734223496110282e-003 -4.8773664070491926e-002
      3.8126599718316716e-002 1.0067865496298764e-001
      1.3888612744704301e-001 -4.0886440172122262e-003
      -6.3515342587509432e-002 5.7300257956972411e-002
      4.7936467623769513e-001 -3.4606413674031306e-002
      -1.8217581170483380e-001 -9.3257210421416992e-002
      4.1057816496687181e-002 2.1170622322772978e-001
      1.3964258815875774e-001 9.9071211694848945e-003
      -1.0284981507934403e-001 -4.4660686984943822e-003
      1.4472183304396294e-001 1.6728822108411734e-001
      -7.6428390363411272e-002 -1.8744030500368103e-001
      4.3819702819053778e-002 2.7464732928121582e-001
      1.7715506806383746e-001 -4.1794773736594355e-002
      -1.0468057055745541e+000 -4.1234735551768958e-001
      2.0417367303959613e-001 1.0237780835949019e-001
      -1.0026418114989553e-001 -1.3372161310961939e-001
      1.0610387044555343e-001 3.1553351203382279e-001
      9.0658953113874258e-002 -1.8887608488346469e-001
      -2.3445760693939294e-001 1.2096604522803997e-001
      1.2156965350418615e-001 4.3337165082909035e-001
      -5.0830522082099705e-001 -3.0670074273092592e-002
      3.1058489723534675e-002 -5.3988763434385703e-002
      7.1187230023033135e-002 5.0899656877661840e-002
      -2.8899632582391255e-001 -2.0824432164279535e-001
      -7.4773218804464581e-002 4.0035828249057447e-003
      -7.6681154125730372e-002 -6.0770393690560365e-002
      3.1490129872133532e-001 1.4737124804547017e-001
      1.2020637683728325e-001 -4.0801809684280876e-001
      -3.6891358598818191e-001 2.3319117462461492e-001
      -3.0516236628897846e-002 -4.6913428751175573e-002
      3.4585817562017984e-001 -4.7063920579280653e-002
      3.7113556302475426e-001 7.9394610641672261e-002
      -2.9176048131542797e-002 1.6798521470952693e-001
      -8.7377113162317077e-001 -2.6546734969476965e-001
      1.2239430225974696e-001 -7.8378262000821083e-002
      3.1024676429464948e-001 -2.4146356811876185e-002
      -1.0475874020391991e-001 5.5744454140045509e-002
      -1.0485447511497477e+000 -1.2750245828332651e-001
      -3.2678804985482485e-001 9.3138763008410910e-002
      1.3527584044417532e-001 3.9750849515164854e-001
      2.7417041927136876e-001 -1.5762450722646323e-001
      -1.5502588348752075e-001 3.7680164916541764e-001
      -2.1538053955767736e-001 1.1636404349698527e-001
      -1.2135633244373127e-001 1.7804484594907799e-002
      -4.2830347650410537e-003 -7.4234297068586141e-001
      7.3176703089874950e-001 -1.9653213114356807e-001
      -1.2393644442208450e-001 -4.1518232658178033e-003
      -3.7637658041465299e-001 1.5555282646193447e-001
      -1.7670685111835421e-002 6.4284859313729237e-002
      1.7370371721146333e-001 7.0432213227293383e-001
      1.9089150099586646e-001 -2.1294637747683899e-002
      1.1022388846762836e-001 -4.9159179967380867e-002
      -8.1907523801447543e-002 4.7165054405442436e-001
      1.7815978026617418e-001 6.4717940746885846e-002
      1.6159964987364533e-001 2.3628794250238333e-001
      5.0320542556106163e-001 -1.9963583333396326e-001
      9.2886512951077485e-002 7.7677138016275404e-002
      3.0539764485769721e-001 2.4497146239204018e-001
      -7.0412581027955112e-001 5.0647454812408385e-002
      2.0756120332738323e-001 1.2816497651958449e-002
      1.7676998260068580e-001 -7.1577404721613835e-002
      6.0432136522446625e-002 -5.2890820150960659e-002
      -6.0126201514601497e-003 2.6330664792833691e-001
      1.4131494282526300e-001 1.2096668945450693e-001
      1.3480455766177071e-001 -3.2109392611286347e-001
      -8.6650692468252712e-003 7.6838033911122818e-004
      -2.1862176987868584e-001 1.8595521445022142e-001
      6.2705126998120989e-002 7.1142364033227590e-001
      2.1948581333477102e-001 8.0440692072510575e-002
      9.7977740429766225e-001 -1.2893622367678825e+000
      -2.7365975483979562e-002 4.6655670762800638e-001
      -2.6764751722390145e-001 -7.7220600618025118e-002
      -1.2003428188607114e-001 7.2708425333257920e-001
      1.2966625690043221e-001 -3.0725121883195795e-002
      1.8493802364151282e-001 -5.3554779465820723e-001
      5.9827970280596576e-001 3.2281209434532604e-001
      -7.7361414897893321e-001 -4.4643588303312554e-001
      -2.4339485752328296e-001 2.5555382654757741e-001
      8.2537704618872179e-002 -5.9803612116721437e-002
      -5.3303390845824174e-002 -1.0662205116764747e-001
      -2.0765081777475253e-001 1.1850534894956580e-001
      -5.8663435410658521e-002 -6.4180367168078245e-001
      2.5300036072678132e-002 2.6717922411682127e-001
      2.1908974255754909e-001 -2.9930334614543708e-001
      -1.5734080153687874e-001 -1.0610087569640352e-001
      -2.0649079026850586e-001 -1.0177907277984645e-001
      2.3886830490068420e-001 -5.2318904951736267e-001
      1.0905903831682764e-001 2.5435367809560450e-001
      -3.0447660966731560e-001 -2.2578671237672036e-002
      -1.9727599869102772e-001 -4.7134769730860970e-001
      -1.7449419735962149e-001 7.7735597482519361e-002
      2.3941547074429925e-002 -1.7269014199842317e-001
      -2.2006307840664338e-001 2.4902877452918337e-001
      -1.7107544744360867e-001 3.1148522329331968e-001
      9.3680762092034142e-001 -3.2096004183358884e-001
      -1.9409196135112797e-001 -1.9195199939636692e-001
      8.2832627619402778e-003 -6.4175862691131380e-001
      -7.1160748270670848e-001 -3.7904149143782893e-002
      3.4894119258960368e-002 -9.3940571095842543e-002
      -2.1805812397368490e-001 4.3322448238150797e-002
      -1.8738683824512226e+000 1.3695899954193261e-001
      -2.5405664973210818e-001 -3.4919299886747965e-003
      -2.2803297971352890e-001 -3.1506713714809464e-001
      -5.3687995906648123e-001 4.1087681902387613e-001
      -2.2438446523619549e+000 7.2519207481874948e-003
      -2.0592839091495780e+000 6.3726396701308430e-001
      -2.1587037995981190e-001 1.8109204089085196e-001
      -3.6443220623340468e-002 -5.9946220509585946e-001
      5.6796176661622921e-001 9.0037280411949916e-001
      -1.1091835275250411e-001 1.4227344577176944e+000
      1.8153655867910803e-002 7.3413609276469605e-001
      -1.2962104333460084e-001 -2.1456806841805948e-001
      4.1583798919261256e-001 -1.0903243461000285e+000
      1.2023004378172508e+000 -1.1156840934139960e-001
      -1.0913462200543525e-001 6.4248578733792161e-001
      -1.6960425274989294e-001 -6.8312346535854454e-002
      -1.3833504640441188e-001 -1.4387403612980451e-001
      1.3870831604623376e-001 -1.0596326970551598e-001
      -5.1027614104009106e-002 -1.7483523941324250e-001
      -7.1321831106936878e-002 1.0417174363163530e-001
      -2.6698008028628306e-001 -1.2044330129135153e-001
      -1.5219228007527968e-001 1.4354971500950642e-001
      1.4126200335311909e-001 1.8078330300244169e-001
      -6.3469312940853603e-002 -1.1161082035058672e-002
      -2.4024032850827708e-002 9.0203440857609049e-003
      -1.9466937727708716e-001 -4.7960176278585037e-002
      -2.0678979388809834e-001 2.0183915745695735e-001
      3.3424448108550185e-002 2.5635762045143062e-001
      -5.7639744406904066e-002 -5.4176050071729062e-003
      6.3366889532288001e-002 1.2056736240583885e-002
      3.5655652828986244e-002 5.5867785593104000e-002
      7.3956486797337725e-002 4.9701759037390728e-002
      1.3238581114025283e-001 3.7046691505960910e-001
      6.4995859524414556e-001 5.9691223969570328e-002
      2.3915929230935706e-001 1.1814845136193903e-002
      1.5402694257439991e-002 -1.0337945956622789e-001
      2.1049714713083373e-001 -2.5471658658324253e-001
      3.6879309611995825e-001 -1.1719443703708575e-001
      1.2466061716341132e+000 1.2351720538497700e-001
      1.5312370806581641e-001 -1.4042588489694022e-001
      -1.7310376603079977e-001 1.4004091659454082e-001
      1.2984392304348905e-002 -2.2104069689940813e-002
      4.6252609654005850e-001 -1.1185621226029241e-001
      8.6099271031749436e-001 3.8329710992856075e-001
      2.0572741847340667e-001 -9.8897538465622728e-002
      -4.8487657107068194e-001 8.5050802430153327e-001
      -4.8499272531312199e-002 -2.1547399910416154e-001
      -2.3958205743815938e-001 -6.0140884323071975e-001
      2.8071500063828508e-001 9.4490954459081178e-002
      -6.8544398919254429e-002 5.2645070587402788e-002
      -1.0061207037621240e+000 1.4336444506686979e-001
      -4.7489272600473664e-001 -1.2564828900959843e-001
      -6.1221875506199042e-001 -1.2262871273991078e+000
      -1.1552895711810136e+000 2.2192232230300826e-001
      1.1348310045168973e-002 -2.1125214633657574e-001
      -3.1082490804196689e-002 2.0959774518294345e-002
      -2.0251435551352548e-001 -1.9355956102483479e-001
      -1.6744866282045230e+000 -1.1641453616680084e+000
      -1.3527164466446573e+000 1.5445636540280239e-001
      -7.3670822769285174e-002 -2.8469126166878733e-001
      -8.2914663608034933e-001 -4.0775008063936663e-001
      2.9484002013744598e-001 4.5159747864878613e-002
      -3.3031257135185338e-001 6.7202488503308477e-001
      -1.3321686451884429e-001 -7.8490726001783820e-002
      -7.9100137930400438e-002 -2.7918025118043882e-001
      -3.4826161462611782e-001 -2.2752157629552400e-001
      7.1906018679733688e-002 1.9045744919262897e-001
      -1.3959426795513677e-001 -3.8078984023388768e-001
      2.0287077634502913e-002 -6.3843403590518655e-002
      -1.0372026055283852e-001 -7.9928595302213912e-001
      -2.0653297486142386e-001 2.0552599981484082e-001
      7.0752909513246962e-002 -2.2751006154745396e-001
      -9.3647666239479677e-002 -7.0983623772517698e-002
      9.0467078789457020e-002 1.1018649909441716e-001
      -1.6569669374284648e-001 8.5873170742041677e-003
      4.8154703462529938e-003 3.6266039930715599e-001
      -2.3859470740901927e-002 -1.4465315927345157e-001
      -1.3317945156770258e-002 -1.9521395312325493e-001
      4.0583654537842440e-001 2.9242749077010360e-001
      -1.8207615458412169e-001 5.3974649204689018e-001
      -6.9860422885292383e-004 2.6094990626776726e-001
      3.0409989175916408e-002 -4.7190068584369682e-001
      4.1060417334377382e-002 -2.0368007543715877e-001
      1.1453533650777810e+000 1.9422264330300817e-001
      -1.2575559396636216e-001 3.9704456021724915e-001
      -4.1845785380215850e-001 2.2983088397806262e-002
      1.0108905009779022e-001 -2.4278414464900158e-001
      8.3930900690546373e-001 -4.6536828255159390e-001
      3.7539868210440613e-001 -6.0009902650345212e-002
      -1.6296025644056494e-001 2.1481586451183471e-001
      -2.2342258350229618e-001 -6.0549325043020319e-001
      -4.4237363861946716e-001 -2.4115077466890275e-001
      1.5960726920557824e-001 -3.3927228631633810e-001
      5.3839983101425137e-001 -1.2477747542237241e-001
      -2.3803981962290480e-001 2.0774463452895997e-001
      -2.5543981894142243e-001 -6.1738141630875459e-002
      3.6815069471588152e-001 3.1811483638216542e-001
      1.2335625922887475e-001 4.2221324122596417e-002
      -3.3105689572818224e-002 -3.8206994992277438e-001
      -7.0224859187861075e-002 7.6853907904218866e-002
      -4.2458000742736049e-002 -4.9420610709763765e-002
      -2.1530740037182597e-001 -3.2572938343184768e-002
      2.6733516570986673e-002 2.3555698118813356e-001
      -5.1550230770570728e-002 3.7610960853567244e-002
      1.0654020142973624e-002 -3.7167247957474198e-002
      1.3169095506117900e-001 1.1488249742379698e-002
      -1.8849898948119814e-001 -5.4121675639285077e-002
      2.0015495324387472e-001 7.3637906417586041e-001
      -1.0978820933132644e-002 4.7698813199020668e-002
      -5.9499286248649551e-002 2.6367357589619006e-003
      1.2871971496897911e-002 -3.8935511413300671e-002
      -2.3958651011721716e-001 7.0989600037094674e-002
      5.3811499646024252e-001 1.0643323785218028e-001
      8.3384329601948443e-002 3.7971299177325654e-002
      -2.7207330411713866e-002 3.3156377947089147e-003
      -3.1934011851368627e-002 -7.0643341785544725e-002
      4.1396025920446812e-002 -2.6261993986513021e-001
      3.1687457808064273e-001 -3.5310218988363909e-002
      9.5459863420730284e-001 -4.0185414652799595e-002
      -7.9392077288290119e-002 2.4026601639855685e-001
      -2.2720419026837163e-001 4.7327123560195161e-001
      4.6799308030346896e-002 -7.0564174884996250e-002
      1.8003304381287541e-001 -9.6559146431413126e-002
      7.5608231807015414e-001 -1.1404649335600385e-001
      -1.1406130683480913e-001 -4.1162034474039405e-002
      -1.0052761120837561e+000 7.2235377487643720e-002
      4.5196139588726293e-002 2.1428554143146292e-001
      -8.0658586235269936e-001 -1.2721999411368463e+000
      -1.2377282514624477e+000 6.0913189967507303e-002
      -1.3735786752319343e-001 -1.0442312350745427e-001
      -3.0700001131966981e-001 1.5715870169235834e-002
      -1.4204985197688841e-002 -8.0137862829641054e-002
      -9.2466460351961277e-001 -7.8341340157548811e-001
      -8.0773127088194585e-001 5.3340336601322050e-002
      -1.7355613769648043e-001 -3.5606047377437383e-001
      -1.1052538250384988e-001 -1.0375333330138823e-002
      -5.5314737819968894e-003 -1.2304873961537652e-001
      -1.3897644491938745e+000 1.3138183159703579e-001
      -1.4129383536731177e-001 1.0581368116719700e-001
      -5.0501994485726759e-002 -3.0252084655181738e-001
      2.9234862836730619e-002 -1.5651265717162835e-001
      2.3737783554553575e-002 -4.6178055508647398e-002
      -9.5839035255972049e-001 -4.9277410753268490e-002
      2.1300458331168365e-002 -6.0426162365477820e-003
      -1.4251324276234545e-001 -6.6162089706576110e-001
      -6.2386962484120151e-003 -2.3597837405880023e-001
      -3.0895544747377855e-002 1.7228909373886092e-003
      1.3714578262106125e-001 -4.1220621066945226e-002
      -4.4143960772130885e-003 -4.3191758618484288e-002
      -8.7544352163296466e-002 -5.7573125818001880e-001
      -2.9019755471595835e-003 -1.3715013789617236e-001
      -1.2022378323624947e-002 -2.2275684857556682e-002
      -1.2108717217949716e-001 -1.8296719871780168e-002
      7.0642907281507558e-002 -6.4623033891594600e-002
      -8.9513509848723194e-002 -1.1330907897812964e-001
      3.1068786289821453e-002 -1.3678438738237428e-001
      8.1297408096020068e-003 -2.4227664619666231e-002
      -2.4643775813917940e-002 2.3700036442089001e-001
      3.9336459585023870e-001 2.8359288460499743e-001
      -4.2664017722600545e-001 -3.0285663162865273e-001
      -4.1368543342973002e-001 -8.1290898188475527e-002
      -3.2697621671353566e-001 -2.2621571776541086e-001
      3.5614707253124689e-001 6.2181477702702936e-001
      3.5873448123110818e-001 5.2640962080723508e-001
      -2.0757090500159707e+000 -2.3699097785035619e-001
      -2.9357966831430499e-001 -4.2198544339857053e-001
      -1.2377828527622203e+000 7.3728292473209411e-001
      2.6226624884938943e-001 -8.8445333006894014e-002
      2.4322504888891064e-001 1.3792811038910424e-001
      -9.1583414073290170e-001 9.6708296468990873e-002
      -3.8220479011402103e-001 -9.7765682979630120e-002
      -5.0103399758607914e-001 -2.5355957782009803e-001
      -1.4924758578381336e-001 3.7633548459369465e-001
      6.5433562197281248e-002 9.6133512818854627e-002
      4.1400667359281523e-001 -8.7548674404952426e-002
      1.6100368449668204e-001 3.2482120937513886e-001
      6.0333826391112400e-001 -1.5287798117390791e-001
      -7.3028226112157746e-001 3.1641217948106082e-001
      1.1210923529496229e-002 -5.2152230816426406e-002
      1.2080624677444020e-001 1.1542993911654588e-002
      1.4556517660467805e-001 3.7195882503437938e-001
      3.7903525709103499e-002 1.8548172239903696e-001
      -8.5042736410994718e-002 2.2300577419050976e-001
      -8.1175302247189982e-003 4.2563666994719210e-002
      -1.0748856467423543e-001 -4.0620431216037214e-002
      1.6413775211000037e-001 -6.2140874226334290e-002
      4.0523973543470031e-002 1.3282153006575506e-001
      4.3771256287061877e-001 -2.4398985561395203e-002
      -5.0509256481468749e-002 1.0261978976812728e-003
      -1.2393006718029444e-001 1.6991373640090821e-002
      8.6719576217090630e-002 -5.6425185401145050e-002
      4.6420625089401500e-002 2.1582869188212128e-001
      1.9248924196913500e-001 1.0937954427679607e-001
      -2.0824389731670376e-002 2.7886024187236824e-001
      -8.3037839695201385e-002 5.6109245142378097e-002
      -6.9633927895064207e-001 -2.5722421227060727e-002
      4.3806573759307542e-002 -5.3474642618900586e-002
      3.3738675826215997e-001 5.9865715579311710e-002
      3.2000316680439733e-001 1.8158928333072050e-001
      -9.5656949632604626e-002 -1.3025054932936452e-002
      -1.0265430655776087e+000 -1.7230675588915861e-002
      -7.3086561206469641e-002 -1.4589978028805481e-001
      -3.2382055200890125e-001 1.2718425881790721e-001
      -1.9747010984385394e+000 2.1195856710617242e-001
      -9.5508822566870599e-002 1.5515788219739807e-001
      -3.1016860153716896e-001 -1.2335420668002953e-001
      -2.0898921730238615e-001 -2.0299489854828551e-001
      -2.6062504274621405e+000 -1.1644914633327108e+000
      -2.0906523717813568e+000 7.4534110223482414e-002
      -2.7285464157544970e-001 2.5196045243962635e-002
      -1.8722890794022315e+000 -7.8194252307003068e-002
      -1.3814064883551025e-001 3.0575566173756428e-002
      -1.5374250054336729e+000 2.2956162118582082e-001
      -1.3721493120289796e-001 -1.2932168765924906e-001
      -8.9736005796975882e-002 -4.2112928037092889e-001
      1.5242915136444437e-002 -1.3669076219157408e-001
      9.0004261560428719e-003 1.8422340681131397e-002
      4.2780293247966318e-002 -9.0495877260597379e-002
      -4.8815665529968424e-002 -1.1199531645128709e-001
      -9.4041312102370461e-002 -9.5576155594909351e-001
      2.4586056615170425e-003 -2.0853299760282351e-001
      -3.8113665966084759e-002 2.3939422813584670e-002
      7.9068316927599386e-002 -5.7842571915526463e-002
      2.6363975534177658e-002 -7.3733697390681516e-002
      -1.4516719599656705e-001 -2.7054513320195245e-001
      -2.7036440227513636e-003 -1.3613991888421337e-001
      -6.7739310470442918e-002 1.2183320739748764e-001
      1.5038112281663067e-002 1.5315766683758426e-002
      -1.9695728446751276e-001 6.7935345023418595e-002
      -1.8690264414813443e-001 1.9107283938825766e-002
      5.3909221804375240e-002 -1.1339481493477384e-001
      -1.7539355600284329e-002 4.6466559191840623e-001
      -1.1820251660688988e-001 1.4703484862781913e-001
      -3.3159715428725228e-002 -1.3855285998966987e-002
      -2.6270353493496440e-001 -2.9354637131751249e-001
      -8.9473881204760997e-001 1.4676875761537547e-001
      -4.1830800221871370e-002 1.8754306942598784e-001
      2.0531501026990137e-001 -3.5192232031652740e-002
      3.8010044755643367e-002 5.7950814457868105e-001
      -8.6692959135466141e-001 -9.1578362824583551e-002
      7.4073535009988700e-002 2.6198347897508728e-001
      6.5332863097837535e-002 -4.3603802137250014e-001
      6.8931645598707381e-001 2.4940630690740997e-002
      4.0872408046752262e-001 -3.2532237104662153e-002
      -6.8287250170979044e-002 9.9566721930903712e-002
      -1.5830689400561426e-002 -4.7267547448345770e-002
      -7.1858316932553165e-002 -3.2732502220556159e-001
      -2.5653352495811188e-001 1.1570196462188151e-001
      -6.0219223725460569e-002 -5.6229320844965958e-002
      5.0581613563636621e-002 3.3838865351432058e-004
      -1.0616458433567903e-001 -1.0601183051147360e-001
      1.1587739968043057e-001 -1.0323573811151740e-001
      2.8773921807005753e-001 3.1849094878089311e-002
      -9.1522886448739238e-002 -6.4401576196042296e-002
      -1.7936775911059297e-001 -8.6190076045075975e-002
      4.5922016014903954e-003 -1.0037185220185796e-001
      -2.4703171123391401e-001 1.9898726937277450e-001
      4.6554190079860086e-001 -2.3082074322237728e-001
      -3.1818951913513832e-002 -2.9373185211752650e-001
      -1.4808665312483402e-001 3.7236811798866641e-003
      2.1207614741426035e-002 -6.3994795332997095e-002
      3.2825251323061418e-002 -2.8287361378983400e-001
      1.4528801663648752e-001 -1.4113241351989239e-001
      -2.2355690590396540e-001 2.0391825574114486e-001
      -2.4268367094033508e-001 -4.3918022305536875e-002
      9.5858884689423926e-002 -8.6327203755906079e-002
      3.2004400211237224e-002 1.8706013365898699e-001
      1.8937725777052652e-001 -1.5302092624846962e-002
      -2.3486917008948002e-001 4.1422390464722098e-001
      -8.2014575239162932e-002 5.9565179870001025e-002
      -6.6184262171770725e-001 -6.7435123156361534e-002
      4.7964122914551884e-002 -1.2563703505191129e-001
      3.0685499779824083e-001 7.2923576419770930e-002
      1.6584664894749854e-001 2.7775113777522831e-002
      -8.7123805725459316e-002 -3.6347560758168661e-002
      -5.9271953617613771e-001 -1.6710394032626259e+000
      1.7403911611104694e-001 -1.2161253632685083e-001
      3.5948830929859504e-001 1.2607876328885881e-001
      -2.2636812473640941e-001 -6.7322916738118699e-001
      -1.2944584794488742e-001 1.1259720405582410e-001
      -8.9120367989351945e-001 -2.8635159632761312e-003
      -1.2254209600985780e-001 -1.2083798417972741e-001
      -2.6809624123957216e+000 -1.5725248685397795e+000
      -1.3234816952692356e+000 -4.7510747974101326e-002
      -4.3722850231438492e-004 -3.0405856157663691e-001
      -6.2272457171093543e-001 -8.2508330846320518e-002
      1.5108828911896163e-001 1.7521630221344289e-001
      -1.5245176922111843e+000 -4.6990233391843778e-001
      8.4083224666413894e-002 -1.8290138455755844e-001
      -2.4558263381132681e-001 -3.6951315923759315e-001
      4.0151856299664046e-001 3.9135561404119357e-001
      -2.9058065391437893e-002 -1.6793935939568064e-003
      2.3048430885142196e-001 -3.3617163348852774e-001
      4.6270111212681521e-002 -1.5421363229847504e-001
      -1.5183300356004065e-001 -4.2615308194030865e-001
      -6.8254822843026421e-003 -1.2760653670448666e-001
      -3.3134272464757079e-002 -1.6637233209237218e-003
      1.5322245986232733e-001 -1.1904406950905005e-001
      1.3819435296827651e-001 -8.5358775809517923e-002
      -1.4129692274051564e-001 -2.8108386755797693e-001
      -1.5534353927305147e-002 -1.3649773538080850e-001
      -3.2427435241011292e-002 -2.7046134475429029e-002
      3.9675095371861506e-004 1.9624369149902673e-002
      -8.2070898988927732e-001 -6.9674516387937396e-002
      -3.5628291172954135e-001 4.3675395060695427e-001
      5.6743441169064646e-001 -2.1620098640887922e-001
      4.2694940124528252e-001 1.4812978201090782e-001
      -3.6161078534182850e-001 1.4304117503990027e-001
      -7.0113195849248733e-001 9.0164435454676201e-002
      2.4644126995687386e-002 3.7897113108752067e-001
      -1.4834213595935750e-001 -1.3393403095986750e-001
      2.3847171798249106e-001 1.1619393067345062e-001
      1.3645973150794871e-001 -5.9307207200365482e-002
      1.0378903480101282e+000 -6.0266520616321206e-002
      9.3962405805984583e-002 4.7547868331064341e-001
      2.0838868655982948e-001 -5.7198158749862275e-002
      1.5203941994567627e-001 1.2583133466440055e-001
      2.0757911191221826e-001 -7.5201985768722057e-002
      1.9261076361200391e+000 -1.1628145950760224e-001
      1.1140848161563434e-001 4.6824557173966758e-001
      1.3779648226556880e+000 3.4426938999283363e-001
      2.9743941662204576e-001 -1.9918135589143499e-001
      -1.1977580926416657e-001 4.5575176847694421e-001
      2.3870406630448940e-001 -3.7128251048750510e-001
      1.1045988920670348e-001 1.4106932891471480e-001
      -7.6328161138223841e-002 -1.6680637091867415e-001
      -2.1219140445055901e-001 2.4260556920584792e-001
      2.2926886731411514e-001 -1.0150186333383560e-001
      -3.3180140226082885e-002 -8.4770507563261455e-001
      9.3734037110419249e-002 1.3804262616284432e-001
      7.8687897381441007e-003 -3.8343386537848073e-001
      -3.7089839409010661e-001 4.9550133128709178e-001
      1.6526398581867546e-001 -2.5019014863471700e-001
      -8.8036746789521642e-002 -2.5765378216847012e-001
      -1.0267177780292820e+000 2.7747600749159822e-002
      3.4250152677349499e-001 -1.8724997794019527e-001
      -2.9520353706983937e-001 -1.5343889883801201e-001
      3.6678218071402396e-001 -2.1642211723641491e-001
      3.8923068480850578e-003 -9.6720440205311217e-002
      -5.7715227657442902e-001 -4.6072382117063507e-002
      -1.2918435854164961e-001 -4.3114186518105468e-001
      3.0318423551320885e-002 4.6184651152539551e-002
      1.4638631659765092e-001 -7.0464023613650825e-002
      -3.6765836807881941e-001 -3.0040280117256709e-003
      -1.0862543106203053e-001 5.5107154594387975e-002
      -4.3941298214394026e-001 -1.4209741613371190e+000
      3.4143680318361569e-002 -2.0761496179708010e-002
      1.9927958184837388e-001 6.9647442535893514e-002
      2.3519184864122097e-001 1.5775721346294805e-001
      -8.8408857546341743e-002 -2.4357288161311903e-002
      -9.6016764716539160e-001 -4.2811146303258146e-001
      1.7570486218201625e-001 -3.9927052550894279e-002
      2.8837478408825462e-001 -1.4450232730847215e-001
      -6.2155500638974903e-001 5.0075524239503455e-003
      -1.1464907302247833e-001 -3.6554701020932671e-003
      -4.1275001847652881e-001 -6.2831455679112011e-002
      7.6558775321179204e-002 4.5244220456104538e-002
      -1.5082083300868026e+000 -4.5543800103508136e-001
      -7.8433938184696306e-001 8.3499230502033472e-001
      -2.0870289470683293e-001 4.5542444379370728e-001
      -2.0014504923328838e-001 2.4468986871069381e-002
      5.4763188074198077e-001 -6.0543503548874757e-002
      -2.6583775576839819e-001 3.4876684922288037e-001
      -2.0000600776953842e-001 -2.6024209722991587e-001
      -2.5759229354220512e-002 -2.0268386529166119e-001
      6.5399794762746333e-001 1.9136032604548373e-001
      -1.3115159685387853e-001 1.2731710913251834e-001
      2.0553555942175325e-001 -6.2282698446505003e-001
      1.5634854885962432e-002 -1.4217963171463610e-001
      -2.2427308337671051e-001 -4.5500765786082187e-001
      2.5251990780315995e-003 -1.2611416342861287e-001
      -1.1896558769036840e-001 5.3527608393388368e-002
      3.0222249804276319e-001 -1.9261451310272387e-001
      -1.2260709590518871e-001 7.1884802406348161e-002
      -2.3274450809312858e-001 1.8194375620328618e-003
      -3.5917068461611068e-001 -1.3742429373406184e-001
      -7.9434636444513623e-002 -3.6959843615764001e-002
      7.7416145831946864e-002 1.1461953057626932e-001
      -1.0772871535920961e-001 2.1632414295467189e-001
      -1.7993987145919554e-001 3.3870584499098499e-001
      2.7963670388533068e-001 -9.6304469712677032e-002
      5.6607464145447628e-001 -4.1617652395139099e-001
      -1.9690644642115748e-001 -3.2006822994649109e-001
      1.0127822474226840e-001 -1.8023566364430205e-001
      1.6484285834144527e-001 2.2235382237705514e-001
      -4.3126442884178429e-001 -1.3850360285243973e-001
      2.4871002002135248e-001 8.5009985023531395e-002
      -1.6213891515305351e-001 2.0422034142827197e-001
      -3.3542518140855604e-001 -1.9298297985660604e-001
      -1.1426573262803413e-001 2.9896950527635952e-001
      5.3511559250575524e-001 6.8457463394194423e-002
      -2.3893993288022242e-001 2.4254531107542179e-002
      -5.6120770172932988e-002 6.2850635029289531e-002
      1.1100769351589329e-001 -4.2359140495131192e-001
      4.2629822500248166e-001 4.0467757275799383e-002
      2.2354038230571052e-001 -2.2822677203064068e-001
      -1.3383833880564813e-001 5.8535582015935927e-001
      -7.1859030466708801e-002 -1.1463878905869269e-001
      4.0136231991820787e-001 -7.0946096666152425e-001
      -2.4384389972827904e-002 -4.3929187986998131e-002
      -3.1307374818047809e-002 -3.6942635864851026e-001
      -2.1305286079498856e-001 5.2842619205746066e-001
      8.2307256960665964e-001 -2.9331466063947306e-002
      -2.8335024479043730e-001 -4.0488093606262687e-001
      -9.6981375839290798e-002 -2.1193612949516108e-001
      1.0836504671064183e-001 -5.0395732340027810e-001
      -2.1680180199628871e-001 3.3460500785179464e-001
      2.1121821373284547e-001 -4.4496823102005639e-001
      -1.4717322843333830e-001 -1.0151297678353242e-001
      -1.7148129135960966e-001 -3.2201775859873299e-001
      2.8918187080601965e-001 -2.7947782424727513e-001
      6.6741354827382401e-002 8.4923184145353978e-002
      -2.0783758857515908e-001 8.6888325621928997e-002
      -1.4261669040375186e-001 -1.4298226529034161e-001
      -2.9241005954962296e-001 -5.2844135157002849e-002
      -2.6508399676438088e-001 -4.4921475798204941e-001
      -2.2056304739209981e-001 -2.5808230348629283e-002
      -6.3517125747915668e-002 -8.3559214734810622e-002
      4.8804467022299340e-002 -2.7457373406621999e-001
      -1.7593731978779040e-001 -1.1649229142504823e-002
      -1.8914947592049539e-001 -4.6074213011646672e-002
      1.0990703505669472e-001 -1.3447475017614224e-001
      6.3766926970574747e-002 -2.6780108342334702e-001
      -3.5585657226177436e-001 -8.2440987483739148e-001
      -4.3277566088434416e-002 3.0579275052484644e-003
      2.3577740028341654e-001 -9.6432772355374757e-002
      1.8854032539078017e-001 9.5029649740065184e-002
      4.8287883709391688e-001 -8.2037971843360785e-002
      -2.3662349176100683e-001 -4.2121278283012004e-001
      9.5231178074895645e-002 6.9160994956842109e-002
      2.3610851957777429e-001 -2.1911084931607322e-001
      4.4186809564369450e-001 -3.4773405258202883e-002
      -4.6552610234040992e-001 -1.9927328031097802e-001
      -9.6667814276469088e-001 1.8554690333434509e-001
      2.4152222588795713e-001 4.0826827915783993e-002
      4.5372059925326107e-002 1.2886330306517549e-001
      6.5284948846692570e-001 -2.5973243931840506e-001
      2.3667759767070704e-001 4.7005484707481221e-001
      -1.0169964320831448e-002 -1.6748329259115310e-001
      -1.7808012488736067e-002 -1.6072360263391188e-002
      1.1278043320475011e-002 4.0854062336547436e-001
      -4.8724108118204108e-002 -8.4480807987968295e-002
      2.1228188479597315e-001 -3.5601877073802535e-001
      -2.6164143898497588e-001 -1.4262507572556687e-001
      -2.9078024402412677e-002 4.4746674145763492e-002
      -2.4635987011957035e-003 -1.0788925770698632e-001
      -5.4510246536218152e-002 -1.0685684647471989e-001
      2.0124809524457352e-001 -9.7268339869405238e-002
      -3.1977197876528252e-001 4.2443859001131803e-002
      -3.0702768020179028e-001 3.4935144705737844e-002
      -9.8904049524064494e-002 -1.3612217969454543e-001
      -5.3912388366671893e-002 -1.1538152726927324e-001
      3.7429552021088386e-001 1.4823847503955820e-001
      -2.0762762486206132e-001 2.3705187744581531e-002
      -1.0221536442699822e-001 2.0335040403882909e-001
      -1.4497165539444087e-001 -3.1697900329255996e-001
      9.7853684870005189e-002 -1.0533641935327338e+000
      -4.8058455819810879e-002 -1.4953131658030730e-002
      1.4243629586470274e-001 -1.5488860468459537e-001
      9.7229535851315038e-002 2.4320551320386817e-002
      -4.8027484053148711e-001 -1.6750351214183612e-001
      5.7975410526190430e-002 -6.3072801135404047e-002
      -2.9799701714446064e-001 2.0813438905959400e-001
      1.5408911319906365e-001 -6.7420313533463921e-002
      9.3543629824534319e-002 -8.0587584615249980e-002
      5.3618560094727508e-001 5.9285245549457875e-002
      -4.0637627251100605e-001 5.0126817554149418e-002
      -6.8139394658931221e-002 5.5166058062782818e-002
      2.3900701700145166e-001 1.1417819649232619e-001
      1.8900510542388890e-001 1.2576277112606749e-001
      -6.9981135271721617e-002 -9.5516737015131747e-001
      -5.1851625377871169e-001 1.0462532611906623e+000
      -9.6371453050581188e-002 -3.4107610508668779e-001
      1.8565427878374427e-001 5.8150297889629987e-001
      8.5935102681096176e-001 9.0754111706241258e-001
      2.1477584083865967e-001 -2.9054535137051146e-001
      -8.1137883566851809e-001 2.2097904998267284e-001
      -1.3372499320476219e-001 -4.3323360541984664e-002
      1.8134604622256384e-001 3.4620606802288545e-001
      1.9037848034283181e-001 1.8087242739899664e-001
      1.7796071118372755e-001 -6.8506842403753909e-001
      -6.3032188090857222e-001 4.1103251527515022e-001
      -3.0085028172222023e-001 -1.6066945050243817e-001
      -3.0499379100984364e-001 -1.5649775009822720e-001
      -1.0246966869071370e+000 -3.7733275428527219e-001
      2.2865989846048165e-001 -3.1851791793707385e-001
      -6.7350538221217926e-001 4.9883320145973808e-001
      -2.0574850668563352e-001 2.0003716603104166e-001
      -2.6981526175226256e-002 -5.3678195344981794e-001
      -2.4700637833564326e-001 -9.7792367180145245e-001
      -4.1473174694017817e-001 -2.3943948003209539e-001
      -7.9482530203370860e-001 -4.0060989671177882e-002
      2.3164375616848424e-002 1.9899824115186471e-001
      6.0750457632728481e-002 -6.8962557807370883e-001
      -2.9161152133581947e-001 -6.7466833208298910e-002
      -1.3776364316650697e-001 9.8217832787966891e-002
      5.1178909191616961e-001 1.3368382036836721e-002
      -3.4375494924700600e-001 2.0829369297521921e-001
      2.9125811563704329e-001 6.9835531982828797e-002
      2.3624376237751796e-001 -2.2658017604884811e-002
      -3.0370820976784327e-002 3.5737210363567994e-002
      -2.5393035301690514e-001 4.2424126750369016e-002
      9.6185965412918725e-002 1.0699412460439336e-001
      4.9773404421897866e-001 -5.2786457285927779e-001
      9.4488351828871719e-001 -1.9677961030500299e-001
      2.0574443247749777e-001 -4.0350672150058386e-001
      -4.9555868182284724e-001 9.1124761769376533e-002
      -7.5935974069307494e-002 1.1668351380916014e-001
      4.9871603659444796e-001 7.5540442470025990e-002
      2.6637518149725055e+000 -9.5243729166118493e-002
      -1.3254505611614171e-002 2.0675674366416274e-002
      5.9791069034736577e-002 -3.5037937099554251e-001
      -7.0353857295750166e-002 -6.5258260337964447e-002
      2.8034348814421245e-001 -6.1248853703833028e-001
      -3.0969781300967747e-001 -1.0164544435808630e-002
      2.6494614701367658e-001 -1.6303083912886132e-001
      -3.8322225659492970e-001 -1.1065731013844371e-001
      1.8564470477657138e-001 1.5296064719645502e-001
      -2.9055599809267940e-001 -5.1573642860380416e-002
      -1.0865640245913868e-001 -1.0847891527426128e-001
      1.3704685985801995e-001 -1.7716544711508081e-001
      -4.4642077720871920e-002 -8.9748175053041779e-002
      2.8333954383791793e-001 -1.0433246088229394e-002
      -4.6142140113340518e-001 -5.2230045398141238e-002
      -1.4823220428464143e-001 -1.4482752327611884e-001
      -1.9223310584543049e-001 -1.6353600760641232e-001
      2.8676014204679499e-002 -9.6027327171400126e-002
      2.7341181930217451e-001 6.8281957423213663e-002
      -2.9337314916589009e-002 1.9258779621907643e-001
      2.6971941894020091e-001 -2.2411060492262793e-002
      -2.7149179154519631e-001 -1.1620702076247975e-001
      -1.1556477815400656e-002 -1.1284854253289098e-002
      2.2858638172920748e-001 1.5973835557525370e-001
      2.2764818218086327e-001 -2.3151307760047566e-002
      -2.7470205654282620e-001 1.3733024599025243e-001
      -1.0896484311405448e+000 -3.7384800138845825e-001
      -1.4642407034659015e+000 -8.0766100047414069e-001
      -3.0173139527646814e-001 2.2396878910044279e-001
      8.1529837830894525e-001 2.5650356576072164e-001
      -1.8105772991419800e-001 -4.0015753928493586e-001
      -4.0847757817570947e-002 -1.4695875699012535e+000
      -3.8865727436353797e-001 4.8267868881005932e-001
      -1.5092357223848227e-001 -1.0175328827594336e-001
      5.0689757210407860e-001 4.2772956926903954e-001
      -1.0755816806078530e-001 2.4600433962247606e-002
      5.6266566258022765e-001 -2.3013916218964328e-001
      -7.2013520000314857e-001 1.9546899142837032e-001
      -1.7239160665186845e-001 1.2874269654899403e-001
      -1.3861260131379349e-001 3.1743225209731485e-001
      -3.5088469173802754e-002 7.1751604944258218e-001
      1.2076870293414756e-001 2.3022467787706316e-001
      -3.8754922144183546e-001 1.8545880206928925e-001
      -4.1473407285974284e-001 -9.1383950329480890e-001
      1.4614276043302227e-001 4.3822973846801172e-001
      -6.4024232477927864e-002 3.8764010553939976e-001
      1.2225899666036120e-001 -5.3674675296877927e-001
      -1.9654653798313412e-001 4.0786253577151071e-001
      -5.1068698404354906e-001 -4.9185069947260285e-001
      6.3293846321109778e-002 -1.3289387600473721e-002
      -1.3952296218681337e+000 -1.3560603259712853e-001
      -7.0895811181336366e-002 -4.0072085540204988e-001
      -6.2855220253999056e-001 4.0699673663426333e-001
      -6.7203041197961033e-001 5.2813981530114400e-002
      -1.4501491581005996e-001 -1.9894009828970951e+000
      -6.1279459237220235e-001 -1.4148692380943473e-001
      -1.1587016432500048e+000 -2.2273738627919978e-001
      2.7003782884962900e-003 1.7931061157855002e-002
      6.8485905931783567e-002 9.2756710000498024e-002
      8.1083176127789133e-002 -2.7136989310653381e-001
      -7.9726040132193010e-001 -1.2183669180705058e-001
      -3.8443762748465865e-001 -1.1997776969151476e-001
      8.5476154733080248e-002 4.0455034720405403e-002
      -4.5611570178221435e-002 5.3159103512127048e-001
      6.6578626516789127e-002 1.5062501740797216e-001
      -1.1696732600285953e-001 -5.9358397771741156e-001
      2.1461651624895847e-001 1.0728104867722886e-001
      -2.5225544962613231e-002 4.2477772105371334e-002
      9.9297329414025012e-002 -2.3687085699141748e-002
      9.5561937388570523e-002 1.0554996874273073e+000
      -2.7005875127503803e-001 -3.0928864848580717e-001
      5.0292152320598582e-001 -1.0017717334800678e-001
      1.7911947786981411e-001 2.6423387108892360e-002
      8.1093419705071557e-002 2.1837558334543322e-001
      4.0113941622020727e-001 -9.7454719378118615e-001
      1.4014330836738247e+000 -1.6887661305746540e-001
      9.1252405185582738e-002 -3.5750768732113677e-002
      -1.6285623281720019e-001 -8.1577295976725694e-002
      9.9078402183336800e-002 3.9493332657160499e-002
      -4.8246392993445431e-001 -1.3345884066861915e+000
      9.9042925371845114e-001 -7.1500419350558050e-002
      1.7246135816157854e-001 -6.2782075587508701e-002
      -1.3764672321057339e+000 -1.9842507197749268e-001
      1.2372876263916771e-001 1.8986155987727354e-001
      -2.8841831106357335e-001 -3.8181554995915340e-001
      -3.6015469018270289e-002 -7.5778433877447177e-002
      1.1872711203082259e-001 -2.4490885716008898e-001
      -4.9370681400881716e-001 -7.8348116454699482e-002
      1.8799340066145434e-001 1.8550014722982394e-001
      -2.0870274146255946e-001 8.5677487195471941e-002
      -9.9963585961776485e-002 -5.2613312415079307e-002
      9.1209336380075640e-002 -1.9686636418662182e-001
      -5.0300128909460624e-002 -8.4645858145024858e-002
      2.8926800643770983e-001 -1.9402539849460038e-001
      1.6257584355833968e-003 3.9264848578832529e-002
      6.6661459711769400e-002 -1.3257270676747057e-001
      -3.4426615367786090e-001 -2.9549497833162876e-002
      4.8679676205910280e-002 1.4152150725335653e-002
      -3.8115260412850110e-001 -2.5122912656939922e-001
      -4.8852376446853307e-001 6.0421542611942651e-002
      -6.4525981179586744e-001 1.8733764957027788e-001
      -2.9671599667144843e-001 -2.8679616690833376e-001
      -1.7157452697305661e-001 -6.8371445277409043e-002
      -2.7116740719646953e-001 8.8294223578801301e-001
      6.9141553730225680e-001 5.2871784621368922e-001
      3.3613130161203104e-002 -2.5227311594953195e-001
      2.6179979244924373e-001 -3.5609618690392636e-001
      -1.2797402307934386e-001 2.9855713247679150e-002
      -4.4316632779501097e-001 3.6752860975174367e-001
      -1.3433519980288910e-001 2.0714516821614740e-001
      5.0994564566584202e-002 3.2207970997427331e-002
      3.1469055153873521e-001 -2.0404064991773967e+000
      1.1527744223051584e-002 1.8424111968305343e-001
      -1.1764422185605937e-002 9.5047822524948963e-002
      -2.3206171512007845e-001 2.0992678295679310e-001
      1.4138560772545940e-002 2.4868624862966895e-002
      2.5008546503219298e-001 -1.0077272182943182e-001
      1.6483555520239895e-001 4.0595913545887340e-002
      -1.1925187447447867e-001 -7.6021145897431353e-001
      7.6688095125193992e-002 4.5690138125060370e-001
      -2.3145312704242276e-003 4.8246100400049297e-001
      -3.4422039861605434e-005 9.4996967320750317e-002
      1.8400185103888167e-001 -4.9701684567844001e-001
      4.4149043196051757e-001 -2.0334471651258468e-001
      -5.4220576134732329e-002 -1.7532455778904638e-001
      -2.0455615082323766e-001 7.1272384631904317e-001
      -1.9938665984301734e-001 -1.6241649184225840e-001
      -3.0665001131226433e-001 3.5189354076811105e-002
      6.5605069624835671e-002 -4.6236578590806726e-001
      -2.0760735839747843e-002 -1.2812361403866099e-001
      -2.8007219650913301e-001 2.6794645138471668e-001
      -4.6499722995609788e-001 -5.0741266601048685e-001
      -7.6955073818167338e-002 -1.0320476825942979e-001
      5.5389405758248654e-002 1.9942293017259854e-001
      1.2039571012840903e-002 -2.9905299043366806e-001
      -4.7416374440500370e-001 -1.4349989800533305e-002
      -9.2287809246752528e-001 -1.4139790046415945e-001
      -1.9439337535764319e-002 -3.9159971727769943e-002
      1.0625459217680999e-002 1.1778628411018756e-001
      1.1694115130159986e-001 -3.7469567117813202e-001
      -2.2524066819713934e-001 -7.1167439779773911e-001
      -3.3804015986726968e-003 1.3363874242536955e-001
      -2.6661099024578774e-002 -4.3996033054894114e-002
      -1.2020457374689555e-001 7.4752269496748291e-002
      9.5457388536760848e-002 -3.6517602926569526e-001
      -4.1355112147576534e-002 -7.3275936293568444e-001
      2.4588505223116629e-003 -1.3580422640214410e-001
      -4.3172511900723964e-002 4.3773319655637286e-002
      -1.6932638490331547e-001 6.3708370397516978e-002
      5.2125637766630831e-002 -1.2238378060758315e+000
      -9.2055909518326831e-002 8.2912132310249895e-002
      5.9144827678426014e-002 2.5976980754421058e-001
      3.9334413026835846e-001 2.0732886627463520e-001
      -1.3039355744743124e-002 5.7305899460965912e-002
      6.8415818157078456e-001 -5.0746334977045771e-001
      1.1924345892631218e+000 -1.8938406771397270e-001
      -1.4548056814708088e-001 -6.0540312078947400e-001
      -9.0457354467451984e-002 -1.2695613256038837e-001
      1.6752758537803708e-001 1.2955667600097500e+000
      -2.7248486893078266e-001 -2.5647838187710259e-001
      1.3143815534027996e+000 -1.4750234082708796e-001
      -1.2673294041377769e-001 -2.3387600767940783e-001
      -2.3276714900493021e+000 1.0388207832123564e-001
      1.9482253822566448e-001 9.7808961020114174e-002
      -2.1819855965884230e-001 -1.2389908040358455e-001
      6.1781163091246460e-001 3.1055689681169812e-001
      -1.4550104831212940e-001 -1.9046387344993829e-001
      -2.8915025083828366e-001 2.0579726477683823e-002
      3.0509779108326635e-001 1.1865047107860680e-001
      -6.1741713584471136e-001 5.8819642848254883e-001
      1.8481482887793327e-001 2.3698018369053409e-001
      -3.5303572663591792e-001 5.2739993623834754e-003
      -1.6407720680123469e-001 -7.6036515843535976e-002
      1.1938110263333791e-001 -4.3056688540106841e-001
      -1.6677645643439756e+000 -2.2703433385837107e-002
      1.8006294468076240e-002 2.5959573061486222e-002
      -1.5057983887070159e+000 4.0895828574542220e-001
      2.6308146950255135e-001 -2.5530364464455818e-001
      -2.3018760335197111e-001 4.6137929160906788e-001
      7.2455264646672346e-002 2.2147942580470190e-002
      1.5553707195128316e-001 -9.3374228971675866e-001
      1.3794186378826764e-001 -3.3855090648318970e-001
      -2.9902557188628748e-002 4.3085940407001555e-001
      -7.9426061405628495e-002 3.4255830774725310e-001
      1.6974998429156105e-001 3.9304035662648207e-001
      4.2116042242701351e-002 7.9307444439000688e-002
      3.0972651209336465e-002 -6.9461196443655548e-001
      -3.3135507101470361e-002 4.4203244390667229e-001
      -5.4796395843945314e-002 1.9505648180691598e-001
      -1.1981907698793504e-001 3.0422288010180004e-001
      -2.8395656044993674e-002 9.6158509982896170e-002
      9.1652460563429661e-001 -5.6152859654414126e-002
      2.1588665049983138e-001 -6.6702600516884619e-002
      -1.0974779716776280e-001 -1.7554711014160382e-001
      -1.6905974172684565e-002 8.2141430645886790e-002
      -2.3926086633449550e-001 4.9292067911943038e-001
      6.7059828565241675e-002 5.6846554452125289e-002
      3.0429587800865227e-001 1.1050043686514374e-001
      4.3608519000368334e-001 -1.2776232295188292e-001
      -8.6305572098436631e-002 2.9504317524542351e-001
      6.9880756597707136e-002 7.1391032662992859e-001
      -1.5277021818561572e-003 -1.3582297983564073e-001
      8.7623488210321773e-002 1.1220824474428183e-001
      -5.9087031143050944e-002 -2.9073160103403745e-001
      -4.0519530317274559e-002 -3.7262067114839648e-002
      -1.1660529909985480e-001 3.7748912321783695e-001
      -1.0687221462510761e-001 3.6849851790946991e-002
      8.0114899452984306e-002 -4.7862436328839415e-002
      1.7124069867754449e-001 1.1719866041057228e-001
      2.4888109159184682e-001 -7.7761222107940786e-001
      1.2737815654235882e-001 1.0200828216252260e-001
      3.7705323412337760e-001 -2.9397982614129126e-001
      1.1147749727835343e-003 3.4526543394804800e-002
      7.6919421479939465e-002 1.5522998647755359e-001
      2.7001578070094912e-001 -7.2959546688004959e-002
      -2.4080233970938683e-001 -7.6458694536327587e-001
      5.0025093255683523e-003 2.5670509301560365e-002
      -8.9216568214032232e-002 -1.0869208828658938e-002
      -4.7408449381275239e-002 6.7437563997398170e-002
      1.1962183855772858e-001 -1.7520331173895731e-001
      3.0726744478149354e-003 -1.3400065873499902e+000
      6.8024207361865345e-003 -1.4886996270545327e-001
      -1.9183444649554342e-002 3.1753531032435410e-002
      4.9453867649456411e-002 3.8648802546412162e-002
      1.0839984036493358e-001 -7.9631786575167196e-001
      -4.7175937428467908e-004 1.3761423886718213e-001
      -8.7032150308043510e-002 6.0215145337885832e-003
      -1.0100841223544180e-001 -3.4081454895549951e-002
      -1.9120698702748595e-001 1.2351837999743687e-001
      1.5799627478481815e-001 2.5209694556447362e-002
      -2.1959533442545850e-001 -1.3264412057790059e-001
      -1.6621544025970222e-001 -2.5392286472468545e-001
      -6.6962405515706558e-001 1.4477642337564692e-001
      1.7604031917529128e-001 2.9381716507230266e-001
      -1.3693361636236648e-001 -3.4663742743781889e-001
      6.2283758715773652e-001 1.6198309252106066e-001
      -1.2312110901674972e-001 -3.9485249814795120e-001
      -4.6329868243017061e-002 9.7795363604470581e-002
      4.1369465380424242e-001 1.5893633322280140e-001
      2.2090299154126472e-001 1.9253878950069198e-001
      2.5498724793538935e-001 1.1030889631251087e-001
      -1.6153424789175316e-001 5.4562629457898126e-001
      1.0544918537721387e-001 -2.4322786762726416e-002
      2.7222914078005883e-001 1.4385235776540753e-001
      2.4243438303558767e-001 5.1006559137396323e-001
      1.6375303253696280e-001 6.2490124648309886e-002
      -1.2419862221825384e-001 8.6971928593381320e-002
      8.9433214084821286e-002 -1.4546595684144129e-001
      -8.0634775332521047e-001 3.5621332151060170e-001
      1.8601907328816755e-001 -2.8042074845792811e-002
      2.7012436029291498e-001 -1.7186207223162029e-002
      -3.5668110341318365e-001 2.1718177908363542e-001
      1.5149970513890376e-001 -3.3796660710088167e-001
      -2.6914745388715522e-001 6.8083283522148275e-001
      1.7077704722622816e-001 -6.2181874949885266e-002
      1.0640714462454853e-001 -3.1615922810542801e-001
      -7.6820007047132238e-002 -5.9817003547489617e-002
      1.6041137482513135e-001 3.5581608255609944e-002
      -5.1803976614874869e-001 7.3133265222441324e-001
      1.1247541360648249e-001 1.9131697645027920e-001
      1.2744931405310242e-001 -1.7114722959220036e-001
      1.5352129547471474e-001 -2.8989807287080099e-002
      3.0314421070735015e-001 1.4815042936497327e-001
      -1.4554456064226451e-001 8.4078796025217750e-001
      1.9919667048007439e-001 2.3698899780834753e-001
      -4.7419747988454185e-002 3.7342806463872946e-001
      -2.8196626284778627e-002 -7.9263661208840611e-002
      4.7895589118315751e-001 -1.9930973100667573e-001
      -9.8426445140019955e-002 2.4181776352726034e-001
      4.1152764772185338e-002 6.6583909416355322e-002
      3.0225510339481790e-002 3.4624025957906507e-001
      -2.0118794630180268e-002 -4.8281563672655223e-002
      4.1523554848404193e-001 1.7735426790932887e-001
      -4.1099977860051207e-002 -3.7959226815680640e-002
      -1.0232189316600319e-001 -2.7885329202245943e-002
      -1.2485813161454086e-001 3.6014176549241927e-001
      -2.0175976726107991e-002 -1.4095751039866761e-001
      4.1137506578143634e-002 9.5838142673284235e-002
      4.3113986804710271e-002 -3.8060674203732076e-001
      -8.1913598313056668e-002 -1.3011355804563790e-001
      -2.7910621258774335e-002 6.9731018029541592e-001
      -4.7713412232090097e-001 -1.9721818359602358e-001
      4.1543960479145242e-002 2.1303525937843218e-001
      -5.4218120225669431e-001 1.2901812898233142e-001
      1.5085938299640698e+000 -5.1696756714006475e-001
      2.9258301122469066e-001 2.3851707217503941e+000
      2.5587208665761246e-001 -1.6480103105140881e-001
      -1.0952496751417144e-001 5.9917830006676498e-001
      9.2672791362085352e-002 5.5572177997227343e-002
      2.0683259116253497e-001 -2.8945985952990111e-002
      -1.2214554078570919e-001 -1.4171421255384069e+000
      9.6435506486642220e-003 3.9653424121336922e-001
      -5.2257332997757922e-002 -3.4028312720217252e-002
      6.1497982818361135e-002 1.2729620004703993e-001
      1.3090870342742456e-001 -4.8374188251519332e-002
      -1.3910241533564327e-001 -4.6765510371852936e-001
      4.6748551669758449e-003 1.7074045926545253e-002
      -1.0963585080504565e-001 -7.2072658082431929e-004
      5.5216229186120534e-002 4.8505161377587043e-002
      1.3413456322640371e-001 -2.2467257458977030e-001
      -9.5459929555246903e-003 5.1300885434545374e-001
      -2.2770201096712092e-001 -5.4452793695214030e-001
      1.8280644776684188e-001 -2.3430966610232515e-001
      -5.7597708612738252e-001 9.9021621848977587e-002
      -2.1255432580199002e-001 -8.2416412953340484e-002
      -3.5561325999747778e-001 -5.5094218950321815e-002
      -2.0237362506701015e-001 8.4605166209051827e-003
      -1.0741500287939702e-001 -4.3360580025114004e-002
      2.2192683670116553e-001 -6.4848570516450696e-002
      8.8607411692625981e-002 5.3442519035963906e-002
      -3.8710299710377089e-001 -6.6108763994325592e-001
      -2.3684222732080135e-001 -1.2603738827687067e-001
      4.1858975798954645e-002 4.8906499877848987e-002
      2.0415211139725092e-001 1.2047140912220963e-001
      7.5315436868579250e-002 3.3693130882409245e-002
      -4.6991499224076159e-002 -2.3711608693924302e-001
      -1.2407189169633519e+000 3.4859050935548341e-001
      -2.4221059611260443e-001 -1.0372531776863529e-002
      1.0906508849233403e-001 7.3006374763034343e-001
      2.8074313022624497e-001 7.1334491110528420e-002
      1.4676212677397807e-001 9.9672651913877228e-003
      -9.0063826445739348e-002 8.7983206967595151e-002
      7.6784274565563804e-002 -1.3657424147627104e-001
      -3.0839447449960961e-001 3.0911385304132094e-001
      2.2728914855556523e-001 -1.7892084949061432e-001
      2.1190861744339967e-001 -9.5981257005668022e-002
      -1.7307323993613549e-001 2.2598874116125909e-002
      2.3574841653663806e-002 -3.4385647105855643e-001
      -2.3644559179397545e-001 4.7479937174697318e-001
      1.6560815658908565e+000 7.9108758028872926e-003
      2.4695701767160524e-001 -6.8588528186531425e-002
      -2.1528134272217408e-001 -1.9901778448626051e-001
      3.9930900832181332e-001 2.2128060336828934e-002
      -3.3799681412846821e-001 6.6293058443260722e-001
      1.4502609700948521e-001 1.4696810986082198e-001
      5.8159167797639399e-001 -1.0364267158783590e-001
      7.1556706306561399e-002 -1.0793436075716395e-001
      5.7816015711395807e-001 7.3066979320769915e-002
      -2.7314263513426633e-002 3.2253728256903191e-001
      1.2140319652902989e-001 3.1380162538205619e-001
      7.1204457787301001e-002 2.9518719390647546e-001
      -5.8217597375155146e-002 -4.7049497691838266e-001
      3.9917598796753945e-001 -1.4028450816309546e-002
      2.6350317389340409e-002 3.9072606363524109e-001
      1.5721959078239360e-002 3.7711784182708025e-001
      4.9307334402895267e-002 -3.3869210363704771e-002
      -5.8674591230156531e-002 -3.2988714771217009e-001
      7.3921607564515746e-001 9.9526781988315050e-002
      -6.9216882791975354e-002 1.0471779161797732e-002
      7.4316782764872968e-002 -2.3883036554944057e-001
      5.8987356524321010e-003 -3.0378116174499037e-001
      -1.5296450834986893e-002 -1.4688148722055228e-001
      5.5545582893576917e-001 8.3351372003653848e-002
      7.5765924970884357e-002 1.6405214729347700e-001
      1.9228941446523687e-001 -1.3159412798278602e-001
      9.1517282928281016e-003 3.3270479103504019e-001
      -2.3144861269929418e-001 -2.1135927620977463e-001
      4.3752622164645344e-001 6.1825521297079009e-002
      1.4489837585384597e-002 1.2706724730093782e-001
      4.2428128839857521e-001 5.8808412730074822e-001
      8.4304781201261891e-002 6.4277654124119366e-001
      4.1912673714481796e-001 2.7084687788388689e-001
      5.4447249472489756e-001 -1.6287935843784038e-001
      1.1278665550037004e-001 4.6832940655604817e-002
      5.1000423506123445e-002 -1.4306900407096741e-002
      -7.7792221089085595e-002 -4.8608473624333692e+000
      8.8712217571403785e-003 4.2863060583477791e-001
      -3.9695807829017694e-002 -4.4838847612427089e-002
      3.3338812915417482e-001 2.0652974781434325e-001
      9.9923988937395333e-002 -4.3704492940766448e-002
      -3.1624599313498652e-001 -2.9102457788264124e+000
      4.3582763530383955e-004 3.8567684437996291e-001
      -4.6187577475049750e-002 7.4954961920343467e-003
      5.0935714129063524e-002 1.7881745000587809e-001
      1.2965282362576416e-001 -2.2465079458975881e-001
      -2.4922504097079700e-002 6.6464020136615440e-002
      1.2168078104941494e-002 -1.7193241156712855e-001
      -8.8964989802601258e-002 -1.0840907810953985e-002
      -1.7858674252304885e-001 9.0133438107421054e-002
      -1.0839984978016751e-001 -2.7355991807189373e-001
      -2.2857285363326768e-001 -1.9924921427961839e-001
      -1.1989930695634647e-001 -2.4454231272298474e-001
      -2.0218154439819233e-001 3.0802260315776242e-001
      1.1722100928661540e-001 -1.1346678975807149e-001
      6.3536154831506458e-002 1.3711689836348911e-001
      -4.7632272904477697e-002 7.2916173769889958e-002
      -9.3651167936404123e-001 -2.3685922064279974e-001
      -2.0313505199730369e-001 2.9360434268698724e-002
      -1.0510141646522699e+000 7.3508414766903929e-001
      1.8422366407807778e-001 7.0434433086284637e-002
      1.7816010435210416e-001 -4.3853034332496675e-002
      -1.7871582013413976e+000 1.5996380944985161e-001
      1.8527010864123122e-001 -1.7633487941002435e-002
      5.0748267523812111e-002 4.4542033381563906e-001
      2.7925350518137732e-001 7.4719599354896291e-002
      -7.8133601271739461e-002 -5.8451606173115706e-002
      3.9145255017707675e-001 -3.7853913216089899e-002
      5.6129126181142859e-002 1.3042236373823038e-001
      -2.2833013418333860e-002 2.8293721340889300e-001
      3.3372503897636241e-001 -2.6844676022354780e-001
      2.2181989190668008e-001 -2.0118314647545837e-001
      -1.8477653456020876e-001 2.8322338286851500e-002
      -2.4093437326498317e-002 4.2477410832792856e-002
      -2.6224883156464029e-001 2.1640277155414273e-001
      4.1639705002204769e-001 -3.1139629879412745e-001
      2.5586831630378348e-001 -1.9336955924161187e-001
      1.3463691283591500e-001 -1.1320699495875444e-001
      -1.1842831014667884e-001 -2.9980444019772906e-001
      -9.0568274959828915e-002 6.3400687407950973e-001
      3.4541499691325711e-001 8.7582323297722908e-001
      4.5742881408050484e-001 1.7057365472899860e-002
      2.1409026061890221e-001 -1.3324745990506068e-001
      1.0394490090861160e-001 1.3509350157959815e-001
      -5.0274901408864736e-001 3.0008565445136082e-001
      1.2430414102167336e-001 -1.7830354384683222e-001
      1.3268119334035977e-001 -9.6059941097216994e-002
      1.6575370120324578e-001 -5.7759615518773434e-002
      2.6242984743763492e-001 1.4284750811614194e-001
      -1.9450859629520995e-002 1.7129082614787744e-001
      8.8954494586707261e-002 -3.1602770017243159e-001
      8.5804028681365829e-002 -6.6435312872754008e-003
      -5.0008231195110531e-001 2.6733884069500726e-004
      2.1676796020138840e-002 -1.9420942563703669e-001
      -1.9694461067576319e-002 7.7826532223542969e-003
      6.6492894754383247e-001 -7.2529506384384712e-002
      1.5398275680511406e-001 -2.5473385344319938e-001
      -1.3696165695438134e-001 2.0372909079040366e-001
      -7.0020715591630345e-001 -5.2628529943071523e-001
      -7.6318157577468637e-001 7.8417460397660488e-001
      1.1927496580604386e+000 6.7078360788142957e-002
      4.8589606525162456e-002 -2.8789323477892998e-002
      -1.1470079740357957e+000 6.9604231591546795e-001
      -6.1432345590354276e-001 -2.0501605679065685e-001
      -3.7143912786354605e-001 -1.5149374640850799e-001
      8.1147876375910602e-002 1.9080126022250933e-002
      -2.2043914933292993e-002 -3.0869770377426775e-001
      -6.2707726842620909e-002 2.8676699795070398e-002
      -7.4533572196038206e-002 -7.3041132484315915e-002
      7.9634522612076458e-002 5.1814877764061067e-002
      2.5328947653199412e-002 -1.3658860072077974e-002
      -7.7042566482541416e-002 -1.8415720187200444e+000
      -3.9361436406705431e-003 4.3542954003124090e-001
      -5.1675257312220078e-002 -5.2183576944215548e-002
      6.4745713366651400e-002 1.6627500824153391e-001
      7.8315125668800681e-002 -4.0858169492947030e-002
      -1.1466540376791491e-001 -2.9500085246040255e+000
      -2.6943915267742240e-003 3.9259669809206177e-001
      -6.6877062324618777e-002 -4.2780789883474137e-003
      6.3006991492925157e-002 4.2837294770489898e-001
      2.3322402714332593e-001 -3.4052767513440577e-004
      -1.4279760662311292e-001 -1.7241777970915018e+000
      -2.8513819842351218e-003 -1.3572513703734673e-001
      -2.9961213482389321e-001 -1.5986526314703451e-003
      -2.2160304503906855e-001 2.3722994026037342e-001
      1.1232066979710216e-001 -6.0590667799907749e-001
      2.9261007474652634e-001 -2.4790769913560406e-001
      -2.1581841803736015e-001 -8.6718612073085094e-002
      4.3357792505643686e-002 5.7984883122023559e-002
      -1.3085807092743740e-001 -4.3985731875472764e-002
      3.8189039199690300e-001 -4.3962043721273375e-001
      -1.5551520288208923e-001 -2.3738918753647434e-001
      -2.3353230621429780e-001 -1.0215439617899626e-001
      3.1086941610255076e-002 1.0828642813026525e-001
      -6.6600439285953916e-001 -1.0187408072493798e-001
      -6.0076228319685919e-003 -5.4780397600597296e-002
      4.9535997565788376e-001 -3.5492381390875682e-001
      -1.8687259490009034e+000 2.0137002768339320e-002
      2.1044036206381142e-001 -1.5825685175665327e-001
      -1.2355546033133249e+000 6.1545097229221013e-001
      3.1444502466161312e-001 2.4270349851255238e-001
      2.5449532495728350e-001 4.5339031362946203e-003
      -4.2004333970388802e-001 -1.6409259093601553e-001
      4.0818053024684296e-002 3.6800621698189045e-001
      -6.4172251953448001e-001 -8.9648874092840045e-002
      3.1577274530122690e-001 -2.5708682681466860e-001
      1.0284445629280181e+000 -3.9956088547992777e-002
      -1.5887153992768521e-001 2.8120383449461116e-002
      2.0009465444924648e-001 -2.5167513808333652e-001
      -4.8335785692912497e-001 2.3116354169909042e-001
      3.7401831056040291e-001 3.4275299076790409e-002
      -3.0998162701806064e-002 -1.9708836999249196e-001
      -1.3319787560994592e-001 7.5469930345040528e-002
      -1.6327592849984382e-001 1.9466002088524864e-002
      1.7349080705047190e-001 2.3281927219887510e-001
      -4.4118641896600884e-002 -3.8521921318487346e-003
      -8.3354528973973482e-002 -9.2231770912640454e-001
      5.2900564295070993e-002 -5.9100342533723135e-002
      -2.2416073434069517e-001 5.6253903348800049e-003
      9.3643482948666465e-002 2.3260413079455972e-001
      2.1374740076242577e-001 6.1947882512303952e-002
      -1.1863012880387439e-001 -3.1507644215284086e-001
      1.5773570681607205e-001 1.1088107174027012e-001
      -5.6343003611296627e-001 1.5643826501469738e-001
      -2.9297930026906327e-001 4.8074672648681517e-002
      3.2942252261143840e-001 -5.2264228963440784e-001
      -1.5969430616921552e-002 -4.8158833389585720e-001
      1.4759348442026626e-001 5.9482887055544893e-002
      -8.1932650280689867e-001 -2.4005932997792381e-001
      -2.8729388029339453e-001 -8.2603894499823494e-001
      1.0681866867990648e+000 -1.3532981687539236e-001
      3.0004672253542312e-002 -8.7445704068526753e-001
      7.1983430479836866e-002 -7.9330935924452016e-004
      -1.0004129360638117e+000 -2.8668873526030042e-001
      5.3832006811531836e-002 6.3629434431772658e-002
      4.8567181898089579e-001 1.2495624511794287e-001
      1.1606103061520526e-002 -8.3686123952440045e-002
      -3.2029545433919970e-001 -1.1086797524086147e-002
      -3.7580674360450939e-001 -1.5074398418355247e-002
      7.5749698957229827e-002 -1.6390183482604181e-001
      4.2948647508669370e-002 -3.0027153544166192e-002
      -8.7870651436470673e-002 -6.0647796337163573e-001
      1.9594968161818116e-003 2.0518224227279742e-002
      -4.7319735893692760e-002 1.0412685806030539e-001
      2.9913132297145809e-003 -8.7246933846517605e-002
      1.9502862957896234e-002 -1.2208773803315157e-001
      -7.7319154270195048e-002 -1.8446665751997937e+000
      -4.8279882641846263e-004 4.0296099467893393e-001
      -3.4689095582562467e-002 -7.4981863644812789e-003
      -7.4103934372357863e-002 2.2000376745466343e-002
      5.5254869694816626e-002 -9.1014112077295137e-002
      -9.1847038166909853e-002 -3.1512961119545002e+000
      -2.2174715519387932e-003 4.4076039185895449e-001
      -4.4193904556238367e-002 -2.3590103955555292e-002
      1.1526078650174593e-002 1.6271853116730350e-001
      -1.1064443214524202e+000 2.3303204025344690e-001
      -1.7306069866822343e-002 -6.2714122939995798e-001
      2.4138732591693891e-002 6.8313696586224007e-002
      -1.6185210125894894e-001 -6.1218925978147133e-002
      5.8381093744996038e-001 -4.4440975510829300e-001
      -1.6147282913739974e-001 7.4001761150890258e-002
      1.0450932678232662e-002 -7.4936696660617241e-001
      -1.7633004277899475e-001 -1.4216314892802265e-001
      -4.3806808958639243e-001 1.1869592823032028e-001
      1.4915485261989511e-001 -1.2730578756617800e-001
      3.7921051682653162e-001 1.1677761579670824e-001
      3.5788657305883825e-001 -5.5280584421947367e-002
      -2.9158651089421406e-001 -7.3106675171481450e-001
      3.5521966338896933e-002 -6.2497285371719028e-003
      -1.1111099198116123e+000 -1.0561820166077913e-001
      1.8181752584907354e-001 -7.5634877069655923e-002
      1.4184795978230602e+000 -8.2461251925410400e-002
      -2.1278983368068265e+000 -2.0489028112847976e-001
      6.4731992402371832e-002 -2.2470166095027855e-001
      -1.9067648932743597e+000 -3.3285819666680350e-001
      3.4835543745052394e-001 6.5946580660551812e-001
      1.7848882377645976e+000 -2.9411139522397689e-001
      -8.2920429099868664e-001 -4.9326701547818850e+000
      3.6876248061757955e-001 3.6453206621035024e-002
      -1.3766737351957417e+000 -2.0499485953445168e-001
      4.2896400339530311e-001 1.9124239200860610e-001
      8.3113898289904597e-001 -2.6382383091283235e-001
      -2.0069754009877383e-001 -1.6789215243079827e-001
      -8.4243440006572190e-002 -5.6682794802240921e-002
      -7.1522592383530770e-001 -1.2126485191572078e-001
      -2.4356838152659110e-002 -3.0343426129287465e-001
      1.6943291070269223e-001 -3.1173477289512554e-002
      3.2605784469297974e-002 -9.6223537899734687e-002
      1.8641322796183971e-001 -2.4258914953149002e-001
      -2.0458198428695479e-001 -9.0252909120385028e-002
      -3.8792454517688292e-002 4.1039127950093561e-002
      -2.1790232407605942e-002 -8.0794299508704800e-002
      -2.1323180076228798e-001 1.0716264608150493e-002
      -8.0045302398639898e-002 6.5483941986014940e-002
      1.9847755374414766e-001 1.3391831492648945e-001
      2.3618515245893601e-001 4.2675021985430286e-002
      -4.1184714168741289e-002 -5.8516054736942220e-003
      2.1922125760028424e-001 4.0201918034840500e-001
      -5.0294071269877283e-001 9.3334958659533993e-002
      1.2035319474570466e-001 6.7720528145625430e-002
      7.8519176280088931e-001 2.5190499638131775e-001
      -9.8910788845898767e-002 9.4167879003349830e-003
      1.4487889869230991e-001 5.2893578959973697e-001
      -3.1196914511146262e-001 -3.3889370976126049e-001
      3.1940014106865179e-002 1.1456028037143828e-001
      9.3003445702329934e-001 -1.6422160145600162e-001
      5.5497938982064532e-001 -2.1112354466167366e-001
      2.9853177713066442e-001 7.1729937784174536e-001
      -1.7605836306961303e-002 -3.4592236368282292e-001
      -4.9443613340373599e-001 -3.2726102532667156e-001
      3.4040739891234639e-001 -2.9128077265151642e-001
      6.0015838024451165e-002 -8.5582564754703327e-002
      -2.3355629423658780e-001 -3.0278242066268130e-001
      3.3824626197825214e-001 8.7194001297844348e-001
      -2.5366699258966946e-001 -6.4326452834709155e-002
      3.9457350293651611e-001 -3.1963723215018627e-002
      -3.8408826254271750e-002 -7.4938936023803548e-001
      -2.0594556578090863e-002 -1.0246731064619811e-001
      3.0197686649951361e-001 -4.2115500774492082e-002
      -9.6638856094225456e-002 -1.6889858628446017e+000
      3.5849939983004336e-001 2.1769503672395324e-001
      7.7529319810792718e-001 -2.5805203140795728e-002
      -2.6446815192422651e-001 -6.4643776871020783e-002
      -3.4562182793685940e-002 -2.3082614002805560e-001
      -6.2368481156845279e-001 3.5825537159489068e-001
      -6.8839083785579869e-001 3.4386764250887136e-001
      -6.0707025484185592e-002 -3.8129320885222340e-001
      -8.1443955314816019e-001 1.5773120266563065e-002
      -1.4851784981418370e-001 -5.5253085186107637e-002
      -2.6119052890963554e+000 8.2648855900872442e-001
      -1.0192076373479231e+000 -2.1622528828972890e-001
      -1.8641998163311538e-001 -1.1401506358713771e+000
      -1.1219036444034292e+000 -9.3910757576895036e-003
      4.7952418573469595e-002 -1.0570468084678214e-001
      -1.1336376691137300e+000 -6.4548351165951068e-001
      1.8344050730312909e+000 1.9794819052166808e+000
      -4.1002528278551162e+000 4.2100273644766286e+000
      1.7759526389252207e+000 -2.5530869919292331e-002
      1.9649969073574653e+000 -1.0160197740426402e+000
      7.8015842462487262e-001 3.5075301397856035e-001</_>
    <_>
      -8.0292385504509456e-001 -2.0485375463192859e+000
      4.1606000580015662e-001 4.2309833607865449e-001
      4.9204371266024038e-001 -9.3102371333744283e-001
      2.5293385809924374e-001 9.8370346862613467e-001
      -4.6842094189023853e-002 -2.9076893681444149e+000
      -1.8007008485471784e-001 2.9580519304160807e-001
      3.1222103410499130e-001 8.5241124597950788e-002
      -6.1837820726325521e-001 -7.7798119589734249e-001
      -8.8126535402040440e-001 -3.1806037832256190e-002
      -5.9168180469690790e-001 1.0174459319284550e+000
      -1.5272068652542394e+000 2.8791606266746556e-001
      3.2367075099015441e-001 -6.0945828484564690e-001
      -1.1505283953354165e-001 -1.9664134776933212e-001
      -2.1285551410074940e-001 9.7945072661220114e-002
      -4.1773863513765980e-001 5.9061322413415740e-001
      -1.0192007378118950e+000 4.2114394793954117e-002
      -4.6836261669252183e-001 5.9120272244228977e-001
      -2.7820138840026551e+000 2.8748763879910266e-001
      1.1727099149860651e+000 -2.0479907955921606e+000
      -2.7742255652127387e-002 1.0898247709694051e-001
      3.5367529541126153e-001 6.9255209288284703e-001
      2.0107000355630076e+000 3.2717389590090895e-001
      -7.2188214471658885e-001 4.9582500264603507e-001
      2.1613691551234000e+000 -2.2501546686583918e-001
      1.2130208362157020e+000 4.3113228973782947e-001
      7.1447954564586014e-001 -3.9566420350925052e-001
      -7.1797491984232342e-001 3.7745813139861589e-001
      1.3009207069011050e-001 -5.2055086172393084e-001
      -9.2881389734946418e-001 6.7441797048025512e-002
      -3.5637099940785538e-002 1.2865466497190239e-001
      1.1441301488073720e-001 1.6930545782529607e-001
      -7.8063013837679229e-001 8.9020273349204426e-002
      -2.5101010659190787e-001 1.8001822344668880e-001
      1.1682479931943390e-001 2.6423772955007668e-001
      -7.8610579304065908e-001 2.3895632720020443e+000
      1.4185316606548140e+000 9.2340287504109397e-001
      1.4685787851337950e-001 -1.1032414055004653e-002
      9.1348514783209267e-001 -7.4890300411206212e-001
      -3.3123469324613969e-001 -5.7225812310288893e-001
      4.0889461841343916e-001 -1.6915563237007430e-001
      4.5178200059300999e-001 -1.0350140181194480e-001
      1.2410450847997641e+000 -4.2608006205842175e-001
      -7.7622065985392008e-002 -2.1428561967352217e-001
      1.1776106850557791e-001 1.1291735356124304e+000
      1.3451289521496854e+000 -2.3326994238770618e-001
      2.3193285131446045e-001 3.8020696409234622e-001
      -1.1515749440958485e-001 7.8744844319285523e-002
      -1.6350466656653515e-001 -8.1122571379792485e-001
      4.5299850073598591e-001 -4.7715362758787200e-001
      8.3733725402207893e-001 1.8225970712744646e-001
      1.8108871651286376e-001 5.2418705544108664e-002
      -9.9087762277823987e-001 -4.6674698000225084e-001
      -1.9380315510417323e+000 -5.8343811399276102e-001
      4.2450267013070087e-002 -4.0498258226321321e-001
      -1.5354771701972720e+000 1.2211034315060591e-001
      -1.8996543017634826e+000 -1.2170023110795218e-001
      1.2661666590697715e-001 -6.4502772094185368e-001
      -9.4655299787206659e-001 7.8382436099463798e-003
      -1.1830616254836945e+000 6.6030050856759992e-001
      -2.6579550522174372e-001 2.7813488986141593e-001
      -1.9899383393444856e-001 -8.5665422226715626e-001
      -1.5976126719424621e-001 4.3309557686439581e-001
      6.2677485181917802e-001 4.8020744525666736e-002
      -2.5701004427037855e-001 -2.0604921318562355e-002
      9.2773924530337087e-002 9.8066211112639926e-002
      2.6567973646959570e-001 1.3348035410461070e-001
      2.1571519109717127e-001 -1.1927992785361866e-002
      -6.1688010770004111e-002 6.2136153465632760e-001
      -2.1234190888175775e+000 2.8943643221752247e-001
      4.5110737356685354e-001 -1.2532873375737172e+000
      1.4384101599278876e-001 -4.2830618104788665e-001
      6.2906753244251856e-001 -5.8950464531915492e-001
      -2.1094916667438060e-001 -2.6945789186658692e-001
      1.1852280714305301e-001 -1.0776426931440300e-001
      -1.2814123406419402e+000 -1.8085026039693336e-002
      -1.8328329360033435e-001 5.0166853552607127e-001
      -4.8689636489862947e-001 2.6698076403616683e-001
      -2.3027566384428283e-001 -4.8158844774120990e-001
      9.6354840691961541e-002 9.3226485809633469e-002
      3.7950841095669891e-001 -1.1728775970235514e-002
      -1.0999465687189007e-001 1.9797077772278689e-002
      7.0258352341440511e-002 -1.8356670054880292e-001
      -2.9350189198516684e-002 3.2224076737520096e-001
      -4.0161231984453938e-001 1.1195217149782609e-001
      1.2057281759441028e+000 6.8208775469870331e-001
      9.2247142376696711e-001 1.9126626392069279e+000
      -6.2646425158818786e-001 1.5021291172803670e+000
      -4.6901937302183527e-001 8.9690022147659154e-001
      1.6170440304832350e+000 6.8513724601650228e-001
      -2.7668400500873354e+000 -2.9434879783762828e+000
      -1.4362715065150544e+000 -3.9659849805844194e-001
      5.8239511868626115e-001 -2.2842923791589320e-001
      -2.7156835566077420e-001 4.7260278664477084e-001
      5.6337661068729750e-001 -5.9058862108975407e-001
      1.1715275809107184e+000 -9.0595596183899674e-001
      1.3726507555513408e+000 -2.5010550174374652e-001
      -1.4557998895165225e+000 -3.2821514658659240e-001
      -3.8016536923484873e-001 -3.1642302691376223e-001
      -6.5780847690533495e-002 9.6153736073320850e-001
      -2.3823661865292084e-001 -4.1008140232496576e-001
      -2.2792775094909801e-001 -2.8594550989099621e-001
      -4.0445097370283783e-001 5.2565239863671587e-001
      3.9923973438948657e-001 2.4836447687012639e-001
      9.8734413323611370e-001 -9.9897720004139856e-001
      2.0884890662303026e+000 -1.5303624578065378e+000
      -5.4925345530876735e-001 9.6796351237292966e-001
      -2.3916775468553024e+000 -2.0996682992502122e-001
      1.0258177359388456e+000 -9.7363616771600803e-001
      8.9239735646282337e-001 -1.6974052529401037e-001
      -1.0596020700186031e+000 6.8635969383511797e-002
      -3.3177304144245734e-001 -1.7771325134670574e-001
      -2.2585401006905390e-001 4.0032044357257790e-001
      2.5079050312466744e-001 1.5640342265279072e-001
      -4.9427114851695481e-001 -2.8517749689844701e-001
      3.7754171555707505e-001 8.0024076867306476e-002
      8.2420866034805612e-002 7.4784355532922797e-001
      3.2496924362810781e-001 4.5225587678146995e-001
      -9.9243639648034188e-001 1.5481666743925171e-001
      4.0737129326120711e-002 7.6319812601494827e-002
      -1.4812280321805233e+000 1.9027173505566823e+000
      -1.8756082453351053e+000 2.6079716243096764e+000
      1.5718496529624462e+000 -1.7745499028902532e+000
      -6.9423055097441533e-001 1.3147216419556067e+000
      3.1990642557908511e-001 7.7860431084332626e-001
      3.4794516663827997e+000 1.7836519458732203e-001
      -4.0196537132531296e-001 -5.2736711487748855e-001
      -1.0754293213063815e+000 -1.0522699401186557e+000
      -3.0497221049528844e-001 -4.7136384812507726e-001
      1.6108165038060784e+000 9.6205421906854605e-001
      -7.3337989857467134e-001 -2.0196990570006707e-001
      -1.5724152658715373e+000 -4.8730303677016484e-001
      -2.0587306137031400e-001 -3.7710065087215167e-001
      -2.1658164849032235e-001 6.5313244061765208e-001
      -4.8695635211324823e-001 1.1539058217396223e-001
      1.0105481542892816e+000 -2.2025342208215637e-001
      -7.5598167037187813e-001 -5.4330409656965684e-001
      3.5151701568379956e-001 -7.4803628818344281e-001
      2.1636211099692021e-001 -1.1154635992878581e+000
      2.2775001823205105e+000 6.2424653963855548e-001
      -3.8068484886289689e+000 2.2212804379664300e-001
      9.5763788187485724e-002 1.8715279029276075e+000
      -3.5764938867380223e+000 -4.0699973628866959e-001
      1.7085610538472003e+000 1.6785651542153798e-001
      3.9199701002295750e-002 3.7431297207888764e-001
      1.4754173928230249e-001 -4.7931149916639787e-001
      -3.1306570547113322e-001 1.0075470398660078e+000
      -2.7986494037771509e-001 1.3024526590057381e-001
