<?xml version="1.0"?>
<opencv_storage>
<my_svm type_id="opencv-ml-svm">
  <svm_type>C_SVC</svm_type>
  <kernel><type>RBF</type>
    <gamma>8.</gamma></kernel>
  <C>10.</C>
  <term_criteria><epsilon>1.1920928955078125e-007</epsilon>
    <iterations>2147483647</iterations></term_criteria>
  <var_all>577</var_all>
  <var_count>577</var_count>
  <class_count>2</class_count>
  <class_labels type_id="opencv-matrix">
    <rows>1</rows>
    <cols>2</cols>
    <dt>i</dt>
    <data>
      0 1</data></class_labels>
  <sv_total>96</sv_total>
  <support_vectors>
    <_>
      1. 1. 1. 1. 1. 1. 1. 1. 1. 1. 1. 1. 1. 1. 1. 1. 1. 1. 1. 1. 1. 1.
      1. 1. 1. 1. 1. 1. 1. 1. 1. 1. 1. 1. 1. 1. 1. 1. 1. 1. 1. 1. 1. 1.
      1. 1. 1. 1. 1. 1. 1. 1. 1. 1. 1. 1. 1. 1. 1. 1. 1. 1. 1. 1. 1. 1.
      1. 1. 1. 1. 1. 1. 1. 1. 1. 1. 1. 1. 1. 1. 1. 1. 1. 1. 1. 1. 1. 1.
      1. 1. 1. 1. 1. 1. 1. 1. 1. 1. 1. 1. 1. 1. 1. 1. 1. 1. 1. 1. 1. 1.
      1. 1. 1. 1. 1. 1. 1. 1. 1. 1. 1. 1. 1. 1. 1. 1. 1. 1. 1. 1. 1. 1.
      1. 1. 1. 1. 1. 1. 1. 1. 1. 1. 1. 1. 1. 1. 1. 1. 1. 1. 1. 1. 1. 1.
      1. 1. 1. 1. 1. 1. 1. 1. 1. 1. 1. 1. 1. 1. 1. 1. 1. 1. 1. 1. 1. 1.
      1. 48. 45. 44. 44. 164. 8. 17. 26. 37. 36. 35. 42. 124. 178. 168.
      192. 190. 188. 190. 189. 32. 29. 28. 17. 123. 18. 25. 28. 34. 33.
      39. 123. 183. 179. 195. 192. 189. 188. 193. 184. 7. 9. 11. 11. 47.
      24. 24. 32. 31. 52. 132. 193. 192. 189. 192. 191. 192. 194. 177.
      126. 6. 21. 26. 29. 24. 18. 44. 27. 60. 145. 195. 191. 196. 190.
      191. 195. 196. 170. 124. 76. 10. 118. 123. 102. 22. 24. 58. 85.
      167. 205. 197. 198. 197. 193. 200. 192. 206. 110. 80. 42. 12. 144.
      154. 120. 22. 30. 114. 188. 206. 200. 197. 197. 204. 203. 192.
      204. 165. 58. 91. 25. 20. 44. 120. 43. 94. 128. 185. 196. 207.
      197. 202. 205. 201. 192. 137. 162. 82. 24. 137. 19. 19. 19. 105.
      72. 215. 203. 213. 195. 210. 214. 222. 215. 187. 125. 64. 85. 27.
      19. 162. 19. 19. 54. 156. 187. 232. 197. 178. 193. 170. 226. 233.
      141. 121. 49. 25. 44. 20. 21. 122. 18. 101. 169. 189. 220. 235.
      191. 171. 204. 197. 228. 207. 72. 87. 25. 23. 33. 23. 20. 86. 19.
      196. 202. 193. 231. 226. 195. 183. 198. 166. 193. 174. 28. 83. 18.
      48. 23. 43. 45. 90. 18. 201. 196. 191. 179. 222. 197. 160. 123.
      153. 165. 162. 21. 84. 17. 64. 19. 105. 101. 98. 22. 199. 196.
      197. 189. 220. 139. 99. 54. 113. 156. 163. 19. 87. 22. 74. 25.
      133. 138. 91. 11. 202. 201. 182. 150. 184. 53. 50. 64. 25. 161.
      163. 20. 88. 19. 69. 18. 73. 132. 106. 14. 181. 149. 141. 58. 159.
      21. 41. 83. 21. 166. 160. 26. 88. 21. 41. 26. 32. 141. 144. 18.
      100. 58. 109. 21. 164. 24. 51. 88. 16. 166. 164. 22. 88. 21. 26.
      61. 30. 61. 113. 9. 34. 19. 106. 20. 163. 18. 101. 66. 37. 158.
      164. 21. 86. 29. 24. 141. 63. 22. 101. 15. 17. 16. 94. 18. 165.
      14. 137. 27. 123. 137. 141. 25. 76. 89. 25. 153. 136. 26. 95. 24.
      18. 16. 40. 19. 124. 15. 55. 14. 62. 56. 52. 23. 37. 136. 23. 57.
      63. 25. 54. 28. 21. 17. 18. 19. 48. 22. 20. 20. 23. 26. 19. 20.
      30. 76. 28. 27. 26. 25. 34. 31.</_>
    <_>
      1. 1. 1. 1. 1. 1. 1. 1. 1. 1. 1. 1. 1. 1. 1. 1. 1. 1. 1. 1. 1. 1.
      1. 1. 1. 1. 1. 1. 1. 1. 1. 1. 1. 1. 1. 1. 1. 1. 1. 1. 1. 1. 1. 1.
      1. 1. 1. 1. 1. 1. 1. 1. 1. 1. 1. 1. 1. 1. 1. 1. 1. 1. 1. 1. 1. 1.
      1. 1. 1. 1. 1. 1. 1. 1. 1. 1. 1. 1. 1. 1. 1. 1. 1. 1. 1. 1. 1. 1.
      1. 1. 1. 1. 1. 1. 1. 1. 1. 1. 1. 1. 1. 1. 1. 1. 1. 1. 1. 1. 1. 1.
      1. 1. 1. 1. 1. 1. 1. 1. 1. 1. 1. 1. 1. 1. 1. 1. 1. 1. 1. 1. 1. 1.
      1. 1. 1. 1. 1. 1. 1. 1. 1. 1. 1. 1. 1. 1. 1. 1. 1. 1. 1. 1. 1. 1.
      1. 1. 1. 1. 1. 1. 1. 1. 1. 1. 1. 1. 1. 1. 1. 1. 1. 1. 1. 1. 1. 1.
      1. 182. 164. 179. 172. 170. 159. 184. 143. 161. 160. 169. 166.
      180. 170. 181. 182. 165. 169. 186. 151. 173. 168. 175. 170. 178.
      164. 172. 160. 176. 166. 175. 166. 171. 170. 178. 175. 171. 168.
      187. 155. 165. 169. 175. 171. 177. 169. 161. 171. 180. 168. 174.
      171. 168. 175. 183. 173. 179. 169. 182. 156. 163. 166. 177. 175.
      166. 171. 156. 171. 171. 166. 164. 177. 170. 184. 193. 176. 184.
      172. 176. 151. 167. 163. 175. 182. 160. 169. 168. 170. 163. 164.
      145. 168. 157. 177. 195. 173. 169. 164. 177. 156. 170. 169. 168.
      182. 171. 173. 161. 170. 162. 161. 165. 176. 156. 186. 186. 174.
      158. 164. 183. 164. 174. 177. 165. 177. 175. 175. 148. 167. 162.
      165. 174. 178. 156. 186. 173. 174. 155. 170. 182. 170. 179. 183.
      169. 172. 165. 177. 140. 159. 169. 175. 169. 175. 157. 175. 165.
      173. 160. 176. 175. 174. 179. 183. 173. 170. 154. 172. 158. 160.
      182. 184. 168. 177. 171. 177. 166. 166. 158. 172. 168. 177. 173.
      184. 171. 170. 162. 164. 177. 160. 189. 171. 170. 172. 171. 174.
      182. 166. 161. 172. 169. 167. 170. 183. 174. 169. 171. 162. 177.
      163. 186. 162. 173. 170. 170. 169. 189. 168. 169. 166. 167. 160.
      169. 178. 180. 165. 174. 166. 167. 167. 173. 165. 177. 173. 174.
      164. 179. 169. 176. 158. 161. 161. 164. 169. 171. 157. 176. 170.
      179. 176. 168. 176. 186. 179. 175. 167. 176. 169. 174. 157. 162.
      163. 165. 169. 170. 153. 171. 164. 183. 177. 170. 180. 175. 175.
      180. 175. 179. 174. 176. 164. 167. 166. 164. 172. 177. 156. 169.
      159. 178. 176. 171. 181. 166. 174. 181. 175. 180. 176. 174. 169.
      168. 172. 160. 173. 184. 164. 170. 161. 169. 178. 169. 179. 167.
      178. 181. 170. 178. 174. 171. 170. 170. 177. 152. 164. 181. 165.
      174. 178. 174. 189. 156. 182. 173. 181. 183. 176. 185. 179. 173.
      177. 174. 182. 156. 160. 172. 154. 169. 188. 183. 185. 156. 179.
      171. 172. 176. 179. 191. 182. 180. 181. 180. 181. 167. 161. 166.
      149. 166. 188. 191. 171. 164. 175. 172. 168. 165. 171. 186. 178.
      183. 177. 181. 177. 178. 164. 167. 150. 163. 181. 192. 158. 176.
      174. 178. 169. 159. 156. 178. 172. 179. 169. 179. 172.</_>
    <_>
      1. 1. 1. 1. 1. 1. 1. 1. 1. 1. 1. 1. 1. 1. 1. 1. 1. 1. 1. 1. 1. 1.
      1. 1. 1. 1. 1. 1. 1. 1. 1. 1. 1. 1. 1. 1. 1. 1. 1. 1. 1. 1. 1. 1.
      1. 1. 1. 1. 1. 1. 1. 1. 1. 1. 1. 1. 1. 1. 1. 1. 1. 1. 1. 1. 1. 1.
      1. 1. 1. 1. 1. 1. 1. 1. 1. 1. 1. 1. 1. 1. 1. 1. 1. 1. 1. 1. 1. 1.
      1. 1. 1. 1. 1. 1. 1. 1. 1. 1. 1. 1. 1. 1. 1. 1. 1. 1. 1. 1. 1. 1.
      1. 1. 1. 1. 1. 1. 1. 1. 1. 1. 1. 1. 1. 1. 1. 1. 1. 1. 1. 1. 1. 1.
      1. 1. 1. 1. 1. 1. 1. 1. 1. 1. 1. 1. 1. 1. 1. 1. 1. 1. 1. 1. 1. 1.
      1. 1. 1. 1. 1. 1. 1. 1. 1. 1. 1. 1. 1. 1. 1. 1. 1. 1. 1. 1. 1. 1.
      1. 46. 44. 48. 100. 45. 49. 49. 47. 117. 67. 57. 69. 72. 76. 89.
      115. 170. 176. 231. 239. 49. 50. 60. 92. 44. 49. 47. 53. 89. 100.
      56. 66. 68. 79. 93. 127. 168. 173. 227. 237. 45. 44. 85. 94. 43.
      45. 45. 58. 86. 66. 53. 66. 63. 70. 114. 163. 177. 176. 201. 237.
      40. 35. 80. 73. 45. 43. 51. 80. 79. 58. 65. 92. 67. 65. 130. 148.
      159. 137. 148. 239. 46. 52. 54. 93. 46. 36. 37. 59. 58. 80. 95.
      56. 86. 80. 112. 156. 146. 167. 146. 241. 66. 104. 79. 92. 99. 59.
      54. 74. 76. 112. 103. 94. 111. 101. 131. 168. 177. 185. 153. 237.
      58. 83. 104. 76. 72. 98. 74. 121. 100. 81. 99. 130. 109. 122. 130.
      175. 173. 168. 132. 232. 89. 65. 102. 89. 111. 81. 98. 101. 70.
      69. 107. 91. 132. 158. 134. 175. 183. 182. 153. 237. 88. 87. 92.
      73. 86. 68. 88. 89. 107. 113. 126. 120. 152. 161. 131. 182. 173.
      172. 171. 237. 67. 104. 93. 67. 81. 99. 95. 107. 114. 144. 132.
      159. 145. 148. 122. 157. 166. 138. 156. 237. 65. 65. 98. 109. 67.
      116. 113. 109. 99. 143. 133. 118. 135. 158. 120. 120. 181. 121.
      154. 233. 90. 61. 86. 121. 84. 84. 115. 108. 126. 116. 119. 128.
      135. 142. 118. 123. 158. 164. 125. 225. 109. 78. 101. 87. 112. 85.
      89. 116. 105. 117. 113. 145. 118. 139. 119. 169. 127. 184. 134.
      213. 79. 83. 91. 77. 122. 90. 96. 149. 137. 152. 100. 124. 111.
      146. 125. 175. 164. 170. 147. 201. 71. 74. 102. 96. 124. 93. 100.
      115. 112. 115. 103. 128. 109. 149. 129. 150. 175. 170. 157. 189.
      73. 79. 84. 112. 120. 98. 98. 109. 102. 127. 118. 131. 100. 119.
      137. 148. 160. 164. 165. 184. 75. 85. 84. 103. 115. 99. 102. 136.
      134. 135. 142. 134. 138. 142. 152. 157. 162. 168. 146. 179. 84.
      85. 96. 87. 110. 99. 108. 111. 133. 117. 126. 126. 150. 157. 159.
      161. 157. 164. 152. 172. 85. 94. 99. 95. 105. 103. 105. 111. 122.
      125. 129. 128. 131. 142. 149. 154. 157. 163. 156. 169. 91. 99.
      102. 132. 102. 106. 108. 112. 135. 122. 122. 131. 132. 138. 144.
      154. 153. 166. 156. 170.</_>
    <_>
      1. 1. 1. 1. 1. 1. 1. 1. 1. 1. 1. 1. 1. 1. 1. 1. 1. 1. 1. 1. 1. 1.
      1. 1. 1. 1. 1. 1. 1. 1. 1. 1. 1. 1. 1. 1. 1. 1. 1. 1. 1. 1. 1. 1.
      1. 1. 1. 1. 1. 1. 1. 1. 1. 1. 1. 1. 1. 1. 1. 1. 1. 1. 1. 1. 1. 1.
      1. 1. 1. 1. 1. 1. 1. 1. 1. 1. 1. 1. 1. 1. 1. 1. 1. 1. 1. 1. 1. 1.
      1. 1. 1. 1. 1. 1. 1. 1. 1. 1. 1. 1. 1. 1. 1. 1. 1. 1. 1. 1. 1. 1.
      1. 1. 1. 1. 1. 1. 1. 1. 1. 1. 1. 1. 1. 1. 1. 1. 1. 1. 1. 1. 1. 1.
      1. 1. 1. 1. 1. 1. 1. 1. 1. 1. 1. 1. 1. 1. 1. 1. 1. 1. 1. 1. 1. 1.
      1. 1. 1. 1. 1. 1. 1. 1. 1. 1. 1. 1. 1. 1. 1. 1. 1. 1. 1. 1. 1. 1.
      1. 101. 100. 165. 167. 102. 103. 25. 31. 43. 60. 69. 99. 119. 101.
      87. 82. 93. 85. 94. 89. 99. 100. 170. 175. 101. 120. 80. 92. 108.
      103. 126. 116. 103. 105. 82. 95. 92. 85. 87. 91. 103. 110. 163.
      168. 101. 104. 134. 162. 172. 111. 163. 154. 105. 145. 123. 93.
      107. 105. 87. 91. 106. 104. 132. 129. 111. 85. 120. 187. 184. 122.
      180. 179. 109. 129. 115. 114. 114. 127. 91. 92. 116. 107. 114.
      110. 137. 87. 97. 174. 173. 134. 164. 189. 115. 109. 118. 110.
      138. 121. 85. 88. 124. 110. 113. 116. 116. 92. 93. 115. 141. 150.
      140. 185. 108. 99. 130. 104. 140. 110. 81. 83. 122. 113. 114. 120.
      70. 93. 92. 60. 112. 155. 131. 174. 96. 94. 124. 111. 116. 115.
      84. 82. 117. 138. 121. 106. 85. 104. 88. 77. 117. 145. 145. 170.
      89. 100. 105. 113. 117. 121. 85. 85. 120. 169. 128. 78. 117. 94.
      94. 131. 135. 122. 167. 168. 85. 100. 108. 115. 132. 115. 89. 86.
      120. 167. 130. 92. 54. 54. 117. 146. 153. 97. 175. 164. 82. 91.
      126. 100. 125. 118. 101. 88. 100. 106. 163. 140. 30. 21. 77. 102.
      172. 70. 169. 166. 83. 91. 98. 114. 112. 130. 117. 86. 57. 46.
      133. 116. 15. 18. 32. 41. 155. 81. 128. 169. 82. 92. 86. 95. 101.
      97. 101. 86. 33. 25. 99. 84. 29. 20. 18. 28. 150. 111. 83. 160.
      79. 90. 81. 98. 106. 85. 91. 91. 23. 12. 89. 77. 25. 28. 22. 31.
      147. 127. 67. 150. 74. 131. 84. 145. 135. 134. 107. 89. 22. 46.
      87. 83. 56. 27. 70. 34. 148. 133. 73. 152. 73. 154. 91. 126. 147.
      158. 119. 86. 24. 107. 91. 88. 115. 35. 119. 78. 147. 120. 102.
      160. 79. 142. 92. 88. 144. 157. 124. 83. 21. 138. 99. 89. 147. 36.
      135. 137. 131. 97. 144. 166. 107. 135. 91. 94. 140. 158. 128. 83.
      19. 123. 97. 83. 132. 28. 124. 150. 97. 74. 163. 163. 146. 141.
      90. 126. 135. 158. 134. 86. 24. 91. 77. 72. 95. 31. 78. 125. 64.
      54. 136. 117. 131. 127. 75. 146. 139. 143. 129. 87. 20. 32. 27.
      32. 36. 32. 36. 65. 39. 50. 87. 72. 88. 81. 82. 98. 93. 108. 100.
      81.</_>
    <_>
      1. 1. 1. 1. 1. 1. 1. 1. 1. 1. 1. 1. 1. 1. 1. 1. 1. 1. 1. 1. 1. 1.
      1. 1. 1. 1. 1. 1. 1. 1. 1. 1. 1. 1. 1. 1. 1. 1. 1. 1. 1. 1. 1. 1.
      1. 1. 1. 1. 1. 1. 1. 1. 1. 1. 1. 1. 1. 1. 1. 1. 1. 1. 1. 1. 1. 1.
      1. 1. 1. 1. 1. 1. 1. 1. 1. 1. 1. 1. 1. 1. 1. 1. 1. 1. 1. 1. 1. 1.
      1. 1. 1. 1. 1. 1. 1. 1. 1. 1. 1. 1. 1. 1. 1. 1. 1. 1. 1. 1. 1. 1.
      1. 1. 1. 1. 1. 1. 1. 1. 1. 1. 1. 1. 1. 1. 1. 1. 1. 1. 1. 1. 1. 1.
      1. 1. 1. 1. 1. 1. 1. 1. 1. 1. 1. 1. 1. 1. 1. 1. 1. 1. 1. 1. 1. 1.
      1. 1. 1. 1. 1. 1. 1. 1. 1. 1. 1. 1. 1. 1. 1. 1. 1. 1. 1. 1. 1. 1.
      1. 50. 53. 52. 42. 53. 52. 48. 58. 99. 79. 54. 62. 55. 67. 69. 61.
      53. 54. 79. 84. 50. 53. 45. 53. 52. 56. 46. 108. 164. 85. 60. 105.
      71. 139. 94. 104. 89. 106. 132. 126. 51. 51. 48. 77. 78. 58. 62.
      151. 173. 72. 58. 148. 88. 195. 119. 124. 112. 150. 179. 168. 51.
      49. 67. 95. 127. 64. 93. 149. 114. 54. 49. 172. 102. 212. 131.
      106. 118. 166. 194. 188. 50. 50. 99. 62. 162. 99. 112. 57. 111.
      109. 52. 193. 123. 231. 156. 141. 139. 134. 176. 176. 50. 51. 129.
      46. 128. 132. 77. 37. 124. 143. 57. 158. 164. 226. 181. 169. 157.
      119. 117. 154. 53. 51. 141. 58. 88. 148. 69. 68. 147. 155. 92.
      116. 161. 187. 180. 156. 155. 121. 75. 121. 56. 55. 133. 91. 75.
      134. 95. 118. 181. 150. 134. 98. 126. 134. 166. 111. 144. 133. 74.
      84. 48. 68. 124. 122. 126. 93. 116. 110. 210. 143. 108. 151. 155.
      138. 181. 94. 162. 132. 112. 90. 46. 70. 106. 127. 141. 59. 105.
      77. 207. 164. 71. 142. 157. 136. 182. 118. 157. 152. 122. 100. 46.
      64. 101. 130. 138. 35. 103. 63. 201. 186. 49. 117. 147. 129. 172.
      106. 153. 155. 111. 98. 43. 55. 104. 138. 136. 26. 116. 68. 202.
      191. 53. 105. 135. 124. 155. 67. 154. 140. 95. 83. 32. 51. 93.
      129. 127. 28. 119. 64. 201. 182. 56. 105. 129. 124. 135. 78. 141.
      120. 106. 89. 28. 43. 62. 79. 77. 64. 117. 70. 205. 169. 84. 100.
      113. 116. 123. 84. 125. 118. 109. 95. 27. 35. 51. 37. 64. 106.
      119. 76. 199. 153. 110. 97. 94. 108. 105. 77. 100. 126. 94. 71.
      29. 29. 67. 33. 99. 140. 130. 81. 186. 142. 117. 96. 84. 101. 86.
      74. 77. 132. 68. 34. 31. 30. 89. 104. 144. 93. 140. 83. 173. 128.
      80. 96. 111. 105. 91. 100. 97. 112. 65. 55. 31. 28. 62. 126. 128.
      52. 156. 49. 158. 102. 58. 72. 97. 92. 87. 93. 91. 96. 77. 70. 31.
      31. 36. 91. 85. 33. 128. 28. 111. 63. 47. 50. 69. 67. 75. 69. 73.
      73. 69. 62. 32. 34. 26. 32. 35. 32. 71. 27. 57. 29. 45. 31. 44.
      46. 55. 45. 53. 49. 48. 43.</_>
    <_>
      1. 1. 1. 1. 1. 1. 1. 1. 1. 1. 1. 1. 1. 1. 1. 1. 1. 1. 1. 1. 1. 1.
      1. 1. 1. 1. 1. 1. 1. 1. 1. 1. 1. 1. 1. 1. 1. 1. 1. 1. 1.
      9.69696999e-001 1. 1. 1. 1. 1. 1. 1. 1. 1. 1. 1. 1. 1. 1. 1. 1. 1.
      1. 1. 1. 1. 1. 1. 1. 1. 1. 1. 1. 1. 1. 1. 1. 1. 1. 1. 1. 1. 1.
      9.69696999e-001 1. 1. 1. 1. 1. 1. 1. 9.69696999e-001 1. 1. 1. 1.
      1. 1. 1. 1. 1. 1. 1. 1. 1. 1. 1. 1. 1. 1. 1. 1. 1. 1. 1. 1. 1. 1.
      1. 1. 1. 1. 1. 1. 1. 1. 1. 1. 1. 1. 1. 1. 1. 1. 1. 1. 1. 1. 1. 1.
      1. 1. 1. 1. 1. 1. 1. 1. 1. 1. 1. 1. 1. 1. 1. 1. 1. 1. 1. 1. 1. 1.
      1. 9.93055582e-001 1. 1. 1. 1. 1. 1. 9.86111104e-001 1. 1. 1. 1.
      1. 1. 1. 1. 1. 20. 20. 23. 20. 69. 44. 74. 16. 16. 20. 19. 81. 21.
      43. 43. 151. 149. 122. 138. 55. 20. 19. 23. 19. 92. 84. 26. 20.
      16. 17. 16. 67. 22. 28. 60. 151. 148. 135. 133. 46. 19. 19. 21.
      19. 109. 75. 13. 68. 20. 17. 16. 50. 26. 19. 82. 154. 151. 141.
      95. 44. 19. 19. 19. 24. 103. 28. 21. 101. 19. 18. 17. 34. 27. 16.
      98. 150. 152. 149. 62. 48. 19. 19. 18. 43. 111. 19. 18. 116. 18.
      16. 14. 17. 23. 13. 101. 147. 158. 137. 47. 43. 18. 19. 18. 32.
      56. 22. 18. 116. 29. 20. 19. 18. 22. 17. 83. 154. 145. 87. 46. 42.
      18. 19. 18. 22. 22. 18. 19. 69. 42. 35. 33. 35. 32. 27. 59. 144.
      91. 54. 62. 51. 20. 18. 17. 16. 14. 14. 14. 25. 20. 16. 16. 27.
      20. 18. 20. 73. 41. 41. 65. 57. 20. 19. 44. 36. 37. 46. 16. 41.
      17. 59. 55. 16. 28. 18. 40. 68. 20. 100. 102. 64. 21. 48. 113. 96.
      76. 147. 17. 116. 33. 134. 139. 36. 113. 62. 99. 106. 21. 141.
      158. 76. 19. 99. 138. 137. 65. 190. 10. 150. 45. 111. 140. 66.
      153. 119. 90. 124. 16. 89. 155. 84. 19. 162. 96. 143. 21. 123. 23.
      148. 47. 107. 109. 69. 128. 162. 32. 150. 23. 62. 135. 92. 17.
      164. 47. 105. 14. 53. 36. 126. 47. 150. 98. 41. 103. 137. 22. 138.
      55. 116. 124. 109. 14. 63. 21. 36. 15. 24. 24. 46. 43. 72. 46. 17.
      50. 45. 23. 70. 48. 100. 72. 119. 19. 11. 19. 13. 23. 18. 16. 14.
      35. 11. 20. 18. 19. 12. 20. 22. 19. 29. 51. 121. 24. 16. 15. 18.
      11. 20. 20. 25. 23. 30. 30. 28. 23. 27. 17. 36. 20. 40. 61. 115.
      19. 18. 18. 19. 20. 22. 25. 27. 26. 26. 24. 24. 22. 24. 22. 51.
      21. 34. 64. 112. 20. 18. 20. 22. 25. 28. 27. 29. 26. 28. 25. 24.
      24. 23. 21. 53. 20. 33. 63. 109. 19. 21. 22. 25. 31. 34. 30. 30.
      26. 26. 25. 25. 23. 21. 23. 49. 20. 37. 68. 104. 22. 22. 25. 28.
      33. 35. 30. 28. 30. 27. 24. 25. 24. 23. 23. 41. 31. 42. 69. 101.</_>
    <_>
      1. 1. 1. 1. 1. 1. 1. 1. 1. 1. 1. 1. 1. 1. 1. 1. 1. 1. 1. 1. 1. 1.
      1. 1. 1. 1. 1. 1. 1. 1. 1. 1. 1. 1. 1. 1. 1. 1. 1. 1. 1. 1. 1. 1.
      1. 1. 1. 1. 1. 1. 1. 1. 1. 1. 1. 1. 1. 1. 1. 1. 1. 1. 1. 1. 1. 1.
      1. 1. 1. 1. 1. 1. 1. 1. 1. 1. 1. 1. 1. 1. 1. 1. 1. 1. 1. 1. 1. 1.
      1. 1. 1. 1. 1. 1. 1. 1. 1. 1. 1. 1. 1. 1. 1. 1. 1. 1. 1. 1. 1. 1.
      1. 1. 1. 1. 1. 1. 1. 1. 1. 1. 1. 1. 1. 1. 1. 1. 1. 1. 1. 1. 1. 1.
      1. 1. 1. 1. 1. 1. 1. 1. 1. 1. 1. 1. 1. 1. 1. 1. 1. 1. 1. 1. 1. 1.
      1. 1. 1. 1. 1. 1. 1. 1. 1. 1. 1. 1. 1. 1. 1. 1. 1. 1. 1. 1. 1. 1.
      1. 79. 59. 53. 34. 55. 53. 48. 62. 80. 74. 79. 78. 92. 104. 105.
      102. 103. 104. 102. 107. 49. 55. 84. 32. 83. 71. 43. 66. 98. 87.
      90. 102. 103. 107. 107. 100. 109. 100. 107. 104. 68. 52. 64. 36.
      81. 73. 46. 78. 88. 89. 90. 87. 85. 96. 105. 105. 97. 94. 102.
      104. 77. 50. 60. 49. 89. 78. 48. 78. 85. 90. 97. 81. 82. 97. 104.
      103. 103. 100. 101. 102. 94. 57. 71. 48. 88. 74. 49. 72. 102. 98.
      85. 76. 83. 92. 102. 107. 111. 107. 105. 100. 65. 42. 63. 30. 60.
      54. 53. 54. 86. 79. 70. 78. 85. 97. 104. 104. 104. 105. 109. 106.
      59. 50. 55. 25. 41. 53. 48. 75. 74. 76. 72. 87. 87. 107. 112. 105.
      109. 111. 116. 108. 51. 70. 61. 31. 52. 74. 46. 100. 71. 81. 81.
      95. 92. 107. 122. 123. 124. 122. 118. 109. 49. 90. 77. 29. 52. 99.
      56. 112. 85. 85. 98. 106. 110. 111. 124. 122. 119. 122. 110. 111.
      49. 100. 95. 28. 49. 98. 84. 116. 105. 88. 108. 103. 111. 107.
      122. 108. 107. 124. 103. 109. 64. 85. 97. 50. 50. 85. 105. 115.
      113. 77. 99. 85. 94. 96. 121. 110. 111. 130. 102. 104. 96. 78. 86.
      82. 58. 91. 101. 113. 108. 67. 104. 89. 86. 96. 123. 122. 125.
      125. 104. 105. 103. 91. 93. 88. 55. 98. 90. 116. 101. 73. 123.
      114. 99. 103. 123. 124. 123. 113. 102. 109. 72. 83. 85. 60. 39.
      88. 89. 119. 107. 77. 110. 116. 111. 103. 123. 126. 119. 109. 100.
      110. 50. 76. 71. 39. 51. 99. 92. 108. 114. 77. 82. 107. 96. 103.
      123. 124. 122. 117. 98. 109. 83. 95. 97. 62. 63. 93. 94. 86. 105.
      88. 100. 115. 105. 106. 122. 113. 122. 121. 95. 108. 63. 77. 67.
      38. 57. 67. 94. 71. 98. 95. 110. 120. 122. 103. 117. 99. 109. 117.
      92. 105. 63. 70. 60. 41. 63. 88. 92. 68. 102. 86. 83. 118. 91. 92.
      117. 93. 99. 117. 96. 102. 101. 108. 102. 95. 66. 54. 97. 77. 97.
      84. 81. 112. 90. 106. 123. 98. 101. 132. 98. 104. 68. 74. 64. 57.
      52. 47. 80. 76. 82. 82. 84. 98. 91. 107. 117. 97. 103. 119. 103.
      107.</_>
    <_>
      1. 1. 1. 1. 1. 1. 1. 1. 1. 1. 1. 1. 1. 1. 1. 1. 1. 1. 1. 1. 1. 1.
      1. 1. 1. 1. 1. 1. 1. 1. 1. 1. 1. 1. 1. 1. 1. 1. 1. 1. 1. 1. 1. 1.
      1. 1. 1. 1. 1. 1. 1. 1. 1. 1. 1. 1. 1. 1. 1. 1. 1. 1. 1. 1. 1. 1.
      1. 1. 1. 1. 1. 1. 1. 1. 1. 1. 1. 1. 1. 1. 1. 1. 1. 1. 1. 1. 1. 1.
      1. 1. 1. 1. 1. 1. 1. 1. 1. 1. 1. 1. 1. 1. 1. 1. 1. 1. 1. 1. 1. 1.
      1. 1. 1. 1. 1. 1. 1. 1. 1. 1. 1. 1. 1. 1. 1. 1. 1. 1. 1. 1. 1. 1.
      1. 1. 1. 1. 1. 1. 1. 1. 1. 1. 1. 1. 1. 1. 1. 1. 1. 1. 1. 1. 1. 1.
      1. 1. 1. 1. 1. 1. 1. 1. 1. 1. 1. 1. 1. 1. 1. 1. 1. 1. 1. 1. 1. 1.
      1. 103. 47. 56. 51. 58. 53. 58. 48. 40. 38. 49. 40. 41. 48. 53.
      99. 101. 112. 131. 127. 132. 56. 54. 56. 55. 47. 59. 52. 48. 40.
      41. 33. 34. 55. 61. 94. 101. 113. 127. 123. 178. 77. 62. 61. 55.
      55. 76. 59. 62. 58. 42. 41. 36. 58. 70. 102. 101. 119. 126. 124.
      237. 132. 61. 71. 60. 80. 77. 63. 52. 47. 38. 42. 40. 53. 86. 105.
      106. 127. 125. 124. 225. 195. 44. 79. 80. 91. 82. 40. 30. 17. 25.
      18. 33. 40. 86. 99. 105. 124. 128. 121. 215. 218. 36. 90. 85. 65.
      46. 31. 27. 15. 28. 39. 33. 44. 100. 92. 117. 114. 120. 118. 218.
      220. 53. 65. 39. 31. 53. 20. 34. 38. 44. 38. 40. 69. 100. 96. 122.
      114. 117. 115. 217. 215. 101. 41. 24. 86. 129. 62. 90. 127. 101.
      104. 77. 148. 109. 155. 139. 111. 117. 115. 215. 212. 152. 44. 33.
      137. 66. 134. 127. 109. 152. 143. 159. 190. 152. 167. 158. 117.
      113. 115. 208. 203. 169. 34. 51. 104. 132. 95. 134. 124. 162. 153.
      192. 184. 163. 154. 153. 123. 109. 120. 178. 168. 142. 25. 45. 57.
      186. 44. 113. 126. 136. 163. 175. 186. 158. 175. 162. 127. 117.
      113. 137. 130. 115. 34. 40. 54. 183. 56. 127. 120. 143. 189. 200.
      199. 131. 200. 177. 126. 122. 103. 118. 117. 113. 55. 46. 69. 165.
      73. 114. 155. 126. 177. 149. 191. 137. 183. 198. 130. 115. 103.
      114. 112. 108. 75. 42. 61. 73. 51. 98. 95. 114. 163. 138. 144.
      135. 136. 133. 125. 110. 105. 110. 108. 109. 125. 117. 103. 71.
      79. 151. 163. 161. 192. 170. 175. 161. 131. 173. 185. 144. 84.
      110. 112. 108. 144. 174. 140. 120. 128. 171. 214. 194. 217. 163.
      193. 166. 149. 167. 217. 176. 85. 67. 92. 104. 106. 156. 153. 180.
      173. 138. 175. 157. 192. 190. 168. 135. 153. 103. 186. 175. 86.
      51. 85. 85. 69. 138. 157. 220. 190. 116. 145. 126. 184. 194. 178.
      156. 138. 120. 157. 199. 85. 47. 85. 79. 65. 84. 93. 144. 118.
      136. 137. 122. 157. 129. 168. 145. 106. 129. 124. 125. 94. 60. 86.
      87. 69. 65. 68. 84. 89. 162. 167. 159. 164. 142. 135. 145. 111.
      103. 93. 78. 89.</_>
    <_>
      1. 1. 1. 1. 1. 1. 1. 1. 1. 1. 1. 1. 1. 1. 1. 1. 1. 1. 1. 1. 1. 1.
      1. 1. 1. 1. 1. 1. 1. 1. 1. 1. 1. 1. 1. 1. 1. 1. 1. 1. 1. 1. 1. 1.
      1. 1. 1. 1. 1. 1. 1. 1. 1. 1. 1. 1. 1. 1. 1. 1. 1. 1. 1. 1. 1. 1.
      1. 1. 1. 1. 1. 1. 1. 1. 1. 1. 1. 1. 1. 1. 1. 1. 1. 1. 1. 1. 1. 1.
      1. 1. 1. 1. 1. 1. 1. 1. 1. 1. 1. 1. 1. 1. 1. 1. 1. 1. 1. 1. 1. 1.
      1. 1. 1. 1. 1. 1. 1. 1. 1. 1. 1. 1. 1. 1. 1. 1. 1. 1. 1. 1. 1. 1.
      1. 1. 1. 1. 1. 1. 1. 1. 1. 1. 1. 1. 1. 1. 1. 1. 1. 1. 1. 1. 1. 1.
      1. 1. 1. 1. 1. 1. 1. 1. 1. 1. 1. 1. 1. 1. 1. 1. 1. 1. 1. 1. 1. 1.
      1. 46. 41. 49. 35. 38. 30. 37. 30. 31. 34. 69. 95. 77. 103. 89.
      129. 82. 40. 31. 37. 45. 46. 40. 30. 36. 33. 42. 38. 52. 87. 153.
      138. 100. 101. 116. 116. 88. 39. 35. 38. 44. 43. 38. 31. 36. 43.
      53. 72. 107. 162. 214. 146. 112. 135. 177. 123. 96. 36. 38. 38.
      42. 41. 38. 33. 48. 71. 87. 123. 174. 214. 223. 142. 141. 191.
      194. 138. 103. 34. 35. 38. 39. 42. 43. 32. 76. 121. 145. 173. 223.
      217. 194. 171. 190. 220. 114. 133. 109. 32. 31. 38. 46. 41. 76.
      44. 104. 151. 171. 202. 221. 194. 190. 196. 147. 108. 105. 124.
      105. 31. 30. 37. 58. 60. 99. 45. 131. 183. 204. 208. 175. 157.
      165. 145. 125. 78. 114. 135. 94. 31. 32. 36. 78. 77. 99. 74. 177.
      215. 199. 179. 153. 143. 153. 119. 142. 66. 115. 128. 85. 33. 29.
      38. 104. 110. 132. 137. 203. 205. 162. 147. 148. 125. 143. 115.
      158. 62. 111. 115. 76. 34. 25. 39. 145. 175. 206. 200. 162. 135.
      127. 149. 131. 81. 113. 107. 132. 79. 99. 109. 67. 33. 26. 39.
      216. 212. 139. 98. 117. 137. 159. 152. 107. 84. 119. 97. 121. 86.
      89. 110. 55. 34. 30. 41. 137. 92. 62. 41. 119. 139. 168. 160. 133.
      85. 145. 121. 130. 151. 132. 111. 45. 36. 34. 42. 58. 36. 32. 31.
      138. 159. 171. 166. 194. 105. 167. 150. 125. 202. 157. 97. 35. 35.
      36. 43. 25. 32. 33. 48. 162. 178. 166. 163. 237. 133. 175. 168.
      129. 221. 158. 86. 29. 33. 37. 42. 33. 30. 40. 71. 178. 174. 159.
      150. 219. 134. 162. 162. 160. 220. 142. 88. 27. 33. 37. 41. 28.
      29. 25. 107. 187. 159. 177. 135. 154. 86. 133. 142. 185. 208. 130.
      70. 27. 33. 39. 43. 30. 32. 30. 133. 168. 172. 169. 130. 116. 80.
      115. 151. 195. 199. 132. 76. 34. 35. 43. 47. 30. 36. 59. 156. 164.
      178. 164. 118. 108. 98. 108. 158. 222. 187. 127. 68. 39. 39. 43.
      47. 30. 44. 97. 170. 164. 177. 165. 115. 117. 116. 112. 159. 229.
      157. 108. 57. 38. 40. 41. 46. 33. 50. 123. 176. 160. 175. 163.
      134. 126. 118. 122. 158. 202. 111. 84. 53. 37. 36. 40. 46.</_>
    <_>
      1. 1. 1. 1. 1. 1. 1. 1. 1. 1. 1. 1. 1. 1. 1. 1. 1. 1. 1. 1. 1. 1.
      1. 1. 1. 1. 1. 1. 1. 1. 1. 1. 1. 1. 1. 1. 1. 1. 1. 1. 1. 1. 1. 1.
      1. 1. 1. 1. 1. 1. 1. 1. 1. 1. 1. 1. 1. 1. 1. 1. 1. 1. 1. 1. 1. 1.
      1. 1. 1. 1. 1. 1. 1. 1. 1. 1. 1. 1. 1. 1. 1. 1. 1. 1. 1. 1. 1. 1.
      1. 1. 1. 1. 1. 1. 1. 1. 1. 1. 1. 1. 1. 1. 1. 1. 1. 1. 1. 1. 1. 1.
      1. 1. 1. 1. 1. 1. 1. 1. 1. 1. 1. 1. 1. 1. 1. 1. 1. 1. 1. 1. 1. 1.
      1. 1. 1. 1. 1. 1. 1. 1. 1. 1. 1. 1. 1. 1. 1. 1. 1. 1. 1. 1. 1. 1.
      1. 1. 1. 1. 1. 1. 1. 1. 1. 1. 1. 1. 1. 1. 1. 1. 1. 1. 1. 1. 1. 1.
      1. 186. 135. 101. 166. 188. 196. 180. 195. 203. 193. 198. 181.
      176. 194. 203. 180. 207. 213. 216. 222. 174. 152. 113. 175. 184.
      197. 184. 198. 194. 195. 194. 175. 173. 189. 202. 185. 213. 207.
      202. 211. 155. 166. 131. 177. 174. 195. 190. 195. 178. 194. 186.
      169. 168. 179. 198. 193. 209. 196. 186. 195. 134. 161. 147. 166.
      159. 189. 194. 183. 160. 190. 178. 168. 166. 170. 195. 203. 195.
      180. 180. 179. 134. 148. 153. 162. 157. 193. 202. 178. 164. 195.
      175. 172. 170. 172. 199. 202. 182. 179. 184. 182. 138. 140. 163.
      159. 158. 197. 208. 174. 172. 200. 174. 174. 171. 179. 205. 201.
      177. 181. 183. 182. 139. 139. 174. 156. 161. 200. 206. 172. 175.
      206. 177. 171. 170. 191. 216. 200. 179. 184. 178. 179. 137. 136.
      171. 154. 167. 204. 207. 170. 173. 215. 189. 174. 176. 207. 221.
      187. 184. 194. 204. 177. 137. 138. 178. 150. 165. 205. 210. 175.
      176. 215. 203. 177. 176. 212. 221. 180. 184. 206. 210. 175. 139.
      142. 185. 147. 162. 206. 212. 181. 181. 210. 213. 182. 178. 209.
      214. 178. 183. 214. 207. 175. 137. 143. 181. 143. 165. 210. 211.
      181. 184. 212. 213. 189. 186. 194. 205. 174. 182. 204. 214. 170.
      138. 149. 178. 142. 170. 216. 209. 181. 185. 213. 209. 190. 197.
      193. 199. 174. 183. 200. 217. 171. 140. 157. 175. 143. 174. 219.
      206. 180. 188. 213. 202. 188. 202. 200. 195. 176. 184. 199. 213.
      173. 140. 162. 172. 145. 174. 217. 199. 179. 192. 211. 194. 183.
      203. 214. 193. 181. 186. 203. 200. 180. 139. 164. 167. 145. 170.
      200. 185. 178. 196. 209. 189. 183. 197. 213. 192. 183. 187. 198.
      184. 177. 140. 168. 166. 147. 170. 185. 174. 181. 202. 207. 187.
      183. 191. 209. 200. 182. 184. 187. 173. 175. 141. 173. 169. 151.
      172. 175. 167. 184. 207. 204. 186. 183. 185. 206. 211. 176. 179.
      173. 170. 175. 142. 178. 174. 156. 173. 175. 168. 183. 210. 199.
      186. 181. 181. 210. 217. 173. 171. 164. 171. 183. 140. 180. 178.
      156. 170. 180. 169. 177. 210. 196. 187. 181. 177. 216. 209. 172.
      164. 162. 171. 193. 137. 179. 179. 154. 165. 186. 171. 171. 210.
      194. 186. 181. 173. 220. 198. 173. 160. 164. 170. 200.</_>
    <_>
      1. 1. 1. 1. 1. 1. 1. 1. 1. 1. 1. 1. 1. 1. 1. 1. 1. 1. 1. 1. 1. 1.
      1. 1. 1. 1. 1. 1. 1. 1. 1. 1. 1. 1. 1. 1. 1. 1. 1. 1. 1. 1. 1. 1.
      1. 1. 1. 1. 1. 1. 1. 1. 1. 1. 1. 1. 1. 1. 1. 1. 1. 1. 1. 1. 1. 1.
      1. 1. 1. 1. 1. 1. 1. 1. 1. 1. 1. 1. 1. 1. 1. 1. 1. 1. 1. 1. 1. 1.
      1. 1. 1. 1. 1. 1. 1. 1. 1. 1. 1. 1. 1. 1. 1. 1. 1. 1. 1. 1. 1. 1.
      1. 1. 1. 1. 1. 1. 1. 1. 1. 1. 1. 1. 1. 1. 1. 1. 1. 1. 1. 1. 1. 1.
      1. 1. 1. 1. 1. 1. 1. 1. 1. 1. 1. 1. 1. 1. 1. 1. 1. 1. 1. 1. 1. 1.
      1. 1. 1. 1. 1. 1. 1. 1. 1. 1. 1. 1. 1. 1. 1. 1. 1. 1. 1. 1. 1. 1.
      1. 80. 104. 97. 36. 86. 68. 50. 110. 42. 57. 105. 73. 115. 101.
      138. 154. 162. 179. 175. 176. 87. 102. 91. 63. 98. 82. 80. 108.
      73. 81. 101. 93. 119. 117. 134. 152. 163. 183. 181. 175. 114. 117.
      106. 114. 128. 113. 127. 123. 120. 122. 116. 129. 137. 149. 146.
      162. 177. 197. 194. 183. 185. 184. 180. 189. 186. 182. 183. 183.
      168. 164. 170. 188. 189. 199. 191. 206. 219. 230. 220. 212. 211.
      212. 209. 218. 209. 209. 205. 178. 127. 124. 132. 160. 208. 159.
      151. 190. 231. 241. 212. 195. 206. 212. 206. 215. 205. 216. 197.
      122. 48. 46. 53. 87. 203. 75. 71. 140. 226. 239. 189. 160. 200.
      208. 205. 208. 208. 217. 149. 46. 20. 24. 26. 48. 203. 38. 37.
      105. 235. 243. 186. 150. 198. 207. 208. 204. 208. 205. 88. 7. 12.
      34. 27. 31. 211. 28. 27. 84. 236. 238. 186. 155. 201. 209. 211.
      204. 204. 178. 29. 3. 31. 76. 52. 41. 215. 34. 28. 73. 231. 226.
      186. 163. 204. 213. 202. 215. 207. 142. 7. 12. 122. 160. 143. 102.
      204. 36. 33. 53. 221. 228. 183. 162. 205. 215. 198. 215. 209. 108.
      6. 45. 187. 206. 203. 157. 192. 28. 36. 43. 211. 226. 171. 158.
      204. 212. 202. 204. 211. 78. 15. 99. 211. 204. 215. 196. 183. 16.
      39. 52. 201. 219. 147. 154. 206. 206. 205. 212. 205. 54. 16. 146.
      218. 204. 214. 212. 176. 42. 72. 81. 182. 218. 112. 162. 208. 201.
      206. 213. 202. 35. 20. 184. 215. 204. 210. 216. 168. 65. 106. 103.
      167. 210. 85. 170. 210. 203. 204. 201. 205. 18. 29. 210. 204. 209.
      207. 216. 157. 71. 135. 105. 163. 189. 73. 173. 213. 208. 212.
      204. 197. 11. 44. 205. 220. 213. 210. 216. 142. 76. 166. 110. 151.
      160. 64. 181. 215. 215. 214. 209. 191. 11. 53. 199. 229. 213. 212.
      218. 124. 78. 190. 115. 134. 128. 59. 189. 216. 216. 203. 212.
      195. 19. 52. 203. 214. 207. 213. 220. 104. 76. 203. 123. 113. 97.
      62. 198. 205. 205. 206. 212. 205. 34. 49. 191. 208. 210. 219. 222.
      86. 72. 205. 131. 99. 78. 62. 205. 196. 194. 213. 210. 215. 47.
      48. 180. 207. 213. 226. 222. 74. 67. 203. 139. 89. 68. 63. 210.</_>
    <_>
      1. 1. 1. 1. 1. 1. 1. 1. 1. 1. 1. 1. 1. 1. 1. 1. 1. 1. 1. 1. 1. 1.
      1. 1. 1. 1. 1. 1. 1. 1. 1. 1. 1. 1. 1. 1. 1. 1. 1. 1. 1. 1. 1. 1.
      1. 1. 1. 1. 1. 1. 1. 1. 1. 1. 1. 1. 1. 1. 1. 1. 1. 1. 1. 1. 1. 1.
      1. 1. 1. 1. 1. 1. 1. 1. 1. 1. 1. 1. 1. 1. 1. 1. 1. 1. 1. 1. 1. 1.
      1. 1. 1. 1. 1. 1. 1. 1. 1. 1. 1. 1. 1. 1. 1. 1. 1. 1. 1. 1. 1. 1.
      1. 1. 1. 1. 1. 1. 1. 1. 1. 1. 1. 1. 1. 1. 1. 1. 1. 1. 1. 1. 1. 1.
      1. 1. 1. 1. 1. 1. 1. 1. 1. 1. 1. 1. 1. 1. 1. 1. 1. 1. 1. 1. 1. 1.
      1. 1. 1. 1. 1. 1. 1. 1. 1. 1. 1. 1. 1. 1. 1. 1. 1. 1. 1. 1. 1. 1.
      1. 111. 139. 148. 64. 44. 38. 35. 42. 35. 48. 60. 79. 93. 89. 92.
      95. 98. 101. 100. 99. 98. 150. 121. 31. 47. 54. 49. 51. 65. 71.
      61. 67. 79. 77. 85. 96. 101. 98. 95. 105. 43. 148. 66. 47. 89.
      106. 112. 53. 121. 114. 64. 79. 94. 93. 103. 95. 127. 100. 98.
      105. 34. 139. 47. 52. 145. 146. 150. 56. 144. 143. 67. 94. 131.
      133. 150. 124. 156. 130. 123. 103. 33. 99. 47. 63. 144. 145. 157.
      95. 148. 141. 71. 83. 138. 144. 151. 160. 180. 168. 154. 104. 56.
      74. 58. 75. 151. 134. 144. 128. 166. 138. 88. 112. 159. 140. 138.
      117. 161. 117. 120. 107. 87. 60. 65. 72. 168. 132. 135. 93. 158.
      139. 133. 145. 149. 153. 129. 100. 138. 104. 103. 104. 66. 65. 69.
      63. 162. 158. 150. 87. 157. 143. 158. 124. 148. 150. 96. 122. 167.
      157. 119. 106. 62. 67. 70. 74. 163. 132. 126. 112. 174. 154. 159.
      96. 143. 138. 102. 121. 155. 156. 122. 105. 75. 84. 70. 93. 157.
      138. 135. 130. 162. 163. 140. 102. 121. 100. 104. 112. 123. 122.
      117. 107. 86. 113. 75. 92. 151. 163. 159. 113. 151. 162. 113. 110.
      114. 113. 117. 158. 166. 167. 149. 112. 133. 104. 89. 90. 160.
      140. 137. 103. 154. 154. 97. 130. 107. 116. 161. 166. 161. 170.
      158. 111. 170. 102. 95. 95. 162. 166. 159. 111. 155. 155. 98. 158.
      105. 105. 183. 120. 129. 132. 127. 111. 176. 139. 99. 100. 131.
      152. 146. 97. 132. 150. 113. 135. 110. 103. 166. 116. 119. 118.
      114. 113. 169. 168. 101. 105. 103. 113. 106. 105. 119. 125. 114.
      113. 114. 115. 128. 112. 115. 111. 117. 112. 176. 175. 101. 106.
      108. 120. 109. 139. 133. 122. 135. 135. 134. 136. 132. 128. 127.
      111. 116. 111. 166. 174. 113. 109. 118. 148. 118. 152. 128. 129.
      166. 134. 152. 141. 149. 158. 143. 118. 114. 112. 164. 181. 113.
      112. 114. 161. 137. 146. 126. 134. 158. 131. 141. 144. 139. 153.
      142. 120. 113. 116. 184. 167. 110. 117. 120. 159. 158. 150. 145.
      145. 146. 154. 129. 150. 141. 143. 133. 116. 115. 118. 157. 116.
      121. 122. 119. 122. 130. 131. 133. 122. 123. 135. 122. 128. 131.
      121. 127. 112. 115. 116.</_>
    <_>
      1. 1. 1. 1. 1. 1. 1. 1. 1. 1. 1. 1. 1. 1. 1. 1. 1. 1. 1. 1. 1. 1.
      1. 1. 1. 1. 1. 1. 1. 1. 1. 1. 1. 1. 1. 1. 1. 1. 1. 1. 1. 1. 1. 1.
      1. 1. 1. 1. 1. 1. 1. 1. 1. 1. 1. 1. 1. 1. 1. 1. 1. 1. 1. 1. 1. 1.
      1. 1. 1. 1. 1. 1. 1. 1. 1. 1. 1. 1. 1. 1. 1. 1. 1. 1. 1. 1. 1. 1.
      1. 1. 1. 1. 1. 1. 1. 1. 1. 1. 1. 1. 1. 1. 1. 1. 1. 1. 1. 1. 1. 1.
      1. 1. 1. 1. 1. 1. 1. 1. 1. 1. 1. 1. 1. 1. 1. 1. 1. 1. 1. 1. 1. 1.
      1. 1. 1. 1. 1. 1. 1. 9.69696999e-001 1. 1. 1. 1. 1. 1. 1. 1. 1. 1.
      1. 1. 1. 1. 9.93055582e-001 1. 1. 1. 1. 1. 1. 1. 1. 1. 1. 1. 1. 1.
      1. 1. 1. 1. 1. 1. 1. 1. 1. 50. 52. 61. 56. 61. 54. 63. 64. 63. 65.
      64. 88. 75. 56. 89. 63. 86. 100. 67. 112. 50. 52. 58. 54. 60. 52.
      68. 54. 61. 66. 48. 90. 68. 46. 94. 39. 64. 98. 39. 101. 50. 51.
      48. 52. 56. 49. 72. 39. 57. 67. 30. 86. 63. 34. 99. 20. 41. 99.
      12. 83. 49. 47. 36. 53. 44. 42. 69. 28. 52. 68. 27. 73. 63. 31.
      98. 26. 33. 104. 14. 63. 47. 44. 26. 59. 38. 34. 66. 23. 45. 68.
      17. 67. 69. 20. 95. 47. 21. 113. 34. 37. 46. 47. 18. 61. 38. 25.
      63. 26. 38. 70. 11. 58. 77. 11. 84. 72. 9. 111. 57. 16. 45. 50.
      12. 60. 44. 17. 62. 31. 30. 73. 14. 47. 84. 10. 68. 90. 5. 102.
      80. 5. 43. 51. 4. 51. 53. 10. 60. 35. 23. 75. 33. 27. 88. 24. 47.
      101. 20. 86. 98. 10. 43. 54. 11. 47. 60. 17. 55. 42. 19. 73. 46.
      20. 85. 37. 32. 95. 27. 62. 107. 9. 41. 57. 24. 43. 65. 27. 50.
      51. 19. 69. 53. 19. 81. 48. 20. 89. 34. 37. 108. 9. 32. 61. 28.
      40. 65. 26. 45. 59. 19. 71. 60. 19. 79. 59. 16. 93. 47. 25. 106.
      33. 23. 63. 33. 36. 58. 23. 36. 63. 26. 68. 70. 25. 73. 75. 18.
      91. 66. 13. 106. 61. 19. 63. 39. 33. 54. 23. 28. 64. 35. 57. 78.
      30. 64. 87. 22. 87. 83. 8. 102. 82. 22. 58. 46. 31. 53. 31. 24.
      59. 48. 41. 80. 38. 50. 97. 27. 75. 96. 11. 95. 94. 30. 54. 52.
      27. 57. 43. 23. 60. 55. 27. 80. 47. 33. 96. 38. 59. 102. 23. 78.
      100. 36. 51. 56. 26. 61. 54. 23. 65. 59. 19. 78. 54. 20. 92. 48.
      46. 104. 38. 54. 102. 37. 48. 58. 28. 62. 62. 23. 70. 61. 18. 73.
      61. 14. 84. 59. 33. 103. 54. 31. 101. 37. 46. 58. 34. 55. 65. 28.
      68. 63. 21. 73. 68. 17. 80. 71. 23. 99. 68. 18. 101. 41. 42. 57.
      42. 48. 66. 36. 61. 67. 26. 74. 75. 25. 77. 83. 14. 95. 78. 13.
      99. 44. 40. 56. 48. 44. 67. 42. 54. 71. 27. 76. 79. 31. 78. 88.
      11. 92. 83. 10. 96.</_>
    <_>
      1. 1. 1. 1. 1. 1. 1. 1. 1. 1. 1. 1. 1. 1. 1. 1. 1. 1. 1. 1. 1. 1.
      1. 1. 1. 1. 1. 1. 1. 1. 1. 1. 1. 1. 1. 1. 1. 1. 1. 1. 1. 1. 1. 1.
      1. 1. 1. 1. 1. 1. 1. 1. 1. 1. 1. 1. 1. 1. 1. 1. 1. 1. 1. 1. 1. 1.
      1. 1. 1. 1. 1. 1. 1. 1. 1. 1. 1. 1. 1. 1. 1. 1. 1. 1. 1. 1. 1. 1.
      1. 1. 1. 1. 1. 1. 1. 1. 1. 1. 1. 1. 1. 1. 1. 1. 1. 1. 1. 1. 1. 1.
      1. 1. 1. 1. 1. 1. 1. 1. 1. 1. 1. 1. 1. 1. 1. 1. 1. 1. 1. 1. 1. 1.
      1. 1. 1. 1. 1. 1. 1. 1. 1. 1. 1. 1. 1. 1. 1. 1. 1. 1. 1. 1. 1. 1.
      1. 1. 1. 1. 1. 1. 1. 1. 1. 1. 1. 1. 1. 1. 1. 1. 1. 1. 1. 1. 1. 1.
      1. 164. 169. 154. 165. 217. 205. 183. 177. 175. 162. 169. 179.
      175. 186. 173. 180. 167. 179. 173. 192. 165. 174. 174. 161. 211.
      212. 184. 180. 193. 185. 174. 187. 191. 184. 186. 195. 188. 198.
      183. 193. 163. 182. 202. 172. 185. 218. 181. 185. 194. 202. 176.
      177. 182. 178. 197. 204. 201. 194. 194. 192. 161. 184. 223. 187.
      151. 215. 176. 186. 182. 206. 170. 154. 157. 174. 206. 207. 193.
      169. 194. 188. 158. 172. 216. 173. 158. 205. 168. 183. 208. 214.
      164. 169. 160. 194. 218. 205. 175. 197. 168. 189. 161. 170. 218.
      164. 197. 180. 169. 182. 186. 219. 156. 178. 184. 186. 213. 205.
      176. 201. 179. 186. 165. 166. 214. 169. 221. 172. 176. 185. 186.
      207. 165. 168. 192. 182. 203. 195. 174. 199. 184. 185. 170. 155.
      207. 184. 216. 180. 184. 186. 208. 188. 181. 151. 184. 189. 190.
      188. 178. 200. 178. 189. 172. 135. 207. 195. 213. 180. 184. 183.
      181. 191. 174. 168. 196. 186. 179. 193. 217. 208. 179. 188. 171.
      121. 210. 206. 215. 181. 183. 183. 182. 197. 170. 171. 191. 189.
      192. 190. 194. 181. 188. 187. 168. 135. 210. 208. 215. 186. 181.
      184. 185. 188. 167. 161. 183. 190. 189. 176. 182. 179. 189. 188.
      164. 162. 203. 199. 215. 187. 172. 186. 179. 169. 168. 154. 175.
      180. 163. 161. 190. 196. 183. 189. 163. 163. 191. 184. 216. 168.
      170. 184. 160. 173. 169. 171. 166. 167. 150. 173. 164. 164. 183.
      187. 169. 168. 157. 164. 173. 181. 173. 175. 162. 166. 173. 168.
      168. 170. 174. 172. 170. 179. 193. 184. 173. 170. 138. 163. 155.
      207. 177. 171. 172. 173. 187. 170. 175. 185. 195. 170. 176. 195.
      193. 184. 173. 169. 146. 171. 174. 231. 178. 173. 176. 188. 198.
      178. 180. 198. 195. 166. 174. 195. 184. 192. 170. 176. 179. 155.
      201. 217. 177. 176. 186. 166. 165. 197. 184. 182. 175. 177. 179.
      180. 185. 191. 168. 172. 166. 185. 216. 197. 183. 174. 167. 163.
      165. 175. 175. 158. 175. 183. 182. 167. 174. 187. 169. 170. 156.
      199. 220. 179. 185. 172. 159. 170. 174. 169. 171. 144. 182. 184.
      182. 167. 173. 184. 171. 168. 159. 190. 217. 162. 186. 174. 174.
      177. 179. 175. 179. 144. 191. 178. 179. 178. 181. 181.</_>
    <_>
      8.78787875e-001 8.48484874e-001 1. 1. 1. 1. 1. 1. 9.69696999e-001
      1. 1. 1. 1. 1. 1. 1. 1. 1. 1. 1. 1. 1. 1. 1. 1. 1. 1. 1. 1. 1. 1.
      1. 1. 1. 1. 1. 1. 1. 1. 1. 1. 1. 1. 1. 9.09090936e-001
      9.39393997e-001 9.69696999e-001 9.09090936e-001 9.69696999e-001
      9.69696999e-001 1. 9.39393997e-001 1. 1. 1. 1. 1. 1. 1. 1. 1. 1.
      1. 1. 1. 1. 1. 1. 1. 1. 1. 1. 1. 1. 1. 1. 1. 1. 1. 1. 1. 1. 1. 1.
      1. 1. 1. 1. 1. 1. 1. 1. 1. 1. 1. 1. 1. 1. 1. 1. 1. 1. 1. 1. 1. 1.
      1. 1. 1. 1. 1. 1. 1. 1. 1. 1. 1. 1. 1. 1. 1. 1. 1. 1. 1. 1. 1. 1.
      1. 1. 1. 1. 1. 1. 1. 1. 1. 1. 1. 1. 1. 1. 1. 1. 9.51388896e-001
      9.58333313e-001 9.86111104e-001 9.86111104e-001 9.93055582e-001
      9.93055582e-001 9.79166687e-001 1. 1. 9.93055582e-001 1. 1. 1. 1.
      1. 1. 1. 1. 1. 1. 1. 1. 1. 1. 1. 1. 1. 1. 1. 1. 1. 1. 1. 2. 6. 20.
      116. 34. 3. 0. 2. 18. 38. 49. 43. 43. 54. 53. 50. 60. 62. 67. 63.
      2. 5. 52. 132. 55. 7. 2. 1. 31. 43. 48. 47. 49. 50. 54. 49. 57.
      65. 64. 67. 2. 3. 99. 158. 87. 14. 1. 1. 57. 54. 48. 59. 66. 46.
      61. 54. 58. 73. 60. 72. 2. 8. 135. 159. 83. 52. 3. 2. 91. 90. 49.
      89. 104. 58. 98. 76. 76. 107. 70. 68. 2. 16. 157. 160. 92. 92. 3.
      6. 116. 120. 56. 99. 121. 70. 125. 99. 94. 127. 79. 61. 5. 32.
      154. 163. 130. 121. 1. 10. 117. 130. 65. 65. 91. 77. 123. 109.
      107. 110. 74. 46. 4. 57. 154. 145. 143. 123. 5. 14. 116. 131. 68.
      73. 91. 94. 127. 94. 116. 104. 62. 43. 2. 89. 159. 114. 144. 115.
      6. 16. 112. 125. 65. 104. 110. 108. 129. 71. 123. 107. 47. 48. 3.
      106. 165. 89. 121. 124. 12. 19. 118. 123. 61. 97. 105. 94. 116.
      66. 110. 114. 47. 49. 4. 120. 169. 72. 104. 137. 17. 21. 117. 124.
      56. 89. 106. 90. 99. 62. 103. 119. 51. 50. 4. 130. 165. 75. 94.
      152. 24. 29. 99. 119. 53. 82. 116. 117. 72. 57. 113. 118. 64. 49.
      4. 132. 163. 76. 91. 163. 22. 53. 100. 117. 54. 83. 132. 114. 66.
      70. 100. 103. 67. 51. 4. 127. 160. 77. 89. 172. 18. 82. 107. 112.
      51. 86. 140. 94. 70. 88. 81. 80. 68. 53. 9. 113. 163. 78. 101.
      175. 25. 67. 71. 94. 52. 73. 95. 68. 65. 73. 60. 58. 61. 51. 10.
      98. 167. 91. 121. 169. 32. 51. 49. 77. 55. 64. 70. 59. 57. 63. 57.
      47. 55. 50. 4. 79. 168. 125. 146. 145. 37. 42. 55. 67. 65. 60. 92.
      84. 52. 75. 88. 61. 53. 49. 7. 48. 167. 156. 142. 111. 37. 43. 70.
      67. 72. 72. 83. 80. 61. 85. 103. 86. 54. 51. 14. 16. 162. 175.
      122. 78. 34. 57. 84. 73. 77. 85. 68. 69. 77. 88. 106. 112. 55. 53.
      14. 9. 136. 150. 96. 56. 34. 75. 86. 67. 80. 83. 91. 99. 86. 95.
      110. 119. 49. 47. 13. 7. 117. 127. 80. 45. 34. 85. 87. 64. 82. 79.
      112. 123. 88. 97. 113. 121. 43. 42.</_>
    <_>
      1. 1. 1. 1. 1. 1. 1. 1. 1. 1. 1. 1. 1. 1. 1. 1. 1. 1. 1. 1. 1. 1.
      1. 1. 1. 1. 1. 1. 1. 1. 1. 1. 1. 1. 1. 1. 1. 1. 1. 1. 1. 1. 1. 1.
      1. 1. 1. 1. 1. 1. 1. 1. 1. 1. 1. 1. 1. 1. 1. 1. 1. 1. 1. 1. 1. 1.
      1. 1. 1. 1. 1. 1. 1. 1. 1. 1. 1. 1. 1. 1. 1. 1. 1. 1. 1. 1. 1. 1.
      1. 1. 1. 1. 1. 1. 1. 1. 1. 1. 1. 1. 1. 1. 1. 1. 1. 1. 1. 1. 1. 1.
      1. 1. 1. 1. 1. 1. 1. 1. 1. 1. 1. 1. 1. 1. 1. 1. 1. 1. 1. 1. 1. 1.
      1. 1. 1. 1. 1. 1. 1. 1. 1. 1. 1. 1. 1. 1. 1. 1. 1. 1. 1. 1. 1. 1.
      1. 1. 1. 1. 1. 1. 1. 1. 1. 1. 1. 1. 1. 1. 1. 1. 1. 1. 1. 1. 1. 1.
      1. 22. 36. 51. 83. 117. 167. 243. 227. 224. 211. 162. 194. 182.
      175. 171. 176. 171. 98. 82. 65. 29. 39. 53. 91. 105. 145. 204.
      212. 228. 229. 163. 189. 179. 172. 165. 175. 164. 99. 80. 62. 38.
      43. 60. 96. 102. 127. 169. 198. 223. 234. 163. 177. 177. 167. 160.
      176. 159. 99. 76. 60. 41. 46. 69. 91. 116. 133. 166. 190. 205.
      206. 161. 163. 175. 163. 156. 179. 156. 94. 74. 60. 44. 48. 79.
      87. 139. 144. 167. 190. 192. 178. 154. 159. 175. 158. 154. 179.
      148. 88. 71. 60. 44. 51. 86. 90. 169. 167. 183. 206. 196. 172.
      155. 166. 175. 154. 155. 176. 139. 84. 70. 61. 45. 57. 87. 99.
      199. 200. 213. 234. 220. 189. 162. 178. 172. 152. 159. 174. 130.
      79. 68. 64. 49. 65. 86. 118. 221. 227. 238. 248. 243. 220. 166.
      181. 167. 155. 166. 175. 127. 76. 67. 67. 51. 73. 81. 139. 230.
      237. 246. 250. 251. 234. 165. 183. 170. 165. 173. 173. 122. 75.
      66. 67. 51. 77. 78. 163. 230. 236. 243. 243. 250. 240. 165. 186.
      179. 179. 183. 171. 114. 72. 66. 69. 51. 76. 77. 186. 223. 222.
      227. 226. 243. 240. 172. 198. 197. 196. 199. 168. 100. 72. 65. 69.
      53. 78. 82. 208. 217. 203. 206. 206. 232. 229. 169. 210. 211. 210.
      216. 170. 89. 71. 65. 72. 55. 78. 89. 203. 208. 194. 195. 201.
      218. 207. 175. 222. 224. 225. 233. 160. 81. 69. 65. 74. 58. 77.
      95. 158. 187. 196. 202. 215. 197. 181. 195. 234. 239. 244. 248.
      131. 84. 68. 63. 75. 60. 72. 101. 179. 200. 204. 203. 196. 198.
      203. 213. 244. 248. 247. 243. 127. 82. 66. 62. 74. 62. 71. 104.
      195. 206. 202. 199. 186. 192. 206. 217. 242. 249. 234. 203. 110.
      81. 64. 61. 76. 63. 75. 100. 189. 198. 187. 187. 186. 180. 183.
      202. 215. 227. 195. 137. 82. 80. 63. 61. 75. 60. 78. 86. 149. 161.
      172. 180. 186. 174. 162. 167. 155. 143. 119. 108. 84. 75. 60. 61.
      71. 57. 77. 73. 105. 116. 136. 134. 136. 129. 118. 111. 103. 91.
      80. 81. 78. 68. 59. 60. 64. 54. 73. 63. 74. 82. 102. 87. 81. 82.
      76. 62. 69. 72. 67. 64. 67. 62. 58. 60. 57.</_>
    <_>
      1. 1. 1. 1. 1. 1. 1. 1. 1. 1. 1. 1. 1. 1. 1. 1. 1. 1. 1. 1. 1. 1.
      1. 1. 1. 1. 1. 1. 1. 1. 1. 1. 1. 1. 1. 1. 1. 1. 1. 1. 1. 1. 1. 1.
      1. 1. 1. 1. 1. 1. 1. 1. 1. 1. 1. 1. 1. 1. 1. 1. 1. 1. 1. 1. 1. 1.
      1. 1. 1. 1. 1. 1. 1. 1. 1. 1. 1. 1. 1. 1. 1. 1. 1. 1. 1. 1. 1. 1.
      1. 1. 1. 1. 1. 1. 1. 1. 1. 1. 1. 1. 1. 1. 1. 1. 1. 1. 1. 1. 1. 1.
      1. 1. 1. 1. 1. 1. 1. 1. 1. 1. 1. 1. 1. 1. 1. 1. 1. 1. 1. 1. 1. 1.
      1. 1. 1. 1. 1. 1. 1. 1. 1. 1. 1. 1. 1. 1. 1. 1. 1. 1. 1. 1. 1. 1.
      1. 1. 1. 1. 1. 1. 1. 1. 1. 1. 1. 1. 1. 1. 1. 1. 1. 1. 1. 1. 1. 1.
      1. 8. 7. 8. 7. 19. 17. 37. 71. 169. 40. 8. 50. 92. 113. 134. 80.
      74. 32. 17. 17. 11. 9. 8. 9. 16. 31. 44. 99. 125. 24. 10. 62. 79.
      117. 135. 67. 91. 32. 17. 17. 13. 10. 9. 12. 14. 43. 55. 131. 71.
      7. 25. 79. 78. 129. 134. 57. 109. 31. 17. 17. 10. 9. 11. 18. 21.
      44. 81. 133. 36. 7. 73. 106. 122. 157. 129. 69. 111. 24. 17. 20.
      10. 13. 12. 22. 34. 50. 115. 108. 23. 9. 122. 139. 169. 195. 134.
      75. 101. 20. 17. 21. 11. 19. 14. 25. 43. 65. 142. 69. 22. 8. 160.
      166. 201. 222. 139. 75. 85. 20. 16. 22. 12. 10. 23. 25. 53. 87.
      136. 33. 20. 12. 154. 153. 194. 202. 119. 69. 64. 20. 15. 32. 11.
      7. 26. 32. 55. 120. 104. 17. 18. 13. 132. 128. 149. 153. 99. 64.
      41. 20. 17. 47. 9. 11. 26. 49. 58. 149. 59. 18. 16. 12. 101. 98.
      89. 93. 84. 61. 19. 17. 22. 67. 11. 19. 30. 59. 94. 139. 32. 22.
      16. 11. 71. 76. 62. 68. 70. 52. 18. 15. 36. 89. 16. 23. 38. 65.
      127. 103. 18. 21. 17. 13. 49. 64. 56. 61. 56. 37. 22. 18. 55. 107.
      21. 26. 49. 68. 149. 60. 18. 14. 19. 16. 34. 56. 61. 60. 41. 24.
      26. 31. 80. 122. 20. 36. 50. 90. 134. 36. 15. 15. 19. 19. 24. 44.
      45. 40. 28. 22. 30. 53. 105. 132. 19. 48. 54. 120. 106. 24. 15.
      18. 18. 20. 19. 30. 33. 27. 24. 33. 43. 77. 124. 143. 23. 55. 66.
      145. 73. 19. 18. 19. 15. 17. 18. 20. 34. 33. 37. 60. 70. 100. 136.
      154. 37. 51. 92. 146. 44. 22. 19. 20. 13. 14. 22. 21. 42. 52. 68.
      95. 98. 116. 142. 166. 46. 55. 120. 126. 25. 22. 20. 23. 17. 23.
      36. 40. 61. 78. 100. 121. 122. 131. 149. 176. 49. 70. 141. 92. 23.
      18. 21. 31. 36. 50. 64. 77. 93. 107. 119. 130. 141. 148. 162. 185.
      56. 80. 148. 82. 29. 32. 42. 54. 70. 80. 89. 104. 117. 127. 135.
      140. 150. 162. 171. 198. 61. 87. 150. 81. 37. 48. 60. 73. 95. 100.
      106. 122. 132. 138. 145. 149. 152. 171. 176. 207.</_>
    <_>
      1. 1. 1. 1. 1. 1. 1. 1. 1. 1. 1. 1. 1. 1. 1. 1. 1. 1. 1. 1. 1. 1.
      1. 1. 1. 1. 1. 1. 9.69696999e-001 1. 1. 1. 1. 1. 1. 1. 1. 1. 1. 1.
      1. 1. 1. 1. 1. 1. 1. 1. 1. 1. 1. 1. 1. 1. 1. 1. 1. 1. 1. 1. 1. 1.
      1. 1. 1. 9.69696999e-001 1. 1. 1. 1. 1. 1. 1. 1. 1. 1. 1. 1. 1. 1.
      1. 1. 1. 1. 1. 1. 1. 1. 1. 1. 1. 1. 1. 1. 1. 1. 1. 1. 1. 1. 1. 1.
      1. 1. 1. 1. 1. 1. 1. 1. 1. 1. 1. 1. 1. 1. 1. 1. 1. 1. 1. 1. 1. 1.
      1. 1. 1. 1. 1. 1. 1. 1. 1. 1. 1. 1. 1. 1. 1. 1. 1. 1. 1. 1.
      9.93055582e-001 1. 1. 1. 1. 1. 1. 1. 1. 1. 1. 1. 1. 1. 1. 1.
      9.93055582e-001 1. 1. 1. 1. 1. 1. 1. 1. 1. 1. 1. 1. 1. 1. 1. 1.
      16. 21. 45. 16. 11. 30. 26. 39. 73. 21. 30. 34. 37. 44. 68. 179.
      150. 99. 86. 169. 35. 42. 94. 46. 47. 64. 54. 68. 84. 43. 45. 41.
      40. 39. 66. 200. 152. 117. 118. 150. 62. 66. 147. 69. 80. 85. 75.
      92. 99. 59. 55. 46. 46. 45. 65. 205. 148. 130. 133. 114. 74. 67.
      164. 49. 54. 49. 46. 71. 120. 38. 35. 41. 55. 85. 86. 138. 130.
      106. 71. 64. 66. 71. 164. 53. 69. 73. 87. 126. 161. 67. 72. 85.
      96. 128. 106. 122. 133. 125. 65. 60. 75. 97. 167. 91. 117. 139.
      160. 200. 207. 129. 134. 141. 140. 155. 122. 132. 146. 150. 94.
      78. 175. 195. 197. 181. 183. 182. 190. 179. 222. 188. 160. 142.
      133. 149. 127. 107. 143. 109. 91. 55. 188. 191. 173. 178. 159.
      137. 138. 110. 189. 201. 155. 122. 108. 126. 112. 81. 129. 74. 63.
      38. 121. 108. 107. 103. 72. 46. 45. 33. 120. 175. 123. 89. 78. 93.
      78. 53. 99. 49. 23. 31. 42. 43. 40. 57. 29. 25. 21. 26. 61. 130.
      63. 44. 47. 48. 44. 28. 40. 23. 22. 20. 23. 29. 25. 76. 22. 34.
      32. 39. 48. 90. 28. 22. 27. 23. 23. 18. 17. 16. 26. 29. 60. 55.
      52. 142. 40. 54. 60. 57. 76. 65. 23. 26. 20. 23. 21. 28. 35. 40.
      39. 64. 67. 56. 52. 162. 37. 45. 49. 55. 109. 74. 34. 39. 38. 47.
      50. 82. 75. 102. 114. 115. 65. 59. 66. 151. 48. 58. 62. 83. 151.
      93. 69. 67. 74. 84. 95. 135. 102. 145. 158. 127. 73. 82. 107. 125.
      89. 108. 121. 150. 198. 117. 125. 107. 121. 124. 138. 157. 106.
      145. 133. 84. 147. 166. 182. 169. 171. 179. 189. 202. 201. 137.
      154. 132. 151. 119. 109. 117. 118. 84. 71. 42. 198. 211. 211. 192.
      202. 213. 228. 225. 188. 146. 140. 144. 157. 109. 73. 99. 128. 44.
      38. 41. 172. 162. 148. 145. 137. 179. 219. 207. 165. 135. 84. 138.
      134. 118. 69. 149. 129. 64. 75. 95. 102. 93. 81. 85. 125. 145.
      173. 150. 114. 104. 92. 118. 114. 112. 100. 156. 145. 98. 83. 93.
      42. 43. 38. 41. 131. 119. 134. 102. 73. 75. 117. 101. 100. 102.
      130. 146. 163. 126. 77. 76.</_>
    <_>
      1. 1. 1. 1. 1. 1. 1. 1. 1. 1. 1. 1. 1. 1. 1. 1. 1. 1. 1. 1. 1. 1.
      1. 1. 1. 1. 1. 1. 1. 1. 1. 1. 1. 1. 1. 1. 1. 1. 1. 1. 1. 1. 1. 1.
      1. 1. 1. 1. 1. 1. 1. 1. 1. 1. 1. 1. 1. 1. 1. 1. 1. 1. 1. 1. 1. 1.
      1. 1. 1. 1. 1. 1. 1. 1. 1. 1. 1. 1. 1. 1. 1. 1. 1. 1. 1. 1. 1. 1.
      1. 1. 1. 1. 1. 1. 1. 1. 1. 1. 1. 1. 1. 1. 1. 1. 1. 1. 1. 1. 1. 1.
      1. 1. 1. 1. 1. 1. 1. 1. 1. 1. 1. 1. 1. 1. 1. 1. 1. 1. 1. 1. 1. 1.
      1. 1. 1. 1. 1. 1. 1. 1. 1. 1. 1. 1. 1. 1. 1. 1. 1. 1. 1. 1. 1. 1.
      1. 1. 1. 1. 1. 1. 1. 1. 1. 1. 1. 1. 1. 1. 1. 1. 1. 1. 1. 1. 1. 1.
      1. 76. 77. 80. 82. 85. 88. 96. 91. 102. 95. 103. 114. 105. 108.
      114. 108. 113. 114. 117. 110. 76. 79. 81. 83. 89. 104. 130. 98.
      103. 92. 100. 108. 104. 107. 113. 109. 115. 111. 114. 110. 79. 81.
      84. 85. 93. 132. 177. 114. 105. 92. 103. 106. 109. 115. 116. 115.
      124. 113. 121. 117. 80. 82. 84. 82. 87. 157. 183. 150. 101. 99.
      152. 145. 154. 158. 145. 161. 155. 136. 159. 152. 80. 85. 87. 103.
      87. 167. 166. 167. 102. 113. 177. 167. 186. 178. 171. 182. 179.
      155. 192. 174. 81. 92. 99. 166. 101. 159. 129. 138. 102. 136. 136.
      148. 177. 146. 189. 157. 180. 158. 193. 163. 85. 90. 128. 130.
      129. 136. 98. 143. 150. 135. 126. 142. 188. 143. 188. 151. 174.
      171. 177. 157. 91. 86. 162. 48. 159. 110. 76. 172. 213. 120. 135.
      144. 203. 153. 178. 156. 165. 185. 155. 158. 91. 89. 140. 36. 142.
      107. 134. 217. 212. 139. 163. 136. 190. 150. 179. 162. 163. 184.
      161. 164. 92. 93. 128. 31. 114. 97. 184. 245. 211. 151. 183. 137.
      184. 152. 178. 167. 163. 186. 172. 174. 93. 98. 143. 36. 83. 66.
      203. 234. 222. 144. 187. 158. 203. 171. 165. 177. 167. 191. 186.
      186. 99. 100. 150. 50. 62. 67. 160. 223. 174. 134. 181. 166. 185.
      168. 162. 180. 175. 175. 180. 171. 107. 102. 150. 70. 52. 79. 98.
      211. 104. 119. 172. 162. 155. 156. 163. 183. 182. 151. 165. 146.
      106. 103. 119. 124. 108. 73. 142. 224. 120. 104. 185. 170. 172.
      165. 185. 194. 185. 173. 186. 167. 104. 104. 98. 156. 148. 72.
      177. 235. 130. 107. 195. 170. 162. 172. 185. 179. 182. 176. 185.
      173. 100. 102. 111. 139. 150. 83. 178. 235. 116. 142. 195. 154.
      90. 169. 135. 109. 170. 130. 138. 140. 107. 103. 110. 127. 134.
      103. 160. 202. 116. 139. 196. 163. 114. 177. 147. 132. 175. 141.
      151. 152. 116. 105. 107. 119. 114. 129. 139. 155. 122. 117. 190.
      177. 177. 183. 182. 189. 181. 173. 185. 180. 117. 112. 113. 118.
      111. 157. 146. 130. 121. 117. 153. 146. 149. 148. 151. 153. 146.
      144. 150. 151. 116. 117. 117. 120. 110. 175. 156. 119. 119. 122.
      124. 120. 119. 120. 121. 118. 118. 118. 118. 124.</_>
    <_>
      1. 1. 1. 1. 1. 1. 1. 1. 1. 1. 1. 1. 1. 1. 1. 1. 1. 1. 1. 1. 1. 1.
      1. 1. 1. 1. 1. 1. 1. 1. 1. 1. 1. 1. 1. 1. 1. 1. 1. 1. 1. 1. 1. 1.
      1. 1. 1. 1. 1. 1. 1. 1. 1. 1. 1. 1. 1. 1. 1. 1. 1. 1. 1. 1. 1. 1.
      1. 1. 1. 1. 1. 1. 1. 1. 1. 1. 1. 1. 1. 1. 1. 1. 1. 1. 1. 1. 1. 1.
      1. 1. 1. 1. 1. 1. 1. 1. 1. 1. 1. 1. 1. 1. 1. 1. 1. 1. 1. 1. 1. 1.
      1. 1. 1. 1. 1. 1. 1. 1. 1. 1. 1. 1. 1. 1. 1. 1. 1. 1. 1. 1. 1. 1.
      1. 1. 1. 1. 1. 1. 1. 1. 1. 1. 1. 1. 1. 1. 1. 1. 1. 1. 1. 1. 1. 1.
      1. 1. 1. 1. 1. 1. 1. 1. 1. 1. 1. 1. 1. 1. 1. 1. 1. 1. 1. 1. 1. 1.
      1. 43. 38. 73. 79. 87. 73. 82. 78. 73. 71. 69. 86. 71. 92. 66. 64.
      59. 31. 36. 29. 42. 44. 62. 111. 104. 91. 92. 109. 98. 68. 105.
      106. 89. 97. 98. 91. 61. 34. 35. 25. 57. 61. 76. 132. 87. 90. 116.
      105. 95. 75. 123. 94. 94. 111. 109. 90. 71. 38. 37. 34. 77. 79.
      114. 119. 41. 62. 143. 58. 54. 97. 107. 51. 81. 128. 77. 54. 88.
      42. 45. 55. 59. 74. 174. 46. 34. 54. 116. 27. 17. 136. 55. 34. 51.
      130. 23. 32. 72. 54. 59. 76. 88. 84. 166. 32. 31. 88. 89. 33. 33.
      157. 56. 34. 78. 108. 28. 25. 47. 60. 63. 68. 100. 95. 124. 33.
      29. 114. 73. 37. 49. 155. 68. 33. 114. 78. 38. 24. 30. 76. 70. 72.
      78. 99. 72. 38. 32. 121. 69. 36. 51. 123. 82. 30. 139. 51. 38. 26.
      27. 95. 69. 77. 31. 74. 54. 35. 33. 110. 64. 50. 47. 77. 103. 30.
      138. 42. 31. 36. 26. 90. 39. 34. 26. 64. 44. 35. 32. 116. 63. 57.
      50. 62. 122. 32. 139. 47. 35. 39. 30. 93. 21. 17. 27. 65. 38. 33.
      32. 122. 65. 52. 50. 68. 129. 32. 134. 54. 44. 30. 32. 106. 15.
      17. 31. 69. 35. 28. 33. 121. 78. 41. 47. 87. 117. 33. 121. 60. 51.
      17. 34. 122. 21. 22. 61. 74. 45. 29. 33. 107. 106. 38. 45. 102.
      110. 37. 102. 74. 54. 17. 45. 142. 28. 17. 65. 82. 60. 29. 38.
      101. 141. 36. 41. 126. 106. 33. 82. 106. 43. 26. 58. 147. 28. 23.
      69. 87. 74. 35. 47. 104. 156. 33. 38. 144. 94. 27. 71. 128. 32.
      30. 70. 126. 28. 39. 82. 90. 87. 49. 64. 115. 146. 34. 43. 155.
      76. 26. 73. 138. 27. 31. 81. 83. 39. 61. 96. 97. 106. 77. 84. 123.
      116. 57. 74. 155. 60. 53. 103. 133. 51. 42. 109. 48. 78. 84. 49.
      54. 85. 109. 101. 117. 109. 85. 108. 110. 87. 90. 115. 102. 78.
      84. 102. 34. 53. 51. 23. 29. 53. 112. 98. 87. 89. 97. 105. 62. 97.
      101. 94. 63. 86. 98. 74. 28. 26. 24. 27. 28. 27. 90. 80. 44. 60.
      90. 73. 29. 83. 86. 61. 34. 77. 86. 43. 20. 17. 16.</_>
    <_>
      1. 1. 1. 1. 1. 1. 1. 1. 1. 1. 1. 1. 1. 1. 1. 1. 1. 1. 1. 1. 1. 1.
      1. 1. 1. 1. 1. 1. 1. 1. 1. 1. 1. 1. 1. 1. 1. 1. 1. 1. 1. 1. 1. 1.
      1. 1. 1. 1. 1. 1. 1. 1. 1. 1. 1. 1. 1. 1. 1. 1. 1. 1. 1. 1. 1. 1.
      1. 1. 1. 1. 1. 1. 1. 1. 1. 1. 1. 1. 1. 1. 1. 1. 1. 1. 1. 1. 1. 1.
      1. 1. 1. 1. 1. 1. 1. 1. 1. 1. 1. 1. 1. 1. 1. 1. 1. 1. 1. 1. 1. 1.
      1. 1. 1. 1. 1. 1. 1. 1. 1. 1. 1. 1. 1. 1. 1. 1. 1. 1. 1. 1. 1. 1.
      1. 1. 1. 1. 1. 1. 1. 1. 1. 1. 1. 1. 1. 1. 1. 1. 1. 1. 1. 1. 1. 1.
      1. 1. 1. 1. 1. 1. 1. 1. 1. 1. 1. 1. 1. 1. 1. 1. 1. 1. 1. 1. 1. 1.
      1. 37. 123. 79. 46. 56. 47. 62. 60. 58. 53. 53. 52. 52. 70. 125.
      149. 89. 87. 38. 37. 48. 121. 51. 47. 54. 53. 55. 53. 59. 64. 53.
      55. 53. 98. 192. 169. 108. 97. 40. 40. 49. 52. 46. 52. 51. 62. 53.
      54. 46. 88. 58. 60. 52. 120. 232. 239. 168. 106. 34. 41. 45. 57.
      48. 52. 50. 59. 52. 56. 55. 62. 52. 57. 54. 101. 189. 237. 149.
      105. 41. 45. 59. 43. 50. 49. 49. 50. 50. 63. 62. 60. 62. 56. 52.
      74. 165. 236. 147. 101. 51. 50. 47. 53. 51. 56. 60. 52. 54. 60.
      65. 58. 59. 52. 68. 88. 142. 154. 224. 105. 47. 46. 49. 51. 60.
      78. 87. 59. 58. 62. 65. 58. 64. 49. 59. 107. 88. 84. 220. 123. 46.
      48. 47. 46. 52. 68. 62. 67. 55. 64. 55. 58. 66. 49. 42. 61. 69.
      112. 196. 146. 52. 46. 55. 49. 50. 48. 50. 58. 59. 60. 69. 66. 84.
      89. 142. 104. 133. 196. 202. 152. 65. 54. 70. 64. 74. 71. 83. 78.
      111. 110. 132. 120. 147. 148. 239. 132. 156. 215. 203. 143. 60.
      74. 125. 101. 119. 107. 123. 119. 159. 152. 168. 137. 158. 145.
      220. 140. 162. 208. 193. 136. 67. 79. 143. 107. 136. 123. 132.
      116. 176. 175. 183. 129. 148. 129. 167. 126. 163. 186. 166. 100.
      46. 45. 121. 103. 154. 128. 133. 102. 163. 185. 199. 126. 139.
      119. 147. 149. 188. 165. 107. 69. 26. 18. 103. 116. 131. 112. 129.
      119. 139. 139. 183. 109. 147. 92. 104. 108. 108. 98. 53. 51. 22.
      24. 96. 109. 100. 93. 100. 98. 95. 86. 89. 50. 59. 38. 33. 45. 66.
      57. 23. 45. 20. 23. 36. 38. 35. 42. 38. 34. 35. 33. 45. 32. 24.
      21. 18. 20. 37. 27. 30. 37. 19. 25. 26. 32. 32. 32. 29. 30. 34.
      34. 40. 33. 18. 12. 16. 20. 49. 28. 22. 41. 20. 20. 28. 23. 27.
      30. 33. 34. 35. 37. 37. 29. 17. 14. 18. 21. 47. 32. 30. 56. 33.
      40. 22. 28. 27. 25. 35. 33. 34. 34. 38. 27. 14. 11. 19. 28. 56.
      63. 42. 52. 42. 43. 21. 24. 25. 25. 28. 28. 30. 34. 29. 32. 23.
      20. 26. 43. 71. 52. 27. 36. 26. 21.</_>
    <_>
      1. 1. 1. 1. 1. 1. 1. 1. 1. 1. 1. 1. 1. 1. 1. 1. 1. 1. 1. 1. 1. 1.
      1. 1. 1. 1. 1. 1. 1. 1. 1. 1. 1. 1. 1. 1. 1. 1. 1. 1. 1. 1. 1. 1.
      1. 1. 1. 1. 1. 1. 1. 1. 1. 1. 1. 1. 1. 1. 1. 1. 1. 1. 1. 1. 1. 1.
      1. 1. 1. 1. 1. 1. 1. 1. 1. 1. 1. 1. 1. 1. 1. 1. 1. 1. 1. 1. 1. 1.
      1. 1. 1. 1. 1. 1. 1. 1. 1. 1. 1. 1. 1. 1. 1. 1. 1. 1. 1. 1. 1. 1.
      1. 1. 1. 1. 1. 1. 1. 1. 1. 1. 1. 1. 1. 1. 1. 1. 1. 1. 1. 1. 1. 1.
      1. 1. 1. 1. 1. 1. 1. 1. 1. 1. 1. 1. 1. 1. 1. 1. 1. 1. 1. 1. 1. 1.
      1. 1. 1. 1. 1. 1. 1. 1. 1. 1. 1. 1. 1. 1. 1. 1. 1. 1. 1. 1. 1. 1.
      1. 37. 20. 27. 85. 101. 109. 38. 27. 23. 30. 110. 103. 112. 99.
      92. 14. 9. 13. 30. 37. 33. 24. 17. 104. 106. 73. 6. 15. 21. 66.
      111. 106. 90. 116. 107. 21. 10. 14. 31. 35. 20. 19. 25. 106. 109.
      60. 44. 45. 21. 99. 103. 66. 34. 115. 106. 47. 12. 14. 32. 32. 68.
      21. 30. 104. 110. 84. 101. 77. 26. 111. 109. 38. 43. 87. 106. 84.
      9. 13. 34. 28. 104. 29. 24. 71. 91. 110. 108. 59. 34. 105. 101.
      50. 83. 62. 105. 108. 8. 14. 34. 24. 44. 24. 27. 30. 80. 105. 76.
      53. 51. 104. 93. 63. 68. 73. 106. 110. 11. 15. 32. 19. 20. 25. 27.
      36. 107. 82. 90. 92. 75. 106. 99. 80. 86. 95. 110. 108. 14. 15.
      28. 16. 24. 25. 21. 74. 106. 37. 108. 107. 89. 107. 71. 91. 72.
      79. 105. 110. 15. 28. 21. 19. 20. 18. 28. 98. 103. 39. 83. 100.
      87. 111. 44. 84. 94. 84. 104. 103. 44. 34. 29. 20. 15. 16. 25. 98.
      112. 94. 46. 52. 89. 105. 56. 95. 106. 90. 102. 108. 108. 66. 33.
      42. 17. 22. 19. 56. 82. 105. 32. 22. 107. 102. 94. 105. 117. 120.
      97. 108. 130. 141. 79. 56. 20. 23. 57. 31. 71. 106. 44. 33. 103.
      83. 83. 105. 124. 141. 103. 105. 90. 151. 137. 65. 20. 21. 111.
      46. 75. 104. 85. 48. 104. 76. 84. 107. 120. 144. 112. 106. 52.
      149. 142. 44. 19. 18. 98. 46. 78. 112. 43. 25. 92. 60. 87. 111.
      126. 154. 110. 106. 47. 150. 137. 43. 20. 16. 43. 23. 79. 98. 17.
      16. 85. 54. 79. 130. 147. 158. 115. 113. 68. 149. 129. 40. 18. 16.
      17. 16. 76. 104. 16. 13. 83. 55. 92. 140. 153. 151. 112. 111. 129.
      143. 114. 42. 18. 19. 17. 19. 69. 104. 17. 15. 73. 53. 116. 146.
      151. 150. 114. 121. 132. 142. 82. 45. 18. 16. 16. 16. 53. 93. 18.
      14. 55. 66. 136. 147. 150. 149. 118. 135. 138. 120. 50. 44. 17.
      16. 14. 15. 37. 75. 20. 11. 33. 81. 144. 149. 153. 151. 124. 145.
      133. 77. 38. 44. 18. 18. 17. 18. 25. 53. 24. 11. 19. 74. 147. 146.
      147. 154. 138. 155. 110. 54. 48. 47.</_>
    <_>
      1. 1. 1. 1. 1. 1. 1. 1. 1. 1. 1. 1. 1. 1. 1. 1. 1. 1. 1. 1. 1. 1.
      1. 1. 1. 1. 1. 1. 1. 1. 1. 1. 1. 1. 1. 1. 1. 1. 1. 1. 1. 1. 1. 1.
      1. 1. 1. 1. 1. 1. 1. 1. 1. 1. 1. 1. 1. 1. 1. 1. 1. 1. 1. 1. 1. 1.
      1. 1. 1. 1. 1. 1. 1. 1. 1. 1. 1. 1. 1. 1. 1. 1. 1. 1. 1. 1. 1. 1.
      1. 1. 1. 1. 1. 1. 1. 1. 1. 1. 1. 1. 1. 1. 1. 1. 1. 1. 1. 1. 1. 1.
      1. 1. 1. 1. 1. 1. 1. 1. 1. 1. 1. 1. 1. 1. 1. 1. 1. 1. 1. 1. 1. 1.
      1. 1. 1. 1. 1. 1. 1. 1. 1. 1. 1. 1. 1. 1. 1. 1. 1. 1. 1. 1. 1. 1.
      1. 1. 1. 1. 1. 1. 1. 1. 1. 1. 1. 1. 1. 1. 1. 1. 1. 1. 1. 1. 1. 1.
      1. 25. 25. 69. 87. 23. 37. 27. 61. 95. 119. 110. 101. 99. 96. 79.
      61. 53. 51. 50. 51. 27. 30. 93. 63. 41. 32. 24. 78. 101. 112. 117.
      98. 100. 95. 85. 63. 53. 52. 48. 60. 29. 30. 98. 43. 40. 25. 31.
      88. 99. 99. 128. 99. 101. 98. 87. 59. 52. 50. 52. 59. 34. 32. 105.
      38. 34. 23. 52. 102. 99. 94. 134. 96. 99. 101. 90. 63. 51. 52. 52.
      52. 30. 39. 109. 37. 29. 26. 71. 107. 86. 90. 110. 96. 96. 99. 91.
      63. 48. 49. 60. 46. 40. 55. 103. 33. 28. 43. 78. 107. 77. 87. 106.
      97. 96. 97. 91. 63. 50. 52. 52. 64. 59. 64. 98. 26. 30. 60. 80.
      108. 79. 85. 122. 96. 96. 96. 94. 65. 48. 56. 52. 59. 56. 54. 95.
      24. 34. 68. 80. 101. 75. 78. 115. 92. 93. 95. 92. 65. 45. 54. 51.
      59. 33. 40. 97. 28. 41. 63. 79. 103. 86. 82. 105. 94. 104. 110.
      93. 78. 70. 63. 57. 53. 24. 36. 101. 34. 46. 57. 77. 116. 115. 93.
      123. 100. 123. 127. 99. 100. 109. 83. 54. 55. 26. 32. 108. 35. 36.
      60. 72. 118. 114. 101. 116. 90. 124. 121. 109. 99. 94. 109. 50.
      51. 33. 32. 109. 39. 43. 59. 73. 105. 84. 106. 116. 88. 113. 107.
      108. 78. 64. 109. 53. 54. 40. 33. 101. 51. 53. 56. 76. 100. 74.
      109. 117. 86. 108. 97. 105. 79. 80. 106. 53. 67. 41. 40. 84. 78.
      52. 59. 73. 102. 81. 108. 117. 85. 109. 98. 104. 104. 115. 111.
      46. 78. 39. 45. 63. 102. 54. 59. 70. 98. 80. 109. 119. 88. 107.
      95. 105. 114. 90. 119. 53. 58. 39. 47. 45. 115. 80. 53. 70. 102.
      84. 111. 121. 90. 100. 85. 107. 111. 52. 118. 51. 52. 42. 48. 42.
      90. 107. 74. 76. 106. 86. 111. 120. 87. 98. 83. 107. 109. 61. 113.
      58. 44. 46. 48. 49. 62. 106. 109. 77. 103. 77. 109. 117. 83. 98.
      89. 102. 106. 84. 114. 49. 55. 49. 53. 57. 54. 65. 111. 66. 105.
      78. 105. 122. 86. 96. 92. 96. 102. 110. 111. 46. 70. 49. 51. 55.
      49. 53. 67. 64. 90. 74. 99. 112. 86. 93. 92. 91. 78. 89. 100. 51.
      54.</_>
    <_>
      1. 1. 1. 1. 1. 1. 1. 1. 1. 1. 1. 1. 1. 1. 1. 1. 1. 1. 1. 1. 1. 1.
      1. 1. 1. 1. 1. 1. 1. 1. 1. 1. 1. 1. 1. 1. 1. 1. 1. 1. 1. 1. 1. 1.
      1. 1. 1. 1. 1. 1. 1. 1. 1. 1. 1. 1. 1. 1. 1. 1. 1. 1. 1. 1. 1. 1.
      1. 1. 1. 1. 1. 1. 1. 1. 1. 1. 1. 1. 1. 1. 1. 1. 1. 1. 1. 1. 1. 1.
      1. 1. 1. 1. 1. 1. 1. 1. 1. 1. 1. 1. 1. 1. 1. 1. 1. 1. 1. 1. 1. 1.
      1. 1. 1. 1. 1. 1. 1. 1. 1. 1. 1. 1. 1. 1. 1. 1. 1. 1. 1. 1. 1. 1.
      1. 1. 1. 1. 1. 1. 1. 1. 1. 1. 1. 1. 1. 1. 1. 1. 1. 1. 1. 1. 1. 1.
      1. 1. 1. 1. 1. 1. 1. 1. 1. 1. 1. 1. 1. 1. 1. 1. 1. 1. 1. 1. 1. 1.
      1. 152. 153. 161. 164. 154. 175. 179. 151. 175. 170. 143. 148.
      135. 156. 132. 137. 150. 152. 21. 12. 157. 144. 205. 200. 149.
      209. 192. 127. 160. 173. 109. 123. 121. 158. 103. 136. 152. 111.
      21. 14. 154. 102. 197. 170. 117. 197. 189. 118. 150. 149. 131. 99.
      129. 124. 75. 147. 154. 45. 28. 15. 152. 99. 201. 129. 91. 202.
      191. 130. 121. 129. 150. 122. 122. 118. 119. 158. 156. 36. 31. 26.
      157. 120. 157. 137. 135. 148. 144. 149. 148. 149. 159. 157. 151.
      153. 148. 146. 137. 49. 33. 16. 156. 156. 159. 159. 156. 148. 150.
      149. 144. 135. 129. 118. 109. 102. 97. 98. 72. 22. 11. 8. 135.
      130. 119. 116. 111. 113. 98. 100. 94. 69. 64. 71. 75. 83. 104.
      136. 47. 9. 7. 8. 106. 108. 98. 99. 102. 104. 103. 104. 111. 79.
      84. 96. 110. 125. 144. 160. 13. 13. 15. 19. 119. 120. 123. 121.
      123. 126. 122. 127. 128. 100. 110. 120. 136. 147. 154. 160. 8. 18.
      26. 53. 125. 136. 133. 135. 137. 137. 137. 142. 134. 121. 130.
      137. 148. 154. 161. 145. 9. 16. 28. 63. 135. 143. 142. 149. 148.
      150. 148. 154. 144. 139. 143. 148. 157. 160. 160. 109. 21. 22. 23.
      39. 144. 149. 154. 153. 153. 157. 155. 160. 149. 150. 151. 155.
      160. 162. 159. 66. 48. 47. 31. 20. 151. 157. 161. 158. 162. 164.
      163. 164. 153. 157. 157. 160. 162. 165. 164. 32. 64. 69. 52. 23.
      158. 161. 162. 167. 159. 168. 170. 170. 158. 161. 162. 163. 165.
      166. 168. 21. 64. 61. 46. 23. 163. 166. 165. 145. 122. 173. 173.
      173. 163. 163. 164. 164. 165. 165. 167. 22. 52. 42. 31. 18. 165.
      172. 171. 66. 120. 164. 176. 170. 168. 167. 166. 167. 166. 165.
      131. 19. 32. 20. 21. 16. 167. 168. 174. 46. 140. 158. 171. 170.
      170. 170. 168. 168. 168. 164. 68. 31. 27. 16. 17. 16. 169. 170.
      168. 58. 119. 175. 178. 173. 172. 171. 170. 168. 168. 169. 20. 35.
      35. 15. 18. 19. 172. 175. 171. 139. 118. 178. 180. 174. 173. 172.
      172. 170. 167. 166. 10. 37. 28. 18. 15. 14. 175. 173. 183. 174.
      169. 170. 180. 170. 174. 173. 172. 171. 167. 155. 14. 28. 38. 51.
      68. 84.</_>
    <_>
      1. 1. 1. 1. 1. 1. 1. 1. 1. 1. 1. 1. 1. 1. 1. 1. 1. 1. 1. 1. 1. 1.
      1. 1. 1. 1. 1. 1. 1. 1. 1. 1. 1. 1. 1. 1. 1. 1. 1. 1. 1. 1. 1. 1.
      1. 1. 1. 1. 1. 1. 1. 1. 1. 1. 1. 1. 1. 1. 1. 1. 1. 1. 1. 1. 1. 1.
      1. 1. 1. 1. 1. 1. 1. 1. 1. 1. 1. 1. 1. 1. 1. 1. 1. 1. 1. 1. 1. 1.
      1. 1. 1. 1. 1. 1. 1. 1. 1. 1. 1. 1. 1. 1. 1. 1. 1. 1. 1. 1. 1. 1.
      1. 1. 1. 1. 1. 1. 1. 1. 1. 1. 1. 1. 1. 1. 1. 1. 1. 1. 1. 1. 1. 1.
      1. 1. 1. 1. 1. 1. 1. 1. 1. 1. 1. 1. 1. 1. 1. 1. 1. 1. 1. 1. 1. 1.
      1. 1. 1. 1. 1. 1. 1. 1. 1. 1. 1. 1. 1. 1. 1. 1. 1. 1. 1. 1. 1. 1.
      1. 178. 183. 181. 208. 177. 179. 174. 163. 152. 163. 153. 152.
      125. 127. 132. 118. 113. 138. 59. 72. 171. 166. 159. 187. 158.
      159. 161. 141. 131. 146. 153. 130. 115. 113. 131. 121. 115. 140.
      62. 119. 130. 122. 120. 161. 136. 136. 154. 127. 120. 133. 146.
      113. 117. 132. 137. 112. 115. 140. 95. 142. 88. 84. 89. 142. 124.
      122. 150. 122. 116. 130. 135. 107. 119. 149. 128. 109. 120. 137.
      132. 136. 74. 75. 83. 135. 121. 124. 141. 116. 112. 134. 127. 109.
      110. 121. 94. 132. 136. 133. 147. 127. 68. 63. 85. 123. 111. 122.
      141. 121. 115. 142. 123. 112. 125. 80. 76. 158. 132. 125. 123.
      118. 74. 70. 102. 116. 109. 119. 127. 114. 109. 149. 120. 115.
      132. 60. 63. 122. 97. 118. 114. 122. 77. 73. 115. 111. 116. 115.
      121. 114. 113. 152. 115. 115. 138. 57. 56. 91. 72. 125. 125. 133.
      79. 74. 123. 114. 119. 114. 123. 115. 130. 151. 113. 116. 143. 57.
      78. 101. 69. 128. 146. 146. 81. 76. 133. 119. 120. 123. 122. 112.
      148. 144. 113. 116. 146. 55. 121. 146. 89. 113. 159. 154. 81. 77.
      138. 113. 116. 129. 125. 144. 130. 133. 115. 115. 141. 49. 147.
      134. 141. 135. 129. 130. 79. 75. 146. 111. 115. 137. 141. 141. 94.
      131. 114. 112. 141. 79. 139. 111. 141. 138. 124. 119. 75. 73. 152.
      113. 115. 138. 124. 106. 69. 131. 109. 111. 147. 123. 124. 108.
      131. 134. 125. 131. 72. 72. 150. 117. 118. 124. 87. 69. 61. 128.
      105. 114. 139. 144. 115. 116. 131. 127. 123. 153. 73. 75. 143.
      119. 117. 104. 61. 58. 64. 119. 107. 117. 114. 124. 113. 113. 145.
      119. 117. 164. 75. 79. 136. 121. 122. 86. 67. 68. 63. 107. 117.
      111. 112. 116. 120. 111. 154. 112. 118. 155. 77. 83. 130. 120.
      129. 75. 65. 67. 63. 89. 130. 104. 112. 113. 109. 125. 147. 113.
      118. 136. 77. 84. 125. 114. 130. 66. 64. 65. 63. 67. 142. 105.
      113. 113. 107. 141. 112. 126. 115. 121. 74. 85. 132. 121. 135. 67.
      64. 65. 64. 56. 134. 121. 120. 118. 122. 133. 78. 141. 120. 129.
      72. 88. 154. 145. 148. 72. 66. 65. 64. 60. 111. 148. 128. 128.
      147. 99. 66. 152. 134. 154.</_>
    <_>
      1. 1. 1. 1. 1. 1. 1. 1. 1. 1. 1. 1. 1. 1. 1. 1. 1. 1. 1. 1. 1. 1.
      1. 1. 1. 1. 1. 1. 1. 1. 1. 1. 1. 1. 1. 1. 1. 1. 1. 1. 1. 1. 1. 1.
      1. 1. 1. 1. 1. 1. 1. 1. 1. 1. 1. 1. 1. 1. 1. 1. 1. 1. 1. 1. 1. 1.
      1. 1. 1. 1. 1. 1. 1. 1. 1. 1. 1. 1. 1. 1. 1. 1. 1. 1. 1. 1. 1. 1.
      1. 1. 1. 1. 1. 1. 1. 1. 1. 1. 1. 1. 1. 1. 1. 1. 1. 1. 1. 1. 1. 1.
      1. 1. 1. 1. 1. 1. 1. 1. 1. 1. 1. 1. 1. 1. 1. 1. 1. 1. 1. 1. 1. 1.
      1. 1. 1. 1. 1. 1. 1. 1. 1. 1. 1. 1. 1. 1. 1. 1. 1. 1. 1. 1. 1. 1.
      1. 1. 1. 1. 1. 1. 1. 1. 1. 1. 1. 1. 1. 1. 1. 1. 1. 1. 1. 1. 1. 1.
      1. 93. 101. 132. 188. 184. 167. 193. 197. 184. 203. 194. 89. 82.
      87. 83. 78. 78. 75. 79. 67. 92. 103. 118. 220. 168. 187. 189. 179.
      182. 194. 191. 112. 84. 80. 77. 69. 68. 65. 61. 46. 87. 99. 105.
      210. 156. 188. 165. 170. 166. 187. 167. 135. 85. 64. 70. 60. 52.
      48. 42. 35. 72. 81. 103. 174. 149. 162. 121. 158. 153. 183. 149.
      151. 74. 48. 58. 50. 46. 37. 30. 36. 49. 48. 112. 138. 137. 121.
      80. 130. 147. 167. 162. 160. 57. 44. 39. 40. 55. 37. 26. 41. 41.
      41. 120. 121. 116. 99. 102. 112. 105. 126. 173. 180. 59. 46. 35.
      47. 64. 38. 24. 36. 39. 36. 121. 106. 94. 81. 130. 109. 92. 107.
      169. 186. 59. 49. 28. 35. 47. 30. 30. 35. 37. 37. 114. 101. 81.
      77. 117. 97. 89. 94. 151. 170. 56. 50. 31. 30. 34. 32. 40. 38. 39.
      42. 104. 104. 77. 83. 87. 84. 88. 91. 131. 143. 58. 49. 40. 38.
      39. 40. 46. 41. 47. 54. 100. 108. 82. 96. 81. 92. 90. 103. 122.
      123. 65. 48. 43. 51. 57. 43. 41. 40. 48. 49. 106. 107. 96. 103.
      108. 105. 77. 93. 127. 125. 69. 41. 31. 39. 53. 40. 33. 36. 36.
      28. 111. 110. 114. 106. 131. 123. 101. 112. 134. 144. 70. 34. 27.
      32. 50. 45. 34. 33. 37. 23. 113. 114. 131. 111. 127. 127. 144.
      144. 141. 167. 70. 32. 25. 28. 48. 46. 33. 30. 43. 26. 107. 114.
      154. 122. 122. 143. 169. 179. 135. 174. 72. 30. 28. 29. 57. 45.
      30. 28. 43. 27. 88. 116. 183. 149. 142. 174. 170. 211. 134. 157.
      72. 26. 34. 29. 70. 46. 34. 26. 41. 28. 60. 143. 178. 176. 164.
      169. 207. 221. 199. 128. 60. 28. 32. 29. 63. 43. 33. 27. 44. 32.
      54. 168. 138. 188. 226. 221. 237. 214. 227. 85. 47. 35. 29. 27.
      51. 37. 29. 28. 46. 38. 40. 138. 145. 167. 206. 225. 204. 206.
      189. 55. 46. 39. 29. 28. 44. 36. 26. 30. 45. 40. 35. 83. 166. 152.
      162. 180. 167. 193. 118. 41. 46. 37. 31. 28. 42. 40. 24. 32. 41.
      37. 54. 47. 149. 180. 165. 135. 183. 171. 61. 42. 45. 32. 30. 26.
      43. 42. 24. 33.</_>
    <_>
      1. 1. 1. 1. 1. 1. 1. 1. 1. 1. 1. 1. 1. 1. 1. 1. 1. 1. 1. 1. 1. 1.
      1. 1. 1. 1. 1. 1. 1. 1. 1. 1. 1. 1. 1. 1. 1. 1. 1. 1. 1. 1. 1. 1.
      1. 1. 1. 1. 1. 1. 1. 1. 1. 1. 1. 1. 1. 1. 1. 1. 1. 1. 1. 1. 1. 1.
      1. 1. 1. 1. 1. 1. 1. 1. 1. 1. 1. 1. 1. 1. 1. 1. 1. 1. 1. 1. 1. 1.
      1. 1. 1. 1. 1. 1. 1. 1. 1. 1. 1. 1. 1. 1. 1. 1. 1. 1. 1. 1. 1. 1.
      1. 1. 1. 1. 1. 1. 1. 1. 1. 1. 1. 1. 1. 1. 1. 1. 1. 1. 1. 1. 1. 1.
      1. 1. 1. 1. 1. 1. 1. 1. 1. 1. 1. 1. 1. 1. 1. 1. 1. 1. 1. 1. 1. 1.
      1. 1. 1. 1. 1. 1. 1. 1. 1. 1. 1. 1. 1. 1. 1. 1. 1. 1. 1. 1. 1. 1.
      1. 101. 110. 89. 100. 100. 100. 83. 84. 93. 101. 96. 86. 97. 110.
      102. 107. 95. 95. 110. 108. 95. 98. 94. 101. 80. 89. 83. 90. 98.
      82. 90. 133. 111. 105. 155. 158. 108. 110. 111. 110. 86. 89. 100.
      107. 93. 94. 87. 123. 133. 77. 121. 172. 147. 119. 195. 190. 139.
      118. 112. 110. 76. 87. 103. 123. 167. 140. 102. 181. 191. 114.
      194. 162. 197. 169. 173. 145. 190. 107. 113. 110. 86. 94. 91. 173.
      173. 193. 143. 139. 130. 193. 146. 125. 134. 189. 122. 107. 171.
      103. 108. 108. 97. 100. 95. 179. 132. 175. 179. 99. 82. 224. 98.
      105. 96. 187. 100. 97. 133. 108. 104. 107. 103. 99. 119. 130. 72.
      97. 193. 82. 79. 189. 85. 110. 107. 170. 102. 113. 94. 120. 106.
      106. 100. 93. 153. 98. 88. 85. 198. 92. 93. 150. 94. 107. 125.
      159. 95. 113. 92. 133. 113. 106. 101. 93. 178. 90. 97. 108. 183.
      93. 99. 115. 121. 109. 144. 145. 97. 108. 94. 142. 109. 104. 101.
      96. 185. 96. 104. 143. 161. 92. 101. 102. 151. 115. 159. 139. 101.
      102. 97. 145. 101. 104. 97. 81. 147. 102. 98. 151. 157. 99. 100.
      159. 169. 115. 152. 165. 87. 102. 87. 139. 110. 101. 98. 88. 167.
      102. 91. 150. 170. 97. 102. 185. 138. 104. 137. 188. 88. 108. 98.
      133. 103. 100. 98. 93. 188. 97. 90. 146. 182. 97. 101. 196. 110.
      98. 118. 205. 92. 108. 115. 123. 102. 102. 94. 87. 192. 88. 99.
      137. 191. 94. 90. 204. 110. 110. 95. 206. 93. 95. 138. 107. 116.
      105. 93. 87. 184. 86. 101. 91. 199. 89. 82. 205. 100. 85. 100.
      205. 77. 77. 163. 95. 88. 79. 94. 94. 164. 86. 94. 78. 203. 85.
      88. 179. 136. 95. 131. 168. 119. 115. 147. 88. 62. 49. 93. 99.
      127. 104. 88. 102. 190. 97. 113. 130. 191. 139. 168. 98. 184. 179.
      95. 84. 44. 23. 82. 94. 75. 182. 119. 156. 118. 174. 172. 76. 126.
      169. 120. 52. 113. 125. 66. 76. 29. 22. 65. 74. 62. 161. 142. 137.
      77. 141. 136. 51. 69. 118. 79. 47. 69. 81. 68. 53. 27. 26. 51. 54.
      69. 101. 152. 92. 59. 71. 62. 46. 41. 46. 60. 57. 56. 58. 78. 34.
      32. 26.</_>
    <_>
      9.69696999e-001 9.69696999e-001 1. 1. 1. 1. 1. 1. 1. 1. 1. 1. 1.
      1. 1. 1. 1. 1. 1. 1. 1. 1. 1. 1. 1. 1. 1. 1. 1. 1. 1. 1. 1. 1. 1.
      1. 1. 1. 1. 1. 1. 1. 1. 1. 1. 1. 1. 1. 1. 1. 1. 1. 1. 1. 1. 1. 1.
      1. 1. 1. 1. 1. 1. 1. 1. 1. 1. 1. 1. 1. 1. 1. 1. 1. 1. 1. 1. 1. 1.
      1. 1. 1. 1. 1. 1. 1. 1. 1. 1. 1. 1. 1. 1. 1. 1. 1. 1. 1. 1. 1. 1.
      1. 1. 1. 1. 1. 1. 1. 1. 1. 1. 1. 1. 1. 1. 1. 1. 1. 1. 1. 1. 1. 1.
      1. 1. 1. 1. 1. 1. 1. 1. 1. 1. 1. 1. 1. 1. 1. 1. 1. 1. 1. 1. 1. 1.
      1. 1. 1. 1. 1. 1. 1. 9.86111104e-001 1. 1. 1. 1. 1. 1. 1. 1. 1. 1.
      1. 1. 1. 1. 1. 1. 1. 1. 1. 1. 1. 1. 1. 1. 9. 10. 14. 18. 14. 46.
      64. 84. 92. 87. 130. 154. 153. 147. 155. 200. 222. 229. 230. 212.
      7. 10. 14. 43. 38. 59. 79. 112. 97. 95. 183. 204. 201. 176. 157.
      176. 197. 202. 192. 171. 7. 10. 17. 78. 68. 74. 97. 132. 100. 97.
      205. 237. 238. 196. 151. 136. 150. 152. 133. 111. 9. 12. 25. 108.
      90. 87. 112. 131. 100. 85. 141. 204. 212. 174. 131. 93. 85. 87.
      76. 57. 5. 12. 30. 98. 86. 87. 115. 177. 103. 78. 101. 138. 139.
      125. 89. 68. 58. 58. 61. 49. 4. 19. 50. 85. 72. 86. 132. 204. 105.
      87. 79. 90. 88. 110. 73. 58. 52. 45. 53. 48. 10. 33. 82. 79. 54.
      84. 158. 195. 104. 103. 72. 69. 73. 138. 90. 59. 58. 44. 44. 47.
      18. 43. 72. 69. 58. 78. 140. 140. 89. 100. 76. 74. 70. 171. 145.
      66. 52. 53. 55. 53. 15. 37. 59. 70. 56. 75. 156. 107. 79. 82. 77.
      71. 72. 164. 169. 70. 52. 51. 56. 48. 9. 28. 50. 81. 50. 78. 181.
      94. 71. 56. 72. 66. 73. 134. 168. 71. 55. 45. 54. 39. 14. 28. 47.
      97. 42. 93. 168. 88. 66. 45. 61. 66. 63. 93. 122. 76. 52. 50. 52.
      42. 16. 29. 44. 100. 45. 98. 147. 89. 73. 53. 62. 66. 70. 68. 111.
      70. 52. 44. 49. 43. 17. 27. 42. 94. 49. 87. 120. 86. 80. 61. 66.
      66. 73. 63. 104. 73. 53. 39. 48. 41. 17. 26. 40. 78. 48. 69. 84.
      77. 79. 68. 69. 68. 62. 83. 86. 90. 53. 45. 46. 36. 17. 23. 37.
      56. 40. 54. 65. 66. 73. 67. 63. 58. 53. 78. 68. 132. 60. 48. 43.
      38. 17. 21. 35. 41. 35. 46. 57. 60. 69. 65. 55. 46. 43. 70. 63.
      152. 95. 46. 42. 43. 17. 19. 33. 37. 34. 42. 61. 61. 67. 62. 47.
      35. 31. 63. 71. 136. 142. 40. 41. 49. 17. 17. 30. 41. 33. 39. 56.
      60. 66. 62. 47. 35. 34. 60. 62. 105. 118. 48. 45. 48. 18. 13. 26.
      39. 35. 34. 48. 57. 61. 59. 50. 42. 45. 58. 56. 97. 90. 55. 46.
      39. 17. 10. 24. 35. 37. 30. 44. 52. 57. 57. 53. 50. 55. 55. 53.
      101. 74. 61. 48. 29.</_>
    <_>
      1. 1. 1. 1. 1. 1. 1. 1. 1. 1. 1. 1. 1. 1. 9.39393997e-001
      9.39393997e-001 9.39393997e-001 9.39393997e-001 9.39393997e-001
      9.69696999e-001 9.39393997e-001 9.39393997e-001 9.39393997e-001
      9.69696999e-001 1. 9.69696999e-001 1. 9.69696999e-001 1.
      9.69696999e-001 1. 1. 9.69696999e-001 9.39393997e-001
      9.39393997e-001 9.39393997e-001 9.39393997e-001 9.39393997e-001
      9.69696999e-001 9.39393997e-001 1. 1. 1. 1. 1. 1. 1. 1. 1. 1. 1.
      1. 1. 1. 1. 1. 1. 1. 1. 1. 9.39393997e-001 9.39393997e-001
      9.39393997e-001 9.39393997e-001 9.39393997e-001 1. 9.69696999e-001
      1. 1. 9.69696999e-001 9.39393997e-001 9.69696999e-001
      9.39393997e-001 9.39393997e-001 9.69696999e-001 9.39393997e-001
      9.39393997e-001 9.69696999e-001 9.69696999e-001 1. 1. 1.
      9.69696999e-001 9.39393997e-001 9.69696999e-001 9.39393997e-001
      9.69696999e-001 9.39393997e-001 9.69696999e-001 9.69696999e-001 1.
      9.69696999e-001 9.39393997e-001 9.39393997e-001 1. 1. 1. 1. 1. 1.
      1. 1. 1. 1. 1. 1. 1. 1. 1. 1. 1. 1. 1. 1. 1. 1. 1. 1. 1. 1. 1. 1.
      1. 1. 1. 1. 1. 1. 1. 1. 1. 1. 1. 1. 1. 1. 1. 1. 1. 1. 1. 1. 1. 1.
      1. 1. 1. 1. 1. 1. 1. 1. 1. 1. 1. 1. 1. 1. 1. 1. 1. 1. 1. 1. 1. 1.
      1. 1. 1. 1. 1. 1. 1. 1. 1. 7.56944478e-001 7.08333313e-001 60. 56.
      30. 26. 27. 28. 23. 27. 27. 27. 31. 22. 25. 23. 27. 26. 28. 35.
      47. 49. 53. 48. 56. 52. 52. 53. 51. 56. 53. 52. 55. 50. 54. 52.
      55. 52. 46. 32. 47. 46. 36. 32. 122. 114. 120. 123. 118. 126. 120.
      115. 120. 117. 123. 126. 122. 115. 94. 25. 46. 39. 21. 17. 182.
      169. 180. 178. 182. 183. 176. 173. 171. 181. 178. 183. 174. 168.
      140. 19. 45. 32. 16. 11. 214. 181. 211. 181. 213. 168. 173. 200.
      152. 211. 157. 172. 144. 154. 159. 10. 41. 25. 12. 10. 240. 190.
      240. 177. 236. 158. 169. 221. 135. 235. 133. 159. 119. 144. 174.
      4. 36. 19. 9. 5. 238. 192. 233. 135. 201. 164. 154. 200. 105. 226.
      95. 113. 109. 141. 176. 7. 35. 17. 7. 4. 231. 190. 221. 83. 153.
      172. 138. 170. 75. 206. 55. 63. 101. 140. 173. 15. 34. 14. 10. 5.
      207. 160. 218. 89. 167. 149. 109. 155. 63. 199. 38. 50. 101. 150.
      168. 18. 31. 12. 14. 7. 181. 120. 218. 119. 205. 113. 75. 144. 60.
      198. 33. 51. 100. 164. 162. 19. 28. 10. 14. 7. 181. 128. 220. 147.
      208. 97. 61. 143. 47. 205. 50. 79. 103. 170. 159. 22. 32. 17. 10.
      5. 205. 191. 228. 177. 174. 105. 65. 153. 29. 218. 94. 133. 108.
      172. 165. 26. 44. 32. 8. 5. 215. 226. 224. 179. 141. 100. 67. 167.
      16. 222. 129. 180. 105. 158. 167. 29. 51. 41. 15. 11. 180. 202.
      193. 111. 115. 71. 60. 186. 25. 201. 152. 214. 86. 112. 165. 32.
      48. 35. 23. 16. 155. 185. 170. 65. 99. 58. 64. 202. 44. 186. 172.
      240. 79. 83. 164. 31. 46. 27. 34. 23. 171. 191. 179. 118. 141.
      118. 119. 210. 114. 193. 189. 228. 133. 125. 161. 21. 43. 16. 45.
      31. 193. 201. 195. 184. 189. 188. 183. 214. 193. 204. 205. 211.
      194. 179. 158. 9. 41. 4. 34. 21. 123. 127. 124. 122. 124. 127.
      120. 134. 129. 129. 130. 131. 129. 117. 101. 8. 37. 9. 19. 9. 35.
      36. 36. 35. 36. 38. 35. 38. 35. 37. 36. 40. 38. 35. 36. 10. 32.
      19. 13. 4. 0. 1. 0. 0. 2. 4. 0. 1. 0. 0. 1. 2. 3. 3. 10. 11. 30.
      22.</_>
    <_>
      1. 1. 1. 1. 1. 1. 1. 1. 1. 1. 1. 1. 1. 1. 1. 1. 1. 1. 1. 1. 1. 1.
      1. 1. 1. 1. 1. 1. 1. 1. 1. 1. 1. 1. 1. 1. 1. 1. 1. 1. 1. 1. 1. 1.
      1. 1. 1. 1. 1. 1. 1. 1. 1. 1. 1. 1. 1. 1. 1. 1. 1. 1. 1. 1. 1. 1.
      1. 1. 1. 1. 1. 1. 1. 1. 1. 1. 1. 1. 1. 1. 1. 1. 1. 1. 1. 1. 1. 1.
      1. 1. 1. 1. 1. 1. 9.69696999e-001 9.69696999e-001 1. 1. 1. 1. 1.
      1. 1. 1. 1. 1. 1. 1. 1. 1. 1. 1. 1. 1. 1. 1. 1. 1. 1. 1. 1. 1. 1.
      1. 1. 1. 1. 1. 1. 1. 1. 1. 1. 1. 1. 1. 1. 1. 1. 1. 1. 1. 1. 1. 1.
      1. 1. 1. 1. 1. 1. 1. 1. 9.86111104e-001 1. 1. 1. 1. 1. 1. 1. 1. 1.
      1. 1. 1. 1. 1. 1. 1. 1. 1. 1. 1. 1. 1. 1. 96. 133. 157. 177. 182.
      142. 153. 142. 105. 148. 214. 213. 227. 238. 221. 197. 198. 205.
      221. 239. 214. 200. 212. 164. 124. 107. 123. 120. 73. 120. 198.
      162. 135. 213. 158. 94. 66. 68. 126. 193. 189. 210. 199. 160. 168.
      190. 144. 81. 59. 76. 68. 45. 45. 62. 50. 50. 77. 130. 137. 208.
      204. 159. 126. 107. 70. 81. 32. 29. 29. 31. 34. 59. 132. 110. 118.
      80. 100. 172. 193. 232. 62. 44. 89. 44. 55. 61. 107. 52. 56. 80.
      73. 79. 133. 160. 152. 113. 80. 65. 113. 232. 111. 66. 180. 98.
      123. 119. 200. 130. 121. 117. 141. 47. 39. 47. 25. 33. 56. 111.
      130. 245. 215. 166. 229. 204. 155. 158. 130. 66. 198. 60. 46. 33.
      106. 71. 94. 74. 84. 174. 201. 251. 85. 47. 62. 106. 57. 181. 52.
      77. 145. 40. 44. 44. 106. 125. 151. 126. 87. 62. 121. 251. 55. 53.
      63. 58. 55. 219. 64. 71. 156. 96. 104. 75. 62. 78. 45. 40. 43. 72.
      128. 252. 104. 87. 121. 98. 123. 246. 156. 128. 154. 110. 104. 21.
      32. 42. 58. 74. 71. 166. 200. 252. 172. 127. 96. 154. 149. 248.
      169. 72. 113. 74. 86. 55. 93. 97. 119. 136. 92. 76. 138. 248. 19.
      17. 26. 52. 41. 223. 166. 72. 70. 58. 54. 65. 101. 107. 80. 48.
      36. 60. 143. 251. 75. 75. 61. 82. 72. 155. 80. 57. 73. 98. 111.
      36. 17. 27. 47. 102. 68. 149. 192. 252. 156. 191. 164. 222. 142.
      176. 56. 67. 166. 51. 57. 54. 52. 69. 81. 126. 101. 78. 151. 251.
      96. 70. 26. 103. 85. 67. 125. 82. 132. 38. 93. 44. 72. 117. 124.
      53. 32. 76. 188. 254. 34. 82. 53. 79. 42. 44. 152. 140. 74. 68.
      81. 69. 48. 31. 62. 67. 100. 186. 231. 251. 50. 84. 92. 163. 98.
      130. 133. 77. 92. 51. 66. 44. 28. 73. 154. 122. 123. 166. 235.
      247. 182. 176. 144. 111. 141. 118. 100. 38. 30. 34. 49. 74. 123.
      143. 229. 103. 133. 160. 242. 243. 35. 30. 34. 42. 27. 23. 19. 34.
      53. 84. 114. 151. 65. 50. 216. 81. 35. 97. 240. 242. 58. 70. 75.
      133. 94. 97. 105. 106. 55. 44. 100. 155. 80. 90. 38. 24. 56. 227.
      241. 242.</_>
    <_>
      1. 1. 1. 1. 1. 1. 1. 1. 1. 1. 1. 1. 1. 1. 1. 1. 1. 1. 1. 1. 1. 1.
      1. 1. 1. 1. 1. 1. 1. 1. 1. 1. 1. 1. 1. 1. 1. 1. 1. 1. 1. 1. 1. 1.
      1. 1. 1. 1. 1. 1. 1. 1. 1. 1. 1. 1. 1. 1. 1. 1. 1. 1. 1. 1. 1. 1.
      1. 1. 1. 1. 1. 1. 1. 1. 1. 1. 1. 1. 1. 1. 1. 1. 1. 1. 1. 1. 1. 1.
      1. 1. 1. 1. 1. 1. 1. 1. 1. 1. 1. 1. 1. 1. 1. 1. 1. 1. 1. 1. 1. 1.
      1. 1. 1. 1. 1. 1. 1. 1. 1. 1. 1. 1. 1. 1. 1. 1. 1. 1. 1. 1. 1. 1.
      1. 1. 1. 1. 1. 1. 1. 1. 1. 1. 1. 1. 1. 1. 1. 1. 1. 1. 1. 1. 1. 1.
      1. 1. 1. 1. 1. 1. 1. 1. 1. 1. 1. 1. 1. 1. 1. 1. 1. 1. 1. 1. 1. 1.
      1. 159. 153. 156. 161. 167. 151. 164. 151. 163. 166. 157. 159.
      164. 166. 170. 163. 173. 174. 170. 182. 174. 169. 146. 147. 172.
      135. 166. 154. 167. 160. 175. 171. 160. 171. 154. 158. 166. 164.
      169. 174. 170. 163. 166. 146. 157. 159. 170. 161. 156. 143. 153.
      159. 159. 152. 155. 153. 176. 162. 178. 170. 139. 138. 139. 142.
      157. 168. 159. 146. 140. 152. 158. 159. 164. 159. 151. 150. 169.
      165. 181. 174. 54. 57. 101. 167. 138. 140. 145. 157. 150. 176.
      150. 173. 163. 175. 159. 172. 156. 180. 175. 178. 44. 50. 96. 136.
      147. 168. 167. 167. 173. 157. 155. 165. 165. 157. 165. 174. 177.
      169. 168. 175. 46. 58. 127. 186. 161. 154. 150. 149. 170. 170.
      170. 163. 161. 158. 166. 165. 180. 172. 167. 164. 43. 62. 118.
      165. 127. 150. 164. 169. 177. 178. 161. 143. 167. 153. 160. 169.
      173. 174. 169. 174. 44. 111. 159. 137. 159. 154. 170. 158. 160.
      170. 160. 154. 161. 165. 165. 149. 164. 175. 170. 176. 45. 124.
      160. 149. 149. 152. 162. 163. 158. 166. 166. 171. 169. 175. 157.
      154. 162. 171. 170. 168. 46. 131. 160. 154. 162. 152. 172. 170.
      166. 156. 152. 170. 158. 173. 160. 172. 166. 177. 177. 165. 52.
      122. 163. 171. 163. 162. 166. 170. 161. 159. 159. 173. 152. 165.
      153. 163. 174. 171. 173. 159. 61. 120. 152. 163. 165. 165. 162.
      168. 156. 156. 172. 158. 151. 170. 168. 162. 162. 175. 164. 160.
      56. 140. 163. 172. 158. 154. 156. 159. 150. 163. 157. 155. 172.
      162. 172. 159. 166. 169. 173. 182. 59. 143. 156. 159. 165. 143.
      152. 164. 167. 153. 142. 177. 164. 163. 174. 164. 154. 174. 169.
      172. 60. 131. 161. 161. 143. 128. 161. 161. 181. 169. 188. 169.
      168. 171. 185. 159. 152. 177. 170. 170. 73. 132. 148. 170. 177.
      142. 162. 156. 152. 160. 166. 157. 170. 177. 172. 156. 160. 159.
      166. 172. 99. 142. 167. 153. 175. 163. 163. 162. 139. 173. 161.
      175. 153. 165. 184. 170. 184. 175. 172. 165. 148. 160. 159. 171.
      166. 159. 166. 161. 166. 178. 172. 176. 171. 174. 170. 172. 168.
      166. 181. 180. 153. 166. 159. 164. 163. 166. 156. 152. 154. 162.
      147. 175. 179. 176. 178. 178. 173. 184. 177. 155.</_>
    <_>
      1. 1. 1. 1. 1. 1. 1. 1. 1. 1. 1. 1. 1. 1. 1. 1. 1. 1. 1. 1. 1. 1.
      1. 1. 1. 1. 1. 1. 1. 1. 1. 1. 1. 1. 1. 1. 1. 1. 1. 1. 1. 1. 1. 1.
      1. 1. 1. 1. 1. 1. 1. 1. 1. 1. 1. 1. 1. 1. 1. 1. 1. 1. 1. 1. 1. 1.
      1. 1. 1. 1. 1. 1. 1. 1. 1. 1. 1. 1. 1. 1. 1. 1. 1. 1. 1. 1. 1. 1.
      1. 1. 1. 1. 1. 1. 1. 1. 1. 1. 1. 1. 1. 1. 1. 1. 1. 1. 1. 1. 1. 1.
      1. 1. 1. 1. 1. 1. 1. 1. 1. 1. 1. 1. 1. 1. 1. 1. 1. 1. 1. 1. 1. 1.
      1. 1. 1. 1. 1. 1. 1. 1. 1. 1. 1. 1. 1. 1. 1. 1. 1. 1. 1. 1. 1. 1.
      1. 1. 1. 1. 1. 1. 1. 1. 1. 1. 1. 1. 1. 1. 1. 1. 1. 1. 1. 1. 1. 1.
      1. 161. 157. 154. 151. 167. 176. 178. 112. 157. 94. 77. 121. 168.
      177. 184. 189. 189. 196. 198. 202. 185. 186. 184. 192. 195. 200.
      167. 100. 140. 90. 74. 132. 162. 160. 175. 189. 197. 205. 205.
      208. 215. 220. 221. 231. 223. 223. 143. 92. 118. 82. 83. 142. 157.
      136. 157. 186. 208. 214. 214. 216. 233. 233. 236. 218. 208. 213.
      105. 109. 98. 72. 122. 151. 151. 118. 128. 165. 216. 219. 218.
      218. 242. 242. 233. 181. 153. 175. 85. 103. 86. 86. 147. 154. 154.
      147. 145. 149. 195. 222. 220. 219. 247. 248. 213. 140. 98. 134.
      82. 87. 79. 118. 156. 158. 169. 192. 180. 135. 164. 221. 221. 218.
      249. 248. 171. 124. 111. 125. 95. 80. 87. 151. 149. 168. 199. 192.
      176. 115. 139. 210. 223. 211. 251. 249. 138. 121. 127. 125. 102.
      80. 114. 174. 145. 179. 206. 174. 162. 104. 139. 193. 222. 209.
      250. 248. 118. 127. 136. 123. 101. 89. 149. 185. 146. 184. 185.
      148. 149. 100. 155. 172. 217. 208. 248. 246. 113. 127. 132. 114.
      90. 116. 163. 180. 158. 168. 142. 145. 153. 112. 171. 157. 213.
      209. 246. 246. 110. 122. 123. 105. 95. 150. 173. 176. 165. 153.
      107. 146. 157. 118. 177. 153. 209. 208. 244. 244. 109. 113. 110.
      97. 112. 182. 184. 178. 167. 145. 92. 147. 159. 115. 174. 156.
      203. 206. 242. 245. 117. 117. 94. 81. 123. 198. 194. 181. 169.
      150. 114. 144. 153. 102. 175. 156. 198. 203. 240. 244. 138. 103.
      85. 78. 151. 205. 199. 179. 168. 152. 132. 147. 151. 95. 177. 153.
      196. 200. 238. 242. 173. 78. 89. 92. 200. 208. 200. 174. 166. 149.
      133. 156. 156. 103. 181. 150. 198. 200. 236. 238. 203. 118. 99.
      139. 209. 206. 207. 183. 153. 151. 113. 155. 162. 117. 174. 155.
      200. 199. 233. 233. 224. 167. 131. 183. 206. 205. 210. 193. 142.
      152. 100. 144. 167. 136. 167. 162. 198. 197. 230. 228. 226. 200.
      191. 201. 205. 206. 201. 201. 139. 152. 112. 125. 172. 152. 164.
      171. 193. 194. 226. 225. 221. 209. 203. 205. 204. 204. 198. 204.
      156. 140. 136. 141. 171. 167. 166. 173. 190. 193. 222. 222. 217.
      208. 200. 203. 204. 203. 198. 205. 174. 127. 154. 160. 168. 176.
      167. 172. 189. 193.</_>
    <_>
      1. 1. 1. 1. 1. 1. 1. 1. 1. 1. 1. 1. 1. 1. 1. 1. 1. 1. 1. 1. 1. 1.
      1. 1. 1. 1. 1. 1. 1. 1. 1. 1. 1. 1. 1. 1. 1. 1. 1. 1. 1. 1. 1. 1.
      1. 1. 1. 1. 1. 1. 1. 1. 1. 1. 1. 1. 1. 1. 1. 1. 1. 1. 1. 1. 1. 1.
      1. 1. 1. 1. 1. 1. 1. 1. 1. 1. 1. 1. 1. 1. 1. 1. 1. 1. 1. 1. 1. 1.
      1. 1. 1. 1. 1. 1. 1. 1. 1. 1. 1. 1. 1. 1. 1. 1. 1. 1. 1. 1. 1. 1.
      1. 1. 1. 1. 1. 1. 1. 1. 1. 1. 1. 1. 1. 1. 1. 1. 1. 1. 1. 1. 1. 1.
      1. 1. 1. 1. 1. 1. 1. 1. 1. 1. 1. 1. 1. 1. 1. 1. 1. 1. 1. 1. 1. 1.
      1. 1. 1. 1. 1. 1. 1. 1. 1. 1. 1. 1. 1. 1. 1. 1. 1. 1. 1. 1. 1. 1.
      1. 85. 75. 61. 55. 69. 188. 249. 116. 85. 68. 53. 48. 43. 41. 40.
      40. 37. 39. 120. 123. 84. 69. 61. 58. 94. 233. 233. 91. 75. 61.
      52. 48. 48. 39. 42. 36. 33. 47. 130. 125. 72. 64. 59. 61. 121.
      245. 126. 83. 69. 58. 51. 48. 47. 51. 35. 33. 23. 30. 126. 124.
      73. 65. 61. 76. 160. 234. 93. 76. 65. 57. 51. 51. 52. 39. 34. 45.
      22. 25. 117. 134. 66. 70. 67. 95. 199. 148. 80. 72. 64. 57. 55.
      52. 42. 30. 58. 75. 43. 24. 134. 124. 68. 75. 80. 114. 216. 94.
      77. 71. 66. 58. 58. 45. 32. 63. 119. 82. 60. 27. 128. 128. 71. 82.
      99. 130. 210. 89. 74. 69. 69. 63. 49. 34. 61. 160. 145. 75. 77.
      29. 120. 129. 78. 94. 113. 143. 144. 131. 97. 77. 76. 54. 30. 53.
      185. 206. 162. 77. 61. 32. 140. 128. 89. 109. 124. 143. 112. 168.
      126. 86. 56. 69. 69. 163. 233. 131. 184. 96. 34. 35. 136. 127.
      101. 122. 130. 136. 108. 137. 100. 59. 36. 152. 144. 134. 200.
      140. 180. 125. 25. 50. 159. 134. 121. 127. 133. 129. 170. 87. 47.
      128. 83. 147. 110. 76. 165. 182. 165. 84. 40. 93. 142. 131. 128.
      134. 131. 115. 118. 41. 43. 90. 57. 159. 65. 79. 89. 178. 99. 68.
      52. 98. 160. 125. 121. 107. 69. 45. 40. 54. 25. 99. 16. 156. 142.
      60. 121. 88. 67. 69. 52. 86. 150. 127. 53. 41. 39. 46. 46. 95. 88.
      25. 11. 106. 159. 67. 146. 66. 83. 76. 45. 90. 165. 135. 39. 46.
      45. 31. 17. 40. 49. 26. 26. 22. 129. 97. 97. 138. 76. 55. 39. 57.
      153. 136. 36. 22. 13. 4. 13. 52. 32. 25. 11. 8. 116. 109. 62. 166.
      85. 57. 102. 118. 172. 129. 15. 10. 17. 26. 39. 139. 19. 90. 8.
      61. 127. 89. 62. 166. 117. 51. 109. 129. 177. 127. 20. 41. 77.
      102. 130. 206. 17. 128. 16. 141. 134. 36. 136. 97. 98. 72. 110.
      135. 170. 135. 12. 165. 171. 167. 180. 195. 23. 79. 29. 85. 47. 7.
      98. 54. 90. 41. 107. 146. 156. 138. 8. 189. 158. 159. 107. 72. 48.
      14. 15. 17. 17. 53. 88. 73. 39. 36. 50. 138. 113. 137.</_>
    <_>
      1. 1. 1. 1. 1. 1. 1. 1. 1. 1. 1. 1. 1. 1. 1. 1. 1. 1. 1. 1. 1. 1.
      1. 1. 1. 1. 1. 1. 1. 1. 1. 1. 1. 1. 1. 1. 1. 1. 1. 1. 1. 1. 1. 1.
      1. 1. 1. 1. 1. 1. 1. 1. 1. 1. 1. 1. 1. 1. 1. 1. 1. 1. 1. 1. 1. 1.
      1. 1. 1. 1. 1. 1. 1. 1. 1. 1. 1. 1. 1. 1. 1. 1. 1. 1. 1. 1. 1. 1.
      1. 1. 1. 1. 1. 1. 1. 1. 1. 1. 1. 1. 1. 1. 1. 1. 1. 1. 1. 1. 1. 1.
      1. 1. 1. 1. 1. 1. 1. 1. 1. 1. 1. 1. 1. 1. 1. 1. 1. 1. 1. 1. 1. 1.
      1. 1. 1. 1. 1. 1. 1. 1. 1. 1. 1. 1. 1. 1. 1. 1. 1. 1. 1. 1. 1. 1.
      1. 1. 1. 1. 1. 1. 1. 1. 1. 1. 1. 1. 1. 1. 1. 1. 1. 1. 1. 1. 1. 1.
      1. 197. 195. 195. 193. 190. 186. 188. 178. 166. 162. 150. 154.
      127. 135. 116. 102. 42. 29. 39. 7. 225. 224. 222. 219. 210. 206.
      214. 157. 159. 163. 170. 165. 148. 146. 108. 91. 37. 20. 12. 10.
      239. 239. 241. 238. 239. 235. 234. 211. 203. 186. 181. 162. 136.
      110. 73. 104. 57. 20. 27. 5. 250. 249. 247. 245. 242. 235. 225.
      212. 215. 184. 145. 95. 77. 64. 78. 132. 93. 16. 9. 11. 240. 228.
      215. 194. 172. 144. 137. 137. 88. 46. 55. 62. 132. 103. 97. 130.
      107. 12. 15. 5. 153. 164. 180. 177. 138. 188. 179. 190. 149. 81.
      98. 85. 154. 155. 138. 131. 99. 56. 49. 9. 248. 251. 245. 236.
      223. 245. 154. 183. 215. 198. 141. 100. 121. 224. 173. 124. 96.
      61. 49. 15. 244. 241. 234. 231. 206. 240. 153. 171. 133. 244. 139.
      148. 100. 240. 175. 128. 89. 21. 17. 7. 244. 245. 237. 224. 174.
      238. 174. 163. 150. 163. 109. 171. 99. 247. 192. 121. 94. 39. 26.
      17. 240. 241. 222. 214. 200. 237. 150. 86. 99. 91. 121. 200. 129.
      203. 167. 105. 88. 43. 33. 9. 237. 237. 214. 215. 234. 229. 93.
      66. 74. 112. 218. 202. 91. 131. 118. 82. 84. 62. 63. 7. 233. 235.
      213. 206. 238. 175. 120. 143. 124. 127. 155. 136. 131. 126. 110.
      90. 91. 59. 39. 12. 232. 232. 195. 143. 216. 146. 147. 148. 148.
      138. 111. 108. 139. 137. 119. 87. 77. 42. 39. 16. 224. 221. 139.
      157. 178. 162. 141. 130. 114. 116. 119. 124. 130. 162. 123. 86.
      78. 37. 39. 13. 183. 144. 26. 224. 154. 140. 127. 121. 123. 122.
      123. 167. 140. 153. 139. 79. 78. 39. 19. 13. 16. 12. 110. 149.
      130. 119. 118. 120. 128. 128. 139. 217. 167. 143. 149. 70. 77. 47.
      18. 11. 16. 22. 203. 118. 114. 112. 113. 122. 131. 148. 167. 198.
      174. 142. 102. 66. 71. 52. 30. 12. 19. 101. 143. 105. 105. 110.
      113. 129. 146. 162. 161. 134. 101. 115. 89. 62. 65. 52. 26. 13.
      19. 198. 92. 92. 102. 105. 119. 128. 112. 90. 92. 83. 89. 96. 83.
      59. 61. 40. 22. 15. 170. 135. 102. 104. 95. 91. 89. 84. 85. 88.
      87. 88. 87. 94. 80. 59. 61. 40. 9. 16.</_>
    <_>
      1. 1. 1. 1. 1. 1. 1. 1. 1. 1. 1. 1. 1. 1. 1. 1. 1. 1. 1. 1. 1. 1.
      1. 1. 1. 1. 1. 1. 1. 1. 1. 1. 1. 1. 1. 1. 1. 1. 1. 1. 1. 1. 1. 1.
      1. 1. 1. 1. 1. 1. 1. 1. 1. 1. 1. 1. 1. 1. 1. 1. 1. 1. 1. 1. 1. 1.
      1. 1. 1. 1. 1. 1. 1. 1. 1. 1. 1. 1. 1. 1. 1. 1. 1. 1. 1. 1. 1. 1.
      1. 1. 1. 1. 1. 1. 1. 1. 1. 1. 1. 1. 1. 1. 1. 1. 1. 1. 1. 1. 1. 1.
      1. 1. 1. 1. 1. 1. 1. 1. 1. 1. 1. 1. 1. 1. 1. 1. 1. 1. 1. 1. 1. 1.
      1. 1. 1. 1. 1. 1. 1. 1. 1. 1. 1. 1. 1. 1. 1. 1. 1. 1. 1. 1. 1. 1.
      1. 1. 1. 1. 1. 1. 1. 1. 1. 1. 1. 1. 1. 1. 1. 1. 1. 1. 1. 1. 1. 1.
      1. 84. 64. 77. 87. 65. 29. 24. 21. 27. 41. 13. 39. 75. 56. 56. 40.
      35. 31. 38. 43. 75. 59. 69. 74. 59. 29. 28. 28. 29. 42. 26. 40.
      76. 58. 59. 37. 35. 30. 36. 39. 53. 41. 48. 43. 41. 28. 38. 44.
      33. 46. 65. 46. 77. 60. 68. 30. 34. 26. 35. 31. 34. 29. 29. 19.
      27. 30. 44. 58. 42. 55. 93. 56. 78. 65. 72. 27. 37. 24. 35. 23.
      31. 32. 32. 30. 24. 31. 35. 67. 80. 83. 96. 94. 80. 69. 64. 37.
      59. 39. 33. 24. 28. 34. 33. 42. 22. 34. 28. 72. 109. 107. 94. 124.
      79. 71. 58. 46. 78. 54. 33. 25. 29. 35. 32. 46. 23. 38. 27. 59.
      94. 99. 66. 102. 69. 64. 70. 52. 84. 64. 33. 27. 28. 35. 29. 45.
      26. 41. 27. 39. 68. 84. 32. 69. 56. 53. 91. 56. 86. 72. 33. 30.
      40. 29. 31. 36. 27. 33. 45. 36. 45. 72. 43. 48. 43. 42. 76. 47.
      70. 62. 29. 30. 59. 18. 34. 22. 27. 20. 68. 39. 21. 63. 72. 32.
      31. 33. 46. 29. 44. 44. 24. 29. 95. 44. 56. 18. 33. 25. 85. 44.
      26. 63. 86. 23. 24. 27. 32. 22. 32. 33. 26. 28. 145. 105. 93. 27.
      45. 53. 92. 54. 62. 71. 85. 24. 21. 24. 30. 26. 34. 28. 33. 27.
      188. 161. 135. 56. 75. 88. 110. 77. 102. 84. 92. 30. 20. 26. 32.
      41. 51. 24. 42. 30. 204. 199. 185. 132. 151. 143. 147. 142. 160.
      118. 126. 49. 30. 37. 40. 85. 104. 27. 52. 42. 218. 230. 226. 197.
      212. 192. 181. 197. 207. 154. 159. 75. 49. 53. 53. 116. 143. 33.
      60. 53. 222. 229. 231. 218. 226. 211. 205. 215. 218. 190. 190.
      125. 97. 88. 72. 98. 124. 55. 65. 64. 225. 222. 229. 231. 230.
      225. 229. 226. 223. 227. 218. 180. 152. 124. 93. 70. 96. 81. 68.
      77. 212. 207. 206. 218. 216. 218. 214. 215. 209. 211. 201. 184.
      163. 142. 117. 86. 99. 100. 87. 84. 196. 192. 180. 201. 199. 209.
      191. 201. 191. 183. 175. 176. 163. 153. 136. 110. 111. 115. 109.
      90. 191. 186. 169. 194. 192. 205. 183. 195. 183. 173. 165. 173.
      164. 159. 144. 119. 116. 122. 117. 93.</_>
    <_>
      1. 1. 1. 1. 1. 1. 1. 1. 1. 1. 1. 1. 1. 1. 1. 1. 1. 1. 1. 1. 1. 1.
      1. 1. 1. 1. 1. 1. 1. 1. 1. 1. 1. 1. 1. 1. 1. 1. 1. 1. 1. 1. 1. 1.
      1. 1. 1. 1. 1. 1. 1. 1. 1. 1. 1. 1. 1. 1. 1. 1. 1. 1. 1. 1. 1. 1.
      1. 1. 1. 1. 1. 1. 1. 1. 1. 1. 1. 1. 1. 1. 1. 1. 1. 1. 1. 1. 1. 1.
      1. 1. 1. 1. 1. 1. 1. 1. 1. 1. 1. 1. 1. 1. 1. 1. 1. 1. 1. 1. 1. 1.
      1. 1. 1. 1. 1. 1. 1. 1. 1. 1. 1. 1. 1. 1. 1. 1. 1. 1. 1. 1. 1. 1.
      1. 1. 1. 1. 1. 1. 1. 1. 1. 1. 1. 1. 1. 1. 1. 1. 1. 1. 1. 1. 1. 1.
      1. 1. 1. 1. 1. 1. 1. 1. 1. 1. 1. 1. 1. 1. 1. 1. 1. 1. 1. 1. 1. 1.
      1. 26. 25. 22. 26. 23. 25. 27. 30. 50. 78. 130. 158. 151. 127.
      119. 75. 90. 149. 151. 181. 23. 24. 20. 27. 27. 33. 41. 67. 111.
      158. 152. 163. 183. 131. 162. 138. 137. 180. 177. 179. 22. 24. 26.
      28. 50. 79. 108. 130. 162. 173. 146. 142. 189. 162. 171. 168. 165.
      178. 173. 171. 25. 35. 42. 65. 106. 140. 137. 124. 149. 172. 158.
      137. 178. 149. 172. 163. 154. 176. 152. 172. 47. 68. 93. 125. 129.
      141. 139. 106. 135. 156. 170. 153. 168. 134. 167. 164. 163. 159.
      144. 164. 112. 123. 122. 143. 139. 147. 148. 144. 161. 163. 170.
      164. 170. 153. 165. 149. 168. 150. 165. 171. 141. 157. 147. 148.
      146. 154. 155. 170. 170. 171. 164. 163. 166. 164. 166. 144. 168.
      160. 178. 171. 131. 157. 155. 161. 156. 161. 154. 167. 170. 157.
      165. 164. 155. 152. 172. 167. 166. 160. 161. 175. 165. 166. 176.
      167. 152. 157. 153. 172. 175. 155. 165. 165. 159. 162. 187. 166.
      164. 172. 176. 173. 168. 172. 175. 171. 148. 124. 151. 177. 175.
      154. 163. 158. 158. 163. 171. 163. 170. 156. 178. 156. 153. 171.
      164. 161. 161. 131. 159. 165. 173. 159. 165. 164. 168. 163. 169.
      159. 169. 143. 166. 150. 155. 171. 166. 155. 173. 144. 165. 152.
      163. 160. 168. 166. 165. 167. 177. 144. 161. 155. 160. 162. 168.
      167. 173. 137. 170. 139. 168. 154. 153. 161. 169. 162. 161. 147.
      169. 143. 166. 147. 157. 170. 109. 108. 115. 84. 105. 168. 171.
      159. 149. 147. 141. 140. 147. 124. 166. 161. 162. 146. 167. 165.
      49. 52. 50. 49. 81. 170. 161. 150. 124. 136. 134. 161. 161. 138.
      163. 171. 155. 163. 168. 166. 40. 44. 41. 51. 112. 135. 124. 133.
      127. 154. 161. 176. 174. 164. 165. 168. 167. 163. 157. 167. 42.
      43. 42. 66. 85. 110. 121. 151. 150. 147. 169. 171. 169. 168. 171.
      154. 168. 165. 157. 166. 44. 44. 45. 86. 106. 137. 135. 163. 161.
      140. 156. 174. 154. 162. 163. 158. 168. 166. 169. 163. 45. 47. 49.
      112. 119. 152. 135. 137. 172. 158. 145. 174. 161. 165. 151. 169.
      165. 160. 175. 159. 44. 43. 52. 88. 113. 152. 141. 129. 170. 164.
      159. 165. 174. 173. 150. 173. 164. 158. 150. 163.</_>
    <_>
      1. 1. 1. 1. 1. 1. 1. 1. 1. 1. 1. 1. 1. 1. 1. 1. 1. 1. 1. 1. 1. 1.
      1. 1. 1. 1. 1. 1. 1. 1. 1. 1. 1. 1. 1. 1. 1. 1. 1. 1. 1. 1. 1. 1.
      1. 1. 1. 1. 1. 1. 1. 1. 1. 1. 9.69696999e-001 1. 1. 1. 1. 1. 1. 1.
      1. 1. 1. 1. 1. 1. 1. 1. 1. 1. 1. 1. 1. 1. 1. 1. 1. 1. 1. 1. 1. 1.
      1. 1. 1. 1. 1. 1. 1. 1. 1. 1. 1. 1. 1. 1. 1. 1. 1. 1. 1. 1. 1. 1.
      1. 1. 1. 1. 1. 1. 1. 1. 1. 1. 1. 1. 1. 1. 1. 1. 1. 1. 1. 1. 1. 1.
      1. 1. 1. 1. 1. 1. 1. 1. 1. 1. 1. 1. 1. 1. 1. 1. 1. 1. 1. 1. 1. 1.
      1. 1. 1. 1. 1. 1. 1. 1. 1. 1. 1. 1. 1. 1. 1. 1. 1. 1. 1. 1. 1. 1.
      1. 1. 9.93055582e-001 1. 1. 159. 161. 165. 163. 160. 82. 80. 96.
      146. 166. 170. 141. 124. 69. 169. 217. 215. 195. 178. 159. 167.
      176. 180. 181. 128. 81. 157. 190. 199. 190. 216. 199. 201. 139.
      87. 163. 150. 156. 164. 163. 168. 165. 167. 135. 117. 172. 164.
      167. 139. 73. 72. 95. 132. 190. 162. 112. 184. 199. 200. 208. 208.
      209. 202. 116. 182. 136. 51. 161. 68. 17. 32. 24. 44. 172. 177.
      158. 175. 226. 223. 215. 236. 235. 202. 172. 138. 36. 9. 152. 15.
      54. 30. 71. 38. 215. 81. 181. 158. 126. 98. 73. 92. 107. 139. 188.
      47. 33. 59. 187. 49. 39. 56. 65. 132. 221. 21. 97. 174. 28. 22.
      13. 14. 17. 133. 118. 29. 52. 148. 242. 38. 64. 68. 120. 232. 202.
      52. 43. 187. 37. 28. 16. 15. 16. 193. 63. 49. 37. 225. 243. 132.
      120. 145. 227. 249. 195. 63. 48. 193. 84. 13. 6. 20. 30. 224. 64.
      68. 83. 243. 243. 181. 103. 106. 168. 247. 118. 59. 57. 200. 123.
      65. 67. 71. 76. 212. 87. 58. 158. 249. 194. 96. 40. 43. 96. 231.
      43. 70. 84. 186. 143. 151. 149. 142. 137. 178. 107. 60. 216. 203.
      87. 22. 36. 18. 137. 183. 59. 67. 123. 176. 166. 167. 173. 179.
      171. 156. 154. 62. 216. 102. 30. 34. 45. 49. 192. 112. 57. 74.
      154. 169. 204. 200. 210. 220. 210. 182. 170. 141. 166. 27. 53. 66.
      67. 32. 209. 37. 83. 142. 176. 195. 238. 243. 240. 236. 238. 233.
      160. 173. 158. 79. 63. 41. 60. 75. 184. 148. 163. 181. 148. 212.
      201. 157. 133. 140. 155. 168. 136. 145. 175. 162. 133. 113. 144.
      153. 171. 185. 185. 122. 61. 64. 50. 29. 33. 8. 10. 9. 19. 33.
      101. 162. 179. 177. 169. 176. 189. 160. 86. 34. 4. 7. 10. 11. 37.
      12. 13. 12. 12. 17. 18. 31. 69. 92. 163. 130. 77. 32. 39. 21. 10.
      10. 14. 10. 25. 12. 14. 14. 13. 15. 6. 13. 17. 15. 136. 58. 14.
      17. 25. 16. 14. 10. 14. 13. 18. 11. 8. 6. 11. 14. 9. 17. 1. 18.
      137. 88. 18. 21. 20. 8. 19. 24. 32. 35. 49. 53. 46. 43. 39. 42.
      40. 45. 65. 121. 175. 192. 150. 88. 71. 62. 102. 112. 116. 123.
      139.</_>
    <_>
      1. 1. 1. 1. 1. 1. 1. 1. 1. 1. 1. 1. 1. 1. 1. 1. 1. 1. 1. 1. 1. 1.
      1. 1. 1. 1. 1. 1. 1. 1. 1. 1. 1. 1. 1. 1. 1. 1. 1. 1. 1. 1. 1. 1.
      1. 1. 1. 1. 1. 1. 1. 1. 1. 1. 1. 1. 1. 1. 1. 1. 1. 1. 1. 1. 1. 1.
      1. 1. 1. 1. 1. 1. 1. 1. 1. 1. 1. 1. 1. 1. 1. 1. 1. 1. 1. 1. 1. 1.
      1. 1. 1. 1. 1. 1. 1. 1. 1. 1. 1. 1. 1. 1. 1. 1. 1. 1. 1. 1. 1. 1.
      1. 1. 1. 1. 1. 1. 1. 1. 1. 1. 1. 1. 1. 1. 1. 1. 1. 1. 1. 1. 1. 1.
      1. 1. 1. 1. 1. 1. 1. 1. 1. 1. 1. 1. 1. 1. 1. 1. 1. 1. 1. 1. 1. 1.
      1. 1. 1. 1. 1. 1. 1. 1. 1. 1. 1. 1. 1. 1. 1. 1. 1. 1. 1. 1. 1. 1.
      1. 62. 39. 36. 93. 90. 80. 53. 55. 61. 77. 95. 98. 140. 144. 142.
      135. 100. 107. 110. 103. 63. 41. 38. 103. 110. 98. 75. 69. 67. 74.
      82. 86. 123. 137. 142. 138. 112. 121. 115. 113. 65. 45. 41. 118.
      139. 130. 110. 92. 76. 69. 64. 66. 93. 126. 145. 143. 133. 143.
      122. 129. 62. 46. 40. 119. 154. 146. 138. 118. 92. 90. 73. 73. 73.
      103. 136. 149. 144. 149. 132. 142. 57. 46. 37. 116. 165. 156. 165.
      146. 113. 121. 91. 87. 60. 76. 123. 155. 150. 148. 143. 151. 53.
      43. 32. 110. 176. 160. 169. 141. 113. 138. 107. 106. 81. 71. 95.
      138. 144. 143. 140. 146. 52. 41. 28. 103. 187. 167. 171. 137. 114.
      152. 120. 123. 103. 71. 72. 119. 137. 142. 136. 142. 61. 47. 31.
      87. 188. 171. 168. 141. 119. 144. 121. 123. 130. 88. 69. 99. 128.
      142. 126. 138. 67. 52. 33. 72. 186. 170. 164. 147. 130. 138. 123.
      123. 150. 101. 69. 82. 119. 146. 126. 138. 67. 52. 32. 62. 176.
      162. 154. 155. 149. 133. 132. 122. 155. 106. 75. 70. 111. 155.
      147. 152. 63. 50. 31. 51. 161. 164. 154. 164. 166. 130. 137. 115.
      157. 112. 79. 61. 96. 152. 159. 159. 54. 47. 30. 39. 138. 178.
      164. 173. 182. 126. 142. 104. 153. 119. 81. 57. 73. 139. 163. 158.
      50. 47. 32. 36. 122. 183. 176. 180. 187. 124. 146. 106. 150. 133.
      91. 60. 61. 122. 155. 154. 50. 50. 37. 32. 111. 186. 191. 184.
      185. 124. 152. 117. 145. 149. 104. 68. 55. 101. 143. 146. 47. 49.
      38. 32. 89. 160. 177. 176. 182. 135. 166. 132. 140. 149. 109. 75.
      55. 90. 140. 147. 43. 46. 38. 33. 67. 130. 158. 163. 176. 147.
      181. 146. 137. 147. 111. 81. 55. 80. 138. 148. 38. 41. 33. 29. 41.
      77. 91. 99. 115. 114. 151. 142. 147. 159. 114. 90. 61. 66. 112.
      138. 34. 36. 30. 26. 22. 37. 39. 46. 63. 82. 118. 127. 145. 156.
      112. 95. 67. 55. 88. 124. 33. 34. 30. 32. 32. 42. 39. 37. 43. 53.
      67. 73. 93. 107. 99. 93. 71. 49. 62. 85. 32. 33. 30. 37. 38. 46.
      40. 33. 32. 37. 36. 40. 62. 78. 93. 91. 76. 46. 48. 61.</_>
    <_>
      1. 1. 1. 1. 1. 1. 1. 1. 1. 1. 1. 1. 1. 1. 1. 1. 1. 1. 1. 1. 1. 1.
      1. 1. 1. 1. 1. 1. 1. 1. 1. 1. 1. 1. 1. 1. 1. 1. 1. 1. 1. 1. 1. 1.
      1. 1. 1. 1. 1. 1. 1. 1. 1. 1. 1. 1. 1. 1. 1. 1. 1. 1. 1. 1. 1. 1.
