<?xml version="1.0"?>
<opencv_storage>
<my_svm type_id="opencv-ml-svm">
  <svm_type>C_SVC</svm_type>
  <kernel><type>LINEAR</type></kernel>
  <C>1.</C>
  <term_criteria><epsilon>2.2204460492503131e-016</epsilon>
    <iterations>1000</iterations></term_criteria>
  <var_all>402</var_all>
  <var_count>402</var_count>
  <class_count>2</class_count>
  <class_labels type_id="opencv-matrix">
    <rows>1</rows>
    <cols>2</cols>
    <dt>i</dt>
    <data>
      0 1</data></class_labels>
  <sv_total>1</sv_total>
  <support_vectors>
    <_>
      -2.85189662e-006 -3.54739018e-006 1.17102305e-019 1.17102305e-019
      1.17102305e-019 1.96579570e-008 1.17102305e-019 1.17102305e-019
      -6.95493554e-007 1.17102305e-019 1.17102305e-019 1.17102305e-019
      1.17102305e-019 1.17102305e-019 -1.02662774e-007 -1.22320728e-007
      -1.22320728e-007 -1.22320728e-007 -1.22320728e-007
      -6.11603639e-008 -1.22320728e-007 -1.22320728e-007
      -1.22320728e-007 -6.11603639e-008 1.17102305e-019 -6.11603639e-008
      1.17102305e-019 -6.11603639e-008 -1.87353621e-007 -6.11603639e-008
      1.17102305e-019 1.17102305e-019 -6.11603639e-008 -1.22320728e-007
      -1.22320728e-007 -1.22320728e-007 -1.22320728e-007
      -1.22320728e-007 -6.11603639e-008 -1.22320728e-007 1.17102305e-019
      1.17102305e-019 -2.24683006e-007 1.17102305e-019 -2.31116496e-006
      -1.39098711e-006 -6.95493554e-007 -2.08648203e-006
      -6.95493554e-007 -6.95493554e-007 1.17102305e-019 -1.39098711e-006
      1.17102305e-019 1.17102305e-019 1.17102305e-019 1.17102305e-019
      1.17102305e-019 1.17102305e-019 1.17102305e-019 1.17102305e-019
      -1.22320728e-007 -1.22320728e-007 -1.22320728e-007
      -3.47003748e-007 -3.47003748e-007 -1.87353621e-007
      -6.11603639e-008 1.17102305e-019 1.17102305e-019 -6.11603639e-008
      -1.22320728e-007 -6.11603639e-008 -1.22320728e-007
      -1.22320728e-007 -6.11603639e-008 -3.47003748e-007
      -3.47003748e-007 -2.85843385e-007 -6.11603639e-008 1.17102305e-019
      1.17102305e-019 1.17102305e-019 -6.11603639e-008 -3.47003748e-007
      -2.85843385e-007 -1.22320728e-007 -6.11603639e-008
      -1.22320728e-007 -6.11603639e-008 -6.11603639e-008 1.17102305e-019
      -6.11603639e-008 -1.22320728e-007 -1.22320728e-007
      -7.17353146e-008 -7.17353146e-008 3.70407349e-007 -2.24683006e-007
      -2.24683006e-007 -2.24683006e-007 -2.24683006e-007 1.17102305e-019
      1.17102305e-019 1.17102305e-019 1.17102305e-019 -2.26579132e-007
      1.17102305e-019 1.17102305e-019 1.17102305e-019 1.17102305e-019
      1.17102305e-019 1.17102305e-019 1.17102305e-019 1.96579570e-008
      1.17102305e-019 1.17102305e-019 1.17102305e-019 1.17102305e-019
      1.17102305e-019 -4.53158265e-007 2.76784846e-007 2.76784846e-007
      2.76784846e-007 2.76784846e-007 2.76784846e-007 5.59237719e-007
      2.76784846e-007 8.36022593e-007 5.02057240e-008 -2.26579132e-007
      -4.05508217e-007 -4.53158265e-007 -4.53158265e-007
      -4.53158265e-007 -4.53158265e-007 -4.53158265e-007
      -4.53158265e-007 -4.53158265e-007 -4.53158265e-007
      -3.35422840e-007 -1.78929071e-007 -4.05508217e-007
      -4.05508217e-007 -4.53158265e-007 -1.67666758e-006
      -8.71420241e-007 -3.18768343e-007 -3.18768343e-007
      -1.59383475e-007 -1.59383475e-007 -4.78151833e-007 1.17102305e-019
      -3.20465610e-008 -1.92262220e-007 -2.49432794e-008 1.17102305e-019
      1.17102305e-019 1.17102305e-019 1.17102305e-019 1.17102305e-019
      -7.69877033e-007 1.17102305e-019 1.17102305e-019 1.17102305e-019
      1.17102305e-019 1.17102305e-019 4.50493554e-009 1.17102305e-019
      1.17102305e-019 1.17102305e-019 1.17102305e-019 1.17102305e-019
      1.09197726e-008 3.27594130e-008 4.50493554e-009 -4.90557511e-007
      -8.54447819e-007 -2.98519619e-003 -9.70654073e-004 3.91531643e-003
      1.59997202e-003 4.27443330e-004 1.70003346e-004 1.04531099e-003
      1.38323370e-003 9.29199567e-004 2.87407456e-004 3.63511412e-004
      7.21566787e-004 -4.79298003e-004 2.20526429e-003 3.17771628e-004
      -2.79549533e-003 -3.16117378e-003 1.95007166e-003 1.37997471e-004
      -1.55374073e-004 -3.88937397e-003 -1.45590154e-003
      -2.81014899e-003 -1.22565497e-003 -8.14730534e-004 6.63815066e-004
      4.71406645e-004 -2.55942298e-003 1.42700633e-003 6.79473917e-004
      -6.54210337e-004 -1.22172944e-003 2.81797955e-003 3.02344305e-003
      5.68036223e-004 -2.65510840e-004 3.43612814e-003 3.18967359e-004
      2.96337908e-004 1.86282850e-003 4.16084798e-003 5.03566628e-003
      1.80619489e-003 5.66002680e-004 1.42157055e-003 -1.16159697e-003
      -4.14464390e-003 -3.27493617e-004 -1.98436226e-003
      -1.66773170e-005 -6.06009620e-004 -1.09804852e-003 1.10797153e-003
      2.60265637e-003 8.16184271e-004 -2.83578015e-003 8.23457434e-004
      2.27861595e-003 -2.63810507e-003 9.35945136e-005 4.95403190e-004
      -1.54729607e-003 9.66100561e-005 -2.21800944e-003 4.26896196e-003
      -1.78017025e-003 -7.61544215e-005 -2.15793421e-004
      -3.99719895e-004 -1.03386573e-003 -2.09057005e-003
      -6.04159897e-004 -8.40014312e-004 -5.50067425e-003
      -6.47705048e-004 -7.26032071e-004 5.88060182e-004 -1.51638335e-004
      2.46328826e-004 1.89013232e-003 -2.06099404e-003 -4.68748389e-004
      1.29697076e-003 -2.43141293e-003 -5.35362109e-004 8.50401062e-004
      1.05566706e-003 -9.21453233e-004 -2.26158299e-003 -2.91055813e-003
      -2.63559353e-003 -1.02794023e-004 4.37705676e-005 -2.46922311e-004
      -4.55010537e-004 -1.01466221e-003 -1.23562047e-003 9.82793863e-004
      1.98554760e-003 3.04091303e-003 3.41076707e-003 3.59529105e-004
      1.37058378e-003 -1.56738039e-004 -6.77923497e-004 -3.66236287e-004
      -8.06711207e-004 -1.51900097e-003 -8.25404190e-004
      -2.45502015e-004 -3.56872869e-003 -2.27323151e-003
      -3.10938782e-003 1.81879406e-003 1.23617169e-003 -1.29786390e-003
      1.70332915e-003 -1.47273194e-003 1.76512729e-003 8.17528227e-004
      2.09019124e-003 -1.28032174e-004 -1.87338679e-004 -1.69700640e-003
      1.09627366e-003 8.38726235e-004 1.02393236e-003 -2.67675583e-004
      -9.01649124e-004 3.95191164e-005 -1.67909951e-004 -4.38623916e-004
      2.80966546e-004 5.69771277e-004 8.92544514e-004 1.76419935e-003
      -1.70219969e-003 -1.56870077e-003 7.24210811e-004 -5.39034896e-004
      1.82549516e-003 -1.04820228e-003 2.79482990e-003 4.07441286e-004
      -4.59991279e-004 1.39351061e-004 1.97670935e-003 7.03002559e-004
      4.22802870e-004 3.90257989e-003 1.34937291e-003 -4.42306628e-005
      -1.77726534e-003 -3.11699067e-003 -3.10545380e-004 1.28068496e-004
      -1.90299063e-003 -1.01293297e-003 1.96771021e-003 -6.46372617e-004
      1.92951760e-003 1.61947170e-003 3.78442986e-004 -1.05260959e-004
      2.61273934e-003 -1.87466107e-003 -4.07407118e-004 -8.36172490e-004
      -5.43802860e-004 2.64860573e-004 -1.77090545e-003 3.30025185e-004
      1.49578310e-003 2.99967267e-003 -2.41776998e-003 -3.18731676e-004
      -1.52696366e-003 -4.51421039e-003 -2.40503205e-003 6.91390422e-004
      -2.34640291e-004 2.29677325e-003 -5.48129959e-004 3.71960551e-003
      2.22026650e-003 2.89989891e-003 2.23189103e-003 1.90437620e-003
      1.49674807e-003 1.48436124e-003 1.38346583e-003 -3.02113383e-003
      -1.86447636e-003 1.67624594e-003 -8.23264359e-004 2.98858009e-004
      1.31213444e-003 2.81653774e-005 2.23512668e-003 -2.47274945e-003
      -7.17481671e-005 -7.01950485e-005 -1.21807028e-003
      -1.52580498e-003 -1.15560694e-003 3.78116104e-003 9.94438888e-004
      -8.98611674e-004 2.69911229e-003 8.57519393e-004 8.75661033e-004
      -2.82981107e-003 -1.49107794e-003 -8.43707880e-004
      -3.78712919e-003 -6.89431152e-004 1.26651558e-003 -3.42471409e-004
      6.93323789e-004 -3.81423481e-004 4.28264448e-003 -2.47301743e-003
      1.52780194e-004 8.31570884e-004 2.39532301e-003</_></support_vectors>
  <decision_functions>
    <_>
      <sv_count>1</sv_count>
      <rho>7.7138845021956792e-001</rho>
      <alpha>
        1.</alpha>
      <index>
        0</index></_></decision_functions></my_svm>
</opencv_storage>
