<?xml version="1.0"?>
<opencv_storage>
<my_svm type_id="opencv-ml-svm">
  <svm_type>C_SVC</svm_type>
  <kernel><type>LINEAR</type></kernel>
  <C>1.</C>
  <term_criteria><epsilon>2.2204460492503131e-016</epsilon>
    <iterations>1000</iterations></term_criteria>
  <var_all>402</var_all>
  <var_count>402</var_count>
  <class_count>2</class_count>
  <class_labels type_id="opencv-matrix">
    <rows>1</rows>
    <cols>2</cols>
    <dt>i</dt>
    <data>
      0 1</data></class_labels>
  <sv_total>1</sv_total>
  <support_vectors>
    <_>
      -3.19656033e-006 -3.96243013e-006 -9.19030748e-020
      -9.19030748e-020 -9.19030748e-020 -9.19030748e-020
      -9.19030748e-020 -9.19030748e-020 -7.65869913e-007
      -9.19030748e-020 -9.19030748e-020 -9.19030748e-020
      -9.19030748e-020 -9.19030748e-020 -9.73178444e-008
      -9.73178444e-008 -9.73178444e-008 -9.73178444e-008
      -9.73178444e-008 -4.86589222e-008 -9.73178444e-008
      -9.73178444e-008 -9.73178444e-008 -4.86589222e-008
      -9.19030748e-020 -4.86589222e-008 -9.19030748e-020
      -4.86589222e-008 -2.09424954e-007 -4.86589222e-008
      -9.19030748e-020 -9.19030748e-020 -4.86589222e-008
      -9.73178444e-008 -9.73178444e-008 -9.73178444e-008
      -9.73178444e-008 -9.73178444e-008 -4.86589222e-008
      -9.73178444e-008 -9.19030748e-020 -9.19030748e-020
      -2.52938520e-007 -9.19030748e-020 -2.55054988e-006
      -1.53173983e-006 -7.65869913e-007 -2.29761122e-006
      -7.65869913e-007 -7.65869913e-007 -9.19030748e-020
      -1.53173983e-006 -9.19030748e-020 -9.19030748e-020
      -9.19030748e-020 -9.19030748e-020 -9.19030748e-020
      -9.19030748e-020 -9.19030748e-020 -9.19030748e-020
      -9.73178444e-008 -9.73178444e-008 -9.73178444e-008
      -3.50256386e-007 -3.50256386e-007 -2.09424954e-007
      -4.86589222e-008 -9.19030748e-020 -9.19030748e-020
      -4.86589222e-008 -9.73178444e-008 -4.86589222e-008
      -9.73178444e-008 -9.73178444e-008 -4.86589222e-008
      -3.50256386e-007 -3.50256386e-007 -3.01597453e-007
      -4.86589222e-008 -9.19030748e-020 -9.19030748e-020
      -9.19030748e-020 -4.86589222e-008 -3.50256386e-007
      -3.01597453e-007 -9.73178444e-008 -4.86589222e-008
      -9.73178444e-008 -4.86589222e-008 -4.86589222e-008
      -9.19030748e-020 -4.86589222e-008 -9.73178444e-008
      -9.73178444e-008 -9.13668501e-008 -9.13668501e-008
      -9.19030748e-020 -2.52938520e-007 -2.52938520e-007
      -2.52938520e-007 -2.52938520e-007 -9.19030748e-020
      -9.19030748e-020 -9.19030748e-020 -9.19030748e-020
      -9.19030748e-020 -9.19030748e-020 -9.19030748e-020
      -9.19030748e-020 -9.19030748e-020 -9.19030748e-020
      -9.19030748e-020 -9.19030748e-020 -9.19030748e-020
      -9.19030748e-020 -9.19030748e-020 -9.19030748e-020
      -9.19030748e-020 -9.19030748e-020 -9.19030748e-020 3.14263900e-007
      3.14263900e-007 3.14263900e-007 3.14263900e-007 3.14263900e-007
      4.52957067e-007 3.14263900e-007 7.67220968e-007 3.14263900e-007
      -9.19030748e-020 4.55263027e-008 -9.19030748e-020 -9.19030748e-020
      -9.19030748e-020 -9.19030748e-020 -9.19030748e-020
      -9.19030748e-020 -9.19030748e-020 -9.19030748e-020
      -1.12375147e-007 4.55263027e-008 4.55263027e-008 4.55263027e-008
      -9.19030748e-020 -1.06897141e-006 -1.05307265e-006
      -3.51024227e-007 -3.51024227e-007 -1.75511360e-007
      -1.75511360e-007 -5.26535587e-007 -9.19030748e-020
      -6.09940471e-008 -2.17387878e-007 -2.57525645e-008
      -9.19030748e-020 -9.19030748e-020 -9.19030748e-020
      -9.19030748e-020 -9.19030748e-020 -4.79930833e-008
      -9.19030748e-020 -9.19030748e-020 -9.19030748e-020
      -9.19030748e-020 -9.19030748e-020 -9.19030748e-020
      -9.19030748e-020 -9.19030748e-020 -9.19030748e-020
      -9.19030748e-020 -9.19030748e-020 1.04330811e-008 3.12993329e-008
      -9.19030748e-020 -3.90285436e-007 -6.45738794e-007
      -2.73244525e-003 -9.63330735e-004 3.99984466e-003 1.55865366e-003
      2.86040915e-004 -6.54882615e-006 6.24268432e-004 1.70877192e-003
      8.19961599e-004 -5.04117459e-004 3.98444186e-004 1.09454838e-003
      -1.36237868e-004 2.20247428e-003 5.61860157e-004 -2.53642234e-003
      -3.35175218e-003 2.19134497e-003 2.66465766e-004 -5.38450468e-006
      -4.07862477e-003 -1.12690323e-003 -1.75157806e-003
      -7.10907858e-004 -7.96543318e-004 2.14235202e-004 9.65908344e-004
      -1.94383191e-003 1.27175474e-003 4.47969709e-004 -5.67614334e-004
      -1.36622717e-003 2.45688274e-003 2.02955399e-003 6.79995108e-004
      -5.56638697e-005 3.30268429e-003 4.04010818e-004 -8.42098743e-005
      1.58152438e-003 3.58278258e-003 4.76727262e-003 1.49854133e-003
      7.30727450e-004 1.47955259e-003 -1.17683178e-003 -3.86442780e-003
      -4.54659341e-004 -1.50654058e-003 -1.53768968e-004
      -5.56732062e-004 -9.30647540e-004 1.01418106e-003 2.03712983e-003
      2.75637140e-004 -1.64768472e-003 7.84236414e-004 3.04831681e-003
      -2.65443162e-003 1.99624468e-004 2.98116665e-005 -1.54380116e-003
      2.10176062e-004 -2.03185156e-003 4.30314802e-003 -1.44473498e-003
      -6.43840700e-004 -6.73370552e-004 -5.43905015e-004
      -1.75496365e-003 -1.99748436e-003 -8.60811677e-004
      -7.33541150e-004 -4.92952950e-003 -9.20712249e-004
      -7.94290740e-004 6.30987168e-004 1.37722018e-004 -1.45206970e-004
      2.02491903e-003 -1.89150847e-003 -1.11834111e-003 1.81271462e-003
      -2.00771820e-003 -5.72094810e-004 9.78459953e-004 9.08284390e-004
      -1.22599350e-003 -2.42200540e-003 -2.82409717e-003
      -2.69585173e-003 -1.50832406e-004 -6.12350355e-004 5.46075345e-004
      -5.70908560e-005 -1.49633724e-003 -1.36995479e-003 1.86450116e-003
      2.66392156e-003 2.96037039e-003 3.44448676e-003 2.98020575e-004
      1.05460081e-003 -5.04641153e-004 -3.12856253e-004 -5.85132802e-004
      -5.67442155e-004 -2.52940040e-003 -9.56465199e-004 3.38118844e-004
      -2.53215758e-003 -2.09901645e-003 -2.92133144e-003 1.92443293e-003
      1.91608048e-003 -1.61664863e-003 1.60671072e-003 -1.75421010e-003
      1.86492538e-003 1.36580772e-003 2.15518009e-003 1.64728830e-004
      -6.30223600e-004 -1.63101847e-003 1.21823070e-003 4.75638255e-004
      9.75906150e-004 -4.68654878e-004 -8.28651886e-004 3.65494401e-004
      -1.48690495e-004 -5.81516651e-004 -5.86673908e-004 5.32138627e-004
      1.06665876e-003 1.73312833e-003 -1.17462128e-003 -2.11461470e-003
      4.70662664e-004 -6.42101513e-004 1.37720362e-003 -8.02654831e-004
      2.30493071e-003 4.70893021e-004 -3.70607158e-004 4.20796830e-004
      1.82099477e-003 2.90535303e-004 -2.00211187e-004 3.80140333e-003
      1.32043078e-003 3.77107824e-007 -1.80524227e-003 -2.04487774e-003
      -9.27151938e-004 -7.71574851e-005 -1.63852400e-003
      -7.78382120e-004 2.17875279e-003 -1.07413507e-003 2.09261267e-003
      1.05092942e-003 1.15507212e-003 -4.42701916e-004 2.53037177e-003
      -1.73981895e-003 -7.58387265e-004 -7.81639304e-004
      -1.26180748e-004 -3.03896173e-004 -2.10340461e-003
      -1.31153029e-005 1.16481539e-003 3.30464542e-003 -2.39147618e-003
      -9.56802251e-005 -1.56394055e-003 -3.61380214e-003
      -2.39413860e-003 6.41037244e-004 -3.47596128e-004 2.16877786e-003
      -2.02286872e-004 3.71607346e-003 2.05395394e-003 3.00919800e-003
      2.16861372e-003 1.46073801e-003 1.22805755e-003 9.84955695e-004
      9.69887595e-004 -2.72692763e-003 -1.89999980e-003 8.68194387e-004
      -1.08981016e-003 2.15501947e-004 1.89892983e-003 6.79060817e-004
      2.45174975e-003 -1.84902700e-003 1.84460136e-004 4.75984969e-004
      -7.29496242e-004 -1.29819475e-003 -7.78963789e-004 3.82021419e-003
      1.33023690e-003 -6.28260721e-004 2.56124907e-003 1.16899970e-003
      2.22721603e-003 -3.30473925e-003 -1.77561410e-003 -8.34903796e-004
      -4.29134071e-003 -1.44966843e-003 5.75159851e-004 -7.73123058e-004
      5.55940554e-004 -5.72621939e-004 4.25547035e-003 -2.61790096e-003
      -4.14657734e-006 1.26966205e-003 2.86575453e-003</_></support_vectors>
  <decision_functions>
    <_>
      <sv_count>1</sv_count>
      <rho>8.6569868580516285e-001</rho>
      <alpha>
        1.</alpha>
      <index>
        0</index></_></decision_functions></my_svm>
</opencv_storage>
