<?xml version="1.0"?>
<opencv_storage>
<my_svm type_id="opencv-ml-svm">
  <svm_type>C_SVC</svm_type>
  <kernel><type>LINEAR</type></kernel>
  <C>1.</C>
  <term_criteria><epsilon>2.2204460492503131e-016</epsilon>
    <iterations>1000</iterations></term_criteria>
  <var_all>402</var_all>
  <var_count>402</var_count>
  <class_count>2</class_count>
  <class_labels type_id="opencv-matrix">
    <rows>1</rows>
    <cols>2</cols>
    <dt>i</dt>
    <data>
      0 1</data></class_labels>
  <sv_total>1</sv_total>
  <support_vectors>
    <_>
      -2.63029938e-006 -3.23193171e-006 3.13402190e-020 3.13402190e-020
      3.13402190e-020 5.41258984e-008 3.13402190e-020 3.13402190e-020
      -6.01632337e-007 3.13402190e-020 3.13402190e-020 3.13402190e-020
      3.13402190e-020 3.13402190e-020 -2.88606856e-007 -3.42732761e-007
      -3.42732761e-007 -3.42732761e-007 -3.42732761e-007
      -1.71366381e-007 -3.42732761e-007 -3.42732761e-007
      -3.42732761e-007 -1.71366381e-007 3.13402190e-020 -1.71366381e-007
      3.13402190e-020 -1.71366381e-007 -1.72738325e-007 -1.71366381e-007
      3.13402190e-020 3.13402190e-020 -1.71366381e-007 -3.42732761e-007
      -3.42732761e-007 -3.42732761e-007 -3.42732761e-007
      -3.42732761e-007 -1.71366381e-007 -3.42732761e-007 3.13402190e-020
      3.13402190e-020 -1.38756548e-007 3.13402190e-020 -1.94365475e-006
      -1.20326467e-006 -6.01632337e-007 -1.80489826e-006
      -6.01632337e-007 -6.01632337e-007 3.13402190e-020 -1.20326467e-006
      3.13402190e-020 3.13402190e-020 3.13402190e-020 3.13402190e-020
      3.13402190e-020 3.13402190e-020 3.13402190e-020 3.13402190e-020
      -3.42732761e-007 -3.42732761e-007 -3.42732761e-007
      -4.81489337e-007 -4.81489337e-007 -1.72738325e-007
      -1.71366381e-007 3.13402190e-020 3.13402190e-020 -1.71366381e-007
      -3.42732761e-007 -1.71366381e-007 -3.42732761e-007
      -3.42732761e-007 -1.71366381e-007 -4.81489337e-007
      -4.81489337e-007 -3.10122942e-007 -1.71366381e-007 3.13402190e-020
      3.13402190e-020 3.13402190e-020 -1.71366381e-007 -4.81489337e-007
      -3.10122942e-007 -3.42732761e-007 -1.71366381e-007
      -3.42732761e-007 -1.71366381e-007 -1.71366381e-007 3.13402190e-020
      -1.71366381e-007 -3.42732761e-007 -3.42732761e-007
      -8.50611812e-008 -8.50611812e-008 3.13402190e-020 -1.38756548e-007
      -1.38756548e-007 -1.38756548e-007 -1.38756548e-007 3.13402190e-020
      3.13402190e-020 3.13402190e-020 3.13402190e-020 3.13402190e-020
      3.13402190e-020 3.13402190e-020 3.13402190e-020 3.13402190e-020
      3.13402190e-020 3.13402190e-020 3.13402190e-020 5.41258984e-008
      3.13402190e-020 3.13402190e-020 3.13402190e-020 3.13402190e-020
      3.13402190e-020 3.13402190e-020 2.29006744e-007 2.29006744e-007
      2.29006744e-007 2.29006744e-007 2.29006744e-007 2.94110407e-007
      2.29006744e-007 5.23117137e-007 2.29006744e-007 3.13402190e-020
      9.44924494e-008 3.13402190e-020 3.13402190e-020 3.13402190e-020
      3.13402190e-020 3.13402190e-020 3.13402190e-020 3.13402190e-020
      3.13402190e-020 -2.84015051e-008 9.44924494e-008 9.44924494e-008
      9.44924494e-008 3.13402190e-020 -8.57500538e-007 -8.27245685e-007
      -2.75748562e-007 -2.75748562e-007 -1.37873684e-007
      -1.37873684e-007 -4.13622246e-007 3.13402190e-020 -1.02560314e-007
      -1.76860112e-007 -6.50865939e-009 3.13402190e-020 3.13402190e-020
      3.13402190e-020 3.13402190e-020 3.13402190e-020 -3.95857533e-008
      3.13402190e-020 3.13402190e-020 3.13402190e-020 3.13402190e-020
      3.13402190e-020 1.24038166e-008 3.13402190e-020 3.13402190e-020
      3.13402190e-020 3.13402190e-020 3.13402190e-020 2.16544578e-008
      6.49635581e-008 1.24038166e-008 -1.37450229e-006 -1.64293658e-006
      -2.65557645e-003 -4.27973835e-004 2.59624748e-003 7.96581444e-004
      -2.70992925e-004 -1.17895892e-004 6.45685184e-004 1.46967394e-003
      6.76655851e-004 -1.21105251e-004 -4.92410909e-004 1.09046639e-003
      -4.04297170e-004 1.77371653e-003 8.71585216e-004 -1.53510692e-003
      -3.04076029e-003 1.32643967e-003 4.28169646e-004 2.30793288e-004
      -2.75550061e-003 -8.27492506e-004 -1.11754355e-003
      -6.31319010e-004 -1.30625826e-003 -3.06801143e-004
      -3.71667062e-004 -2.01587728e-003 1.23563950e-004 9.14550037e-004
      6.30704686e-004 -1.07899716e-003 2.60099885e-003 1.87020237e-003
      9.79381846e-004 1.40244199e-003 2.81771645e-003 1.56295078e-003
      1.38692860e-003 2.12213327e-003 3.97105282e-003 5.04506007e-003
      1.39980461e-003 1.75774301e-004 1.77970959e-003 -5.89133881e-004
      -2.99090892e-003 -1.28124515e-003 -9.75463423e-004 1.43532665e-003
      -2.94182450e-004 -9.09851282e-004 3.20582127e-004 1.60098821e-003
      1.23312953e-003 2.28657627e-005 1.82530272e-003 2.46056262e-003
      -1.61112600e-003 2.98764877e-004 -2.04866839e-004 -4.30261309e-004
      -1.03465491e-003 -1.52201997e-003 3.49344988e-003 -2.59547425e-003
      -1.05737103e-003 -6.83799095e-004 -7.73649896e-004
      -1.48559699e-003 -2.63428170e-004 -4.66664023e-005 9.18073711e-005
      -3.51366401e-003 -9.16032412e-004 -1.55503722e-003
      -4.65951220e-004 -5.75217069e-004 2.16429267e-004 1.58328051e-003
      -2.43154285e-003 -7.43371260e-004 1.59371237e-003 -8.55764723e-004
      -1.27139711e-003 3.71580682e-005 1.81847857e-003 -1.56839122e-003
      -2.31201970e-003 -2.89576268e-003 -2.33687786e-003
      -3.51166149e-004 -7.75885535e-004 5.81373926e-004 -1.72317930e-004
      -1.70161983e-003 -9.13731463e-004 1.48653204e-003 2.72947107e-003
      3.37375537e-003 1.59965397e-003 7.49151688e-004 2.25810683e-004
      -1.49615016e-003 -1.87377846e-005 -1.10581139e-004
      -1.33322517e-003 -2.00853311e-003 -1.80396810e-003 4.98272362e-004
      -3.15112225e-003 -1.68470177e-003 -2.55937921e-003 1.71105436e-003
      2.16531684e-003 -2.36536306e-003 5.02144801e-004 2.07528035e-004
      1.61930069e-003 1.73589098e-003 2.34861230e-003 1.25419378e-004
      -6.59318699e-004 -2.11957260e-003 1.32383569e-003 -5.18225192e-004
      2.81936344e-004 -1.30373344e-003 4.94149746e-004 1.45320361e-003
      -1.58045470e-004 1.32883375e-004 -9.21220111e-004 -5.71909826e-004
      8.38899810e-004 1.62327767e-003 -8.68623669e-004 -8.04583018e-004
      -1.00132648e-003 -2.05078133e-004 7.88615798e-005 -9.29438334e-004
      9.89738037e-004 -5.67449257e-004 1.82254473e-003 7.35992857e-004
      1.59186462e-003 9.77252843e-004 -1.09914690e-003 2.55397684e-003
      7.39110226e-004 -6.07818831e-004 -7.64385739e-004 -1.77431002e-003
      -6.43977430e-004 -1.39419700e-003 -1.69055816e-003
      -2.35344609e-003 1.04307663e-003 -3.07017064e-004 1.42546953e-003
      2.93478282e-004 1.26417866e-003 -7.38372211e-004 1.31486671e-003
      -1.75059598e-003 -7.92230712e-004 -7.80363451e-004
      -7.27303326e-004 6.82055659e-004 -2.34887539e-003 -6.93747788e-005
      6.20575971e-004 2.02333718e-003 -1.53387652e-003 -5.56592604e-005
      -1.53466861e-003 -2.85096513e-003 -2.35873740e-003
      -3.59797210e-004 -1.45010208e-003 2.26118276e-003 -6.76561729e-004
      3.42250825e-003 2.22908473e-003 2.55947188e-003 2.49407673e-003
      2.81840144e-003 1.25736673e-003 -2.73878657e-004 -1.81007417e-004
      -1.20107294e-003 -1.57354027e-003 5.93282806e-004 -8.14488565e-004
      -1.08010063e-004 2.22973828e-003 -1.44616613e-004 1.88633765e-003
      -6.42877945e-004 3.91721289e-004 1.13020746e-004 -5.28328237e-004
      -1.72936218e-003 -1.08132197e-003 1.10945094e-003 -9.28354530e-006
      -3.40740284e-004 1.95484981e-003 1.93381764e-003 1.42963091e-003
      -2.58123991e-003 -1.40059018e-003 8.46147537e-004 -2.83445604e-003
      -1.23134069e-003 7.60699215e-004 -9.26834400e-005 1.11841911e-003
      -1.49833140e-004 3.45271127e-003 -1.16733974e-003 1.21822231e-003
      2.08208780e-003 2.99669616e-003</_></support_vectors>
  <decision_functions>
    <_>
      <sv_count>1</sv_count>
      <rho>5.4745319242437895e-001</rho>
      <alpha>
        1.</alpha>
      <index>
        0</index></_></decision_functions></my_svm>
</opencv_storage>
