<?xml version="1.0"?>
<opencv_storage>
<my_nn type_id="opencv-ml-ann-mlp">
  <layer_sizes type_id="opencv-matrix">
    <rows>1</rows>
    <cols>3</cols>
    <dt>i</dt>
    <data>
      265 10 1</data></layer_sizes>
  <activation_function>SIGMOID_SYM</activation_function>
  <f_param1>1.</f_param1>
  <f_param2>1.</f_param2>
  <min_val>-9.4999999999999996e-001</min_val>
  <max_val>9.4999999999999996e-001</max_val>
  <min_val1>-9.7999999999999998e-001</min_val1>
  <max_val1>9.7999999999999998e-001</max_val1>
  <training_params>
    <train_method>RPROP</train_method>
    <dw0>1.0000000000000001e-001</dw0>
    <dw_plus>1.2000000000000000e+000</dw_plus>
    <dw_minus>5.0000000000000000e-001</dw_minus>
    <dw_min>1.1920928955078125e-007</dw_min>
    <dw_max>50.</dw_max>
    <term_criteria><epsilon>9.9999997764825821e-003</epsilon>
      <iterations>1000</iterations></term_criteria></training_params>
  <input_scale>
    3.9999990463259110e+001 -2.0999995231629555e+001 8.
    -5.4000000953674316e+000 2.0000007152559931e+001
    -1.3000004768373287e+001 1.9999995231629555e+001
    -1.4999996423722166e+001 1.9999995231629555e+001
    -1.6999996423722166e+001 1. -9.0000003576278687e-001
    1.3333335452609928e+001 -1.2333335452609928e+001
    2.0000007152559931e+001 -1.9000007152559931e+001
    3.9999990463259110e+001 -3.8999990463259110e+001 1. -1.
    2.0000007152559931e+001 -1.8000006556513270e+001 1. -1.
    2.0000007152559931e+001 -1.9000007152559931e+001
    3.9999990463259110e+001 -3.8999990463259110e+001
    4.0000038147009036e+001 -3.7000035762820971e+001
    3.9999990463259110e+001 -3.4999992847444332e+001
    3.9999990463259110e+001 -2.8999992847444332e+001
    4.0000038147009036e+001 -2.7000026226068712e+001
    4.9999995529652042e+000 -3.4999997764826021e+000
    4.9999995529652042e+000 -3.4999997764826021e+000
    1.3333332803514290e+001 -6.3333332008785730e+000
    4.9999999254941949e+000 -3.2500000558793536e+000
    1.0000000596046483e+001 -7.5000007450581041e+000
    3.9999990463259110e+001 -3.2999992847444332e+001
    2.0000007152559931e+001 -1.8000006556513270e+001
    3.9999990463259110e+001 -3.8999990463259110e+001 8. -7.
    1.0000000596046483e+001 -8.5000004470348625e+000
    4.0000038147009036e+001 -3.7000035762820971e+001
    1.0000000596046483e+001 -9.0000005960464833e+000
    2.0000007152559931e+001 -1.9000007152559931e+001
    3.9999990463259110e+001 -3.8999990463259110e+001
    3.9999990463259110e+001 -3.8999990463259110e+001
    1.3333335452609928e+001 -1.2333335452609928e+001 8. -7.
    1.3333330154419704e+001 -1.0999997615814777e+001
    1.3333330154419704e+001 -1.0999997615814777e+001 8.
    -6.2000002861022949e+000 1.0000000596046483e+001
    -7.5000007450581041e+000 1.3333335452609928e+001
    -8.3333346578812044e+000 1. 0. 2. -1. 4.0000000000000002e-001 -1. 2.
    -1. 1. -3. 2. -3. 2.8571428571428570e-001 -1.8571428571428570e+000
    5.0000000000000000e-001 -3.5000000000000000e+000
    2.8571428571428570e-001 -1.8571428571428570e+000
    4.0000000000000002e-001 -1. 1. -2. 5.0000000000000000e-001 -1. 1. 0.
    2. -1. 1. 0. 2. -1. 4.0000000000000002e-001 -1. 2. -1. 2. -1. 2. -3.
    1. -4. 5.2631578947368418e-002 -1.5789473684210527e+000
    8.0000000000000002e-002 -4.9199999999999999e+000
    1.8181818181818182e-001 -7. 3.3333333333333331e-001
    -1.6666666666666665e+000 1. -3. 2. -3. 1. -1. 1. -1. 2. -1. 1. -1.
    2. -3. 1. -2. 3.3333333333333331e-001 -2.3333333333333330e+000
    3.3333333333333331e-001 -1.6666666666666665e+000 2. -9.
    1.6666666666666666e-001 -1.0500000000000000e+001
    1.6666666666666666e-001 -1.5166666666666666e+001
    5.0000000000000000e-001 -1.8500000000000000e+001 2. -5.
    5.0000000000000000e-001 -2.5000000000000000e+000
    3.3333333333333331e-001 -1.6666666666666665e+000
    4.0000000000000002e-001 -1.8000000000000000e+000 2. -1. 1. 0. 2. -1.
    1. -8. 1.6666666666666666e-001 -7.1666666666666661e+000
    2.0000000000000001e-001 -15. 4.6511627906976744e-002
    -3.0930232558139537e+000 8.3333333333333329e-002
    -5.9166666666666661e+000 4.6511627906976744e-002
    -4.9069767441860463e+000 2.0000000000000000e-002
    -1.9399999999999999e+000 2.0618556701030927e-002
    -1.2680412371134020e+000 2.8169014084507043e-002
    -1.5070422535211268e+000 2.2988505747126436e-002
    -1.0689655172413792e+000 2.1276595744680851e-002
    -1.0425531914893618e+000 3.1250000000000000e-002
    -1.1250000000000000e+000 1.1764705882352941e-001
    -1.1176470588235294e+000 6.6666666666666663e-001 -1. 1. -2.
    5.0000000000000000e-001 -3.5000000000000000e+000
    8.3333333333333329e-002 -3.4166666666666665e+000
    3.2786885245901641e-002 -2.3442622950819674e+000
    3.1746031746031744e-002 -2.4285714285714284e+000
    3.3333333333333333e-002 -2.4666666666666668e+000
    4.1666666666666664e-002 -3.1250000000000000e+000
    1.8691588785046728e-002 -1.2616822429906540e+000
    1.8181818181818182e-001 -1.2272727272727273e+001
    9.5238095238095233e-002 -5.1904761904761898e+000
    6.0606060606060608e-002 -1.7272727272727273e+000
    4.5454545454545456e-002 -1.0454545454545454e+000
    6.4516129032258063e-002 -1.1290322580645160e+000
    2.5000000000000000e-001 -1.5000000000000000e+000
    6.6666666666666663e-001 -1.6666666666666665e+000
    6.6666666666666663e-001 -1. 2. -5. 1.2500000000000000e-001
    -1.1250000000000000e+000 2.0618556701030927e-002
    -1.0618556701030928e+000 1.3888888888888888e-002
    -1.0277777777777777e+000 2.0202020202020204e-002
    -1.0404040404040404e+000 6.8965517241379309e-002
    -3.7586206896551722e+000 5.8823529411764705e-002
    -4.5882352941176467e+000 3.5087719298245612e-002
    -2.2982456140350878e+000 4.6511627906976744e-002
    -1.0465116279069768e+000 2. -15. 3.3333333333333331e-001 -3. 1. -2.
    6.6666666666666663e-001 -1.6666666666666665e+000 2. -3. 1. -1.
    6.6666666666666663e-001 -3. 5.1282051282051280e-002
    -1.5641025641025641e+000 6.4516129032258063e-002
    -4.8709677419354840e+000 1. -98. 6.6666666666666663e-001
    -6.8333333333333329e+001 6.8965517241379309e-002
    -8.1034482758620694e+000 4.4444444444444446e-002
    -5.4444444444444446e+000 2.8985507246376812e-002
    -2.4492753623188408e+000 2.7027027027027029e-002
    -1.9729729729729730e+000 5.8823529411764705e-002
    -5.7647058823529411e+000 5.0000000000000003e-002
    -2.8500000000000001e+000 1. -3. 2. -3. 2. -5. 1. -5.
    4.4444444444444446e-002 -1.0888888888888890e+000
    2.4390243902439025e-002 -1. 8.6956521739130432e-002 -3.
    3.3333333333333331e-001 -10. 2.9850746268656716e-002
    -2.0746268656716418e+000 2.3809523809523808e-002
    -1.9047619047619047e+000 1.4285714285714285e-001
    -6.4285714285714279e+000 4.0000000000000002e-001
    -1.2600000000000001e+001 3.5714285714285712e-002
    -2.3214285714285712e+000 1.7857142857142856e-002
    -1.6607142857142856e+000 2.5641025641025640e-002
    -1.5384615384615383e+000 8.3333333333333329e-002
    -1.0833333333333333e+000 2. -5. 2. -7. 1.0526315789473684e-001
    -1.1052631578947367e+000 3.2258064516129031e-002
    -1.0322580645161290e+000 6.4516129032258063e-002
    -1.4516129032258065e+000 6.6666666666666666e-002
    -1.5333333333333332e+000 7.1428571428571425e-002
    -4.5714285714285712e+000 9.5238095238095233e-002
    -7.7619047619047619e+000 2.5000000000000000e-001 -14.
    6.4516129032258063e-002 -2.9354838709677420e+000
    3.3333333333333331e-001 -2.2666666666666664e+001
    2.5000000000000000e-001 -2.0500000000000000e+001
    9.5238095238095233e-002 -7.2857142857142856e+000
    1.5625000000000000e-002 -1.2187500000000000e+000
    1.9607843137254902e-002 -1.0196078431372548e+000
    7.1428571428571425e-002 -1.0714285714285714e+000 1. -3.
    2.5000000000000000e-001 -1.5000000000000000e+000
    1.1764705882352941e-001 -1.1176470588235294e+000 1. -3.
    9.0909090909090912e-002 -3.6363636363636367e+000
    3.6363636363636362e-002 -3.7999999999999998e+000
    3.0769230769230771e-002 -2.4153846153846157e+000
    3.6363636363636362e-002 -1.8363636363636362e+000
    2.5000000000000000e-001 -1.8750000000000000e+001
    3.3333333333333331e-001 -2.5333333333333332e+001
    1.8018018018018018e-002 -1.2522522522522523e+000
    1.5267175572519083e-002 -1.2595419847328244e+000
    3.9215686274509803e-002 -2.2156862745098040e+000
    1.1764705882352941e-002 -1.0470588235294118e+000
    2.1505376344086023e-002 -1.0645161290322582e+000
    1.6666666666666666e-001 -1.3333333333333333e+000 1. -1. 2. -5. 1.
    -3. 8.0000000000000002e-002 -2.8399999999999999e+000
    2.7777777777777776e-002 -1.8333333333333333e+000
    1.3333333333333333e-001 -5.2666666666666666e+000
    2.0408163265306121e-002 -1.0204081632653061e+000
    2.3529411764705882e-002 -1.0705882352941176e+000
    1.2500000000000000e-001 -1.3750000000000000e+000
    3.1746031746031744e-002 -1.2539682539682540e+000
    2.3809523809523808e-002 -1.9285714285714284e+000
    3.0303030303030304e-002 -1.4242424242424243e+000
    2.3255813953488372e-002 -1. 2.8169014084507043e-002 -1.
    1.6666666666666666e-001 -1.1666666666666665e+000 2. -1. 2. -1. 1.
    -3. 4.3478260869565216e-002 -1.0434782608695652e+000
    1.9607843137254902e-002 -1.2156862745098038e+000
    8.6956521739130432e-002 -5.3478260869565215e+000
    2.5641025641025640e-002 -1.8461538461538460e+000
    2.9411764705882353e-002 -1.8235294117647058e+000
    4.0000000000000002e-001 -1.3800000000000001e+001
    3.8461538461538464e-002 -2.6153846153846154e+000
    3.6363636363636362e-002 -3.6909090909090909e+000
    6.2500000000000000e-002 -1.7500000000000000e+000
    1.8181818181818182e-001 -1.7272727272727273e+000
    3.3333333333333331e-001 -2. 2. -5. 1. -1. 2. -3. 1. -2.
    3.7735849056603772e-002 -1.0377358490566038e+000
    1.5625000000000000e-002 -1.0625000000000000e+000
    2.0202020202020204e-002 -1.4040404040404042e+000
    5.4054054054054057e-002 -3.9189189189189193e+000
    3.3333333333333331e-001 -3.1333333333333332e+001
    1.0526315789473684e-001 -1.0578947368421051e+001
    5.8823529411764705e-002 -6.8235294117647056e+000
    2.1739130434782608e-002 -2.1521739130434780e+000
    2.5000000000000000e-001 -3.5000000000000000e+000 1. -1. 1. -1.
    6.6666666666666663e-001 -1. 1. 0. 2. -3. 5.0000000000000000e-001 -1.
    5.8823529411764705e-002 -1.0588235294117647e+000
    2.9411764705882353e-002 -1.0588235294117647e+000
    4.5454545454545456e-002 -1.0909090909090908e+000 1. -19.
    4.6511627906976744e-002 -1.7906976744186047e+000
    2.0618556701030927e-002 -1.3711340206185567e+000
    4.3478260869565216e-002 -3.6521739130434780e+000
    3.7037037037037035e-002 -2.1111111111111112e+000
    2.8571428571428570e-001 -2.1428571428571428e+000 2. -3. 1. -1.
    6.6666666666666663e-001 -1. 2. -1. 2. -1. 2. -1.
    6.6666666666666663e-001 -1.6666666666666665e+000
    4.0000000000000002e-001 -1.8000000000000000e+000 1. -2. 2. -5.
    1.1111111111111110e-001 -1.1111111111111112e+000
    3.5714285714285712e-002 -1.0714285714285714e+000
    5.0000000000000003e-002 -1.3500000000000001e+000 1. -13. 1. -2.
    4.0000000000000002e-001 -1. 2. -1. 1. -1.</input_scale>
  <output_scale>
    5.2631578947368418e-001 4.9999999999999994e-001</output_scale>
  <inv_output_scale>
    1.8999999999999999e+000 -9.4999999999999996e-001</inv_output_scale>
  <weights>
    <_>
      9.3114581953677611e-002 -9.2450088451495299e-002
      1.0135206096107167e-001 6.2502545652453750e-003
      -1.0367884916970023e-001 1.0524494447524393e-001
      -1.0272426025300349e-001 -1.0460199278942534e-001
      -1.0367830941757727e-001 -1.0411027655292247e-001
      1.0587898822244798e-001 -9.5230242394291453e-002
      1.0354568686974534e-001 3.8922482120352792e-003
      -9.3869171431385526e-002 1.0296445374265589e-001
      -9.5092513785361293e-002 -1.0273911608486340e-001
      -1.0141035917845738e-001 -9.5118013240685584e-002
      -9.3592222595653543e-002 1.0558613351288504e-001
      -1.0636980895639934e-001 -2.1824933349961911e-003
      9.5337800481933646e-002 -1.0395963359970738e-001
      1.0244158554348469e-001 9.9892292497662571e-002
      1.0653478636658130e-001 1.0600678064082969e-001
      -1.0332597255504607e-001 9.4703317854783753e-002
      -1.0441461147258578e-001 7.0422543089444373e-003
      1.0376920841797278e-001 -1.0321676258653086e-001
      1.0116866436621971e-001 9.2901401372833134e-002
      9.4543232397796093e-002 9.5169514733068283e-002
      1.0451185019647326e-001 -1.0469596562019071e-001
      9.9375679672764949e-002 6.1768079650601354e-003
      -9.8987621913463497e-002 9.9193107561101085e-002
      -1.0230343378072138e-001 -1.0152382501094064e-001
      -1.0175522190526559e-001 -1.0074802909861191e-001
      7.0133880135075360e-003 2.5689200316565389e-005
      2.5287196773786827e-003 -3.0202134697764889e-003
      3.2620377682571404e-003 2.8959648471487674e-003
      -1.3343342402126692e-003 -2.4463976040069902e-003
      4.7807724737061932e-003 -4.0434389986247353e-004
      -9.8741656244308668e-002 9.9091920239131062e-002
      -1.0653618140686898e-001 -6.3843972845316760e-003
      9.8325464613414335e-002 -9.7791187192581452e-002
      9.9279906674420895e-002 1.0284611226136710e-001
      9.9450676140815888e-002 1.0510270950602048e-001
      -9.7604434407860610e-002 1.0536785118235094e-001
      -9.8779221325333733e-002 3.7080225411075945e-003
      9.6618655450953647e-002 -1.0750686027125186e-001
      9.9938474932197860e-002 9.2444480550978175e-002
      1.0568039264878977e-001 1.0102067735428633e-001
      -1.0138298575231250e-001 1.0449642645201407e-001
      -9.3680333800751095e-002 -3.1694289060101993e-003
      9.6310197907628264e-002 -9.3942217657765364e-002
      1.0572576463800476e-001 1.0209928619352417e-001
      9.2405709386921026e-002 1.0482273992839236e-001
      2.1945823979800955e-003 -1.0256033306895785e-003
      5.5025071148238494e-003 -5.7057115113727103e-003
      5.1999877916441995e-003 -1.4207907459802029e-003
      2.2787666672199336e-003 -1.3402061547085925e-003
      5.7662289416668209e-003 4.3171821790364941e-003
      -9.8178202813324511e-002 1.0720786784347966e-001
      -1.0489914948712879e-001 -3.5978824168243079e-003
      1.0280058197728136e-001 -1.0264367526266267e-001
      9.4291409043843089e-002 1.0132096225192573e-001
      9.4384555281375820e-002 1.0296199696016135e-001
      -6.5742033522482816e-003 7.3135498221718383e-003
      4.1857189005106632e-003 9.9289338366574881e-004
      2.8421337555935415e-003 5.4254179075197461e-003
      -2.5977443325982991e-003 7.6187331923534725e-003
      -2.5688671958776772e-003 8.1448239211214077e-004
      -9.7669390371633885e-002 9.5417860325196793e-002
      -9.4587359466495199e-002 -5.4057082762247466e-004
      1.0631138649634432e-001 -9.4822917279124605e-002
      9.7300050570772761e-002 9.9157118036905662e-002
      1.0234384301856790e-001 1.0408874805265743e-001
      -9.9440196060311306e-002 1.0345669721957651e-001
      -1.0035996659827437e-001 -1.5830289831442607e-003
      9.7395817545619712e-002 -1.0591167251202749e-001
      1.0588845468745763e-001 1.0684560882750818e-001
      9.6071346510485836e-002 9.6447506847849113e-002
      -1.0225556066518907e-001 9.8001899777619153e-002
      -9.4278003620450329e-002 1.5881207071645337e-003
      1.0561659859859343e-001 -1.0650062812927867e-001
      9.5384856398940593e-002 9.2847267423636567e-002
      1.0274728420601655e-001 1.0239568880487071e-001
      1.0388032517122506e-001 -1.0740357707143527e-001
      1.0417205188670921e-001 3.4458347956512481e-003
      -9.3379861895623958e-002 1.0341437255497969e-001
      -9.9815654952153263e-002 -9.9214315873052641e-002
      -1.0459193714011629e-001 -9.7200793738547370e-002
      9.9306153453280269e-002 -1.0371744786638981e-001
      1.0085919427247768e-001 -2.6021571048280151e-003
      -9.4285146300592523e-002 9.7123547644622582e-002
      -9.3579079611576632e-002 -9.9149024579694628e-002
      -1.0734012924607200e-001 -9.6713552991604376e-002
      9.7218028897974804e-002 -9.2496794287164355e-002
      1.0415522865791706e-001 5.5465162571470827e-003
      -9.4516430166708132e-002 1.0759198235349690e-001
      -1.0581090641250396e-001 -9.9946598215122653e-002
      -1.0130073871260586e-001 -9.5881984512414475e-002
      1.0138459999897231e-001 -1.0104007813868096e-001
      9.3482498076909407e-002 6.7120187762739064e-003
      -9.2226855999948329e-002 1.0573075021125983e-001
      -1.0339154880067790e-001 -9.3013249073488111e-002
      -1.0105013528127879e-001 -9.8973989627905615e-002
      9.3030072929066177e-002 -1.0326752634476147e-001
      1.0633062788964541e-001 4.7822109430509380e-003
      -9.9733077314146171e-002 1.0448191979175965e-001
      -9.6894701401391559e-002 -1.0792795463378271e-001
      -1.0474984789762982e-001 -9.4775424763552385e-002
      1.0603928515690231e-001 -9.4464688680909931e-002
      9.9360965522347508e-002 4.7364724574269074e-003
      -1.0501204953157497e-001 1.0152270536440682e-001
      -1.0140890453996181e-001 -1.0461482308638009e-001
      -1.0118307881062527e-001 -1.0476767623837203e-001
      9.9192248562638446e-002 -9.4822229899627200e-002
      1.0325488765566161e-001 5.6622684248407162e-004
      -1.0338121704053958e-001 1.0360673140766168e-001
      -9.9683581159050363e-002 -9.6520321392597211e-002
      -9.5340728776145883e-002 -9.4531203965589408e-002
      1.0671207015066564e-001 -9.8556965134519350e-002
      9.4625144756438434e-002 -2.9838689486374331e-003
      -1.0156526357407344e-001 1.0422909701355974e-001
      -9.7121520108264178e-002 -1.0195723214038549e-001
      -1.0731046364156174e-001 -1.0559291819050022e-001
      1.0410882023341565e-001 -1.0692895791339688e-001
      1.0603912561779399e-001 3.9956626164023429e-003
      -1.0455529159766971e-001 9.3493465352754379e-002
      -9.8770816277977722e-002 -9.9430630080467625e-002
      -9.7057744822830555e-002 -1.0669868203283292e-001
      1.0662426333522189e-001 -1.0543737160742737e-001
      1.0162805086544020e-001 -5.6071457888906134e-003
      -9.9257739207943729e-002 1.0442091878644649e-001
      -1.0723798859081846e-001 -1.0515524219961231e-001
      -1.0384008181780301e-001 -1.0314535373590954e-001
      1.0233680893618996e-001 -1.0204964812757267e-001
      9.3809771871739653e-002 -6.2014038691803747e-003
      -1.0008478636288545e-001 9.6086922852862813e-002
      -9.4609673920845891e-002 -1.0574308438211646e-001
      -9.9503942906627146e-002 -9.2691497881908697e-002
      -9.3763378174718193e-002 9.4031132578921581e-002
      -1.0576400482843576e-001 -5.4828860881265817e-003
      1.0152047743321659e-001 -9.3363828795819809e-002
      9.9637943497427064e-002 9.8928416002595665e-002
      1.0773571254775854e-001 1.0727492583057613e-001
      -9.4876371972439200e-002 1.0344698223800085e-001
      -9.5851801986340107e-002 5.1120966597451162e-003
      9.4328350463787167e-002 -9.6626141851736819e-002
      9.3280657103347320e-002 1.0429105833409696e-001
      9.3898062701695734e-002 1.0632781719943345e-001
      -9.5926880064686387e-002 1.0165691982822710e-001
      -1.0079855787235667e-001 4.1293795546705064e-003
      9.6000815740181739e-002 -9.7633797811784800e-002
      9.9877046875278902e-002 9.2314242462705254e-002
      9.5255653716542391e-002 9.5266476743864112e-002
      -9.3612368231311457e-002 1.0219754009904085e-001
      -9.8238811218345518e-002 9.7506329961771776e-004
      1.0532988006638619e-001 -1.0335009814654071e-001
      1.0297815500611865e-001 9.9491159101445084e-002
      1.0198822802126116e-001 9.6296279601473578e-002
      -9.5545272907284207e-002 1.0764228467611092e-001
      -9.6777533522898293e-002 -5.9493823796971657e-004
      1.0385522031926180e-001 -9.8902141345468403e-002
      9.5343973952917160e-002 9.5313966439085407e-002
      1.0061139029850545e-001 9.5531800890536797e-002
      -1.0533727242953624e-001 1.0251987836221310e-001
      -1.0088384828085845e-001 -3.1113726166758227e-003
      9.9894935127095713e-002 -9.6033267586254634e-002
      1.0333207662030228e-001 1.0690857479688981e-001
      9.3448079110876631e-002 1.0183021068753065e-001
      -1.0369759183943383e-001 9.9410524619717180e-002
      -1.0462239413100193e-001 2.0800412118027467e-003
      9.5589267310075859e-002 -9.6929079774604632e-002
      9.5584657142180188e-002 9.9047338683623282e-002
      1.0128469046827319e-001 9.3410038009194063e-002
      -9.4510683203101381e-002 1.0210691985069321e-001
      -1.0399735755725940e-001 2.5208123929545967e-005
      9.6591150734777920e-002 -1.0163064580051838e-001
      9.8262613834888143e-002 1.0271393932089357e-001
      1.0039714729861282e-001 9.4729226775564071e-002
      -9.9484892362186356e-002 9.8177579701495640e-002
      -1.0105986281016804e-001 -2.5635377891504302e-003
      9.2565633953960058e-002 -9.4640198921196961e-002
      9.3057479420115677e-002 9.2214245836604328e-002
      1.0190337332888616e-001 1.0174846758035666e-001
      9.7302719294134477e-002 -1.0429667249792966e-001
      1.0353237385978906e-001 -3.6288608811502754e-003
      -1.0073206540100031e-001 1.0668929503134736e-001
      -9.3726728881714599e-002 -9.4198070636330178e-002
      -9.8113378967170845e-002 -9.5842351812204629e-002
      9.4818891824082638e-002 -9.4720931034339373e-002
      1.0472559855027792e-001 -4.5046104184023050e-003
      -1.0338865048162933e-001 1.0573842395622698e-001
      -1.0700597055060780e-001 -1.0682500323325073e-001
      -9.3595676120602878e-002 -1.0361533824837917e-001
      9.7169108265650450e-002 -9.2763240763564569e-002
      9.6340963248603681e-002 2.7526651816076053e-003
      -1.0105045863577684e-001 1.0751833461492358e-001
      -1.0558642980339285e-001 -1.0503108087619212e-001
      -1.0110371771477462e-001 -1.0096996317332234e-001
      9.8098917199931079e-002 -9.5792818044313707e-002
      1.0549313390450507e-001 3.6864260101878016e-003
      -1.0614358154679995e-001 1.0343288132010706e-001
      -9.6095048981077638e-002 -9.6495287092812590e-002
      -1.0092793752989646e-001 -9.6239878879485430e-002
      9.7387281096364353e-002 -1.0210988045965287e-001
      9.7585594152834063e-002 -6.2315517633399903e-003
      -1.0709649019912734e-001 9.9766277055504143e-002
      -9.7464075903683028e-002 -9.4170459839412940e-002
      -1.0512836383815696e-001 -1.0584720450111333e-001
      -3.7691867297903209e-003 4.4692240013956951e-003
      3.7714748531828299e-003 -3.2502451721310517e-003
      -3.6277344692357263e-003 -5.4250158135390166e-003
      -4.8657923411499554e-003 8.0115349124270218e-003
      -6.2098616562118302e-003 3.6141600738732811e-003
      1.0371153475279664e-001 -1.0597735170967883e-001
      1.0442938449855874e-001 -7.1901293772776292e-003
      -9.5585933373077719e-002 1.0630528452226035e-001
      -9.4997652392415394e-002 -9.9461059805379948e-002
      -9.7176007806620918e-002 -1.0265475970957544e-001
      1.0689610396762152e-001 -9.7734343945909505e-002
      1.0711372960871737e-001 2.0876397838835853e-003
      -9.2250752665204799e-002 9.2893737217498037e-002
      -1.0546535157297476e-001 -1.0060692174226708e-001
      -1.0496932684003635e-001 -1.0073744014503053e-001
      9.4162441870281152e-002 -9.7066996406394726e-002
      1.0133985289957598e-001 4.6160386314650914e-003
      -1.0469149710968084e-001 9.5998705521652489e-002
      -9.4065491838294435e-002 -1.0539693720564887e-001
      -1.0264348933564067e-001 -9.5309667546256194e-002
      -6.9829032183809717e-003 7.3402819137555822e-003
      -5.0652657265762378e-003 4.7296133999827038e-003
      4.0003111495025400e-003 4.6701296476886191e-004
      -1.5580921473023093e-003 2.8996157605816566e-003
      4.1086988220138771e-003 -2.4802767165244292e-003
      -1.0324117750063781e-001 1.0131007674531571e-001
      -9.9570935965158494e-002 2.1125700035285189e-003
      9.3399051364500579e-002 -9.2386538357327450e-002
      9.5655036856136674e-002 9.5179583960337349e-002
      9.6217439952100497e-002 9.7173927469853788e-002
      1.0607145304874795e-001 -9.3790484651648118e-002
      1.0122620684190883e-001 2.1366387233913986e-003
      -9.7109193026507556e-002 1.0017877957138464e-001
      -1.0476373937891885e-001 -9.9416070152694519e-002
      -9.9639598034370183e-002 -9.9653406000967032e-002
      1.0488437345573452e-001 -1.0634543669915764e-001
      1.0177505219398120e-001 -2.7655261122032648e-003
      -1.0732985333241951e-001 1.0349675110638784e-001
      -9.5103888270353015e-002 -1.0058390320880381e-001
      -1.0680200362472882e-001 -9.9886634283023648e-002
      -1.0154957198786531e-001 9.4550283388000422e-002
      -9.5060050802425952e-002 6.8753227806182399e-003
      1.0471796011935505e-001 -9.7611283546195388e-002
      1.0726113872491835e-001 1.0226644683321473e-001
      1.0690947112371346e-001 9.6299193371432390e-002
      -1.0094620845158844e-001 1.0592796459935371e-001
      -9.6507512221468472e-002 -1.4552383562153742e-003
      9.5333281620152185e-002 -1.0021726690648501e-001
      9.3568659580910568e-002 1.0307394798311362e-001
      9.6757262086842641e-002 9.4071455601580173e-002
      9.7719666605663016e-002 -1.0272098282249362e-001
      1.0401616552306629e-001 -6.2696047064115523e-003
      -1.0255397725300640e-001 9.9109011681612957e-002
      -9.3358172460534794e-002 -1.0011891785710995e-001
      -1.0551861848200868e-001 -1.0632889986992375e-001
      9.5965283097925763e-002 -1.0137420234339449e-001
      1.0111807974588631e-001 -4.5715864850751631e-003
      -9.2613681721343516e-002 9.3454588505727368e-002
      -9.8304429335590499e-002 -1.0492390621119493e-001
      -1.0753389950153888e-001 -9.4232093392930483e-002
      -2.0641387905637062e-003 -2.1959552380896689e-003
      -2.0807825773645279e-003 -2.1267720291803936e-003
      -2.7878996839344433e-003 2.1937113687672985e-003
      7.4199180815083844e-003 -2.9690363351475742e-003
      -6.3877531542569357e-003 2.7798419529182465e-004
      9.3331333987948198e-002 -9.7047957382260380e-002
      9.3157305067111479e-002 7.1651841707122133e-003
      -9.2657339622960980e-002 9.8954933338125509e-002
      -1.0383094389555707e-001 -1.0136359643485515e-001
      -1.0114363548728476e-001 -9.9162567071861732e-002
      2.5440444432551631e-003 -5.6669954023689196e-003
      -2.4546783549436535e-003 6.4252102383050447e-003
      -3.8022314430931179e-003 -4.8857054458821339e-003
      2.9012524659313586e-003 2.3905332462144553e-003
      3.7330196421000278e-003 3.2341301066160922e-003
      1.0392630177046912e-001 -1.0035488899068080e-001
      9.2995253977018202e-002 3.9890142500743769e-003
      -1.0288047874300754e-001 1.0720289932131571e-001
      -9.9800521864265301e-002 -9.9809535451179029e-002
      -1.0178552237037622e-001 -1.0188208656110008e-001
      1.0328842770073220e-001 -1.0500722859350234e-001
      9.6265898537307187e-002 -1.2530077796569783e-003
      -1.0069051405406328e-001 1.0234804765912707e-001
      -1.0114110496003824e-001 -1.0801920961179719e-001
      -9.9388596893023443e-002 -9.3742431145225166e-002
      9.4526047750940312e-002 -1.0191843063638630e-001
      9.7792685013091130e-002 3.7403767008757083e-003
      -9.2880029818967730e-002 1.0321464238166210e-001
      -1.0455164602261661e-001 -9.6033816827694102e-002
      -1.0631455065059681e-001 -1.0004881186987803e-001
      -9.3124877545204432e-002 1.0481399130863137e-001
      -1.0494160733223193e-001 -4.2295897037576136e-003
      9.8387877159646905e-002 -9.6817604306352001e-002
      9.9690426861973033e-002 1.0206954396643085e-001
      9.5748714814143140e-002 9.9409187187653958e-002
      -1.0015994988865165e-001 1.0606544923601385e-001
      -9.4943649616447454e-002 4.6826327776002680e-003
      1.0124926120686094e-001 -1.0595338645662887e-001
      9.7441217641669325e-002 9.6420775974980374e-002
      9.8681917329037389e-002 1.0112885377723947e-001
      9.5478899828309538e-002 -9.3756667938723018e-002
      9.6669131390056812e-002 -4.2300893913514714e-004
      -9.5293881160862293e-002 9.9748473413762723e-002
      -1.0221392616902808e-001 -1.0373981435041460e-001
      -9.4088124794917946e-002 -9.4733791750931981e-002
      9.4667287743858963e-002 -9.7727420693036873e-002
      9.3243379004163476e-002 5.7167428443930246e-003
      -1.0532266890364436e-001 1.0190448028461375e-001
      -1.0566394951602298e-001 -1.0414048679715249e-001
      -9.3907742689477797e-002 -1.0087953736844964e-001
      9.6296701146972474e-002 -1.0006096407578782e-001
      1.0497673061931331e-001 8.2623183033639358e-004
      -9.8905789285788678e-002 1.0609527670753781e-001
      -1.0437442421201822e-001 -9.7873063887775308e-002
      -9.2753390119678383e-002 -1.0436126380270801e-001
      -9.9422322995108059e-002 1.0419020663826335e-001
      -9.4613807944481945e-002 -2.8298932394518334e-003
      9.2586555042775132e-002 -1.0696234307652848e-001
      9.4890441652291727e-002 9.6422611719109652e-002
      1.0724944224147726e-001 9.4203836327812013e-002
      -9.8939583154478525e-002 9.4996987229941973e-002
      -9.9446656678013515e-002 5.0266940705802482e-003
      9.8717800057307944e-002 -1.0074547617226509e-001
      1.0620266907453085e-001 9.8614551814111218e-002
      1.0769925075390208e-001 9.7016667627522188e-002
      -3.9559011571281390e-003 2.5244755278792767e-003
      6.1087498251163616e-003 -1.9041541253277520e-003
      6.5189561562799007e-003 -5.2309694336498853e-003
      -5.8968471817997491e-003 -1.5169447561083757e-003
      -2.8508544298238236e-003 -6.2953454239630317e-004
      1.0471922358944276e-001 -9.6517875340889292e-002
      1.0176864167508277e-001 -4.5551345701474316e-003
      -1.0499068422652734e-001 9.3109243664236715e-002
      -9.7943474920157897e-002 -1.0628934722306851e-001
      -1.0223853144805156e-001 -9.2945146763043190e-002
      9.4125736972306334e-002 -1.0006251803468735e-001
      1.0127501869789374e-001 -7.2169061428392633e-004
      -9.9491375816542743e-002 9.4140677807853901e-002
      -1.0676398370009586e-001 -1.0078909656227376e-001
      -1.0366939132964635e-001 -1.0089644964850797e-001
      9.3882948526988724e-002 -9.4292184463885750e-002
      9.3686381256986390e-002 -3.8331468362848703e-003
      -9.4929683384838245e-002 1.0008310556727341e-001
      -1.0321362907023889e-001 -1.0146000176404928e-001
      -1.0244124371131755e-001 -1.0301593797674825e-001
      9.8574237481398305e-002 -9.4483148058717686e-002
      9.8193823608480973e-002 1.7032224623014375e-003
      -9.7640584074310324e-002 1.0018592673596430e-001
      -9.6708560265150637e-002 -9.9789618343123734e-002
      -1.0418228942844764e-001 -1.0107997837077358e-001
      9.5578804009189958e-002 -9.7066331166432221e-002
      9.9452106468764859e-002 -5.0210437198189156e-003
      -9.6258390828646623e-002 1.0698099590780209e-001
      -1.0590614645648236e-001 -1.0808316657434826e-001
      -1.0444646211115055e-001 -9.7993509902285572e-002
      9.4463072734576090e-002 -1.0392159778651408e-001
      9.8066033378143097e-002 2.4690303198680041e-003
      -1.0186461932403462e-001 1.0060104055352456e-001
      -1.0431423515091907e-001 -9.9733724335176688e-002
      -1.0415885707755534e-001 -9.4255047139098352e-002
      2.6442123271842996e-003 3.5305647666313642e-003
      -9.6208984531034793e-004 3.7563754713544374e-003
      3.9611840685365397e-003 -3.1879036401336557e-004
      -6.6368324618780684e-003 4.7564293888945793e-003
      3.8887095081583246e-003 2.6692377617649012e-003
      -9.2950364489715581e-002 1.0237174200669620e-001
      -9.8092189381048675e-002 -6.3605095524396499e-003
      9.7746489369682943e-002 -1.0194181122676226e-001
      1.0206033810544085e-001 9.7712154590651412e-002
      9.2860429292793520e-002 9.2588020750719230e-002
      -9.8713893654738469e-002 1.0083802730206839e-001
      -1.0603353920799907e-001 -1.3317733981707547e-003
      9.2855739442521568e-002 -9.8222608547863771e-002
      9.5769925912501885e-002 9.2864037342930555e-002
      1.0582524564694801e-001 9.8886939022825887e-002
      -1.0351674127238214e-001 9.9599052508227107e-002
      -1.0624642728438893e-001 -3.6324876572475379e-003
      9.2673488876114762e-002 -1.0333990860440855e-001
      1.0027665592929097e-001 1.0151946029216420e-001
      9.5368522524907767e-002 1.0168247819324484e-001
      9.6947169987307097e-002 -1.0141357532948909e-001
      1.0491808755749867e-001 3.9929060710002656e-003
      -1.0124729922853817e-001 1.0364448021855817e-001
      -9.6995442955075215e-002 -1.0572248277781118e-001
      -1.0201875950787939e-001 -1.0609004276443806e-001
      1.0009915182312647e-001 -9.2434922218177923e-002
      9.7459056609563555e-002 5.0770540270868997e-003
      -1.0386259078730793e-001 9.6988436257414337e-002
      -1.0525369293598215e-001 -1.0329971653731602e-001
      -9.3828944038910247e-002 -1.0528088243731044e-001
      1.0372026903679644e-001 -9.8539397146479468e-002
      1.0359226042954925e-001 1.0824749546396867e-003
      -1.0165581926338278e-001 1.0376516208733878e-001
      -9.5459807101224023e-002 -1.0408836310905997e-001
      -9.9864899772707960e-002 -9.5715951493262952e-002
      9.4340893583184968e-002 -9.4778225139695388e-002
      9.3163219043628467e-002 5.0367469818638766e-003
      -1.0380220973235459e-001 1.0281404952591343e-001
      -1.0059886108167114e-001 -1.0544559775224895e-001
      -1.0220546357499026e-001 -9.2644057061063836e-002
      9.4252657943167839e-002 -9.6838144890244671e-002
      1.0465263832110686e-001 -6.7742703571038176e-003
      -1.0089038037765743e-001 9.7355203632778997e-002
      -1.0533877586175401e-001 -9.8698863073633708e-002
      -1.0187276538301275e-001 -9.3581937197214859e-002
      9.7074832636037112e-002 -9.5615443055955540e-002
      9.5002801902418776e-002 -4.3703466281556913e-004
      -9.9138883213540113e-002 9.3336270656305648e-002
      -9.6164548760076421e-002 -9.7773036178453648e-002
      -9.9957095732443241e-002 -9.9734554394180205e-002
      1.0094908321937655e-001 -1.0523403579124189e-001
      9.3334630700719526e-002 6.8400537612114953e-004
      -9.9263317856560465e-002 1.0532697213411180e-001
      -9.8078588473196393e-002 -1.0064821230375387e-001
      -9.9507426337678243e-002 -1.0282769332441348e-001
      9.8983352695109939e-002 -1.0100935440459756e-001
      9.7006584650773317e-002 5.4273874883619955e-003
      -1.0698167266713475e-001 9.4314119013380979e-002
      -1.0619023257988794e-001 -1.0412290846669678e-001
      -9.8923035076733071e-002 -1.0135790801948769e-001
      -6.5472996959903612e-003 5.9572192232105322e-003
      1.6099201793442906e-003 -4.3160035440629350e-003
      -6.6353777782526555e-003 -3.9925350096013633e-003
      5.2723809984146807e-006 -1.4135227617381233e-003
      -2.7486224536022157e-003 3.0600415738085206e-003
      1.0107537975961371e-001 -1.0698847882573603e-001
      1.0504165825083617e-001 -6.5938843950145987e-003
      -9.9587602397460034e-002 1.0715590932048098e-001
      -1.0149694793478578e-001 -1.0287519989305778e-001
      -9.9227375118977348e-002 -1.0042416564134835e-001
      9.7868889424601008e-002 -9.4671350339340585e-002
      1.0457732000763818e-001 -3.4352528549571049e-003
      -9.3033563647510698e-002 9.8948413466577498e-002
      -9.6945726767707560e-002 -9.7522007883709155e-002
      -9.6004217172848655e-002 -9.8921961007384734e-002
      9.7218961777353438e-002 -1.0201982253930422e-001
      9.6212504525885395e-002 -5.8556639029731933e-003
      -1.0095647242951572e-001 1.0456630720983273e-001
      -1.0655106591068741e-001 -1.0587598755879071e-001
      -9.4846536076761495e-002 -1.0055448734361297e-001
      1.0649452636813875e-001 -9.3464652064596337e-002
      9.7054371827528907e-002 2.4860858818856191e-003
      -9.6049416241284352e-002 9.9030087756404955e-002
      -1.0274814052041584e-001 -9.9922505621699603e-002
      -1.0402317249841048e-001 -1.0148005292395772e-001
      9.3052678569188613e-002 -1.0147675497476344e-001
      9.2965776360913271e-002 -6.9255261489219594e-003
      -1.0514827614613094e-001 9.4990620633427753e-002
      -1.0262423826213324e-001 -1.0494951410972295e-001
      -1.0474721696876169e-001 -1.0018495394565989e-001
      9.5995200357946536e-002 -9.9464769226196459e-002
      1.0554852440540116e-001 -4.0698317626448460e-003
      -1.0453599982831251e-001 9.7474320412958546e-002
      -9.6508663713760823e-002 -1.0011602866406027e-001
      -1.0008380294842026e-001 -1.0065206809892946e-001
      1.0463634673631350e-001 -1.0536960294032270e-001
      9.8196823583910575e-002 -1.9696391861264706e-003
      -1.0111176740724206e-001 1.0536729722112487e-001
      -1.0559537411468445e-001 -1.0466017611659346e-001
      -9.3700817419433743e-002 -9.6479622652675998e-002
      9.8608366565020616e-002 -1.0711974745654686e-001
      9.3326936132370378e-002 3.9317189930856422e-003
      -1.0679336853655384e-001 9.4135729862538861e-002
      -9.3809325904059826e-002 -9.4391655003550456e-002
      -1.0192081479886810e-001 -9.2967308775614405e-002
      1.0488384044550310e-001 -1.0146628697293701e-001
      9.7887461899111392e-002 3.5730304276653246e-003
      -9.9267673122788211e-002 9.7977556411081704e-002
      -9.8003257055687645e-002 -9.9356568867518633e-002
      -1.0593407943559786e-001 -9.6758742377481860e-002
      9.8929881900577762e-002 -1.0186054436985469e-001
      9.7534682213897925e-002 -5.0262883126062086e-004
      -1.0131216220779921e-001 1.0256572335225425e-001
      -9.2862813376740974e-002 -1.0574219930704752e-001
      -9.8537398791639946e-002 -1.0554857235537664e-001
      9.4064135052685349e-002 -1.0699140197156855e-001
      9.8888714002321382e-002 3.5590457622033805e-003
      -1.0534312677311042e-001 9.5165399735685691e-002
      -1.0666914474684124e-001 -9.3825288790176625e-002
      -1.0182674804526805e-001 -1.0021469324638599e-001
      9.9197325742220732e-002 -9.5325125991717913e-002
      9.8910201196610384e-002 2.6840338936849756e-003
      -9.5627257657042483e-002 9.6001452279121727e-002
      -9.8287689500378361e-002 -1.0594458421923275e-001
      -1.0745328263065709e-001 -9.9629279543823626e-002
      9.6280984887942705e-002 -1.0058577074714216e-001
      1.0640246159364448e-001 -6.9783176115074674e-003
      -1.0059092902723191e-001 9.6771358876572108e-002
      -1.0082792839753940e-001 -1.0284353910276525e-001
      -1.0070210695951891e-001 -9.5535636238983590e-002
      1.0114895886355946e-001 -1.0098270809793297e-001
      9.5998721889527724e-002 -6.6154518941097251e-003
      -1.0214001567848373e-001 1.0553726997107270e-001
      -9.7609704394192129e-002 -1.0353410438417876e-001
      -1.0597941457312356e-001 -1.0726523465793059e-001
      9.5428739535390286e-002 -1.0078293279862208e-001
      9.9181466872728635e-002 -2.7109578304052168e-003
      -1.0582736368615643e-001 1.0683867792274621e-001
      -1.0475935399467497e-001 -9.5879306392442826e-002
      -9.6240358589385830e-002 -9.3046438400440662e-002
      -2.7496262950981979e-003 -2.5751159993999801e-003
      2.3584703999897548e-004 3.6156677871118379e-003
      -7.0909229909549903e-003 4.0006763865888337e-003
      -5.9452976215881555e-004 6.1421250519846904e-004
      2.9065732705743440e-004 7.0830862478490830e-003
      -9.4768047286264812e-002 1.0599169087276705e-001
      -9.2670641585857458e-002 -6.2045626088442912e-003
      1.0100439538483615e-001 -1.0494279888935408e-001
      1.0724880049651636e-001 9.9291111835051432e-002
      1.0119929741759638e-001 1.0736636558530974e-001
      -9.6197737028473881e-002 1.0563809442633935e-001
      -9.3919891285988794e-002 -4.9356640772981186e-003
      1.0312167323545580e-001 -1.0059579547063066e-001
      1.0074934671215650e-001 1.0227164728263441e-001
      9.9905860392244347e-002 9.8320233829937237e-002
      -1.0655303572964075e-001 1.0369998964649164e-001
      -9.6273188152211975e-002 -4.1946512630003513e-003
      1.0039816620076275e-001 -9.5302493854811765e-002
      9.6836622362283159e-002 9.4283739314143300e-002
      1.0741683628161953e-001 9.9369617593253634e-002
      -1.0532152719804200e-001 1.0648855701522243e-001
      -1.0021181845634920e-001 -7.0269174379005844e-003
      9.2405848084632564e-002 -9.9675519738316593e-002
      1.0277262101909780e-001 1.0107035388312151e-001
      9.7902165640204666e-002 1.0516778685472156e-001
      -1.0653878918498297e-001 9.8661234241631840e-002
      -9.6114445326281051e-002 7.1502668000053698e-003
      9.2524580126778846e-002 -1.0299576504785060e-001
      1.0712659704071319e-001 1.0694417432462984e-001
      9.3101728376659629e-002 9.5566714783279216e-002
      9.5149193566362256e-002 -9.9555522293932927e-002
      9.7258384440299842e-002 -5.2466561171476134e-003
      -1.0728480892576754e-001 1.0034548405411547e-001
      -9.6418889409645062e-002 -1.0402556532789729e-001
      -9.6416649126636861e-002 -1.0732042897296143e-001
      1.0341488117971391e-001 -9.2244547090833767e-002
      1.0510334577257772e-001 -6.9136667245006944e-003
      -9.9674592122567907e-002 1.0201302601160156e-001
      -9.4664642291416828e-002 -9.6856552319887698e-002
      -1.0075534455650026e-001 -9.5286360781072776e-002
      1.0636221907372327e-001 -9.8079592544106156e-002
      1.0733549284193943e-001 -3.5550402219277494e-003
      -9.2413862819719930e-002 1.0636192741710733e-001
      -1.0108697692101894e-001 -9.4634074857311123e-002
      -1.0168824926162662e-001 -1.0625586019514653e-001
      -9.5769647826211862e-002 1.0699083670660332e-001
      -1.0064495395188451e-001 -6.4032149968884094e-003
      1.0386783232348147e-001 -1.0097708306123054e-001
      1.0580081180541587e-001 1.0428249041972779e-001
      9.8694113737479647e-002 1.0531269513036390e-001
      1.0720123318901663e-001 -9.2185820983581149e-002
      1.0623024203335453e-001 6.5812101528424372e-003
      -1.0392658960773758e-001 1.0538949699573370e-001
      -1.0200458528527910e-001 -9.3465505748561800e-002
      -1.0470988392673800e-001 -1.0018077971678052e-001
      9.7474086130496337e-002 -9.5125755622888081e-002
      9.3409956123563398e-002 -5.6362469029043738e-003
      -1.0436442828520476e-001 9.7441981739682215e-002
      -9.7191857337403709e-002 -1.0214638917211433e-001
      -9.8362397204190849e-002 -9.4736069184516575e-002
      9.8750215379932282e-002 -9.3881799163191559e-002
      9.8556685442621167e-002 6.4085862666450888e-003
      -1.0553073960010663e-001 1.0719763689252247e-001
      -1.0610492507688220e-001 -9.6536331792861502e-002
      -9.3762373400100851e-002 -9.4971414800465809e-002
      1.0666648891036019e-001 -9.7067953056662507e-002
      1.0583091022959515e-001 1.0922744928532346e-003
      -1.0449631161169881e-001 1.0367160622985258e-001
      -1.0036063713783075e-001 -1.0191262750804247e-001
      -9.3288537127570653e-002 -9.2665740021495455e-002
      9.9108684850536158e-002 -9.2698702204427511e-002
      9.7821693698584830e-002 2.3841469567952855e-003
      -1.0690093752484912e-001 9.9777880735982760e-002
      -9.2796676917263343e-002 -1.0368229471261368e-001
      -1.0279036549863139e-001 -1.0574463416971963e-001
      -1.0335539361801604e-001 1.0344296061755190e-001
      -1.0384275229133684e-001 -4.7788191541051628e-003
      1.0054355950073750e-001 -9.9061851586363325e-002
      9.9428627041863810e-002 1.0221283662146503e-001
      1.0204951418807992e-001 1.0231336063290065e-001
      -1.0542781275819732e-001 9.3249611895936182e-002
      -1.0492217203316113e-001 -6.7796235027729745e-004
      1.0194834310420234e-001 -9.3288203364899944e-002
      9.5179892126140919e-002 1.0286101950457502e-001
      9.3194254173639787e-002 9.5042299004836919e-002
      -1.0707925807392261e-001 1.0495912271620150e-001
      -9.7641056948596192e-002 4.3062337782946020e-003
      1.0694352791078644e-001 -1.0495254064555067e-001
      1.0608979421450897e-001 1.0738668409448125e-001
      1.0713584437349752e-001 9.7962199770946168e-002
      -9.4938724485724074e-002 9.2449842543921551e-002
      -1.0210281062618110e-001 2.8574655385021214e-003
      9.5834749670303976e-002 -9.3427107950340926e-002
      9.5569667725933519e-002 9.7403279432063575e-002
      9.3101140352027725e-002 9.4517112546111073e-002
      -9.6930873094202591e-002 9.7558813508870454e-002
      -1.0722047825144004e-001 -2.2425109946107996e-003
      9.4276637217805118e-002 -1.0201046696324276e-001
      9.8796246023105341e-002 9.4734078553327009e-002
      1.0726821845775876e-001 9.4612601236598939e-002
      -1.0241465077730416e-001 9.9851602535375811e-002
      -9.5822812752055592e-002 5.9785400982174247e-003
      1.0120318874708772e-001 -9.2997237991568629e-002
      1.0581631245529961e-001 1.0520418961880561e-001
      9.5543755288339402e-002 9.5020173165960578e-002
      1.0549898152979546e-001 -9.2763928758276909e-002
      1.0387762825256676e-001 4.2769283005192754e-003
      -9.8364960502339602e-002 1.0693728160239629e-001
      -1.0406866061871076e-001 -9.6632571260302155e-002
      -1.0435376587270544e-001 -9.8966203857474247e-002
      9.9580873042602741e-002 -9.2955267421665128e-002
      1.0004524588810026e-001 1.7104702846725689e-003
      -1.0144478150102114e-001 1.0257117446878668e-001
      -1.0420007755175328e-001 -9.5424401352944763e-002
      -9.8442916582984472e-002 -1.0001661218870289e-001
      -1.0389909976004616e-001 1.0088877191891464e-001
      -9.4300766680651696e-002 4.7831051929677071e-003
      1.0550521712625713e-001 -1.0299580879905661e-001
      9.8509250613378757e-002 9.9003914459135950e-002
      1.0502820659799854e-001 9.2469974419887233e-002
      -1.0620507005747835e-001 9.8594023783582313e-002
      -9.8155330426077075e-002 4.2107190108479770e-003
      1.0346847697656437e-001 -9.9342483335172288e-002
      1.0617672095217544e-001 1.0280981935826843e-001
      1.0069626335746094e-001 9.7867907822519709e-002
      -9.7787461955128649e-002 9.2743057337468321e-002
      -1.0160732461101189e-001 6.2642471377250680e-003
      9.3966279886888812e-002 -9.6242189585383067e-002
      1.0665710951316730e-001 9.1805463883415164e-002
      1.0093671194230321e-001 1.0708245356974763e-001
      9.3623669638681392e-002 -9.6903663682692626e-002
      1.0599917071666022e-001 2.8952703555163301e-003
      -1.0301381337148401e-001 1.0501267450241340e-001
      -1.0540693823567718e-001 -1.0171731187427974e-001
      -9.7507702779382560e-002 -9.8470698742084042e-002
      -9.9038344977817980e-002 1.0089856766337600e-001
      -1.0209484941643360e-001 2.0955514490979960e-003
      9.4343473730027577e-002 -1.0419270735760264e-001
      1.0642995669560049e-001 1.0598690073134827e-001
      1.0038381982409360e-001 9.4059330241024044e-002
      9.6495517308557890e-002 -9.7590054356503420e-002
      1.0606688277283099e-001 4.8767661305540166e-003
      -9.7566003169360149e-002 9.7341827962473357e-002
      -9.3801375927635378e-002 -1.0094689144397258e-001
      -1.0761400235350699e-001 -9.9446198582178458e-002
      9.7724715002625168e-002 -1.0030093319818044e-001
      1.0542411456024860e-001 -2.3944307873014908e-003
      -9.2444512356858091e-002 1.0565971260588312e-001
      -1.0738472372831508e-001 -1.0131107034025290e-001
      -9.7231847906645574e-002 -9.4048933387138697e-002
      -3.8941067929753408e-003 3.8024678684319443e-003
      7.7111832071860586e-004 -2.9159617905850747e-003
      5.7400315313640990e-003 4.5071837452919710e-003
      -4.0457131973117974e-003 -2.7763478865554135e-003
      4.8443463360851521e-003 2.0734247206432199e-003
      -9.6401485647747254e-002 9.9575839938519900e-002
      -9.7751424117109201e-002 5.1636456296189209e-003
      1.0138782398302636e-001 -9.4890832631496641e-002
      9.4502860918468032e-002 1.0583809974276348e-001
      9.3796418287810449e-002 9.9320566371463762e-002
      -1.0265273827336721e-001 9.9914898138947564e-002
      -9.8836404594203758e-002 -5.6872905439708799e-005
      9.8890175399393029e-002 -9.6882833232760326e-002
      9.7962166930525604e-002 1.0091989248066141e-001
      1.0620414567358485e-001 9.4463454960320964e-002
      -9.4300115045808736e-002 9.4656444036609888e-002
      -9.6976951440888470e-002 1.1319423340813012e-003
      1.0035420155119834e-001 -9.7429353385802872e-002
      9.7172062500469059e-002 9.7753028418505611e-002
      9.9346976149674443e-002 9.5769759569113225e-002
      -1.0643025212548356e-001 9.4873355493586151e-002
      -1.0700045486275608e-001 -4.4025188055676345e-003
      1.0037605875396148e-001 -1.0703218137963831e-001
      1.0642805129020107e-001 9.8051218395007356e-002
      9.9147817914409894e-002 9.6953254893893004e-002
      -9.7489216430825448e-002 9.5269218293065935e-002
      -9.7868841520126634e-002 6.2120347307426521e-003
      1.0418525557285843e-001 -1.0559268898008711e-001
      1.0467480038864890e-001 9.9763788575574733e-002
      1.0064951417232301e-001 1.0516528748713995e-001
      9.5734779235292972e-002 -9.6972573738781612e-002
      1.0277965357135060e-001 7.1272362195458488e-003
      -9.7501597179266292e-002 9.5864890292174362e-002
      -1.0211220057735815e-001 -1.0226815475509983e-001
      -1.0086321450264203e-001 -1.0125555254636860e-001
      9.5636727455113979e-002 -1.0577756542798000e-001
      9.5120035800122141e-002 -6.0386169123877037e-003
      -9.8914999158640896e-002 9.6971717109540820e-002
      -1.0506985353968765e-001 -1.0736420892027117e-001
      -1.0142556798103626e-001 -9.3298770199058856e-002
      1.0442662770805772e-001 -1.0509422264410863e-001
      1.0307042373583088e-001 6.3914464743642929e-003
      -9.3717419792451684e-002 9.8214004619891382e-002
      -9.2758930375256884e-002 -1.0336709260631829e-001
      -1.0666502101462985e-001 -1.0173657660698392e-001
      1.0721157029197337e-001 -9.8749706393846157e-002
      1.0586940804588416e-001 -4.3484694898092840e-003
      -9.8136137877665008e-002 9.7782324980124971e-002
      -1.0393788065363806e-001 -9.6739216183296728e-002
      -1.0461736001648017e-001 -9.9405646663636396e-002
      9.5001385692562362e-002 -9.3005066192062905e-002
      9.5260203511351393e-002 -5.5226385515779741e-003
      -9.7925247633388987e-002 1.0343827629015337e-001
      -1.0162236994959903e-001 -1.0421696385785201e-001
      -1.0490207221304292e-001 -1.0208736154214682e-001
      1.0634889197705472e-001 -1.0334586094599628e-001
      9.8499266146852518e-002 -2.5429039202774645e-003
      -9.2244724354597643e-002 1.0242498295022980e-001
      -9.9745043360548707e-002 -9.1737768438124284e-002
      -1.0652207006707812e-001 -1.0356267991748631e-001
      -5.6315821720873864e-003 -7.3713846285508228e-005
      4.2293994938359279e-003 6.0257409399242798e-003
      4.1411581896960061e-003 -3.0884898356188227e-003
      1.3223083955737978e-003 6.4863095193620516e-003
      -5.1043082361353562e-003 1.5377812795392867e-003
      1.0412531470373301e-001 -9.7283555779066583e-002
      1.0317083337797282e-001 3.9704637339397636e-003
      -9.7877945013387216e-002 9.4415202978345714e-002
      -1.0560132203233413e-001 -1.0574040914662873e-001
      -9.7591896860904595e-002 -9.9852756928801259e-002
      -9.2909709593076914e-002 9.9879008233561287e-002
      -1.0596058057171424e-001 -6.9421025839701000e-003
      1.0530338892539863e-001 -1.0080235714569771e-001
      9.4349210552757454e-002 1.0259522218295511e-001
      1.0758365494490846e-001 1.0022003286118789e-001
      -9.5613639487785271e-002 9.7667430603557898e-002
      -9.5408355468715803e-002 1.4518730455643919e-003
      1.0727855231073345e-001 -9.4617113978229042e-002
      9.4675806600975215e-002 1.0323465707065838e-001
      9.4727359602974723e-002 9.4667454847294302e-002
      -9.2928389444805193e-002 1.0638242929264796e-001
      -1.0186510598891625e-001 -2.5494476788319870e-003
      9.6123741501333654e-002 -1.0147232152907516e-001
      9.7638735425889675e-002 9.7055254712372099e-002
      1.0426641086118317e-001 9.8158667003046540e-002
      -9.5406017811173402e-002 1.0552924451003783e-001
      -1.0250179905834220e-001 -1.9817182437686792e-003
      9.7488253889002160e-002 -1.0232772723200481e-001
      1.0711151320686219e-001 9.2885566667853525e-002
      1.0254791037346046e-001 1.0465027708214729e-001
      -1.0085964508063969e-001 9.5754694241665245e-002
      -9.9140594849682392e-002 6.9293671721427919e-003
      1.0315122092190292e-001 -9.5391959248783020e-002
      1.0442637053666484e-001 9.6136184425461277e-002
      9.7301073009265104e-002 9.4942070877678308e-002
      1.0098417365254954e-001 -1.0473659908537016e-001
      1.0586282890139932e-001 6.5021628057050085e-003
      -1.0421392475038041e-001 9.8237653855036813e-002
      -9.6721111962129722e-002 -9.1791020484670985e-002
      -9.3053990020089669e-002 -9.8979590079201055e-002
      -1.0716213474059971e-001 1.0653435913635366e-001
      -9.5024653932425901e-002 5.8789374694084018e-003
      9.7932787151467096e-002 -9.8472239582839571e-002
      1.0323649086282534e-001 1.0026472305114177e-001
      9.5015605691510074e-002 9.8610973544762281e-002
      -1.0256024147466047e-001 9.4667780694032783e-002
      -1.0274163831468720e-001 1.6170513223625477e-003
      9.5675438013323691e-002 -9.7818016777283079e-002
      1.0037171809559156e-001 1.0769513012948513e-001
      1.0089399596719247e-001 1.0242197581576824e-001
      -9.6991101236734961e-002 9.2446664588260813e-002
      -9.6884213637303235e-002 5.1947863982880899e-003
      1.0741914354131682e-001 -9.7291988396052714e-002
      1.0652877887225698e-001 1.0689733996484634e-001
      9.5677180709401274e-002 9.8745078266185948e-002
      9.6145988629901841e-002 -9.8406149903737930e-002
      9.7115652577097381e-002 -4.0096032125898212e-003
      -1.0330530773561561e-001 1.0354461060062739e-001
      -9.4741192403489577e-002 -9.5817269518797016e-002
      -1.0689508422285596e-001 -1.0222910900056383e-001
      -1.0170486518677412e-001 9.3103953234157336e-002
      -1.0594094791197003e-001 6.9934359946906138e-003
      9.7337729041731741e-002 -1.0731511729356069e-001
      1.0293783392557175e-001 9.3198505369652185e-002
      1.0527727905251384e-001 1.0139399444294489e-001
      -1.0045006818159048e-001 9.6567141535805728e-002
      -1.0107199617179538e-001 -6.4125479461361878e-003
      1.0457240306845843e-001 -9.7213141267816564e-002
      1.0425276499873139e-001 9.4906735481667864e-002
      9.6459900182037234e-002 9.5199272608882959e-002
      -9.6464844378096062e-002 1.0070525853651416e-001
      -1.0210499606785668e-001 4.8243169812918762e-003
      9.4309123222026489e-002 -9.4209000634958046e-002
      1.0457939719238504e-001 9.8067202642569004e-002
      1.0219253422584537e-001 1.0281642458615979e-001
      -1.0474506652084670e-001 9.8502709811682909e-002
      -9.9148998527721549e-002 -4.8378075568097090e-003
      1.0147455151096152e-001 -9.9088735551230142e-002
      9.9977676234718760e-002 9.2356742650363186e-002
      9.2901698230172386e-002 9.4912144304644522e-002
      -9.5011478881239356e-002 9.2526327453575169e-002
      -1.0322163139720425e-001 -5.2691515203442535e-003
      9.9881694482162026e-002 -1.0087987672499205e-001
      9.8613871602829126e-002 9.7303769230691020e-002
      9.3691084562617710e-002 9.6146640158476529e-002
      9.8132760773598185e-002 -9.8119141828834147e-002
      9.6025635719344180e-002 5.6087947548104783e-003
      -1.0199157752570634e-001 9.9612382356133261e-002
      -9.9236619122241077e-002 -1.0454323643721306e-001
      -9.6198212635316763e-002 -9.5820071861957873e-002
      -1.0386082955927721e-001 1.0330628015725274e-001
      -1.0213580192659313e-001 -2.1714545586960926e-003
      1.0378504513697318e-001 -9.5874839419007873e-002
      1.0572481336031962e-001 9.5593642824398584e-002
      9.9238065256188529e-002 9.7403170868926747e-002
      -1.0312832494854793e-001 9.4583498336651861e-002
      -1.0455631496759202e-001 4.2354301395342298e-003
      9.2707057097934864e-002 -9.3100261849990235e-002
      1.0472249128206000e-001 1.0250118926972961e-001
      9.7087817701467100e-002 1.0094663724815590e-001
      -9.5501605498272801e-002 1.0326358609806197e-001
      -9.3892352730224726e-002 5.3982236385876903e-003
      1.0728368583369677e-001 -1.0132411003037821e-001
      9.6686306551850898e-002 9.4513800150012220e-002
      9.5869678950106715e-002 9.5032189402053172e-002
      1.0046285387717881e-001 -9.7361731078316693e-002
      9.6121495463486015e-002 5.6756548858720307e-003
      -9.5527889452097337e-002 9.5040293380111829e-002
      -9.6002647459810894e-002 -9.9335415943697353e-002
      -9.4464013001315711e-002 -1.0559833036376648e-001
      9.6190594397298670e-002 -1.0472988217517452e-001
      9.7180780476896364e-002 2.2834490016988285e-003
      -9.3276335081976150e-002 1.0128613191603481e-001
      -1.0372520215293786e-001 -9.8081893755745553e-002
      -1.0450264258163112e-001 -1.0657909744736613e-001
      -1.0342653398615639e-001 1.0622442568593310e-001
      -9.7324266894535688e-002 -2.2123156240165948e-003
      9.9287892103808506e-002 -1.0604707380547375e-001
      9.5917178168739889e-002 9.8471145139221034e-002
      1.0390045390129550e-001 1.0197887262739577e-001
      1.0730878370126125e-001 -9.3527034902739031e-002
      9.5944444157820136e-002 -2.4263795243160136e-003
      -9.3112103911257280e-002 1.0230870126988127e-001
      -1.0466848319624546e-001 -1.0099310591699369e-001
      -9.7416105191195312e-002 -1.0236621461676053e-001
      1.0001089935182340e-001 -9.5123890141135842e-002
      1.0734910879192820e-001 -2.7274591723494834e-003
      -9.8594256670324856e-002 1.0376015899754051e-001
      -9.9942230958841097e-002 -1.0647830860127276e-001
      -9.4451971064627743e-002 -1.0736475746595814e-001
      -1.0466939610246710e-001 1.0142609516513368e-001
      -1.0432848983210297e-001 -5.2080760383686753e-004
      9.8929698514916745e-002 -1.0349817662994351e-001
      9.7232872999129930e-002 1.0594348204007316e-001
      9.8905193796444510e-002 1.0180675264067544e-001
      1.0233424328146264e-001 -1.0657170224475095e-001
      9.4152693832769890e-002 3.7048317760365046e-003
      -1.0359293617371992e-001 1.0530376646646233e-001
      -1.0312855308907674e-001 -9.7936781592697614e-002
      -1.0228230854737168e-001 -1.0365217482866554e-001
      9.8422551083047288e-002 -1.0292112724965632e-001
      1.0730832170043385e-001 1.5924038642964877e-003
      -1.0083916778691515e-001 9.6654598147691798e-002
      -1.0609664050403053e-001 -9.3556667857293482e-002
      -1.0086893287129109e-001 -1.0239786066481261e-001
      -1.0006365992870687e-001 9.3889613179618331e-002
      -9.8831422159828486e-002 6.0888667611482122e-003
      9.7473775544433233e-002 -9.4970252901959928e-002
      9.7348864538640473e-002 1.0410521337261867e-001
      1.0114583696324610e-001 9.3325302661079926e-002
      -9.5915877247446338e-002 9.6901759895340819e-002
      -1.0696181258245635e-001 1.7014352650605163e-003
      1.0537058108192864e-001 -9.6332113177738071e-002
      1.0083447669747278e-001 1.0009903970857924e-001
      9.8034738410846145e-002 1.0519330603180774e-001
      -1.0271935347754209e-001 9.2870209067700368e-002
      -1.0268001118040510e-001 2.4081723818999423e-003
      1.0074956921838199e-001 -1.0221997671088087e-001
      1.0536278300117831e-001 9.7597176777575095e-002
      1.0761786813709834e-001 1.0727588717804769e-001
      -1.0140223682817126e-001 9.4607811174598905e-002
      -9.8540951724912645e-002 -3.7629031147008579e-003
      9.6107557295245422e-002 -9.9204346181431424e-002
      9.8875555141783422e-002 1.0805885364517345e-001
      1.0470782093039994e-001 1.0234195509524566e-001
      -1.0618675194097262e-001 1.0227150217543861e-001
      -1.0336367478624496e-001 -5.0164295909743695e-004
      9.6361370907078525e-002 -1.0492153246341754e-001
      1.0371548670585656e-001 9.8692034240274104e-002
      1.0026340684873090e-001 1.0340341492421891e-001
      -1.0063405933713748e-001 9.3975443368873771e-002
      -1.0613248195316936e-001 6.5444706605617270e-003
      9.9870142416845914e-002 -1.0020847711446254e-001
      9.9673055243097886e-002 9.7285319762766026e-002
      1.0521615997875199e-001 9.7172807099956862e-002
      -1.0510466979376537e-001 1.0716623136678924e-001
      -1.0263064145813849e-001 -3.4311942105197668e-003
      1.0329510161155990e-001 -1.0342295178443547e-001
      1.0372032168981650e-001 1.0044820066362112e-001
      9.3758704113859906e-002 9.7620296435620618e-002
      1.0464974199801792e-001 -9.8618672640757882e-002
      1.0555475234907009e-001 6.5874440961035258e-003
      -1.0190777874869508e-001 9.8489866737104859e-002
      -9.9752964097590088e-002 -1.0222530625968357e-001
      -1.0616807636962390e-001 -1.0183026589724201e-001
      1.0597211483257003e-001 -1.0138164066338037e-001
      9.3076241170678073e-002 4.8593551131536072e-003
      -9.8336340690420257e-002 1.0371588397860090e-001
      -9.8963988104578932e-002 -1.0316630736397853e-001
      -1.0577952010431989e-001 -9.3711886195531932e-002
      1.0071293174177651e-001 -1.0476248451377916e-001
      1.0382729599530344e-001 4.8998885625828048e-003
      -1.0232671676267382e-001 9.8165784297301245e-002
      -1.0294324889525000e-001 -9.4770771030722220e-002
      -9.9205260961746686e-002 -9.2960720180870260e-002
      9.3869882848061789e-002 -9.8311927702083454e-002
      1.0463851634485977e-001 6.8499495462165244e-003
      -9.2949699642739025e-002 1.0635119393354470e-001
      -9.8542095280564443e-002 -9.4445245026955074e-002
      -9.9903590539628440e-002 -1.0147746526183885e-001
      1.0103757377750117e-001 -1.0338331525972301e-001
      1.0118794682697925e-001 5.0812715424821547e-003
      -9.2238008170744568e-002 1.0292105272154040e-001
      -9.2824957890069282e-002 -9.4074133556701620e-002
      -9.8633430752918957e-002 -9.9385791469266557e-002
      1.0468012361869584e-001 -9.4851159554028966e-002
      1.0190359140774027e-001 -6.2101392080862322e-003
      -9.7517338129548228e-002 1.0555050540880304e-001
      -9.8626551644428018e-002 -1.0336730400422946e-001
      -1.0631081150929786e-001 -9.5613613534014125e-002
      9.8654303511577515e-002 -9.6450115021116584e-002
      1.0085163364770426e-001 2.7361407252124437e-003
      -1.0693028134873085e-001 9.7569330960046816e-002
      -9.7270813499185260e-002 -1.0781919890169567e-001
      -1.0599941119029224e-001 -1.0653227323864506e-001
      1.0218403004896563e-001 -9.5663274793528347e-002
      9.7584832105278213e-002 1.4765130879473148e-003
      -1.0354077417314120e-001 9.3547565575671968e-002
      -1.0725231863774193e-001 -9.3303947924903499e-002
      -9.4594095318137991e-002 -9.4434166492956814e-002
      -9.8167174327816173e-002 9.7516631385145172e-002
      -1.0005084416723148e-001 -1.9664764154942171e-003
      9.6454900361371942e-002 -9.8365679226592270e-002
      1.0414280676507136e-001 9.6755341937354328e-002
      1.0326161291016255e-001 1.0688766089108490e-001
      -9.4059735598203853e-002 9.6538007416329744e-002
      -9.2812794607765564e-002 6.0603288155376273e-003
      9.7376794634299019e-002 -1.0608995554931266e-001
      1.0011966751673310e-001 9.8350973186528273e-002
      1.0073412373069943e-001 9.5349317874949088e-002
      -9.9423205268614506e-002 9.9271460531900460e-002
      -1.0715717727813374e-001 -8.6900154491836856e-005
      1.0379711782362702e-001 -1.0401558286849079e-001
      9.6409789479693073e-002 9.5144394593357259e-002
      9.7834016313484776e-002 9.8722902345821234e-002
      -1.0054726211929087e-001 9.9651675107299761e-002
      -1.0213053811797015e-001 -5.5661293948241208e-003
      9.4690248316003769e-002 -1.0699900062356242e-001
      9.8785490914731447e-002 1.0488801547102182e-001
      1.0637302894312350e-001 9.3829379065147905e-002
      6.4680173071788591e-003 7.2581881904663897e-003
      8.1346494426129021e-004 5.8755713355719648e-003
      7.2593715500544860e-003 2.6693514346768084e-003
      -3.3633422507661132e-003 -1.3448884831559118e-004
      -1.2809753353566287e-003 -2.6375595693928673e-003
      9.9156579571391901e-002 -9.3489181720552428e-002
      9.4350370722687427e-002 -6.0265585148265716e-003
      -9.9283483437439105e-002 1.0397115095456165e-001
      -9.2672964470709537e-002 -9.6097556745475446e-002
      -9.3971216035204641e-002 -9.4801004880471010e-002
      -1.0045325657043634e-001 9.2363063944778695e-002
      -1.0432717912888287e-001 6.9784736505530687e-004
      1.0087573906939853e-001 -9.4531563088046236e-002
      9.7356909357371860e-002 1.0030378316560816e-001
      1.0764375468912024e-001 9.5992964683625157e-002
      9.2932418581330722e-002 -9.9442643431221917e-002
      9.5193206035029010e-002 -4.3698899684908171e-003
      -1.0261333685079561e-001 9.5696619808999822e-002
      -9.8073689216397461e-002 -1.0248979775919587e-001
      -1.0488969879618906e-001 -9.3451473699810231e-002
      9.8302394933293957e-002 -1.0211577531516543e-001
      9.7899414907509655e-002 -1.8494503064724055e-003
      -9.7636627340021293e-002 9.9797778735190940e-002
      -9.6855510860913901e-002 -1.0677082665085494e-001
      -1.0520470704421124e-001 -9.2522630160641300e-002
      9.8819879380824219e-002 -9.5112603746514132e-002
      9.5402876591729260e-002 7.1607808958096264e-004
      -9.2257469147035032e-002 1.0674983866380580e-001
      -9.3917918795415931e-002 -9.4774935465241517e-002
      -9.4552033870321475e-002 -1.0665137768601204e-001
      -9.7191338079239964e-002 1.0129853263915488e-001
      -9.7799460708736088e-002 -2.6235092579826591e-004
      1.0201614333437484e-001 -1.0688078244165228e-001
      1.0734126012766937e-001 9.7678265435984360e-002
      1.0464909112740958e-001 1.0387883730049663e-001
      -1.0090072830896032e-001 1.0357751484442253e-001
      -9.8049516968086031e-002 3.0903078666064121e-003
      9.8131899911732476e-002 -9.3140791751053192e-002
      9.4832172395909339e-002 9.2442576583382799e-002
      9.5735622284764108e-002 1.0354416994370629e-001
      -1.0497483495030879e-001 1.0401937996687016e-001
      -9.6328696462210067e-002 1.1823566481338615e-003
      1.0725879669669128e-001 -9.8682989370922652e-002
      9.6668544902332273e-002 9.3518881902333179e-002
      9.8489740224620856e-002 9.5194398407258393e-002
      9.6107248332888431e-002 -9.5163339586887760e-002
      9.4839248663856388e-002 -6.4536277104679796e-003
      -1.0069680730954794e-001 9.5195090838164145e-002
      -1.0478013577875335e-001 -9.9843559629856055e-002
      -9.2659095437218217e-002 -1.0213752792327123e-001
      9.8121787591705284e-002 -9.7084425887822873e-002
      1.0058500191072089e-001 -6.3981072829636665e-003
      -9.4124785484596352e-002 9.2952544196698045e-002
      -1.0349193902830063e-001 -9.9417409769965659e-002
      -9.9900444798869531e-002 -1.0039408236567343e-001
      -9.6319795648322118e-002 1.0467979315764087e-001
      -1.0015764501831768e-001 -2.0128544985931196e-003
      1.0323231331096008e-001 -1.0737832328236752e-001
      1.0641583822247601e-001 9.6095232848790665e-002
      9.9903914419156914e-002 9.6086098231905170e-002
      -9.6684854421155278e-002 9.4860747242212981e-002
      -9.6137765144166609e-002 1.6390459324708284e-005
      9.5833558512555733e-002 -9.5516523000644490e-002
      9.6724635233878434e-002 9.2923746167253130e-002
      1.0130187083054384e-001 9.5467478376827494e-002
      -1.0639411754770678e-001 9.3926742014548634e-002
      -1.0122909470823450e-001 5.5313337893463932e-003
      9.5011660175438870e-002 -1.0642176657054522e-001
      1.0687284138258127e-001 9.6584405015975386e-002
      9.8606841327197103e-002 1.0268704732327159e-001
      -1.0551355046523175e-001 1.0088073797587190e-001
      -1.0319191227798673e-001 -2.3296369011617524e-003
      9.5112863104267503e-002 -9.5476604603544415e-002
      1.0727933559227307e-001 1.0473281108541252e-001
      9.5099426595185679e-002 9.4287481334816028e-002
      1.0447985987248498e-001 -1.0381185147216683e-001
      1.0411808377774953e-001 -3.7473269070890797e-003
      -1.0559385503479080e-001 9.5153889037255898e-002
      -9.4012222050587888e-002 -1.0404258029148304e-001
      -9.2948105654375612e-002 -1.0221730192905126e-001
      9.9959136820943331e-002 -1.0675038558617121e-001
      1.0259545851241954e-001 6.3927160850008879e-003
      -1.0703982683823043e-001 1.0171462562588751e-001
      -9.6644644220903561e-002 -1.0584750109514368e-001
      -9.3477568289627749e-002 -1.0748998836797082e-001
      -4.9125698465417226e-005 -4.3413742762441953e-003
      1.8347098532889323e-003 6.8831493750308882e-003
      1.1806280379805985e-003 7.6300557767300953e-003
      -5.8222288441104018e-003 -2.2745844183109311e-003
      6.6512624091855871e-003 -4.9436348941018105e-003
      9.3254854593645700e-002 -9.5874456246870798e-002
      1.0252185556786327e-001 -5.5817725724308515e-003
      -1.0425724971349690e-001 1.0065018642762689e-001
      -9.9472437492641452e-002 -9.6556030736832429e-002
      -1.0631941079390003e-001 -9.7016187040323887e-002
      9.3038263003956623e-002 -1.0667858903368731e-001
      9.6961779144321775e-002 -3.1193823048190072e-003
      -9.9209778321468475e-002 9.6178618336501834e-002
      -1.0278583125513074e-001 -1.0766454449781646e-001
      -9.9018976623809707e-002 -1.0059972558994888e-001
      9.5688952625868268e-002 -9.6155298895193683e-002
      9.3784789422191289e-002 3.9370184291629418e-003
      -9.2860965629342013e-002 9.9073057691554070e-002
      -1.0145523611512083e-001 -1.0301727166587532e-001
      -1.0022418916616241e-001 -1.0332725064324559e-001
      -9.3784810838360377e-002 1.0252905306270484e-001
      -9.4013375160677468e-002 4.8948583518830246e-003
      1.0046897872404194e-001 -1.0596070899724726e-001
      1.0660709687526669e-001 9.5674099193677350e-002
      1.0563415395099097e-001 1.0362087684236115e-001
      -1.0690339754984833e-001 9.8983077114107698e-002
      -1.0418793845793872e-001 9.0206478375441657e-004
      9.3644338372695507e-002 -9.2729109540251001e-002
      1.0301437455716905e-001 1.0612491809562530e-001
      1.0491944109046816e-001 9.4996987043905828e-002
      -9.4106063843482787e-002 1.0375654307827067e-001
      -1.0403374552534365e-001 -4.0557777904450254e-003
      9.9806917055137695e-002 -9.4236240598684504e-002
      9.4556945295148964e-002 1.0729018020391792e-001
      9.7774058116887844e-002 9.7495649650984118e-002
      9.6764290931360908e-002 -1.0272464762930628e-001
      9.4144486015118350e-002 4.4716828504877404e-004
      -1.0278871336130192e-001 9.3979933746237171e-002
      -1.0147887838025764e-001 -1.0532105452072309e-001
      -1.0451626096465697e-001 -1.0459607345999514e-001
      9.9769885419353929e-002 -1.0210242994176462e-001
      9.2889899772249832e-002 -6.3221712480647785e-003
      -1.0486169800541739e-001 1.0011370033322034e-001
      -1.0453637412036006e-001 -9.5044694319663864e-002
      -1.0240477052278145e-001 -9.3256283170410348e-002
      -1.0165326283399406e-001 1.0057587195619687e-001
      -1.0281749444928326e-001 -2.0279681184791620e-003
      9.7822044316478229e-002 -1.0003797858405836e-001
      9.3429082961998491e-002 1.0772476502134391e-001
      9.8035635708194804e-002 1.0586080326027276e-001
      -1.0068250619484530e-001 1.0250722301333610e-001
      -1.0184332093630806e-001 3.8129160640558574e-003
      9.7131991745147278e-002 -1.0434695838016010e-001
      1.0529306467882715e-001 1.0018630214843208e-001
      9.3615134309426751e-002 1.0508794962647974e-001
      -9.5232382109911973e-002 1.0108177525701108e-001
      -1.0623352417710738e-001 3.2619521315506994e-003
      1.0548294846387463e-001 -1.0237146548665743e-001
      1.0432787275316245e-001 1.0476014163385806e-001
      1.0003107048562158e-001 9.2814630787746627e-002
      1.0702482996751622e-001 -9.3215546401044472e-002
      1.0114797537896263e-001 -1.0203357381355360e-004
      -1.0442558131966910e-001 9.5814477944569071e-002
      -1.0143997518433968e-001 -9.9143373597591164e-002
      -1.0432627874695112e-001 -9.9725301198533955e-002
      9.7225480924520644e-002 -9.3974084702293278e-002
      1.0535350741499235e-001 -5.7331315267035721e-003
      -9.3575590830868985e-002 9.9419947359869101e-002
      -9.2590675930700361e-002 -1.0174689161086731e-001
      -9.5092397791425809e-002 -1.0175405028731502e-001
      -1.0056028743951431e-001 1.0736194460728238e-001
      -9.2797378792023197e-002 5.9852123873879448e-003
      9.7559046103585012e-002 -1.0522219979176405e-001
      9.4340248443259736e-002 9.8206131763070498e-002
      9.4623712581081987e-002 1.0492677919134835e-001
      -1.0686318272187086e-001 9.3997984919530778e-002
      -1.0195162485960842e-001 -7.0122743610004368e-004
      9.4364427717755273e-002 -1.0376864116328444e-001
      1.0471860790055636e-001 1.0600650182417994e-001
      9.9046383705406763e-002 1.0023039237725676e-001
      9.3556331624843905e-002 -1.0256322621709389e-001
      1.0110321097923246e-001 -5.9764575406354992e-003
      -1.0161736852609075e-001 1.0198508262213365e-001
      -1.0373219715187405e-001 -1.0362023400421505e-001
      -9.9247807348135098e-002 -1.0711058241756169e-001
      9.3391988591573466e-002 -1.0240384468220469e-001
      1.0532529545528450e-001 3.6531239199098647e-003
      -1.0694309497744907e-001 9.2684133502099669e-002
      -1.0057714440314208e-001 -1.0310054494320159e-001
      -1.0137922779164882e-001 -1.0143783184590865e-001
      9.7254837544750117e-002 -9.7804013818524202e-002
      9.5856119256671563e-002 -2.8926538350279585e-004
      -9.7226861593589634e-002 1.0489242928375724e-001
      -9.9549437670174309e-002 -9.6377734653555105e-002
      -9.4205344502416868e-002 -1.0277570931139411e-001
      1.0662295667937202e-001 -1.0300209031520520e-001
      9.7825211679734944e-002 -1.0690632312038290e-003
      -9.2403948936630120e-002 1.0081866612541440e-001
      -9.4749193815700294e-002 -9.3338224334667680e-002
      -1.0199118446764638e-001 -1.0252673374881970e-001
      -1.0156605860105501e-001 9.8975112806481011e-002
      -9.3367676540152503e-002 3.8251229583620427e-004
      1.0009370460226574e-001 -1.0477308597262669e-001
      9.3328558935368136e-002 9.4106255483016196e-002
      9.2436912592787898e-002 9.4424355768345181e-002
      -1.0602763147794740e-001 1.0706464724288625e-001
      -9.6016423033702641e-002 -6.9617757134571301e-005
      9.4706424628575619e-002 -9.8636852317546042e-002
      9.9047651944100007e-002 1.0220863939724084e-001
      9.8103524740141432e-002 1.0180636923180353e-001
      1.0705391477234878e-001 -1.0502323791416657e-001
      1.0389024313727793e-001 6.1649498781601864e-003
      -1.0094294356527449e-001 9.7390747447996057e-002
      -1.0028308416789354e-001 -9.2715608717408124e-002
      -1.0740580685212713e-001 -1.0448443321042530e-001
      9.6080412612146421e-002 -1.0606657131763268e-001
      1.0730155831173062e-001 -6.8185093609365865e-003
      -9.9621645860671432e-002 1.0557583070830021e-001
      -9.7051776319925093e-002 -1.0714036488063734e-001
      -9.8981811609853726e-002 -9.2950489002991951e-002
      1.0143888011587797e-001 -9.9552380842509142e-002
      9.3511893379023978e-002 -1.2154420527400872e-003
      -9.8538437669739326e-002 1.0133705082531166e-001
      -1.0287231233197140e-001 -1.0134743125931486e-001
      -9.7832758756462398e-002 -9.8652691413987359e-002
      1.0342777341309331e-001 -1.0779890152839010e-001
      9.3658316422095308e-002 1.0909403943591689e-004
      -1.0408042237161363e-001 1.0206626551186160e-001
      -9.9401979504274443e-002 -1.0374430014303235e-001
      -1.0272137611562153e-001 -1.0516054080495493e-001
      9.6483079084291684e-002 -1.0229408577395722e-001
      9.4812030359838789e-002 -1.8513909089472730e-003
      -1.0411677545468852e-001 1.0227740014774232e-001
      -1.0670679571824632e-001 -9.1975282961458557e-002
      -9.8600143074248553e-002 -9.2976894583039676e-002
      1.0385500617584380e-001 -1.0148816247323918e-001
      1.0428982803666856e-001 -3.7106716270159795e-003
      -9.9966652829313760e-002 1.0153351558331038e-001
      -9.5516521970300056e-002 -1.0010027461275699e-001
      -1.0285807353582345e-001 -1.0329683837671320e-001
      2.7615611119234558e-003 -2.0211339761356437e-003
      4.4848134734219603e-003 -6.3213165733038198e-003
      -3.1228544588289180e-003 8.6755069713999626e-004
      1.6670693031908016e-003 -4.7696073232341984e-003
      -7.3326612049571614e-003 2.4939529785219278e-003
      1.0647702686331739e-001 -1.0114652274756011e-001
      1.0381945027968649e-001 3.4114051706385512e-003
      -1.0137750245270788e-001 1.0494630214960006e-001
      -9.3132882487544852e-002 -9.8913851855000276e-002
      -1.0477302487228428e-001 -9.6905940562344792e-002
      9.5997748216007303e-002 -1.0633175992377600e-001
      9.7997729816042489e-002 -6.4784123820030570e-003
      -1.0748093327036465e-001 9.4895938040516117e-002
      -1.0180032045713933e-001 -1.0814092237354289e-001
      -9.6966630263314299e-002 -9.2745353484644938e-002
      1.0646635276141231e-001 -9.6816776195877627e-002
      1.0678238956539521e-001 4.1904140857669109e-003
      -1.0288646854239997e-001 9.4498555572324699e-002
      -1.0134998361967711e-001 -1.0262118726054380e-001
      -1.0189338676642823e-001 -9.6795777999342691e-002
      1.0639048798791920e-001 -1.0185198663087670e-001
      9.3436836169957238e-002 -6.1624272935082852e-003
      -9.3028660831511262e-002 1.0481175895291381e-001
      -9.3941186986840369e-002 -9.5191691578097565e-002
      -9.6933300122836644e-002 -1.0696881985096079e-001
      1.0299441280242379e-001 -9.8195374493094401e-002
      1.0139453101781952e-001 2.8412964074981395e-003
      -1.0398086405449306e-001 1.0279444020700799e-001
      -1.0195930711991848e-001 -1.0013985467977086e-001
      -1.0048553600939172e-001 -1.0181502308466234e-001
      -2.4910645853290147e-003 -6.2898945600367497e-004
      -6.4645259998571752e-004 3.2781798782653558e-003
      7.3168809436197036e-004 3.5713115343122708e-003
      5.8943698699882576e-003 6.1430715426975303e-004
      -4.3710880980480515e-004 -3.9536007530755870e-003
      -9.4477202551552314e-002 1.0214110467752602e-001
      -9.9202188915591141e-002 9.9386498872626461e-004
      9.6593232355553685e-002 -9.3677286631938000e-002
      9.4473365940029932e-002 1.0082050873760909e-001
      1.0180809997130424e-001 1.0351043221582965e-001
      -1.0077993418333123e-001 9.8602066530099328e-002
      -1.0118525924001143e-001 6.5384943832423603e-003
      9.4003992210100598e-002 -1.0032170114333737e-001
      9.3788871755533090e-002 9.7498569333907784e-002
      9.3394533501534024e-002 1.0048903947884354e-001
      -9.9278667603270240e-002 9.4945957415896315e-002
      -9.5391525500843802e-002 -2.7009456453160746e-003
      1.0080925524309084e-001 -1.0760095866836146e-001
      9.9090235019927281e-002 1.0176396051295750e-001
      1.0742252514907791e-001 9.4870402854299762e-002
      1.0154908589219823e-001 -1.0017397973390384e-001
      9.5228357728587926e-002 3.5564224854012089e-003
      -9.6664759929755151e-002 1.0753951831984156e-001
      -9.8896664744588442e-002 -9.2326319866389131e-002
      -1.0742456390767546e-001 -9.6851324372203132e-002
      9.7640179077425157e-002 -9.9498082307353519e-002
      9.3565305547826244e-002 -4.5932396087920158e-003
      -1.0708051811247275e-001 1.0643416513087997e-001
      -1.0286502751947216e-001 -1.0058612130909385e-001
      -9.5902839702706300e-002 -1.0722302298010072e-001
      1.0431220831639779e-001 -1.0126580538360978e-001
      1.0677692593346801e-001 -1.9846458564864722e-003
      -1.0261127637085947e-001 9.8236119800196323e-002
      -1.0593014558559873e-001 -9.3654693767057567e-002
      -9.6041044810614817e-002 -9.4002925258951278e-002
      1.0353042512864054e-001 -1.0082792555185349e-001
      1.0068543354702909e-001 1.6807681366906579e-004
      -9.6930923279574505e-002 9.6470169168751507e-002
      -1.0523473002815549e-001 -1.0429136104829877e-001
      -1.0108227413666268e-001 -1.0248205701785960e-001
      9.6461382613905314e-002 -1.0022499907960440e-001
      9.8434698918988400e-002 -2.3231295474024916e-003
      -1.0223691777505349e-001 1.0532579817185254e-001
      -9.3311416313882206e-002 -1.0194909123361444e-001
      -1.0368012789995626e-001 -9.5175323266172507e-002
      1.0396638543960375e-001 -9.8074948003481030e-002
      9.7773153840090526e-002 1.3835850725266163e-004
      -9.5787990797385189e-002 9.8788274138881957e-002
      -9.9871238547400681e-002 -9.6554305945159388e-002
      -1.0710066048279528e-001 -9.5798653826676808e-002
      1.0391489603167310e-001 -1.0076424821070371e-001
      1.0156376126185987e-001 3.0278267543894094e-003
      -1.0302518255934545e-001 1.0758805579667959e-001
      -9.4743045315565072e-002 -1.0217346519448220e-001
      -1.0232806532632042e-001 -9.7365564923823006e-002
      1.0474586356010766e-001 -9.9300046113203047e-002
      1.0624063912239277e-001 -5.5855826400951214e-003
      -1.0738210264776069e-001 9.8970525533632447e-002
      -9.8505021956367511e-002 -9.2532286498455185e-002
      -1.0209397843367345e-001 -1.0352117912528132e-001
      9.5873861265975607e-002 -9.4480364139046688e-002
      1.0247163021314955e-001 7.9769259231166068e-004
      -9.4823902793090026e-002 1.0698656405310053e-001
      -9.9798188085159556e-002 -9.2133181629077174e-002
      -9.9728956840730576e-002 -1.0537694693013913e-001
      1.0624841531737682e-001 -9.5410538975500239e-002
      9.6417751075292921e-002 6.2164999421283479e-003
      -1.0302797617448248e-001 9.7123516891404790e-002
      -9.5724130939790653e-002 -1.0337416774061159e-001
      -1.0292034114711314e-001 -1.0537376225099931e-001
      1.0461520952354117e-001 -1.0594932913889103e-001
      1.0739196303039593e-001 4.1972622309000285e-003
      -9.6106039217565817e-002 9.5348635215546471e-002
      -9.6444903838148188e-002 -1.0070982383505565e-001
      -9.2255759644458535e-002 -1.0388974744863466e-001
      1.0008677224271913e-001 -1.0127474933475304e-001
      1.0386720930734346e-001 2.5453502129199196e-003
      -9.3297037085304388e-002 9.7823816605405248e-002
      -1.0260845493908084e-001 -1.0730461110390818e-001
      -9.3488637986568007e-002 -1.0433802049083722e-001
      -1.0285708202688650e-001 9.7217725374980052e-002
      -9.4264210344491409e-002 2.6460431455148370e-004
      9.9477254612781965e-002 -1.0045619762288732e-001
      1.0466287872223752e-001 9.5104472675530974e-002
      1.0419212156552152e-001 1.0507099023279128e-001
      -1.0052369215121737e-001 1.0547685241670440e-001
      -1.0499397046342569e-001 -1.8435834967419212e-003
      9.9576289750840513e-002 -1.0327071365598768e-001
      1.0296271093549432e-001 9.7167429982044889e-002
      9.6619096648139724e-002 9.3790553120040906e-002
      -9.6646832286899381e-002 9.6706876868640129e-002
      -9.6602184678652350e-002 2.2429740351840727e-003
      9.3445557250450784e-002 -9.4309816627235032e-002
      9.8971123385880280e-002 1.0615371573148183e-001
      1.0605817132402107e-001 9.5811522467105503e-002
      -1.0327861490005123e-001 9.6975922318632807e-002
      -1.0340946189429978e-001 4.1701342282414178e-003
      9.8112412124124651e-002 -1.0149071072178356e-001
      1.0622141156608124e-001 9.7554089732593413e-002
      1.0236370963623934e-001 9.2798355470534402e-002
      1.0476597445345324e-001 -9.2523574577108025e-002
      1.0420035154176707e-001 2.2466794734206791e-003
      -9.8740850418012560e-002 1.0136723700303017e-001
      -9.4906703894346883e-002 -1.0348612417519881e-001
      -9.7144252163356939e-002 -9.5932506364596284e-002
      1.0361526771132662e-001 -1.0265242430878260e-001
      1.0513858224317063e-001 -1.8212764660771041e-003
      -9.5439491340298083e-002 1.0418516920765775e-001
      -9.6165630655660930e-002 -9.4361207708096723e-002
      -1.0216750123032092e-001 -1.0539298382766137e-001
      1.0461313597758402e-001 -1.0199341862546142e-001
      1.0532445715320482e-001 -6.4116173835584156e-003
      -9.7696167835405551e-002 1.0105087510888663e-001
      -9.9052176225665839e-002 -9.2231705213024845e-002
      -9.5493766465108071e-002 -9.4169600790497285e-002
      1.0251118245136241e-001 -1.0544281754191372e-001
      9.5919149988018967e-002 -2.2044389478796389e-003
      -9.2353257038340131e-002 9.2520029474614102e-002
      -1.0586524081159966e-001 -1.0156198928030433e-001
      -1.0622403686087606e-001 -1.0286650766453026e-001
      -1.6271707098196408e-001 1.6768044494199602e-001
      -1.5670479265601256e-001 -3.6596869460767323e-001
      1.5974857584107111e-001 -1.6000000000000000e-001
      1.5957255279828170e-001 1.5881706635291493e-001
      1.5978120220076336e-001 1.6514378888135894e-001</_>
    <_>
      5.3686621281927116e-001 -2.3463385837737621e-001
      1.6046176768361678e-001 2.4976787504296466e-002
      -6.2659984669481905e-001 6.9632909596094839e-001
      -6.0580046348980254e-001 -4.7908866042650589e-001
      -2.3725181908346626e-001 -2.8508871867943247e-001
      3.5239808915995985e-002</_></weights></my_nn>
</opencv_storage>
