<?xml version="1.0"?>
<opencv_storage>
<my_nn type_id="opencv-ml-ann-mlp">
  <layer_sizes type_id="opencv-matrix">
    <rows>1</rows>
    <cols>3</cols>
    <dt>i</dt>
    <data>
      265 10 34</data></layer_sizes>
  <activation_function>SIGMOID_SYM</activation_function>
  <f_param1>1.</f_param1>
  <f_param2>1.</f_param2>
  <min_val>-9.4999999999999996e-001</min_val>
  <max_val>9.4999999999999996e-001</max_val>
  <min_val1>-9.7999999999999998e-001</min_val1>
  <max_val1>9.7999999999999998e-001</max_val1>
  <training_params>
    <train_method>RPROP</train_method>
    <dw0>1.0000000000000001e-001</dw0>
    <dw_plus>1.2000000000000000e+000</dw_plus>
    <dw_minus>5.0000000000000000e-001</dw_minus>
    <dw_min>1.1920928955078125e-007</dw_min>
    <dw_max>50.</dw_max>
    <term_criteria><epsilon>9.9999997764825821e-003</epsilon>
      <iterations>1000</iterations></term_criteria></training_params>
  <input_scale>
    6.1851096694333112e+000 -2.8807788013736535e+000
    5.5560438782359256e+000 -2.8495493388080937e+000
    4.3978078971084811e+000 -2.5245708354759979e+000
    4.7168383725354905e+000 -2.7685462232797917e+000
    4.1809743411644309e+000 -2.9746593466272513e+000
    6.1265030941414160e+000 -5.1875448465029352e+000
    9.3456832561484191e+000 -8.4240331612546591e+000
    9.0470586353106874e+000 -8.2753977802590146e+000
    9.5489384069267178e+000 -8.8219774521190395e+000
    1.0365956154307000e+001 -9.5437212411461854e+000
    1.1436593552718186e+001 -1.0572527824252548e+001
    1.4407741558455031e+001 -1.3565422695392538e+001
    9.2862037239594528e+000 -8.4796688277704320e+000
    9.1461376405231114e+000 -8.2487968213913501e+000
    6.4900304091787762e+000 -5.5252249806731024e+000
    4.1526902029765234e+000 -2.9278999678723752e+000
    2.5836082206520792e+000 -1.0859953379063749e+000
    2.5909934928621885e+000 -1.0165839380925128e+000
    2.8460831183952684e+000 -9.9824384043538250e-001
    2.9876530296581905e+000 -1.0090497631899076e+000
    7.0443908121080065e+000 -4.9457985142047391e+000
    7.3044587353250163e+000 -5.8802307711089963e+000
    9.1038581697081913e+000 -7.8006934951710356e+000
    8.4433812139680455e+000 -7.3231416223502990e+000
    7.7830273544685431e+000 -6.6997425156944965e+000
    8.1350127134352057e+000 -7.0078516649005893e+000
    9.1967903818598948e+000 -7.8779558651340089e+000
    9.7172588075375970e+000 -8.2550913507140837e+000
    8.3432486110759001e+000 -6.8369739055523295e+000
    1.0188828185878409e+001 -8.6084144879065132e+000
    9.9813284839756591e+000 -8.3865127333294645e+000
    9.1835130425925033e+000 -7.7867218058452474e+000
    8.8614533357178367e+000 -7.5120160098183248e+000
    8.9050863104494251e+000 -7.4804369665423547e+000
    9.5778319847763473e+000 -8.2627293524145191e+000
    8.5923874070377373e+000 -7.1741563940744548e+000
    6.9067423814262954e+000 -5.5655582857208019e+000
    6.2690260363131598e+000 -4.9509789420209716e+000
    5.9795620042197433e+000 -4.3503500451725916e+000
    5.9504608937959604e+000 -3.8992119931848364e+000
    1.1383021160118578e+000 -9.1064169280948626e-001
    6.2151509186000620e-001 -8.1162559054659633e-001
    4.4094159939798781e-002 -2.3343967026952295e-001
    1.7388560356266489e-002 -4.3512315150328029e-001
    1.2544955899046780e-002 -6.5617498737837621e-001
    1.2038265354921059e-002 -7.2796098734463810e-001
    1.0430114924085999e-002 -8.1060399045308373e-001
    1.1394327506724618e-002 -9.3125168457901086e-001
    1.2036398783066730e-002 -8.4807049778572519e-001
    1.2395861299374878e-002 -7.8998094892604365e-001
    1.4485371584017947e-002 -5.9202565744562763e-001
    1.7204110564462898e-002 -3.7484720900453283e-001
    3.2330737826443134e-002 -2.4609396910245537e-001
    8.2465993356297873e-001 -6.6942982842171217e-001
    7.7704187997548424e-001 -5.2107514304238356e-001
    7.2514617308755236e-001 -9.3842445928977369e-001
    8.7445227725888391e-002 -2.6439321794768605e-001
    2.6930257922516309e-002 -3.6973659994795921e-001
    1.5746572804742495e-002 -8.6958132641719144e-001
    1.5354240631313009e-002 -1.6085825037863806e+000
    1.2805524438193593e-002 -1.5208443435713450e+000
    1.1735199739983092e-002 -1.5074899524808869e+000
    1.2399354798090990e-002 -1.6657439110517767e+000
    1.3308009236819246e-002 -1.9083685245598798e+000
    1.3447001251502781e-002 -1.8284757701749310e+000
    1.3242043570667441e-002 -1.2885287337998872e+000
    1.4698492815495953e-002 -7.8247858811904925e-001
    2.5373003196223428e-002 -4.1283368729855291e-001
    1.1066713952823894e-001 -3.5153091379558249e-001
    4.4836312694114933e-001 -5.0111173011069632e-001
    5.3025669903757144e-001 -6.0511646831346388e-001
    5.6185040185240662e-002 -2.3465516783247573e-001
    2.2438242069574850e-002 -4.3134220637276827e-001
    1.3531480498530561e-002 -1.0855431237585869e+000
    1.4201499904781421e-002 -1.9050059048743269e+000
    1.2559754805717940e-002 -1.8714034660519729e+000
    1.2820206004169240e-002 -2.0201628143510915e+000
    1.3742268151994946e-002 -2.2416064462048229e+000
    1.2795559019099317e-002 -2.0927513115708085e+000
    1.2753237820433245e-002 -2.0765271933505423e+000
    1.2649136691794322e-002 -1.7107585342219709e+000
    1.3488182077642640e-002 -1.0523955710461883e+000
    2.1516240498933307e-002 -4.6981343960023786e-001
    4.0541311121842907e-002 -2.8188135144716658e-001
    3.0492402851578210e-001 -4.2330629841014455e-001
    9.4246849550054712e-001 -1.0976986006418137e+000
    3.2588824107510767e-001 -7.0928617175170483e-001
    2.8948069122139628e-002 -4.2434463677865852e-001
    1.4433779620701101e-002 -9.8064796834763357e-001
    1.3656888136372183e-002 -1.6144048469913848e+000
    1.3111896397291462e-002 -1.8720702903238726e+000
    1.2784424849181943e-002 -1.9539113319496779e+000
    1.3170943185005087e-002 -2.0762055027750961e+000
    1.3390362779189044e-002 -2.0293488626060388e+000
    1.2229416551805003e-002 -1.8810281411564542e+000
    1.4199096572986734e-002 -1.7037245405634318e+000
    1.5068848655330697e-002 -9.6546999737565864e-001
    2.7283707880275586e-002 -4.2979864531398837e-001
    6.7015696478387218e-002 -2.5860174641071776e-001
    5.7991100955088304e-001 -7.0953817639166872e-001
    1.3333435859185867e+000 -1.2705980054047707e+000
    2.9750483449284110e-001 -8.4001365033272790e-001
    3.4832221931731654e-002 -4.8929027042926582e-001
    1.4322398122960317e-002 -1.0665974131569271e+000
    1.4481904329065645e-002 -1.9126336235069521e+000
    1.3424571818151357e-002 -2.0849149714284243e+000
    1.3431859281917579e-002 -2.2780433342132214e+000
    1.2716661573770384e-002 -2.0853828903151221e+000
    1.3635128151413494e-002 -2.2140239852448125e+000
    1.3563411386392398e-002 -2.2660471188018638e+000
    1.4210646408783584e-002 -1.8192971084750937e+000
    1.3302652465044591e-002 -9.7312815326643853e-001
    2.3994086832155218e-002 -4.9879472273433262e-001
    9.0901344777769053e-002 -3.4328625498428078e-001
    7.1405884087283167e-001 -7.5606230210064529e-001
    8.2731183085904691e-001 -6.5211638432418995e-001
    1.2119259925476708e-001 -4.2773858560506028e-001
    3.1348487367877542e-002 -5.3366189672139763e-001
    1.4370969924476416e-002 -1.1070718948879008e+000
    1.3941898631745924e-002 -2.0624168634773326e+000
    1.2555374448645200e-002 -2.1054624398939845e+000
    1.2319023516368297e-002 -2.0874223024265008e+000
    1.2930039095483162e-002 -2.0674371923142547e+000
    1.2411304730883236e-002 -2.0455290349993325e+000
    1.1961715381400439e-002 -2.0796497636039488e+000
    1.3447623896318123e-002 -1.8412170224158859e+000
    1.2827692832950342e-002 -9.6856626590441519e-001
    2.1554455488121946e-002 -4.3717507366496744e-001
    5.7747736816127694e-002 -2.7311282588333335e-001
    7.2085687727480574e-001 -6.2756951668630145e-001
    6.3799863128468137e-001 -5.6293996878060115e-001
    5.0269956123192183e-002 -2.6376941683463195e-001
    2.1481543442090863e-002 -4.3468534965172095e-001
    1.3431310591676694e-002 -1.0417956556579346e+000
    1.2493782485834454e-002 -1.8631904328286770e+000
    1.2515962889433159e-002 -2.0589495186228688e+000
    1.2215906793210819e-002 -1.8882917571293756e+000
    1.2012113973417636e-002 -1.8504308278580064e+000
    1.3370030470687251e-002 -2.0325592204967138e+000
    1.2901755736046112e-002 -2.2345840934831864e+000
    1.4100423765320065e-002 -1.9065431804096884e+000
    1.3652015368767300e-002 -9.5740780721437491e-001
    2.7380585052100805e-002 -3.6915471140832379e-001
    7.3951245179364022e-002 -2.3838401387230285e-001
    6.3313064712883493e-001 -5.6609328449166418e-001
    7.7710682559639055e-001 -1.1062344223195677e+000
    8.8711049321111637e-002 -3.3814564682400200e-001
    3.0225627506367397e-002 -3.9791149623088373e-001
    1.5269404849044762e-002 -8.6622435508345696e-001
    1.4644753269929523e-002 -1.9754910705060227e+000
    1.3734361067634900e-002 -2.2760259999847672e+000
    1.4221790095360466e-002 -2.3549611246141007e+000
    1.4249453847513516e-002 -2.2929885850151748e+000
    1.4503652673915773e-002 -2.2893589167756225e+000
    1.4508756436311521e-002 -2.5429582751549300e+000
    1.3848605626768776e-002 -1.8905790552120576e+000
    1.4088735896250808e-002 -9.7560352335685008e-001
    3.3210777901189724e-002 -4.4150798856875750e-001
    2.3961636375693274e-001 -4.9896583982325998e-001
    7.4884781621318253e-001 -6.5193809882088838e-001
    7.3172614483158072e-001 -8.9528845955864000e-001
    1.9296266687113178e-001 -5.5618651039326217e-001
    3.8971903601816932e-002 -3.6771137280773153e-001
    1.5200927803572687e-002 -9.1545352266457158e-001
    1.4576088095711459e-002 -2.0488835360889470e+000
    1.3051440650508983e-002 -2.2469974409358642e+000
    1.2388418658679243e-002 -2.0404454261354048e+000
    1.3367775348173818e-002 -2.0399225181313247e+000
    1.2538042777978299e-002 -2.0305729044899912e+000
    1.2104026719926051e-002 -2.0126860430521742e+000
    1.3219950335582939e-002 -1.7741173350352304e+000
    1.3409983673699485e-002 -8.6723153240383610e-001
    2.5960723587274141e-002 -3.7383441965674763e-001
    1.6431940548048468e-001 -3.7890121734323523e-001
    7.8839003277026976e-001 -6.1216167250397413e-001
    5.5194805194805197e-001 -6.3636363636363635e-001
    5.6062893755370637e-002 -2.2161332119770041e-001
    2.7374649032075909e-002 -3.4492057780415641e-001
    1.4526100403892054e-002 -9.6658381040486430e-001
    1.4370772749095127e-002 -2.0350704891865652e+000
    1.2386014132501582e-002 -2.0058057003986383e+000
    1.2018245332999465e-002 -1.8993069359786094e+000
    1.1617727138214417e-002 -1.7471694824446455e+000
    1.2610568666892124e-002 -2.0573030082799186e+000
    1.2371438629530902e-002 -1.8736179938582505e+000
    1.2712746581640202e-002 -1.5805683044091017e+000
    1.3090177356453960e-002 -8.6687774517034510e-001
    2.1936930980018490e-002 -3.6544346197301392e-001
    6.0442901901574579e-002 -2.5243800205951739e-001
    5.0921031790512583e-001 -4.8524747941547280e-001
    6.3068598328591630e-001 -7.3456367465065553e-001
    5.5918753388002063e-002 -2.4341104415953838e-001
    3.2522693818921262e-002 -4.6641369135605909e-001
    1.3959066728962702e-002 -9.9684158876239526e-001
    1.5619610471018810e-002 -2.0327544827107071e+000
    1.3193092836681792e-002 -1.9387637955646146e+000
    1.2326922658339371e-002 -1.8939954107989672e+000
    1.3300711006771087e-002 -2.0681823220763937e+000
    1.3805947888565356e-002 -2.1639605143453675e+000
    1.3659307606266307e-002 -2.1004801143706695e+000
    1.4045211867733968e-002 -1.6998011115691687e+000
    1.5444787431450295e-002 -9.4812824490950165e-001
    2.6545802653036906e-002 -4.4097262760103662e-001
    3.4295964432972219e-002 -2.1424890722244999e-001
    1.6774195915977541e-001 -2.6246683021470740e-001
    6.2151509186000620e-001 -5.5570761154541737e-001
    8.7534024485065337e-002 -3.1924173635729708e-001
    3.0206264879992228e-002 -5.0000252571940085e-001
    1.3166178182018987e-002 -9.7011498769394022e-001
    1.3370831067234110e-002 -1.5890839463670468e+000
    1.1697089150455349e-002 -1.6352530632336579e+000
    1.1604674236486095e-002 -1.6845891224000227e+000
    1.2536336461959499e-002 -1.8748459894638725e+000
    1.3150204426622146e-002 -2.0435417678970818e+000
    1.1867541281771397e-002 -1.9700118527740518e+000
    1.4321553607786862e-002 -1.9664335547821232e+000
    1.3333064152711552e-002 -9.3143217575060233e-001
    2.0912351167281136e-002 -4.4161965112081930e-001
    8.2179744604782196e-002 -4.3603605666772671e-001
    5.8227373541690719e-001 -5.4802233921591259e-001
    4.7736238874264553e-001 -5.5037075407975600e-001
    5.1089314754685221e-002 -2.5184026920250718e-001
    2.1432965175166428e-002 -3.9184503390833680e-001
    1.4338792241165615e-002 -8.6909950148806170e-001
    1.2479357582454199e-002 -1.2046250466357260e+000
    1.1885503164349014e-002 -1.3397059507956224e+000
    1.1930474501711818e-002 -1.4802209893535627e+000
    1.2024276365030964e-002 -1.4301815770642712e+000
    1.2202614478357366e-002 -1.4908723689146028e+000
    1.0812984356009844e-002 -1.4485582689633423e+000
    1.2752343043832010e-002 -1.5893920259571332e+000
    1.4106284640445783e-002 -9.3732112528515044e-001
    2.2178437235317084e-002 -4.2660876329109920e-001
    1.0160851280587860e-001 -3.6100906902794511e-001
    6.6753469249468744e-001 -5.1832105534881612e-001
    4.6852049484785985e-001 -6.0080863456960854e-001
    4.1166238977938335e-002 -2.4167003823519093e-001
    2.2161595122601511e-002 -2.6359261963470737e-001
    1.6387133527238761e-002 -6.1307158372493253e-001
    1.2321217320993887e-002 -8.9857913144518942e-001
    1.0832759367432884e-002 -8.7031663200234310e-001
    1.0464340159034694e-002 -9.3748176836528474e-001
    1.0621693682616172e-002 -1.0303042872137687e+000
    1.0939780936061455e-002 -1.0740290813109745e+000
    9.8825649141292063e-003 -1.0526675615591274e+000
    1.1517040442291142e-002 -9.7664502950628884e-001
    1.4784087960977004e-002 -6.5380454876838312e-001
    3.6166283641193064e-002 -3.6379026486141258e-001
    1.7710408893497520e-001 -3.5004102283618632e-001
    7.3445260984335736e-001 -6.3940580151068760e-001
    4.3005049595222589e-001 -5.1606059514267100e-001
    4.3259355863136277e-002 -2.2851118567703751e-001
    6.0333022112237664e-002 -2.7327310015542944e-001
    2.4863151799486723e-002 -4.2969376462877640e-001
    1.7818491121785771e-002 -5.8507539671651865e-001
    1.4022859531785873e-002 -5.1967067676618239e-001
    1.2635973119925035e-002 -6.2540634018264263e-001
    1.1776038191522020e-002 -7.2775916023606080e-001
    1.1378554077124943e-002 -7.4496062869647417e-001
    1.1422087555761230e-002 -6.8693778335354594e-001
    1.4906495406430544e-002 -6.7535192717840031e-001
    1.4778212426289534e-002 -4.4178162088472595e-001
    1.1844691239195139e-001 -3.0656847913210949e-001
    7.7420029443405369e-001 -5.8292728051505216e-001
    6.9434619765602956e-001 -5.9632085210459007e-001</input_scale>
  <output_scale>
    5.2631578947368418e-001 4.9999999999999994e-001
    5.2631578947368418e-001 4.9999999999999994e-001
    5.2631578947368418e-001 4.9999999999999994e-001
    5.2631578947368418e-001 4.9999999999999994e-001
    5.2631578947368418e-001 4.9999999999999994e-001
    5.2631578947368418e-001 4.9999999999999994e-001
    5.2631578947368418e-001 4.9999999999999994e-001
    5.2631578947368418e-001 4.9999999999999994e-001
    5.2631578947368418e-001 4.9999999999999994e-001
    5.2631578947368418e-001 4.9999999999999994e-001
    5.2631578947368418e-001 4.9999999999999994e-001
    5.2631578947368418e-001 4.9999999999999994e-001
    5.2631578947368418e-001 4.9999999999999994e-001
    5.2631578947368418e-001 4.9999999999999994e-001
    5.2631578947368418e-001 4.9999999999999994e-001
    5.2631578947368418e-001 4.9999999999999994e-001
    5.2631578947368418e-001 4.9999999999999994e-001
    5.2631578947368418e-001 4.9999999999999994e-001
    5.2631578947368418e-001 4.9999999999999994e-001
    5.2631578947368418e-001 4.9999999999999994e-001
    5.2631578947368418e-001 4.9999999999999994e-001
    5.2631578947368418e-001 4.9999999999999994e-001
    5.2631578947368418e-001 4.9999999999999994e-001
    5.2631578947368418e-001 4.9999999999999994e-001
    5.2631578947368418e-001 4.9999999999999994e-001
    5.2631578947368418e-001 4.9999999999999994e-001
    5.2631578947368418e-001 4.9999999999999994e-001
    5.2631578947368418e-001 4.9999999999999994e-001
    5.2631578947368418e-001 4.9999999999999994e-001
    5.2631578947368418e-001 4.9999999999999994e-001
    5.2631578947368418e-001 4.9999999999999994e-001
    5.2631578947368418e-001 4.9999999999999994e-001
    5.2631578947368418e-001 4.9999999999999994e-001
    5.2631578947368418e-001 4.9999999999999994e-001</output_scale>
  <inv_output_scale>
    1.8999999999999999e+000 -9.4999999999999996e-001
    1.8999999999999999e+000 -9.4999999999999996e-001
    1.8999999999999999e+000 -9.4999999999999996e-001
    1.8999999999999999e+000 -9.4999999999999996e-001
    1.8999999999999999e+000 -9.4999999999999996e-001
    1.8999999999999999e+000 -9.4999999999999996e-001
    1.8999999999999999e+000 -9.4999999999999996e-001
    1.8999999999999999e+000 -9.4999999999999996e-001
    1.8999999999999999e+000 -9.4999999999999996e-001
    1.8999999999999999e+000 -9.4999999999999996e-001
    1.8999999999999999e+000 -9.4999999999999996e-001
    1.8999999999999999e+000 -9.4999999999999996e-001
    1.8999999999999999e+000 -9.4999999999999996e-001
    1.8999999999999999e+000 -9.4999999999999996e-001
    1.8999999999999999e+000 -9.4999999999999996e-001
    1.8999999999999999e+000 -9.4999999999999996e-001
    1.8999999999999999e+000 -9.4999999999999996e-001
    1.8999999999999999e+000 -9.4999999999999996e-001
    1.8999999999999999e+000 -9.4999999999999996e-001
    1.8999999999999999e+000 -9.4999999999999996e-001
    1.8999999999999999e+000 -9.4999999999999996e-001
    1.8999999999999999e+000 -9.4999999999999996e-001
    1.8999999999999999e+000 -9.4999999999999996e-001
    1.8999999999999999e+000 -9.4999999999999996e-001
    1.8999999999999999e+000 -9.4999999999999996e-001
    1.8999999999999999e+000 -9.4999999999999996e-001
    1.8999999999999999e+000 -9.4999999999999996e-001
    1.8999999999999999e+000 -9.4999999999999996e-001
    1.8999999999999999e+000 -9.4999999999999996e-001
    1.8999999999999999e+000 -9.4999999999999996e-001
    1.8999999999999999e+000 -9.4999999999999996e-001
    1.8999999999999999e+000 -9.4999999999999996e-001
    1.8999999999999999e+000 -9.4999999999999996e-001
    1.8999999999999999e+000 -9.4999999999999996e-001</inv_output_scale>
  <weights>
    <_>
      -1.1927468219439279e-001 -1.0102071865661531e-001
      -7.0073470343888361e-002 2.5294134879037072e-001
      2.0598952180699816e-002 3.6355561023595925e-002
      -1.2416239208296827e-001 2.8575815730574692e-002
      -1.0896034904925256e+000 2.1752495641219755e-001
      -1.8836613149932729e-001 2.3230320919546851e-001
      -1.6824609700865462e-001 8.4832013716035298e-002
      -1.4221871510063352e-001 3.2062541968287894e-002
      8.9600491794638734e-002 2.2993688543136614e-002
      2.2698983238373827e-001 -6.7651687615685616e-002
      1.1572921592059623e-001 -1.0441281302046232e-001
      -7.5186193388399339e-002 1.0467489847300383e-001
      1.3077683801409365e-001 2.7178016431501580e-002
      7.9121541874236700e-002 -6.4605440574337411e-002
      3.9430757005677702e-001 -1.6990483655917035e-001
      -1.1370030092624608e-001 -1.0763302470270747e-001
      -1.5952156162883577e-001 1.6753505223532766e-001
      -1.1164756940202721e-001 -5.7717396108870667e-002
      8.0918406814859734e-002 1.0137124790083309e-001
      5.9564533589823498e-002 1.0836420086588076e-001
      1.5606974027263315e-001 -6.3958843705391330e-002
      8.1709316550204969e-002 8.4130971958864917e-002
      2.7250012182316391e-001 -2.1992979575353569e-001
      -1.9802742203710175e-002 1.1100102282576489e-001
      6.3333726933723203e-002 1.1627558857050808e-001
      -2.3747479381098332e-002 -1.0929625031832753e-001
      3.3484692989775473e-002 -2.9763517123971680e-002
      1.9081011337081719e-001 2.2457643561697324e-001
      1.2632939293096250e-002 2.5559263472828109e-001
      1.2333196448086068e-002 1.6782367498720313e-001
      -3.8121348464301935e-001 5.8104402509568953e-001
      -7.6490307996232382e-002 1.7213361115589068e-001
      5.9622055809304386e-001 -2.4361783193859898e-001
      1.1540148048692095e-001 9.4414034529527097e-002
      -2.1827198480555926e-001 3.4191375767282328e-001
      9.3425997328059868e-002 4.0468633761530780e-002
      -6.1677908025535289e-001 -2.4025166182689248e-001
      -2.2328764093742740e-001 1.5064331566451810e+000
      4.7426678332197908e-002 -6.3956798140649682e-002
      -2.5037843399075062e-002 3.3749656152413759e-001
      -4.6795424701251975e-001 8.5649027586200088e-001
      -8.3290920153375274e-004 1.2216515164229470e-001
      6.6737811301419399e-003 -1.3477518189718471e+000
      5.0243817303119209e-001 -1.5860100433827146e-001
      -2.1579224793685495e-001 -4.0076987676474501e-001
      -1.8002152399760030e-001 9.6176754810602971e-001
      -3.9325423724755598e-001 1.4142953168585837e-001
      4.7133780411644177e-002 -1.0013941645530654e-001
      6.2375066162994619e-001 1.5503969970255244e-001
      -3.3169049446303239e-001 3.2843356479985536e-001
      -4.7535452377966199e-002 7.5736081118189391e-001
      9.5932781858049043e-002 4.9061357970491069e-002
      8.2440915315079166e-001 4.3013380239534452e-003
      1.0584860838384311e-001 3.2171818067636099e-001
      -2.0052147761438679e-001 -1.1229758265302264e-001
      -8.2443553879586642e-002 -2.0194186683007156e-001
      8.7063270205205746e-003 -5.8467815755972585e-001
      -6.5484106125892755e-002 -2.8852678655466590e-001
      -1.3296585972820807e-001 3.8103839991574684e-001
      2.8362140107273170e-001 -2.6887261835718140e-001
      1.4043169367142965e-002 9.1045814786464369e-002
      1.9035316930772289e-001 -1.0412672437833315e-001
      -1.6662847690416926e-001 -9.1471711392839494e-001
      -2.7053889439556958e-002 2.3814175739687857e-001
      1.3259118033616463e-001 -1.4706492459802900e-001
      -4.9636837652351845e-001 3.3843973005129763e-001
      -2.4125586809805688e-001 -2.4621989359771470e-002
      -9.9660406138988258e-002 -8.7767151661558754e-002
      2.1236096676095614e-001 -5.0292086772325251e-001
      -4.5157960979196199e-001 -9.4057010686256493e-002
      -2.6640053841001071e-001 -7.3529224291863565e-002
      3.2028957887884638e-002 -1.7916682778341492e-001
      4.8440713112592008e-002 -4.0365456281103024e-002
      1.9898086484694041e-001 2.9025705494711378e-002
      -4.6113879812572528e-001 -2.6842986295596515e-002
      -4.0159334673894938e-002 -1.1819811707143528e-001
      4.5571359404005646e-001 9.7167885314691269e-002
      3.4617264390098396e-001 -6.9712755039192734e-002
      -3.7819928504153291e-002 1.2783909685558734e-001
      7.2538098669992404e-002 2.9652722872545256e-001
      -2.6002725664510961e-002 -1.0029914286638980e-001
      4.0027854206447749e-001 1.0516327710317200e-001
      1.4241047251190753e-001 2.3186678587291391e-002
      -3.0426671469366241e-003 5.9021188173305407e-002
      7.9037647689863988e-002 2.3045543930839560e-001
      -2.8900673815305210e-002 -8.9093148262164315e-002
      2.0924993959541704e-001 1.2414456677618710e-001
      1.0550454922809768e-001 3.7638539333496895e-002
      -2.6762648521878960e-002 6.1970810043360539e-002
      7.5948572408679249e-002 2.3127793173758551e-001
      1.2792714042169223e-001 -1.1160552313868100e-001
      1.9730227332690936e-001 1.6467280427110914e-001
      1.4355481023261749e-001 3.6008725033659844e-002
      -2.9434741050677903e-002 4.9900962545119049e-003
      5.9867880748022358e-002 2.2798921763609442e-001
      -4.4267389857529504e-001 -1.1348993159276145e-001
      2.2556290313964544e-001 1.3154506146209091e-001
      1.2553598153164328e-001 -5.6663996105840352e-002
      -2.3770668808618126e-002 5.0233965744217311e-002
      4.8079463223655278e-002 2.3238281136926009e-001
      -2.2930976810442577e-001 -4.8315574655792598e-001
      -1.3702087344826901e-002 -1.7037231437179104e-001
      -2.0196151763088857e-001 -2.8560772306973020e-001
      -1.1535433511204789e-001 1.3506961344629129e-001
      1.1366496958551074e-002 3.2894508324497490e-001
      3.9750749632530796e-001 -1.0560519536136927e-001
      -1.6776568821365623e-001 2.6293652681754232e-001
      3.5284401027632822e-001 -4.6293985959688766e-001
      -1.9832474549519472e-001 5.7940060859746123e-002
      -4.6278926069783115e-002 3.2292665981722091e-001
      -4.5530815302358085e-001 -2.1308940726605430e-001
      -4.8707083549732196e-002 -3.1036647714063759e-001
      -4.0307415525976981e-001 2.9227802669327466e-002
      1.4848874949173582e-001 5.7391231504427868e-002
      6.2491259468878568e-002 6.2539365014027215e-001
      -2.2327787681628675e-001 -2.9566968165849250e-001
      3.2837129847685431e-001 -2.7291344345858275e-002
      6.0962692907048488e-001 -4.4280056455056860e-001
      4.6786344042268016e-002 -1.8364602220246759e-001
      -3.7414147820270569e-002 4.0505625500450407e-002
      9.3958205500611208e-002 1.4165990380486310e-001
      -7.8179945659316824e-002 -2.9394386640308579e-001
      1.1639421122808300e-002 -9.4953827228171139e-002
      -4.7511359918983281e-001 2.8741187932406896e-002
      2.7753157103282661e-001 -8.2130432275909548e-002
      -1.2291790619070457e-002 -5.9962979967572674e-002
      6.4512630105435426e-002 8.0015718065930053e-002
      9.5822476030222725e-001 -2.4772563564984298e-001
      3.6589521320504532e-002 -1.9955067684935006e+000
      2.3392755266699199e-002 -3.2051257586831405e-001
      4.1421873282980021e-001 1.4373025832525272e-002
      2.3458880446164684e-001 3.7538707225343432e-001
      2.8752305960536284e-001 -1.4798675188315960e-001
      -1.5643593911321538e-001 5.0896581320362821e-001
      4.7778037199110598e-002 -2.4018267005153557e-001
      2.4800349170182640e-001 -9.4822775486410410e-002
      -1.0815306016270068e+000 3.1236585838283798e-001
      1.8445261164607322e-002 -5.4427612319516683e-001
      -4.9106893211745306e-001 6.6089809017130588e-002
      7.9718413494779816e-002 1.8465051518113967e-001
      4.1225988915019531e-002 4.4494850934531101e-002
      4.8918094842015557e-002 -4.9111927744500444e-001
      -1.0490515625155869e-001 2.0309409695384470e-001
      2.0895376353286413e-001 1.2327952968802308e-001
      -6.0822590092984541e-001 -5.3971217943056059e-002
      2.1840631268448982e-001 -2.4686255787276376e-001
      -8.6055900326845652e-002 -1.4963149721458183e-001
      -5.1163022775838609e-003 3.7246819608381315e-001
      -5.8746441593881371e-002 1.4120981112607231e-001
      7.3556136901588340e-002 -1.3380253318612401e-001
      -3.0879946664105795e-001 -1.6711972207716908e-001
      5.7386647243296916e-002 1.9830131824411479e-001
      -3.0222398993493982e-001 -2.6533234272747591e-001
      3.7516803756314171e-001 -1.2944820349080649e-001
      -1.3110314260940976e-003 7.6533698811777318e-001
      2.5797923377388576e-002 -1.6103716001487484e-001
      1.6481353083844399e-001 3.6561640047588745e-001
      1.1181814340176936e-001 -2.2850718873565265e-001
      -2.8256793226494559e-001 3.2614158815774391e-001
      2.1556445280874401e-001 1.9608945959159924e-001
      -8.1299702394063011e-001 -1.1001729175795849e+000
      1.0621450233612750e-001 1.1611453946105421e+000
      1.4688994424030849e-001 -9.3538528078258285e-002
      -4.7408524585586953e-001 1.6578865018505770e-001
      2.6118096776066541e-001 -9.2247589997205989e-002
      -1.4227696149533370e-001 -7.2534222338118889e-002
      8.6633318343323928e-001 7.1953577525641806e-003
      -3.0170407641077507e-001 1.5087144101649963e-001
      3.7622826302809376e-001 3.4265624122603550e-001
      3.3728322996477639e-001 -4.5790560704926980e-001
      -1.8998745706141576e-001 1.1701825278232467e-001
      9.3018199542930835e-002 8.9888598388734697e-002
      -1.4106822429298194e-001 -5.6003485017875353e-002
      -7.6347472131884211e-002 2.6794965426120038e-001
      -1.4837343658343380e-001 -1.0910437848489772e-001
      2.3638343404615552e-002 -1.3168405458862437e-001
      1.7916910506347075e-001 -1.7650889253398527e-001
      -1.2517538887868898e-001 -8.8145532055594014e-002
      -1.3309249281714593e-002 -4.9223324571188415e-002
      -1.0034382142658698e+000 1.8597294169768344e-001
      -5.0807708326213515e-002 -2.3660110904745058e-001
      3.0956030318241867e-001 1.1855892481457049e-001
      -1.1863280491031562e-001 -5.6110567941012858e-002
      -1.1873357255654841e-001 7.0685529772324795e-003
      -2.8590195023209070e-001 -3.7310310698663589e-003
      -2.1193682621511407e-002 1.6110656866073381e-002
      5.3110589528834587e-002 -4.3725358762746277e-004
      1.4933339956243307e-002 -1.1038690637500308e-001
      -1.9004779883392831e-002 -8.3408016854135139e-002
      -4.4810779099700221e-001 1.1627117568104089e-001
      -3.8330019859206893e-001 1.1051090268625220e-001
      -1.5414732661776059e-001 -5.8153035142077658e-001
      1.9715036898845079e-001 -1.8205979332425717e-001
      9.7438056600156933e-002 -6.5987780664915452e-002
      -2.6419542510661903e-001 -4.4601921464648052e-002
      1.6842573763908428e-001 2.9193515377502222e-001
      -1.7514699858041871e-001 1.9229732868436838e-001
      -1.6174011325448764e-001 -5.5293634537103775e-001
      -2.6693108145951777e-001 2.4867226995290798e-001
      -3.4497096210779649e-002 -7.5124916628721006e-002
      2.1448288527642143e-001 3.3698680350789385e-002
      -1.0677058590450060e-001 8.9030821049658607e-002
      -4.3769086650769551e-001 -7.6013837533478831e-002
      -4.6301865749547441e-003 1.7289283374126185e-001
      -2.8030362332900120e-002 1.7394317302634718e-001
      1.6309873469650119e-001 -6.0755193687432409e-002
      5.6128602356349488e-001 6.4466802702722370e-002
      3.2997389202307742e-002 -6.9885686632010791e-001
      -4.5451928461656849e-001 3.9004020326152862e-004
      3.8867074909041729e-003 -2.7293539291963947e-001
      1.0592403569547155e+000 3.7303208725678949e-001
      7.8869085400077379e-002 8.2180550305164557e-001
      -1.2538201014284187e+000 5.2186887570562812e-001
      -4.9734215475007754e-001 -9.1085494213168236e-002
      4.0269343459207868e-001 3.1664489267052690e-002
      3.4342323656507107e-001 3.8788685348911794e-001
      -4.9546256256802743e-004 4.9717322299323036e-001
      8.0677350547565113e-002 2.8873382101425998e-001
      -3.8619153750869445e-001 4.6735323815711154e-002
      3.0808391196892332e-001 -5.2574376462561799e-003
      3.6218247314389385e-001 1.1825550446088504e-001
      -5.5232974481022629e-002 1.8840325079870743e-001
      3.6920523366129721e-002 -5.7036816036334440e-002
      -2.5836902472730239e-001 -1.3869902696805836e-001
      3.4174922173375788e-001 1.0483332668347557e-001
      1.2361858410192215e-001 2.5537615312226373e-002
      -1.4474558828162562e-001 -4.7590939815747399e-002
      -2.5477660841887217e-001 -5.7422290829449475e-002
      2.5585636838213677e-001 6.3141671863045423e-001
      2.2594343447473297e-002 1.1934830360735380e-001
      -1.1997138903411035e-001 1.8337145533626947e-002
      -1.5817248032353115e-001 -1.8621641808285405e-001
      -2.2318865612827488e-001 2.3241430335672078e-001
      2.0678064996081161e-002 1.7280930467614236e-001
      -4.1189564315350746e-001 -6.5043455896608671e-001
      6.1073419085892133e-001 9.6152013507484577e-002
      -1.0115397700345881e-001 -1.9580929031347855e-001
      -2.1697731024453315e-001 2.2565524348538948e-001
      3.1074581524526999e-002 1.4385745406255618e-001
      5.7954638324133452e-002 -2.8855897709552353e-001
      7.8456957630545943e-001 -1.9434778605646494e-001
      -3.6306821043061588e-001 4.5759768243295318e-001
      1.0152850491679505e-001 -4.2861078652557436e-002
      -1.9149793855081667e-002 2.5822759179326710e-002
      1.2154514987371347e-001 1.5341685055893234e-001
      3.7810324566041148e-001 2.4541384868531094e-002
      2.0997316029053145e-001 -1.3048250472137687e-001
      -2.1108480914486860e-001 -7.6707976276681494e-002
      3.8789285901649397e-003 2.0734058562825595e-002
      1.5591943631604675e-002 1.8226291767658023e-001
      3.6079715479766311e-001 -1.5787558948484990e+000
      8.0597522357626294e-002 -5.7717670837354851e-002
      2.6504763281627669e-001 -4.8460352072582963e-001
      -4.8036154296677486e-001 -1.3564079932808587e-001
      -2.1186344335334999e-002 1.9359827792207621e-001
      1.5166980353578405e-001 -2.3536260283394485e-002
      9.2709196743996025e-002 5.3627502532708149e-001
      -8.7713248364445651e-001 -1.6209286579957294e-001
      -1.0529762442233608e-001 -1.3951829564262759e-002
      3.0374053093650252e-002 8.0811597544569500e-002
      4.6769830202246837e-001 -2.3407939959374791e-002
      -4.7576026769364524e-002 8.4456414612485486e-001
      -8.7829456479316070e-001 1.1202266051397799e-003
      -6.1069866323611645e-002 -4.5860610529265454e-002
      1.0240235570206306e-001 -1.9741836735250148e-001
      2.4249148937816226e-001 -8.0054691660484290e-002
      -7.0231111795850204e-002 1.0590652990618743e-001
      -4.1331101391292195e-002 5.2912858588807538e-002
      7.2347436452723148e-003 -3.2935162799383833e-001
      8.0149145037083230e-002 2.7639705725325825e-001
      -2.0275086432631020e-001 -3.1382416871860150e-002
      7.8505447969348621e-002 1.3180028787290263e-001
      -9.2067839301576304e-002 3.6226009250917951e-001
      1.2863133623699177e-001 2.1191472003184550e-001
      1.7345186475238552e+000 2.3859486758334011e-001
      -1.1734565674325290e-001 2.0426313158782797e-001
      4.0562224918007805e-001 7.2368335321434371e-002
      2.3958373259139246e-001 -1.8453318556091144e-001
      -2.0049444729248933e-001 -9.0830307214972136e-002
      4.5284364292880369e-001 1.4444584646671130e-001
      7.1333310574572018e-001 4.5308828859297656e-002
      -1.6971259886625165e-001 -2.4788305143973766e+000
      -1.3790493908465370e-001 9.2475600301307226e-001
      -7.4086522256846987e-001 -1.3439799302665534e+000
      5.8741131680910630e-001 -4.3821362348104198e-001
      2.9555329000363795e-001 3.4916163353897090e-003
      1.4008634035059103e-001 3.4410951045466381e-001
      -6.7405423151617450e-001 7.9210192561803439e-001
      -3.2811525542773678e-001 -2.7279718426917726e-001
      4.5627646497066976e-001 2.9262672836921577e-002
      2.7712993764127458e-001 -1.9242747891368650e-002
      9.0108284566058974e-002 3.6250948964973589e-001
      -1.1478968830902510e-001 -9.9631364663155281e-002
      -2.6745232928772570e-002 7.2340953928196186e-002
      4.0516219219705184e-002 1.0413453404467948e-001
      9.9279927353351824e-002 1.3816716704465382e-001
      -3.2999077985081532e-001 -3.0862248113074951e-002
      3.6696253196006529e-002 -2.4339217154365031e-001
      -3.7927506793833060e-001 2.8824905842757076e-001
      3.6234346301045495e-001 5.0050330377239459e-002
      2.3614998638165508e-002 1.5670603534875258e-001
      -6.2858270914373585e-002 -3.5648405191490823e-001
      4.0865867101557887e-002 -1.5776378060095733e-001
      2.2226076770932185e-001 4.7189588109906161e-001
      -2.4008390776479915e-001 9.5391332580465071e-001
      -6.1699618688667426e-002 1.0338225478216313e-001
      -3.3082838357025995e-003 1.6204903156893019e-002
      -3.6311541119175794e-001 -4.9624225844634252e-002
      3.0586564538317706e-001 -7.7244611970478827e-002
      -2.2371904105217705e-001 1.2878757729302875e-001
      7.4510801498584231e-002 -2.5872213726061899e-001
      -6.8703973132967289e-001 -1.2413700718918358e-001
      7.0446794199651275e-002 1.0872320656337789e-002
      3.1672089452343281e-002 -1.3379816905893843e-001
      1.1961209103438815e+000 4.7139991530770399e-002
      -2.3871690973092063e-002 1.9127819968995319e-001
      -4.5483968455022705e-001 7.5082994707895687e-002
      1.1071560599363599e-001 2.1074028895167529e-001
      1.3250064714791726e-002 -1.0306849846532200e-001
      1.1388636202245811e-001 4.3254564627812020e-002
      -4.1377650869181874e-002 -3.6375830088341143e-001
      1.1120126073067611e+000 -4.3832683048381421e-002
      8.0960090546907879e-002 4.1082598206965770e-001
      -1.7224050219586912e-001 1.7085543775227874e-001
      -1.1058217927017386e-001 3.6953731352752223e-001
      2.8704238882047184e-001 -4.5118312418159151e-001
      -2.8379279445063528e-002 -5.9957555892223048e-002
      -1.4058997142372009e-001 -4.7677923804849892e-002
      -4.7545181781799770e-002 -5.5623795260809038e-002
      -3.7119249019302536e-001 9.4587884095144026e-001
      2.5023499565869073e-001 2.2452443739868345e-003
      6.3123224501779462e-001 -3.9666551788829461e-002
      8.7666832244162857e-002 -3.9971902378780250e-001
      -4.5051709872827826e-002 -1.1198970406044451e-001
      2.2346919828112011e-001 1.1672985653695682e-001
      1.7182512527812385e-001 3.5055237596964306e-001
      -6.3001801834638591e-002 1.3411559086571598e-001
      -4.7424494778838794e-001 -3.7607280087146124e-002
      -5.6600305549923166e-002 1.5068984659476944e-001
      2.3391216945755364e-001 1.4848728742707495e-001
      8.3391241645146874e-001 1.4926112279261855e-001
      1.1599850188497282e-001 6.3299595669195172e-002
      -6.6626053535668361e-001 2.6062689386602556e-001
      6.4619070269761145e-002 -2.7284398554683681e-001
      -3.1769333109538156e-001 4.0892105104299456e-002
      -2.1427784122598306e-001 -3.0511010703860891e-001
      6.1864375620189327e-001 -1.6935640877707134e-001
      -2.8423918075562021e-001 6.2072690320709734e-001
      -1.0313501147974881e-001 -4.5186045367489547e-002
      3.2697586187524230e-001 8.0055776878406509e-002
      -2.4273467262445034e-001 2.2480229580422045e-001
      1.9452197038248448e-001 -3.1008718929726714e-001
      -1.5892785756883087e-002 4.1063233660006221e-001
      -1.9164975698682005e-001 7.0194679843605334e-002
      3.2642340557634947e-001 -8.0106217007193670e-003
      6.9026895071961958e-001 2.5008008613485934e-002
      -3.7385567874362376e-002 -6.7706150188975012e-001
      -5.3081364552358667e-001 6.5687419011435677e-001
      -2.4957158999975020e+000 -1.4487025017446660e+000
      4.0280278173844458e-001 7.3304091441456012e-002
      4.8689926247511943e-002 2.4784919481481691e-003
      8.3533019554028851e-002 -2.1138578749028328e-001
      -1.2002357977130234e+000 4.4160307957093031e-001
      -1.0959394650901022e+000 1.3177194235689152e-001
      4.6483817848332026e-001 4.3093030148708616e-001
      -2.0267165075027929e-001 -1.4216873686438944e-001
      1.2957284790877144e-001 1.0093760684672241e-001
      -1.6808706047193733e-001 -4.2564771146453029e-001
      -7.9355364242958892e-001 3.6661273734688815e-001
      -1.4793117486464644e-001 7.7906815750719241e-002
      -3.2485361204695606e-001 2.7092623791213799e-001
      -4.4528768470631597e-001 -2.2880048690139002e-001
      2.1705191525292305e-002 4.6585877076084879e-002
      -2.7882267220269807e-001 4.3163743867865262e-001
      6.8196993760436869e-003 -3.5003614457174127e-002
      -1.4360369344779172e-001 1.7669377335719291e-001
      -2.2024292284873098e-001 -2.6817275037577946e-002
      2.1945495283478139e-001 -3.9125093573317657e-002
      -2.0180420261393592e-001 6.7152849527694791e-001
      1.7443873661258782e-001 1.1809790920443755e-001
      -6.2510555811400165e-002 1.0216452298628692e-001
      3.4208711226400068e-001 -6.0616492053999729e-002
      -1.8503485751665177e-001 2.4692444329491883e-001
      -2.2226927150752022e-003 -9.7779297588744055e-002
      7.3658605918026268e-002 1.9155411574216027e-001
      1.4716944161473822e-001 2.6286552533331015e-001
      -1.8967666066480449e-001 -7.0565567149130676e-002
      1.2749097502931922e-001 2.0258473886780937e-001
      -1.6178225982460926e-002 -1.4444301754756436e-001
      -9.7325614284534789e-002 6.2156009333569559e-002
      -4.3303170021187561e-002 1.5789696374433629e-001
      -7.0612509144830582e-002 8.0354920243000630e-002
      1.0722993323690672e-001 -2.5563294619486659e-003
      2.2101803961275989e-002 4.4673621181424497e-002
      -2.1677423044080751e-002 -2.2081189691799510e-001
      -1.2977509671281504e-001 -8.4267160131695398e-002
      3.1356904061357321e-001 -1.3928670405194096e-001
      1.7531400711275261e-001 5.5629356608575697e-001
      -3.9707686714167101e-001 4.8255337855340384e-002
      1.2024143150153703e-001 -2.7293154671884001e-001
      -5.6620917292025542e-002 6.5582900509591924e-002
      -1.2012846949072988e-002 -2.3098795477586811e+000
      3.7916930987182879e-001 -2.8061536477132742e-001
      -5.7363972162620824e-001 1.5777526329016439e-001
      -7.8061588021012707e-002 -4.1112648969463185e-002
      -1.0124972855895376e-001 4.5433385620433385e-002
      4.0309985919223901e-001 2.8416699097803699e-002
      4.4485471465109250e-001 -3.6686789713121432e-001
      -1.9281894036942038e-001 -2.9564077691479479e-001
      2.0493061846885433e-001 1.6956769943883102e-001
      1.7702082687531251e-001 1.4699241663986882e+000
      2.5664554840153242e-001 -7.7758192325686259e-001
      -4.1008371837112051e-001 -1.0526078836588822e-001
      -6.5236592121196368e-002 -1.6716132236376458e-001
      2.3818108399832180e-001 2.0140579047352664e-001
      1.7539231883511000e-001 5.3374253048202432e-002
      3.1911186707975941e-001 2.8375654996073973e-002
      -1.5718119082823012e+000 3.5339565149978108e-001
      -2.0732245008424008e-001 -9.5341017799943906e-001
      -1.4355786207695062e-001 1.6240012234190748e-001
      8.2203931090815174e-001 4.2399312240427922e-001
      1.6079015134737781e-001 5.7705043971420888e-001
      -3.0268116198636646e-001 1.6684542274322164e-001
      -2.9225660202686115e-002 -2.2861376770811761e-002
      3.7495770516698107e-001 -1.3461973244388289e-001
      -1.8042470436491823e-001 -3.0189426547752852e-002
      2.0721495075228949e-001 2.5887281219060193e-001
      -5.7106014227490487e-001 -2.0615541922616737e-001
      1.3556825900990135e+000 5.2509940347567130e-001
      3.9327886748372148e-001 -1.7935856998534150e-001
      1.5637832526460108e-001 3.1816459620656506e-001
      3.0162744596956139e-002 -2.1168297438348180e-001
      -1.5320601246875865e-001 6.5949170007487579e-001
      -3.3965890677058702e-001 1.5839582487186973e-001
      1.6892276898094589e+000 1.1478614805511522e-001
      -1.4010194713989449e-001 4.2242213016114327e-001
      2.0586677356794347e-001 -1.5141485309520594e-001
      -3.0080093872711566e-001 2.1281241151160557e-001
      -1.6087475216917063e-001 -2.9327022044819290e-001
      3.4492374596342790e-001 -1.0996495578111300e-001
      7.2168859677784372e-002 -9.4246600091649618e-002
      8.6896805995209803e-001 5.8944841830593495e-002
      2.2355515578715662e-002 -2.2234498020161697e-001
      -1.3303052626041584e-001 3.3271579286621922e-001
      -1.0055955895170968e-001 1.4343502759223900e-001
      -1.2977209785941365e-001 2.6344811038503044e-002
      9.3045226507410417e-003 -1.8289605129994121e-001
      1.2825007263379409e+000 3.6440343745168711e-002
      2.2658056822666767e-002 1.1910525147109721e-001
      -2.9077396153920920e-001 -5.4203069385765990e-001
      -3.5118512932861012e-001 3.0287650618609407e-001
      -1.2404886619525968e-001 -4.9371373384855415e-002
      4.3049671038005477e-001 4.2582682565713771e-002
      3.7178767987999191e-002 2.7487326716261340e-001
      -9.1667196944306570e-002 -5.2526487948580747e-001
      -1.1707547817694088e-001 3.7276828080242064e-001
      6.0514566540488079e-001 3.1423370398544043e-001
      -1.6998913266744781e-001 -4.5327088004507174e-002
      -3.1886417969468445e-001 5.0569218965216833e-001
      3.0190989173317812e-001 1.2227158812332402e-001
      5.7341089828266567e-001 6.7915988059027810e-001
      -1.0041381394367772e-001 1.7679710264429890e-001
      4.2394336815595629e-001 8.5532235866988670e-003
      4.6894204534954582e-002 1.8244020189832313e-001
      2.4343512998924224e-001 -5.6684667236473441e-001
      -1.1813796587146326e-001 8.1212762598595820e-002
      8.3972820340217236e-001 3.3450712863094811e-001
      1.7588371912262774e-001 3.3109590914964160e-001
      -2.4639233847568745e-001 1.6147790964331485e-001
      1.3604352107414122e-001 -2.2556042904822737e-001
      -1.2478567809142217e-001 9.4042457427801845e-002
      2.2947023102720998e-001 -8.9075057789940335e-002
      3.1693058624924758e-001 4.0255689976959225e-001
      -2.1888469484566897e-001 1.0613574668337265e-001
      -3.1971464804042428e-002 -4.4360479811626635e-002
      2.4436762403865850e-001 2.2758367273600216e-001
      1.4827797114974178e-002 -1.1894495793328808e+000
      3.7188661465189943e-001 8.0678950133060146e-002
      -5.3965746307421381e-001 3.2904422217823380e-002
      2.6796679475015678e-001 -9.3350951520788331e-002
      2.5231750164303124e-002 -1.8221784872926833e-002
      4.5230934470574763e-001 7.1825348688564994e-002
      1.5507746011924088e+000 -1.9552649929845778e-001
      -9.0757298011783401e-003 1.1729339628539448e-001
      3.4557456327224949e-002 -2.5327020268721423e-001
      1.2210002058394266e-001 2.4783690326125934e-001
      1.2432093189364045e-001 -6.9025308458737430e-002
      -9.3627878464770248e-002 1.2947124320617207e-001
      -7.4171363115624500e-002 -7.8390153616837921e-001
      1.0774088186474513e+000 2.5601751879752138e-002
      2.2214715293203940e-001 2.6181157400715643e-001
      -3.4973769216227885e-002 -3.9119111968073816e-001
      -4.9284189640316839e-001 1.5575396476307268e-001
      -2.2615093198986166e-001 -3.1618196025084471e+000
      -9.3422862112354577e-004 1.3388996787495924e-001
      -3.0847973978812768e-002 -1.1480947937979710e-001
      1.2399645631927111e-001 -2.3287032575726296e-001
      -2.0839486487365638e-001 -5.4773069999419548e-002
      -2.9624369066674969e-002 5.5097077904143137e-002
      4.5513871957814152e-002 1.1752968654645565e-001
      1.8958008153199246e+000 -9.1556374297730059e-002
      1.3450938516501715e-001 5.7559981041776551e-002
      -1.6161780830637190e-001 3.0024721357883188e-001
      3.8552359255105273e-001 1.5101153724858297e-002
      8.5430824664447833e-002 -1.2576708938676637e-001
      -1.2778725803089191e-001 2.1121677994667268e-001
      -7.1857015062857894e-003 9.3315062345830910e-002
      1.7790723614540191e-001 -6.2212786100794094e-002
      2.3921177807154434e-001 -2.3982371674241446e-001
      6.1182029844735908e-001 -8.8188247478370230e-002
      -2.9662743353721880e-002 2.7710739290550146e-001
      2.0849296348158286e-001 2.0143399213377076e-002
      -3.1689915737488278e-001 2.0379874803348308e-001
      -1.9315545165300493e-001 -4.8312103488232505e-001
      2.5930452325574338e-001 -1.3222177084280737e-001
      5.0240039213964400e-003 1.4826261072386557e-001
      6.5359062663747813e-001 3.2488302223116481e-003
      3.4074068150731121e-002 -7.5067835038209063e-001
      2.8083142873320598e-002 1.2403062879391605e-001
      -8.8932730004474811e-002 -1.2605891169211000e-001
      5.5400321274323394e-001 2.9196330121352698e-002
      1.0330873425344991e+000 -4.1960406958908888e-002
      1.6809437828381918e-001 -6.9333738669801659e-001
      -2.4633380314568007e-001 1.6593785692758686e-001
      1.0795084100450879e-001 -9.9291329318685520e-002
      -7.9773774260182950e-002 6.3403791612675264e-001
      -5.5940130723721060e-002 1.7401298367454460e-001
      9.7409328289383174e-002 -4.0850379979217066e-001
      -2.7813194474621805e-001 -2.0087951192361336e-001
      -4.1811510807153829e-001 -8.4023891243000393e-001
      -2.3674797442016653e-002 4.7576495341910180e-001
      3.4367578923265402e-001 2.0829125733477377e-001
      -2.4335555712467946e-001 -1.5436510971710626e-001
      4.7688294806005105e-001 4.3311290498776335e-002
      -1.0323696683081023e+000 1.1578345857166580e-001
      1.6790798413492156e-002 -1.3511030165496147e-002
      -6.9982887540219668e-002 3.2585868440649196e-001
      -1.9307262919023757e-001 7.7423094892539748e-002
      1.0836002460778320e-001 -1.2604069991173277e+000
      -6.7093032808823128e-001 3.5803546869392711e-001
      1.9958833999852332e-001 -1.5420082422618125e-001
      -8.4572398542687777e-002 3.1661657486404493e-001
      1.0038330594018542e-001 -4.1884817644606281e-001
      -2.9002874964958453e-001 -1.2764607766976929e-001
      -2.1831086671070338e-001 4.3695435828296197e-001
      -1.2174450381184880e-001 1.4531922839149580e-001
      2.5904253220231644e-002 -2.0653232737667090e-001
      -3.3084678022108088e-001 -2.3955496018404309e-002
      -2.2664610627779944e-001 -2.3530853315330134e-002
      -1.8298010440036616e-001 3.3361449544524402e-001
      2.5147539718616621e-002 4.6007691117354629e-002
      -1.7077996946195761e-001 -3.8458980016351355e-002
      -3.1720328221468815e-002 1.1265898396653173e-001
      6.7260455174496900e-002 1.4295808022180762e-001
      -2.9630511308412485e-002 2.7110853621557940e-001
      1.9838804589504325e-002 -1.1706766768538812e-001
      -4.7304693954796535e-003 5.6109896140620237e-003
      4.1418964419331061e-001 -2.9408971444317793e-002
      2.1616548777796288e-002 -1.9521585981663128e-001
      1.8690886478235869e-001 1.6206167011164510e-001
      -2.9244029176355726e-002 4.1108485982451781e-001
      -1.2629765340287953e-002 -1.1175963821603992e-001
      -3.6041435892970658e-001 -9.4948730608297671e-002
      5.2692617707117806e-002 -1.0979779944496081e-001
      3.3885264274657290e-001 5.8973844382908522e-002
      2.3225555056922650e-001 3.2926502131406993e-001
      -5.1027982420224993e-002 -2.1080596584770073e-001
      -4.8121128537913299e-001 1.1823066366848792e-001
      5.5840200792921256e-002 -4.7921489959608732e-001
      1.1286569341962942e-001 8.7487990783510911e-002
      1.2722659154578089e-001 3.9985454066666398e-002
      1.9881500477358477e-001 9.8494405590888609e-002
      -1.6187220096391960e-001 -6.4395522961185600e-002
      1.4146542182736661e-002 -1.2174496632157374e-001
      3.2728735344136856e-001 4.8061715054280377e-002
      2.0273185466769963e-001 -4.7772377028528115e-002
      1.4237808761222623e-001 3.1933737122706640e-001
      4.1682494604935144e-001 4.8170097617427660e-001
      -9.1403385957611397e-002 -1.5531699525100104e+000
      2.8828360252473789e-001 1.7590204212827346e-001
      2.0274643234896242e-001 3.3231696538444988e-002
      -1.5378982042630945e-001 -2.1631655767868682e-001
      1.7280610740038529e-001 5.5073278074992493e-001
      -1.0976884973897845e+000 3.7920263577917567e-003
      2.6634732452748189e-001 -8.7258627932308111e-002
      3.1771390439130097e-002 -3.4370506289403852e-001
      3.0577268032633198e-001 1.1593067870127914e-001
      -1.4470149579199926e-001 4.8665110518543025e-001
      -5.6037769086161959e-001 1.2116364989146812e-001
      -4.3445532888359373e-001 1.4774073264750451e-001
      2.1436801255156612e-001 -1.0766440398434779e-001
      5.4370125226585087e-001 1.1816868474121657e-001
      -3.9333628413329498e-002 5.4686538594262479e-001
      1.4037331701176419e-002 5.3436377617929534e-002
      -1.1245290568803629e-001 -2.1302923609582999e-001
      5.6287981676769450e-001 5.7427654092198945e-002
      2.3255926209964101e-002 8.7818185768371582e-002
      3.7956078932251930e-001 -3.7955869891677964e-002
      -2.9095839407324398e-001 5.8798385552648802e-001
      -1.1956311370975387e-001 1.7763617493311096e-001
      1.3751748189299887e-001 -1.4445706025268742e-001
      1.0232115418896456e-001 -1.3248292096178260e-001
      8.9893368732254078e-002 1.8348721788086934e-002
      3.0929638222733844e-002 -1.0535457628519439e-001
      -1.1180907488557785e+000 2.0405970273288535e-001
      5.3663472787474471e-002 6.1377857367157965e-002
      -1.4450556491533090e-002 -5.1109542636980733e-002
      -4.5330797032519032e-001 8.5065891176785410e-002
      3.2057268450637849e-001 -5.3395183531554014e-001
      -1.1876476046748750e+000 8.8025541577405761e-002
      7.2435082716880883e-001 -5.4412806630091031e-003
      -4.5119062406843276e-002 -3.0566409521932741e-001
      1.8930037017054524e-001 8.0637650359460342e-002
      7.1885541820285573e-002 7.6809761084555228e-002
      -6.7219340038549569e-001 -2.6302013023670290e-001
      3.1380663291025690e-001 -4.1348908926148598e-001
      -4.4658435630831536e-002 -7.3231449457032277e-002
      1.0321065758161516e+000 -2.9401736302912373e-001
      4.8679800059741825e-002 -8.3200183131210276e-003
      -3.1381336821460476e-001 -2.2644769420859279e-001
      8.5366504800701310e-003 -2.7147719528092323e-001
      -3.9981342016265914e-001 -1.0173782142124825e-002
      -1.5343881773249632e-001 -8.4339116118784876e-002
      4.4586237275380587e-002 -4.6968345314091137e-001
      -1.7756171616218761e-001 2.5807071523648439e-001
      5.0428368328563088e-002 -1.5173415879700303e-001
      -2.8445150828195975e-001 4.7208568359778713e-001
      -8.0567980552904900e-002 3.2020967144216934e-002
      1.6357729254887633e-002 -8.0763988135764686e-002
      -6.2812209994819568e-001 2.5409979535560084e-001
      -1.1517683680611858e-001 -1.7566806344592203e-001
      2.6215801249293580e-001 1.4661821511069617e-001
      -1.3499195968367594e-001 -4.5478210876850994e-001
      7.0600161354978860e-002 1.2078752854690929e-001
      8.9267040965947106e-002 4.8044730674220604e-002
      -1.9316616976154680e-002 -8.5619422360119685e-002
      4.3162088556770284e-002 1.3897393942482691e-001
      -1.1960032701512819e+000 -1.4268859637038156e-001
      -5.9380183136184490e-002 3.5395840036185422e-001
      8.6124088764093568e-002 7.4454147935016035e-002
      1.2975118693561113e-001 -7.7000547099999095e-002
      -1.0983919806741844e-001 -1.6911291273650988e-001
      -2.7163931663925771e+000 -1.3976282508339610e-001
      -7.8938809629395382e-002 8.4972428063810293e-002
      7.2459852193693011e-002 -5.5233789519622101e-002
      -1.8199639772782056e-001 -2.6580378786097238e-002
      -1.2454726770175141e-001 1.2457111010798856e-001
      -1.4629285038949805e-001 -8.6981048338682782e-002
      -1.6938247932508144e-002 4.1226204130787106e-002
      -1.0917557462110516e-001 1.4372499746972683e-001
      2.4504303965726557e-001 2.6346930784766259e-001
      3.6518110030299769e-003 -2.4599814097965952e-002
      -3.7814519790031080e-002 1.7070611464529209e-001
      -5.3753195034111821e-002 -3.0254986989629634e-001
      -1.9674456665439380e-001 1.7760604001041604e-002
      8.9476070582669542e-001 2.1916616813519894e-002
      -1.6638570165167599e-001 -5.5314274081815218e-001
      -1.7333500964756038e-001 5.6896862514368507e-001
      -1.2253321970949312e-001 -7.4605902888736542e-001
      3.3572984678104417e-003 -3.3728627416329586e-002
      2.1680419827445260e-001 -4.4106850593942581e-001
      -1.1654881426314330e-001 -1.1277343607979519e-001
      -7.3042890095571977e-001 -3.6830606585622672e-001
      -4.0934304941429367e-001 1.1021432453063262e-001
      -1.1003252378689515e-001 1.2339293797252764e-001
      1.8938330429121273e-002 -5.5930668314526893e-002
      3.7041221115907452e-001 -6.0567226229701787e-001
      -5.6424207737647281e-001 5.4211485731444442e-001
      -8.5432704740276588e-002 8.6615343310793624e-002
      -2.9916461973832564e-001 6.6401954719797415e-002
      2.1029597459204230e-001 -1.1798101035344107e-003
      2.6260922879178256e-001 2.8878012430317526e-002
      4.6656560673256464e-001 2.5138567323335670e-001
      -1.2767870438019888e-001 3.1419789222831968e-001
      -6.1351074456960109e-001 1.3350152360069262e-001
      1.7495233067421287e-001 4.2633326056245771e-002
      1.8280124157563013e-001 -5.9444752254422133e-002
      -1.9762540872973361e-001 2.3398278722690968e-001
      3.5245813000872907e-002 -1.6660272632403686e-001
      -6.1837414400038004e-001 7.4447024970637043e-001
      2.1117209445376767e-001 -3.3243715825295339e-001
      -8.2934695864359351e-002 -3.1670249559334160e-002
      -2.2011755259366395e-001 7.7216090557963815e-002
      -5.4011889444545644e-002 -6.2387884975497160e-002
      -1.1533331662685067e+000 -2.3207132561147775e-001
      1.1065220465695302e+000 1.1130581706254635e-002
      -1.3747612532667791e-001 -2.4971724031750966e-001
      4.9229505778216713e-002 4.9587160845065799e-003
      3.1217865115411206e-002 1.2047310455439795e+000
      6.1724181936222266e-003 -1.6536825180417886e-001
      1.7237865861205770e-001 -2.0474804613424596e-001
      5.8974021265471827e-002 -7.4156625709853305e-002
      -2.9611241383983722e-001 -1.0871970434293279e-001
      4.8763254559264141e-001 2.6457274814033088e-001
      -1.9526237724545351e-001 -1.7269070283098389e-001
      4.5845483710213367e-002 2.3758262594615384e-001
      -5.7217635835075865e-002 -6.0025735505809280e-002
      -2.2827462909583079e-001 -8.9505873663323549e-002
      3.3423605479174452e-002 -2.0957526732476580e-002
      -1.7113975585038055e-001 -2.9985503026363625e-001
      1.9275784435645119e-001 -1.2542097050452736e-001
      -2.4491663949412229e-001 -9.2876542935577969e-002
      -5.0298833328862709e-002 2.2817021576739895e-002
      -5.1124785921910047e-002 -5.4453134608617881e-001
      -8.1497648093304320e-001 8.7641140735385292e-001
      1.6921129623305470e-001 -7.4457426070922539e-001
      3.3296594470614987e-001 -4.2982469794930639e-001
      2.9303055042511321e+000 6.9259912538863405e-002
      1.3631177677395652e+000 -1.5401616529045470e-001
      8.2734364203371560e-002 -5.2800607429217550e-001
      4.8913665912807763e-001 -1.7136173566403909e-001
      -2.2399340600122195e-001 -6.0533352087093189e-003
      -5.2552838071028167e-002 -2.2603719666443897e-001
      -9.8815998604211155e-002 1.3854995056464300e-002
      -3.1021943470556257e-001 2.8016830993162251e-001
      4.4725923578098103e-001 -3.5843542602562270e-002
      7.3618430072684371e-002 -3.1953246438544874e-001
      -3.4997998325811136e-001 -2.0863445474810394e-001
      -2.5536909950506351e-002 -8.9524818321688271e-001
      -4.7634814226213629e-001 -1.0663015162526358e-001
      1.3535579460550959e-001 -5.2978069623929896e-002
      2.1862214113074724e-001 2.0690561726838523e-002
      -6.2717491863220620e-002 1.7772960700097390e-001
      -3.5524052555871499e-001 1.5617474821349733e-003
      3.3950427263240840e-001 -1.9446564162681218e-001
      4.2364600378933659e-001 1.8376658077688421e-001
      -9.7294258543389078e-002 -5.3500374941106016e-003
      -3.3213812511388119e-001 1.9975420473101893e-001
      3.5433790083451483e-001 -4.8008968777912253e-001
      3.7981762954175508e-001 4.7007842439650137e-002
      9.2921045295058546e-001 1.1762410352647955e-002
      -1.9909977088891623e-001 -1.5773750932270872e-001
      -9.3453219723063274e-001 1.2791684934711374e+000
      -6.2163272030110343e-002 -2.1150011567876397e+000
      1.7474338995983166e-002 -1.1044655984848624e-001
      2.7678921627753400e-001 7.6141189962837835e-002
      3.1798425416578093e-003 -1.7645721353813365e-001
      -7.3853999528022996e-001 5.0273263541945856e-001
      2.1777660349511707e-001 4.4626733841627388e-002
      1.1435896229474557e-001 -2.0023674372041270e-001
      1.3667146483139286e-001 -2.1445449604529987e-002
      6.2194571337837630e-002 -5.5820114826876466e-001
      -4.0257217031521703e-001 -2.0555655587301103e-001
      1.6942895860951435e-002 7.9064178371963875e-002
      8.4592721574251132e-003 -2.0413471908835129e-001
      4.7119012491598355e-001 -7.5273606156506148e-002
      -4.9108832635880693e-002 4.9889767530488488e-001
      -6.3666987865132418e-002 2.7371536607079486e-002
      -3.9097405949288183e-001 1.9570889418950499e-001
      1.3768440779388796e-001 -1.8672202366140328e-001
      2.8856960370032536e-001 -1.1032628819894054e-001
      -2.6803328556378575e-001 2.6723405851046367e-002
      -2.1102998626933295e-001 -5.5441449160659725e-002
      4.7322373142366515e-002 -1.9501890302243799e-001
      -3.1260249356076431e-001 3.4122747598641928e-001
      3.4155395862304656e-002 -2.5750643108784788e-001
      -5.6857295508175552e-002 1.1460893274119646e-001
      -2.6213107236046623e-001 5.4347554500043277e-002
      -5.2578412110104458e-002 2.9103063056559964e-001
      5.4609871340062989e-002 -3.0087141337212286e-001
      1.7879123586029024e+000 -6.7288435839470112e-002
      -9.1648739504812546e-002 1.2436535098667045e+000
      1.0172959397300883e-001 7.8341298215358915e-002
      -6.8536571227118648e-001 3.6700843526821908e-001
      2.9656868362053720e-002 -3.4050161168721865e-001
      5.4187977206437221e-001 -1.3141937190081823e-001
      4.1744858687636527e-001 3.1922387411555081e-001
      4.1439453633255317e-002 9.1781021785145300e-002
      -8.6270059246113584e-002 -9.9953633082582524e-002
      3.5750632027144062e-002 1.1816712088743615e-001
      -1.5633467348522750e-002 9.5372783717687967e-002
      -3.7596450783970031e-002 -7.2222015623671407e-002
      1.1396458122786693e-001 -1.4231000447105427e-001
      -5.4477441003155873e-002 -4.5469858984274525e-001
      -1.7602227118765049e-001 2.2589725039717193e-001
      -5.2434301803170380e-001 5.2101386095625313e-001
      -1.5090530120219547e-001 8.0828086086799242e-002
      -9.8011849430215237e-002 1.7663278473402733e-001
      8.0861779633127576e-003 -3.9877744597318027e-001
      -4.2879420667011015e-001 -1.0731898032264783e-001
      1.5211890723695237e-001 -3.1409214643188840e-002
      5.3513944232623310e-002 -3.3081654973106850e-001
      7.4600547813146101e-001 4.4178887576241964e-002
      8.9210928072242035e-001 4.0614550398417430e-002
      3.9022596801893697e-002 -2.8497951579010161e-001
      -1.4082038598964669e-001 1.0654502186667009e-001
      1.4693714554909865e-001 -7.9303193684101519e-002
      -3.2804022859497123e-001 -2.6143124309493243e-001
      1.7694022572847870e-001 8.7952020256623353e-002
      2.4372533530679147e-001 -6.0849676736166891e-001
      -4.3874259658817555e-001 1.5675386738847943e-001
      4.1535529054730080e-001 2.1450007886408304e-002
      5.3138991928692175e-003 -1.3468926426869443e-001
      2.3790238623885109e-002 -1.5702802910355482e-001
      4.1512225059923674e-001 -1.8501617525863030e+000
      -1.3650379123152181e-001 1.6369839259654731e-001
      2.2421912382427561e-001 8.3480548962810486e-002
      1.4325108226859446e-002 3.3530061372858155e-001
      -4.1880538522241099e-002 1.7699334789507493e-001
      1.2569143842097089e-001 2.8883934865063465e-001
      5.0006281953205112e-002 -8.8542245748704142e-003
      -1.6124567983254889e-001 9.7721272631228884e-001
      2.8250712452685157e-002 2.9135856023550005e-001
      -1.3175553822598435e-001 8.0077991221838563e-002
      3.8378638352124538e-002 5.6508167047600401e-002
      4.5096387048952657e-001 2.4837882570299893e-001
      -1.2581269094765676e-001 -1.4299399446846586e-001
      3.5213222375181680e-001 5.0138914858560268e-001
      -3.3988646739424877e-001 -6.7318959171087961e-002
      3.7486349043510508e-001 -2.5980653927167724e-001
      4.3290905369442151e-001 3.1896101487112904e-001
      1.3440275666911439e-001 -6.5598786210415350e-001
      -1.1488062239146650e-001 4.6358044043053853e-002
      -9.5158802207716753e-001 3.6980618244834368e-002
      -1.0339592802166930e-001 -2.6054648917108882e-002
      -1.3789193008346276e-001 5.2618616359558487e-002
      4.2049426795725375e-002 -2.9555176513291734e-002
      -4.7199394385649476e-002 -6.2083991287647987e-002
      1.8368223201246922e-001 1.3157259554273315e-001
      -1.9982859844225950e-001 2.4302878308233536e-002
      3.2381685573303481e-001 -7.7473351469505196e-003
      -1.0236515069013088e-001 4.6555361059530259e-002
      1.2073144046798488e-001 -2.1177798040862555e-001
      -1.0915984224928713e-001 6.9499469889630805e-001
      5.3028472695272284e-002 1.0850336532863392e-001
      3.3102032539283600e-002 -1.0536275101225188e-001
      -3.5130590069453571e-001 -3.3813764031056591e-002
      -2.7954733016016747e-001 -9.7031876629372946e-002
      4.4283498568739914e-002 -4.2645853703925242e-002
      -1.7213886772633621e-001 2.0711888030227574e-001
      3.7556415189326131e-001 -4.7341706610079859e-002
      -6.1644769983619875e-002 8.1452256775339338e-001
      -2.0029524947375738e-001 -5.1998808599014748e-002
      1.3250953626872469e-001 -1.7306947542162077e-001
      -1.3568560011069089e-001 7.0361775923239500e-002
      -1.9057481650890908e-002 -2.0248029903713574e-001
      -6.5467506201509207e-002 8.1895967395332059e-001
      5.5938549502183306e-002 -4.8993068422803945e-002
      4.9456518699955893e-001 -1.9103139834166313e-001
      -3.3945470624988705e-002 2.4556167034588186e-001
      3.3535660823621485e-002 -2.6147298085398935e-001
      4.0141724256343719e-001 6.5445825366689558e-001
      7.2869520803880183e-001 -7.5621637904977126e-002
      3.7514101936629927e-002 -1.4488973019272698e-002
      -1.8492573893219555e-001 2.0506943277800105e-001
      -1.1360317698573734e-001 -1.4148019368881107e-001
      4.8456826285315702e-001 5.8519007705217185e-001
      1.2763175840343219e-001 -5.9935971662177699e-002
      -1.0780189588327927e-002 -5.7063944514088027e-002
      -1.0950221611375888e-001 1.4230016661348555e-001
      -5.4000205273650313e-002 -1.4558771113670915e-001
      -1.1100325327289250e-001 4.1658581938274007e-002
      -5.6793734694158871e-001 1.7607873369871640e-002
      2.5408911355275698e-001 7.5205811682560575e-001
      -2.9695229497273107e-001 1.9750952517644180e-001
      2.2015245462333140e-002 1.9884027216732780e-001
      2.7675171691699157e-001 6.2872560857821676e-003
      -3.3231627800648128e-001 4.2220996129411582e-002
      6.1175059377586183e-001 -4.6054841042313215e-002
      4.0091507994021211e-002 7.0407966672855898e-002
      -2.1413036520593332e-001 3.7238614943407333e-001
      -2.4885938662185378e-003 -1.4079045121388020e-001
      1.0883158194114603e-001 -1.6591790983064413e-002
      6.3383897610727172e-002 3.0028920847289087e-001
      -7.5621943273810497e-003 2.0625924623807738e-002
      2.1565764613394331e-001 3.1041871632420476e-001
      1.3404071369753678e-001 1.6338099017675073e-001
      -8.7736307697395122e-001 -7.6311080151718821e-002
      -3.3192349432632462e-001 8.6408922106130451e-002
      2.9756525999338612e-001 -3.6711441301187048e-001
      -1.0745497793242624e-001 -1.1192783743724113e-001
      4.5390392784041597e-002 3.0542284701432643e-001
      -5.7493956236146566e-002 1.0769740746365608e-001
      1.4793698670402347e-001 -2.8464434487870290e-002
      -5.8809783209996414e-001 -6.4221109193088644e-001
      2.3819745841839776e-001 6.1304111971957698e-001
      -1.2403983588199556e+000 3.0032492199902360e-004
      -2.8702250750632325e+000 1.5338866829560813e-001
      -5.9590449404259296e-002 1.8708220335713907e-001
      2.9557350706123103e-001 1.0021512596018434e-001
      1.8635324133100989e-001 -1.1712219131151703e-002
      -2.9936033917933880e-001 2.5757381913052640e-001
      -7.8691156488069536e-001 -4.3794608701645632e-001
      -2.0450281615961909e+000 -1.7624054354317020e+000
      6.8242991376603213e-001 6.7699693439499858e-002
      3.1572425379559621e-001 -5.1940070952609135e-002
      -3.5554212847504640e-001 6.3854629777796024e-001
      -4.5066650204632089e-002 1.4694069324812528e-002
      -1.9716091997741347e+000 1.2787357741623881e-001
      2.4794067519847557e-001 1.7440649751481416e-001
      -1.2038131947021889e-002 -2.3932531565369744e-001
      1.6790800562838668e-001 -5.0376898177191565e-001
      -7.7653651521815095e-002 1.0653541282990485e-001
      -8.2589018578875240e-002 1.8138924176736981e-001
      2.2354873623308342e-003 1.7312534336852439e-001
      6.1154572537000550e-004 3.2260690924098540e-001
      1.4513195398801357e-001 1.4113451267367841e-001
      2.9703400628513615e-001 6.4887219876200886e-002
      2.9163689717561496e-002 4.2848819442746999e-001
      3.6287787393947241e-001 3.6795639601908084e-002
      9.2043350768450119e-002 -3.0795841884204506e-002
      -4.4986980086964828e-001 -5.9652010490287725e-002
      -2.5395011473793150e-001 2.7789992327678154e-001
      3.5217833606510034e-002 -1.7836926998219738e-001
      -2.9922116168786681e-002 -2.8535546757798202e-001
      -2.8543438808360619e-002 1.8309226381541441e-001
      -1.8986911705678053e-001 -1.8952093589783468e-002
      -4.4003570597644703e-002 -2.1791852131612952e-001
      4.1381945339143550e-001 -4.4015491930132306e-001
      -1.7562369766855548e-001 1.0785797621333551e-001
      -1.4484922393998706e-002 9.3464044783796982e-002
      -3.0114951384952793e-001 -2.8315401386282063e-001
      1.5517875251725541e-001 -2.2666615641361754e-001
      1.0470224144993076e-001 8.2685949125277269e-002
      -4.5591536849370257e-002 2.3478644719441344e-001
      -3.8556434584184153e-002 -1.9831644649402888e-001
      2.4535559890619719e-002 -1.0239869735009278e-001
      2.3287212178503988e-001 -5.3295365213916972e-002
      4.8484755295572030e-002 2.4177392280607495e-002
      -2.0074100362919892e-001 -9.1746567769090778e-002
      -1.2440493078442240e-001 1.4810841958163545e-001
      -1.5139731652626149e-002 -4.6165351363619572e-002
      1.5310900798789628e-001 -2.2593352785964225e-002
      -2.4607718052024116e-001 2.4483444049166214e-001
      -1.0252523715215717e-001 -3.4244053501474170e-001
      -2.3914472610380287e-002 3.0032806635671250e-001
      -1.4558192217955876e-001 -1.0372600342646794e-001
      -6.5902490788514012e-002 -2.2832774744509224e-001
      1.1679755115656208e-001 9.2466315381303432e-001
      2.7505639361322676e-001 -3.6760204203599250e-001
      -1.7086813238262577e-001 -2.5511688253451677e-002
      2.7636117948748334e-001 -1.7284274083816989e-001
      -3.3505287812649448e-001 5.1854363529112435e-002
      -9.0697357274933360e-002 1.2734330896753296e-001
      6.3768047180612200e-002 1.3637503050316774e-001
      -2.3510145061732118e-001 2.7418254726079505e-001
      5.7819753187434458e-002 5.7407775997577182e-001
      -3.1512153510906132e-001 -1.5461642306291271e-001
      -9.6652949983266914e-002 5.8701367296391449e-001
      1.2261729376981083e-001 1.0829192346139953e+000
      4.7360126449551293e-001 2.8287799775567313e-001
      9.1222750661811448e-003 9.5997037128133222e-001
      -3.5739719653726193e-001 5.0697344685140933e-001
      -2.0994710841061093e-001 4.8115400498826871e-001
      2.4290483554548478e-001 4.1356694165098901e-001
      1.8253814282760536e-001 -1.0379622158070023e-001
      6.5871152858797827e-002 3.2158626749037272e-001
      3.8067197925530183e-001 1.0205572438011118e-001
      -2.5337218746373424e-001 4.1048148920173048e-002
      1.1487234006440863e-001 2.8358533810770792e-001
      -1.5007983440481365e-001 2.8633487111910649e-001
      3.2460607568459177e-001 -5.2320770595419674e-002
      -4.5929932119193523e-002 1.5695318365472261e-001
      -2.4179759792076613e-001 7.6450196008090183e-004
      2.0996581175963255e-001 -1.2340250354950942e-001
      8.9814472218253372e-001 7.8442663306180035e-002
      8.5641391514362369e-003 -1.7652824054663951e-001
      -2.2736733688128441e-001 8.4845020435912577e-001
      -1.3489761365999240e+000 -1.6740146531447655e+000
      5.5803661969172658e-001 1.8485470961073894e-002
      -1.6536976416083621e-001 -7.1968955961966771e-002
      5.7364435025997168e-002 -1.6703948234416446e-001
      -3.7081131437444670e-001 -5.6710774216703008e-002
      -1.2196371189960571e+000 2.8700903276906120e-001
      4.2360571901335642e-001 3.5200795228362497e-001
      -5.9803398530580598e-001 -7.9135898207449179e-002
      4.9650073488491275e-001 -4.8950434494569617e-001
      -1.9127141403379549e-001 1.3080340045743152e-001
      2.1982720407011918e-002 1.1905435776014726e-001
      3.5138649357656588e-003 -3.8701081760347039e-001
      4.6187543569296419e-001 -9.5550034707000565e-003
      9.2775679592164387e-002 -3.0315800735134407e-001
      -5.4155702356151213e-002 4.1778631703190905e-001
      -5.5704811520913923e-002 5.4638323804718884e-002
      5.0632265105296015e-001 -3.4202393671077143e-002
      -4.2618313025687402e-002 -5.6579813262983454e-002
      1.7429044782857669e-001 -7.4969592611239200e-002
      -4.4568888570528015e-001 1.0983429419124002e-001
      -2.4280983107345475e-002 -2.4566196510630939e-001
      -4.0691129220321476e-002 -1.3125398614129147e-001
      8.5351318341731874e-002 1.1195306451499490e-001
      3.4909621140863926e-002 -6.1044608625798281e-002
      -2.1910777780902357e-001 4.1893091141099716e-002
      3.2877157126048179e-001 4.1639563755638098e-001
      -3.7106894224818575e-002 -3.8974152549098873e-001
      -3.6343319983492182e-002 9.9621673862365576e-002
      -7.5717687376185908e-002 -1.3863816982172586e-001
      5.9635878041332469e-002 2.0563408515375661e-001
      2.7020715295994799e-002 2.3912450973024374e-001
      2.4903328021011309e-001 7.6087118185893782e-002
      -1.6913641040607183e-001 -3.2857882887691409e-001
      -3.7050168401580985e-001 -4.6294618166656670e-002
      -2.8752043934645066e-001 2.6862439034453546e-003
      -2.1454872218246759e-001 1.6315570220266351e-001
      -1.0786817674869111e-001 -2.9556533742661995e-001
      3.7324609268335224e-001 1.0704898330380691e-001
      7.1703330385604891e-003 -1.6715951181497182e-001
      -1.8856076776086578e-001 -3.5007155416427883e-002
      2.2113787433988211e-001 3.2323713619062372e-001
      -3.1747039740597421e-001 -5.5449305540184357e-001
      -9.9530244124061099e-002 1.2965639421337768e-001
      1.4312399642708204e-001 -8.1046963615732538e-003
      -7.5399569336870045e-002 4.1435084277317902e-002
      3.5459250036600332e-001 9.0004799687756176e-001
      -4.1553927987653905e-001 -8.0485762778794390e-001
      -9.2561128431532497e-002 -4.2320757315134411e-001
      2.5182488398334951e-001 -1.4348055243430541e-001
      -1.5655428260885260e-002 -4.6919605488272308e-002
      -6.4524140375239996e-003 -1.6045505476742913e-001
      8.0679042831974648e-002 5.8628157796961865e-002
      -3.2626416781341161e-001 3.0915223969818589e-001
      -3.1940717952598209e-002 4.8180622713737534e-002
      -5.2884145000200433e-001 -1.1701232665721026e-001
      -2.2259722485034561e-001 -1.3073357111916703e-001
      1.1735704803901055e-001 3.3646534847552362e-001
      -2.3007999274450677e-001 4.6478772151052949e-002
      -1.4734897766717688e-002 4.2854880604493673e-001
      -6.5916749391652762e-001 1.1589617148838176e+000
      -2.3958100986185629e-001 -1.4863621257820006e-001
      -1.0751313253445556e-002 9.1167644692733446e-002
      5.7564266013891019e-001 2.7893664913727887e-002
      -7.6879926871330426e-002 -2.5384113774774108e-003
      7.9444682177987735e-001 4.7092737156318815e-001
      -1.2052266205817062e+000 -1.0169663101474389e+000
      3.3827225862018578e-001 -1.6744679705822074e-001
      3.3743306859297906e-001 2.4599740580358351e-001
      1.9740257604977887e-001 -2.3903903210599270e-001
      3.1404324065227682e-002 -3.1443280374290172e-001
      -4.4774578712194790e-001 -3.1307808123941738e-001
      1.1868530320653811e-001 4.5044061501389052e-002
      9.0951117176822149e-001 3.2878924813828793e-002
      -3.0677209176039628e-002 -1.8756041406174004e-001
      3.4892341731369576e-002 6.0563827145686833e-001
      -5.0691535507633778e-001 -6.8851963256943793e-001
      3.5357141980106788e-001 -2.4097783258397057e-001
      3.7754094880258951e-002 -3.6745860046969708e-001
      -1.1270549966429579e-001 -1.3614582768789782e-001
      -3.0534661433386473e-001 4.1164701389027308e-001
      -8.0066630963544619e-002 1.5256443727987506e-001
      -1.2226577804278482e-001 -5.8556495143802248e-002
      -3.8842414302354300e-002 -4.8478596620477217e-002
      4.4050993546156131e-002 1.1585025399579800e-001
      -8.3493069629016911e-002 1.4323361595819287e-001
      6.1728139796435799e-001 1.0982018050837103e-001
      -7.7234678705059540e-002 4.1639156734604327e-001
      5.0055092635422938e-001 -9.3398698740381925e-002
      8.1611380448429816e-001 9.1315829801875664e-002
      -1.8875180791868468e-002 7.1422016987675152e-001
      -5.7522914817630728e-002 -2.2324061124799344e-001
      1.1373488284733727e-001 3.7068192148520629e-001
      -1.0312020958709814e-001 2.3217822473382284e-002
      -2.5053450163377627e-001 -1.6505787335344940e-001
      2.2258064097948043e-002 8.0014134145918669e-001
      -6.1602427874140198e-001 -2.8967751569989336e-001
      -1.8165575792228569e-001 5.9752917634717784e-001
      -4.4646076138690781e-002 -3.0072655236785528e-001
      -6.7385723389873260e-003 2.7018598226253893e-001
      1.9798299665945993e-001 1.2868580295593061e-002
      -2.9871835842317680e-002 8.6946628823453131e-001
      -4.2977136837980434e-002 -1.4336921350747717e-001
      2.3453618424346883e-002 2.0903390861538368e-001
      -1.8869233773191821e-001 -1.5503401312462320e-001
      -1.9413270664642193e-001 5.0894109166249896e-002
      3.8662904168945050e-002 2.7457622024335621e-001
      1.1747903218605224e-001 5.8112099171905823e-002
      1.0447327300363107e-002 -3.4554253294085241e-001
      -5.6917493454764150e-002 -5.8629993510916807e-002
      -1.3408409676148947e-001 2.3558453520249692e-001
      2.6721071101034893e-001 2.3545113203412335e-001
      -4.7400748033945850e-001 2.0433675629760012e-001
      -5.2050587180088626e-001 1.0042991728481244e-001
      -5.2630538524881684e-002 -7.5520226627021791e-002
      -1.1370209977221657e-001 1.6328587975921902e-001
      -3.6794733994662421e-004 -9.7022412272908462e-002
      -3.2592419724340116e-001 -6.0167289165736781e-001
      -1.7608715038484640e-001 -2.5007298798953947e-001
      -2.6541580008577259e-001 -2.0301970212806472e-001
      -1.2881422867417391e-002 9.6511854004692157e-002
      -2.6141746391720042e-002 -2.1399113915820234e-001
      -9.7212279699408655e-002 -7.6331319877299825e-002
      1.5415941011255366e-001 -1.2010344796733377e-001
      1.9527645411990721e-001 1.1989479314087287e-001
      9.8953462937365247e-002 -3.7578334878996328e-001
      3.4634272874053285e-001 -3.2799597486213172e-001
      8.1561189904290787e-002 1.0741977250164665e-001
      2.9603473879276261e-003 4.5056967748243792e-001
      2.9569003743503079e-002 -1.9598809789894374e-002
      2.1003217054660639e-001 -1.1592708727091212e-001
      -2.5949247272855863e-001 3.5906195588411939e-002
      9.4286706136100421e-002 2.4670166955850878e-001
      -1.3894640042363163e-001 6.2612349753763452e-001
      3.3504108913452652e-002 -3.0300190474990777e-003
      -1.6355265924295409e-001 -1.2071338001756683e-001
      -1.1233377217995752e-001 -3.3406178584322943e-001
      1.2164708231229526e-001 3.1202313561627165e-001
      2.7291082899666100e-002 2.3310922870295556e-001
      -1.7828787825825976e-001 -1.9120627207897828e-001
      -7.6231448553879699e-002 1.3184027637911477e-001
      9.8945147850048953e-001 -1.0126826433039158e+000
      -1.0226198291907643e-001 -7.9364770904267745e-003
      2.8470265209606149e-001 -9.9828387752533318e-002
      -2.1551528399061745e-001 -1.4951111416842716e-002
      5.3204408841765555e-002 4.5570301179508926e-001
      -2.2892841959994845e-001 5.3915377777132685e-002
      -1.2564709601192816e+000 -8.0708622705158217e-002
      1.4132082029436652e+000 -1.4512566301364116e+000
      -4.5059483165778852e-001 -8.6603420167763734e-002
      -8.4702954074903691e-001 2.4085259814148365e+000
      -4.2616267828048521e-001 1.0730142831426215e-001
      -5.4486185476663035e-002 -1.8766319881693641e-001
      1.1996711906192390e-002 -4.1539368196223792e-001
      7.8564451131217558e-002 4.1475888632406310e-002
      -1.0373374248809477e+000 7.8410319996328348e-001
      -4.8950160359055689e-001 -1.0455419136228331e-001
      -2.3393884646567828e-001 1.2500282065081839e-001
      1.0945531764363900e-002 -2.0061979855036900e-002
      -2.7499242769857192e-002 1.1179134618160567e-001
      3.3828157915401738e-002 6.6979147795013322e-002
      4.2996298017199686e-001 -1.8673751115605128e-001
      -2.8840970745976541e-001 8.2979414336959834e-001
      2.4369770121971149e-001 3.2878800783256536e-002
      1.7507478583442118e-001 6.2523365135909906e-002
      -5.9104693057449052e-002 1.7529243626913765e-001
      -1.4557147578352711e-001 -1.9413439435383537e-001
      6.5357153180474015e-001 8.1167344917068529e-001
      -7.7354167166956533e-002 5.8408126093080293e-001
      -1.4335423329458855e-001 -3.9505412462937761e-002
      9.4523030689240371e-003 9.3039439595191467e-002
      -2.6285861062742378e-002 -1.1037697000662296e-001
      -2.7784625303891758e-001 3.3836774371381961e-001
      -1.3661136934634169e-001 9.0589530763194787e-002
      1.8071720107173495e-001 -6.6596923053882873e-002
      5.2595803603578906e-001 9.0271475515326452e-002
      -7.4581170263700328e-002 -6.5628084839294928e-002
      -2.0309454035481572e-001 -4.8512014248819714e-002
      -2.0149087220171719e-001 1.7444022274678692e-001
      2.4589937943044432e-001 3.6693336879331885e-002
      -1.5490322560430111e-001 3.2925609951890200e-001
      6.9077025185368138e-002 -2.4081907374109218e-001
      2.2005465205750255e-001 7.4328592616985198e-002
      -2.4626174252533931e-001 8.1691605531526226e-002
      2.0529194022161709e-001 6.1757767269425334e-002
      -3.2030213449509631e-001 7.3222583151499343e-001
      2.6366287415210005e-001 3.1799364194548457e-001
      -2.8366202969185844e-001 -3.6079740182898673e-001
      1.2879787775892679e-001 3.1544207696073454e-002
      -1.7400059209760196e-001 -8.5751727791976446e-003
      -8.4694926319066499e-002 2.3025049383416177e-001
      -1.6208997701671954e+000 1.4315446889155187e-001
      1.7493368055283548e-001 -4.3764217987826465e-001
      -1.6618717894803059e-001 -1.6763119560031398e-001
      8.6626172691250544e-002 -1.2014258057571295e-001
      -2.1877230106323151e-001 1.1790954895314400e-001
      -2.0314407609925089e-002 -1.8615929234849751e-001
      -5.5161012140572736e-002 3.3795718555883142e-001
      8.3877821323443416e-002 -4.0863793092258577e-001
      7.5932567380979671e-002 8.7726328577136781e-001
      9.4316318241456254e-001 -2.5752994104842740e-002
      2.8306592607730224e-001 -3.1422698801921051e-001
      -2.4617045332194068e-001 2.9103243485435271e-001
      -4.3697000186127466e-001 1.1179074866395404e+000
      -1.8712508635356337e-001 -5.0686062147691544e-002
      -3.3005424265582067e-001 -1.6456726113715739e-001
      5.5326285495725568e-002 3.7835161721438304e-002
      1.3251019571105216e-001 6.3983196270627957e-002
      -4.4594651002930819e-001 2.3412569804278114e-004
      -9.0063412095528994e-001 -1.5100751803964219e-002
      -3.2901270606545463e-001 -1.1888007438316707e-001
      -1.3441534584039136e-001 -1.6486635124294244e-001
      -1.9752751157887571e-001 -8.8606492715681273e-002
      -2.2827996696539879e-001 -8.4194154954649533e-002
      -8.0286301055806508e-001 -2.0372048611515381e-001
      -7.9336500223840284e-002 2.9095838819682859e-002
      4.3911552315394932e-002 5.1087226952025513e-002
      -7.1849804247292010e-002 -3.7473795719602010e-001
      1.0097400375403502e+000 4.0559913987133819e-003
      2.1162277960638579e-001 -1.3713237945642706e-001
      -2.2987059648122879e-001 -3.3502974938831503e-002
      -2.8780148601585687e+000 5.8568364928120842e-002
      -2.4826472138717172e-002 1.8733579752658924e-001
      1.4212722232403887e+000 -3.5172287309105565e-001
      -6.0612289283135164e-003 -1.1502460888936149e-001
      -1.1205611928127697e+000 2.2124122954451564e-001
      -8.0788186047450561e-001 8.8943821418198867e-003
      -2.3694426222284272e-002 1.1000009294165523e-001
      2.5966098641325530e-001 -3.6727764101833288e-001
      -3.4757025867719678e-002 -1.1669562718679030e-001
      -1.2520322580864784e+000 7.9905322008703661e-001
      1.5003312570386578e-002 -1.0753610788624704e-002
      -1.6191210420754290e-002 1.5830927398010561e-001
      2.1038197629190822e-001 -5.8238808102440254e-001
      6.5877649237613203e-002 1.2655624640472854e-001
      2.5850273345419567e-001 3.5103348013633617e-001
      -6.3321186973317151e-002 -6.4606265293888321e-001
      -2.9784156545942986e-001 3.5755001895954247e-001
      3.2379892351363299e-001 -4.3293995420701004e-002
      1.6851083414333121e-001 4.0368477146410586e-001
      8.4895699150126708e-002 1.3510152603992448e-001
      1.3572674114771724e-001 -2.7820744097560163e-001
      -6.6793715295551748e-001 1.9283629847403924e-001
      4.3023654489258975e-002 2.9707871929171203e-001
      -1.1171670887018043e-001 3.5037664401957691e-001
      7.2427063201227042e-003 1.1493538742556124e-001
      2.4182869790792161e-001 -2.7330887595768588e-001
      1.1406276481098995e-001 9.3830509115337649e-002
      -4.9777468012161381e-002 1.0509335941823632e-001
      -9.8757692487985674e-002 2.0667114799847072e-001
      1.6515570831098911e-001 1.2798596334630991e-001
      4.6089385932488271e-002 -1.5542658390421335e-001
      8.5546207406822436e-002 2.0491502318292437e-001
      -7.2283435576269137e-002 8.5275847688224882e-002
      8.5785446897241630e-002 -6.4587251395273770e-002
      -1.6737460415900629e-001 2.1462512616923271e-001
      3.4456921616029944e-002 -1.0433617952087414e-001
      -3.8923062890795911e-002 8.2865787351829673e-002
      -1.6279747368397912e-001 1.3892442276761607e-001
      1.0467399949656304e-001 -1.5620780822903282e-001
      1.0655550465912456e-001 1.2767619789922266e-001
      2.5866775425553290e-001 1.1405643354947617e-001
      -1.5451815123404194e-001 -1.8914685532115641e-001
      1.0739505387352978e-001 4.2071995023467770e-002
      1.1885155703969001e-002 -1.2476102653599123e-001
      -6.6738576391074944e-002 2.3452893857281989e-001
      1.0118374284968724e-001 3.4281782472852584e-001
      -2.2723997751026806e-001 -1.7068813507070021e-001
      -1.6782050940279344e-001 1.5843950601038795e-001
      2.4005570261946776e-001 -2.1820662429536553e-001
      -1.3954444211312797e-001 -6.4512001495531254e-002
      -2.2732898682088436e-002 -1.7354433412487222e-001
      -6.1261922428335041e-003 3.7598092714526554e-001
      5.2946710040814815e-001 -5.7073635912985525e-002
      -1.3651195475278946e-001 7.0007847535832823e-001
      -2.7727599257546424e-002 -8.1821351157264119e-002
      1.6965428361334034e-001 -5.8972717111425554e-001
      -3.5435757176352517e-001 1.9613661366394403e-001
      -4.5212191002706997e-001 -8.2653513774649745e-002
      -2.3838435419291029e-001 1.4209312491463338e-001
      -5.1063879805396262e-001 -5.9177433346760555e-001
      -1.2224357132559875e-001 7.0368891496190999e-001
      1.3027222068475805e-001 -3.4646425943368357e-002
      -4.3978575432940747e-001 -5.5767802915856458e-002
      -4.1396855683352568e-001 -4.0808070769593946e-002
      -5.6592413210572190e-001 -1.6546043268026753e-001
      4.0165005704961987e-001 1.5870000424140376e+000
      7.8071956410537338e-002 1.4888561869601578e+000
      -4.1299817173125100e-002 -9.7955981936231562e-002
      -4.5745180077083147e-001 -1.4496623794036245e-001
      2.6427741777769925e-001 -9.0688724104727969e-001
      6.5261000977242467e-002 8.9419789943855649e-003
      -7.0451100477666240e-001 3.8734071903107563e-002
      -4.4767107452460167e-002 -1.3698963188596353e-001
      -2.2023876359299874e-001 5.4012926995759403e-001
      -6.1959766811194517e-001 2.5987912904060051e-001
      -1.1230460738904401e-001 -4.4073873007313907e-001
      3.1905328497349272e-001 1.5399365426932329e-001
      1.3645030452382998e+000 -3.5079781700800472e-001
      2.2598630291185998e-001 -1.6510937208611487e-001
      -6.6849914897030338e-001 3.8986824044883545e-001
      -1.6762693483596589e+000 -6.5241002025157712e-003
      -3.4073858090101897e-002 1.5106711362977696e-001
      7.4867442038273446e-001 -3.6433315579567210e-001
      1.9796351848024762e-002 -1.2812435714024231e-001
      -8.9250319073249407e-001 6.3223128509868842e-001
      -6.2161845954507355e-001 -1.5305953215918999e-003
      -2.7337445004932664e-002 4.6445507685997295e-001
      7.2158482356626452e-001 -2.2212421920110356e-001
      -1.0907271424324015e-001 -1.7420753374705811e-001
      1.4109347252374247e+000 3.7991117617665060e-001
      2.5940267728684036e-001 -4.4652452483750882e-001
      -8.0238344897357788e-002 2.3796885913251023e-001
      -1.8189655524125911e-001 -8.7822921095983456e-002
      3.0870516410561910e-001 4.3250350092260847e-001
      8.4267685800517550e-002 -5.7748329553682740e-002
      1.2746419713956941e-001 -4.2868092484862674e-001
      -2.0317121686442192e-002 7.8521815541000711e-002
      -2.9439088911813467e-002 2.7830642486402873e-001
      4.7626163050776998e-001 6.4967370064258312e-001
      9.5448827270434189e-002 -1.8222564326777085e-001
      -1.0186499085620997e-001 -6.7448821566733852e-001
      5.8069843636707787e-002 1.1923889845136537e-001
      -1.1414647932914121e-001 6.5950329336511918e-002
      -2.9986950522631586e-002 7.2360213658541306e-001
      -1.2557126447507175e-001 -7.7783872718762748e-002
      -8.6483684668668001e-002 -7.1003473159685726e-001
      -6.6701322786216419e-002 4.3953870446662782e-002
      -5.6641636183571087e-001 3.1765516410275285e-001
      4.3982345505055404e-001 1.4706906669714526e-002
      1.3583997185084914e-001 3.0875246317628606e-002
      2.8494287085757526e-002 -7.3526196930221821e-001
      -9.0315899491521523e-003 5.0087506987991262e-002
      -7.9367672711793813e-001 1.3745298959758120e-001
      8.1388593819482768e-003 -3.4110263028275151e-001
      1.1841718413074992e-001 1.2740236611932951e-001
      2.0160562915986044e-001 1.4008548837361323e-001
      -8.4263059007233077e-002 -2.6511280097995898e-001
      -8.3651718132843292e-002 4.4077959148293523e-002
      4.1638457770730347e-001 -2.0340528835703348e-001
      -1.8444436493292210e-001 2.8559949313635380e-001
      -2.7262834712231226e-001 3.4681588707299865e-001
      -8.9541999793616905e-002 -1.4442487413289454e-001
      -7.1163710649355294e-001 -6.5963847660837016e-002
      5.4622444565718686e-001 -9.8811944064773390e-003
      1.7157608994075185e-001 -2.1483772502708373e-001
      -6.2580192898558762e-002 -1.6483486071540657e-001
      -4.4710387104033029e-002 2.4574658537053440e-001
      -1.4273460793020787e-001 1.3706915812547268e-001
      -1.1858753226216769e-001 1.3963012357542065e-001
      1.0587039987605465e-001 -6.9592023159642649e-002
      1.1525494236565308e-001 -5.7169758464628251e-001
      -1.4125164753668332e-001 2.0980315757290371e-001
      5.7100881547707028e-001 1.6833755231019126e-001
      -2.4198447735106934e-001 -3.9684279794110711e-002
      4.0303721436486679e+000 -2.3505190054164574e-001
      -1.4557037819566093e-001 -4.0055996486359502e-001
      -2.3663651261832089e-001 6.9923353916208963e-002
      5.4661282376122639e-002 8.9290676194883154e-003
      -7.5441066192982709e-001 -9.5517448359029755e-001
      3.0109077132855361e-001 -7.6933633621566511e-001
      -2.3471717241234216e-002 1.7661533585015676e-001
      -2.6454872341870805e-001 -3.6620637954906360e-002
      7.1664819128592957e-003 -1.1085070541919789e-001
      -1.5497742538245323e-002 7.0820995260120395e-002
      -7.3825159989465927e-002 -1.4764811654074892e+000
      4.2818994645373709e-001 -4.3960625639297268e-003
      -6.0441926891529274e-001 -5.0221583585110297e-001
      -1.4112237850550353e+000 1.3640543888300101e+000
      5.5137096077011205e-001 -1.6241082159116896e-001
      1.2894183707013092e+000 -1.9548297565207529e+000
      1.7896857392813290e+000 1.8952001858418315e+000
      -6.1989383563060929e-001 9.1270980068935870e-001</_>
    <_>
      -5.0433330999280906e-003 -2.6460552283483927e+000
      -3.9380553245929689e-001 -5.5164487489351177e-001
      2.1360902463079099e+000 6.1479150499692525e-001
      2.9635356671147739e-001 1.2904988243147963e+000
      -1.8322039883868544e+000 2.5834070271008138e+000
      2.0587529430427480e+000 1.1071091741807537e+000
      1.5415848764072053e+000 -9.4589199797662782e-001
      -4.2167384887804603e-002 -1.4484838975696164e+000
      4.3972004323643454e-001 -3.9068942073441870e-001
      -5.9669361341999394e-001 -5.1003647389428663e-001
      -1.8790945631313567e+000 -1.1338283373424055e-001
      1.2255458650031123e-001 2.3619399890507924e+000
      -9.1853285996269762e-001 -6.1173631918655651e-002
      -2.8829074023972590e-001 5.2929242891844486e-001
      4.1020301503409573e-001 1.9296294634434781e+000
      -1.6794604879453004e-001 1.0143356135557138e+000
      -2.1014345663162057e+000 4.1341477908496732e-001
      -1.9845927333767206e+000 6.7233763880402653e-001
      -2.9810687439960237e-001 -1.2276058965170136e+000
      3.6948270521975607e-001 6.8349674778337799e-001
      -2.9665274617836199e+000 -8.3458836368806832e-001
      -1.3433823965712559e+000 2.5117376047272075e+000
      -1.9151957724930155e+000 -1.1307172025586757e-002
      4.4104483464015692e-001 -1.8342036889760289e+000
      4.2011278493147175e-001 -1.8750678698013310e+000
      3.6662708986576920e-001 1.5384925709173045e-001
      -1.0002768398554693e-001 8.1079386366194506e-001
      -2.9977171087092533e+000 2.8442986095074652e+000
      5.4479076319929587e-001 1.3791192135975046e+000
      -7.8884909441973772e-001 -1.5193555121506450e+000
      6.8959518194426042e-002 -1.9583070388978774e+000
      -8.6379946128061003e-001 -1.8441657992635856e+000
      1.0126247378059356e+000 -5.1332777311166178e-001
      1.8572402098714902e+000 -9.2763891871396176e-001
      -2.1733978595151466e+000 -1.6909803804443280e+000
      2.1058192776353393e-001 5.3913710533634751e-001
      -1.3111347987880038e+000 -1.7414077415703106e+000
      1.0985800816763442e+000 1.3628372717191140e+000
      5.9550207628667495e-001 7.1859506508941884e-001
      -7.2070615427848284e-001 -1.4486562649909274e+000
      7.9231197727631486e-001 9.4746392978890726e-001
      -2.2690914632552972e+000 4.5075524782000836e-001
      -2.6032686830587185e-002 -1.6040564670171156e+000
      1.7315532457986771e+000 -1.7967279957082027e+000
      -3.1398145659044752e+000 5.5313078820788775e-001
      -9.7651735707184306e-001 -2.5897566900567637e-001
      8.6446635577718622e-001 -2.0980299648724179e+000
      9.6188177461440583e-001 1.9936963569985308e-001
      -1.9426902115078599e+000 1.2553110939916814e+000
      1.5762247236523044e+000 -1.1321159478554232e+000
      1.5693919557911735e+000 -6.9610711621016286e-001
      -8.0799136332758770e-001 4.7328291540361128e-001
      -4.7858084935632228e-001 2.2876698672586882e+000
      1.7290895967438240e+000 -1.4180851121081277e+000
      -1.6076146890138410e+000 3.3299505097699572e-001
      -1.7511871797328034e+000 -5.0536068788969413e-001
      1.8778088809185796e+000 2.4623117237906822e+000
      6.6903157914461242e-001 1.9266460345767424e+000
      7.0904672761726184e-001 3.7953871964786934e-001
      -5.3496005576285970e-002 2.5170566563028727e+000
      -3.9433507473786295e-001 -2.0427397318224991e+000
      1.3310587382319927e+000 -6.9073940149752977e-001
      -3.4780417976471345e-001 -1.2090285606072535e+000
      -1.2882916799677762e+000 -8.9407390068183556e-001
      -1.3084757559362061e+000 1.8736830477956939e-001
      -9.6082953650341663e-001 -9.6689748389777619e-001
      -1.7167637777894988e+000 1.5026218244924325e+000
      2.2948986271771248e+000 2.2949314671755898e+000
      -7.0320032365541518e-002 -1.0014691738671608e+000
      3.4001903454617965e-001 1.9696854939148539e-001
      -1.9081597198706466e+000 1.2145016828733828e+000
      -1.5974687287417863e-001 -6.6945711046658729e-001
      -9.7269432824645030e-001 3.1733633778551831e-002
      1.4981672987226125e-001 1.0750261044837772e+000
      6.0766643781742824e-001 -3.0008889968057471e+000
      -1.7177243043714101e+000 2.0034243005727728e+000
      7.1138663810316671e-001 -8.2454916140813694e-001
      -1.0104508554547307e+000 5.2229604428322840e-001
      1.4380152968321069e-002 -1.2693954690623104e+000
      9.1496281195251516e-001 1.1849472983801690e+000
      1.2464389494362600e+000 7.6516598527737212e-001
      -1.7687083911792723e+000 1.9242978109567523e+000
      -1.1239918667896973e+000 1.1570576512714026e+000
      3.1359979575267932e-001 -1.9760653143240090e+000
      5.5087851428981893e-001 1.1585228310490354e+000
      1.3415965968900190e+000 -6.7608974890944384e-001
      -2.4448010363718233e+000 4.0054599055284601e-001
      -9.0729928596638554e-001 -6.1062009911872839e-001
      7.1256791321787449e-001 1.5800722666346094e+000
      8.2250344897980082e-002 1.4276092333437437e-001
      -3.4465502839474665e-001 2.0447443617486440e+000
      -5.6980217883600826e-001 -1.4905994978370390e-001
      2.3365837661125295e+000 6.2359311993615621e-002
      3.7239601481132238e+000 4.2090275255859166e-001
      8.5608952157232257e-002 4.3133065603323123e-001
      1.2161963533790555e-001 2.6429550995288378e+000
      -2.4166267050443985e-001 -1.2529186653318682e+000
      -9.1700408736568206e-001 -3.4197158652780735e-001
      -1.9045750042619172e+000 1.9409061209011955e+000
      -5.8617110334766909e-001 -1.4982731927446697e+000
      -1.1923215816580210e+000 4.9011516010519823e-001
      1.2078729992403983e+000 -8.6101465399879618e-002
      4.5301103093861295e-001 2.0028107090299546e-001
      -2.2463602936639884e+000 1.0201033815081376e-001
      -1.5336506949298543e+000 7.3835861081168619e-001
      4.9432091575537235e-001 -4.3982786105884075e-001
      1.3819636830240285e+000 5.6438279542925823e-002
      -3.7227573038322217e+000 -1.9087358656896689e-001
      3.2267904191783636e-001 -1.5230034607057380e-001
      9.0698244390350991e-001 8.9643758836232337e-003
      -1.6920278916979521e+000 -1.5747524388516434e+000
      -9.2487523505775493e-001 1.4249084251285926e-001
      -1.4022096551774601e+000 -1.1311899558080967e+000
      3.5496960416339518e-001 -1.2438367216736155e+000
      -7.0521530192019111e-001 -1.9607130119283196e+000
      -1.4507307980638884e+000 -1.6423469517773004e+000
      2.5913100047443743e-001 1.1455395732350093e+000
      -2.8246489107835396e-004 -4.5143689770282977e-002
      9.0860895439874723e-001 -9.4434217341086080e-001
      -2.0449977601583917e+000 -1.3786204108810307e+000
      -2.9725084192571600e+000 -2.5259444930662900e+000
      7.6474717454665175e-001 -1.6426488809170017e+000
      -2.5483720951591715e-001 7.6195582493745939e-001
      1.0619634231776012e+000 -1.6220782348870939e+000
      -7.7337945004441369e-002 -6.4972390169018757e-001
      -2.3663697626585023e-001 -8.5073439927013961e-001
      1.3940530529873323e+000 -2.0792472731979823e-002
      1.7655165611648724e-001 -2.8379602083276874e+000
      -2.3492050979633898e+000 6.0318808081921349e-001
      -2.4557594338104433e-001 -7.3672770778758567e-001
      9.0742546902465471e-001 4.8794586995526323e-001
      1.5528596599577213e+000 7.2439706652226898e-001
      3.7199943378677064e-001 -9.0213082242414211e-001
      3.4508842354833347e-001 -1.0732343224172980e+000
      1.4464955603878002e+000 -1.8604799186878796e-003
      5.2932550115358112e-001 1.3866854423431645e+000
      3.2441721576846710e-001 -1.3585481414681986e+000
      2.0763920733652283e-001 1.9506319048125256e+000
      7.1479142258399497e-001 1.4707053626271607e+000
      1.2728369237123538e+000 -9.1194797837688146e-001
      -5.9357546624274704e-001 -2.8093922024863911e+000
      4.6695738459715674e-001 1.6218222838854697e+000
      1.1984105434059906e+000 -2.7071680394126635e-002
      1.6048270721633384e+000 -1.3255652522515389e+000
      7.4500449967337290e-001 5.0014917169638862e-001
      8.0681616183911520e-001 -1.7044367541967176e+000
      2.7339087705025528e-001 -1.1971995835259797e-001
      9.5266167205336627e-001 7.1728452873038440e-001
      1.5143327536993512e-001 -1.4041183753727549e+000
